69 50
C7H15NO3+H+ -0.6819023 -5.65972 -3.6628132 0.42257476 2.3883052 -2.187192 0.38562167 -2.5613248 1.4380031 1.3774033 0.5078294 -3.0122042 -1.6082797 -1.9026418 1.9219867 -2.536941 -2.675912 0.24237476 1.7384257 -4.8037095 -2.370282 -1.3855221 2.0425935 -3.3769271 -0.23304926 0.5755876 -0.53094757 2.2700102 -4.9138117 1.5389937 1.176273 0.41991884 1.8807893 1.967422 0.20154679 4.6315856 3.018861 0.2731489 -2.1394424 2.2335927 -0.57410264 3.4738884 -1.8143564 -4.3127246 2.226283 0.55833167 -1.0484679 -0.6970661 0.09392281 -1.0586772
C15H22N6O5S+H+ -1.8469046 -3.8827891 0.11184601 -2.3136744 3.1803167 -2.5320666 -0.37087113 0.8563008 2.6590655 0.0184082 0.12381343 -2.7187865 1.5766487 -0.44278234 2.278703 1.3044657 -5.6836643 2.6956341 0.6777469 2.1796894 -0.08616601 -0.9690115 2.7523146 -2.2347834 -2.3541677 1.4143866 -1.3626245 2.184433 -3.4289784 -2.637872 1.5882239 -2.8302376 1.5255474 -4.166545 -2.1524446 -2.3117816 5.107638 4.7236996 1.5023636 4.415908 0.9717918 1.4242219 3.846747 -2.7911327 -7.873132 6.15059 -0.049892366 -1.9114493 -0.2710279 -3.4340746
C24H50NO7P+H+ 0.22424896 -0.54584384 0.28179535 0.7333307 0.9371176 -0.26950327 -2.760988 -0.98213476 0.5096047 -2.490353 -0.74050826 -0.3074513 -1.3266922 -5.2930083 1.8985907 0.601146 -2.5001612 -0.06258333 -3.240482 1.4641554 -1.7852722 -1.0000168 0.7196368 -4.820352 -1.6985917 0.641656 0.2280793 2.8101819 0.057856556 1.081089 1.2805707 -0.9821477 0.08453996 -1.105123 -0.21309413 -0.25264496 1.4614798 3.504047 0.92452425 1.620182 -1.5301167 -0.493634 1.5071115 -4.130109 -2.8225842 -0.43441704 -0.11104309 -1.2185546 1.7939981 0.30143028
C4H9N3O2+K+ -0.39504132 0.24643348 -1.9510785 -0.5047157 2.1724985 1.2203583 -3.6699448 -0.9699896 1.105678 0.91286623 1.0910506 0.6182803 2.5080225 -0.49299812 1.2317921 -0.5315403 -3.1575172 3.4078023 -1.9983553 0.18919031 -1.9838252 -2.801614 1.2112583 -2.340656 -1.554652 -0.7858232 4.11075 -1.7411766 0.42809913 0.14875 4.5470104 -0.3247052 2.2169008 -2.8255563 -5.265267 5.7280407 0.67532706 1.5203129 0.5123305 -2.3825765 1.9407412 0.019970087 -0.18102272 -1.070597 0.72226495 -0.4932242 -2.6445704 4.571971 0.5762746 0.9806919
C9H17NO4+H+ -0.7472201 0.07495511 1.6349767 -0.9260393 2.8998005 -1.9248943 -0.20842521 -0.07665072 -2.072905 -5.2013073 -1.600665 -2.1144161 -3.6066613 -1.4877168 3.3291821 2.7712786 -2.4365044 0.1765858 -1.1796328 0.7694406 -1.7843068 -0.5700476 -0.19314878 -3.482603 -1.5468626 0.2267019 -0.4411693 2.5375793 -2.0221746 0.6093693 -2.278556 1.3391385 0.93631166 1.9946276 1.7127432 3.938432 1.6426057 2.864326 4.0754824 5.332005 -0.8489755 2.0286932 -1.2775968 -1.7291719 -5.0532017 3.995907 0.06874281 -1.7812066 0.9092693 -2.0762448
C10H7NO3+H+ 3.476417 1.9469651 -1.0628709 -0.5202175 0.7921642 -2.0592656 1.6636107 0.6723898 -2.119687 -1.9873393 -0.14376551 1.3450015 -1.536923 0.3825695 1.3273008 2.5289078 1.1632546 0.73916125 -0.33813795 -1.0582614 0.1332994 -1.7068201 -0.40111768 -1.9838513 0.34371555 0.065157235 -0.6338348 -1.6436956 1.5630913 1.5243174 1.0249603 0.17698428 0.8213345 2.107341 0.25550735 1.605871 -0.50419176 -1.1444038 -0.37088776 0.39958036 -2.5346334 3.1769617 0.90366685 -2.0710084 1.0122068 1.2130882 -0.5721202 -0.7339848 0.0016255835 -1.6482912
C11H21NO4+H+ 0.36863288 -7.510339 -4.2516823 -1.7474538 8.961912 -8.287683 5.7938504 1.4658476 -2.549793 -1.1482596 0.12150951 -2.0409818 -1.5404649 2.3655019 0.41305256 -3.332306 -3.1190577 4.509101 1.1807945 1.0024279 -1.6298668 -2.7961164 1.2913254 -1.1832782 -1.9590843 2.1265523 -2.0756571 2.8261988 0.14839897 0.09411284 2.91464 3.452415 4.3675222 -1.2092953 0.28846163 5.1433606 1.1240548 7.949503 -0.11109123 3.876505 2.0070453 7.4937143 0.31564406 -0.84523034 -5.792573 2.0713477 -3.3590577 -0.9280366 -1.4997863 -2.0206046
C22H22O7+H+ 1.1591921 -2.2076318 0.4069024 -0.5334829 0.26369706 -1.9437886 0.27316064 -0.5317015 -2.1912148 1.644876 -0.64477724 -1.2008845 -0.011939475 0.9141795 0.9628853 1.4669983 -0.07755423 -0.3155887 2.5836256 -1.6588659 0.40879902 1.1038301 -1.1957395 -2.4979162 -0.77422047 -0.16538687 2.142112 -0.19383293 -0.13920423 -0.7216677 2.1333718 -0.3271531 -1.3239065 -1.397137 2.6362414 -2.1002614 -0.73742 -0.43513438 2.0764453 -2.3219306 0.044016466 1.9062155 1.5729606 -1.9646112 -1.3978277 1.4285634 0.5078905 -1.451546 0.310547 -2.9450948
C10H7NO3+Na+ 1.3948274 -1.7391721 1.2565389 3.5657122 -2.3168557 3.0595329 -1.3806039 -2.361461 -1.9360512 -0.8917871 1.2602199 -3.8194535 -1.8585522 -3.2880945 0.24110427 -3.4641066 -1.7433709 -0.06845725 1.6358827 -1.0608534 -2.3867748 1.7203857 -0.593331 -1.4650745 0.7688245 -1.9794086 1.806579 0.3300023 -1.8140796 -0.2319965 1.2919989 -0.4419738 -2.171644 -1.610501 0.17415534 2.2477198 0.9131963 0.11040718 2.6309934 -4.2613273 1.6567419 0.5694692 -3.8597105 -0.8694864 -0.496426 -3.4257624 0.96553814 2.6534514 -0.75222653 -1.9978433
C8H20NO6P+H+ 1.8408846 -1.4752469 0.37675917 -2.2510312 -0.912999 0.4492134 0.62135047 0.4857571 -0.011294734 0.28131393 0.27370006 4.1952796 -1.2103689 -0.91180414 0.897928 -0.028920706 1.4975566 0.6723566 -1.6060454 0.43090406 -2.4231691 3.597522 1.9026124 1.8962016 0.06249895 -2.3898885 0.73150766 -1.09197 0.89423907 -1.0307171 1.540058 0.0047631213 -3.2703333 -0.15809722 -1.4114857 -2.505154 1.5232021 0.55828786 2.2206912 0.27382594 2.3710895 -0.29988396 -1.0760676 2.6310086 3.5493731 -1.5468187 0.4341752 3.335289 -2.4168026 2.7724202
C10H7NO3+K+ 0.43537068 1.1257086 0.9886987 -0.077074975 -2.068851 -1.9571359 2.1517415 0.540294 -2.2766812 -2.1054707 0.4031798 0.18033485 0.09515507 0.3736596 -0.93113154 -1.2352606 1.9317284 -1.4113499 1.8472483 -0.11115761 1.2446527 -0.74962485 -0.8680999 -0.24472871 -0.57538825 2.133693 -1.6710665 -0.09724184 -0.43814862 1.701643 -0.04594954 -2.5054545 0.9466799 0.6733371 1.6971061 -2.8728254 1.4631361 1.2478868 0.43490973 1.0945585 -0.7419382 1.68315 1.2028846 -1.3634592 0.3657304 2.9409182 3.5239794 -1.3025761 -0.60688204 -0.39749148
C11H20N2O3+H+ -1.3037359 -3.0260708 -1.9038222 -2.8735635 1.1318463 0.9065932 5.031079 3.3349884 0.14559577 0.06129504 0.1534545 -0.5693849 -1.6561834 1.2923204 4.1975822 2.8237534 -1.4351969 0.045029666 -1.2460172 -1.8302187 -2.238539 2.7368257 1.4733955 2.2566159 -2.3739204 0.68988246 -2.9792643 2.2852883 -0.82941234 -1.610639 -0.94274384 4.3538666 -0.7218789 1.2114435 -0.47767693 -0.18652862 4.2259808 3.1251652 0.045811508 4.967937 1.413964 0.114038296 0.86957943 -0.8390198 -1.3908457 0.7415105 -1.6270173 -0.552569 -1.1840155 1.2258202
C8H17NO2+H+ -1.9075099 1.7357901 -2.7321484 -0.3345197 0.025668737 0.106219284 -0.478087 -2.2632692 0.105498426 -1.5887344 0.59152794 1.6182379 1.0555705 0.1859542 0.16449833 -1.744123 -0.7911856 3.2722316 -0.66598743 -1.2799797 -0.946967 -0.96106446 -0.7134702 2.515638 -0.3268614 -1.8964108 -1.5474583 0.16896033 -2.8137908 -0.17493986 0.82807773 -0.7314009 1.535837 2.7363245 -4.1899214 3.5125782 1.0216866 0.03772934 -1.8123411 1.1025305 -0.27254418 -0.21603915 -1.2859236 1.9940565 2.4306338 0.47676364 -1.0485219 1.462899 1.4867345 2.1793103
C10H11NO+Na+ -3.821826 -2.4250963 -0.8752714 -2.0007331 2.9267669 -1.0769615 -1.1937184 -1.4151785 1.3644581 -2.6352754 2.5119703 -3.8335168 1.9341921 1.4653758 2.3867464 -3.5849452 -5.9666376 1.1102083 -0.09134886 0.7357329 -1.8288168 -1.6968462 -0.1045749 0.67523134 -0.5017186 0.43095204 0.70533663 2.4587836 -6.0256352 -0.62055004 0.1703375 0.83179826 1.4689239 -0.1845862 -1.0014629 2.1799033 2.5536451 3.8795593 0.14951223 2.3865535 2.2796457 1.6683029 -2.0216587 -0.4490099 -4.2839146 3.5692315 1.3250872 0.3042429 -0.567326 -1.2550031
C29H47NO4+Na+ 1.0390825 -2.2943854 -1.9435502 -0.14263359 3.2981386 -3.1222136 2.5124228 2.9401152 3.0327942 -4.4548078 1.6497188 0.33537024 0.4874504 -0.69823444 5.1290936 -3.2297308 -4.0456777 3.216861 1.5677861 5.587486 -2.5934544 -2.4626439 1.8303415 -2.614907 -1.1880401 3.3074126 0.582406 -0.31503528 2.2675297 3.2523358 -3.974596 0.9861962 3.0768647 0.8647644 -1.0487584 6.005543 0.81774926 4.7640667 -4.1792192 2.7736814 -0.209007 3.7629867 0.41913307 -1.2219732 -2.3031783 -0.9468566 4.428523 2.3578057 -3.1031399 -2.0687246
C9H20N2O2+H+ -1.7767205 -2.1726086 -0.5693761 -2.9289894 3.3445635 -3.1590767 0.45519987 -1.5372858 0.0017910668 0.24280436 0.83268726 -0.41713554 -0.8826522 4.2571297 -3.840673 -2.352451 -0.6277465 -0.7336595 1.2599078 -0.29079434 -3.6916194 -0.8683162 1.0720581 0.39018977 1.1794419 -2.96936 0.16538657 2.642277 -3.2653477 -1.5269923 1.0959601 0.65992963 3.6699812 0.022016607 1.0140232 0.6284765 0.91516644 2.0321095 2.5713959 2.9514046 0.38256755 2.918757 0.25205106 2.6836684 -1.005711 5.7012773 -1.1264634 -0.48417398 0.17145981 -2.8710356
C7H15NO3+K+ -0.00968154 0.018443651 -0.12221063 -1.8414263 -2.3706546 3.8057878 2.198728 0.83841527 -1.7151871 1.0938597 1.7471329 -1.9033357 -1.9205586 1.036681 0.26688477 1.8389449 -0.3963864 -1.6296997 2.562225 -1.0293887 -0.53999794 1.3704135 0.43264732 -0.026968235 0.29783618 -2.8887303 -0.28499338 -0.028874595 -3.317911 -1.636596 -2.0626569 1.141647 -0.87014025 1.1192608 -0.6101098 0.46353078 1.2982639 -1.6163727 0.9258349 2.3302732 1.1998088 0.51223415 -0.7727318 0.54849035 -0.4098072 3.515582 0.4742128 -0.10832634 -1.9865385 -3.3369026
C26H50NO7P+H+ -0.58561546 -1.5656605 -0.72539806 -0.87886214 0.8272381 -1.1672606 1.5440851 -0.4536479 0.19290541 2.3316772 -0.0695006 -3.1264324 0.7342134 1.3026454 -0.932363 0.24099734 -0.20379798 -1.2770455 2.2354035 -1.8469996 0.7643724 -0.44301927 0.88907135 -2.2477996 -1.1841769 1.1191925 -2.2358613 -0.17432578 -2.7012467 0.23757437 -1.1371276 -1.0904964 3.51722 1.4032294 1.0396203 -0.116415545 1.7474931 -1.0744282 0.4897053 1.8761082 -1.0376928 2.436596 0.65000707 -1.4014881 -0.6747193 3.3664038 -0.08582541 -2.527021 0.049921714 -2.3905451
C13H17NO3+Na+ 0.35875505 1.4221792 -0.6490371 1.1737626 -1.8825151 2.0041711 2.3412647 2.052562 -3.1015992 -0.8356954 0.73086053 -1.5335059 2.012833 0.0060798037 -1.1587951 1.4997804 -0.019477678 0.6015834 1.5854329 0.46122643 1.8651527 3.1563385 -1.499499 -0.5435141 -0.5744907 -0.30098358 -2.0658078 -1.0022615 1.1674378 -2.3744214 -0.7015899 2.738463 -0.7396984 -1.2513847 -0.443323 0.40017137 -0.6054889 -1.540536 -1.627707 -0.283709 0.12998345 2.4562814 0.22831675 0.09776434 3.0560026 -0.4615709 0.664598 1.3295618 -3.4177783 0.03783687
C10H16N4O3+H+ -2.9440782 0.055414405 -0.36094683 0.092959136 1.6913596 3.7422307 1.4053545 -2.6354108 -1.4526541 -3.3746943 3.180736 -2.082575 0.628065 1.1847347 -1.6595494 -1.8932731 -5.282487 4.2800264 0.46243495 3.308533 -3.1666481 1.1283783 -0.8769615 2.3411412 0.27886504 -2.3845344 -2.2987251 1.7021278 -4.3392873 -2.9017289 0.8021985 0.34316802 2.8818882 -2.0797539 -2.692513 1.9437841 1.8391626 4.6979313 1.9574484 2.0928063 3.18517 -1.2083207 1.0495986 5.853024 -4.477875 3.009864 -1.9474291 -0.51789016 1.0669459 -1.5775533
C8H20NO6P+K+ -4.107867 2.8409529 1.1850243 -2.007788 1.2507704 -1.5556664 0.85476506 -0.10623835 5.891287 0.05317876 -1.8431525 1.6660544 -1.0302858 2.8927956 6.910718 5.6803703 -3.2252944 3.6635425 -5.750741 -1.5083979 1.2445256 0.003259759 -2.4198854 1.1960688 0.709066 0.67877436 -3.087255 2.4888124 0.5585137 3.6870513 0.90706486 3.7379813 -3.4964972 2.658495 -1.4359369 -2.2916522 1.9322909 2.5224662 -1.5269358 3.560099 0.34319687 1.8460542 0.75035596 -0.28605875 -8.536826 2.0124936 0.06867598 -4.340303 4.665424 -0.28804538
C26H52NO6P+H+ -1.3632756 3.3190358 -1.3950269 -1.1357689 -4.3807836 -1.067807 -1.1783305 2.2166972 -2.8359697 -1.398755 -2.0647135 -1.7049108 3.487622 0.7421421 -4.383553 -0.78539515 2.300198 -0.7588644 3.086281 -0.44025925 0.7657313 -0.4525059 -2.0647209 -1.3827757 -3.6852167 -0.97017944 0.335385 1.1376697 3.8795137 -3.6319244 -0.27746168 -3.6691058 5.8538504 -0.7755272 -2.4577222 1.664762 -0.8690949 -0.68818545 3.0604854 -1.6526531 -0.23707925 1.0431485 -0.7187961 -2.2710905 4.0416245 2.18901 0.75733256 2.9633057 -1.1796182 1.0959225
C10H19NO4+H+ 0.17534056 -1.3388425 -2.5681157 -1.2624929 0.94343704 0.873511 1.4441503 -0.35066977 -1.7805599 -0.70442975 2.2800665 -1.4971141 0.22690418 0.13319108 -1.3340014 -2.264684 -1.7957325 0.5454766 0.1623463 0.892752 -1.3549473 -2.5337076 0.14290701 -1.8247418 -0.31040362 -0.5466125 1.0832685 1.3545814 -1.0459948 0.059550703 -0.19565652 2.5601976 1.4277605 0.08801265 -0.088782646 3.4755347 -0.66677946 3.5588937 -1.6104474 2.2624052 1.1949589 1.5996902 -0.6609682 -0.47215235 0.8752669 1.1727244 -0.71413875 1.6622121 -2.8471346 -0.26847777
C8H20NO6P+Na+ 1.1048154 4.6357617 0.33414987 0.25038558 3.2672496 -3.2489555 -4.726138 -3.6568441 -0.11519952 -1.513603 1.21509 1.0559334 2.8849366 3.5329542 2.9906886 -2.6770005 -1.0426947 3.6451478 -0.5809227 -1.1546508 0.17248675 -2.8253236 -3.6126373 -2.7795856 -1.8477116 -0.92216897 2.9646373 -0.28354093 -0.55993605 0.48754334 4.316354 -0.4965988 1.4938169 0.73033184 -2.6124938 2.0436378 -2.9327497 -2.1679487 -1.0673642 -2.440884 -2.4875784 2.9417596 -1.8120067 -2.2461772 0.10795242 3.8083162 -0.21618173 -0.40750954 3.8922944 0.8573561
C10H11NO2+Na+ -2.8619978 -0.9582825 -3.0679643 2.0956893 2.71573 0.49269593 0.38197398 2.6144903 0.046887673 -4.8585978 2.2164004 -3.6239564 -0.9373032 2.9977765 1.4465619 -2.9404647 -4.6007166 -0.54997474 -0.3495834 1.8566824 -2.113879 3.681111 -1.6201864 -0.8285237 0.99431586 -0.565737 -1.8007869 -0.4020013 -0.23493773 1.8600255 -0.5058604 -1.132742 -0.008867681 0.7732168 -1.7506287 1.6646197 0.7826386 -4.443053 2.615481 -1.4971066 4.4722304 3.7992291 -4.216481 -3.189999 -0.31559658 -1.6396098 -0.33052748 0.92023623 0.88422805 0.89095527
C37H68O4+H+ 3.2490232 -0.28793493 1.1808374 -5.6392217 1.7769922 -5.2781353 5.1552024 4.9554405 1.2013638 2.0779138 -1.7058492 1.084892 -1.9594047 5.729309 2.876968 1.0155549 -3.270196 1.3919139 -2.5069706 -3.6374068 -0.86113364 4.9029994 6.5803375 -6.316517 -1.3591464 -3.2181497 2.723258 5.0869036 -4.1061993 -2.3663533 -7.245611 -2.5597043 4.43199 4.4200697 -1.9170288 6.342814 8.395999 0.6971255 -0.43937725 -6.7536716 2.221683 1.3856336 5.0198236 4.9613624 -4.504797 4.097855 -2.6350548 3.9393983 -4.776518 -0.82748425
C7H6O4+Na+ 0.13660029 3.790556 1.2751713 -2.1503465 -1.9127427 0.72815627 6.985795 -0.46155003 -2.9653645 -0.6607022 -2.67229 1.2211077 1.818783 4.8366985 0.58705986 2.740822 1.0579158 -3.7003596 -1.7127298 -5.3656435 3.324505 0.77367324 -1.0808877 3.716483 -1.4265621 -0.4831628 1.2367107 0.483761 -3.7728822 -3.212194 4.087455 2.779484 0.4753887 -1.7181025 3.236537 -5.435045 -0.09829339 -1.7225642 2.906571 -1.2791995 -2.9551187 2.6176214 -0.60378695 0.5125295 -4.689871 4.305062 4.7309527 -2.4376917 -2.0435565 -0.4983546
C15H28O4+K+ 1.2787788 1.021958 -0.7842169 -1.0115013 0.8117958 -1.7247546 2.762352 2.0361764 0.9176139 1.150402 0.6250795 1.0911688 1.1187649 -0.048056964 0.6931074 -0.5907716 -1.36052 2.3392918 -0.9210744 0.54704934 1.0073233 -0.41295624 0.17685069 1.0875154 -2.479722 0.9223423 -2.068467 0.47893855 2.715156 -0.23506896 0.7898828 -1.3597484 1.1427715 -1.0231258 -2.8872066 -1.0327964 2.4075918 2.1522865 -0.7527568 0.6533897 0.38556725 1.9306998 1.4612105 -1.8889389 -2.3879235 0.1584518 -0.06707212 -1.8180625 -0.49698326 0.6508691
C35H66O4+H+ 4.9452004 -3.2335174 -7.163789 -3.8205533 0.38916022 -6.9938855 7.3834143 1.8575156 4.293283 -2.4240806 4.3864446 -0.5622852 3.9846294 0.13160601 9.899565 -3.319789 -7.995179 1.0071115 2.945598 -3.1801686 0.5216263 0.35860074 -0.118662134 5.1433387 -0.6469174 1.0026169 0.5092347 1.1249197 -2.3246036 3.0779166 -4.933311 0.17983635 2.3758469 4.0443425 -4.160223 6.201123 5.7475963 2.7439554 -5.6942387 -2.379765 -2.2365308 8.744846 -4.368529 -2.1759326 -1.5103972 -2.720088 2.768766 -1.5345049 -5.6450386 -0.65631264
C7H6O4+H+ 2.0522752 -3.06395 -1.8007852 1.9398463 2.9466689 1.6378686 1.2652984 -1.7335931 0.5215963 -4.113108 1.7901675 -2.5616846 2.4080389 -3.680243 -1.8927981 1.3078607 -3.5273218 0.9086949 -0.8147536 0.3381505 -2.985804 -1.8142884 0.7522945 -0.42097935 5.3896284 3.2015717 -0.41551548 -2.0212367 1.4752921 1.0588486 3.4158912 -2.009801 -0.28202856 -3.8404443 2.4226627 2.7535086 -1.9114982 0.71885973 -1.0950284 2.2351496 2.3809626 -0.4882311 -1.8697366 -2.6657586 -0.48041403 -0.03978111 -0.123690754 -0.4327199 -1.190934 -2.1305761
C22H24N2O2+H+ 0.13995239 -0.5637914 -1.1535323 3.012355 3.0780125 -0.014251895 3.1158323 2.365021 -2.5652626 -3.5986009 1.3038636 0.8552465 -3.1000392 1.02269 0.42285213 -2.5409727 1.1156397 -0.7786472 3.8454635 -1.61421 -2.6988232 1.6058592 2.5700095 3.014202 1.0043573 1.9702963 -0.66364276 -1.9203688 -0.16219273 -0.70119 3.3242276 1.9780889 -0.12337909 -2.9737601 -1.0659314 -0.44198403 0.0953499 1.1089276 0.37901235 3.0952396 2.8331583 -1.9834237 -3.3232572 0.48074287 -5.0770736 -0.83218 2.1701066 -3.3417513 0.637114 -3.0743883
C18H24O3+Na+ -2.110388 2.8609688 1.9426811 -0.784355 -0.60057145 0.36995095 0.12580803 -1.4158931 0.29660603 -1.2124935 -1.1241707 0.6001306 -1.4797564 2.2013783 -2.5494444 0.13939528 1.0752194 1.6400511 -0.2545107 -0.6446939 0.030016983 -1.5825263 -1.0690367 -1.5509099 1.0442674 0.4198204 1.050796 1.4419718 1.8254261 2.3756287 -0.032140702 1.2309229 0.5818846 1.5733817 -0.034054108 3.1843123 -0.8058635 1.9629096 0.39087132 2.5872731 3.0864139 0.30478528 -3.3822908 1.6477565 0.018051282 1.9340283 -0.17677996 0.919288 -1.1396729 -0.0075825215
C13H8F2O3+Na+ -1.1504731 -2.9431088 -0.5432026 0.11610231 4.3568482 0.7449735 7.4009323 0.06616077 -4.3466983 -5.306975 3.4520864 -1.2471752 -1.1045525 0.7094585 -1.8584266 -1.3902193 -2.4396155 0.11546398 5.980724 7.0292315 -0.064140126 3.2707782 -1.8970346 0.05448166 -1.7199318 3.0315819 -4.375601 -3.1981268 0.16208021 -4.442028 0.8474043 0.9803138 4.314364 -3.9335365 3.0717509 5.4295063 3.4560387 3.3178735 0.8897849 4.107951 3.6226685 3.4155788 0.7534636 1.9169517 -2.1523821 1.8675109 4.066525 0.10036723 -4.1313934 -1.8020262
C23H45NO4+H+ -0.14289623 -0.23062932 0.31404698 1.6293882 -1.3308198 2.9704156 -0.77104104 -3.349166 -0.6128791 -2.7466712 0.74547505 -2.00335 -0.34447426 5.5836844 4.336797 5.605419 -0.88979745 1.4417249 3.6262343 -0.7393586 1.0655733 1.1938522 -1.6334757 -1.7108029 3.0326953 -1.3819917 -0.4776592 -2.874446 -4.4367733 -3.4189534 1.1001542 2.3279443 -2.9972036 -0.841591 3.2839878 -0.1922206 -0.42246208 -2.3661668 1.5690001 -0.2393089 -1.5411267 -0.60956776 1.5716599 2.5989149 -0.84250313 5.900727 -0.75686866 2.1160479 1.5326269 -2.124585
C11H8O5+H+ 5.9327374 -1.2264826 -5.231912 -3.7395597 2.1621869 -7.231242 6.292771 4.676457 2.2751489 -5.679972 1.6655148 4.985202 -0.979811 3.2072496 7.01937 -2.1593158 -4.5930624 2.956301 3.9124682 -0.47070402 1.1463956 1.8868257 3.9463673 3.640303 -2.5251033 1.0581629 1.1299231 -2.2029696 -0.40064558 -2.82864 -4.677427 2.791117 3.8846722 4.3145494 -4.6867604 6.038124 5.3752103 2.8141844 -4.234475 -0.13536647 -2.5959818 4.456684 -1.4325147 3.1862483 -5.883637 -3.4369574 4.141804 1.2839004 -5.490671 -1.7919647
C14H10O6+H+ 2.1974475 -1.845884 -1.5296357 -0.52289647 1.2707242 -4.2061434 -3.2354536 2.536204 0.90384257 -0.9010995 1.3177462 0.73665595 1.0900081 -3.383497 1.9760562 -1.4670675 -5.505381 3.6847441 -0.51365304 -1.4220175 -0.73400205 -3.0825906 1.6542245 -0.31830394 -0.52277786 0.49378613 3.0344288 1.0174412 -0.2046418 3.3470573 -1.2409716 -2.704943 -1.4915029 1.1696066 -6.0803647 2.3712173 0.78440166 2.751716 -2.719302 -1.2122397 -0.05399059 0.37304783 0.73416364 -1.1242627 -1.6079625 -0.24440894 0.016041458 2.336735 0.66813314 0.5031579
C24H32O5+Na+ 0.24166438 -2.0254397 -0.11161574 -1.230654 -0.8391357 -1.0643504 -1.3724164 2.4403343 1.4446124 -0.6594143 1.3678498 0.31261393 -0.49831885 0.53076416 0.7033065 1.4367954 -1.8061626 1.2226992 -0.5161483 0.3298379 -2.372487 1.7904649 0.54656476 -0.22133577 0.22298563 0.6290758 3.2497962 -1.2681243 -1.899151 3.2654827 0.090282574 0.031890992 -0.85411507 -1.0054803 -0.12772661 1.191212 3.1988807 -0.86824137 2.8371675 0.64962935 0.9452394 1.032352 0.73630863 1.1055008 -0.2534734 -2.149331 -1.420395 0.4438562 -1.0731508 0.29676625
C15H10O6+H+ 0.4748222 -2.82003 -4.6731935 -1.4385395 3.9196482 -0.80458695 0.52407557 0.14646323 0.5210343 1.800484 0.27295086 0.64499825 2.3917873 2.3539195 0.829307 -3.4813383 0.80367255 -0.39670718 -0.06895033 -1.8237894 -2.844566 -0.13582803 2.7598505 0.67615527 -1.3483716 0.18012033 1.6029655 -1.9343691 2.6196036 -1.7107352 -0.8847376 5.0258245 0.49893832 1.0953071 -0.49890047 1.2858493 -1.4041514 2.2408586 -0.46625656 -0.90996796 -1.0216651 2.2132235 -2.1362293 -0.36374995 -0.76076597 -4.4031157 1.4270349 0.52572525 -3.12174 -1.6970131
C37H66O4+H+ 1.1927041 1.622463 -1.5355722 2.0708222 0.1371296 -5.959407 7.786836 4.9687505 4.4251704 -4.534352 -0.32700273 1.5979025 -2.0145907 0.48054558 7.036293 0.93783593 -6.183982 2.7221189 2.3561492 1.5969943 0.9560714 -0.6708052 0.40443537 2.8460624 -1.048487 2.360484 -0.8345394 0.9884003 -0.057279535 2.6669316 -3.5143163 0.36935684 4.169138 0.31487387 -1.1523907 8.748188 7.364216 1.5594941 -2.869849 2.1475534 0.9873922 3.7163305 -1.0261958 -0.41909507 -5.460227 0.45869 4.4992614 -1.5124365 -0.4288578 0.06252673
C10H14N5O7P+H+ 3.0914018 -1.1171128 -4.3102546 -2.9508626 2.8635774 -3.4670122 7.2834706 4.2854977 -0.32685256 0.21870208 3.5493028 0.747711 2.852206 3.931448 5.562519 0.95697343 -1.9872189 1.3245244 0.8342656 -0.6970913 0.804539 -2.1305544 -0.55734384 2.875149 0.44634628 0.36590576 2.649161 -0.74581635 1.110086 4.474494 -0.9231866 2.2742012 -1.085705 -0.20954385 1.0150961 2.6544826 -1.6485498 -0.21892822 -0.0514233 -0.37628168 1.2603009 2.4530325 -3.2680233 -1.70703 -0.39779153 0.73879796 -0.24237323 -4.2604165 -4.3043222 -0.95094234
C10H15N5O10P2+H+ 1.0036892 0.25475234 0.58939046 1.3703178 1.7842615 -0.17335242 -7.5577364 -0.949122 -0.535273 2.4245827 0.26124877 2.3027844 -4.255658 -1.8710605 -4.5606823 -2.7589698 0.5243075 0.29085013 -3.5061018 -1.1754583 -0.44889295 2.802675 1.393225 -2.0273528 2.0674984 -2.7589746 -0.10057344 -1.8139962 -4.174362 -3.710808 2.8077183 -2.9090815 -1.7097481 -1.3327287 -6.5809083 -4.209599 1.332453 -5.2946954 0.41717753 -1.7149075 3.3896244 -1.9932883 2.1557202 4.0312357 -4.3291116 2.5335007 -1.5035863 -1.8673856 5.4739733 4.7992206
C15H16O9S+K+ 0.26863474 -4.7207537 -1.8143605 0.99073756 1.5175781 0.70370716 -0.54983366 -0.14446537 -0.56290466 3.3017497 1.2997864 -2.0543926 0.38648146 -4.5816126 -0.96024525 -2.1760325 -2.283212 -0.8722331 -0.9992133 1.6606845 -0.03598949 0.33606666 1.3059654 -1.7123065 -0.6351006 -1.0290979 0.27669704 0.3711746 -2.0240588 -0.5202369 0.17597952 0.10482048 -0.088653594 -2.5922835 -0.64379555 0.30138907 0.2368761 0.826348 -0.5556926 -1.5675014 0.5865293 0.6575375 1.8245391 -0.83134 -1.394847 -1.9613174 -0.08571725 -0.6223603 -0.23029393 -0.38043496
C12H20N2O3+H+ -0.039258063 2.7995205 -2.052754 5.013553 1.6571425 -0.3689436 1.1231873 -1.2467046 -3.117792 0.32945523 -1.0579306 -0.989596 -1.2566625 -0.9792866 -2.1667345 -2.2968402 0.158833 0.6140152 0.76815563 -1.902334 1.543718 0.74445856 -2.1664457 -0.88113374 0.8667715 0.021098712 -4.0790467 -2.3115413 1.7678235 -2.0438838 0.06281518 1.6538528 -0.8970914 -0.9440236 0.29740798 -0.5235814 -2.4585578 -0.6399079 -0.9811322 0.7848384 -0.38681793 3.0340476 0.044738483 0.56749547 -0.41494125 -0.89693344 2.1792374 -1.6263248 1.7395914 2.9655373
C25H49NO4+H+ -1.5236468 1.9743028 -1.0788577 -2.0416825 -3.5479534 4.3771796 2.669796 2.0646331 -1.1015854 -1.9909672 1.6823808 0.35016775 2.0890198 -1.9853938 0.9478484 1.7815441 -2.8209848 3.418874 -0.016251227 0.30522716 -0.65363437 3.1498425 0.031196598 0.11331333 -2.567557 -0.77735984 -2.0933447 2.1207345 0.58610684 -3.0502508 1.652627 -0.6469112 0.6496611 -2.3830354 -5.764755 -0.5098552 3.573223 3.0629675 -0.3983868 2.3020074 3.3908525 -0.692674 1.782973 -0.7919521 0.9863694 1.8729573 0.022257283 0.7889634 -2.6704373 0.94407463
C9H14N4O3+K+ -3.4167252 2.8716514 2.287397 3.039715 -6.247923 5.612272 -3.0164943 -2.5625362 0.23801267 1.1218618 -0.46245724 -5.7302527 3.836857 1.5132154 -4.678633 -0.4709678 1.0301266 -4.2750463 5.7055397 -0.69567627 3.035185 -1.3713616 -2.3818135 0.06353644 -0.0036514883 3.418146 0.6097662 -1.6098968 -2.729482 0.041032594 -3.6614704 -4.622094 2.3759162 0.5187599 3.648117 -3.3128393 -1.6299082 -3.604065 -0.27450132 -3.0255265 -0.7117598 -6.5917025 -0.29587752 0.34931296 1.1620388 -0.44229773 1.8451266 -1.0898438 1.2140911 -1.5872794
C26H52NO7P+H+ -3.2629743 -0.35866606 3.1279263 -3.3170984 0.14582646 -0.86727613 -3.4159694 -1.7317102 -1.5342448 -1.5515164 -2.253897 -1.9277381 -0.60308725 -2.2690115 -0.30128583 1.290631 2.8499184 -0.57178867 1.319202 -0.35529518 -0.61492795 -0.39875227 -1.7172377 1.075535 -0.18107544 3.1109202 -0.77311236 -1.5571115 -1.2716303 -2.6755974 0.1567284 -0.7130989 1.7770591 1.2971078 0.25754598 -0.7210966 -2.9095 0.46611473 -1.914985 0.7171294 0.76478994 -1.3607581 2.6193345 1.0602393 0.6567084 1.6503032 1.1024683 -2.1332235 0.32391798 -2.7954323
C24H50NO7P+K+ -4.6484942 2.0629156 0.75816685 1.7319784 -4.531582 4.0425863 -1.0498825 -0.30294773 0.17325866 -0.5268115 -1.7175982 -3.4987235 2.6961403 -3.275841 1.0194473 1.5265151 -3.4844208 0.8712805 0.7575326 -3.2917252 1.1159775 0.7932238 -1.2086267 -1.5709664 -3.5324688 2.8121824 0.408896 2.7717063 -1.9663982 0.61021787 -0.9705528 -1.2994308 -1.4136728 -0.48058254 -2.1083448 -0.13220827 3.9822624 1.8748103 -2.490686 0.8297245 1.3778721 -2.6203995 0.1644073 -4.6955795 0.81438035 -0.6972386 1.9258305 0.08531846 -1.290027 0.2342944
C17H14O10+H+ -1.240908 -2.4345355 0.6224255 0.47237262 2.9043784 -0.0662782 -0.7528777 -1.4360408 0.27608964 0.2669433 0.4217844 -1.5103701 -0.55692476 -0.8392284 -0.33222482 -0.7403446 -2.1028547 1.0116041 1.0962558 0.70041394 0.3930112 -0.09471991 1.0928104 -0.15755397 0.87852937 0.5324036 -0.3965012 0.39569336 -4.393237 -0.8516955 -1.211787 -0.8016623 -0.07324849 -0.046119045 0.2998671 0.27066454 0.51452017 -0.7438896 -1.565799 1.964836 0.54031295 -1.0888783 0.9865385 1.2591645 -1.6436677 2.1102917 0.017880697 -2.093184 0.25273225 -1.6873332
C10H16N5O13P3+H+ -1.5596828 1.3246377 3.9229927 -1.9720051 3.1132448 -1.1000267 2.4453285 2.4110303 0.07889322 -1.6057519 -2.089703 -1.0390868 -0.28797096 -0.91947544 -0.43038014 2.5508776 -1.6753417 1.8863184 -3.0608408 2.769114 -1.1145158 -0.15291041 0.13401529 -4.8390183 -0.40542522 2.5568724 -2.3442802 3.0310411 3.430405 -3.4993396 0.79272294 1.5374893 3.971831 -3.0189328 2.971647 5.722419 -0.037394013 3.2514877 -0.18697241 1.6201545 1.8044269 1.9386675 4.7489867 -1.6994529 -2.8663225 2.9110281 0.061242133 1.4650958 -0.818684 -0.18300724
C9H14N4O3+H+ -1.4024286 -1.4363755 0.6940233 3.426526 2.3240097 -1.0080999 3.0349674 3.407784 -1.1182227 -2.826336 0.127148 0.9435964 -5.3596964 -2.6619368 1.9376658 -0.5732029 -2.1853473 5.3839145 1.7818589 3.2567937 -0.108962715 1.8830384 -0.9316206 1.087225 1.4755518 2.4689605 -0.23693073 -1.553294 2.8261032 0.22553493 2.1367183 0.14844696 0.17714141 -4.5295315 -1.767557 3.723818 2.2764442 2.8296516 0.042935155 0.7923708 5.257388 0.21636464 3.4356627 1.0342445 -7.41286 -2.4029996 0.5343648 -1.8793901 2.6701138 -2.6050994
C11H21NO5+H+ 3.2631493 -3.5312324 -1.8543243 -0.17255573 0.08384805 0.7822113 2.0521927 -0.34606937 -1.4942787 3.7791467 2.187342 -3.5875318 -0.97357494 2.4997683 -0.9290983 -0.26484555 1.3886093 -3.2633688 4.073717 -0.3533817 1.0692058 -2.8651192 0.50204647 0.20357446 2.601065 -0.9513376 1.2466213 -2.6732647 -1.2319643 -0.026177898 -1.9657632 -0.09558461 1.9837054 0.28447184 4.3408628 2.3714144 -3.9493904 -2.2637322 2.2331982 -3.0446606 -0.7994293 -0.299627 -0.27283967 1.3703525 -2.2300541 0.13740206 -2.204591 -1.2924738 0.7428909 -3.9681015
C9H15N3O2+H+ 5.5028043 1.2343493 -1.728251 0.30174 0.19334592 0.7847437 -0.9144127 -1.1607617 1.2294451 -0.90757024 4.238027 -2.6497605 -3.3590076 2.1997516 -0.4582175 -2.3133984 -1.3068924 0.22132789 -0.38854495 -6.9604564 -1.754738 2.8708615 -0.44247583 1.571958 5.079173 -2.6186297 -0.7295517 -0.07972751 -0.6876304 -5.2311196 5.4758625 0.20556913 -4.6093287 -2.592927 -2.803434 -6.4485736 -3.3034258 -3.285089 -2.0205483 -0.45276144 1.5982792 -1.4363784 -1.3430444 -2.2433443 -1.9366395 0.7749377 -3.7951624 -4.5859504 0.53647286 -0.39417487
C25H47NO4+H+ -0.2895638 1.4987315 0.49070612 0.36247987 2.7381542 0.38386753 0.28570935 0.3800874 -3.487827 0.948927 0.6619464 -1.5012442 -1.1217334 2.5992353 0.5377967 -3.1670868 1.0271125 -0.7115838 0.42268014 -0.71826494 -0.29132703 -0.87504786 -2.23958 0.74718326 -3.6441462 1.448321 1.5494361 -3.4556038 -1.3620042 3.417274 0.06961122 3.9333143 -0.08752306 4.2932115 -1.3293321 3.2887738 -0.80065405 -1.9037575 -0.98152333 0.049487296 2.1725674 1.9985371 -6.667913 0.12941344 -0.35348836 -2.5883226 0.23711148 1.7789145 -0.114330515 0.7743748
C6H12O6+K+ 2.212574 -6.981754 -2.7931066 -0.85066444 10.074811 -7.9852724 0.5689505 0.7094663 -0.23021078 -12.400084 2.3571987 3.4908707 -3.6567447 -5.6966205 10.330173 -2.8956537 -6.830745 5.003179 -3.2229102 2.7745702 -4.3441854 -3.8100588 5.2883625 1.7973619 4.525338 2.8416855 2.758833 1.2958064 -5.213766 2.876708 0.44953844 0.36632732 -1.0038236 -0.26434544 -0.0059334133 11.74779 1.7162424 6.676995 -2.9932163 4.3277416 0.12309967 2.9160352 -0.16137232 -0.68580306 0.037969656 -0.42257434 0.75644493 3.2188377 -2.7612152 0.6773984
C28H33O14+Na+ -0.9915586 4.9820595 0.7224683 -2.7055051 0.100775525 -3.3272178 -1.7355305 0.5651974 -1.955361 -4.108973 1.8165052 -1.8270949 3.6989272 3.571891 2.2848256 -3.1696837 -2.1243842 5.106068 -0.21258138 2.8591452 2.1933534 -1.7377936 -5.996681 1.0625112 -1.4712029 -1.3934851 1.3697226 0.05571375 2.0885763 -0.19952299 3.084743 0.83510554 0.20817429 0.23837277 -4.57037 3.216337 -3.6376987 2.1522555 1.9601434 -1.8222929 3.6318774 5.1348696 -6.740156 0.4105639 -7.031886 1.6624382 1.6200277 2.2358484 -0.012111727 -0.7670962
C21H22O5+H+ 3.9628725 1.7287482 2.8779163 -1.2482687 -2.789832 -2.6972868 0.619276 -3.4975615 1.2396861 6.2387996 -2.1177015 3.7984996 0.2754501 -0.32146907 -1.5522516 2.5129237 3.1540263 -0.14509274 2.4514108 -2.837318 3.5157266 -3.836535 -0.458977 3.4662967 -0.3857277 -0.647529 0.855679 -1.2000688 -0.5829252 -3.1487873 -2.0847282 3.292018 -3.34754 0.68183583 3.3205173 0.43983296 -1.4613112 1.1480283 -2.6649454 -0.77233064 -6.169399 -0.05332514 4.497898 4.0702944 0.16099863 1.265215 3.0771685 -0.4922868 -1.5457903 0.863282
C26H30O12+Na+ 5.2678504 6.7469444 -1.4127984 -1.1685225 -2.472665 4.947943 3.7497082 3.471846 -2.9482386 -5.7835884 8.453083 2.3158004 -1.7176648 -5.7891645 6.701898 0.37428275 -5.0195355 -2.444295 -8.212455 1.7335322 -4.8230963 0.008840799 -1.9823359 0.34990454 0.52361214 -3.7726076 -1.4960021 -2.12604 0.991041 5.1319118 1.4704878 0.54029787 2.9349873 0.6195 -4.560878 5.5106096 3.1017776 0.62265086 2.970874 -3.3329053 -1.2369893 5.330512 2.0338306 -2.9519463 0.15129636 -0.69783837 4.1318545 -1.0378522 2.649488 0.6305043
C9H8O4+H+ 2.2262166 -0.687489 2.5972204 0.0106663415 -4.499501 -2.5248282 2.3770282 -0.9754922 6.004056 -0.73039615 -0.88028336 -2.9690557 -0.18656312 -2.1769197 1.4095459 6.686297 -2.576177 3.6656802 -6.1556125 -9.876645 1.7606179 -0.8549477 4.130373 5.057222 13.906006 3.4011183 -3.3872309 -2.2631013 0.2761639 4.032585 4.3428254 -4.6885014 -6.34023 3.570772 3.7578895 -2.6296194 6.3705797 2.5726583 -3.1964958 -7.087711 3.1490655 -4.1006656 2.1902492 -1.1361289 -0.8063015 -6.4037466 -9.647428 4.109198 0.32206404 -6.170145
C12H22O11+Na+ -4.2244473 -1.1032912 -2.7804873 5.5405893 -7.4213424 11.0650625 6.2995386 -3.3757403 4.192187 10.035505 -0.8874184 -5.6911545 -8.199219 -0.9725713 -5.8052654 -0.3805971 2.1236176 -0.17259955 2.435666 -2.8811378 1.2492019 -6.8499966 -1.1808785 -6.2490897 -1.1541275 2.4644232 -6.557719 5.804245 5.6668086 1.7482865 -1.0829259 -1.2995415 7.107025 -0.45185646 0.65204364 1.4166641 3.2867334 6.4114246 -0.5232696 1.9038279 4.1734557 -8.226917 4.9840565 -3.6334064 -9.216715 1.5111383 -5.605288 -7.623668 8.90851 -0.30732247
C21H36O3+H+ 4.149784 0.96707857 -0.112523146 -1.9606187 -2.77654 -0.7035802 6.014382 6.444807 0.7640932 -1.1330726 2.685014 0.6219714 -0.8987755 4.005518 6.0598006 2.3575377 -3.8628814 4.2498994 -1.307199 2.90081 2.989506 -1.5907791 2.0042446 -1.9575481 0.3733466 -2.2480526 -1.0799412 2.9705565 -0.122216426 -0.9913619 1.2079681 2.250898 3.8004947 -1.827363 4.053709 6.9084444 2.4329643 0.28682542 6.633349 -3.2618039 -1.5187508 3.104074 -0.04748788 -2.365191 -4.470162 -2.8013606 -5.445792 2.4273703 0.18613552 -0.537082
C13H13N3+H+ -3.1460056 -6.1647105 -4.6414247 -2.976555 4.7369404 -0.9875049 15.644842 5.020552 7.3584123 -2.8238015 6.1989846 -0.21273755 -0.15605478 4.4845877 9.785383 -0.3772979 2.0203598 -1.6542203 -0.6875056 3.450086 1.6364923 6.1214447 5.206339 8.894267 12.349189 8.7056465 -12.191338 -4.450844 0.9827643 -5.6408315 1.2951928 6.1068754 7.177291 -3.5604198 10.05049 9.307798 9.744558 -0.32940525 -1.8329501 2.5058908 7.51266 7.3443174 1.1449605 1.293639 -8.345496 -5.098875 -0.48087466 -6.3323064 -3.028386 -2.700086
C14H28O7+H+ 3.1657648 -1.0094115 -7.212007 5.0072074 -3.012686 7.803904 -10.65097 -8.038961 -1.863489 1.3705724 5.5937867 -4.3524675 1.3076079 -2.3506155 5.566292 -11.226979 13.713314 -3.48799 -0.024203643 -4.954461 -2.2568758 4.3055253 -8.230272 8.305087 -2.9799972 -3.2204325 -0.39781663 -3.623698 4.388235 -9.265925 9.352805 7.902413 -9.926581 -5.7250295 -4.468591 -23.662783 -19.73528 -3.5969791 -3.8227527 8.267371 -12.4297 -1.4697256 -1.0285608 -8.704278 2.8906841 -4.556855 -2.115811 -10.36642 8.636136 3.153855
C12H22O11+K+ -9.105106 31.987974 43.660973 12.818224 -14.514156 -2.1389449 -33.947075 -0.80966145 -28.167864 -76.80001 -27.298838 -4.9283333 -11.051251 -27.190737 23.323025 31.581087 -3.5562205 4.7426767 14.797001 20.94695 12.095142 -6.1588182 -15.818061 -3.8413384 -1.7746692 37.711956 15.884619 -17.324854 -11.961479 25.713932 -3.4786663 -48.51745 -11.080082 12.206452 8.905652 -11.574759 -7.316989 -1.1400658 24.263655 -2.8140774 0.25063178 -38.197887 -9.270989 -2.2782087 -38.978687 -7.499222 24.712694 -4.058669 17.699549 -25.865963
C15H18O10+Na+ 17.52306 -31.758331 -40.876514 -15.529778 19.741472 -12.665882 40.35468 0.13083355 21.062546 62.050674 20.6062 5.8753095 4.098197 16.430315 -16.131975 -34.886745 3.6206422 9.795628 -16.27002 -25.857254 -4.286801 8.134257 13.778271 13.408693 6.083228 -37.058006 -20.827005 20.097486 13.797561 -30.479235 -5.7596226 31.879185 10.722623 -0.51822037 -13.712081 22.66063 9.376119 -3.3263934 -18.396997 -2.4703338 2.3211312 41.501675 2.3286495 3.7502298 31.515503 7.6341677 -19.130165 -6.369937 -21.362024 22.875494
C47H69O8P+H+ -9.594475 5.4890504 4.5063295 -2.8012953 0.042756353 6.0551524 -13.219549 -6.657407 -6.602583 11.879146 -5.9808016 3.9996283 -1.0947838 3.2750812 -12.2239 8.276168 -5.0136566 -9.363261 -2.2566473 4.1552296 -0.85504663 -7.4385715 -2.5947492 -18.129593 -14.678457 -16.696423 16.608763 12.568377 -12.662418 10.696525 -8.987945 -7.277243 -0.49403223 5.7904596 -2.1744373 11.088216 -1.1682428 -9.310366 14.115602 -8.007311 7.4923596 -12.791942 -5.878019 4.965093 16.018383 17.677216 0.6804925 2.8297234 1.3675519 12.369054
C35H64O4+H+ -7.19788 0.15099007 2.9934344 -1.5581651 1.7394718 7.097356 -8.672687 -3.7533576 -5.330636 16.754143 5.8659883 2.1229885 4.8075104 -10.091438 -20.202696 -3.758468 9.06299 0.80173415 -6.09557 9.253235 1.5240614 -12.063644 -0.5840346 -5.416278 0.9726387 -4.0483027 -8.846087 0.19436221 3.1271768 7.349538 4.6931186 -2.5655527 -4.5482926 -5.327654 0.10503555 -2.9722118 -13.703775 -1.2970899 3.3781831 8.990231 5.2574506 -3.520186 3.0217907 -3.6267054 22.96556 6.6769657 -8.055758 -4.2167196 1.2418406 9.42347
C15H22N2O4+H+ 5.8014984 -0.9718731 -6.148737 2.533573 -2.119423 -1.5413723 13.302794 -4.3024354 0.0700038 1.3307071 7.5892177 -3.5901496 -3.6868012 -4.398767 1.9838712 -12.50245 0.113722965 2.5433216 4.513686 -7.72088 5.7343173 -2.0852747 -4.826887 6.093548 2.1939642 -0.07034948 -10.581704 6.620753 0.2255392 -2.5647078 -9.119193 -12.437056 13.945342 6.749799 -0.9437612 12.898239 2.2900674 -6.2984705 -1.2109269 -5.632394 -0.78275055 1.5399051 0.45516267 -2.147372 1.2014598 5.524433 3.818646 -18.575884 6.7428207 4.7921987
C18H32O16+K+ -4.7691936 -15.49876 -5.600051 -5.380554 14.435819 -6.4375596 -5.526365 6.5588675 -1.8206829 3.762778 6.2727084 3.4001222 9.690965 4.024962 2.443875 -2.6243973 -8.578754 -3.7767634 3.5377827 9.712916 -13.973023 0.36689973 15.00251 -8.174142 -10.132878 0.32833236 8.765606 -3.4823437 -20.432453 8.558964 14.900295 18.924545 -8.1155 -12.421955 -4.919537 -6.4727407 4.4617987 15.112327 -13.102825 22.263588 -2.498384 14.9769535 0.9684856 -1.8222803 9.366473 2.0737429 -3.7729995 23.055822 -14.584231 -3.2587028
C29H40N8O5+H+ 8.698557 -5.011098 -6.4736896 3.0507686 1.6970456 -5.4386168 9.284558 5.1109962 3.2361395 10.43108 1.9930037 5.438413 -9.212086 5.0347 -7.6112213 -2.8738625 -3.4696758 3.5765932 -3.5875394 -5.950295 -0.121214345 5.149292 5.627324 -3.2912219 -2.9100077 -11.55258 -1.6731409 8.682722 8.9705105 -17.8284 -1.4031903 12.147513 4.219297 -5.136859 1.5116365 5.257964 5.475925 -0.6403602 1.5829821 -0.52391434 4.1039333 2.7268996 6.7298646 4.9190373 10.020593 7.1110578 -5.454324 0.37636778 -2.006544 16.06905
