37 100
C7H15NO3+H+ -2.3558986 -1.1375976 -0.06343051 0.499038 -0.57671213 -0.40714717 0.30062535 1.2972338 0.14379044 -0.58688235 0.0911647 -0.6068198 0.6994764 -0.016692972 -0.2624692 0.20277041 -2.0718977 1.3907949 -1.1217898 0.71422035 0.91154027 -0.55734426 -0.9157088 -2.3802204 0.6780511 -0.74681795 0.8404812 -0.3273679 -0.8696458 1.988856 0.12686726 -0.99259496 1.4614214 0.9608293 1.2790513 1.8299471 0.8702349 -0.49333468 0.985903 -0.04680127 0.44157183 -0.5779092 0.32077733 -0.3405423 -0.028297208 0.9754107 3.661377 -0.58007926 1.7004169 0.22893943 0.15997952 0.285437 -0.60265684 1.0949256 0.74394315 0.027021706 -1.2560457 -0.7611967 -0.041689415 0.98744494 0.49968082 -1.1081697 -0.13108632 0.109015524 0.51421523 1.7965544 2.1902618 1.3373624 -0.46768835 0.8368291 0.38318464 -0.095715575 -0.28699422 2.1251974 -0.9573527 -2.669592 -0.69924134 1.7650077 -0.68855834 1.5221546 1.5867333 -0.29216492 0.019987432 0.74591696 0.3023119 1.9755042 0.23961139 -0.007553253 1.7103839 2.5309806 2.7652733 -0.66841084 1.6012233 -1.5170739 0.4547996 -1.3568317 -1.1123766 -0.58100545 -0.46457368 -0.02236302
C15H22N6O5S+H+ 0.22662818 -1.1865674 -0.41811326 0.18272822 0.7706301 -0.6980516 0.62599885 1.1220704 0.109061904 0.84653455 -0.5142953 0.1910493 -0.38134885 -0.98545724 -0.030989768 0.33736753 1.2727896 0.124467626 0.18939945 0.055339802 1.2727236 -0.104074694 0.5242396 -0.9039063 -1.0238376 -0.41330886 1.3364052 -0.07390238 1.5691909 0.5861402 -1.0934643 1.4568728 0.27943677 0.08848792 -0.07630734 0.31596446 0.87126225 -0.04036462 0.5161455 -0.027248137 1.3594298 1.4068922 0.080541484 -0.2213477 0.15008149 -0.1466459 0.6930899 -0.2346189 -0.37949973 -0.2107633 0.60965127 0.48148087 -0.588761 0.38279226 0.28027245 -0.31581908 -0.86301434 -0.3841138 0.76675797 -0.2131037 -0.5358466 0.11194122 -0.5683626 0.3956479 -0.18502297 1.230438 0.9725449 0.6284879 -0.82454455 0.50014126 0.34617332 0.29375648 -0.2066102 -0.5419989 -0.1565978 0.5518392 0.81908745 -0.1279362 -0.72472054 0.7418989 -0.2239983 0.73525935 1.1838995 0.975709 -0.18559848 0.28926972 0.9080193 -0.2892359 0.55750275 0.81650823 0.18257226 0.054145288 0.31216502 -1.1984277 -0.43752196 -1.308274 -0.7370781 -1.2608641 -0.2954579 -0.4576907
C24H50NO7P+H+ -0.29919183 -1.6193037 -0.91282296 -0.32937923 -0.3270553 -0.28631112 -0.5305255 0.86883837 -0.720008 0.15943003 -1.1361612 0.25074267 -0.58116645 -0.6979871 -0.6944606 -0.9806149 1.6829165 -0.65806603 -1.9284343 -0.5483296 1.148338 0.7184285 1.0379092 -1.3203882 -1.6459771 -2.4329898 2.6812165 -0.18086997 1.3320032 0.049659356 -2.4197047 1.6098655 1.1331662 0.06292056 -0.13246037 -1.6929741 -1.2154148 -0.6574391 0.9195178 -0.052000012 0.46352378 -0.07868741 0.050855678 0.7966061 1.2585235 -2.0349903 0.60786146 -0.7218517 0.50394595 -2.64018 1.3000703 0.87654805 -0.13125274 -0.13004331 1.711925 -1.510441 0.58603334 0.43317294 0.5328104 0.12888817 2.4958043 0.77595043 -0.4079471 1.3761562 -0.62418026 1.8862114 0.5559343 -0.03546363 0.6300239 0.16525042 0.25788036 1.6191019 -1.924958 -1.5664752 0.11549264 0.2849722 1.5614817 -2.4014359 -0.888641 1.0839801 -0.7549269 -0.2912128 0.7204575 0.847922 0.85146624 -1.4034843 0.438436 0.95115674 -0.6107428 0.50446934 -0.9652219 -0.5422066 -0.08336307 -1.4969686 1.4611332 -0.5930778 -0.22431685 -0.8694169 0.28645697 -2.4621856
C4H9N3O2+K+ -1.3040284 -0.5804873 0.7414976 -0.12892526 -0.6076313 0.781038 0.6323016 0.8371965 0.0501698 -0.45138043 0.09037944 -1.1310152 0.59522796 -0.085500956 0.1969468 -0.645049 0.23580867 -0.6904494 0.9434501 -0.011468332 0.36566257 -1.1323498 -1.0297734 -1.3437331 -0.79798484 -0.80145746 0.48733708 -0.14833958 -0.7539923 0.5649406 -0.013607807 -0.31923112 0.5196259 -0.0493715 0.6126806 -0.022110138 1.1155952 0.25538468 0.23717271 0.057435982 -0.7731051 -0.846695 0.6170469 -0.82627076 0.046079103 -0.089507245 0.2634587 -0.8117322 0.087426335 -0.1768375 1.1529131 0.11368136 0.061941378 0.20963636 1.1842664 0.76080155 -0.088171974 0.19959083 -0.30540946 -0.17886767 0.4103931 0.000345624 0.16769078 0.8628992 0.58437365 0.2167097 -0.23575391 0.55159277 0.44126773 -0.713574 0.18435091 0.332624 -0.16350023 0.44986522 -0.73251295 -0.7490048 -1.2231132 0.042734355 -0.4544721 0.54420906 0.14211494 0.90299755 0.19808939 0.55102706 1.5173289 0.48741153 0.9488047 -0.24790376 0.08243114 -0.963454 0.6793167 0.34861106 -0.56868887 -1.1940517 0.08942594 0.1334427 -0.46564385 -0.21425097 1.2512153 -0.8390916
C9H17NO4+H+ -1.0327104 -0.34916624 0.5103486 0.13105835 0.5803128 -0.39462814 0.19922107 -0.3342378 0.7754227 0.05636356 1.2635702 -0.24335814 1.2695019 -1.6220409 -0.714397 -0.54498136 0.29217324 0.7967944 0.4593794 1.8585306 0.33152694 -0.14814708 -0.07494376 0.20234406 0.3209221 0.26799476 0.5910216 -0.37911302 0.81052774 -1.1216274 0.98397684 -0.69479513 -0.1752201 0.5308231 -0.08606801 -0.38443023 0.919323 -0.90032107 -0.59474504 0.21084535 -0.3617998 1.6881995 0.031942718 -0.22727308 -0.0040299455 0.079019316 -1.2502786 0.85003155 -0.31551856 1.4552783 -1.3075515 -0.9592064 0.1074959 -0.04154224 -0.89587533 1.7598184 -1.2757704 -0.37555307 -0.5987773 -0.47657913 -0.12878695 -0.2073152 -0.35143736 0.70836174 0.37435454 -0.32996267 -1.489824 0.7438106 -1.1233046 0.51958966 -0.8709899 1.6911232 0.9457789 0.40597162 0.46390384 -0.40363315 0.16104954 0.73729706 -0.43565723 0.15801196 -1.126153 0.3279496 0.7939786 -0.4005164 -0.28082064 0.9648507 -0.1943943 -0.13035782 -1.8767886 -0.94743854 0.35699823 -0.5602294 -0.5025101 0.6326415 -0.057897203 -0.5714967 -1.1799953 0.0043224986 -0.5128764 1.6644783
C11H21NO4+H+ -0.35240886 1.1044517 0.12447707 -0.29740173 0.109239206 -0.04776007 0.4089916 1.8492624 0.20657067 -0.15901004 -0.37358984 -1.6800412 -0.107551895 -0.5912297 -0.20642757 0.32554948 0.12860972 0.8218919 -0.5522615 0.28011653 -0.124146044 0.40883213 -0.13289778 -0.8487243 0.03644532 -0.4584369 1.3600522 -0.1189856 0.35500878 2.7168605 -0.08018368 0.6597005 -0.63724196 0.08672271 0.5200937 0.16361056 0.5780897 0.26767847 1.1628488 -0.41752607 0.22848737 -0.68801314 -0.19512619 0.054054953 0.17668742 0.81213844 2.5372486 0.7625332 1.9064705 -0.8646524 0.70966774 -0.020199543 -0.5209502 0.6364967 1.3539349 0.5474865 -0.22857495 -0.9348788 -0.10722981 0.088126644 -0.2392606 -0.4431475 -0.2378363 1.0656997 -1.748429 -0.18122657 0.90195185 0.9037462 -0.31908396 0.47788584 -0.30513155 -0.80532634 -1.3965486 0.899024 -0.9774049 -0.72685623 -1.1449262 0.5632622 -0.47555435 1.6998489 1.2630568 1.5604337 0.46541575 0.13631715 -0.40639004 0.06062124 1.1252061 -0.14716144 0.69159436 0.85355675 1.6917295 0.47346598 -0.03020804 -0.25629246 -0.3010244 -0.47669107 -1.1146938 -0.55236596 0.5293628 0.2874995
C22H22O7+H+ 3.3690884 -2.6301193 0.42843705 0.37882122 2.6582255 1.5719345 0.7506346 1.9833664 -1.7932731 1.3588862 -1.5980866 0.5684967 0.36007768 0.15454334 0.55484194 -0.75554 1.3426634 0.053078495 -2.1274822 -1.6360587 2.6495347 0.13814053 2.4526787 0.57945234 -1.0972222 -0.13956621 -0.52789044 2.0799222 1.8324748 3.9533615 -2.472113 3.8837059 -0.48309118 1.6505129 0.50508857 0.8566283 -1.8280414 -1.5226109 2.239646 -2.8229654 3.0954103 0.6180901 0.15395288 1.9746511 0.33739197 1.5158411 3.3092592 -0.24225038 1.3863914 -1.5927691 -0.4523623 -1.2664868 -0.91856503 3.0082765 0.23929203 0.40345475 -1.4691293 -2.028255 0.31471017 -9.382577e-05 -0.4136636 0.3304506 0.24889365 -2.118115 0.7050895 1.8533752 1.0859046 -0.62427044 -2.0948887 0.46870044 2.6780896 -0.15570113 -0.756773 -0.22926277 1.6637247 -1.7256804 0.30206025 -0.77645445 0.19464354 1.0638196 1.4863547 0.8440096 -0.1302488 0.28229123 -1.7347486 0.48592946 1.8723062 -0.70624256 -1.8689733 1.0189073 -0.02356148 -0.8812065 -0.5010442 -0.54424053 -1.4039081 -2.2639515 0.09514856 0.85882103 -1.411609 -1.1592177
C8H20NO6P+H+ 0.25327718 -0.9574973 0.21007921 1.2665178 0.118185155 1.1225785 0.65827155 -0.35320193 -1.1140558 0.84951246 -0.45392653 0.5071016 -0.5897006 2.154559 -0.0012865853 -0.74469113 -1.4783542 -1.3562516 0.5929549 -0.33255023 0.35188112 -1.2723309 -0.14665255 0.0029146895 -0.08020085 1.1398525 -1.380009 0.062307507 -0.1980829 0.09641855 -1.5058742 0.38941947 2.3712468 -0.58348614 -0.2358586 0.31665447 -0.17265435 -0.14021818 1.3749844 -0.004674702 0.6414766 -1.4640723 0.2006159 -0.021709783 -0.4389401 1.5000535 0.2714247 -2.538603 -0.19497013 -2.1595874 0.39670837 -0.0596447 -0.5917992 -0.010128618 -0.40472057 -1.1600405 1.1917325 0.9953843 -0.16473515 0.5694341 -0.25110263 -0.36821967 1.2404053 -0.86588764 1.9479293 0.46934658 0.527686 -0.80691916 1.0758266 -1.6042024 1.3399386 -1.641066 1.2034252 -0.80928534 -0.71587783 -0.5261157 1.7349954 -0.3444696 0.31161374 -0.5346784 0.56060696 0.76863384 -0.17114037 0.5965375 1.0248765 0.27608067 -0.44012004 0.003014442 1.9627849 0.8376532 -1.2426203 0.761172 1.0531412 -0.28128627 0.5749142 -0.7264601 1.106481 -0.9555686 -0.24085125 -0.6751774
C10H7NO3+K+ 1.2089478 0.218384 0.4775656 -0.12935704 -0.16752467 0.38445392 -0.32062992 -0.16246255 -1.1578166 0.035766963 -0.6419141 0.32184497 -1.3264527 -0.5916176 -0.60854936 0.38789797 0.30053386 -1.2279732 -0.6203167 1.0683453 -0.74932027 -0.08171187 -1.107594 1.503127 0.061090708 0.35344276 0.6519887 0.64243054 1.0931969 -0.21784516 -1.5182385 1.0126363 0.5618716 -1.6728932 -1.1048806 -0.94146734 -0.77664524 -0.06112857 -0.22760652 0.043772426 1.1035712 -0.16532734 -0.8317571 0.6499562 0.79588795 0.57340163 -0.6043374 0.26699418 0.27396145 -2.5187051 1.5731643 1.3509413 -0.6317851 -1.2881585 0.5000473 -0.21975656 1.4858767 0.6286602 0.45921654 -0.33452275 1.2405579 -0.32253015 0.053718295 0.9943836 -1.173221 -1.2609229 1.1174835 0.11704716 0.9308149 0.03548369 -0.433468 -0.7664691 -0.6754945 -1.7763968 0.03405462 1.8569154 1.4596965 -1.5105101 0.08032552 -0.51354516 -0.066067934 1.5098135 -0.036530264 -0.54869336 0.029433189 -0.83834434 -1.1050267 0.546078 -0.26134935 -0.3744921 -0.61415493 0.89482325 -1.0282856 0.08730726 0.51167285 -0.106116265 0.20956334 -0.80338943 0.34762654 -0.5711281
C11H20N2O3+H+ 0.53402084 0.13277678 -0.8601213 0.6227313 -0.5745576 -1.4387541 0.716785 1.9696256 -0.4442779 0.39035428 0.12513733 -1.2043475 -0.8395966 -0.41825905 -1.3490113 -0.25911602 0.4701507 0.525976 -0.5722344 0.79889876 -0.014925502 0.5119375 -1.3554283 -1.6766999 0.59485394 -0.5519404 1.1674749 0.26094338 -0.73244166 -0.22237886 -0.977656 0.83831006 0.2553255 0.39725825 -0.5297125 -0.6040611 1.7310201 1.3946171 1.454479 0.81735665 0.18846563 0.5853775 -0.5643039 -0.17009962 0.35763133 -0.37985823 2.6449413 0.14370178 1.4737458 -0.99567133 0.8656562 1.9224166 -0.98132443 -0.16247398 1.7605559 -0.07407771 -1.5798918 -0.7717345 0.81614023 1.5393672 0.8102703 -0.15835117 -0.5949921 0.6101961 -0.36564946 0.8445824 1.474308 1.1392125 -0.06916749 0.18674268 -1.1289855 -0.08047138 -0.31153443 0.8773211 -2.8475518 -1.7471278 -0.22388224 -0.15518872 -0.1078781 1.5298457 0.111458234 1.2262937 1.3204031 -0.07555969 0.15430775 0.5772799 1.2152067 0.5335132 2.4140704 0.26698202 1.2810588 1.0879848 -0.22852816 -0.80974805 1.0442629 -1.1459634 -1.7826868 -1.0332125 -0.16041103 -0.9833153
C8H17NO2+H+ 0.47187522 -2.1822355 -1.1484243 -0.5945675 0.8208795 1.0725465 0.17450705 0.82125837 -1.1808914 -0.048983797 -2.081923 0.044618938 0.0980762 -1.7099365 0.41366434 0.08139519 1.3347145 0.71825075 -2.1845524 -0.14397277 1.5547544 1.0358185 0.8280126 -0.69059515 -1.8775774 -1.5609878 2.340893 -0.049860362 1.8554885 1.7045871 -2.3378127 2.0028043 0.374599 1.2965498 0.4899646 -0.6652125 -1.7589076 -1.4245856 1.517427 -0.8991149 1.6144478 -0.007488725 -0.6928564 1.3720131 0.01832788 -0.8707971 0.92779654 0.17445387 0.03306755 -1.4739445 0.41134065 0.33919135 -0.26723316 1.348779 1.1604754 -0.8968842 0.35462114 -0.5603471 -0.01452609 -0.7421568 1.9952557 1.1089742 0.37190363 0.45251006 -0.7593385 3.7092083 1.6510383 0.29463214 -0.7094463 0.89781475 1.0891827 1.9442152 -0.8455061 -1.0740359 1.9563301 0.11852139 1.2690555 -1.1816337 -1.6333624 1.1980972 0.21721834 -0.46811667 1.1463101 1.4994059 -0.7177272 -0.97380066 0.39181387 0.38283613 0.18273422 1.605541 0.049905207 -1.3397715 0.035179242 -1.5059999 0.4422492 -1.2456212 -0.0065209866 0.030167665 0.36109033 -2.5036764
C29H47NO4+Na+ -1.8242356 0.6305961 0.5217879 0.3006289 -1.0193002 0.10552338 0.036157582 1.6745628 -0.31550944 -0.22182523 -0.8109211 -1.0129158 1.3452827 -0.22157797 -0.638035 -1.3311343 0.40339637 0.7312802 0.86402917 0.628722 0.90917057 -1.4707209 -1.522771 -0.7988406 -1.1976267 0.17326568 1.3773881 -1.3871446 -0.9756633 -0.99668187 -0.047509193 -0.8774731 0.51706594 0.98053575 1.5377407 1.3367486 0.9079772 -0.25963226 0.69494104 1.0841165 0.43472084 0.7971363 0.10519102 -0.8773484 0.34631583 0.5253531 0.97980154 -0.76696056 0.39895365 -0.40477782 0.17351267 -0.3029879 -1.0853668 -0.9521731 0.4879252 0.5908759 -0.99433005 0.23866594 -0.13343097 0.9324856 1.1838883 -0.20333216 0.53789276 1.3092343 0.2481932 0.31267497 0.44546524 2.2887096 -0.5319866 -0.21976313 -1.147861 1.6725346 1.1007248 0.65879434 -0.97320396 -0.60177976 -0.62126404 0.9990101 0.036659077 -0.21987146 -0.032585524 0.45745438 0.18977511 1.1323493 0.20793787 2.1302307 -0.22730996 -0.27478203 0.43941206 -0.8830554 1.0419292 1.4297245 -0.7600421 0.025088878 1.6559464 -0.31110144 -0.42823213 -0.082068175 0.2314441 -0.36277243
C7H15NO3+K+ -0.31121057 -0.31154224 -0.5932247 0.27719328 -0.80199665 -1.4575406 0.016156524 0.37196216 -0.37315747 0.17817692 0.20747423 0.0764958 -1.1523173 -0.3533254 -0.3163327 0.026498955 0.7004626 0.35405064 0.4382206 0.34712255 -0.6188241 0.1514248 -2.3776197 -1.0096179 -0.7648184 -0.16244584 -0.013752055 -0.82938164 -0.64134496 -0.8893704 -0.7774594 0.27106428 0.92259324 -0.59474355 -0.5460354 -0.4303249 1.0104278 0.24072583 -0.2250608 0.98365027 0.6948537 -0.07263695 1.0300058 -0.50289404 0.7012611 -0.56645083 -0.6426186 -1.3770001 -0.593613 -0.81555575 0.4412609 1.417874 -0.50413 -1.1057792 0.5466621 -0.83627653 -0.0038976388 -0.24746926 0.7893313 0.94293696 1.1454979 0.09053151 0.030274289 1.3225237 0.25899827 0.5816869 1.3054353 0.91469216 1.0217115 0.0065824897 -0.52666837 0.1253698 -0.2589779 -1.1798068 -0.3345368 -0.2055184 1.0972904 0.041670706 -0.1253111 0.039511696 -0.2958466 -0.12489272 0.28181675 -0.21634415 0.16210474 0.01842534 -1.1612084 0.44498506 0.71538323 -0.25730783 0.12163021 0.5432631 -0.034480993 -1.0393658 1.0545422 0.10043092 0.5184582 -0.2826246 0.42749456 -0.59963346
C26H50NO7P+H+ -0.20688592 -2.1829205 -0.5642005 1.0984999 0.48546746 0.7889985 0.13115303 0.2695875 -0.67842853 0.6739088 -0.35732284 0.37990725 0.5561369 -1.6364505 -0.72331697 -0.96054745 0.6674692 0.38437775 -1.1232069 0.4121481 1.6602999 0.71650684 1.0093888 -1.1384006 -0.24343267 -0.72462606 1.6436882 0.26434734 0.8735775 -0.74979675 -0.8202197 1.1770871 0.5789273 1.2264214 -0.54946387 -0.6897653 -0.9183168 -1.52603 1.5514543 -0.1511424 0.405107 1.7849661 -1.1567879 0.7392307 -0.3621238 -0.22709937 0.9220177 0.07081215 0.15170337 -1.2016276 -0.042380407 0.018839814 -0.8375999 0.6025635 0.12948672 -0.6719488 -0.60908693 0.8521167 -0.23355034 -0.0110468725 1.9414313 0.4975043 -0.10029518 0.91342527 0.6508289 2.7585309 0.4614267 0.6597261 -0.26971436 0.11475988 -0.0020957724 2.582912 0.78905696 0.40207273 0.32211238 -1.0652987 1.4300535 -0.14677174 -0.9517051 0.32003465 -0.5940454 -0.3323047 1.472746 1.2153587 0.07620395 0.78623456 0.29340106 0.38041165 0.59049577 1.1842425 -0.56459177 -1.4452921 -0.1154323 -0.8139536 1.3870581 -1.0505179 -1.0248879 -0.1838103 0.026186844 -1.0235957
C13H17NO3+Na+ -0.25562882 0.43551874 -0.40949097 -0.18099481 -0.72547245 -0.0007134052 -0.59091944 0.27098754 -0.628263 -0.105369866 -0.4168359 -0.4004261 -0.66168267 0.01601161 0.051700033 -0.060703322 0.119150035 -0.45277545 0.13165265 -1.0383469 0.9205607 -0.062107675 -0.10172776 -0.7851728 0.00921979 -0.44005013 0.058507644 0.20767683 -0.38530728 -0.70839983 -0.082007855 -0.629203 -0.6419177 0.16941713 0.33341315 0.5521856 -0.5725126 -0.6483171 -0.49084142 0.50589174 -0.16204864 0.84621453 -0.32679453 0.92645025 0.5530811 0.5600888 1.2298307 0.5318366 0.45026323 -0.16205971 0.30314264 0.70162284 -0.3675529 -1.1138439 0.5637244 0.080014616 0.33563456 0.9805127 0.38273197 0.4573308 1.2013547 0.08793194 -0.22449154 -0.5682652 0.12283931 -0.86831176 -0.65468574 0.5225348 0.40024 0.80475557 -1.7161397 0.0023952387 -0.9072838 0.18050712 -0.25548956 0.5765633 -0.8711824 -0.0054499647 0.56116694 -0.22487617 0.80448925 -1.000148 -0.75182724 0.179382 0.51348937 0.9785327 -0.68296343 0.38953155 -0.070823886 -0.37215233 0.22915621 -0.16721481 -0.5741322 0.11976967 0.75033027 0.46617916 -0.092256024 0.6427528 0.41719818 -0.25778556
C10H16N4O3+H+ -2.3909373 -1.3204772 0.25436813 -0.15724075 -0.6471626 0.6521501 1.1757444 0.79299295 -0.90527344 -0.46363908 0.3447119 -0.8242706 -0.19443256 -0.95889246 2.1371596 -0.054969057 0.38294545 -1.4786671 0.98315626 -0.3049619 2.6777987 -2.3550403 1.4302553 -2.2918866 -1.5575813 -0.6302282 2.1033416 -1.7186364 1.5879475 1.4120826 -1.0758842 0.4307772 0.23206808 -0.2774372 0.9879738 0.51285 -0.4293764 -1.4633609 0.57006985 -0.7620886 1.6700895 1.8589745 0.37775025 0.9947391 0.32015538 2.0686386 1.4108882 -0.0069424994 0.13533013 -0.82794374 1.8033884 -0.0040098145 -0.63530654 0.42478326 0.32709065 1.5698138 0.033336602 2.073368 -0.0683621 -0.5021795 -1.2546377 -0.20422952 0.081510246 -0.1315207 1.1990477 0.9969822 -0.75346446 0.13046409 -1.8297341 1.2415726 0.65848154 0.06847365 -0.24751991 -0.47085294 0.55859447 1.5437849 -0.44237396 -0.7560525 -0.59228456 0.73772943 0.21625298 1.072571 1.5840048 2.456393 0.79860157 1.4938343 1.3014848 -0.25847808 0.73732454 0.9220977 0.11917316 -1.3210753 0.91107446 -1.7835697 -1.1740172 -0.60081583 -0.75666946 -1.3764486 0.6764826 -0.36785322
C8H20NO6P+K+ 0.39278916 -0.51960415 -0.931381 -0.02904203 -0.28748852 -1.0680981 0.24492554 -0.07508976 -0.49243432 0.08663146 0.7144026 -0.06908391 -1.3396622 -0.8041121 0.3461134 0.12950025 0.43228027 0.50715756 -0.10843256 1.1834391 -0.869719 0.85079384 -1.8057566 -0.548585 -0.46597692 -0.40023875 -0.13160345 -0.6128219 -0.20745881 -0.61610806 -0.93400234 0.22283785 0.13607061 -0.1149854 -0.8131636 -1.1984613 -0.29637447 -0.05961466 -0.31101918 0.43947905 0.38385218 -0.06380027 -0.07975178 1.0628846 0.44892898 -0.016921295 -0.47134745 0.06570958 0.32615423 -0.64058036 -0.46566558 1.0918938 -0.094357535 -0.25897416 0.3275197 -0.301669 0.39653796 -0.44303846 0.21968156 0.083884686 0.66915935 0.41786325 0.2262735 0.86786556 0.046445534 0.6229633 -0.071088195 0.4220309 0.16317742 0.574494 -1.1282433 0.07298738 0.33632094 -0.9978971 -0.45310882 -0.31405005 1.3320858 -0.67131364 -0.24355954 0.72933584 -0.31382504 -0.112191305 0.27667776 -0.13866216 -0.6317121 -1.1258626 -0.75735855 0.6235267 0.8138426 0.29354888 -0.065872386 -0.13167673 -0.29745436 -0.5988836 0.8983528 -0.20435587 0.09185432 0.27857596 -0.025072178 0.48897082
C8H20NO6P+Na+ 0.45630437 -0.16549535 0.6448586 1.0216916 0.45103666 -0.041676078 1.8676507 -0.35476428 -0.16977218 -0.64736485 3.4181657 -2.0487056 -0.6701023 1.2730266 0.6133302 0.22176263 -0.46782452 -1.791875 1.7780063 2.5848374 -1.5931531 -1.1708704 -2.4023113 -0.79077053 0.20867561 1.97178 -1.9174834 -0.76093286 -0.70270616 0.09515952 0.60957366 -0.125079 -0.07420246 -0.6867142 -0.6522398 0.006374492 1.3907893 -0.37526456 -0.9477476 -0.3320705 0.8713908 0.2666366 -0.5520045 1.339235 0.50862193 2.725624 0.19754472 -0.12225548 0.9267655 1.5099319 -1.0675297 0.12426106 -1.022891 -0.38890085 0.5348826 0.70357555 0.44504702 -0.34862304 0.06856085 -1.1105983 -0.8155764 -0.39687672 0.05566931 0.27473179 2.9412131 -1.2545148 -2.6216125 0.40292233 -0.00039997464 -0.21298423 -1.1831657 -1.0207431 3.1145833 0.6184666 -2.4157658 -0.79484046 0.23215438 0.47591382 0.9212251 -0.5314076 0.4808307 1.5986993 -1.4282366 -0.08567001 -0.7777083 0.5121018 -0.1657923 0.52023625 1.7228142 -0.0034966324 0.5295161 -0.42832196 -0.9206872 0.82411915 -0.34521532 0.4094215 -0.8630802 0.5689194 0.11350186 3.8263202
C10H11NO2+Na+ -0.4115493 -0.261061 -0.06658091 0.28757715 0.4675587 1.1359012 0.060215842 0.11199615 0.018197883 0.36605784 0.0075411606 -0.091949545 0.049171135 -0.5524376 -0.3676305 -0.10131229 -0.81903154 -0.08333298 -0.86284924 0.02116935 0.84970164 -0.43362808 1.176422 0.6713875 -0.5009148 0.5318476 0.2676872 0.5784378 0.9554491 0.7552953 0.2263564 -0.1821558 -0.41870663 -0.40293473 0.10241721 0.15533493 -1.8989036 -1.2711428 0.3645422 -1.0299734 0.08452795 0.66415894 -0.09750066 0.41140652 0.1769801 1.4449087 0.22424458 0.3527489 0.19847065 -0.57748944 0.550337 -1.1837806 0.3256389 -0.15594852 0.09245706 0.70714617 0.36491942 0.675454 0.06619304 -0.4111989 -0.19850245 -0.5524835 -0.017734153 -0.87243533 -0.031847026 -0.87063515 -0.18495944 -0.07039337 -0.8539954 0.19926563 0.98070586 0.72295487 -1.1865854 0.2640298 0.720915 0.33439252 -0.14981137 -0.05019716 -0.16660973 -0.7217406 0.66149783 0.770243 -0.315621 -0.2103491 0.5524779 0.076149926 -0.08274618 -0.41876572 -1.0043637 -0.3410137 -0.30066606 -0.6374329 0.76031363 0.33175668 -0.66148746 -0.2959887 0.6222837 0.1760109 0.6679565 -0.3322199
C37H68O4+H+ -1.1200198 -0.17728664 -0.007746023 0.19573832 -1.0363923 -0.10310153 0.35419625 1.7250606 1.9429178 1.094363 -1.285538 -0.5257764 0.7231183 -0.055520702 -1.2550015 -0.7490916 -0.31659502 1.8897539 -0.2038944 -1.2734514 1.2749026 -0.41406876 -0.6924791 -1.8033586 -1.0555428 -1.9716918 0.29767162 0.55802447 -2.7740285 0.3974348 1.2710805 -1.5993105 -0.2671275 0.8324249 1.458243 1.9223903 0.9635927 0.6658938 -0.54850936 0.7233839 -1.9843534 -0.5737183 0.7878703 -1.9058398 -0.8703452 -1.5587813 1.7755125 -0.58820456 0.33804533 1.479736 0.5198484 -0.7554679 -0.59283507 -0.3030152 1.0106524 -0.34876415 -1.3550644 -0.73201126 0.34036106 0.63649887 0.9401746 -0.12039475 -0.85677046 1.0424404 -0.35762632 -0.063747264 0.91743964 1.2804198 0.059642144 -0.51946825 -0.5528189 1.4514953 -1.345145 2.4350984 -2.4215045 -2.1009905 -2.4007943 2.2911224 -0.47316375 -0.19122726 1.280899 -1.2821443 -1.2161497 0.8006645 2.3843205 1.1752348 0.7828598 -1.1896923 0.65527195 -0.35182127 0.86067903 0.14882632 0.7016249 -0.38010788 1.2058736 0.0822135 0.10692966 -0.28595904 0.27901265 0.51263016
C35H66O4+H+ 1.6381086 -0.9537037 0.20455426 -0.03647231 0.61085284 1.088576 0.44154617 0.099560335 -0.52244014 0.0634258 -0.28108618 -1.0654825 -0.3717489 -1.1398348 -0.39472952 0.92987835 0.57850444 -1.0147895 -0.32570967 0.25781593 -0.22062483 0.122361474 -0.38003594 0.30080295 0.19166288 -0.117773116 -0.39517957 1.2706207 -0.26028478 1.3445791 -0.60132927 1.4278471 -1.1176307 1.2186152 -1.1982691 -0.12822373 0.66150457 0.025734179 0.17919546 -0.4408122 0.55418754 0.13816725 -0.035841588 0.4392883 -0.21983697 -0.15271276 0.24386449 0.93802214 -0.21442169 -0.3581637 -0.21235667 0.28514552 -0.76625437 0.71125555 0.6263062 0.5122638 -0.5733302 -0.41404623 0.28863147 -0.32086363 0.121349566 0.13000412 -0.12484783 -0.50736487 0.5901252 0.06794834 0.18452884 -0.6219041 0.011457067 0.6752432 -0.42750376 -0.3145562 -0.44708136 0.41050583 0.07396347 0.021812104 0.055104487 -0.052203916 -0.3599283 0.25730565 0.84365004 0.70343643 -0.3226467 -0.4138117 -0.74652845 0.046368815 0.24577224 0.7489573 -0.30643737 -0.73902154 0.34790623 -0.39333627 -1.0390416 0.086270645 -0.5756488 -0.43134737 -0.76306635 0.7033334 0.7702479 0.05850169
C23H45NO4+H+ -0.20503767 0.9765359 0.026758375 1.3505776 1.1438293 0.88071203 0.29268083 2.1665711 0.51903915 2.5599012 -0.9625887 -1.3259965 -0.34001195 -0.061093118 -1.1638813 -1.3060971 1.3037854 0.20777172 2.2756004 -1.653811 1.5937414 0.416948 0.3245732 -1.3578964 -1.3292834 0.6649068 -0.29473338 0.7464783 0.25864363 0.93327713 0.10557619 0.9472269 -0.43559518 0.3712643 0.15270181 0.95133644 1.0704076 -1.055606 1.4987015 0.4018461 -0.57466453 0.36727533 -0.02795024 -0.62991786 -0.07856673 1.6394798 2.0650811 -1.5143766 0.7926136 -1.745956 -0.18864219 -1.3063002 -1.3001707 -0.89627784 0.6645535 -1.1048924 0.37855464 0.3454114 0.09609312 0.31592035 0.45425585 -0.28188464 0.4414894 1.4685938 -0.32437348 -1.5217005 -0.8665958 1.7743365 1.3289175 -0.99839157 -1.6667453 -0.17870913 -1.1235521 0.41813335 -1.7777663 -0.7737053 -0.5274604 2.082212 -0.10180014 0.30200002 1.7763294 1.2320379 -0.4823565 0.67281 1.0346761 1.4039432 0.3732037 -0.7239969 0.35994866 -0.5163051 -0.10569756 1.3886031 -1.0476215 0.24474011 1.2233531 -0.1595492 -0.21965417 -0.028497372 1.3015698 0.9756981
C37H66O4+H+ -1.2797508 -0.80447066 -0.82038367 -0.38168305 0.82769597 0.48960388 0.71413946 0.29371956 -0.73823804 0.03893743 0.05386803 -1.1321822 0.33741346 -0.042930733 0.3384 -1.2548295 1.8524429 -2.151185 1.0851994 1.3925943 1.5608895 -1.1342158 0.2707668 -1.0067873 -2.6780608 0.3937093 1.1914815 -2.0437565 1.7654506 -1.2585369 -1.9919071 0.99886656 1.8449019 0.12907755 -0.27591762 -0.6516199 0.42811942 -2.3949187 0.24335665 1.0195624 1.8464872 1.8259811 -1.1987101 0.99033743 0.7116274 0.6455274 -0.02397107 -1.5012767 -0.9838519 0.20133083 -0.6737546 -0.49112105 -0.82092875 -0.81809646 1.1406322 -0.79172933 0.8292178 -0.30318925 0.5648687 -0.29843274 1.7960784 0.8613337 0.9299396 1.2716882 1.9076697 1.568228 -0.9676692 1.127635 -0.24208389 0.86555654 -1.2099133 2.6903656 1.6658233 -1.5391076 -0.3069608 0.9216881 1.5459654 -0.03378922 -0.19127506 0.2622232 -0.5812488 0.7309437 0.45249 2.2128403 -0.51168704 0.48488355 0.0909494 0.7253381 0.46525213 -0.1757613 -0.43361703 -0.1169219 -1.0295793 -0.3126583 0.96244776 -0.19433752 -0.6617639 -0.9980544 0.4437717 0.5036258
C10H15N5O10P2+H+ 2.4178607 -0.49411508 -2.0259237 1.3247954 2.434468 1.5045406 0.12264626 -0.6716828 -0.44529647 0.05350343 -1.7100799 -1.2053881 0.5037535 -0.087268904 -1.1877099 0.5121235 2.3043163 0.256845 0.6276196 0.066483974 0.61645675 1.7234116 2.0934308 1.128193 0.21957934 1.1980435 1.2560675 1.6891023 3.1754797 -0.9177238 -0.19140925 1.8057979 -1.0997984 0.38723433 0.12820606 -1.1229476 -1.0240426 -0.57702875 3.7712045 -2.101991 -0.43434653 0.39245006 -2.3243499 -0.30355394 0.46958792 0.515888 -1.3539561 0.6398424 -1.2621238 -0.51537865 -0.7059602 0.19739898 0.3173778 -0.17793682 1.7685907 -0.11322511 1.2825623 0.8834498 -1.8096255 -2.3186953 1.4577255 1.1144965 -0.38398793 -1.1459955 -1.0716006 0.9703778 -2.6231835 0.3880957 2.0770204 -2.3449907 1.7947524 -0.70626307 1.2339358 -0.45505536 0.83484364 1.0983248 1.0168017 -1.4292458 -1.476489 -0.26555362 -1.5163208 2.7235942 1.8273686 0.84564215 0.33965695 -1.2205915 0.46706933 -0.2719853 1.3866181 -0.58188933 -1.6211225 0.77160335 -0.13599639 1.2759688 0.07683012 -1.1845545 -0.4587469 0.82242805 1.4734509 -3.0667367
C15H16O9S+K+ 0.51657593 -0.8471776 0.4179915 -0.6025143 -0.4639447 0.43719852 -0.6784955 0.008036625 -0.34491345 -0.59468096 -0.034025226 0.24234773 0.31424904 0.01173804 0.7382542 -0.55078673 0.6725891 -0.9569973 -0.08625175 -0.48687708 0.88793486 -0.50023335 0.77180785 0.027381593 0.20276691 -1.2357539 -0.41410738 0.4549523 -1.012273 -0.8114245 0.019208677 -0.11091759 -0.745039 0.7394235 -0.42078206 -0.07718321 -0.6462946 0.08636335 -0.38150713 -0.27388018 -0.26455525 0.8737091 0.12382842 0.47426 0.115815535 -0.16953544 0.30789724 0.95261943 -0.06252424 0.51946384 -0.1906932 0.0069255373 0.08116131 0.6856613 0.36262596 1.6627902 -0.78424555 -0.07582082 -0.02864814 0.48926753 0.21465825 0.58966094 -0.6159003 -0.6037581 0.60283923 -0.08896012 -0.72820985 -0.11218717 0.08762732 0.6742293 -0.17554395 -0.02003321 -0.00476093 0.616808 -0.13681574 -0.65421134 -1.0391301 -0.27916256 0.6056717 0.18424948 -0.14373884 -0.17286462 0.00088606763 0.5221928 0.08091758 0.60075253 0.87481135 -0.1742398 -1.3560554 -1.552295 -0.018182361 -0.08858917 -0.88550085 -0.3045467 -0.06038168 0.36595112 -0.80640006 0.57214016 -0.35800862 -0.1737956
C25H49NO4+H+ -0.6638799 -1.4064364 1.0125781 0.14819206 -0.60104346 1.7175916 0.19160196 -1.0742172 -0.4451846 -0.7302304 0.6402977 -0.47161958 0.34696263 -0.76335704 0.18767871 -0.39196572 -0.8184804 -1.4657451 -0.34941584 1.0172755 0.31740844 -0.84224224 0.8107596 -0.15696493 1.0248699 -1.2165465 0.8952257 0.7216319 0.24909426 0.10648926 -0.13684493 -0.58996975 -0.028154578 -0.012548948 -0.24292772 -1.0683753 -1.0413129 -0.48893315 0.15307875 -0.92021286 -1.3568958 -0.5644834 -0.720786 0.957114 -0.044396296 0.45370972 -0.35274222 1.3360304 0.96771044 -1.277501 0.68432736 -0.07074083 0.16111688 0.6559504 0.15965423 1.5059754 0.78718287 2.0417917 -1.45331 -1.361485 0.2653578 -0.13180088 -0.115333736 0.033015296 0.4817232 -0.5698997 -2.3826122 -1.0722423 0.3437574 -0.3644669 -0.14018443 -0.4712994 0.26649687 0.4415908 -0.2726209 0.23466714 -0.013029934 -1.7430519 -0.6875618 0.4071925 -0.52232933 0.852045 0.37767312 0.4281327 1.4538789 -0.43916947 0.52825 0.43015593 -0.48423508 -0.22138804 -0.8070549 -1.1138114 -0.28013682 0.021805191 0.14703842 -0.36200458 -1.2067752 -0.103934914 0.4349981 0.2503528
C24H50NO7P+K+ 0.12827227 -0.48482645 0.38295683 0.036349986 -0.5528434 0.44212872 0.1396048 -0.10185571 0.06913838 -0.19244339 0.14800736 -0.59132624 -0.47497767 -0.1749031 -0.011838816 0.1840855 -0.0052702767 -0.2620575 0.19292893 0.35324585 -0.53372335 -0.3423565 -1.264513 -0.23070294 -0.28304458 -0.73891246 -0.16420881 0.3613947 -0.68813825 0.29619205 0.07987369 -0.3985826 -0.41282946 -0.2597516 0.055964474 0.039329406 -0.10769385 0.15401113 -0.498943 -0.18865779 -0.6143939 -0.89471567 0.31697997 0.10534571 0.32031038 0.13295317 -0.32599807 0.23953046 0.3270754 -0.33120885 0.3028937 0.2837371 -0.24216533 -0.24113049 0.6534626 0.23862585 0.5935054 0.35002658 -0.27413577 -0.8063556 0.5829387 0.0472188 -0.20459326 0.5250587 0.12236023 -0.76651347 -0.8995195 0.18492219 0.8393506 -0.4004391 -0.5023569 -0.45775327 -0.10986886 0.10907901 -0.71354896 0.020973116 -0.1796191 -0.4300511 -0.27004474 -0.18642235 0.25578493 0.24222702 -0.82330275 0.018669894 0.76254225 -0.5171636 -0.31148672 0.0252296 0.07136737 -0.47567052 -0.112318195 -0.040576752 -0.38964963 -0.011031041 0.50371695 0.13863853 0.10208259 0.51619637 0.69357723 0.53842705
C10H16N5O13P3+H+ 1.5457786 -0.47305375 -0.1232616 -0.49833867 0.29325122 1.7594539 0.6132179 1.2535409 -1.1856179 -0.5429526 0.66759634 -0.8931402 -1.7480412 -0.40724108 -0.46489307 0.62484056 -1.1292003 -1.9511591 -1.1829844 1.8602537 -1.5718157 0.0436423 -0.79241735 0.6881022 -1.1287175 0.76784027 0.19918367 -0.14378606 0.33315757 0.4469146 -1.539479 0.6689284 -0.28634936 0.521987 -1.4686927 -1.554856 -1.0744735 1.117901 -0.17429431 -0.25349823 0.7981453 -0.4217101 0.26464236 1.9119442 -0.37859797 0.8249196 -1.0240237 1.6236056 0.79690564 -2.2396479 1.0985421 0.58537966 0.2838932 0.48059806 0.55794644 0.50470674 0.66702783 0.2581334 1.7214924 -0.020949164 -1.5688518 0.377354 0.72156966 -1.1578778 0.07110247 0.29529095 0.64000696 -0.5459712 -0.3021359 0.71143186 0.30729875 -0.6158224 -0.16595225 -1.0985754 -0.40250632 0.5115151 1.5854527 -2.0692413 -0.20139675 -0.92126065 1.4762077 1.2441596 0.19292177 -0.20308737 -0.8901585 -1.8713099 -0.16779694 0.49886283 0.22136383 -1.4463803 -0.14083113 0.63546044 -0.47455978 -0.19161396 -0.7886783 0.13392949 -0.2843183 0.015690792 0.43603972 -1.0848811
C9H14N4O3+H+ 0.73941535 -2.4452837 -1.8381317 0.6374709 -0.47857693 -1.9848185 1.1875468 -1.6562299 0.9068785 1.4085524 0.11215021 1.6053352 -2.2709842 -1.5286045 0.13464624 0.5719871 -0.364238 2.5650759 -1.1751319 -0.46711168 0.09268108 0.64283866 -0.7527645 -1.4383416 1.0741769 -2.6176329 -1.6664892 1.4106075 -0.43960667 -0.37637323 0.76961195 -0.8981296 0.3958312 -3.8691192 -1.0830089 -0.5886311 -1.4547724 -1.6414182 -0.9846886 -0.3924012 -2.2092485 0.1493248 0.015866932 -0.7902599 -0.23036624 0.44186398 -1.0617882 0.4913465 -0.9179792 1.917512 1.7176833 0.7506429 0.9361286 0.2857554 0.36413068 0.10756433 0.3285059 -0.21516736 -0.33595958 -0.5482075 1.3583366 0.651426 -1.4585516 0.07868101 -1.1147588 0.122348815 -0.03918348 -0.55073744 1.5747683 -0.8769489 0.82610387 -0.2996922 -0.66173375 0.37511528 0.41972172 -1.3711954 -0.50809664 0.29754055 -0.8811042 0.4129322 -1.1140367 -0.6489931 1.2138937 -0.4157422 2.8160162 -1.5530404 -0.8723747 -2.0189805 1.1784871 1.5037897 -1.992605 -2.8274937 2.917658 -0.6679388 -0.7000954 -0.6920643 1.4861766 -0.67651045 1.0389996 0.34252587
C11H21NO5+H+ -1.7195659 -0.80169 0.13841666 -2.095165 -1.7294146 1.0870528 -0.6693524 -1.6308099 1.6228245 -1.7865782 -0.02896214 0.24095623 0.93602383 -0.5222471 -0.3134431 0.15649495 -0.58061546 -1.3933518 -0.42671117 1.3287002 -0.38003898 -1.5779185 0.4085256 0.6039898 -0.8919268 -2.1975777 0.8699537 -0.77799207 -1.4097303 -2.8964636 1.2657002 -3.0901012 0.14259852 -0.1972147 -0.07364516 -0.4928244 -0.12777376 0.71801025 -2.844758 0.8679661 -2.5805914 -0.25399408 0.67093974 -1.448167 -0.7081315 -2.9752855 -4.020255 1.6830767 -2.3384864 3.0148613 0.5256452 -0.5160267 1.5269166 -0.37703595 0.36210695 1.2381822 0.09434628 0.5071669 0.2974308 -0.8820309 0.32593092 1.0591577 -0.6753785 -0.32858756 -0.032768436 -0.15778677 -1.2788993 -0.7138045 0.8424222 0.4386089 0.32381746 1.9941542 0.0674587 0.24668896 0.13543843 1.2610669 -1.1872762 -0.63397676 -0.8768433 -2.0345113 -1.2380712 -1.4451023 -0.090455264 1.1560174 2.1213017 -1.2809534 -0.06635717 -0.6599848 -1.6164746 -3.1275263 -0.95602345 -0.56444246 0.58948123 0.5969536 -0.31527784 1.6541653 -0.26788947 -0.4788194 0.44643697 -0.28168267
C25H47NO4+H+ -0.97406477 0.4700857 -1.5436518 -1.1859062 0.23894653 -0.9880598 -0.7955552 1.4174975 0.21142182 0.10384099 -1.0135088 0.24316135 0.6249484 0.29081815 0.6769281 -1.2139614 1.2073623 0.7514977 -0.20210575 -0.41274086 1.920779 0.38028082 1.824503 -0.55975753 -1.4890301 -0.5815086 0.6267484 -1.5760367 -0.09788552 -0.57874703 -0.9346881 0.15432423 0.7103866 1.3178414 0.16608888 -0.31508857 -0.2316167 -0.32453597 1.2017109 0.41065997 0.9997045 0.9472409 0.2983262 -0.29782704 0.006149238 -0.6009145 1.228542 -0.77684456 -0.47684327 0.54521114 -1.2633895 -0.87277746 0.5099932 0.7615343 0.7790195 0.68477875 -1.194788 -2.204286 0.6082465 2.302732 -0.07372165 0.73105735 0.28295946 -0.07922148 -0.5066255 1.7767698 1.4364185 1.0083307 -0.7303407 1.6896379 0.6453681 0.8658509 -1.1057364 -0.3729139 -0.035590727 -1.5474455 -0.4732223 1.3002732 0.060985714 1.5507206 0.14864779 0.060719937 1.5162696 1.5454137 -1.0488174 0.5452374 1.475944 -0.511266 -0.45933497 -0.9476936 0.8986234 1.1488917 0.5892382 -0.8714657 0.09192699 -0.1451159 -0.56345004 -0.93548375 -1.1545264 -0.9892738
C26H30O12+Na+ -2.482644 -0.84573305 0.087219164 -0.81528544 -2.9964736 2.0188956 0.7040925 2.670551 -1.6660461 -1.1543876 -0.33644676 -2.1762865 -0.958298 -3.1002848 1.684263 -0.9193553 1.9433413 -3.438988 -1.2501925 0.092687316 4.1847672 -3.2039163 3.8488479 -3.1651525 -2.106949 -3.2106588 6.485988 -3.1022317 1.3487527 -0.5497723 -1.5424592 1.7037604 -1.5078537 -0.35199907 -1.2740997 -1.3068628 -2.3387368 -0.9657501 2.032685 0.38752976 1.8577847 6.487176 -1.2765814 1.8554506 -0.42556444 2.2252002 3.746151 3.6029894 0.6243686 -2.5869002 5.0613475 0.79151917 -2.6056874 0.027909227 2.549925 3.6081147 -0.99576867 4.212178 1.2861397 0.89607257 0.3985409 1.0872449 -1.8920326 1.7652799 0.07944449 2.58972 0.8285424 1.4180241 -2.5103207 2.979354 -0.56205046 3.502048 -0.61135834 1.3054017 -1.8372979 2.1498187 -1.2691154 -1.7612517 -0.29786578 0.31511432 -0.3720881 2.7489374 4.98645 5.4519506 1.2272261 2.6153765 4.075395 -0.342724 2.4825525 -0.26395035 -0.63911957 -1.6575843 0.49684864 -2.0134883 0.1053208 0.30427435 -3.5653691 -3.654995 1.9320182 -1.763937
C12H22O11+Na+ 2.5092182 -0.6288566 0.9247695 0.84397906 0.22283942 2.5841563 -0.8790142 0.43711647 -1.2870407 0.749531 -0.94114846 1.2010626 -0.6237425 -1.1201824 0.00044395775 0.2677481 1.2369553 -1.4204001 -0.87612844 -0.11498535 0.30871865 0.102271326 0.22456782 1.9458516 -0.54663014 1.2574178 -0.5019474 1.1147029 -0.7529853 0.004801051 -0.24345672 2.9769633 -0.9237856 -0.038255025 -2.7706492 0.4097214 -1.6797861 -0.6465756 1.1750265 -0.70351017 2.7862883 2.333164 -0.9259073 -0.11825522 -0.8035833 1.3955219 0.9777856 0.25863305 -0.95930916 -2.153777 0.9684125 -0.06337018 -2.3660996 0.21232143 0.16510043 -0.95544326 -0.15979631 0.08942228 1.486134 0.9013469 1.5152811 0.13960403 0.006081515 1.3603039 -0.027178446 1.0734781 4.184101 1.1688507 1.0208158 0.7261818 1.4394782 1.4818707 0.28942075 0.22354864 0.32929194 -0.15656714 0.8457989 1.5729209 0.5286698 -2.606397 1.1847826 1.2701033 0.3389461 1.2471625 -1.8112767 1.3702072 0.26918447 -0.57394016 0.62533474 -0.5668889 -0.5609397 0.169852 -1.4200671 -0.11643559 0.5269037 1.1569788 0.080776155 0.24006425 0.7135896 -0.4378713
C13H13N3+H+ -0.6387155 1.2137246 -0.05007454 -0.2605097 -0.47413832 -0.52436393 -0.37533638 -0.12202212 0.08061721 -0.8557024 -0.27291292 0.7934657 0.74717087 0.86449456 0.2845237 -0.48311302 -0.77815884 1.3381613 -0.19388564 0.35786682 -1.1220322 0.45416903 -0.47022307 0.93807846 -0.10269743 0.41270766 0.81918776 -0.9269263 0.37161386 -1.15695 0.2047426 -1.4733828 0.61394966 -0.5807668 1.5768863 -0.8253356 -1.1878104 1.2603053 0.1036601 0.06537834 -0.84777725 -1.6147456 -0.2422648 -0.20518674 0.017076923 -0.61719805 -1.8730993 -0.1839331 0.25318545 -0.57068163 0.5627725 0.13130315 1.6956447 -0.356832 -0.53858465 0.2062958 1.0360008 0.5067979 -0.81543183 -0.40260628 -0.44753906 0.15080582 0.54156554 0.2124289 -1.4447213 0.114904664 -0.24617463 0.059795417 -0.34191146 -1.4355668 0.86431265 -0.18430696 0.6489278 -0.96699476 0.64853466 0.5141705 0.39747584 -1.4710988 -0.064946644 -0.060535826 -1.2997627 -0.108238675 0.4679509 -0.460675 0.16586158 -1.4942058 -0.34311646 -0.24819121 0.02131105 -0.036787156 -0.2707394 1.2285366 0.3177232 -0.16705213 0.28028628 0.12147538 1.0782008 -0.08203912 -0.38865617 -1.7370088
C12H22O11+K+ 1.2057645 -3.8209777 0.53445154 -0.84547883 -2.4353518 -2.0143454 1.3812358 -2.9869823 -3.9380686 -8.179153 4.3492723 -2.2175827 -1.1707314 6.074884 8.6414795 3.9427164 1.4865118 -5.9376965 2.229316 -2.4097211 -3.061389 -2.1511352 -4.7726912 -5.173315 0.8491256 -0.86516815 -3.4305258 -2.0382688 -3.37184 3.1787245 -1.0196314 1.2548298 -0.51579374 -0.22710222 2.2626657 0.891947 0.983607 1.8016406 -2.5470948 -3.174632 4.0516253 -4.0598254 1.2023606 4.0632734 3.5907743 0.025567926 0.94672424 -2.1188314 -0.2090005 3.7602694 1.2046164 6.477921 0.4917622 1.8335766 3.8648267 0.06445554 2.5874774 0.9842235 -0.6841085 -2.7052214 0.2791138 1.5037335 -1.2998488 -2.4513867 7.472259 3.5715704 -2.9998302 -3.055641 1.7927938 -0.22536878 2.2602632 -6.463305 4.1885896 -0.57039857 1.4181724 1.080589 -1.9568708 -4.422959 2.5811067 1.7858626 -0.36265197 -2.2570019 -4.4017544 0.6493105 -2.0781164 -0.3670979 0.32261312 4.1887107 3.8911796 3.1814828 2.7405028 -3.6741302 -1.8077235 -5.218503 -2.9457104 2.985409 0.646929 4.518767 1.6793562 -2.0747428
C15H18O10+Na+ -2.4447367 3.3808978 -0.8576496 1.0515654 1.8240985 1.7521174 -1.665024 2.7159832 1.2348334 6.5928636 -5.000105 2.3957632 0.67392766 -3.3585515 -5.6563907 -3.4245024 -2.3267267 2.828785 -0.95309603 0.23919359 6.333356 -0.08791671 6.709091 3.2528625 0.23269035 1.7985933 3.6882565 1.2479092 4.707441 -3.0921195 -0.9356822 -1.3190517 2.0282679 -0.12640703 -0.8017211 1.032719 -1.8884909 -2.9894018 3.368936 2.8290062 -1.1207467 5.510883 -2.679752 -1.7556181 -2.5081577 3.2333407 2.761249 1.0370673 0.6056782 -4.6140256 0.3116033 -4.3403826 -1.0501902 -2.4662821 -3.4176753 0.77111584 -1.2960601 1.832336 0.68068904 3.5856583 -0.6315501 -2.1225297 1.2008574 -0.33866745 -5.0449243 -3.2465525 2.872169 2.593724 -2.2834265 1.5047427 -2.2990634 2.9577303 -3.751444 0.051946394 -0.9790523 1.1248109 1.5837948 3.5383992 -0.93615735 -0.64180964 1.340364 2.2925668 4.338637 1.3330542 2.2276843 3.6388671 -0.19669643 -2.9329488 -1.6745099 -0.8475102 -1.7642167 3.5497518 2.4185598 3.244486 2.1163611 -3.6362743 -1.2626286 -5.6855006 -2.3577936 0.123122334
C15H22N2O4+H+ 0.45490998 -2.6721547 0.040812433 0.35745904 -0.14611164 1.0940915 -0.6855766 2.3657086 -2.8372087 1.7415596 0.07742677 2.5804887 -0.96763915 -2.5410821 1.9120717 -1.9576052 1.1209884 -2.0330725 0.3033771 2.331617 5.6572623 -1.9608828 1.5484267 0.30276054 -0.9891831 0.608645 0.9878893 0.047001448 0.43800747 -3.3725045 -2.9875154 2.100715 0.92460495 1.2315842 -2.9785938 0.48078793 -2.1949806 -1.6633317 1.7749273 0.17960984 5.080408 7.888793 -2.6063328 2.322864 -0.35607657 4.6285405 5.2635627 0.98938733 0.6448594 -2.3803759 0.16138405 1.1661524 -2.902817 0.6879821 -0.39420196 2.9194756 -3.0447052 -0.1866996 2.2167537 3.5379975 0.17061795 -0.47015926 0.23694248 -0.16907175 1.6928359 2.1309502 4.1949406 3.6453817 -3.1079755 4.8460727 -0.56803787 2.2004104 1.3770677 -0.00320824 -2.3445098 -1.5250381 1.0351816 1.5366756 1.1319369 0.086434424 0.8202994 2.6799884 3.671054 4.2714133 -1.8221949 4.846127 2.7493362 -1.2519635 1.2860988 -0.83436453 1.2234437 1.4164988 -1.6097999 -2.723935 1.3960315 -1.7614301 -3.3852608 -2.4014661 -3.1869361 0.30883086
