37 100
C7H15NO3+H+ 0.0052047893 0.7497628 -0.38398308 0.303644 -1.186255 0.46829957 0.8159924 0.79719675 -0.69442314 -0.28687713 -0.33349404 0.94103295 -0.8104501 0.39772683 0.36164585 -0.45742524 -0.6299419 -0.38129386 0.9749321 -0.8607562 -0.20893633 0.5227801 -1.412031 -2.1108873 0.12477357 0.6115306 -0.4972708 -0.32138616 -0.9386607 0.6300249 -0.1647617 -1.2601682 0.15247579 1.6969254 -0.7578928 0.34279284 0.6969262 1.4011923 0.30836183 -0.040894296 -0.2640144 0.7046475 -0.7910983 -1.3127515 0.491641 -0.12691605 1.6735909 0.42595482 0.5072739 0.42902106 0.14034924 -0.8648763 0.21883924 0.2204128 -0.7067724 -0.007931975 -0.06820858 -0.02784154 1.6464449 -0.19104946 -0.83368665 0.4234539 -0.09376796 -0.18828462 0.50363404 -0.40053487 -0.27962303 -1.0040759 0.70379233 -0.04954222 0.32777116 0.1959847 0.2060338 0.14521684 0.70336336 -0.19550952 0.24486619 0.6822435 0.103943914 -1.4578881 0.71650094 -0.9664539 2.041699 -1.4183793 -0.62795454 0.16382346 -1.1632252 0.5868106 0.37074876 -0.58153003 -0.6250884 0.9807032 0.4638506 0.8184059 0.06375086 0.917511 0.41625336 -1.835943 -1.8199381 -0.27823806
C15H22N6O5S+H+ 0.47232914 -0.68922883 0.289422 0.077627875 0.47717777 -0.6081859 -0.49607775 0.13176098 0.1552968 0.2675954 0.26310033 0.31294945 1.1307951 -0.2411567 -0.5396635 0.16364197 0.11542992 0.15998656 -1.0468427 0.42979756 0.39150977 -0.10444512 0.39189112 0.31711924 0.100618124 -0.23350382 0.28445706 0.26299495 -0.19414786 -0.4556381 -0.37973928 -0.43722793 0.6043686 0.49306402 0.6762725 -0.0482337 0.13950855 -0.36807275 -0.02303516 -0.060869627 0.2641288 -0.05362585 0.3935594 -0.6540686 0.04795901 0.20380342 0.10103015 0.18654394 -0.65908223 -0.14139651 -0.53277975 0.506207 0.19539978 0.59428835 -0.0022487193 0.39730668 0.0076017426 0.282075 1.3646655 -0.053058356 -0.46644062 -1.1003716 -0.4407414 0.26174465 0.22644243 0.9332489 -0.38478068 0.97116244 0.3393762 0.0900947 0.3723932 -0.6198064 0.37131843 0.58778566 0.1747242 -0.27733138 0.03574613 -0.7540027 0.30227718 0.6598033 -0.21783386 -0.009366241 0.2610059 0.14571418 -0.10295003 0.42071226 -0.43321455 0.6510542 0.0020866948 -0.8398044 0.8129659 -0.59133667 -0.6404317 0.036016755 0.33610782 -0.58688223 1.2098138 0.069446385 -0.8347329 -0.68573004
C24H50NO7P+H+ -0.41634405 -3.0776 0.67932576 1.155877 -0.72720504 1.0337065 0.95280206 2.3695176 -1.9744921 -0.13110964 2.6591673 0.55514187 1.4782687 1.1854526 0.13458943 1.0459 0.013134427 0.61603796 -0.7770968 0.2700028 -1.1186527 0.32668403 0.2379438 0.30485302 -1.1806465 -3.4299345 1.0944242 -0.6064676 -1.730459 -0.6434326 -1.0569885 0.69751257 0.035186157 0.18959844 -1.1245936 -1.5738801 -0.7543722 1.5772352 1.3040936 -1.572243 -1.3313402 -2.2817607 2.2746468 -0.63009244 -1.5054119 -1.9394171 -0.59723157 -2.4492548 -0.42037612 -2.392836 1.2930491 -1.2800651 0.68029785 0.67306364 0.3318954 1.2874097 0.90953386 -1.8330406 -0.6476987 3.4951785 1.4723564 -0.343332 3.0719442 1.0582124 -1.1436886 -1.0206727 -1.0487394 -1.4673837 -0.6989204 -0.7986414 0.2852287 -0.8738744 -2.600736 -2.7907903 -3.5903234 1.3191435 1.3453397 -1.0312854 0.80847293 -1.7789416 2.4914188 -2.0382571 -2.9337993 -0.9018377 -2.4320834 1.9184537 1.2912526 0.9598377 -1.7728989 1.6386849 -1.623597 1.2458744 -2.9068944 -1.6664493 -0.4353732 0.77945495 -1.3645643 -2.0094013 0.4119686 0.6871354
C4H9N3O2+K+ 0.81351477 0.18309186 -0.03592107 0.6838861 0.2077106 -0.5175002 0.6678162 0.46546245 0.6868816 1.2624811 0.081863046 -0.85674137 -0.9490371 0.8377814 -0.71610785 -0.78590024 0.08135423 0.7967965 0.9983891 -0.5285902 -0.22860864 0.5168095 0.47812557 -0.8201901 0.6014951 0.016650502 1.1395148 0.3546382 -0.29749453 2.1706738 0.10403477 1.025155 -0.6826347 1.2736918 0.3651997 -0.26419172 -0.42972982 0.174625 0.008662142 -0.03627414 -0.1854838 -0.29494035 -0.52524257 0.51187485 -0.52083284 -0.66520643 1.719883 -0.7664318 0.97919846 1.1051568 -0.2855979 0.31554115 -0.032838676 -1.0576781 1.0580993 1.0040087 -0.3540734 -0.77781886 -0.16956699 0.06519942 -1.3515663 -1.0460447 -1.0876822 -1.0355712 2.1606896 -0.32082698 -0.5392454 -0.32629913 0.22038068 -0.75074965 -0.10164269 -0.17633125 -0.83803785 -0.49997324 -0.69359285 0.7382184 1.1331887 0.6624513 -1.0929894 1.2287612 1.1965597 0.83098024 -0.8850972 0.86366326 1.5470374 0.4828683 -0.81045806 1.0298501 0.7204982 -0.12533039 -0.6560963 0.56694144 1.2248911 0.16489199 -0.7446815 0.016180828 0.23541209 0.13270032 0.03282488 0.7220812
C9H17NO4+H+ -1.3360559 -0.67356265 0.17400806 1.0853134 -0.44187003 0.18979014 -0.22781378 -1.2417027 0.517134 -0.40183437 0.39147043 -0.8958546 0.1998205 -2.1740034 -0.54216826 -0.020932695 0.563581 -1.3094038 -2.1735456 0.12831545 0.35843518 0.39545172 0.92826617 -0.33897 0.3329898 -0.7578355 0.013504085 -0.54314256 0.079700954 -0.31204394 -0.7969111 -1.0282763 -0.3419949 0.53285706 1.9225441 -0.10301357 -1.0561308 -0.11556589 -0.04227867 -0.2656314 1.1766884 -0.40616733 0.4885989 0.0578528 -0.3781447 1.4603169 0.15301737 1.0616518 -0.080472246 0.875515 0.9506548 1.239075 0.30182856 1.5631833 -0.36396497 1.1671864 1.4712597 0.2869845 1.0325694 -0.23354028 0.40245348 0.8313872 0.42318228 1.1313802 0.14101705 2.0639691 0.49489418 0.52113944 -0.88161075 0.1863728 -0.93509537 -1.0458795 0.3323793 -0.7068338 -0.24654844 -0.29501197 -1.4934157 -0.2396002 0.19134912 1.5595069 -0.8032438 -1.0144652 1.054219 0.1274251 -0.19444056 -0.30972984 -0.18541428 -0.9037101 1.3685609 -1.0181599 0.63641894 -0.16147873 -1.5283008 -0.7128989 -0.11851412 -0.3473366 0.26934376 -0.32750496 0.4699868 -1.0821897
C11H21NO4+H+ -3.4484982 0.6843972 0.018783 -0.031413537 -1.3731382 -1.5248297 -1.3049219 0.89372563 1.2893236 -0.34866086 -1.0990111 -1.635101 -0.9761944 0.032459974 -0.1418442 0.2720826 -1.9280267 -0.76911575 0.93596274 -0.18084687 0.7516126 1.0629826 -0.7962203 -2.2683792 -1.6250429 -1.1634699 0.6434738 -1.029403 -0.47528282 0.048605558 -1.2301869 0.68141145 0.02604391 0.66224855 -0.348088 0.6232804 -0.8065652 0.9584861 0.7544009 0.53597873 -0.9047505 -0.1584677 -0.32832956 0.29427817 -0.13680895 0.919479 1.738077 0.2560766 0.9746289 -0.19745459 1.2026913 -0.6129845 0.74864715 0.3209861 -0.6505435 1.7017535 -0.21391883 2.908707 -1.6612823 2.1208093 1.6689805 0.9692087 1.2759112 -0.52022755 -1.1181754 0.47203845 1.3167733 -0.96428597 -0.40890482 0.5512379 -0.3974703 -0.6172596 -2.190087 -1.8266447 -1.6637657 -1.4731967 0.34861842 0.7739837 0.0714806 -0.020593265 0.10998304 -2.0871832 1.3413024 -2.000787 0.40039253 1.1147504 0.67299384 -1.0961453 0.5935629 0.42793536 -1.6530135 2.1006744 -1.3428936 -0.7351964 -0.09836191 2.3927863 -1.2253425 -2.1142154 -0.3125413 -0.58312404
C22H22O7+H+ 1.6063324 0.5114088 -1.4838842 0.4971012 -2.8468804 0.5281943 0.27652287 -1.1645833 0.5575362 -1.4737555 -0.0013806999 0.32990804 -2.7635572 0.70877695 -1.083475 -0.70836294 -0.111648574 -0.3435097 0.34094313 -1.6031884 1.6194488 0.9313973 -0.24836095 -1.6563716 0.53048366 0.8684376 -0.6506147 1.0944699 -2.7924728 -0.011134685 1.0213529 0.95721185 1.8367159 2.4279652 -2.4985533 -1.4870692 -0.5707724 2.0792758 -0.006399924 0.7917952 -0.6438492 0.19879287 0.30842838 -4.1585875 1.0288416 0.9108844 3.4385817 1.4435337 3.5348172 -0.39598605 0.012002732 -0.8193433 1.2186111 1.2721217 -0.9943749 -0.4524428 -1.3512304 1.0968444 0.817557 0.065672874 -0.7886083 1.8158857 0.86234236 -0.6097039 -0.69063556 -3.0158014 -0.72870624 0.2747819 2.4208858 -1.7460043 0.5729481 -0.19616313 1.2166284 -0.45457807 -1.3714317 -0.6396175 0.6331871 -0.43336597 -0.22638357 -2.8240318 1.1399761 -1.3289074 0.076044336 -2.7737002 -0.33949053 -2.22045 0.49318588 -1.4120402 1.9665183 0.5787418 -2.0011425 0.65414083 0.11620088 -0.42345467 -1.1898131 2.0338945 -0.7782256 -1.1987696 -0.56503797 -1.0113487
C8H20NO6P+H+ 0.19227873 -0.79084677 0.0898377 0.17429113 -1.3428986 0.4982758 0.26452664 -0.0633925 -0.6503919 0.18107732 0.49497288 0.3450516 -0.34396634 -0.26621073 0.27843645 0.12213892 0.5962439 -0.24398668 -0.60040504 -0.07407353 -0.14432588 -0.5319356 0.22121395 -0.9280368 -0.40569147 -0.659509 -0.0063176444 -0.60261774 -0.45803168 -0.053504903 0.1048944 -0.36323512 -0.043919962 0.17499958 -0.13367869 -0.4209951 0.49022764 -0.009498185 0.262295 -0.49134567 0.21335708 -0.51936996 0.020811286 -0.83146894 -0.5252056 0.005124336 0.64687026 -0.29193208 0.20512937 -0.36626577 0.67302865 0.053898305 0.2762583 0.73995966 0.15831435 -0.17544752 0.38196015 -0.9291266 0.7209719 1.0550194 -0.08055633 -0.05430275 0.6579676 -0.09171966 0.194742 -0.36906973 -0.1870023 -0.72871727 -0.6044982 0.48261848 0.13111404 -0.1808467 -0.6140346 -0.18716271 0.16541988 0.00886105 0.7147057 0.02697806 0.024911812 -0.45219734 0.10463025 -0.5662163 0.033841662 -0.17276274 -0.97046834 0.39859515 -0.4863801 -0.3680706 -0.6260997 0.3032299 -0.552108 0.8533874 -0.47539514 -0.73523635 -0.44578806 0.055709865 -0.5691217 -0.7382005 0.042361733 -0.7761182
C10H7NO3+K+ -0.19597225 -0.47901678 0.001743719 -0.7545216 -0.9108655 -0.8657487 -0.69126797 -2.1377964 1.5116688 -0.77858675 0.19366439 -0.999191 -0.29764676 0.65386856 -1.0682483 -0.8699119 0.8477729 -0.2788876 -0.96158075 0.76440877 1.5804242 -0.721411 0.21842696 0.97911793 -0.60077596 -0.99858755 -0.5791769 0.10925832 -0.4841063 -2.133327 1.0942467 0.22788624 1.4500813 -1.1919303 0.20637394 0.03920013 -0.770803 -0.70306754 0.78473806 0.5379075 0.31981426 -0.17975128 1.3053616 -1.8909278 -0.55773854 1.3528038 0.3109716 0.5684249 1.9898183 -0.19466566 0.5649393 0.7140007 0.45647848 1.4913621 -0.04483907 0.031932186 0.14365049 0.4967279 -0.4741451 0.7477407 -0.26513 0.5665271 0.801836 0.062117435 -1.5692582 -0.8798468 -0.79679996 2.4184337 0.4432877 0.5514061 0.049128767 -1.1273478 -0.1484379 0.023415642 -0.95983434 -1.1182836 1.0050144 -1.0702342 -0.92180556 -0.89992815 -0.67981493 0.6741498 -1.4700543 -0.6696498 -0.2701517 -1.63102 1.4921881 -0.9587803 1.0151597 0.86676 -0.28536126 -0.5706776 -1.4719982 -1.0498203 -0.4881854 -0.13463587 -0.5970279 1.2116373 1.5144833 -1.2234737
C11H20N2O3+H+ 0.5037856 -0.7858482 -0.18515243 0.2672073 -1.9121014 1.1817927 1.1668347 -0.49338335 -1.1956638 -1.4718713 3.0551338 1.2012041 1.4496605 -0.23037933 -0.4949408 0.48822755 0.41628054 0.28855914 -1.6845409 0.7723085 -0.4212145 -0.20286271 -0.58111286 1.1646509 -0.09543119 -0.3414108 0.18229926 0.5535449 -0.0006151922 -1.3362476 1.0692292 -0.15254006 0.16364026 -0.07127302 0.4220324 -0.5215409 -0.63021654 0.7698251 -0.07933563 -1.7909958 1.6194884 -0.8075703 0.6568982 -1.5269186 0.010991704 -0.12575479 -0.7748204 1.0951136 -0.07700912 -1.528409 1.078449 -0.40528852 0.24274819 1.1066628 0.47921196 1.2650795 0.331818 -1.6618063 0.5586287 0.013628425 0.12962207 -0.42065698 1.5835415 1.5453296 -1.0364643 -0.3888169 -0.945663 0.9933293 0.20175053 0.15341836 -0.9236671 -1.0492194 0.90126663 0.74106663 -0.7759487 1.0394106 -0.89997995 -1.8357478 -0.25466186 -0.29154724 -0.029925425 -1.0404366 0.7860062 -0.8212902 -3.6337185 0.08202513 -0.89503723 0.3123189 -0.88006175 -1.0962803 0.3945571 1.3393617 -0.9720695 -0.29400316 0.2879384 -0.17451455 0.82061106 -0.29872322 0.5147811 -0.44005418
C8H17NO2+H+ 0.78814745 -1.5663568 -0.9275484 1.3048627 -0.039214373 1.3125862 0.9592815 1.3488548 -1.4411521 0.5964064 1.4109933 2.221488 1.2575066 0.88288206 -0.86045045 1.1624163 0.9947997 1.445121 -1.2222774 0.5365861 -0.87560356 0.58386815 -0.13482481 0.970476 0.6168997 0.13289048 -0.55253696 1.1819165 -0.46880448 -1.6234154 -0.73625726 -0.047081314 1.1245825 1.4801666 -0.03811919 -0.23999716 -0.33890012 -0.48026985 -0.5180126 -3.0351698 0.32833678 0.6042988 1.235668 -1.6830696 0.73168325 -1.4894372 -0.23157594 -1.0579991 -0.9549933 -0.2894473 -0.17928687 -1.2466091 0.45318398 1.1178551 0.4206032 1.5136704 0.516652 -2.4470184 0.7430638 -0.19424124 -0.31111392 0.581939 1.0277083 0.7921539 0.025853863 -0.97387344 -1.4861183 0.20536123 1.2581116 -1.8755064 -1.1883885 -1.6773937 2.066047 0.834801 -0.78657347 1.0353923 -0.50641257 -0.6724051 -0.022844546 0.30622146 1.1624838 -0.42035124 0.7166616 0.42452824 -0.97630966 1.0827414 0.116373986 1.8295976 -0.11835437 -1.1688982 0.45020303 -0.7132334 -1.1693642 -0.8622701 -0.087896176 -0.77361614 1.8577889 -0.058923215 -0.9382575 -0.17838728
C29H47NO4+Na+ 0.07261454 0.18858692 0.2561973 0.7291267 0.39251435 -0.8099075 -0.77762526 -0.5978034 0.31981778 0.10352032 0.039373238 -1.5708739 2.1830199 -0.2729123 0.21673441 -2.519016 -0.8944424 -0.39773446 -0.39687282 -0.67165035 -0.47666752 -1.0246387 0.020721478 -0.32669124 0.49884936 -1.7994653 -2.0590005 -2.3178825 0.9435623 -1.4106013 0.89651656 -2.0245953 1.5340718 -1.07113 0.23689388 0.7803406 -0.21783142 -0.018224254 2.3172793 -0.413532 0.8182239 -1.4694176 0.41118497 0.26043427 -1.4666392 1.2424284 0.5076908 -0.6950266 -0.4739827 0.23498876 0.029447204 0.91910243 -0.90977556 -0.3655869 1.0917865 0.104930125 3.152018 0.09249369 0.28372616 0.41662413 -0.6106331 1.137284 -0.871568 -0.21422864 -1.8257245 -0.29055357 0.1368404 0.90235275 -1.1924188 0.90493166 0.26911035 -1.1325575 -2.2111013 -0.75504446 -0.6052401 -0.13078807 -0.17467424 1.1239614 -0.19075112 -1.3048646 -0.82618785 -0.025249872 -0.5915221 -0.16730562 0.43746567 0.09112128 1.9235942 -2.3243442 0.15813668 1.3849328 0.53814167 -0.11253344 -0.5905723 -1.6055619 0.3550604 -2.5386782 -0.0448639 -1.1930251 -0.946952 -1.067801
C7H15NO3+K+ 0.04961933 -0.42162514 0.35403034 0.48538715 -0.23561816 -0.23664798 0.43660077 -0.2723735 -0.23282818 -0.3913725 1.1064817 0.079319194 -0.28729814 -0.43305013 0.4594712 -0.27851126 0.42018822 0.4500515 -0.563977 -0.15133816 0.4619828 -0.10406587 -0.11119135 -0.7851703 0.36467135 -0.7080444 -0.085854 -0.19180258 -0.43348882 -0.054718826 -0.28713995 -0.24974415 0.05587675 0.34025812 0.0364853 -0.64034367 -0.63385683 0.73041314 0.40781125 -0.6345935 0.099131726 0.06582893 0.25788942 -0.12982258 -0.25778311 0.2711874 0.5310689 0.19724573 -0.015430711 -0.037531886 0.5385085 -0.0076716407 0.6755465 0.65803003 -0.1453468 0.90688306 0.40967613 0.13388085 0.12361029 0.39217618 0.04407356 0.5493142 1.194992 0.31876668 -0.03325349 0.22178724 -0.6682116 -0.4298883 0.21773268 0.08326617 -0.44058704 -1.2419751 -0.24750042 -0.4321956 -0.23336567 -0.2682823 0.30617508 -0.49507353 0.10198215 -0.4456858 0.26523095 -0.70323414 0.9315982 -0.63385147 -0.84661466 0.23059952 0.0021898444 0.71706235 -0.012334295 0.05883523 -0.2273812 1.2931472 -1.2018924 -0.7009226 0.18935858 0.7797818 0.21585383 -0.37194982 -0.012232557 -0.86781806
C26H50NO7P+H+ -0.102506414 0.34157425 1.0531888 -0.66199577 -2.0048177 -0.9190973 -0.57742035 0.27583465 -0.25662377 -0.67312574 -1.0355104 -0.1576184 -1.243015 0.15751953 0.12339129 -1.0191808 -0.76231074 -1.671541 0.34888765 -1.7351218 0.98749197 0.2191496 -0.014938043 -3.3704515 -0.0074873073 0.5177478 -0.23759323 -0.3316298 -1.7632475 0.7528832 0.20931864 -0.687184 0.59689814 0.7000839 -1.076719 0.29291824 -0.011424862 0.23037973 0.42356813 1.9060218 -1.2611431 -0.69861805 -0.51921237 -1.5106032 0.43858653 1.1071622 2.767098 0.50278485 2.0899663 0.15391311 0.095696926 -0.5310145 0.75648934 0.6295883 -0.67442346 -0.3193023 -1.022015 1.1953206 1.8731619 0.8033257 -0.83177394 0.07625796 -0.9613897 -1.2551595 1.0247884 0.33164376 -0.22658625 -0.11032016 0.0543907 0.52227247 1.6762552 0.42018047 -1.857553 -0.6298166 0.60109055 -1.6867094 1.032454 0.12469828 -0.45400873 -2.0935059 -0.08220664 -1.3623018 0.26552802 -2.8716238 0.26370212 -0.40748268 -1.3057365 -0.85452646 0.76534116 -0.27058235 -1.5959082 1.3248851 0.3610525 1.2478813 0.17894058 1.9043571 -0.27253297 -1.6503805 -1.079837 -0.93591475
C13H17NO3+Na+ -1.0535036 0.23765768 -0.31977612 -0.05183182 -0.35650662 -0.45687452 -0.4033346 0.5387774 -0.055247884 -1.0346636 1.0320507 0.08252239 0.90784144 -0.00076085667 -0.037434984 0.1880136 -1.770533 0.053941004 -0.037533578 -0.06453042 0.38791674 0.55859727 -0.9379654 0.44838095 -0.010192161 -0.06176262 0.44678816 0.6682186 0.11788657 -0.42803222 0.6398465 0.3900019 -0.101128936 -0.26477224 -0.16569173 -0.0055243974 -1.5982275 1.1717845 -0.28932187 -0.82631373 0.350299 -0.08035526 -0.57570595 0.801261 1.0318811 -7.130267e-05 -0.5167394 0.67836046 -0.59628075 -0.8974225 -0.5698137 -0.79867023 0.1295891 -0.81160873 0.64053416 1.279126 -0.9257645 -0.033872973 -1.2239676 -0.5657744 0.57583076 -0.61844295 0.507369 0.12152126 -0.45457244 0.006739341 -0.5490962 1.078168 0.56589574 -0.26308024 -0.6993061 -1.0041063 -0.48619354 0.1679586 -0.4179892 0.7582076 -1.2256532 -0.5149941 0.15725355 1.5733762 -0.28615382 -0.7251565 1.5149064 -0.16743244 -0.94230056 0.6443742 -0.64110947 0.38247252 0.2216946 -0.39918923 0.399813 1.266716 -0.74394083 0.18946849 0.69910055 0.276734 0.89176077 -0.04328909 -0.43799642 0.8871801
C10H16N4O3+H+ -0.74769133 -0.5161117 -0.7703823 0.4931952 -1.3713104 0.36251318 0.5504067 -0.041948043 -0.0008905685 -0.5871763 1.4828238 1.127544 0.45880896 0.16168308 0.16099834 1.1407554 -0.0011465292 0.9894078 0.6777066 1.3993523 -0.60258186 0.19031174 -1.1519612 0.05252967 -0.5935124 -0.03529388 0.5439971 -0.20880489 0.24675195 -0.28790835 -0.17354624 0.4125471 -0.23111759 0.84217685 -0.38353115 -0.814122 0.35827467 1.4544328 0.1262955 -0.79785913 0.8291626 0.7814979 -0.15548016 -0.908831 -0.026884034 -0.01613911 0.2685676 0.7852188 -0.4480824 -0.015657516 0.069659315 -0.8234703 -0.0945138 0.50929505 -0.4203692 0.99387753 0.052473728 0.40365386 -0.41214246 1.210687 0.69405425 -0.026575398 2.2557638 1.058501 -1.1459494 -0.70529747 0.6576147 -0.8511817 0.10314569 -0.15475929 -1.3917445 -0.43932164 0.9780658 -0.28906557 -1.2336383 -0.20526788 0.0023397645 -0.4883433 0.6052295 0.19971813 0.36411104 -1.0956227 1.4409981 -0.56247675 -1.6048642 1.5135568 0.59897625 0.20243211 -1.352378 -0.77326065 -0.4504385 1.2485577 -0.70631886 -0.55743694 0.26721606 0.67914927 -0.21160933 -1.0061786 -0.6218524 -0.85124123
C8H20NO6P+K+ -0.11393887 -0.8150078 0.17303109 0.82561845 1.1357002 -0.18458201 0.8632419 -0.5258864 0.74107987 -0.05726451 1.3474689 0.7042164 0.2218605 0.7265439 0.33556354 0.02796078 1.1354707 1.6980032 1.2490549 0.2586669 0.06473556 0.30436465 -0.13245627 1.7795377 1.2511929 -0.17472808 0.46533003 1.4186156 0.3720675 -0.6273219 1.4102771 1.7229278 0.03771294 -0.800201 0.08791883 -1.2910038 -1.62327 0.23168531 0.13462287 -0.35974833 0.78846574 1.6160232 0.81175536 0.7297632 0.48551556 -0.098463036 -0.7630385 -0.25737843 0.10246419 1.3232892 -1.1916312 -0.6799622 -0.38596585 -0.10244277 -0.7704042 1.4450021 0.60442394 -0.71223766 -2.5889893 0.52692544 0.5766689 0.82853216 2.1852236 1.0096071 -0.14396472 -0.62684566 -0.31135052 1.16301 0.8538229 -1.1279688 -1.9029254 -1.8810923 1.0391977 -1.212137 -1.6428742 0.116193 -0.48928395 -1.4175482 -0.93906164 0.8360299 0.18330686 0.5083367 -0.870955 -0.012988807 0.26305652 0.4060159 1.5960814 1.1563536 -0.8313139 -0.06902853 0.10558933 -0.47728044 -1.1972711 -0.9644655 0.23902845 0.6706217 0.6779499 1.0746461 1.5836853 0.3457376
C8H20NO6P+Na+ -0.04474508 0.9599265 -0.8319302 0.34989294 -0.76523817 0.015019292 -0.08004711 -0.8550994 0.4536458 0.9903199 -0.2846337 -0.4243653 -1.0602251 -0.7220182 0.3295004 -0.57641697 -0.38546428 0.13593626 0.9634114 0.34865546 0.13410293 -0.11402338 -0.9532362 -0.39384165 -0.5318347 -0.32986766 0.3540956 -0.8640175 0.3797435 1.1804653 0.31557253 -1.1172404 -0.8954256 0.93399364 1.2315689 -0.21903747 0.9830728 1.2208695 0.3531536 -0.3492182 1.9644911 1.0567527 -2.2626894 -0.31551367 -0.652505 0.38368028 0.64030963 1.1759257 0.12341294 0.26631263 0.3233656 1.1917454 -0.8046649 -0.2594926 -0.21426602 -0.56745136 0.3744118 -0.24575491 0.859079 -0.061567552 -0.5694909 -1.6294155 -0.05508037 0.083703265 0.32551765 0.03331838 0.28995705 -0.63037246 0.14288943 1.2612202 -0.7270427 0.019865021 0.5841892 0.3365728 1.1026313 0.6509325 0.03337943 0.9164821 -0.063266546 1.2570454 -0.3580376 0.25783712 1.919201 0.9174297 -0.59478396 -0.14558081 -1.795274 0.3724353 -0.3384056 -0.49864626 0.28785866 0.8522919 0.5427944 -0.7289914 -0.4408479 -0.78004736 -0.020162713 -0.9428964 -0.4358238 -0.14040186
C10H11NO2+Na+ -0.18466103 -0.22822484 -0.5227642 -0.761387 -1.2827674 0.24671806 -1.2722816 -0.51158756 -0.3241326 -0.4863826 0.78496385 -0.114191584 0.97218955 0.2362908 -0.2272903 0.7788832 -0.31308228 -0.11855635 -1.4662324 1.3685867 0.6108429 -0.47527757 0.29266277 0.9380795 -0.89934313 -0.35617763 -0.18313338 -0.94178927 -0.046328887 -1.3917593 0.4360175 -0.21587674 1.1790974 -0.25676104 -0.22876917 0.8626217 0.41371846 -0.4581555 -0.093191095 0.34079137 -0.33608636 -0.65399694 0.6773239 -0.15330106 0.16098672 0.5287839 -1.1229362 -0.4408492 -0.36681756 -1.4258952 0.029209493 0.49369657 0.48283005 0.6683701 0.9591412 -1.1288135 0.021595769 0.03644442 0.4091025 0.15686439 0.28079647 -0.16990484 0.7438324 0.043194443 -1.8711755 -0.2512629 0.1415679 0.3563721 -0.39226192 0.69702774 0.089312956 0.8862669 -0.7342864 1.1632309 0.19042099 0.1793947 -0.051879447 -0.60841626 1.1245763 -0.048012834 -0.06321109 0.15065414 -0.3884731 0.09941753 -0.6852177 0.706244 0.9130781 -1.0073618 0.43507668 0.859366 0.6776402 0.15549016 -0.45367306 -0.5301744 -0.24742815 -1.4593264 -1.3482268 -0.14143693 0.29654625 0.10003004
C37H68O4+H+ 0.067764364 -0.67856306 -0.4512866 -0.32559806 -0.75050056 0.010958964 -0.4019263 -0.8748359 0.4006306 -1.0174519 0.6593016 -0.19142523 1.3595136 0.28812745 0.2541354 -0.0494587 0.38565353 -0.42524132 -1.1148444 1.5362453 0.57532525 -0.90252876 0.013788404 0.53100795 -1.6705269 -0.8180322 -0.14520493 -0.710254 -0.009817679 -2.2960021 0.5423077 -0.36491683 1.2182956 -0.910842 -0.5330888 -0.15911476 0.070068985 -0.38832003 1.4731983 -0.31830406 0.33103803 -1.1268508 1.3165458 -0.7995095 -0.5707278 1.1316526 -0.1540038 0.38299534 0.28521097 -0.4809545 0.77868193 0.5665787 0.07496605 1.244711 0.17007239 -0.4252128 0.9869284 0.23987895 -0.25378156 1.4389256 0.08210379 0.034358736 0.20245616 0.04562699 -2.2365024 -0.45824158 0.15967602 1.1642679 -0.33553693 1.5702745 0.53821415 -0.51718247 0.096895084 0.68270606 -0.568688 -0.59690166 1.1858033 -0.12549096 0.061105937 -0.8423099 -0.10812143 0.3008042 -1.0114703 -0.34073648 -1.1188394 -0.39341143 1.5818306 -1.2298319 -0.30241835 0.94244874 0.19544268 0.2578593 -1.2627051 -0.6334132 -0.07461673 -0.51310384 -0.6171761 0.50740725 0.6680119 -0.6610998
C35H66O4+H+ 0.7623359 -1.0039737 2.229262 0.22348371 0.40886936 -1.1602426 -2.8552432 -0.79852647 0.61066157 2.7068825 -0.5617536 -2.1107948 0.7574121 -0.46960238 0.5178288 -2.2230556 1.8648266 0.6083085 -1.7509391 -0.5412394 0.808333 -1.2379671 2.0143514 -0.5074678 1.5695403 -2.2015676 -1.6882234 -2.0445287 0.86188924 -0.6820286 -0.6372252 -0.95433277 3.4030688 0.55401754 1.0698874 0.31153375 1.4778631 -0.33246312 0.733348 0.886133 2.0176113 -0.38609484 0.30885637 -0.7998496 -2.762024 1.6890167 0.66057557 -0.67302775 -1.688962 0.012325909 -1.0246996 1.6163893 0.33095938 1.3034905 0.17180361 -0.6018926 2.8040233 1.7067952 1.9258698 1.0909941 0.58638495 -0.16300836 0.49231157 0.64689165 -0.23784034 1.378703 1.678177 -1.335649 -1.2910897 0.5672169 0.15779763 -1.4850144 -2.8534124 -0.47602546 -0.21936725 -1.1542932 -1.0619167 -1.2378246 -0.15264583 -1.329039 -1.9374503 -1.8706081 0.17733555 -0.2205691 1.4282091 2.357514 1.1014158 -1.925466 -1.333774 0.11392022 -0.67018944 -1.4986206 0.07215648 -3.414811 0.085409 -1.4992621 -0.5502042 -1.9201317 -0.5169114 -2.9906216
C23H45NO4+H+ -1.443542 0.5608537 0.012047047 -0.34822384 -0.8935116 -0.19222768 -1.6092608 0.71170425 0.28940678 0.3009802 -1.0757523 0.18598601 0.25114965 0.6322147 0.4722802 0.35725096 -0.6749437 -0.28537363 1.3952423 0.2156082 0.25793716 1.0531261 -0.7303008 -0.15029661 -0.95277375 0.4184476 0.027288364 0.11341765 0.3109917 -0.98553693 -0.3498801 0.3054128 0.72629845 0.2739104 -0.15287004 0.38636604 0.33671427 0.43640533 0.036243353 0.3546222 0.92219955 0.94013625 -1.0238692 -0.787581 0.51096106 0.61954683 0.34422243 1.0731817 0.28582636 -0.0017871861 -0.13285378 -0.9767935 -0.79666305 0.36381668 -1.2920568 0.46769795 -0.3482229 1.4663792 -0.64905185 1.4117504 1.4906328 -0.55795956 0.27109405 0.5794252 -1.1284685 0.27450916 1.6077008 -0.25443196 0.45054382 0.5713924 -0.52703124 -0.057493266 0.37212518 -0.26442987 -0.6434515 -0.8415457 -0.9049546 -0.23569678 -0.61010927 -0.30239636 -0.45273954 -1.4166428 1.1807786 -1.6067079 -0.029094283 0.90425396 -0.24101295 -0.45066833 -1.2270594 -1.4189866 -0.8828025 0.058469363 0.0593709 -0.17203857 0.5836747 1.0325229 0.34458208 -1.2664344 -0.23143452 0.046291515
C37H66O4+H+ -0.8236697 0.14096907 0.59467125 -0.7083402 0.0031853132 0.4746015 -0.7423748 0.51421815 -0.09302423 0.06501556 0.13032469 1.0056708 -0.34150982 0.7556273 0.18116894 1.1370611 0.6645178 1.0295783 1.3004804 -0.3138141 0.30786467 0.5685107 0.013430284 0.5366127 0.07305602 0.26978293 -0.17280221 0.3386171 0.60374373 -0.0028057941 -0.5168237 1.1210214 -0.77285206 0.5102308 0.18975095 0.46114516 0.31360662 -0.02287152 -0.5081314 0.7205714 -0.6671333 2.267345 -0.49239594 -0.87200207 1.0965012 -0.43285835 -0.4360054 -0.28688285 -0.48345867 0.3849714 -0.86131227 -0.5526371 -0.53961104 0.3971513 -0.7145945 0.54012007 -0.87077546 0.50874144 0.23550822 0.33357206 1.3402148 -0.07398289 2.3678014 1.0972822 -0.052991204 0.66164476 0.88829803 -0.06164233 -0.14916848 -0.68459785 -0.8483347 1.0071614 0.5889564 -0.58756906 -0.22135028 -1.4652172 -1.1502753 -2.2201886 0.52615356 0.08915464 0.14902104 -0.40714914 0.8797591 -1.3260581 0.47791338 1.9874223 -0.08658834 0.7868483 -0.7154689 -1.5423524 -0.5911693 -0.593166 0.5022822 -0.3784577 0.68624854 0.70971775 -0.35824394 -0.75972146 0.2163752 0.38522217
C10H15N5O10P2+H+ 0.027075911 -0.31791162 -0.7888918 0.32869598 1.7888664 -1.2801546 0.23698507 -0.15618329 0.49818635 1.6766714 -2.125824 -0.6868194 -0.93228257 -0.48315924 1.7865168 -0.8619481 -0.9814387 0.22080065 1.4446582 1.45024 0.15550652 -1.3046852 -1.4988396 0.25126275 -1.3913033 -0.87574303 1.0104468 0.58953756 0.25058076 0.9424291 -0.49970117 -1.0019732 -0.043478273 -1.5417117 -0.8219922 -1.6028063 0.40299958 1.4485452 1.2690095 -0.23875412 2.1553898 1.1084423 -2.095009 0.50692385 -1.3931658 0.1547428 -0.67445606 1.3925254 -1.013213 -0.24781656 -0.7619078 1.1088562 -0.106782794 -0.56533545 -1.2837689 -2.7987533 0.11553005 0.99186116 -0.8781981 0.16368675 -1.0137825 -2.8245347 -0.70030487 -1.0556688 0.7763482 -0.26290992 0.3204083 -0.32923234 0.79431206 1.3097717 0.23006104 -1.4283123 1.4325341 -1.0714867 -0.058855444 0.32902646 0.83707327 2.0978775 0.85535496 0.64971673 -1.9159395 -0.031500373 -0.10269051 1.891587 0.47649524 -1.0560855 -0.058428533 -0.10150211 -1.7046933 0.7580351 -1.1593114 -0.7872624 -0.5769848 -0.060466114 -0.019179184 0.8541858 -0.6787388 -0.043803517 -1.7183597 0.44213134
C15H16O9S+K+ -0.5142261 0.12378694 0.6991518 0.053433713 -0.18869218 0.048151366 0.5982558 1.0309811 -0.41525447 -0.23947409 0.2880579 0.6011189 0.8186801 0.30877244 0.46133482 -0.33557588 -0.31580016 -0.38427225 0.5206725 -0.19083957 -0.33982486 0.19833857 -0.7581329 -0.9114494 -0.015292683 -0.22927935 0.20797761 -0.4007922 -0.27792418 0.22267309 0.17152892 -0.9261442 -0.16506408 0.48764864 0.19431981 0.5507072 0.39992622 0.73097193 0.7304639 0.7613992 -0.20556632 0.19201916 0.039068323 -0.10484437 0.16503088 0.113725506 0.34395972 -0.006540418 -0.20228378 0.6202145 -0.12929511 -0.2120259 -0.11547495 0.20720518 -0.64758444 0.595093 0.57081985 0.008027449 1.1667273 0.471645 -0.45130226 -0.35459188 0.08746151 0.6075044 0.34872586 0.9637226 0.20332089 0.08455189 -0.15414812 0.6302648 0.3619099 0.16626482 -0.5216422 -0.41206196 0.24127674 -0.24424152 0.09086887 -0.3864305 0.034254976 -0.7447649 0.48001033 -0.5327661 0.5958665 -1.2384754 -0.55570686 0.7954639 -0.7442646 0.8343256 -0.31590074 -0.7016039 0.24668343 0.47856277 -0.27085513 1.0679615 0.5027045 0.29173508 0.5516663 -1.4400293 -0.8364038 0.25380337
C25H49NO4+H+ 0.011352515 1.2396576 0.41792327 -0.000137445 -0.04251649 -0.039602164 0.9106198 0.3813632 0.31227514 -0.006123834 -0.23206687 -0.24219269 0.023515519 0.78793895 -0.06600528 -1.7550666 -0.23708795 -0.53442186 0.82272804 -0.61040455 0.06784752 0.3714271 -0.85235566 -0.77364093 0.6864431 0.12925513 -0.3304289 -0.11953622 -0.2824718 0.559939 0.8413938 -1.2098169 -0.046791784 0.45782664 0.6616186 1.2168297 0.0274443 0.851729 0.9091779 1.3497015 0.09038992 0.51801234 -0.36604038 -0.35016274 0.23351923 0.521813 0.9192162 0.44632035 1.1435443 1.6872152 -0.07436553 0.3823477 -0.2286026 -0.12549344 -0.30173323 0.8072215 0.4902394 -0.24582282 1.2582436 -0.6481246 -1.7976049 -0.058210105 -1.0815982 0.39823148 0.94604355 0.5375185 -0.26357785 1.138826 0.55882037 0.43874514 0.2645569 0.17421351 -0.07393798 -0.31302327 0.4228438 0.0967898 0.1885907 -0.06660174 -0.99538124 -0.9424653 0.7069374 0.5502862 0.29829967 -0.9608579 0.5836228 -0.6658708 -1.065625 1.1405935 1.2721337 -0.7560676 0.4776815 0.13277242 0.34828594 1.7039686 0.12218705 -0.43773067 0.89061546 -0.78910446 -0.5139825 0.898351
C24H50NO7P+K+ -1.145074 0.9227894 0.13044469 -0.89624363 -1.4216849 -0.7545956 -1.1192855 0.58309454 0.98051536 0.85760283 -0.09650742 -2.2580912 0.5488807 0.516398 -0.8674337 -1.1143061 -1.4896712 -0.50277853 -0.42201778 1.0691402 -0.1176862 -0.439992 -0.26598313 -0.23712675 -0.710737 -0.7704408 0.50669545 -1.4590198 0.6761483 1.0246004 0.26574773 -0.025931578 0.112000085 0.01925131 0.7533062 1.229702 0.58942187 1.3825423 0.7193679 1.5206219 1.0802369 -1.3028364 -1.4590992 0.4949211 -1.1020416 1.0747561 0.4727635 0.87414646 0.18049806 0.24943276 -0.1160599 1.259778 0.4913394 -1.0905256 1.8299735 0.8601252 -0.72476256 0.82317674 0.0059207864 0.25940156 -0.86639035 -1.8121068 -0.72924596 -0.105775476 0.18631023 -0.14305462 1.4157144 0.35311154 -1.0917872 0.7610706 -0.10466161 0.72569734 -2.058953 -0.46073943 -0.58165437 0.75336045 0.010286997 0.17203611 -0.2685685 1.3151909 -0.14494868 -0.29954857 -0.08728478 0.8638047 1.0200598 0.90758145 -0.9233333 -0.76950985 0.674963 0.012019056 0.109765336 1.3577441 0.5825035 0.8314365 -0.29333517 -1.8208266 -1.0260748 -0.7796039 -0.385312 0.90543383
C10H16N5O13P3+H+ -0.26683986 -0.046215363 -1.178813 0.6199537 1.5709068 0.9471985 1.0510715 0.023211086 0.8055006 -1.9472545 0.7424652 1.0000951 1.3012224 -0.059909567 1.0446892 1.0038735 0.15003118 0.029498126 0.7412019 1.3541495 0.30210865 0.6478732 -1.2531471 0.3627593 -1.5425398 0.55380946 1.3169804 0.26468366 0.5110475 -0.91829413 0.6291446 0.5436434 -0.17028138 1.7684046 -1.1597645 -0.9946542 -0.45487773 1.0466055 1.5707277 -1.0277926 -0.11883064 0.631601 1.1813773 0.94729656 0.82506955 0.5190816 -0.40748987 0.31589925 -1.6256676 0.7615714 -1.0416238 0.28735873 -0.60722655 0.41505012 -1.2988774 -1.1845665 1.7340934 0.6339559 -0.44784862 -0.2497795 1.0603485 0.14720573 1.191869 -0.062100176 -1.6437248 0.83339316 1.2314894 0.271475 -0.0026338268 0.71232426 0.3182287 0.22726588 1.8536434 1.2662733 0.25938275 -0.6163417 -0.3105828 0.08540915 1.381061 1.3857074 0.2831727 0.23321414 1.0809188 -0.48818195 -1.0740054 1.0905566 1.9125167 -0.37828103 0.06721641 0.09150343 0.831442 -0.8691154 0.62973386 -0.04115883 0.4930745 1.4499981 -0.48942488 0.00065060053 0.15965489 0.7893599
C9H14N4O3+H+ -0.17947045 0.8635635 -1.2850285 1.211535 -0.41620284 1.0579215 2.4149992 -0.52829784 -1.3566321 -1.3049299 0.740815 1.1825602 -0.7798378 -0.35952815 -0.4926913 0.5023741 -1.1252003 0.09565064 1.7399688 -0.47390696 -1.7425929 1.2808992 -1.6455398 1.303976 0.13801788 1.3562515 0.20571779 1.4402992 -0.48135138 0.5837543 0.5245517 0.20450325 -2.0552247 -0.93485 -0.0014927047 -0.9065749 -1.7884248 0.48050457 -0.84312904 -1.5452125 0.69630474 0.27098906 -0.7802083 0.0059617907 1.020597 -1.5855294 -1.0446184 1.162308 2.143864 -0.90038186 1.859763 -1.3121728 -1.1117312 -0.94991267 -0.8943294 0.58244115 -0.3848155 -1.4110276 -1.83895 -0.7471623 -0.16862515 0.84778607 0.12683348 0.768189 -0.5495638 -1.4775394 -1.4097663 0.11824232 1.3704789 -0.95093745 -1.8003842 -0.028462311 2.6694653 -1.4755683 -1.4125136 1.7792606 -1.1619811 1.0297878 -0.9006376 -0.7095668 0.64991695 0.24296622 -0.7253388 -0.8755582 -2.094679 -3.3445003 -0.5206126 0.40994516 -0.20144883 -0.7485556 -0.44988328 0.7426799 -0.21660523 1.2311367 -0.07300959 0.82451147 0.61259365 0.08435624 0.85802186 1.648212
C11H21NO5+H+ 0.9555952 0.883199 -0.42166278 0.31425408 1.3006829 -0.54151976 -1.2652361 -1.1846102 1.9751967 -1.0752108 -1.9875386 -0.12040453 -0.4339186 -0.40274075 0.039410725 -1.1128491 0.070726275 -1.3899598 0.14133199 -2.3697257 2.461683 0.9562647 0.8606741 -0.82792246 1.2420008 1.4395483 -0.55418086 1.6911249 -0.5568208 -0.84074485 1.2006773 -0.13458934 1.5904773 1.4217423 -0.5297534 0.24015617 -1.1569067 -0.7896029 -0.30714214 0.8616744 -0.61350757 1.0800946 0.67166096 -0.7457194 2.0173748 1.5432597 1.8747653 0.6529268 0.3768309 1.4978182 -2.1827807 0.09665903 -0.6327533 0.5334879 -1.0978832 -0.8699158 0.24456516 1.1543144 1.1806222 -2.0232866 -0.25984317 0.7717811 -2.399128 -1.0716327 0.8443202 1.30705 -0.17319155 2.5807605 1.5127136 -0.4134145 1.6238234 -0.66014504 0.9015173 1.9869351 1.525638 -1.5389614 -1.3123424 -0.20271729 -0.3828208 0.81138086 -0.97890896 0.6036432 1.5213795 -0.80103064 2.0456207 -0.91871023 0.0058706417 -1.1841826 2.4957821 -0.5956723 0.5424286 -2.5864267 1.222271 -0.08469893 0.22250248 0.9531623 1.9318578 0.81425047 -0.74473655 -0.42358914
C25H47NO4+H+ 0.30592352 -0.5112677 -0.66493237 0.79709363 -0.6665945 -0.25213525 0.09722361 -0.658973 0.8879426 -0.20277098 0.6913861 -0.2164834 -0.42954603 0.14469801 -1.1044066 -0.073091984 0.48374632 0.5198793 -0.82835907 0.05857736 0.8268669 0.38344035 0.34351978 -0.054126818 0.2975195 -0.40889692 0.14873831 0.6547909 -0.7599695 -0.49301577 -0.0010446436 0.6625957 0.8865354 1.2530974 0.023160834 -0.5630588 -0.9294518 0.27750698 0.08780385 -0.68102884 0.21756004 0.11153448 0.85189444 -1.5703413 0.0757985 0.4028209 1.3566977 0.29176605 0.9261262 0.13852909 0.1375675 0.15002823 0.7138051 1.0466583 0.14004955 1.1953996 0.106758095 0.22207248 0.14435707 0.17514187 -0.35976562 0.5667157 0.8072066 0.0946043 -0.11661367 -0.5924525 -0.66246045 0.86160177 0.95181686 -0.94451743 -0.5469619 -1.4059001 0.6696779 -0.07286725 -1.3144517 -0.25447693 0.17255999 -0.67610496 -0.2561132 0.2944509 0.46064246 -0.33448735 0.21417986 -0.3521669 0.023346197 -0.17778178 0.56757337 0.0103491135 1.1647831 -0.19767053 -0.36612925 0.07143823 -0.91125464 -1.087868 -0.5622777 0.36400887 0.36713454 -0.0211631 -0.029296497 -0.9127712
C26H30O12+Na+ 0.98108584 0.7242977 -0.47701868 0.5360781 -0.7320916 1.545926 2.928962 -0.35915595 -0.9365537 1.380495 0.29418853 1.4883233 -1.4394639 0.5782498 -1.1253026 0.22503716 2.9020562 1.6482756 -0.37190962 0.91198355 -1.5204152 -0.67708695 -1.1365722 0.06537556 0.078773804 0.5608877 -1.2321467 -0.24084711 0.14461806 -0.62069416 -0.18370512 -0.8219763 0.721374 1.5670754 1.2759545 1.0440807 2.3501568 -1.5992268 0.22209033 -1.8711318 1.3566575 1.7154015 0.9269355 -2.7013419 -0.99111634 -1.0456775 0.19526379 -0.4312776 0.9768413 0.35343292 2.6458178 0.4915746 0.85608304 2.2907243 -1.1826366 0.09294346 2.3509188 -1.4677774 1.7075781 -0.29672375 -1.311549 2.278545 1.6317562 0.9606986 -0.25721887 -1.0964041 -0.4359575 -1.3918386 0.63630944 0.19112253 -1.4374048 -0.38938308 3.1513793 1.1532843 0.8329139 -0.02532441 0.7036254 -0.10915546 -1.2035893 -2.8932893 0.5646509 0.43566167 0.89769214 -0.9243485 -2.0039406 -1.1971833 -0.24390514 1.3429278 -0.50104475 -0.7162539 0.24114327 -0.38541287 0.47781095 -0.74972767 -1.2565943 -0.04014985 0.14917943 -1.0166855 0.76903933 -1.8656219
C12H22O11+Na+ -0.23315667 -1.478796 -0.15161024 1.4813368 1.4293629 -2.47535 2.3028522 -0.5741621 2.2726274 -0.83964956 3.1794283 0.73814255 -0.8446721 0.55754 -0.19525129 1.0589398 0.61146265 3.895114 2.018582 1.0506817 1.0439237 -0.58777726 -1.5223762 -0.95675826 -0.51899195 -2.4104555 2.642985 -0.1629643 -1.3410813 1.00026 0.80080837 2.4040453 -0.00091507204 2.817461 -0.70238966 -3.187834 -0.56595415 1.7890233 1.9707233 -1.344947 -1.4106003 1.7032195 2.5051587 0.4497864 -1.130085 -0.66745263 1.830775 -1.8197645 -0.71861595 -0.1486052 -0.7105082 0.17913353 1.6259181 0.64357805 -1.3766894 1.4708169 1.6759725 1.6017393 -1.8630143 2.4900732 0.677194 0.6895819 5.4421334 -0.56670064 -1.2142154 -0.74832565 -1.5134782 -0.8762362 0.9697378 -0.058685437 -0.81097007 -3.1238616 -1.0508479 -0.72469455 -1.586947 -1.3665847 3.548855 -1.0545347 1.3051502 0.7802032 1.6290982 0.16633488 0.85607624 -1.0236459 -2.2613719 2.4723551 2.8480766 2.4886725 -1.267282 2.6662753 0.039225042 2.3466763 -2.400813 -3.390425 -0.5700743 3.5958738 -0.55113596 -0.8597833 0.28559008 -2.8174345
C13H13N3+H+ 0.92057234 -0.3051462 -0.48522484 0.31815943 -0.09525463 -0.036991354 -0.33406097 0.009318948 -0.25882226 0.41877022 0.19215183 0.27807236 0.48511147 -0.66836905 0.5094212 0.15840124 0.20612185 0.19422528 -0.65219456 0.031118108 0.065767206 -0.42320797 1.0968307 0.13903295 0.19978656 -0.17514953 -0.5555659 0.59913355 0.5520445 -1.1297055 0.35658702 0.19588591 0.4940411 -1.3561932 -0.22638501 -0.65682095 -0.09296963 -1.0223881 -0.080612585 -1.3158044 0.28643402 -0.70158803 0.23492154 0.31592268 -0.049305696 0.34211448 -0.011499949 -0.2971894 -0.13693038 -0.29675075 0.3442453 -0.30412942 -0.176765 0.26791978 0.4993866 0.4347096 0.16171701 -0.7271963 -1.3141512 0.5113184 0.3706456 0.6873777 -1.0175341 -0.46773437 -0.51422477 -0.7590044 -0.26053542 0.25609773 0.32839343 0.21469899 -0.014687943 -1.1167624 0.5079354 0.6592989 0.24385384 0.5001959 0.9957396 0.94301736 -0.56804883 -0.042662185 -0.32104084 0.23859891 -0.31291014 0.99079376 -0.14900336 -0.35997644 0.2688067 -0.23926948 -0.89109564 0.6348012 0.6021861 0.6895139 -0.77605695 -0.9735783 -0.06991615 -0.38846537 0.95067775 1.158195 0.4261543 -0.70451474
C12H22O11+K+ -6.5601916 -5.9956937 3.3293116 -1.5268749 -0.019018253 -5.736964 3.6096141 0.79924357 2.1207824 -2.9295743 4.2653265 3.1378486 5.7424855 0.4917152 -10.613379 5.3075547 -2.0295382 1.0462017 -3.42838 5.810623 -3.7390993 -1.772703 -1.5102178 4.3144703 3.1812584 2.7768972 3.7014358 2.966982 -2.2494922 -0.54952645 4.0978913 4.333928 3.2036157 -0.61996055 1.9824039 -0.8567493 -2.2820292 -3.9081955 -2.009074 5.290263 -1.5799351 -0.5615933 8.016831 0.7487155 1.2731118 1.1522089 -4.021561 -1.3630654 -0.5636202 1.071347 -6.6069202 -1.1266611 7.287015 1.3965906 -1.7668281 3.591898 -1.55613 1.8738155 -0.95579827 -1.6483885 -1.4688544 2.9371307 7.106489 1.2052705 -0.24627371 0.3591496 -0.6423795 7.9943533 -1.5997944 -6.4505763 -2.833265 -2.580973 -0.73508847 -2.994846 -3.7377756 -1.9803152 -1.5160336 -5.4224057 1.7498968 5.240273 -3.8556395 -1.644976 -6.3383245 -2.1764178 -1.3743391 1.4626225 5.2871084 -0.3022466 1.337207 -0.2708972 5.1859612 -3.6549995 -4.7136674 5.613142 0.89401513 1.0619185 0.54766357 1.8976445 0.36201528 -4.100392
C15H18O10+Na+ 3.1779993 4.873159 -2.0607672 -0.05234309 -2.3236654 5.174099 -2.0756192 0.056365404 -1.7736639 2.5484385 -4.8130426 -0.38088596 -3.846391 1.862521 7.5530386 -4.326738 1.4511063 -2.3051295 5.641173 -4.9090567 1.6153849 0.7053055 -1.8638164 -4.017225 -4.1420856 -1.4046384 -2.9586294 -2.815308 1.6120809 -1.0621071 0.80854255 -4.765796 -0.65299416 1.548423 -1.2812907 2.2882874 4.618371 1.6821773 2.7725763 -3.8413155 2.975119 1.8744338 -6.0751586 -3.0214229 -1.2512147 -0.9788103 3.387382 0.15447895 0.8037377 -0.85142994 3.8379054 -0.34734184 -6.929031 -0.1522319 -1.0221872 -5.427849 3.5619957 -4.030488 2.660959 2.342388 1.3876811 -3.2653773 -4.8508725 -1.4346638 -0.31811708 -0.74099773 1.2996739 -4.974715 0.28274927 7.163908 3.2223604 2.4834785 -0.7883021 4.4439573 5.375919 0.8896288 0.76264715 4.297607 -3.205636 -5.0404305 0.9773162 0.6966745 5.7558465 -0.7486171 -1.9224701 0.21438596 -5.7940483 -1.1799766 -3.4686215 -0.09946613 -4.1411448 0.82486176 6.1335316 -4.4289126 -1.1388066 0.07496586 -0.382566 -4.242899 -0.18612938 2.418414
C15H22N2O4+H+ -4.06074 0.30958205 1.6581285 0.76065177 -2.6888063 1.1547946 3.8860095 1.348602 -0.663344 -0.32308653 1.5855414 0.8942278 -0.7447219 2.3551865 -1.862345 -2.1071277 -0.23497176 -0.8411544 2.5265958 -1.1733541 -1.6838046 0.86957175 -3.9679627 -0.019965824 0.95795906 -1.3627143 -0.19047742 -0.11260866 -2.2557063 -0.69253325 5.092713 -0.6225693 1.5007395 0.96488166 1.656721 0.55511796 -1.0368334 2.1852193 2.573021 1.2719438 2.3946369 1.7248745 1.4054863 -1.3573049 -0.36196983 0.5230179 -0.38044146 -0.41522974 3.500866 1.6345587 0.35703674 -0.96235275 1.3582636 1.4744895 -3.6139798 1.9499861 3.7032955 -3.5045457 -0.81445026 1.2059293 -0.3613269 2.9173865 5.1392665 2.3756647 -0.7204271 -1.4029814 -0.411087 2.2153978 0.39538947 -0.17776507 -2.5236948 -2.33396 -1.5131679 -3.7275946 -1.2677816 1.6140237 -1.6426406 -1.7284673 -3.4152682 -2.4519553 0.4126483 -2.2285016 -1.0926622 -4.8383574 -3.5864553 -1.2388271 -0.8283324 1.2008125 0.13567437 0.5617149 0.2976965 0.5431487 -2.1141295 0.48048565 -1.2307743 1.723491 -0.33779076 -4.2105985 3.0878105 1.3891718
