37 50
C7H15NO3+H+ -0.04449068 1.4957904 1.0423504 0.61066246 -1.6759586 2.5504303 2.747806 3.2001555 0.10006081 1.7680557 0.6016472 -0.24566928 0.857914 0.9172219 -3.173909 0.38914594 2.2961657 -0.3281855 0.30837914 0.43779153 -3.883778 -0.5644076 0.032375433 1.2266527 -0.42108783 1.1849314 -1.3091916 -1.3628644 -0.4578143 1.3977511 -0.67615217 -2.272345 0.2734397 -0.27894413 -2.5401425 -0.10983893 -0.5659556 -1.8044338 -0.29970056 1.1740112 0.91941863 2.3208027 2.71954 0.12541795 1.9190938 -0.17554078 1.0441319 -1.9511726 0.87872386 -0.33038312
C15H22N6O5S+H+ -0.453874 0.2952935 1.2051928 2.5758495 -0.95066625 2.24039 -1.1615986 2.5668466 0.46645197 -0.6604461 0.6321768 -2.0238953 2.029974 -1.1759202 -0.8014804 2.4660685 0.34440932 1.7014426 -0.6283298 0.92413443 -1.4792305 -2.3041112 -2.2777362 -1.583796 -1.0212207 -2.853033 -0.9891747 -2.696853 -0.32370076 -0.45273933 -2.9163425 -1.3140466 0.5163703 -0.057861608 -0.57043034 -0.22568387 -1.1081547 0.41985804 2.481746 0.28737745 2.3532245 2.370218 -1.0534415 0.6708107 1.3556741 -0.48100194 0.062149514 -0.51990676 -1.3492019 -0.8506149
C24H50NO7P+H+ -2.693718 1.9804008 0.5164769 -2.0535307 1.6464021 2.2739909 -2.3630273 -1.2088364 -0.83945763 0.65053403 0.94188315 0.23326093 -0.456278 0.6348278 -0.8863024 -2.062583 -1.2490261 0.024531547 -1.1240202 -0.10283858 2.6368034 -0.18144533 1.8319072 0.9968932 1.5432327 0.30456534 1.419774 0.88564485 -0.7572178 3.061879 0.23741269 -1.3882803 -3.580887 -0.6766306 -0.962286 -2.8167505 3.4890642 -0.63962054 -1.2854313 -0.22186384 -1.584169 -0.46499997 -1.2473499 -1.6542656 -0.609972 -0.0017526424 -1.0182769 -1.2996604 -1.0630094 -1.18403
C4H9N3O2+K+ 3.2082453 0.28339383 3.1105762 1.662591 1.6063894 0.116930865 1.1318648 0.8585771 0.09235583 0.5949435 1.383103 -1.1466894 -0.4478719 2.259989 -1.0041392 0.39547208 0.7786579 -0.24936034 2.225294 -1.0315868 0.2515331 -1.0943195 1.7895292 0.738965 -0.2515202 0.1102257 -0.6060608 1.4219304 -0.84284014 -0.8061497 0.9299662 0.302829 -0.9549427 0.7123783 -1.0378814 0.71597517 -0.106203236 0.80859613 -1.5639462 0.8738336 -1.0557466 0.1567632 0.39563733 -0.9455382 -1.3376164 -0.05359025 -3.7646744 0.8388373 1.0036421 -0.69530857
C9H17NO4+H+ -0.77957565 0.7909961 0.24927476 0.6811806 1.1025094 2.1224527 1.2393078 0.24201266 -1.0448183 -0.8394298 0.20247029 -0.3839845 -0.47036892 0.73785776 -0.5021042 0.57872593 -0.002931952 1.085772 -0.2935067 -0.7298422 -0.46619081 0.28241092 -0.05143648 -1.0621074 0.74562114 -1.724936 -0.20515047 -1.0993257 0.2090333 0.3006391 -1.5148278 -0.92713827 0.44511947 -0.31524017 0.74953943 -0.875571 0.0019389114 -0.60465086 -0.10345483 0.6450988 1.9478376 1.3812271 0.8147815 0.0802442 1.9514605 1.1713867 0.5496484 -0.8954015 -1.8431288 -0.8657596
C11H21NO4+H+ 1.7112495 1.195624 1.7305715 -0.68060744 3.2416515 1.1022428 3.8282797 0.060726292 -0.38014856 0.5356976 0.7759621 0.21709667 -0.04729114 0.007912028 -0.25097626 0.30689323 -1.5334303 1.873816 -1.4103396 -0.40798044 -1.5723901 -3.0438344 -0.30962142 2.2639809 -1.6544496 -1.8225034 0.5128602 -1.2551844 0.91970986 2.3523898 0.29927912 -2.1016037 -2.1779342 0.14990924 -1.749037 3.9185262 0.7811241 -0.8814848 -2.7618551 2.5170474 0.401778 3.7269492 0.84187275 -1.0379554 -0.30209732 -1.297562 1.7018788 -1.2946955 -1.9209212 -0.4533035
C22H22O7+H+ 2.5372038 0.42780396 0.942094 1.3331805 -0.61012036 0.48790213 0.41103616 -1.6091986 1.786564 0.4201765 -0.0048396722 1.0954658 1.0891556 0.84183127 -1.8290579 -0.15127958 -0.80718976 0.9288207 1.162214 0.02287583 0.27643645 -2.0231228 -0.73653305 -0.78619593 0.7548983 -1.3969111 0.084684715 -0.13637881 -0.33901185 1.3150828 0.99831647 -1.7416322 1.1516144 -0.7428063 2.5709946 2.0952978 -0.758382 0.9825371 -1.7038107 -0.9555753 0.9375655 0.52028215 0.35301906 1.8470222 -0.97465354 0.8659786 -0.16089745 -1.5668894 0.6327858 -2.6562448
C8H20NO6P+H+ 3.461593 0.3870568 3.2002103 2.6019437 1.8379283 -0.8197814 3.04403 1.3030869 -0.6017069 1.2021796 2.9688692 -1.2918997 -1.217379 3.264775 -2.6599407 0.506791 2.7650902 0.33368132 2.3194146 -0.92385364 0.51779044 -1.2917503 0.23071072 0.6477006 -1.632139 -0.25272813 0.10022762 0.78690016 -0.79709643 -0.9666288 0.80191886 1.9983495 0.97701764 1.8019134 -2.3715665 1.5353323 -1.0445303 1.1025413 -0.652874 0.24113321 -0.3057179 1.0404485 -0.047580145 0.005612528 0.1987867 0.4840357 -1.2755053 -1.351592 2.6985784 0.179246
C10H7NO3+K+ -0.06817622 0.25012 -0.8458071 1.2021053 0.5769077 1.6489508 0.66641456 0.8885082 0.03308095 -0.43365878 1.2097338 0.119141966 0.5329589 0.9169538 1.2052366 0.9594741 -0.41721663 -0.06701073 -0.34299773 -0.97135085 -0.81199926 1.255001 -1.39753 -1.0260997 -1.0020007 -0.1127863 -0.42695594 -0.03983556 -0.6513841 -1.128501 -0.3892586 -0.7711038 0.10308763 0.6599132 -0.14682138 0.36814106 -0.72684443 -1.841794 2.252893 0.5762417 1.3099467 1.7096403 1.1035053 -0.78364843 2.1457613 0.04942809 0.5870696 -0.06782743 -0.94726604 1.8465862
C11H20N2O3+H+ -2.2022552 0.9682121 -0.270759 1.4454296 0.5323227 3.1789298 -0.8996153 -1.0107703 0.7117664 0.39633757 1.7354581 0.5815141 0.09937774 0.6931848 -0.40295026 0.58069724 -0.8778243 0.37728235 -0.6614757 -0.98112 1.2601227 -1.5432074 -0.57201254 -1.6235344 1.3283244 -1.374657 0.56417155 0.36627123 -0.54622185 1.8773712 -1.0627853 -2.3183074 -0.60532594 -0.31040034 2.2447083 -1.3100412 0.0062423693 -0.6872109 -0.25463971 -1.0244576 1.5913223 -0.2589172 -1.054554 0.5030339 2.1861606 1.1889851 -0.34220377 -2.833149 -1.7840786 -0.75135463
C8H17NO2+H+ -0.9343277 0.2806483 1.663634 0.62135655 2.991123 -0.05752708 1.3596663 1.6874009 -1.7165037 -0.21251635 2.3110187 -0.49561876 -1.7058564 1.2940286 -0.79879403 0.34302956 1.3415582 1.8389083 0.2826207 -0.9666792 0.83147925 0.07989603 0.79345125 1.1220485 -2.491235 0.7264277 0.344533 -0.36188424 -1.6102154 0.21527417 -0.60449487 2.0658567 -0.9342616 1.4907522 -3.4326575 -0.40373707 0.85930336 0.3097707 1.7137524 -0.77249753 0.15838581 0.1045519 0.19307359 -0.059371464 2.0018196 -0.28671333 0.7212471 -0.4988461 0.116843544 1.2357792
C29H47NO4+Na+ 0.9513326 1.5392306 -1.3975657 0.057433695 -1.4902955 0.8620276 2.8960195 0.46877292 3.1658347 1.5613874 1.024796 0.009228255 3.1538205 0.29237193 -0.18657467 -1.2092285 0.18534815 0.0121921385 1.4300481 -4.5963516 -0.74199283 0.8385835 -0.06345459 0.38565353 1.483664 -0.042020436 -0.19809745 2.7047942 -1.1744661 3.819096 3.3449423 -2.8613617 0.0007297578 1.9404576 1.7641512 0.62340933 1.1781361 -0.5626906 -4.7615113 1.2266983 0.07068241 -0.4054106 0.30367702 -2.4055693 -2.507561 1.4298356 -1.8500054 -1.259773 2.280036 0.6446702
C7H15NO3+K+ -1.2752455 -0.0027671081 0.47920397 -0.8019538 0.9520716 0.931731 0.81148183 -0.15823025 -0.1353622 0.037008755 -0.13375603 0.11370544 -0.042163167 -1.6681468 1.0959444 0.6647997 -0.32523048 1.9687012 -1.250196 -0.92483664 -1.0392281 -0.7324169 1.6327492 0.18175067 -0.12146791 -0.35423255 0.39380276 -0.22791772 0.27870086 0.60757744 -0.88956016 -0.5427034 0.3327991 0.62105703 -0.56548566 -0.20066695 -0.11566946 0.6039021 -1.4199609 -0.21351977 0.17766082 -0.55488247 0.32440123 -0.45392916 -0.29238737 1.0866212 0.38043085 0.17810072 -0.90416574 -0.3361854
C26H50NO7P+H+ -2.279196 3.4596498 -0.57610977 -1.6287787 3.9896483 3.3088467 -0.17820357 -0.7648807 -0.75334567 0.5286257 2.001187 1.6662766 -0.2607743 0.5419742 2.3706055 -0.17940076 -2.0866547 1.2581773 -3.6589608 -1.2291098 0.34474733 -1.517445 -1.0609055 -0.23609991 -1.5945385 -0.060696907 1.4598861 -0.8300321 -2.047082 3.2526863 0.97847086 -1.2635915 -3.4238818 -0.7339636 -0.88202363 0.58500075 0.15315129 -4.078874 0.5291245 0.5002731 0.21839148 3.1607192 0.96754736 0.19093426 1.0822996 0.21078864 2.2117424 -2.8230884 -2.4301589 0.25070313
C13H17NO3+Na+ -0.9597693 0.1996613 -0.20112135 -0.041726753 -0.46277428 1.0589978 0.13200733 0.67033494 0.032624155 -0.22684698 0.2135788 -0.6791106 -0.059850596 0.5876956 -0.6120914 -0.46000987 -0.73329633 -0.68733084 0.72337246 -0.5469905 -0.10166381 0.84089315 0.49311474 0.07659961 0.064131 -0.19116625 -0.6259523 -0.22440116 0.053669676 0.36512935 -0.25678518 -1.1938552 -1.9914001 -0.023335049 0.22650965 -2.3077707 1.6066409 -1.344589 0.26431987 1.097014 -0.47990763 -0.5187878 0.6571509 -1.56509 1.0512223 -0.8182346 -0.31304124 -0.60072935 -0.4634815 0.30351824
C10H16N4O3+H+ -2.2476091 -1.1711336 -0.7472668 1.3125663 0.16108806 0.53312427 -0.91338277 -0.6525684 -1.7472184 -1.7927853 3.4205532 -1.1392561 0.43661442 -0.049713094 -1.0327952 -0.8106771 -0.28695104 -0.058445178 0.27723917 -0.30975482 2.1511562 -0.27028823 0.47731113 -1.8185875 -1.0701766 -2.391983 2.2731035 -1.2673793 0.7335496 1.0725517 0.47943476 -2.0022123 -1.9228297 -0.32013682 0.7174723 0.1764533 2.8097568 -1.386669 1.3037652 -0.53907603 1.3576292 0.01932016 -2.1426182 0.14385621 0.68085366 -0.3981921 1.5454415 -1.313445 -0.3805812 -0.2816443
C8H20NO6P+K+ -0.7929597 0.08575651 -0.8902565 0.13257238 1.0834552 -0.040796474 -2.5576277 -1.610818 0.794321 -0.02244416 0.896988 0.38127545 -0.17313176 -1.6375828 0.7167962 -0.5176141 -0.7160336 -0.765317 -0.9499872 0.7850312 0.36793882 -0.5237727 -1.3375455 -0.29530075 0.22541946 0.066910975 2.4726295 -0.22857106 -0.040440004 0.114393674 0.001922627 -0.3135488 0.1932332 -0.59718245 -0.654075 1.0240387 -0.6525819 -0.1969717 1.2139735 0.11121223 0.46419695 -0.20177935 -0.47066677 -0.2037746 -0.36197373 0.8711905 1.9663817 -0.5947901 0.20942919 -0.11665643
C8H20NO6P+Na+ -1.4747063 -1.4826722 -0.05782869 0.748367 0.9968897 0.3643463 0.12407359 -0.37266824 -0.37569034 -1.4336345 1.4092911 0.22327168 0.31409043 -0.9309593 2.9739923 1.5351471 -1.1275758 1.7806183 -1.7227213 -1.3734542 0.99106365 0.40302333 0.4088059 0.005114161 -1.3904032 -1.6456134 0.65202993 0.3631953 1.3799118 -0.731114 -0.28202996 -0.4360307 1.1792985 0.7780978 0.37196872 0.79584134 -0.26816192 2.2595892 1.1536087 -0.6004844 2.0515206 -0.5262088 -1.6455301 -0.87793905 -0.019983878 0.34044316 0.3666283 1.8429368 -1.9019095 1.015765
C10H11NO2+Na+ -0.4869508 -0.2791701 0.53322023 -0.24807532 1.065957 0.64113355 -0.010142679 0.059495874 -0.12540248 -1.0934716 -0.559576 -0.5790591 0.57820576 0.11598234 1.5857209 -0.6290071 0.15157072 0.5971574 -0.049803063 -0.4599399 -0.2692412 0.53289545 -0.24473666 -0.44545132 -0.41327658 0.08103851 0.55510414 1.01832 -0.20896146 0.40371266 -0.44931886 -0.8066694 -0.6557013 1.2360123 0.5104684 1.2964557 -0.085001506 -0.9619935 -0.60668457 -0.20667501 -0.13590784 1.5587105 -0.8809765 -1.3833815 -1.0481478 -0.22455399 -0.791187 0.5866928 -1.0759324 -0.29868037
C37H68O4+H+ -2.829595 -0.19894135 1.6180128 0.23661171 0.9175845 1.2787694 -1.4312732 2.4633265 2.2490804 0.6897701 2.4463964 0.039053693 1.1790383 -1.4900428 2.9306877 0.7784782 0.40393764 3.111481 -1.8431734 -2.3580458 -1.5906175 0.08215108 3.3789976 2.553129 -1.2680689 0.89022577 1.3125306 0.9766728 -0.65520686 2.4163415 1.7464027 -1.734442 -1.494756 2.0678682 -3.7701807 -0.5812661 1.5779395 0.3358942 0.68584895 -0.29541442 -0.11278318 -0.8254499 -1.4640818 -3.0836992 -2.4368756 -1.2419124 -0.8751276 1.1234815 -0.8522309 -0.4814406
C35H66O4+H+ -0.5324227 0.6151262 0.6128151 2.0449944 -1.2367508 0.6560612 2.4020934 0.057536837 1.7135688 1.9176058 -0.8321879 -0.21280642 1.2576176 -0.33591467 -0.12058717 0.6405422 0.75082654 0.18363559 0.95308036 -1.6068656 -1.7729127 0.32609305 -1.9712335 2.0803728 -0.31151035 -1.3591278 -0.5559235 0.40914336 0.37757495 1.3363013 1.779738 -1.4957539 1.9113848 0.42291638 0.47934994 -0.947494 -2.2036378 1.1664608 -2.643118 2.7328467 0.6585118 1.7775326 1.407092 -1.8682779 -1.0692781 1.5605977 1.1607703 -0.4444596 -0.43717366 -1.5253556
C23H45NO4+H+ -0.52147794 0.1491316 -0.5773195 -0.33928886 -0.6209773 -0.47562546 -0.76174885 0.37281013 1.5565965 -0.1681643 -0.7774146 -0.11833253 1.6215947 -1.5666498 0.22345045 0.7218812 -0.9403613 2.310759 -0.013343037 -0.08980523 -1.0979168 -1.5288234 1.8894615 1.615418 -0.35711238 -1.0622257 0.40033215 -1.0787888 0.70538896 0.89546245 1.0963315 -1.9193277 -0.05772964 1.2341901 -1.247667 -1.4401113 0.8679527 0.8741045 -3.4807396 0.09341579 -1.3784596 -0.32806918 -1.260889 -3.221955 -1.1084012 1.4233426 0.27981624 -1.0737134 0.6713328 -1.2116858
C37H66O4+H+ -0.86957204 3.4671168 -1.1745336 0.6039171 -0.33408913 2.0498457 -3.6443202 1.2673738 -1.8260173 -1.5058098 -1.7150463 2.5686421 0.9413632 1.8455237 0.38404623 3.4314945 -1.2550012 -0.6962326 -0.7571119 3.6681635 -0.3341576 -0.33444664 -0.3978508 2.0093544 -3.6616888 1.0629203 -2.6808763 -3.0749214 -1.448358 -0.8680493 -0.24996202 -2.1196089 -2.3236477 -1.7383076 -2.352653 -0.2707813 -1.5128969 -0.11766771 1.1330078 -0.7979587 -1.2581625 3.6244822 1.7611758 -0.22575405 3.8545537 0.9194597 -1.2032316 -0.7527866 -2.297739 0.4473038
C10H15N5O10P2+H+ -0.42290297 1.4150705 -1.0600055 -1.1256617 0.084574886 -1.956075 1.8193846 0.11878053 -0.834267 -1.1130937 -1.2094231 -0.023415226 0.2035437 -1.1784507 0.6848004 0.52230537 -0.13623972 1.4592339 -0.0009607142 -0.23486963 -0.7631523 0.3892863 1.4199848 0.7590514 -2.0003533 -1.1007367 -1.0566736 -2.1959147 0.43361646 0.95588416 1.4219959 -0.20027776 -0.8729194 0.07357347 0.45640045 -0.29415405 0.7010555 -0.4241874 -2.5997317 0.9393334 -0.59730077 0.7073083 1.1939127 -0.26830286 -0.5636539 1.3825303 1.247381 -0.48239794 -0.38433558 0.5411052
C15H16O9S+K+ -0.5167559 0.86740834 -0.021500565 0.45801404 -0.41454816 0.89098483 -0.65478706 -0.53234017 0.029005766 0.8352329 0.53451055 0.75748396 0.4989339 0.27549917 -0.9262941 0.07670349 0.35085723 0.5240962 -0.42239487 0.32487944 0.20650886 -0.20436494 0.06215207 0.6262759 0.13828692 -0.3936324 0.7762491 -0.018849026 -0.1929407 0.6660145 0.69792724 -0.7006068 0.8293716 0.09419255 -1.1178311 -0.093213856 0.16215378 0.6453123 -0.57031614 -0.41028792 -0.16055371 0.6364889 -0.41862082 -0.0027671969 0.011493 1.0327787 0.59235793 -1.1137643 0.30478886 -0.8804172
C25H49NO4+H+ -0.022358924 -0.89099264 1.2678074 -0.32742837 1.3309615 0.010974163 3.4558804 -1.5911449 -2.659599 -1.6514605 2.473161 0.38352147 -0.86796415 0.998924 -1.0676694 -1.3348713 -0.6596257 0.65379906 -0.027810337 -1.2202975 1.6347575 0.6754673 1.2208184 -0.130507 -1.7302287 -1.5044773 1.714582 -0.70091563 1.769684 1.3598742 0.8335087 -0.9695678 0.1764925 -1.1105393 1.2270741 2.4992182 1.2281291 1.3497852 0.36756474 -0.13662271 2.7470922 -0.101195544 0.77739745 1.4968519 -0.769462 -0.18900636 2.3693352 0.27145708 -0.14023775 -0.6882062
C24H50NO7P+K+ 0.2629214 0.8819527 -0.106089145 -0.8238217 0.7843111 -0.3040458 0.24593602 -2.1245995 1.9529215 2.0462518 -0.48280895 1.8004797 -1.2234347 0.36159584 0.9751705 -0.6334838 -1.5958897 0.18274882 -0.44757742 -0.59612244 1.2771624 -0.41904405 -2.657236 -0.49670488 -1.171796 0.8228617 -0.64362377 0.5075525 -1.8637918 1.2126036 0.9217156 1.7211692 -1.5622914 -0.03537421 2.0981715 -0.3116058 -1.1325072 -1.540162 1.1931845 -0.6908123 -1.843508 -0.48517868 2.0628567 1.7055435 0.7386341 -1.1034269 1.6808676 -2.1148725 -0.35138303 0.5799804
C10H16N5O13P3+H+ 0.22806741 -1.2085412 0.95777273 0.067183524 1.7092507 -2.1262941 0.55208516 -2.077123 1.1391253 0.03169142 0.5375729 -0.18387178 -0.93916696 -0.74683744 -0.14787106 -1.5330027 0.66736835 1.4454591 -0.31639272 0.24389616 1.6651149 -1.8782645 -2.24488 -1.2674071 0.47307625 -1.0682333 1.1944085 -0.82177365 0.41706586 1.7610409 -0.18529141 1.0556989 0.748458 -0.9613311 3.0518868 0.8162592 -1.6363354 -0.6583802 0.26059213 -1.1717911 1.5372317 0.5397484 -0.27738473 1.7111363 -0.9104502 0.7408872 2.8025851 -1.5507002 0.31223768 -1.8526831
C9H14N4O3+H+ -0.46545103 0.2192225 -0.82182026 -0.017641734 -1.0074426 0.16055672 -0.28239307 -1.081857 -0.8330394 -0.96426874 -0.37736183 -1.5267226 0.033862937 -1.365368 0.7210914 -0.4391133 -0.72260886 -2.0065095 -0.8608247 0.31811702 -0.020523043 -1.8398515 -2.0686483 -1.7817148 -1.2806963 -2.4584122 1.0489885 0.44937223 0.9261794 -1.0413061 -0.44229865 0.58392555 0.45194644 0.48303825 1.3171517 1.4431367 0.17001939 -0.1461216 -1.1116508 1.1751635 -0.3092741 -1.1857873 -2.882366 2.0784664 -1.2447269 0.049488842 0.6815402 -1.1450988 0.765848 0.7022484
C11H21NO5+H+ -0.20392227 -2.3131895 0.043183655 3.4004118 -2.2577293 0.40521157 -0.12883505 -0.031281017 0.7282336 -1.1335529 0.6308232 -0.16502123 0.8082821 -0.5523057 -3.7801554 -0.99022937 1.491423 -0.5969218 3.0643477 0.8734205 -1.3742638 0.27228022 1.0215784 1.2484045 1.0098063 -0.77147794 1.2016319 2.3129318 1.5989414 -0.91111606 -1.0617499 -3.3844402 4.6202545 1.3006964 -0.98044544 1.6053333 2.0455854 4.428062 -2.2531655 -0.6529136 2.2995584 -2.2042189 -2.1451857 -1.0497247 0.9309384 2.6672971 1.1092975 1.15776 1.6865263 -1.7012007
C25H47NO4+H+ -0.60719454 1.7276746 -0.79668355 0.86813414 1.1662533 2.1773849 -1.4138696 -0.86085266 1.0285938 1.120368 0.66098064 1.1895449 0.32825795 0.8976353 0.8758757 0.59114707 -0.2907922 0.9930814 -1.4402603 -0.3004209 0.79681486 0.07385249 -2.5188754 -1.0898135 0.50000733 -0.3335449 0.3328132 0.8871738 -1.6624199 0.034798726 -0.4623083 0.10540056 1.2567171 0.85810506 -0.0065557878 -0.3836796 -1.2240319 -0.7015655 1.073992 -0.95543605 0.4428204 1.9405825 -0.39208245 -0.11611956 1.8939874 1.7272196 0.77673453 -1.7338458 -0.96651936 0.45916668
C26H30O12+Na+ 1.0799952 2.2680182 2.0255077 3.103491 0.16872045 4.908521 4.385325 3.1405704 -4.853666 -1.5032363 3.819078 -2.394462 3.7526913 2.0952342 -3.4019105 3.1261446 1.725734 2.9103827 -1.559753 0.04537373 -2.1054616 -3.5865254 0.345054 -1.6147436 -1.5314075 -6.7588677 0.5906517 -4.6944366 2.0454192 1.8276242 -0.72869027 -5.3945374 0.09162893 -0.45172802 -1.9893954 4.6497397 0.8354268 -1.3312209 -2.1441963 2.1824653 4.6324673 9.241423 -2.0481808 0.8677185 0.5323715 0.24735089 -0.12238081 -2.4740574 -2.3662095 -2.5639393
C12H22O11+Na+ -2.0053 0.2901481 -3.3756104 -1.560957 2.0678935 -3.0206337 0.95788074 1.5384413 1.9806045 -0.41619042 -2.9734154 1.6158205 -1.3590817 -0.19528198 3.045183 -1.0973383 0.75233847 0.80349946 -0.9847878 0.71886796 -1.2487326 0.955858 -3.5397294 4.2802935 -2.020973 2.082857 -0.7382673 2.4234767 0.7492524 1.524964 1.3354495 0.86540014 3.287708 2.5990374 -1.3169067 0.7847323 -0.37246203 1.8014162 -3.927508 0.18163106 0.39962706 2.4742978 -2.3742635 -4.822646 2.5883696 2.1327531 5.7396603 0.7179617 -0.76918554 1.4365475
C13H13N3+H+ -1.1665666 2.3495433 0.6960056 0.79435045 -0.16283292 1.1560427 -3.3503177 -1.7822595 0.3124843 1.2080439 -1.4801553 0.21017452 -0.6522582 -0.27286172 -2.119459 0.7901275 1.042112 -2.351155 -0.009703752 2.152387 -0.39475787 -0.83039165 -1.906089 0.23926231 2.9600742 -0.7303583 2.3063302 -1.5833764 1.0332619 2.3180852 -1.7076812 -1.4055464 -1.3868014 -0.50698096 -0.5784479 2.021057 -1.4820373 -0.8451733 -0.5382548 1.407287 0.3996106 2.2957382 -1.2322177 1.294761 -1.5377412 -0.8256858 -1.4135833 -4.5613813 -1.1453792 -2.06635
C12H22O11+K+ 1.0370308 5.601804 1.0329051 -2.9051442 6.5109115 7.375451 2.6659393 1.9099953 -5.977941 -3.7934432 -6.2461596 -0.54044545 -1.7525319 0.25117156 0.23061854 1.754568 -0.790285 2.2876747 -2.4389915 -0.047908716 -6.393162 1.1853113 2.2212527 -3.2658672 7.074635 -0.78922427 -2.127998 -4.186429 -2.1407712 -0.9539667 -7.7608027 -0.6256726 0.38386762 -4.2679324 -0.29026967 -0.04115503 -1.726055 -4.3987346 -1.4874449 4.174675 5.0691543 6.6067557 7.18174 3.2860284 3.2209237 3.5856686 -2.93312 2.6851358 -7.6820374 -3.8101666
C15H18O10+Na+ 4.087301 -2.031384 3.4251244 5.2540016 -3.6253748 -4.3368945 1.3640175 2.4255717 3.115894 4.9213033 9.373623 -2.4575129 2.7815936 3.4211025 -2.3171668 2.2959826 4.204742 -0.69849867 0.97535366 -0.2565923 3.8820376 -3.8927407 -1.8482643 3.5626056 -6.5732865 -1.8468015 1.930568 1.4258481 2.6278062 -1.1365049 6.1927114 1.3589481 1.4317918 4.64418 -5.3160367 2.2213192 -2.1564896 4.2600684 1.2071445 -0.79772425 -2.6877093 0.60360926 -6.9855576 -4.2639637 -3.626294 -2.5409846 -1.0127975 -4.080777 8.335283 3.7252162
C15H22N2O4+H+ -3.3844037 -0.9788365 1.7077401 -2.6979556 4.613614 2.9514062 7.9558325 -1.3550624 -5.9440374 4.2052703 9.1600065 1.2473795 0.045917686 -0.1499881 -0.22257271 1.997833 0.67532074 4.016487 -6.1747975 -2.7953167 3.1536512 -0.95147717 3.335157 2.6265454 -3.1317017 -0.3975808 5.924666 -0.3250789 3.5364354 3.8085325 -0.24614844 -1.7561269 -2.4099543 3.5048919 -7.201527 6.5249295 1.7529886 0.8690137 -0.07684407 -1.5353059 1.158685 4.5529313 -2.0861907 -2.5418653 0.70320356 -2.920746 2.9884505 -2.834014 -2.4960856 6.364104
