37 100
C7H15NO3+H+ 0.7710548 -20.738106 -2.1102557 -6.722321 8.125546 8.276368 9.966867 4.2973733 -3.668469 -8.303009 12.267945 -7.694975 6.3076954 -15.715516 -8.820511 2.342976 0.97185963 -10.219478 -2.3589168 -12.129366 -14.0580015 8.825411 2.662829 0.58429456 1.0575501 -14.263048 -1.2272878 -19.653368 -1.5813887 -12.208682 7.5463805 11.159372 -9.200803 3.2342408 -12.001617 -2.5204818 5.721876 12.554475 5.1130567 14.411 12.963294 -9.447057 -9.913853 8.323911 -22.66823 16.79684 6.8212924 -3.710403 -11.430659 4.7203794 2.3129632 1.5831563 1.1160305 -3.9079363 6.2987747 -6.4909863 -11.855932 -7.249311 11.432974 -11.66457 13.747198 -2.5588357 -0.47619 3.3929365 0.99561167 -18.280815 22.482103 1.1327515 -9.99992 -19.149178 14.5893545 2.3552613 19.926155 -11.5562525 -8.17617 -3.1646144 -12.502232 17.950487 3.177438 -2.020981 -2.001977 3.1425097 -7.5651197 -14.821185 3.6574423 -1.1287231 6.3304796 13.945909 4.1357346 0.5225607 -0.9925616 9.712836 20.299013 2.484756 -2.3570151 -6.065619 -11.357336 -4.4497905 0.8000628 -2.0655828
C15H22N6O5S+H+ 5.4239626 -7.605367 3.6728685 -7.9269605 -4.6816516 0.6453467 4.592494 7.972247 0.27632502 0.08417683 19.080963 -6.4311967 1.4028013 -7.1450224 -6.553745 -0.9562771 -0.6477469 -5.062429 -6.8375673 -3.088887 -11.775929 -2.6041446 2.0588143 -2.0864453 4.5712733 -8.455055 -2.3913906 -10.812579 -5.364554 -1.3247347 -0.8556751 -5.5377674 -16.621 12.263203 0.5579906 3.2923772 -2.4683692 7.5502505 7.706735 -8.504102 6.998914 0.813868 -3.0618498 13.617067 -8.951152 9.885101 0.48187622 -3.955917 -5.1507015 -2.8245862 2.0847304 -4.782559 11.284042 1.655868 -5.2835155 2.0002222 6.1959305 -15.540504 2.1187174 -7.4885263 -3.2557366 -2.906105 3.208819 3.7039816 5.421398 -4.6933594 18.277676 8.112025 -7.3629065 -1.8779222 4.76371 -1.3336723 2.4396164 -6.3265505 -3.64857 5.618588 2.927357 -0.25639388 0.39527497 -3.3123622 -4.967352 -0.74111265 3.987627 -6.7165036 -4.0691857 -3.4679594 0.9657565 -3.5794766 7.29268 1.9137882 -11.157829 12.515009 10.115835 3.5810053 3.8833082 -1.7581913 -10.684642 -2.2665272 -5.0050626 -10.585583
C24H50NO7P+H+ 4.419381 -13.474814 0.006086536 -2.7293453 4.096024 3.3822777 -2.898309 11.128985 -4.282648 -3.1788976 10.468366 -6.053029 0.38080502 -3.8588927 0.86847204 6.393126 2.993126 0.923973 1.9860718 -4.9633117 2.907397 -1.189407 5.630769 -6.141383 -8.527021 8.842584 -9.756123 -12.21042 -7.605234 7.9458094 0.8629296 -10.2496195 -13.960116 17.00829 -14.35174 -1.5158063 -2.3269343 -1.978729 6.423424 8.388339 2.7991326 -3.564219 1.6774373 7.744538 -6.297515 0.99629813 7.5042777 2.8400283 -1.7964774 -5.5410256 1.2882687 5.1786904 6.9544654 -2.450168 -4.6316514 -2.2247717 1.8170283 -1.1536435 10.447984 5.977803 10.334496 -4.1196284 11.210748 -0.18621704 -5.587222 -6.3055596 -3.1545563 -8.945581 -2.0323534 -0.02873944 -2.97544 10.253417 10.0145445 8.023404 1.2832514 -11.088526 -7.0985117 4.1366673 3.5597823 -2.4304748 -15.695774 0.871699 -7.2912664 1.1770891 -7.7476788 2.1245792 -10.86363 2.9858508 -8.003686 5.7627125 -10.470856 8.863736 9.465225 10.008853 10.985597 -3.707995 -29.172298 12.128058 -12.389671 4.3368673
C4H9N3O2+K+ -1.6261585 -17.05072 -9.338887 -3.356394 -7.897152 6.1947803 -7.0560036 8.583553 -6.49084 -1.8282396 10.278359 -5.1000953 -1.632117 -1.7946101 2.3023765 11.962579 -4.8869095 9.903495 -2.8166666 0.2683751 -2.539888 0.28554264 3.1830487 -4.2850723 0.5327142 -0.17254035 -7.3572617 -9.337943 -5.36107 3.820524 0.34853083 -0.8478713 -10.137858 16.634052 0.9860926 -6.7547436 -7.487379 6.30384 3.7867699 14.081082 0.940775 -14.562868 -3.132175 15.282127 -10.989485 3.8882785 3.7076683 1.0218025 -4.174475 2.284578 3.9173133 2.4831166 6.88063 2.824315 -4.937806 -0.16480851 4.511809 -7.409014 1.4120396 -2.178082 1.0473437 -7.862032 6.26149 5.527108 0.8922468 -12.621334 11.828685 -10.407411 -11.854977 -5.0096736 6.6164207 7.1578765 2.9427905 -0.1726485 -0.6590199 -8.685516 -5.592729 4.125452 5.6391935 3.398223 -11.868466 1.1681165 1.1200082 -11.189559 -8.589132 4.647646 -6.1676207 3.56108 -6.5012493 5.471349 -6.5463333 16.427412 11.799426 -2.6239393 7.5884013 -0.96788543 -18.58445 -0.020360462 -9.212929 2.410845
C9H17NO4+H+ 4.5449753 -1.361417 -20.285915 -6.0605803 4.914493 15.652516 5.5382805 13.73549 -4.5921354 10.950137 12.66866 -7.4426703 -6.634089 -2.8671286 8.412237 21.634804 -5.7245655 12.285625 -7.4287715 5.844418 0.7134294 -0.14848436 -3.549554 -1.4687752 -10.995021 -0.0976691 3.557617 3.3012972 -14.917906 9.889638 -3.4482815 -10.00953 -15.582165 28.216364 -4.522758 -8.1514435 -4.8674045 5.719802 14.221985 29.837374 -2.7888534 -8.1510105 10.6377125 14.328745 -18.484812 26.610556 16.997913 0.93236464 -4.8204494 0.07938296 3.04509 2.8983047 8.964472 6.888276 -5.5905666 2.6301787 5.3380337 -8.185628 -1.577679 -5.1607985 0.7910055 -6.9061055 6.242985 11.017716 1.5542308 -0.9758522 -2.7377703 -4.0980406 -15.568589 -5.3370514 11.488633 19.32771 0.35366297 -9.757397 4.0319443 -2.3270404 0.12875049 -3.4766407 5.4687247 0.85791576 -7.7613883 1.3123206 -2.9812934 -5.557363 5.171362 2.7670956 5.338893 4.1438885 2.8544853 3.657219 -3.9056795 9.863714 -0.16805086 3.3127542 14.186844 -4.986248 -21.677547 5.9471517 -20.670486 -0.11498463
C11H21NO4+H+ 0.18105334 7.3140273 -3.3009827 -4.3689475 8.681782 5.5889454 -6.002291 6.2829037 0.13434182 6.3729205 14.756036 -9.9949465 -7.580774 -9.291394 -1.3024976 10.175652 -5.363772 -1.2811465 -6.525363 -1.8097668 -1.7727809 -2.3081791 -1.6502827 4.3991895 3.9604068 2.7274122 6.4997854 6.8225536 -3.8035476 0.40002128 3.8441658 -3.3138955 -23.699871 11.813619 -1.729846 -12.603561 1.1386392 -1.6825795 16.236671 12.291901 10.386028 -0.2327271 3.1227207 13.159811 -17.889898 27.86841 10.179643 -7.4989495 -8.778235 -3.6632633 -6.794136 -1.66493 9.515228 6.433541 -3.312778 1.2299448 14.411721 -13.068418 5.0997233 -2.0032372 4.262338 -11.031744 3.8809543 11.479995 5.1164503 4.6642275 3.7577887 9.45825 -2.7443845 6.343677 5.9885693 7.062464 5.627024 -12.76501 4.9496756 3.2905207 6.4891677 -6.6162496 1.6369061 -7.2068567 9.243172 8.652385 8.178896 5.918952 15.715413 7.6703343 -1.8356143 0.14991246 -12.6742325 -0.79401433 -10.47674 -8.026884 10.131843 3.8796659 15.735148 -15.590712 -15.661264 -11.670688 -11.753687 -6.068512
C22H22O7+H+ -3.0745127 -9.825311 2.3634243 -12.397823 10.76827 10.219653 7.5796895 5.504977 -2.3804755 -15.790853 11.327858 -9.749723 -0.5174245 -6.9628215 -13.52729 -2.7132084 0.11054857 -8.649006 -1.568857 -10.987978 -12.260481 4.7988257 4.5865912 0.57495517 10.0468855 -6.1921506 -5.191504 -24.218744 -1.9732901 -6.985944 4.185292 -1.0317767 -9.4923525 2.5143118 3.2166138 7.3004513 -0.68467903 5.243972 -1.6312659 -13.285584 9.543887 5.711851 -9.134341 9.838117 -6.438761 5.83826 -0.34480393 -3.1859474 -0.07129827 0.85449266 3.4168198 -2.9596357 8.186669 -5.8973513 1.6976736 -1.5805664 -11.159034 -9.004948 2.3479087 -2.49719 1.100022 5.733591 -4.110315 0.9563267 6.224347 -3.4580805 19.226625 9.703017 -5.570421 1.1374849 4.684105 -2.0836418 9.464616 0.094987854 4.1006427 1.1905669 -0.85484517 13.183329 0.82501316 -0.61710066 5.2565656 0.88284314 -3.942399 -0.3389539 11.739417 2.9305208 1.108841 -1.2501587 12.790026 0.12220799 -4.6245656 4.7495914 14.628975 15.785312 -0.79693574 -2.1704762 -14.89523 4.0931344 -2.8859892 -4.3195963
C8H20NO6P+H+ 8.628642 -6.977003 -9.140434 0.8871538 -1.5982778 5.421095 -0.5754007 2.0747406 -7.853063 -0.8016623 6.728848 -9.977201 3.0772102 -12.9880295 -5.0809526 0.94481516 5.8595977 -1.452062 2.8242388 -4.7918177 0.039977256 -1.1380023 -7.7374706 1.3870475 -3.4004436 -1.3520117 4.639747 -0.041791387 -6.2779117 -5.4428453 14.709497 3.345226 -6.4783163 -3.9261417 -1.0839202 3.5891945 0.26791123 -2.6912992 5.3372245 12.902367 2.5929692 -8.4026 2.1225684 2.125674 -9.696848 7.2351727 2.209025 -3.9513009 -5.563711 -1.0896101 -4.164935 2.13056 -6.2703624 -1.4858098 -2.11276 -3.1154144 0.7892543 -0.24458459 1.4492644 -11.521782 9.286864 -9.09756 2.708744 16.091375 1.9401714 -1.3644745 11.948044 6.7790413 0.64645237 -15.603849 5.621759 -1.9187118 2.0511518 -11.947235 -1.4240217 2.206449 -2.4799142 -10.410948 -6.239333 4.595134 -4.3095045 -4.854002 9.469397 -1.612799 -3.5265396 -1.1825125 1.5498307 4.746148 -6.5092015 3.6853442 -6.555887 7.5893 1.2747484 5.1572433 -0.72727597 -1.5905865 -11.435578 -2.5944045 -6.706621 6.696598
C10H7NO3+K+ -1.0510707 -2.11347 -0.8354869 0.30580303 -1.2491285 1.8024639 0.07177524 0.9246001 -1.1871853 -0.94855183 -0.28416675 0.75326115 -0.24627674 -1.1743349 0.9002202 2.149143 0.09081554 1.1851171 -0.44716674 -0.055280417 -0.1800138 1.1373229 0.30448705 -0.50668555 -0.65686333 -1.0117813 -0.064132616 -1.8858534 -2.5829935 -0.4023208 -0.056986667 0.17663479 -2.207848 3.6123214 -2.1275673 0.43573076 0.19566771 3.7415612 1.9030421 3.6763961 1.3417289 1.3136234 0.14563037 0.11314488 -1.500928 3.6838121 -0.425693 -0.66944313 -2.2719185 -0.326468 -0.9522102 0.23783702 0.048187036 -0.13258493 -0.47846723 -0.34667188 -0.6400698 -0.25072277 0.8942655 -0.80718803 0.80897653 -0.6538303 0.2529998 1.1713157 -0.3591802 -0.7715445 -2.0954287 1.2471853 -2.3323588 -0.5944097 1.9046612 0.098184116 0.9524744 -0.9234639 -0.2453802 -0.98368704 -0.71121836 0.5949127 -0.18839815 0.4513251 -0.2774782 0.18068704 -1.1085548 -0.6488888 2.3997731 -0.6213322 1.609104 -0.27976793 3.8768377 -0.13362642 0.7121567 1.5834014 1.8049698 2.2010927 0.8785915 -1.1938448 0.3206355 1.6501796 0.58571285 -0.46515733
C11H20N2O3+H+ -0.749806 -4.5480723 -10.99355 -9.441969 -6.5362263 5.450733 34.48136 -0.81189054 -0.7815835 15.655893 10.055787 -10.905574 12.410551 -8.53458 4.693422 -10.197292 -8.588417 1.0730544 -7.4579215 5.3803406 0.5258177 3.6801915 -3.7440224 -4.4115334 -5.068754 -8.8510685 14.5274515 -7.2586784 -2.7791479 1.4252212 2.5358508 -17.244875 -15.181519 20.535595 -2.8238277 9.090446 -10.86768 11.162106 8.6387415 6.5192127 -11.449954 -6.708408 6.8314834 14.69955 -12.246415 16.614777 12.37714 0.5580628 -0.27486575 -7.329803 3.1050665 -0.45491862 18.072899 1.8781743 -3.359123 -1.7057866 -8.158756 -11.41346 -0.6513997 -13.099117 1.3391588 6.6407533 6.8568783 1.6064972 -1.4123843 4.1793523 33.068024 6.015899 -2.0957265 -18.524508 1.582649 0.96041185 8.891697 0.6059849 4.548446 11.333612 -2.9017172 -4.037355 -6.4971714 15.124155 -6.904247 3.7441678 -17.170229 7.7926173 -8.836637 -1.3990452 0.11941336 -8.905343 6.4183555 10.044965 -28.281929 11.153452 12.323532 20.861174 -6.577333 4.6203723 -21.036655 26.403902 -26.318241 -3.5827334
C8H17NO2+H+ -4.19985 -3.6606913 -6.746033 -0.38231498 -4.196868 2.7367415 1.3312386 3.159229 -1.3914548 -2.656135 -1.1958674 0.14219902 0.81013626 3.3489263 2.910077 0.97632277 -1.131549 -0.0027684756 2.4916852 0.9539578 -3.710209 2.5369127 4.959092 1.6953282 0.40046346 -2.4862 -1.5432619 4.65804 0.7765371 -0.62073267 2.6257744 3.0920808 2.2089376 3.2993832 1.2585183 -2.568635 3.4941504 -1.7605124 4.9741197 4.515631 2.3301923 -1.9352051 -1.895695 -0.21434517 0.7390802 -1.9789526 0.46308562 1.3130392 -0.28227505 2.179682 0.34738526 0.9952741 -1.1504998 2.433255 2.4747176 1.8543484 1.2732927 -1.4745716 0.7039001 -0.5784986 -1.6767739 -1.3016894 -1.9648328 -2.6495128 1.1541617 -0.8205823 0.6826828 1.1370853 -0.70512295 4.563071 1.7122902 5.0807705 -0.9279709 -1.8028426 -0.66917664 -4.1008625 1.1235449 0.52582836 2.2478633 1.9745008 2.881746 2.7973542 1.9237331 -0.08931947 -0.809525 -1.1728241 1.3959764 3.8062778 6.0714684 0.80392116 0.090522304 3.526222 0.113959275 -0.5399626 0.6417278 1.9048866 0.12957111 -0.85933125 -2.8800535 -1.6312696
C29H47NO4+Na+ -3.4574463 -11.3861 -7.2154307 -0.86999357 -14.809622 -8.519189 6.9343786 0.90434855 -6.313157 4.3242645 6.8625584 -5.2341766 6.862211 -6.2250814 8.343086 4.8758035 -4.0215526 8.85157 -2.4197555 5.2149463 4.0191793 2.5797434 2.8844883 -7.213928 -8.034595 -1.939027 -0.4485071 2.4449275 -9.53888 2.6675003 6.724217 -5.9176803 -15.191435 19.889881 -3.5435307 -7.5749235 -1.8504118 5.7451644 11.242336 -3.7339022 -3.8650067 -13.086355 7.1661024 11.292315 -11.0117 7.817357 11.7907915 -4.50766 -10.87296 -10.69293 -0.6653198 -3.1670992 1.6699917 5.704878 -7.216344 0.45116347 14.955203 -6.8803134 6.781047 -8.563973 -0.003989678 -15.67855 15.760682 8.287645 -9.058519 -6.236216 10.040215 -10.791213 -2.0650268 -13.50836 10.048278 5.9471006 7.179388 3.8597555 -5.2666926 -1.3656507 -5.389297 -5.389034 2.9345672 3.39947 -12.844884 -1.5584965 -9.74548 -8.609864 -7.7286425 -3.8338902 1.9110676 4.2338533 4.0480714 4.9064984 -14.368352 21.90902 18.677036 8.689884 -0.5725398 -2.269573 -10.175933 11.076856 -12.712766 -8.79539
C7H15NO3+K+ -2.777536 1.5567619 -2.6157937 0.07859852 1.6189281 0.22551903 -1.2163825 -3.3101184 -0.9695519 -1.6320685 -0.90620476 -0.94325703 -2.356699 1.7555915 2.0431645 1.145431 -1.7813175 1.4963943 0.3423314 1.0377299 0.7145883 1.5074931 2.925952 0.8751885 0.9555867 1.925781 -0.94777966 -0.8725804 0.26446918 1.0764445 -1.4203976 1.0473499 -1.6181903 2.283745 1.1258992 -3.9392908 0.7654417 -1.1886235 2.5732179 1.5858102 -0.20480274 0.78427124 0.8208603 2.1174386 -1.2141048 2.0853581 2.8703434 0.6145028 -0.4136811 -0.24277364 -0.10071433 -0.6808209 2.0632646 1.8569844 0.84240025 0.2248766 2.9251983 0.138616 -0.8265704 -2.011307 -0.1394918 0.8366329 -0.08402537 -0.36435854 -0.37359935 0.11680024 1.3369383 -2.5280623 1.8539076 -0.1886362 -0.13245872 2.0948284 1.9370911 -0.3009171 1.6061844 0.44355834 -0.024462922 -0.25355005 0.5149664 1.298731 0.14295429 1.1467543 -1.0377599 1.1401995 -0.7311321 0.7648354 0.6607645 0.3673789 -1.1516078 0.904833 -2.5942638 0.7495557 1.908353 -2.304222 2.5069265 -0.80830556 -1.9600443 0.5874399 -0.59380937 -0.06412805
C26H50NO7P+H+ 13.827202 -6.1555486 -4.528564 -4.826557 9.188728 14.533681 17.685705 9.731111 -6.301135 -8.033727 17.16192 -13.643149 0.8289904 -21.399443 -7.987029 0.33476546 0.057022847 -6.643264 -3.0019343 -9.229276 -16.229906 -0.6521556 -9.956022 3.5045273 -2.8321583 -6.490091 -1.1253623 -18.996218 -8.641171 -9.710282 9.675142 -2.185734 -19.831535 0.57138014 -10.931963 3.9400158 4.1975217 10.462319 11.615201 3.9051535 7.935444 -0.25767416 -3.2533193 3.0553224 -10.657013 15.760442 1.4501227 -8.496066 -14.814699 -4.19182 -3.7196689 -4.056004 0.60865325 -3.3255007 -2.8816123 -5.4208155 -1.2034943 -6.4617076 6.741706 -12.423513 8.2862425 -4.115234 -0.103340805 9.066001 2.5484693 0.26908526 15.786743 12.048779 -4.43295 -12.672152 14.112861 -5.549175 20.319012 -15.45173 -4.5955877 9.473509 -2.7268312 -3.6313891 -16.33255 1.4214542 -5.536945 -5.4200015 -6.4695373 -6.558116 -1.0807703 -13.495967 10.954142 9.735151 15.475848 3.0393164 -8.371436 27.95558 10.843376 21.743893 -11.062498 -1.6712856 -23.626448 -0.7834639 -16.756163 -3.7244763
C13H17NO3+Na+ -0.9351394 -18.690996 -8.261459 -5.197668 5.379877 6.7908154 2.6244743 6.043706 -4.6782165 -1.4503094 13.776071 -9.605691 -2.330199 -10.7151 -1.3086534 9.319587 -5.596797 1.6577221 -4.587119 -5.4482303 -5.699902 2.36212 2.5356462 -1.4273088 2.1157548 2.6071239 -7.5372066 -15.635407 -1.2076582 3.1988919 -1.1440319 -4.3653493 -14.215331 11.215806 -14.037155 -1.9568704 -13.116314 0.36679274 -2.3373947 11.707444 0.7117648 -6.806328 -3.8340874 10.76448 -8.127849 6.6708546 3.6294155 -1.7233284 -1.9661493 2.216593 2.5244448 1.6421627 10.010965 -3.9470758 0.22594619 -6.257407 -5.418544 -6.0055943 9.083412 4.289941 6.971875 -1.0783573 5.152801 -4.350934 2.4074018 -14.836552 15.648966 -7.51822 -9.056048 -7.145424 3.422077 6.0885134 14.615264 -2.8667457 -5.4306636 -6.2294483 -8.570383 15.403812 5.56579 4.046685 -10.191258 11.206524 -15.263098 -7.764866 -3.9508455 4.378483 -11.643141 4.459789 -6.9253983 4.088542 -9.870196 5.497552 4.4604397 -1.434641 -0.08323315 2.6134982 -15.647536 4.72095 -5.3757353 6.11786
C10H16N4O3+H+ 14.332796 -26.47377 -24.992033 -6.8776608 3.1454148 13.563868 4.203743 14.905309 -16.362757 -6.4546466 20.464638 -18.354788 -0.55592805 -18.266115 -2.7127075 12.777695 4.2142725 1.7859334 -0.3128025 -8.719932 -11.356824 6.590952 0.031864636 4.115567 -2.8205864 -9.659445 1.4407505 -14.308224 -13.970385 -3.0622022 16.970535 -3.9757035 -16.023777 23.97106 -5.7055845 11.633814 -9.771434 15.047536 4.3227234 15.453934 -1.4370446 -9.59939 4.304596 13.273334 -14.028826 11.546815 12.333242 2.084489 -2.6666207 1.346947 1.0570184 4.5400643 -3.888545 -2.8791687 -2.7627742 -3.261466 -10.512443 -5.146787 3.8952355 -10.54381 10.154412 -8.419537 1.8631223 13.518915 6.011701 -4.780755 16.987255 2.418535 -8.550712 -16.36753 9.442887 4.402911 15.192186 -10.825263 -1.9120469 -2.6043293 -5.399671 2.6421788 -5.608335 4.858358 -12.502274 -2.3125074 -11.350994 -10.976184 6.7452393 -0.67922646 0.2949658 11.018592 17.413958 6.5172663 -13.580988 28.220987 2.146089 17.867323 -11.654704 8.611306 -27.696825 15.357466 -18.282034 8.098997
C8H20NO6P+K+ 4.307246 -8.4159355 6.0514655 -2.4764833 -1.1012887 11.047937 6.0669203 11.570758 0.7395158 3.336795 12.323556 -0.6075437 2.1158774 0.4655281 3.4648645 4.679404 -10.1401825 8.812076 -4.9088345 2.3940156 -0.5276879 -7.227743 5.5123672 -14.830446 -10.767878 -1.873366 -7.966161 -6.57386 -2.9664397 9.767743 -8.867294 -3.797124 -6.6770334 3.9208453 -15.333147 -2.6341045 3.0833871 -2.7656145 12.152503 30.157969 0.075376675 -8.252684 3.6489708 12.123435 -8.65814 4.981097 10.38428 4.612455 2.159987 2.4174957 7.9336343 9.087066 9.339878 3.526461 -1.5573503 0.6044124 -6.9992456 -10.882394 4.183918 2.7771573 3.746368 -1.5971991 8.713661 -2.813636 -1.4831777 -14.937151 14.020654 5.488474 -15.497066 -1.1323512 5.1467915 2.842788 0.6766239 2.4879847 1.1876178 -10.887838 -1.1674666 0.7599314 3.1288848 1.9167043 -9.511186 4.8286853 -12.998917 6.614518 -11.658391 -6.896228 -6.490889 -5.535345 -0.118239574 0.7896846 4.357823 1.2644858 2.563783 -1.6833153 7.8237514 -4.726288 -12.905844 6.450237 -7.7317996 -1.6668003
C8H20NO6P+Na+ -3.3348196 -6.7763205 -8.749773 -2.7332807 1.9419142 -2.6199045 14.90029 -10.072136 0.59344655 -0.27705306 -2.7244973 3.9583685 6.9172244 -5.6397834 -0.69420415 -5.636299 10.456889 -5.254705 -3.377656 -0.5739095 -8.538133 11.6369295 -5.5523376 2.6822097 -3.5562675 -12.767568 4.2308645 -18.474653 -8.9713545 -10.0173 3.1543562 2.8955224 -0.63794434 1.7294372 -1.5763546 0.7354336 1.502669 15.361285 0.97140044 -2.75911 -0.6585203 -3.7708316 -6.3153205 -2.3436952 -5.2233677 8.861019 -6.821719 -8.929715 -19.121044 -0.7019875 1.6883408 -9.459442 -4.275407 -3.494412 0.5708105 -5.3563557 -1.5218621 -1.2966944 3.3790004 -13.346041 -1.3960197 0.54292953 -3.2215037 1.6178344 -5.722191 -8.82034 9.428207 -6.9316278 -2.1377041 -29.50661 13.89232 -9.799389 14.301439 -13.0041685 -17.085815 18.588305 -11.527691 3.235636 -6.97597 11.692774 -8.397052 -5.2447724 -4.812666 -25.788546 -4.7832065 -9.555652 18.721128 11.631415 17.742579 4.0216994 -10.195844 21.003235 18.078964 3.7495182 -9.05552 1.1021384 -7.8579674 4.2919497 -2.6823602 -6.459514
C10H11NO2+Na+ -1.1285115 -3.018529 0.9800488 0.27727866 -0.82659346 -0.86928225 0.94099844 -0.5283055 1.9850571 1.2726954 -0.52958184 1.8533568 0.81011975 -1.078737 -1.5018668 -0.90713066 0.7026887 -2.51603 -0.86953723 -1.5183234 -1.8402289 -1.1783723 -2.6784232 -0.31535202 0.43538263 -1.61903 1.2707119 -1.4980016 1.253741 -0.52556175 0.0017299553 -1.3671126 -3.3438904 3.1060894 -1.26436 0.9914411 -1.4876685 3.833314 0.21145223 0.7117773 -2.345507 -1.0846616 0.6278455 -0.30618054 -2.0573626 3.5766728 -1.6374303 0.22680272 -0.13407214 1.8614517 0.61798936 0.6952462 -0.025385518 -0.24847507 -0.66442275 0.23155627 -2.4462404 -0.18490931 -0.24411741 -2.5850766 2.013573 0.3649488 -0.31384188 2.3419573 0.38459128 1.4489661 1.7983509 1.3842342 -2.5035088 -3.539803 -0.13402133 1.1135256 0.41417173 -3.1564548 -1.0192628 0.39755538 -1.2235192 2.7277606 0.08861642 1.0076519 -2.7913835 -0.5052056 1.4125545 -2.236691 -0.15449943 -2.1161807 1.6055177 1.2811378 3.310334 0.32087538 -0.12314225 3.87067 -0.068905264 2.9211712 -3.5802228 0.38304693 -0.32564425 -0.64100355 -1.2162552 -1.7643161
C37H68O4+H+ -6.0668073 -18.867329 -23.360884 -8.261214 -3.408445 6.9855113 -0.60723186 -0.34422895 -7.2761717 -4.471732 9.149338 -9.721388 -4.8472924 -8.128234 -4.1132255 11.495247 -6.1358194 4.8740926 -6.5814753 -1.4238949 -10.092723 11.815625 3.7613342 4.173383 4.992664 -15.09336 1.7966123 -4.7462044 -5.6876144 -6.641181 8.479337 6.7768345 -5.1849008 15.339806 3.1948447 4.1921315 -4.0232563 16.716719 1.9738197 13.449877 5.520212 -3.0132027 1.1458355 11.522085 -18.678247 22.708141 13.223008 -1.0436406 -0.36962745 5.3318315 1.3596014 -1.0253214 -1.4121317 0.6129724 3.520176 -1.2487751 -11.833141 -4.8774314 -5.3680105 -10.317458 0.72488034 0.8024969 -3.9450715 8.197007 6.0755167 -4.7696447 10.462571 3.8429012 -7.911438 -2.6495883 5.0741844 1.4941683 0.51498884 -3.959182 6.4450126 -4.5283585 -2.095616 11.131847 5.211673 0.38052127 3.6082156 0.9857344 -5.697941 -4.8855166 17.01793 7.7836 2.460206 0.4375382 13.224285 -0.5554401 -2.0203867 3.9978685 5.8734584 4.489837 1.4658327 -4.3419666 -4.7760315 9.195607 -5.857391 -2.3280802
C35H66O4+H+ 0.27891415 -12.770629 -11.125284 -1.1524621 -7.0100265 -3.034608 -6.0358896 -4.0786476 -3.904178 0.54181445 9.473198 -6.913198 1.3983818 -7.6453056 -5.458469 1.11145 4.668616 -9.367918 0.9435041 -6.554068 -6.62105 1.1283764 -1.8606647 3.5004387 1.3452319 -3.4774039 -2.9183698 -3.7707639 -1.1076734 -4.068894 6.2591457 2.0582592 -12.710735 10.589799 -4.115516 4.1844053 -4.101609 7.26912 8.620816 13.445633 4.975935 -1.657924 -4.859312 5.966515 -7.241258 11.8157835 -4.22577 -4.1075716 -6.9353623 -4.584917 1.2077923 -2.7579498 7.2708035 -3.3184702 -4.3113947 -3.454836 0.5710739 -4.990826 2.060897 -5.3484178 3.5164602 1.9758047 1.5497534 2.4610002 3.0705314 -0.3058324 6.7038317 1.7501009 -3.3369207 -4.402611 -2.7775986 -0.4541593 1.8944775 -11.059086 -7.448974 9.651317 -1.0309981 -3.0377324 -5.8696556 3.1514852 -4.998475 0.035451315 8.161139 -5.946168 1.937507 3.471526 -2.8960147 4.322084 -1.4261338 1.6544689 -12.274281 -0.24076687 -3.0805638 -1.0852519 0.6179018 2.2581348 -2.4940777 2.509906 -5.142433 3.107642
C23H45NO4+H+ 6.0150523 -1.3624879 -1.6529526 -4.766264 -3.7345088 3.536204 1.6284723 5.115715 -5.107795 3.9297616 10.754359 -10.917733 8.427897 -2.8824036 -1.8393716 -6.2210674 -0.9046922 4.5698867 0.57834613 1.9138765 5.6100364 -2.7660408 -1.2019463 -3.8978014 -9.886184 -2.5138788 14.728965 5.337991 -9.38557 4.6725664 13.009422 -6.252739 -1.1495298 -2.5221732 2.2364151 10.009527 -1.9341233 -11.400516 5.123612 16.944607 0.87622386 -4.7190485 9.932432 8.852144 -9.191152 -2.762762 11.754735 8.201082 12.559274 0.6703629 -3.1052933 10.730759 -1.6663324 -2.1430857 5.1135926 -1.3092675 -8.270007 -6.7269855 -1.092409 -15.333177 10.112332 -2.4734852 2.1907413 16.280859 6.0206895 4.584241 15.862448 18.072315 7.5930996 6.344185 -11.867928 -0.045093272 -4.678001 6.412524 16.768118 -6.8475366 6.424949 -9.461044 -1.6630893 -0.9800705 8.735264 6.3355947 -2.0604901 26.205847 3.370945 7.108906 -17.749384 -14.117789 -8.355691 5.718749 -14.004964 -9.6229 1.9546037 13.403516 2.7575734 2.2651205 -18.88696 8.311025 -6.0449567 4.97217
C37H66O4+H+ 7.2460294 -4.5142584 -5.3913436 0.8436873 -3.4506252 -0.9249326 -2.5114422 -2.2989948 -2.3376234 10.866611 21.999937 -15.055313 -2.7736998 -26.817389 -4.6621275 5.5110435 -10.188427 -0.64105284 -12.405899 -1.7459968 -8.387732 -0.48300004 -2.4240324 -1.3121241 3.9038005 1.3463621 -2.7494085 -9.035943 -2.784991 -1.1664016 4.286065 -12.085765 -32.06392 15.383513 -10.814069 5.355264 -5.0033345 8.180528 19.05529 15.189651 8.377563 1.0481819 -2.2601626 14.533084 -8.377234 22.617636 -0.8207775 -9.610606 -13.300255 -10.374604 -5.4591284 -2.6791592 14.591943 2.2302985 -10.5931225 -4.089723 5.2233686 -14.031405 10.356339 3.2676165 5.9748573 -8.132507 9.116374 1.5814613 -3.842114 -1.7798384 -1.287144 4.4107533 -5.1161547 -0.07389255 4.86405 -4.6555963 9.609558 -10.090545 0.8822613 5.530572 -0.8213778 -8.338594 -10.925118 -4.190592 -9.607596 0.32730755 -0.22141688 1.2481523 -7.691139 -4.337978 -4.660485 -0.59375834 -11.028664 4.6785417 -12.147804 8.838854 6.3697724 10.054488 4.8329554 -10.119057 -20.132696 -2.2183843 -21.624556 -3.3754013
C10H15N5O10P2+H+ 7.6151805 -19.698347 -34.36286 -1.667645 -1.9731877 20.374132 16.962868 14.991194 -13.434767 11.322404 14.128734 -17.605598 -1.9188292 -9.713209 18.115997 13.530758 -5.5148764 13.817734 -2.0801358 6.457341 -2.647614 15.369632 8.566362 4.669698 5.4574556 -12.265346 7.9574184 0.6007145 -2.8691669 5.830571 6.679582 -10.402102 -7.8889155 33.47114 3.103629 7.9226246 -11.733644 5.950825 6.869056 16.709957 -19.022228 -7.9992485 8.933604 21.024984 -7.3002496 19.694916 21.944096 -1.2435884 -9.596552 -7.3006334 9.036093 6.4287 5.0269365 10.100643 -14.867241 6.9619355 -6.9620013 -14.440611 4.4733405 3.7827015 -3.4145253 -16.405907 6.781507 1.5989412 2.2032807 -6.0988035 18.123695 -5.9689975 -13.600924 -18.343962 19.50405 9.643434 -6.7093954 -8.585557 3.0532575 -3.356037 3.5643625 -1.461516 6.8937836 10.580419 -11.933288 8.043856 -8.020317 -14.924319 0.09509888 6.1769214 2.5911458 -5.8445783 18.883514 10.499827 -8.027728 18.970093 3.895418 18.195835 -5.1635375 9.11831 -3.1535966 12.506585 -28.930414 -1.2435403
C15H16O9S+K+ 6.090262 1.6282166 -1.2035526 -0.8848594 7.815221 3.7040937 8.245079 0.46702978 0.82554895 9.037637 3.1678963 -4.9722385 3.6106994 -5.204385 -2.664064 -0.21354645 8.259462 -3.1913984 -1.6172557 -1.1153378 0.7485584 2.80304 -8.201665 0.46656087 -3.4628255 -4.729484 2.0761175 -0.09281077 -11.327595 0.22288312 4.7197905 -4.058413 -2.361515 5.0998907 0.9726875 1.5934119 -4.1914544 -4.8525505 -0.96482956 4.606253 7.86759 -6.528317 0.14682192 11.508947 -7.468658 8.3590355 1.8460355 -0.4537738 1.5693238 -3.613904 2.6958601 0.13665783 5.473144 -6.980048 1.6402104 -5.945859 -3.6920254 -4.3092613 1.2203985 -10.424346 2.2324378 -2.0678372 4.707939 5.2279673 7.0095534 0.37410724 11.847625 2.1718428 -1.438636 -4.017996 -2.5381732 -2.2315288 1.8504138 -5.6911526 -2.4640336 6.1015787 -2.7961545 -3.5521023 -7.2421 0.5113706 -6.806768 -0.3348342 -1.1306821 -5.903916 -7.389518 -3.906515 -0.6510686 1.0979197 -0.5518746 3.2677891 -0.7198302 6.4002557 -11.515294 6.5586724 -4.2224765 3.5755038 -6.0228934 0.39049464 -7.8925543 7.150351
C25H49NO4+H+ 9.461022 -3.7075083 5.691318 -4.0311136 5.011551 5.387469 6.9778504 3.5822089 -5.4897866 -1.4226154 13.929678 -9.261825 8.561233 -16.324427 -6.3215966 -1.706543 2.6298385 -3.3795936 -4.0700016 -5.546655 -3.822201 -2.5646305 -4.1195035 -7.065652 -3.2279038 -2.1759953 -1.457697 -19.208393 -10.418654 -5.425753 5.1143074 -0.40593037 -14.873197 -3.3219779 -9.64787 5.618056 0.45635083 -0.27533573 5.5811973 3.1111479 8.242925 -1.9852008 -7.025192 5.365616 -3.5982618 -0.41850296 -8.406767 -5.582548 -10.366336 -4.721729 -2.5629196 -1.3989259 3.8170967 -9.942469 -1.3106178 -8.765749 -2.0923939 -4.6812844 7.9592395 -7.876984 8.245332 0.06451043 2.950729 7.250836 -2.7012994 -11.000388 9.80386 8.466832 -4.177557 -13.26573 7.805703 -6.73316 19.46063 -8.002322 -6.3244247 9.041893 -5.141271 -3.9030495 -12.571145 0.53108716 -4.459044 -4.793787 -2.2106228 0.5859047 -7.5742292 -9.794752 2.9286265 4.3750806 -2.6873345 3.4583309 -4.051139 10.256788 10.901741 9.543267 -1.6265423 -3.59994 -20.237566 -5.959586 -1.9818481 1.4010009
C24H50NO7P+K+ -4.5690207 -6.3982263 -3.041507 1.1608149 8.71185 3.1383138 5.350636 1.9438893 0.9198938 1.2493023 -3.66959 -0.5389182 7.8284116 -3.145217 -2.235685 -1.7433476 3.4969575 -6.4730096 3.9559999 -4.5559187 -3.1052034 5.2254767 -5.663001 3.7403154 -0.8037959 -6.303653 -1.8632897 1.208371 -4.303094 0.42142865 2.3753216 3.4621701 -2.4780297 6.8465147 0.5082831 -2.2692254 1.7444437 1.1324859 3.1162522 12.904707 8.692793 -7.7898436 -1.3210928 9.042111 -6.8625774 7.7828484 1.5121137 1.4749167 0.06964994 0.006486357 4.3816433 0.31148222 2.3719757 -2.347174 5.665641 -3.1045654 -4.6718106 -0.5829795 -1.6914517 -7.7503924 1.7270225 -1.5645974 4.5991898 4.28562 4.388678 3.6566772 11.3612 -0.5603573 -4.2511773 -4.307407 4.8355255 2.049264 5.8238964 -2.303674 -3.4015985 5.5066023 -1.2932446 -4.8609195 -9.180452 0.4295246 -7.8222294 -1.08092 -7.0670586 -1.6404 -5.808011 -5.392368 0.97496945 3.5072591 4.500619 1.6152775 -0.5479014 14.259301 -4.3592753 8.678186 -11.436978 4.990901 0.8192723 5.659143 -7.890335 2.826873
C10H16N5O13P3+H+ 4.8603377 -3.3460553 0.73555046 -12.203361 -6.364697 5.873017 17.935162 13.791722 -0.6086152 10.757593 11.2470875 -2.181055 5.424991 2.6993353 7.4227705 6.8606715 -10.063362 9.692471 -11.256596 8.738604 -2.5757933 -1.2449219 4.7731857 -7.6185746 -1.5133574 -9.701549 2.0044043 -4.4649186 -8.20107 2.3028255 -7.8694425 -7.926809 -8.157945 24.42684 1.4213021 -3.8774993 -5.9395785 16.211426 1.4507726 -4.925824 -3.9969413 -9.046025 2.2516139 11.729675 -9.47026 0.39808768 6.5735536 8.588922 4.1888866 0.85756683 4.385751 1.5638824 13.071099 4.45895 -4.6581464 4.8024893 0.5360803 -5.6550536 -3.791483 -6.317774 -4.2330937 5.6439104 2.201805 -0.6528397 0.12665333 -2.8658257 4.8603354 -9.322893 -10.259083 -7.650832 6.193038 15.493647 3.9940035 -1.9421401 6.3476324 -3.9768984 -1.3584118 7.8516145 4.1212015 -4.129424 -11.833915 -1.5581522 -4.74767 -5.932063 -9.239773 0.37012056 6.1692853 -0.3917463 1.1524975 7.556961 -1.9827857 20.088072 9.354546 5.8344665 6.908167 2.7976532 -19.943605 6.972839 -10.619517 0.16826107
C9H14N4O3+H+ 7.894041 -3.1589556 2.6333048 -8.512617 11.032764 8.388391 33.923595 24.685398 4.7789135 15.750723 3.706877 2.6965287 1.2668463 6.6319504 23.993862 3.8420746 1.0472201 6.7931714 -4.4556465 7.536352 -6.511598 16.52286 18.126982 6.7880673 19.727694 -14.835801 7.821848 -5.6740255 11.475252 2.4453287 -8.194431 -10.634382 -7.5124855 33.718903 7.920992 -9.39202 -3.0963678 18.952944 -3.4154618 -36.062134 -20.393856 -4.6265135 0.26268995 15.893009 -5.349696 12.832506 23.343874 -0.8215761 -13.397507 -7.5629745 3.867338 -2.17427 11.107996 23.178799 -12.924239 16.513859 12.813577 -14.334616 8.080078 11.47279 -13.26592 -17.09943 2.706894 -15.315141 -4.7749 4.1899867 5.7945776 -13.747494 4.7365417 -15.67446 18.770987 8.5820055 -0.27325568 -8.669466 0.34902295 0.2987637 1.3169632 11.027785 13.697796 -10.288047 -10.541652 9.250137 -3.423173 -26.431974 -2.0025911 4.7302136 19.486313 4.841655 10.210367 9.502532 -2.8796074 27.20159 27.468554 21.089632 -8.248941 1.8039137 -1.8021244 1.9989855 -25.283766 -11.476122
C11H21NO5+H+ 0.11070451 -3.05805 -2.4156094 -0.22091879 6.6715255 7.2817235 6.651541 8.544376 3.1372337 3.7701855 1.7466017 -0.35100898 7.2023807 -2.1399863 -4.3237834 -5.5612245 5.306268 -6.7145295 2.4832344 -4.7556787 -7.402623 3.4580467 -3.1545796 6.0833306 0.7822245 -4.049017 0.5770016 3.361302 -5.837837 -0.093620986 5.057083 4.540841 -4.4364123 3.599295 3.3462226 -1.9506379 3.9669192 2.3011003 6.034249 7.2843633 10.945186 0.61173767 -3.4000022 10.657853 -3.5904694 8.997624 -1.7366015 -2.4132206 -4.9454575 -3.513571 -0.3082752 -1.5429187 8.46142 0.05294683 4.343924 -2.4711173 -2.0915318 -4.873916 2.9769719 -3.5840456 -0.20811866 -1.6358091 3.8334613 -2.4199128 0.8411341 0.43159807 4.983816 1.6158097 -4.049463 -3.2229042 7.5109906 5.742091 8.005335 -5.9453154 -1.1736038 4.8392076 1.435641 -2.2566197 -7.774551 -2.3080876 -4.927722 -1.987623 -6.3086214 0.35631573 -2.2130554 -4.8154073 6.648822 8.148679 2.1667192 1.9071038 4.4503427 8.453969 0.54059213 8.195937 -4.9229836 -0.8226532 -7.8110065 1.9875019 -10.282648 -1.2735922
C25H47NO4+H+ 6.524054 0.4900863 18.53746 -6.326253 6.238903 5.9695354 7.263824 5.2668123 -0.26016006 -11.689018 22.0788 -13.964269 4.76788 -14.111719 -18.970165 -17.571598 -2.6754737 -14.6216955 -1.2526361 -13.388313 -12.22696 -8.799761 -0.42699188 -5.870083 5.0144444 1.3984872 -3.6334643 -22.432194 0.85975695 -4.8496456 7.340214 -7.3005533 -19.347607 -17.587639 0.08420289 11.008238 4.8446226 -10.257152 15.212571 -5.5823135 17.928877 5.3335395 -10.375648 13.783045 -2.438046 0.6922524 -8.154292 -8.287968 0.9653265 -1.236508 1.0965749 -3.5497692 13.344731 -7.8154564 1.6380327 -5.8013268 -2.9928472 -20.425816 9.837581 -1.4307432 3.9097788 -0.049711004 1.6361893 1.3748665 8.013867 -8.988672 41.69763 29.60595 -6.949154 6.2107453 4.9833145 -18.268978 15.908628 -3.6580253 -2.8122032 9.857295 5.52665 -5.423357 -11.258461 2.8290007 8.183645 3.0165417 -2.7489433 14.739637 -1.8641095 -10.438136 -7.3772163 -4.939962 3.612359 -1.9864347 -8.037634 -0.40671358 12.270074 10.759614 -4.5048976 -4.5947843 -14.082033 -8.42018 -3.1154766 -11.135277
C26H30O12+Na+ 2.0060232 -3.5951498 0.05890902 1.7910329 0.31143937 0.017145213 -0.72855306 0.47387412 -0.9806193 2.1228771 1.4304479 0.12163797 -1.2196262 -2.294524 -1.3201569 1.4356531 3.344185 1.2420102 -0.762821 -1.557097 1.6651502 -1.8831385 -2.2544203 -0.7656517 0.5706755 1.0612181 0.5368345 -2.839563 0.0057436796 0.7815022 1.3333776 -0.25602874 -8.009972 2.4610145 -3.3569067 -0.14728022 -3.261695 2.6319196 0.7153746 2.6549954 -3.141504 -1.8904693 2.4147553 2.6705835 -4.002718 4.9421983 2.1095028 -1.3587254 1.6365073 -0.059460618 -1.6994281 2.6987388 1.1097169 -0.51416254 -0.56221074 -1.2402666 -0.5595383 0.18095264 0.9592138 0.43835413 2.020803 -5.5134974 3.0098364 3.8561122 -0.46003187 -2.0108876 3.2306044 2.1184056 0.2572971 -8.508693 0.91753656 -1.1974845 1.3026444 -2.4988706 -1.1743735 -2.350069 -3.49306 -1.206289 -1.4748875 2.2217 -4.2820163 0.0009867847 -1.7526468 -0.53382665 -0.6166807 0.30082563 -1.6721522 0.4828392 -0.5504013 1.7530546 -1.6719962 5.370554 1.2365229 4.218354 -2.8805227 0.044778176 -3.9839008 3.0526922 -4.8126483 2.6461935
C12H22O11+Na+ 5.5223393 -2.5125027 4.284102 -5.467285 9.8408375 7.715495 6.9928246 10.042635 -2.8908467 -4.3185506 10.080712 -6.8558326 1.7118344 -6.3749185 -2.7973878 -0.5172825 -0.84128183 -4.80928 0.8164092 -7.584342 -4.9612737 -0.9111844 4.461379 -2.64451 -0.8257167 -4.14724 1.234973 -5.938958 -1.6648725 -2.3723998 4.464094 0.16896309 -9.066671 -2.737476 -4.1486516 -1.0883077 5.3352575 -0.2765945 10.592669 5.5369143 6.365147 -1.8024908 1.0377942 9.045837 -10.188231 12.311209 8.182729 -3.5083039 -0.926402 0.89826125 -0.38747558 0.99994224 1.2712839 -0.025531437 3.0729108 -1.645965 -1.4202843 -7.2113323 7.2874513 -1.0085014 5.5591865 -6.431826 2.4093456 4.6162496 2.2098126 -2.242573 15.46999 13.768424 -3.4881685 -3.5863633 8.590468 -2.1658275 13.115949 -7.8576612 -4.6746674 2.5243177 -0.2137961 -1.2305242 -0.6597385 0.84814 2.5847015 0.89587545 -6.601827 3.52307 7.1570053 -5.5054865 3.884712 7.5592985 6.721948 -2.4259381 -4.5240583 1.7201085 10.869693 8.353148 -1.9971715 -6.153962 -13.626373 5.1500564 -7.5313735 -4.4821773
C13H13N3+H+ 6.967798 -8.579591 1.3009255 -10.644519 4.6591983 13.126501 14.009531 12.499765 -5.876397 -8.207803 21.478367 -14.944579 2.7473204 -22.382017 -12.64582 6.5245275 -13.716179 -8.005026 -7.0132694 -11.309512 -10.903318 -13.262468 -9.100242 -7.608272 -3.9952931 -2.3867736 -6.3171287 -11.269581 -5.861189 -8.4230585 4.493938 1.3489252 -29.997942 3.0294015 -18.566359 -5.424087 1.3582103 9.1331005 14.653008 12.460788 13.669551 -9.682946 -2.2829263 8.861591 -16.516426 12.92091 1.6417168 -3.5870461 -2.8194115 1.3978794 -1.1580911 -1.1695899 10.227077 -4.85233 0.42597467 -6.4611945 -3.5587082 -11.146209 4.121982 -11.4730625 12.140721 1.7375712 5.208465 12.673865 6.8113403 -7.8478985 28.147387 14.818661 -19.938093 -2.915174 12.729483 5.9882584 26.503996 -8.660427 -4.056669 1.474339 -3.0005362 0.6760685 -12.909615 1.6739221 -3.6522472 -4.059295 -14.35447 6.230897 1.9137802 -12.244389 1.5578645 7.15863 5.6341434 -3.3616755 -5.8091593 16.047628 7.2241864 6.444292 1.1456771 -7.7994475 -23.218578 -0.9892772 -7.9978857 -4.546534
C12H22O11+K+ -4.409789 2.5776541 8.06767 -2.2453527 3.3309524 -1.5433066 0.31187668 -2.5988579 1.6134177 -2.3757977 -1.3166513 1.3573138 2.800518 -1.1012537 -5.1159782 -1.0969294 -2.7165484 -8.3439245 -0.090058 -5.058137 -2.1627967 -2.9518816 0.9989449 -3.2762263 2.4457626 -2.1739922 -4.320195 0.8183495 3.158191 -4.807481 -3.1152167 6.89651 0.5516997 -6.754931 -2.9276857 -2.9578478 0.61210877 -2.0230148 -0.3651106 -0.25753123 2.6229422 -1.7037189 -3.3061914 -0.6939618 -2.0317245 4.8182144 -5.1622763 -4.110865 -0.43078578 1.1909273 2.7065675 -3.2932093 3.516393 -5.4661236 2.8244598 -3.4034088 -2.226178 -0.6955399 0.27373162 0.37181666 0.0036172746 5.5110908 -0.24198955 1.1301875 1.3098503 -4.3957696 2.5819943 4.6157227 -7.9752436 -0.9517155 2.8956852 2.2689564 3.7928421 -3.8602324 -9.399531 4.934589 -0.93615055 0.72754544 1.4753815 4.2000527 3.1018329 -1.1088786 -0.078523144 -1.6144738 3.9230611 -4.095287 4.455312 4.4678826 4.110538 -5.645928 1.1520823 -9.450639 -1.9820119 -6.8980355 1.6036522 -3.0285099 7.1823707 0.34185943 6.96211 -3.7359126
C15H18O10+Na+ -8.039674 0.23491605 -0.699757 -1.769903 0.7177214 -0.14303604 0.30695507 -9.303642 -0.51103896 -3.7271996 -0.52297205 -2.3598492 0.47687376 -6.261121 -7.1896996 0.99466515 -6.725604 -4.7343154 -3.0329792 -4.029291 -1.4759908 -1.0862087 -1.9037342 -3.1359124 2.4442875 -0.38418797 -5.419334 -1.877102 1.261356 -6.079684 -1.7698126 7.4233985 -3.332783 -5.6002874 -5.4631033 -4.0622983 0.7349983 2.4864087 1.3692969 6.037943 4.871094 -2.9924505 -3.3029745 -0.43763897 -4.764778 7.6999187 -3.0852253 -5.2165794 -0.8599235 1.463205 1.2661804 -3.3950503 2.106005 -4.911244 2.4488251 -5.345807 -4.654641 -0.35329032 -1.2483099 -2.5290236 1.0175993 4.3137302 0.62927127 2.9242246 0.2634808 -7.3510785 6.2169075 2.3687482 -10.150696 -3.5935311 6.3194103 0.10943956 7.1751175 -3.7514758 -5.5012674 3.840136 -4.245989 2.750729 -3.3160937 4.902677 -0.40841264 -4.208936 -4.7711854 -2.312151 1.1892555 -4.5131545 4.8351984 3.7635298 3.774188 -3.7404296 3.9130893 -0.60130787 0.37219784 -3.5680046 1.260904 -5.5117126 2.1053507 0.6988169 -0.26282218 -2.4258902
C15H22N2O4+H+ 0.24025345 -3.0155811 -1.321896 0.7821211 1.155777 1.1421479 1.9015901 1.9323518 0.9626382 1.6577741 -0.070468314 1.1259202 0.6809589 2.170269 -1.6718291 -2.085829 4.040229 -2.6226506 1.3416898 -2.1902566 -0.55304134 -0.774946 -2.0562637 1.6572036 -0.070285924 0.314678 1.344768 1.1740336 -0.47604537 1.2702814 1.378419 0.8319778 -1.7963586 3.6962337 0.39183575 -0.44813013 -0.20047992 1.9616323 0.11231323 1.5646166 0.98299086 -1.136771 0.91954094 3.842562 -3.6415608 4.2047243 2.307801 1.5528157 3.1827967 0.2647193 1.355357 1.0091363 0.7321542 0.29596582 0.52517396 0.35788864 -1.2635883 -0.6517371 -0.9887035 -3.8491547 1.4705142 -0.60047036 0.7078243 0.70120436 2.393643 2.9970076 7.121205 1.0289466 -1.7314343 -3.899825 0.12190966 1.9450302 1.5529138 -4.2494125 -1.2659739 -0.10718371 -0.42943057 2.0664244 -2.7825985 0.46266913 -5.74166 0.35372505 -1.046455 -2.602671 -3.2116122 -3.9172628 0.9655078 5.311253 1.1710016 0.759822 1.3350215 5.947445 -4.3549542 3.5026355 -6.152041 2.3610764 -1.4049013 -0.96856564 -3.0585358 0.03345251
