69 50
C7H15NO3+H+ -9.042254 5.322349 5.533676 5.236405 3.4603932 -2.7800815 0.08717549 5.33364 -6.9836974 -3.1473854 4.9417453 -0.2346869 -7.7413697 1.3804072 8.935614 -0.5151016 -1.6428719 -4.0010605 -8.960911 2.4437244 -0.23220833 -2.0655625 10.711434 -2.6615992 2.8637319 2.6415274 -10.323021 10.130235 -6.1545024 -11.010744 4.182292 2.1564846 -5.421504 3.8367333 7.2394185 2.8516839 3.7222016 -1.0948478 8.873822 -5.3973427 0.6425064 1.5739684 17.135344 -5.327426 6.818119 -0.6397616 3.8373404 -2.1566315 3.2063358 -2.1586473
C15H22N6O5S+H+ -4.324336 1.4073026 2.2869117 -2.0693781 9.343601 6.1171637 -1.5281944 9.524586 -10.508862 1.9068843 9.243236 -2.433053 3.3541465 3.844439 4.4685454 5.8522105 -0.16909663 -1.117608 -6.951928 -0.24996315 1.2279855 2.6464655 6.09435 2.6246698 -0.89181626 5.779164 -4.506629 4.9731474 -3.9576125 -2.6429958 4.1107984 -2.9106398 -7.155262 0.67370576 0.9606292 0.5287013 1.1006556 1.5097789 4.050154 0.09522337 1.9226904 2.963812 16.32759 3.452459 6.6823034 -1.2112317 3.1402643 -3.7592568 -1.277539 5.9347024
C24H50NO7P+H+ 1.1965022 13.38024 0.7325731 -1.8163269 9.953815 3.7432365 0.87121564 9.561797 -4.721157 -0.5774003 10.983943 -0.38618097 6.0085926 -3.5916219 7.098319 2.4313295 -1.4495723 -4.506012 -7.224539 0.8460152 1.6338866 -1.3199667 13.985082 -2.3295708 -3.0398135 2.0980976 -8.728277 1.2607315 -8.372588 -4.4880047 2.3506792 -3.4050117 -1.6487386 7.226027 8.23782 10.593603 2.732459 -3.9334946 9.101056 -15.969349 -10.91688 1.2038155 8.585316 -6.587707 12.637157 6.900435 5.6696706 5.862567 -3.0428205 3.0970418
C4H9N3O2+K+ -6.9938416 0.79095507 2.9605486 1.6937519 4.728965 2.6143029 -3.6277187 6.21595 -10.055194 1.877715 6.518151 -4.845264 -4.5368485 3.6401265 6.6833963 4.4166923 -1.7860414 -6.6405907 -7.6973968 -1.7281411 0.18416794 -0.13201198 11.085195 0.151204 0.5586529 1.96242 -8.572036 8.168567 -3.7461758 -11.606037 3.460458 -1.9846643 -5.2823668 4.112276 1.5169612 1.2638208 2.9313781 1.962677 7.188175 -1.8850696 1.8639588 0.74085397 21.536142 -1.1604714 5.936366 2.334974 6.6060343 -5.2347693 3.6506636 2.1931126
C9H17NO4+H+ -8.849855 3.0768545 3.4117715 3.7113042 -7.314746 1.7623768 -4.6767917 1.4240922 -2.125187 -1.7957813 -0.45037505 -4.17698 -3.7478502 -0.31482908 4.609881 2.8307416 -2.969303 -3.4618275 -4.7523923 1.117475 2.9649487 -0.99048454 8.241577 -5.589166 1.7413456 -1.7713845 -4.8722005 4.710365 -2.4156785 -12.693949 -3.8873749 -1.9741294 6.7181163 6.520192 5.425997 0.329003 -0.50177634 0.64126104 8.607364 -7.5619206 2.843171 -4.7653627 5.7117734 4.244292 4.1124144 0.45392776 6.5231037 0.7690204 2.6274688 -5.8164372
C10H7NO3+H+ -8.48463 13.553417 7.7405252 -2.445804 9.68764 13.323206 -6.4082136 9.034734 -12.99298 3.0889323 8.367377 -9.252649 3.794466 1.8936192 4.1089993 9.6723175 -11.656906 -11.626768 -14.422098 0.87862563 5.9285 0.63117254 18.611645 -5.412594 -3.5069494 3.431018 -9.709938 9.781523 -14.886367 -18.683321 -4.3924775 -11.01454 -4.160444 11.095598 3.894799 4.6550612 3.1206653 -0.09890861 10.310824 -18.857872 -3.5019746 -6.207301 17.264387 -6.6821427 14.337395 4.0347495 10.135873 1.4206796 1.6317444 10.208953
C11H21NO4+H+ -2.3493874 7.9236484 3.9816172 -0.33850995 1.0369087 2.656665 -3.9196296 10.507919 -9.137073 -0.28254527 7.6825476 -6.7644258 5.3924756 -3.047726 10.266247 3.7729855 -0.96631813 -6.955756 -9.916969 1.1834276 1.0530714 -0.587916 13.694996 -4.8821907 1.967248 0.8021812 -13.136824 7.049184 -4.725505 -16.717834 -0.07131398 -2.0918581 6.8016834 10.979205 6.288601 7.9112196 0.1662341 -1.4678385 12.440188 -13.225171 -6.1304274 -1.7941332 13.247365 4.766519 11.283983 6.3927417 8.5208025 4.2955184 -3.141415 -4.538079
C22H22O7+H+ -2.6022584 0.64595944 8.265863 -7.41199 1.5573514 13.951169 -1.9889848 8.235668 -6.5735526 0.95431423 13.321235 -9.696578 12.964477 3.1957223 5.0409594 10.100292 -5.760609 -7.2921605 -9.952397 1.1592747 6.008543 -1.2169793 3.166094 -0.6716643 -2.6040733 5.636034 -0.8993985 13.940435 -8.497912 -9.8315115 -0.106345795 -8.826649 1.930602 8.792507 9.368077 2.9432044 -3.0189486 -1.112767 10.550333 -8.399333 0.2820653 1.009689 10.092496 3.428008 8.745086 6.870739 2.4276357 5.1239862 0.45121476 8.140471
C10H7NO3+Na+ -4.0970616 3.1578238 2.835592 4.4320936 3.417775 3.2980816 1.6864293 1.8821646 -5.802923 -11.709413 2.482217 -1.8422718 -3.8397791 -0.8125509 5.1861176 -1.9990087 -1.6386802 -7.986053 -11.070891 7.412109 -0.3702542 -7.224332 11.482211 -7.223466 2.156331 2.2533169 -9.6381445 10.81039 -5.406108 -12.621804 -1.0667882 -0.7762617 1.7951605 5.3512087 13.246076 12.340137 -0.10648323 -7.292273 12.296895 -9.054982 0.27654952 -1.0040975 8.864282 -4.990022 8.740674 6.420578 5.6436887 5.5149484 0.36815593 -5.013309
C8H20NO6P+H+ -2.5941093 6.068916 1.482277 -1.9537966 5.1507225 3.6955018 -1.3770487 3.9666994 -2.0524435 7.8917727 7.199865 -1.4286863 2.463698 -0.3344578 4.995584 5.6147413 -4.902558 -7.419728 -6.625044 -1.786677 2.615314 -1.5166179 12.595223 -3.1375947 -0.4174029 -1.1230243 -8.242243 2.8766904 -3.2400825 -8.017631 -0.21250574 -4.96894 1.6521673 6.97062 2.1160777 4.708315 0.27462476 -5.851456 4.8797097 -11.380935 -6.713201 -1.1300377 5.8680716 -0.091667585 9.345542 7.3046513 8.773467 1.1456486 -6.050971 3.3354733
C10H7NO3+K+ 2.4009886 -3.478053 3.7854407 -3.0595517 3.3428185 7.5339465 -1.7008548 1.0294179 -3.2856734 -0.98679924 2.7748418 -2.5736084 -2.1447823 3.4219332 1.6500927 -2.0435932 -5.427708 -4.578167 -8.223806 4.8585644 -0.039916538 -4.100389 5.9071417 -4.8774343 2.5243254 4.6544194 -3.5563126 10.675732 -4.5507145 -14.031799 -0.3550396 -3.933106 2.2243226 5.3141704 6.944152 4.989438 2.0494788 -2.8459668 3.884593 -4.53217 3.0258727 -0.67526025 6.4442763 -0.2716163 6.1080365 -1.0486213 2.371617 3.185199 0.5043469 -1.5834452
C11H20N2O3+H+ -2.4954154 -9.273737 2.52276 0.47748303 3.2737157 5.3250685 -1.0126444 3.6094563 -0.31493032 -0.038682207 4.6973753 -3.0711536 0.033907548 -3.223418 8.38591 1.7751201 -2.4509661 -9.393427 -10.963404 0.6057589 -0.53022486 -8.294848 14.164161 -4.7800856 5.435112 6.568992 -12.1245 19.985897 -0.8168435 -16.465548 3.439567 -5.4040036 7.0967503 10.01178 7.000546 12.058068 -2.2810328 -9.926681 11.131442 -3.9179082 1.3007222 -2.9664948 18.73358 5.9551125 12.182027 4.002448 4.542271 4.0046015 -6.2344823 -10.006423
C8H17NO2+H+ -1.7718601 1.7801787 1.961883 -0.4434144 -0.21765302 3.5997655 1.2534765 5.4713244 -7.719475 -3.4805243 5.6012034 -4.140295 3.726913 4.4726267 7.1288567 4.544398 2.2546751 -5.2699385 -7.226522 3.0680685 0.14198756 -2.0114803 1.3904234 1.8541304 -0.11550118 5.3493943 -5.6889024 5.1919928 -4.7728214 -7.263379 3.2693212 -0.8262289 -1.8300822 2.996684 7.8912354 5.4702086 -0.5716933 -1.5692633 8.3981285 -4.367724 0.59760904 6.2310734 10.532408 2.6185453 7.6190267 6.633578 1.839354 2.394042 -2.8724778 -1.3486456
C10H11NO+Na+ -2.3364177 13.208966 6.9572206 -2.495614 9.140812 17.405886 0.3434457 7.4056544 -7.295032 -5.012799 11.213013 -3.4180098 5.014664 0.53258806 6.660931 5.4537644 -9.224092 -8.337437 -14.160084 7.0958767 6.1269917 -2.4773984 14.916952 -6.790998 -2.9735923 3.3770797 -5.308414 12.556248 -11.46436 -11.129227 -2.588735 -10.78931 1.3159829 9.961734 8.367077 7.014677 1.1374828 -6.8083854 11.076973 -15.969623 -1.1505089 -1.5828984 4.794475 -5.076925 15.978459 3.3381422 6.5882745 9.413289 -1.6117877 7.075891
C29H47NO4+Na+ -3.2672849 16.444603 3.5931962 2.9565952 14.240825 4.6276894 4.158718 8.2167015 -7.7493277 -9.160474 12.750728 -0.6133953 8.231481 -3.4654608 10.604468 3.3009236 -5.1159005 -8.045063 -10.5462055 1.7634842 2.6418464 -1.1816686 13.048714 -0.87337554 -5.06798 2.1970108 -12.414434 9.617833 -11.734746 -5.4947 1.80274 -2.1061487 -5.8576393 6.780915 8.745516 8.025202 1.1571498 -3.7463884 14.159769 -15.204622 -8.431242 1.3949639 15.103657 -10.3479395 14.423141 11.440977 9.4332 2.7442088 -2.5302258 10.794667
C9H20N2O2+H+ -1.5810957 3.9199243 10.405915 -0.7557968 4.845063 8.197046 -1.0436556 6.811825 -5.363331 -3.882936 7.2968755 -7.883427 6.0533857 11.486544 10.201832 2.5187583 -2.4212158 -5.3220806 -12.207564 7.390086 -0.9583529 -9.820497 5.291041 -2.4603348 -2.5936046 7.4045496 -7.0032287 17.55309 -12.081578 -23.333357 -0.17357945 -0.077895425 4.3470345 5.927067 16.142782 4.93179 -5.6489205 -4.380398 11.228687 -8.343566 1.6691931 1.9348907 12.036504 6.7173343 5.694764 6.8351593 3.4867725 2.1858733 2.6140177 -0.99718887
C7H15NO3+K+ -8.484202 2.1298046 6.5922337 3.3092492 2.2607255 3.6819205 -2.2121167 8.983765 -9.515817 -0.6328918 9.141396 -2.8944018 -5.2198753 5.59964 12.643865 2.9353902 -0.28653422 -7.050004 -13.459595 6.0291195 0.31487015 -5.586027 11.393109 -4.554878 4.1071835 6.547936 -12.531356 14.156562 -4.8272967 -19.140366 2.1462 0.6501951 0.97767925 6.1511917 10.271808 4.5283303 -2.0298936 -5.131724 11.387334 -5.925715 2.5046844 2.3081765 17.797895 7.697467 10.406938 0.90709245 4.951354 0.39882448 -4.6699114 -7.271097
C26H50NO7P+H+ -3.170071 5.755495 8.165925 2.1796076 1.8491172 7.812914 -0.9298011 5.458499 -3.3509438 -1.0899945 7.1722474 -3.1051903 -4.414032 5.643906 9.695284 2.3081274 0.026362302 -5.129586 -7.4789515 6.366798 -0.4766252 -3.328283 7.0511966 -0.9394263 5.8922234 5.7049093 -9.462545 9.132452 -7.482139 -19.822042 1.0280076 4.3417115 1.5007815 6.4538136 8.459806 4.6420326 1.9031056 -5.569715 8.744934 -8.196653 2.4953477 5.6633787 11.08763 0.485661 7.894319 3.9373198 7.1451817 1.4390851 2.8405373 -5.2073708
C13H17NO3+Na+ 3.436406 2.874234 2.6418772 5.7896805 7.392642 -0.122955576 -3.5474226 2.7108037 -0.06724859 -2.2599356 1.4547275 -0.8249885 -5.601187 3.4394042 2.9203985 -0.67188394 0.34464368 -6.325602 -3.5099978 0.10219524 -0.59226024 -1.8009045 9.189331 0.5670178 -1.6513946 3.3221583 -10.439882 8.726962 -1.0849218 -10.913304 2.7784548 4.705016 -0.03157293 2.9843757 -0.23204981 6.706583 1.2336905 -5.5876546 1.1336673 0.16183366 -1.2092716 1.7091967 7.620413 3.1708386 1.0155846 5.174738 6.8758836 -0.4160879 3.8478258 2.864948
C10H16N4O3+H+ 0.11223467 1.4215596 0.30169907 4.407265 7.331545 0.53681064 -3.8565578 4.9782057 -2.139969 -2.2517176 0.97891486 -1.3153386 -4.04438 4.544881 2.8054297 -1.4550524 -3.3445134 -1.5318054 -5.603474 1.9045874 -2.7042727 -4.317259 14.840926 -6.060036 -1.550399 -1.2517784 -4.774595 7.955097 -1.8525548 -10.108614 -2.704614 -1.9749357 5.5710826 2.2922475 -1.270408 -1.8083959 -1.4960171 -1.0506349 1.2622651 -0.57376957 1.1370918 -6.3134966 5.3166785 2.189716 1.7426765 -4.5144987 3.9557014 -1.8223785 3.3756316 -1.4469842
C8H20NO6P+K+ -5.790644 9.448289 7.7457843 8.314202 12.847413 4.2280025 -0.94616103 5.1786184 2.5837483 -4.730578 5.3561125 2.180889 -1.3954238 3.8122191 6.8638744 0.027859345 0.25568292 -1.3793508 -6.9779143 5.324882 -1.1421219 -6.633782 15.275511 -3.8917334 -0.5479607 0.22886866 -8.23932 12.830987 -7.4082894 -8.71365 -2.368822 -0.031605683 0.36018118 3.5536504 7.1466327 5.387075 -0.7443848 -6.8966627 5.57196 -6.530082 -0.7102743 -3.8433743 8.873701 -3.1607373 9.063413 2.8385549 7.932659 0.25419566 5.5016503 -1.7085901
C26H52NO6P+H+ -4.6771398 8.1928 6.5289135 4.5528107 9.506412 -0.11633878 -0.13646366 12.760321 -8.071021 -10.975756 10.209554 -0.6121518 -0.5518578 4.3145742 12.426622 1.7543752 4.3643537 -3.9294302 -11.335522 4.8641872 -1.7021979 -5.774994 13.118604 -2.3742802 0.36211938 4.809128 -13.794653 12.443047 -5.1838675 -8.1252 5.041125 3.8293064 0.42928725 1.7499199 12.422085 8.589336 -2.875661 -5.792376 13.2794285 -4.8131113 -0.4705504 0.36816114 20.853361 6.9587607 9.279302 4.330342 6.73751 0.63560456 -1.5675024 -3.46377
C10H19NO4+H+ -8.884733 -0.82285476 3.6360176 1.710052 -4.630269 -0.26224786 -3.0736403 4.9405656 -6.6456275 6.8220897 4.150731 -1.5213839 -4.3607225 2.7239964 9.612432 3.4953175 1.7038956 -2.62503 -7.4857373 0.37375137 3.3269572 2.1170573 5.7158837 2.11245 5.6778517 4.921181 -9.524423 7.3035665 -1.417741 -9.899069 5.828627 1.4768486 -3.6251435 4.3942933 1.8262814 -0.89997405 4.738319 2.465072 3.783707 -1.3983271 5.481735 4.6444464 10.1702385 0.8767989 5.798928 -7.446401 -0.7286682 -1.6682271 -3.9351227 -5.9926825
C8H20NO6P+Na+ -2.4546478 -3.6849458 0.9725615 -0.3182651 9.299785 4.048619 2.6922696 6.5292873 -7.7802696 -0.47874174 5.229776 -5.1730566 -0.23961334 2.3162084 2.0092206 -0.65807164 0.41695267 -2.2996457 -4.323045 2.3674529 -4.9462447 -2.775464 7.287105 -1.361854 1.790339 0.078340545 -4.1473675 4.566353 2.0527878 -6.528891 2.7627969 -2.4221478 2.6907637 -1.0269135 5.15451 3.033451 -2.480271 -5.0982304 4.053394 1.4268582 2.6689303 -0.32448006 8.747158 0.75869757 -2.2282784 3.8865883 6.3536553 -4.807488 2.2607024 -5.782498
C10H11NO2+Na+ -8.274438 18.491549 4.354026 -1.2537019 15.727027 15.9124775 2.5084953 11.478732 -10.673806 -4.311641 17.70959 -4.0025578 12.22235 -3.2854993 9.102745 9.738979 -9.616003 -14.695258 -19.096262 3.3315039 8.296317 -4.758923 21.793694 -4.7719436 -7.2159834 5.155061 -16.973286 16.478792 -17.246252 -13.113924 -1.8041062 -11.665071 -1.5012144 13.405761 16.679873 17.525324 -2.8043306 -10.171092 19.895653 -27.689596 -6.648098 -3.9843073 16.597906 -9.370084 24.423813 12.823496 10.48935 10.65508 -9.684205 15.805022
C37H68O4+H+ 2.2744093 10.183568 5.420671 -3.7789938 11.528835 9.710368 -1.7166077 8.30744 -9.581766 -6.0627694 6.1805086 -5.0536537 3.5375445 0.5719346 0.06137722 0.84887385 -3.8461611 -10.1762085 -10.602654 5.4487033 1.9722539 -5.093985 9.276361 -4.165873 -2.1453974 8.500415 -10.716124 9.396854 -12.002899 -13.633104 -0.57403183 -4.551617 -3.4791992 4.4622946 11.5074215 17.076271 0.44053552 -7.178373 6.752874 -13.749109 -4.0625906 -3.0281024 12.228679 -4.082208 10.322293 6.377161 3.1407676 8.20249 -0.0170342 6.829326
C7H6O4+Na+ 3.8687766 -1.0629478 4.8206143 9.977596 31.627039 -6.3322225 -0.13019511 7.804909 -10.405415 -8.483202 17.338928 -2.4318423 9.386213 2.3087468 11.448669 6.9634266 -1.2975204 -12.171884 -6.6324005 4.1589017 -5.313489 -3.7696807 18.604818 1.6076733 -5.1409264 23.482027 -16.915205 13.371917 1.4541781 -12.363719 4.140837 -2.4303634 3.5810068 -3.8085308 22.262318 13.331598 -12.720323 -11.018964 7.6077566 2.7973866 -17.188549 7.9468837 15.179721 9.78144 -5.074292 24.670652 23.3698 2.1409566 -11.122969 27.547523
C15H28O4+K+ -5.94166 10.354934 10.841204 3.4205263 13.131976 3.778163 0.46248403 5.3304653 -0.8705778 -8.66692 7.0697947 -0.46451417 -3.8685908 -0.15482996 8.636995 2.09138 -1.1521962 -2.813658 -6.2524924 1.3586427 -1.6730956 -4.144234 12.775444 -1.0534635 -1.1717478 2.1236274 -9.125467 14.432745 -3.1235774 -7.884402 2.4712732 0.48277628 1.5045326 3.2081554 6.3131723 5.251139 -2.0082924 -8.205571 8.268218 -5.133206 -2.0989177 -5.993451 11.020997 -2.6373942 4.6392174 6.0730596 10.661528 -2.4000058 1.5419489 -1.9071774
C35H66O4+H+ -1.1927185 15.710939 8.504756 -1.0007087 10.999012 13.612107 -0.8322875 10.152125 -12.177384 -5.9224806 10.044544 -6.591947 5.9509254 1.2384042 6.90561 6.3390193 -6.216709 -10.557737 -14.344907 6.3624787 4.6921024 -2.4223814 15.269881 -4.6697984 -2.7331855 7.9571834 -10.082353 11.415176 -16.498672 -17.432302 -1.3496594 -7.2629943 -3.852033 10.810099 10.894763 10.928146 3.3050902 -3.4145985 14.093169 -17.478426 -5.8576727 2.574262 13.215126 -9.192822 16.638058 8.587187 7.7282505 8.962671 4.1974883 8.223727
C7H6O4+H+ -3.9416437 0.9795929 7.7278724 8.014624 25.937151 -6.8655815 4.8284216 5.243421 3.2632864 -10.988241 17.462393 6.983331 10.852309 -3.809183 14.629296 -5.200999 -4.5409617 0.040799532 -6.0473285 3.4189744 -6.8360624 -5.518211 23.682001 -4.825283 3.9498286 11.326194 -20.086662 23.170128 4.966528 -4.4806294 6.1876054 6.7168384 0.78913456 0.9706972 25.148172 18.706055 -13.374816 -24.132006 11.4821205 0.39860234 -15.536592 1.1741172 13.30835 4.924572 -3.744603 21.561266 33.704697 4.587292 -19.849705 11.383456
C22H24N2O2+H+ -3.2018192 8.20783 3.904967 -2.6140013 27.325813 -2.2755184 1.5700219 7.8466063 7.946516 -7.4824586 9.78788 8.101271 4.7365675 7.80359 12.787371 -6.2753944 6.2524457 2.618082 -11.50082 7.4029193 -5.669302 -6.9024696 23.439835 0.32430363 -1.5870786 7.801757 -12.695893 24.169067 5.6622915 -5.337146 1.0522124 1.6143622 -5.2007184 1.7380991 19.545523 22.400404 -12.030484 -16.822992 5.229498 7.4943714 -11.865566 5.2229567 12.539119 6.7798033 -1.1841582 15.6989355 27.781967 4.8517666 -12.958063 4.473512
C18H24O3+Na+ -1.465038 22.228542 8.188938 4.7617574 14.196252 9.388086 -5.9681325 3.608651 -2.9490259 -10.64249 2.4797127 -0.5538745 2.6390471 -7.5672407 8.269911 4.266156 3.271025 -4.965298 -10.4232235 5.6242476 1.1610031 1.7551314 23.98413 -0.9912305 -2.5729506 0.80408746 -9.189068 9.777344 -2.201746 -9.93291 -2.5300941 5.297188 -9.893775 9.826188 -1.7977247 9.96617 5.640637 -5.075022 9.399996 -9.774231 -7.8557453 2.3468556 17.397135 -6.0648375 12.827061 2.7856472 12.297461 0.64249885 3.8039079 4.289121
C13H8F2O3+Na+ 5.368531 5.98201 2.7603056 -13.188071 23.716175 -0.14925312 2.6661258 4.7853885 -0.33100516 -15.830509 9.590165 -3.8345065 10.939154 4.0314107 3.7552226 3.5071394 -0.8364289 1.3974386 -16.400974 6.50677 -4.1394606 -0.3637922 33.891247 -5.03301 -1.1668046 5.6270614 -7.107362 16.011436 5.163606 -8.393062 -0.84986776 0.9292799 1.8181406 4.235563 5.747875 11.140412 -10.232757 -10.330069 10.599175 -8.55177 -11.633006 3.1117685 11.96357 7.8707695 -2.6564991 15.620659 19.620129 -1.7800394 -11.261951 6.4380264
C23H45NO4+H+ -5.466029 15.573384 -0.058820624 -6.702833 -1.8317355 3.5812306 4.6514025 2.5707018 -6.4765058 -7.8349137 7.7599897 -1.6992787 9.531942 -4.628606 2.321287 6.1833553 -3.7236087 -4.806623 -5.33236 -0.83754057 7.8189526 2.8969982 -0.09467184 -0.8720229 -5.945339 -4.1464605 -1.9540651 -7.675919 -7.8824854 9.980272 -0.5280268 -5.550161 -1.2879709 0.35349303 11.289046 5.275481 0.62591875 0.0057494426 7.837793 -18.383118 -7.0090766 -3.4252992 -2.8881962 -7.704127 8.549654 9.211656 3.1155448 6.3572354 -8.012088 11.409543
C11H8O5+H+ -2.0999122 -3.276236 5.1344852 12.560052 28.392069 -9.087828 0.48130253 6.699852 2.0826948 -14.603812 16.44672 9.724386 6.9098396 6.500713 11.522106 -3.08601 -2.8564436 0.5534477 -5.9589562 3.8758001 3.6290762 -11.462082 25.823902 -6.8663797 -7.207767 11.362375 -16.771303 20.59121 -1.0768558 -4.9024606 -0.822021 1.3093524 6.6091256 1.6866627 20.312126 11.175549 -24.212872 -20.569868 15.493996 2.4137676 -15.281215 -4.139282 0.20597492 6.7232304 -10.65224 25.763414 31.459602 2.790143 -9.113297 16.957157
C14H10O6+H+ -8.1908045 8.566043 2.2967963 -0.77996266 9.296984 3.7200396 -1.1561435 4.364152 4.0715313 -4.652765 8.558821 0.934076 -1.4381669 -1.8343222 5.4133043 -0.5082332 -4.5388455 -0.36056224 -13.476334 3.021355 0.65431756 -3.7593472 20.282597 -2.2234905 1.7301166 6.59749 -7.2341323 11.323168 -2.4547715 -13.443369 1.802936 4.76022 -5.174556 8.985189 9.747533 12.58496 -4.438698 -8.461976 7.991486 -8.1022215 -7.42596 1.9142404 18.984493 3.4406636 5.7602344 13.284412 17.980753 -1.9221051 -12.853501 -2.1749055
C24H32O5+Na+ -6.5438004 7.914118 5.234682 -1.7080802 8.844638 14.089292 -5.399368 10.374722 -13.954835 4.0681934 9.781585 -5.8845725 0.4022608 1.5012057 5.371886 7.786685 -11.1806755 -13.178951 -16.270788 3.5083065 5.07826 -4.84514 22.890993 -12.001701 0.055100154 4.9216814 -13.770872 12.349593 -12.890907 -22.568003 -4.359359 -12.88566 3.2617822 14.758297 7.2805343 11.639063 0.95661336 -4.442709 15.297444 -18.824837 -2.6769524 -4.665862 19.15299 0.2919653 19.99967 4.974701 10.824719 8.184421 -0.5268073 4.7301064
C15H10O6+H+ -1.990169 2.4918706 8.80186 5.291885 27.228374 -2.5005124 -0.93444985 -2.4299757 -17.5441 -13.061672 9.520228 -1.9710824 11.419461 6.2543917 15.0478525 6.883858 -2.7717159 -8.462963 -5.0324063 8.212823 -11.32385 -3.2036057 18.868809 3.670973 -5.308319 11.028779 -22.163204 18.964321 4.170495 -16.252132 5.2466507 0.07355619 9.205075 -2.162818 15.223675 7.2427244 -6.4732943 -3.150701 10.8032675 -0.18058287 -10.106651 9.749772 9.802952 0.7192292 -4.0119467 16.508043 24.898565 -4.7028494 -5.6609693 15.933996
C37H66O4+H+ -2.1790042 14.616974 1.4187164 5.270833 10.2262125 3.5108294 -1.8039306 2.867054 -4.1195035 -4.6329184 0.16225897 -2.4839952 0.7550377 -5.712885 1.6069114 2.2822523 -6.064316 -11.0116825 -6.1634283 0.9727676 0.21118198 -5.662388 20.648396 -8.312109 -4.6282187 1.081382 -12.92892 3.1350427 -9.569185 -15.616761 -4.8476005 -5.6736617 2.421899 9.703184 7.2762685 16.104706 0.12034399 -7.660804 11.830846 -17.61146 -11.424448 -6.317693 10.698491 -6.951167 12.224792 15.477637 14.328326 6.5077686 4.0810165 2.5156288
C10H14N5O7P+H+ 1.6461456 1.8217243 -4.706965 8.34785 32.75123 -6.992509 8.017805 12.078444 8.346405 -16.430841 17.351805 3.1950102 18.604273 -3.8399708 10.909493 -1.9265525 -9.66237 -5.4039645 -8.918002 4.0193596 0.653679 -5.722393 31.561802 -12.258132 -1.4899162 18.89792 -15.164397 17.402351 9.041668 -3.5132906 -2.095497 7.8890953 -2.4493659 -1.3852725 26.233698 19.462254 -21.923357 -27.84309 15.1255865 -5.541455 -15.460912 1.3705318 14.748183 13.711725 -4.509728 25.705025 27.72471 5.038537 -22.610722 21.019241
C10H15N5O10P2+H+ 1.1404201 -2.4103181 3.2603638 9.917293 13.671509 -9.100515 3.130697 5.6528997 -0.8013995 -10.10118 12.987096 6.7782383 0.97115207 4.5789795 13.661992 0.2015166 8.031649 -2.9235446 -5.031597 3.8627093 -1.7660373 -3.2380998 9.857928 5.482099 -2.245398 11.143176 -14.048229 12.817592 0.44267067 -4.828692 3.999659 -0.11202715 12.345685 0.4614635 16.132835 7.8390594 -8.154616 -6.975073 3.169898 13.11605 -6.8373985 7.7947955 2.345201 9.8387375 -5.701515 16.56742 16.92476 6.444445 -0.67665285 14.42423
C15H16O9S+K+ 1.7072325 2.9993656 5.7929482 5.1785274 9.417639 4.2080164 -2.99603 6.56668 -3.063346 -0.3963137 2.9343626 -3.6391168 0.5224224 5.8423567 2.750691 -0.9149053 -2.9871552 -3.9842594 -9.71831 3.8445873 0.8085406 -2.8155863 8.622564 -3.529268 2.4277856 2.036649 -6.9275093 10.091654 -7.5748262 -11.963826 -1.7422427 0.5055073 -2.5470037 5.132712 -0.9064917 3.3123336 -0.1769861 -0.15905215 5.0072837 -3.7048748 1.4187804 1.0396701 12.676747 0.42785838 3.800407 0.90805435 3.3000348 0.22275263 2.5804665 2.7559197
C12H20N2O3+H+ -7.210701 7.393614 2.528792 -0.940764 2.7006114 5.2438183 -2.1580648 8.400302 -4.5001516 8.316296 11.595731 -5.392128 5.253039 8.877312 14.404671 13.68806 -2.299361 -5.098997 -5.228061 -4.1750975 0.3731597 0.7698881 12.240938 4.791281 -4.8908963 -1.3044121 -6.841021 5.0027585 -4.5697303 -11.372006 2.5646005 -3.0555227 3.8574193 6.3768845 0.8572457 -10.214912 1.8567718 1.63757 4.1771746 -6.9749556 2.0768406 2.8168964 14.207604 4.290124 11.082651 2.817723 9.220511 -7.599326 -2.5317354 2.7827318
C25H49NO4+H+ 2.250106 12.664231 0.2149049 -7.528219 9.797432 7.4078827 1.560673 10.378494 -2.652144 5.242107 16.054193 -2.5297556 14.883282 -1.0861928 6.2042613 9.840349 -2.7171998 -4.827267 -3.7948673 -4.7072687 5.3989267 2.9900353 8.572669 4.946991 -7.7167854 0.69345766 -2.7393298 -2.384584 -7.0604243 5.409158 3.780622 -7.2988553 -3.420322 4.529213 4.0281024 1.705747 2.7845979 -1.5662897 3.27601 -13.845185 -10.87468 3.1463432 2.9778066 -7.8818517 10.933292 9.171249 5.281702 2.495013 -5.415051 13.656906
C9H14N4O3+K+ 6.5933795 -2.5144098 5.5140347 13.506814 14.365544 -1.6394658 -5.6375294 6.6083784 2.3831542 -7.6566777 -3.8861823 -0.3049599 -9.634565 5.9493694 4.754012 -10.9167385 -4.910408 -2.0658736 -7.734739 8.040483 -12.114635 -12.591353 18.35445 -11.836795 1.3950492 1.8101201 -9.398802 25.023088 -2.1199324 -26.91812 -5.9609895 -0.20110445 12.186081 7.243055 -2.0523462 3.9357705 -7.977847 -6.832223 3.4416249 7.5482383 3.3080823 -9.16858 18.227602 13.115679 -0.4145985 -2.3491259 6.906806 -0.41840824 7.2849274 -10.005158
C26H52NO7P+H+ 2.9990623 4.303291 5.4220057 -1.2179337 4.42605 8.275489 -0.8306653 5.6287966 -0.9041794 2.4293628 4.9630795 -0.8278975 -3.1689231 5.323597 6.359022 1.3774134 -1.3868924 -3.296283 -6.90109 5.50368 0.35192874 -4.8754106 7.863835 -3.9392495 2.9606915 3.6058512 -3.2429206 5.482134 -5.2014074 -13.100398 0.8890031 -1.7135192 2.0374255 5.038505 4.2419205 3.4141226 1.5890006 -6.4203963 4.933466 -4.906216 -0.25281468 3.014957 6.8587832 3.9329333 7.532061 1.8369006 4.6992245 2.5173345 3.1826997 -4.840845
C24H50NO7P+K+ -5.113874 -13.186943 -2.8032653 5.679917 1.0196857 -10.042106 4.832727 0.06887187 2.8533869 -2.9510949 0.18874773 3.5348902 -8.485377 2.240015 2.5169537 -2.0163631 1.8926222 1.2374294 5.9598975 -1.7784454 -11.923389 -5.07057 -2.516536 -0.48113784 4.4978905 -0.4045839 -0.5069574 6.773953 10.270302 6.0623436 2.1065753 -1.7047144 9.365134 -6.657091 -4.0759706 -5.206317 -6.331787 -6.5009375 -8.8217945 17.163485 4.434258 -4.0562005 1.7865622 8.860701 -5.029938 -1.1186702 -1.4590002 -4.542191 -6.4128366 -9.375229
C17H14O10+H+ -1.1373303 13.626402 1.0722668 -0.29030356 7.2761526 6.95584 -2.6045952 4.957313 -8.920934 -2.0502734 1.5669849 -5.3344955 3.5740027 -0.71428996 -3.9878786 4.725327 -7.260795 -6.4855905 -5.727443 0.5440195 3.1354597 2.0335202 9.650374 -3.3842525 -7.260253 0.11624656 -2.1398375 0.14105724 -11.237511 -5.5670395 -5.005966 -8.536564 -5.905888 5.852901 1.4746058 5.272566 3.534697 2.5311074 4.852224 -12.614577 -5.332383 -2.9194522 7.2946873 -10.676401 8.257819 5.11169 4.87824 3.8441455 6.337969 12.5299015
C10H16N5O13P3+H+ 1.2045523 -7.8790526 4.120041 1.8541062 18.397375 -3.0417287 2.2665951 -2.1661828 -1.3844113 -8.341483 3.6706269 -3.868892 7.99867 0.32485765 3.6547477 -4.2883215 -9.228603 -9.705206 -4.5858107 0.5133065 1.0955801 -5.172725 2.0747747 -5.373169 -3.2394328 5.319399 -7.1035132 8.751429 2.0995975 2.859394 -1.4794642 -3.0499206 -1.8978989 -2.1534033 14.090712 4.689637 -7.222817 -9.318775 6.362241 1.3343493 -6.3322587 0.41949692 8.391452 0.1906091 -3.6994681 15.207986 9.182618 0.0066967 -6.547918 18.554415
C9H14N4O3+H+ -1.3703411 0.544775 2.4322064 6.580374 8.102876 -6.6261673 -3.5296786 8.172838 1.9298081 -1.6234797 -1.577925 -5.1233745 8.217483 -2.2666996 -0.0868371 -2.4338002 -6.220021 -5.4699097 -3.0956326 -0.31068656 3.5384161 -0.8432976 14.131807 -3.2920113 -0.6555019 9.886755 -15.13626 10.303773 -3.769808 -2.5107393 2.006782 -1.8350853 -0.30156603 0.2708318 11.4139385 5.6998663 -4.974957 -6.0262265 4.0301347 -4.7578645 -8.400015 4.3610907 9.297555 0.5224803 -1.668464 6.736704 11.449671 1.1891721 -5.738252 12.645858
C11H21NO5+H+ -3.3524296 -6.4215093 0.5381163 6.1317515 3.581987 -1.0967749 -2.018393 0.96771973 1.7292643 -0.19421332 -1.2588705 2.2567532 -9.618796 0.91582924 -1.4836061 -2.10294 0.03622768 0.678281 -4.1787257 2.4665027 -4.9734936 -1.7904387 7.0804725 -5.8920627 6.2922935 -1.6605264 -2.3723583 3.9663942 3.0325403 -6.342371 -4.614786 1.4210782 4.66426 1.6626674 -2.2386386 0.70574796 -2.2493773 -1.4113469 -1.7908908 8.102877 1.3708512 -1.8811823 10.2880745 10.74732 1.4119831 0.13781257 6.5764956 -0.98876023 -3.134569 -6.7461214
C9H15N3O2+H+ -5.217377 -1.5316676 8.635112 20.920986 18.304396 -6.950169 6.0369945 -0.37773713 2.8482277 -13.602949 6.8609705 8.923889 3.1560464 -5.4228635 7.84893 -5.869689 0.931049 2.3684278 -1.8676602 4.1500688 6.574511 -5.347959 9.0524845 -2.0288463 -1.3311727 6.8730865 -16.319706 12.66111 -1.8681215 2.1675668 2.5389817 6.1769147 3.7186704 0.85676265 22.704405 9.30084 -12.619529 -14.893292 6.921929 10.502867 -8.492793 1.3671712 4.3106923 4.843865 -6.2459908 19.437119 23.988688 9.8318815 -7.5308967 16.324968
C25H47NO4+H+ -5.064105 11.533215 2.9783957 -2.1877694 2.8803163 -0.97133493 5.980523 0.86837614 4.418842 3.9020002 8.684989 2.493831 6.9803133 -2.277273 5.226026 5.600839 -5.0485225 -0.54856527 -2.6745415 -2.9543889 5.0799594 -0.57315385 3.0290277 -1.0850857 -4.3646274 -5.164798 1.8715395 -5.128405 -4.2465677 8.178699 0.14781226 -3.8930323 -2.635746 3.135074 5.680989 -3.379622 -2.3000143 -3.955022 6.7242527 -11.498195 -11.669532 1.6930798 -1.9513079 -4.6597247 5.019434 12.359894 8.4129925 -0.14772773 -6.437216 6.3838468
C6H12O6+K+ 4.4442205 4.3771367 -2.7978888 3.4196577 0.29920882 1.7777636 -6.9642363 9.0343895 -5.4186773 -3.4735632 4.3138914 -6.5265613 -2.448596 1.163577 -5.4584756 1.1364542 2.59232 -1.9778577 -2.382925 -3.701788 3.1545436 6.42264 -1.4598863 8.31504 -5.299508 5.524905 -4.242895 1.8863624 -3.3766744 -3.2146933 1.8122789 7.6388054 -3.467599 -0.5218066 0.72066176 2.0435963 1.1127123 11.169706 -0.30404982 1.5148158 6.727005 -0.9613132 4.7869687 -3.9573863 -9.115188 -1.271769 -2.9177098 -1.6436222 2.638143 12.245113
C28H33O14+Na+ -3.1506543 6.815565 1.4094961 5.069998 -3.022709 8.325398 -8.707049 7.4684896 -9.415339 5.3683157 -2.7895021 -2.9238477 -8.756368 2.3577025 0.11479583 4.238786 -7.612952 -6.369491 -10.326314 3.541604 5.4047623 4.9718785 15.567941 -7.3514285 3.8172023 1.9026831 -6.687233 7.132997 -9.219179 -16.038595 -6.8502584 -11.528636 2.6829715 11.370178 -10.071281 -1.803929 6.9703183 5.4844832 0.69142604 -5.553218 5.3424954 -2.7291584 4.330365 -2.5038342 12.367 -12.52424 1.2064999 7.5190434 3.1896417 1.591523
C21H22O5+H+ -6.8226333 -1.5149349 0.0058550905 3.6818147 -2.8776426 -3.030994 -4.752145 6.6212287 -4.1346865 10.0756035 4.2268095 -0.8085694 -4.8638043 1.1583475 6.0808825 7.1532865 4.473953 -1.039313 0.24573919 -3.8351579 -1.9017407 2.05031 3.6706457 1.8648905 4.664146 3.275437 -5.031308 -4.0831256 6.1914964 -5.4787107 0.9892328 3.0053666 -1.4836903 4.420354 -4.5012836 -2.4283762 -3.1379786 2.1680021 4.57559 5.094682 -0.6147531 7.3103867 19.406641 14.4693575 2.713715 5.016781 8.625536 -5.1334257 -7.888994 -7.3713326
C26H30O12+Na+ -8.764369 25.349182 2.9951558 5.7801523 5.3968015 9.795501 -0.682681 12.842115 -14.806456 -15.622655 13.34677 -5.547311 3.2109706 2.2713885 12.437342 4.981437 -1.19673 -6.4848366 -7.060437 6.156688 0.17745084 6.4931836 10.4767065 4.060008 -6.450578 -0.942204 -11.652492 6.8375297 -12.813918 -10.9843645 -1.6120601 3.1117618 -2.6220791 2.6945224 8.1096945 -2.4970953 7.1875687 3.2348495 5.9940715 -14.937677 4.24903 -0.27123523 9.2030735 -11.016782 13.083757 -1.867144 5.957071 -1.7833799 5.051856 9.353721
C9H8O4+H+ -5.629654 1.4717238 9.890702 -7.9502745 13.259858 4.2793646 -8.295348 -0.8716494 3.25336 4.318646 3.5720398 -2.1001642 -1.5188329 0.8035514 -6.117985 2.6416712 -2.989889 0.3255036 -10.335457 0.48181084 -1.3228464 -3.0026617 9.89676 0.26541436 -4.2874393 4.5702796 0.25817707 7.7230124 -5.7101183 -10.896376 -2.0531056 -6.0957127 -4.440257 10.815333 6.729114 8.048017 -5.415788 -3.9454072 4.6436114 -4.9992967 -9.623306 -2.460762 17.529163 5.2021203 1.4979488 11.115641 14.588125 -4.6167064 -9.344914 3.1743748
C12H22O11+Na+ 0.37474886 -6.8606153 -4.8919773 -1.079944 2.5196993 -4.4037585 -1.2992448 -1.7901824 -4.9325185 6.5497456 2.012417 5.8335295 9.373779 4.76895 4.7035403 2.2035227 3.1372862 4.365564 9.452321 1.2277653 -2.337706 0.36857074 4.988085 0.44109103 -4.1331563 0.9891848 -0.7623234 -2.5641294 8.697652 -0.77879584 1.5426672 3.7668302 7.698507 -5.886817 4.0597467 -4.0449934 -5.2890143 -0.27825248 2.2090962 4.7539306 -0.12300135 1.2002457 -13.464189 6.2412257 -6.409937 -6.917015 3.5221853 -2.2197986 6.4564576 2.900203
C21H36O3+H+ -0.22105859 3.2892296 9.651481 3.7350273 18.994722 9.107539 1.087972 1.1520711 -6.590632 -7.006326 1.5527542 1.8444391 -7.5609202 -6.930438 0.43532026 3.6073403 -0.17572317 -13.329916 -16.578661 4.304291 6.127026 -9.08248 27.220697 -9.720275 2.843943 8.846247 -13.963321 15.414797 -3.7444198 -3.3608735 7.9452605 -9.690709 -8.344605 5.479498 9.816455 26.292439 6.389267 -19.128672 13.697659 -5.8392944 -7.262396 -0.11079683 10.539274 -14.827682 16.141878 10.503654 10.68793 10.446521 4.833368 -2.1487613
C13H13N3+H+ 6.6753526 -2.1617198 6.636181 -11.848471 12.73823 -6.6100445 0.2818578 -3.4823146 -11.846496 -14.391975 9.357692 5.283123 3.6315386 10.090228 7.501019 4.411146 8.016248 5.0605273 -1.1204855 6.0967846 -9.977084 1.4944631 8.344897 6.15195 -3.3208077 2.9576266 -5.923295 8.091167 2.1274657 -5.2596984 0.41767642 -3.184886 16.495224 -2.7877362 2.9137683 -0.953313 -8.883902 0.73618174 3.197537 8.563072 -3.685562 0.1141535 -9.80281 6.2467275 -10.019011 7.4276867 15.039289 -0.174933 -0.33142194 7.0871086
C14H28O7+H+ 8.263419 -0.30141926 15.267489 0.82342607 17.393923 0.5429627 2.4062 0.84399515 4.734186 -9.9935055 3.4236844 -3.6298366 8.737368 -0.77280134 0.77169466 -12.698374 -7.6550107 4.3869143 -15.332443 3.1881878 -9.707339 -6.2531757 11.284043 -6.7644124 8.002285 -1.1005586 -0.8618217 12.144998 4.3556542 -4.6445346 1.8913351 2.342937 0.14502823 0.19506827 1.5130099 5.2535243 -13.0605135 -10.212889 10.273354 -3.9075947 -9.245908 -0.79310167 11.528618 -0.80041134 -7.902482 14.342139 12.453217 -7.5260525 -16.439348 -10.649677
C12H22O11+K+ 3.1896021 -5.892616 -1.2818774 -1.991771 -2.7350109 0.7916419 -0.116579756 -5.1632 -0.04276697 -1.1608325 -2.376734 -0.43294266 1.8327702 0.39332345 -2.652957 -0.6019788 2.1203477 3.3956475 6.288274 -0.40334743 -1.6824806 0.82607394 -6.2667985 2.1243758 -1.0520619 -1.2661566 3.0858173 -3.1167955 2.998519 2.8345976 0.49118382 2.4275851 2.9304225 -4.0564137 -2.3053076 -2.573597 0.34600797 2.6491208 -4.3942323 3.3308618 2.4311619 -1.3751577 -5.489365 2.0249498 -4.352363 -2.3333983 -3.9089034 -0.96887225 2.5583377 3.769521
C15H18O10+Na+ 3.0499754 -3.0208552 -0.5490238 -2.486705 -1.876129 2.0022168 -1.3478675 -3.1252713 -1.0447484 0.6325343 -1.0908327 -1.2263457 1.1439885 2.0791001 -1.6911882 1.3740441 1.6686316 1.5504607 4.3004165 -0.6229151 -0.2489024 1.7348708 -4.5484457 2.3970091 -1.0069803 -1.3104953 1.8203596 -2.3288188 1.9333615 0.877859 0.19377649 2.306858 2.1150343 -2.2987611 -2.3151078 -1.7685313 1.0880703 3.2942595 -3.4908943 2.275194 2.2110577 -1.2256428 -3.6578965 2.2163854 -3.0917232 -1.3733345 -2.3201783 -0.91043746 3.6260586 4.418032
C47H69O8P+H+ -13.6790695 -0.5952525 3.9359758 -2.453105 19.180933 2.8429866 -1.431756 0.12974133 3.1703336 -8.544851 13.520141 3.2537165 16.236704 4.788202 11.494653 -3.1433733 0.24105419 3.768673 -10.998526 6.3452187 -9.063634 -4.7208643 22.17072 -1.8526332 6.231075 -9.93827 -14.5805435 18.647919 7.9206624 -8.748124 0.8901061 1.2892636 0.2258698 7.276611 9.868547 19.948149 -6.1198263 -16.96877 2.6325603 -5.3951454 5.1446996 -3.7129457 4.813926 3.7919183 -2.5342114 15.906239 31.560106 -5.5561986 -16.79163 -11.79982
C35H64O4+H+ 9.26299 -9.16082 7.254187 -8.516659 1.0511895 -7.6784935 -2.528023 -3.7607663 -11.029673 -10.337889 -1.9267298 -6.3654733 7.6204405 4.4462337 2.9775372 -3.7563598 -0.48357812 3.0952146 -3.747289 1.3895959 -2.527338 3.464595 -4.4340873 6.0671754 -0.88829577 2.5449812 -3.9648402 9.53414 -5.4234743 -0.4706948 5.5943575 -6.662226 7.513973 -2.9022038 -5.036475 -8.052559 -0.27790162 16.592625 2.6390033 4.185032 -6.0698156 5.8729844 -3.077077 -3.0680583 -6.773836 -4.2762456 -3.1658661 0.52234674 -2.7931046 5.962604
C15H22N2O4+H+ -8.77398 15.865329 1.3009593 -4.270441 16.448387 6.8704324 1.7072102 9.274307 7.7813663 -3.8257997 2.2844017 -4.912972 6.936331 3.817413 -3.2766068 2.8572156 -7.8407745 1.1639342 -9.205517 -0.3693609 1.1852185 -6.1979294 11.91354 -2.2210698 -12.127724 1.271793 1.873342 -0.7511716 -17.306417 -6.422146 -14.21939 -17.171068 0.0331795 2.2710547 7.1141624 -4.5046477 -14.460464 -5.9855137 -1.7508404 -10.408272 -7.15404 -15.062805 9.597377 7.844269 2.9744081 9.027354 11.021447 -2.1968007 -11.4181385 4.031833
C18H32O16+K+ 5.028364 -2.4510357 1.1812751 -3.708585 -0.41183865 -2.340208 -1.6774598 0.56327486 1.1440256 2.6207726 1.5261902 -0.06524561 1.4537879 1.2939072 -1.8152951 -2.5153978 -2.8719478 -0.77026343 0.53847927 -3.2421646 2.494552 2.7366145 -8.398514 2.6567502 0.059798095 1.2694877 1.0939038 -1.4821999 -1.4929911 0.6355088 0.84518373 1.1591952 1.5031953 -1.3685801 -1.9879673 -1.7865199 -0.6545269 5.9094543 -2.8880613 3.7060983 -0.31732434 -0.3756812 -1.5534536 1.3416374 -6.052611 1.2275155 -0.82827896 -0.24114561 0.34958878 6.453667
C29H40N8O5+H+ 0.55229867 0.42895085 -0.08976032 0.08136329 -0.31279463 0.18679446 -0.52735627 0.8188855 -0.19665922 -0.050989173 0.15910478 -0.18766928 -0.105964184 0.41982213 -0.21579105 0.31714654 -0.06500964 -0.53206545 0.24827859 -0.28392962 0.96182024 -0.26637712 0.19882427 -0.36594287 -0.3790723 0.47597244 -0.5170426 -0.35128042 -0.76035535 0.49684536 -0.0026173254 -0.22614042 0.101374514 -0.6053467 0.32199037 -0.45420176 -0.23607564 -0.09738225 0.37393937 -0.7424221 -0.08155059 -0.79300636 -1.1158265 -0.1983552 0.053966574 -0.24738292 -0.41067308 0.25541556 0.26944798 0.50625366
