69 100
C7H15NO3+H+ 0.2587397 -0.96247655 -0.856741 -0.40107498 1.2429695 0.19918391 2.025001 -1.5087111 -2.116628 0.66788995 0.64308214 1.3462799 -0.4221732 -0.40942532 -2.935245 -1.0287414 1.0581411 -1.0068867 -0.93293643 1.233175 1.0005898 -1.7022477 -0.12334843 0.60063726 -0.74851185 -0.6736041 -0.80301 -1.1351036 2.7324514 2.1192472 2.6465416 1.3930905 2.3079429 1.7914609 2.6766682 -0.2662947 -0.1757547 -3.8160222 -0.8607136 -0.82000786 2.450444 -1.5299692 2.2936656 0.5493837 0.5957984 3.939075 3.2036698 -0.7562368 -0.7373201 -0.12876937 -4.8100977 1.7678988 -1.8011694 -2.554203 2.4653003 1.1660057 -0.37752125 1.034784 0.8377694 -1.946553 2.9594643 0.22079344 1.8923643 0.6101858 1.6997845 -0.57558936 3.0011685 1.0538968 0.5572102 0.042497374 -0.7576642 0.84130216 -0.18125555 0.547403 -0.3615077 -1.0262326 -0.8499433 -2.9144554 1.2749454 0.9287617 -0.4787545 -0.2805663 -1.2891421 -1.1238055 1.6366253 0.48931238 0.27599257 0.3683272 3.935808 -2.9776132 -1.5587753 -2.523815 -0.24859248 2.824789 0.3062486 3.401912 2.9938552 -4.208443 1.0224876 0.03941438
C15H22N6O5S+H+ 1.8503827 -0.078248724 1.6101154 0.9397448 -0.89252895 -4.085101 1.6305841 -3.0484507 -3.763928 -0.7360138 2.415182 1.0786569 -2.9082687 -0.57136935 -1.2316625 4.245541 -1.729399 1.8604776 1.0128201 -2.391208 1.2818273 1.2530392 -1.5335367 1.1858197 0.035813294 0.38785836 2.0708256 0.40772334 2.2864883 0.044575598 0.6374204 -0.19867063 -0.3448013 -0.0054206103 4.6966333 -0.6447234 -2.3662953 -3.8924177 0.83884627 0.16967157 3.849485 -3.4033446 2.77084 0.96256155 1.3429054 0.28815797 -0.08647197 0.6200629 1.0197295 0.518835 -2.5795302 -0.8078549 0.67016673 0.10697541 3.966162 3.2522106 0.9465422 -3.2345803 -1.514712 -3.1566706 0.07161375 -2.753187 0.8613784 -3.8326006 -1.3565819 0.6707891 0.91654044 -1.1507494 2.1414046 1.1531396 0.2045536 3.7747712 3.9232974 0.5141491 -0.11600848 -4.598692 -0.6260511 -1.214433 -0.993657 2.2990599 1.1453832 -3.630649 1.673978 -1.0603771 0.71908164 2.048915 -2.4424758 -1.7058506 1.5001876 -1.3737147 0.6320292 -2.8853703 -0.46208984 -1.504066 2.5939198 2.7887142 2.2553408 -4.230454 0.33957553 0.8240438
C24H50NO7P+H+ 2.6764765 0.4541059 0.31336477 0.41739923 2.155731 0.39694804 0.8682131 -1.1381273 -2.3494473 0.37501153 0.14450268 1.014536 1.1382463 -2.7508905 -0.6929084 0.3432276 -2.27514 0.70091605 0.056566335 0.9109619 1.0509014 -1.4428796 -0.72964525 -1.9367764 -0.77370083 1.4449574 0.5564599 0.7825449 2.0140455 -0.6779645 0.6433816 1.8557671 1.0540835 0.62739724 1.076904 1.3131404 -0.0933005 -1.1091774 -1.4714446 -0.8788499 3.300083 -2.6331513 1.7365233 -1.7996997 -0.69117296 -0.89900815 1.2531134 -1.2231299 -1.6865468 1.950079 -1.9042056 0.6704265 -0.03361525 0.3637664 0.9307782 0.8388864 -1.9961894 1.9930975 0.92770255 -2.6934314 0.80259085 -0.83443743 -0.8010467 -2.6548722 1.465291 -1.1521889 0.69735426 1.9693884 -0.27038577 -1.1372854 -2.0874805 1.1756746 0.41676164 -0.19461077 -0.82450956 -1.0185803 -2.1216455 0.0066357194 -0.2606346 2.2396376 0.7140515 0.6707032 -0.47882676 1.0473145 1.5843263 2.1027875 -2.0888782 -1.0107219 -0.7077857 -0.5542342 -0.9094431 -0.67016226 -2.3621492 0.45207843 1.2399685 0.4364096 1.6371545 -2.566475 1.5354444 -1.272355
C4H9N3O2+K+ -0.5042986 2.2859762 0.70299584 -0.8984481 1.1551868 2.179335 -2.1803255 0.31825736 -0.7975553 -0.027691681 0.083159834 1.1522356 0.72519904 -0.15399337 -2.4077802 -2.438999 0.2910346 1.8801132 4.12295 0.3915038 1.1635396 2.01552 2.9717288 -0.61132157 -1.4669926 -0.13093898 2.1943169 -0.26716956 1.4081699 -0.85316724 0.38136593 2.0476172 5.786456 -3.1136642 0.28172287 2.1524174 -1.539087 -2.8776507 1.4417267 1.6363554 -1.260568 -0.71249056 0.68323183 2.2374535 -0.6825846 1.9784178 1.4417843 -1.1505256 -1.2486639 -1.9149076 -3.5466995 -0.93853533 0.0414902 -1.3630836 1.244229 1.3788023 0.25027636 1.3183432 1.0180199 -1.3489698 2.9308558 -2.8266916 4.6312933 0.8481119 2.4750276 1.2764716 1.9288037 -0.5949253 -1.51333 -1.9096692 -3.1758661 0.44732493 -0.55273306 -0.7152779 1.3898331 -0.5129276 1.0256624 -0.90693986 -1.3504481 3.4948366 -0.21016055 -1.7297096 -3.5759854 0.58226377 -3.207839 0.70309746 2.2847846 2.0017042 0.75363725 -2.6859827 -2.427538 0.63452035 -1.8244294 1.1032922 -2.3463001 1.2630032 1.7126303 0.6779296 -1.4809338 -0.23188038
C9H17NO4+H+ -0.008526119 -2.5876951 0.3183724 0.4719992 3.7815526 -0.9931934 2.926511 -0.6500529 -3.325398 0.53979737 1.4449403 -1.2162317 -0.9786399 -2.8986752 0.7074934 3.2898283 -1.8070338 -1.543569 -2.1491184 0.89738655 2.274744 -0.69895905 -0.5874553 -2.4095304 0.45425326 0.5227332 -3.640663 -1.0738696 1.4449186 -0.7374598 0.07317257 0.17729549 0.40820655 6.090433 0.53630966 -1.1909627 -1.1771702 -2.2392216 -1.9474509 0.8844148 2.1020439 -0.8771512 2.0270262 -1.1374573 -0.40284765 0.93412167 3.2957144 -1.0656666 -0.18875733 0.7823404 -0.30806705 0.92897505 -1.4400297 -0.6137334 2.3483481 0.12640479 2.4294934 -0.22917092 -1.6102973 -0.35238203 -0.16394994 -0.15529935 0.23364742 -2.164514 0.7556519 -3.7555451 1.3924725 -0.7887852 3.151257 -0.34115973 -0.99400026 2.2359061 0.27518308 0.5395802 -1.9906859 -0.49970627 -0.50634384 -0.8131405 -1.740988 -0.99875146 1.7468013 -0.48622608 3.0690536 -0.83323216 0.6258649 0.1084562 -3.757194 -1.3464097 -0.21153922 -1.3496373 0.19428325 -0.5955788 0.6553748 0.042177606 3.948721 -0.40679672 -0.54131573 -0.5608578 2.52927 -3.0142393
C10H7NO3+H+ -0.6191291 0.93084025 -0.15808818 -0.7417693 3.8242257 0.1788663 0.54123425 0.7604328 -0.038113482 0.9987518 -0.3172077 -0.28847516 -0.007788687 -0.3618105 -0.48774803 1.1187884 1.1261475 -0.80109495 -0.63641065 0.71626055 2.6648085 0.96515304 -0.98487204 -2.3154154 0.09486857 -2.126777 -0.9131901 -0.13473667 0.44285858 -0.15384635 1.095323 -0.8206634 -0.6502918 4.3219733 0.21935408 -2.1302276 2.1606889 -0.06042607 0.4936768 0.8228848 -0.14468603 -0.8753825 0.45177424 -2.4048746 -0.31180984 -0.16737273 -0.9429321 -2.8810227 -0.55531526 0.1615433 -1.5683757 0.0075469855 -0.15096846 -0.59654105 1.6118155 -1.0970439 0.33512488 1.3431796 0.24793674 1.9606711 -0.3445979 0.88860554 0.53789467 0.48080903 1.3401493 0.20190728 0.38500655 -0.50672424 2.0774667 -0.76493293 -0.84406537 -0.5542302 -0.5980765 -1.0921439 0.13589226 1.188847 0.75433236 -0.86240244 -0.797923 -0.99130267 0.79348093 -1.0156775 1.543689 -0.7215026 -0.2674614 -0.60073066 -1.3781427 -1.6732917 0.25366348 0.61097646 2.5102694 -0.3516518 -0.18583371 1.5293442 -0.8220998 -0.15184094 -0.78025615 -0.36386275 0.7215521 -1.6650187
C11H21NO4+H+ 1.9775225 -4.4736557 -0.8012301 0.5249966 -0.62851095 -5.1627984 3.26753 -1.8758614 -4.0386195 0.8922793 0.3848411 3.4551342 -1.9120554 0.6794563 -4.8468237 1.2958181 2.1644561 -2.6743717 -0.43492848 0.47888827 2.931206 -3.0620384 -1.2805117 0.29850572 -1.1698811 -1.6103489 -2.1913397 0.6520148 1.2363974 1.0863302 2.6235316 -0.261238 0.76199806 3.8871248 5.0054636 -0.041122403 -1.4744073 -3.6618524 -1.1123376 -1.1461909 2.029381 -1.6717008 0.23869216 0.16820411 0.4829571 2.9115036 2.3148115 -1.9792204 0.975794 1.3834538 -1.950689 1.7086949 -2.534522 -2.311327 5.169372 5.0287423 3.516142 -3.0156217 -2.765936 -1.6223224 -0.54993343 2.536262 1.5375404 -0.84526163 1.6338178 0.60360825 3.8652658 -1.3740611 -0.124989465 3.0793123 -0.7958971 2.5254574 0.61516625 1.3479 -0.35611188 -5.1779933 -4.2342415 -4.913232 -0.6900035 0.8391948 1.522732 -2.5363073 -1.2654538 -0.8273072 -0.54413813 1.0090746 -2.7332947 0.5079037 2.9676533 -1.5323502 -2.2813625 -2.392635 0.67713493 2.1793933 -1.8275323 7.40063 1.3880632 -1.6672925 0.035717126 -0.31691715
C22H22O7+H+ -0.5323759 -0.88811904 0.7177813 -2.291269 1.0608634 -1.1269608 0.7983605 1.8750457 1.2858639 1.5208074 -1.7263225 -0.048724968 0.03276561 2.6599038 -0.1899253 -0.56501526 1.7039688 -2.0813446 -1.9603938 1.0110288 1.2694833 -1.8796986 -1.4025942 1.7994887 -1.3840216 0.07173762 -0.16825078 1.7804596 -0.7497728 0.46355122 -0.2062976 0.38472596 -0.95369744 -0.2200082 1.4058201 -0.3999629 -1.0945927 1.5831643 -0.50419414 0.5543357 0.73744315 -2.9455953 -0.13812955 -1.251235 2.3531432 0.194867 0.40780327 -0.9699028 0.5694337 0.41749355 2.081383 -1.1285532 -1.3855474 -0.34493214 1.1060786 -0.2517164 1.8251766 -0.8477888 -0.5080565 0.12286365 -1.1286173 -0.17705022 -0.10605625 -0.96354884 1.1822766 0.69424856 -0.7846544 0.11900517 2.3447773 1.1613111 -0.25236958 1.7634244 1.7135057 1.1358308 0.42789218 -0.92582315 -0.8623962 0.22004326 0.9455878 -0.51619446 -1.0760909 0.22302344 -0.1714071 1.0447195 0.8742225 2.1014378 0.20715106 0.24643752 0.95072 0.3385299 1.2539394 -0.8679721 0.7805088 1.2054275 -1.9282047 0.7482729 0.57537556 0.42667216 1.5388364 -0.9505121
C10H7NO3+Na+ 2.505889 -0.085739195 -1.0177889 -2.0777683 -1.8446401 1.0889373 0.2815992 -0.41727573 -1.6600906 0.82994944 -1.3507991 0.49269062 0.74086404 -0.7125899 -0.020173825 -2.7236629 0.19645868 0.9915958 1.0955456 1.9352242 0.12858036 -1.4388523 1.3666555 -1.3216659 -0.7916726 0.53494793 0.18830018 0.13477397 0.44934085 0.22526036 -1.2604682 -0.6721759 1.5199064 -2.1449568 -1.1435838 1.0719424 -1.0574514 -0.9672132 -1.8447623 -0.05379984 1.0135455 -1.6293646 1.4685009 0.20307611 0.55690604 1.0445528 2.4508665 1.8011303 -1.5815401 0.037199665 -0.72530705 -0.20011963 -0.62980354 -0.9498671 -0.48542768 1.1149908 0.22166432 1.8715945 0.9859074 0.024548363 1.8434007 0.18800604 0.1556566 0.07320689 2.315768 -0.3071129 1.28239 1.0916889 -0.025056383 -2.887051 -0.78238213 0.38286343 -0.65723616 0.07910256 0.34567675 -0.052911922 -2.7207992 -0.469537 1.1732253 2.5145319 -1.9403809 2.0841446 -2.734066 1.295497 1.1851678 2.950275 -2.11748 0.10856306 -0.14544985 -2.5431066 -3.1281185 0.001558697 -1.7319325 -0.46538448 -0.87659883 1.467362 0.8918522 0.47722408 0.4703387 -0.7406579
C8H20NO6P+H+ 0.2850946 1.1952899 -1.0974815 -1.1415869 -2.7290132 0.14758682 2.1133592 -0.5847665 -0.17837553 0.007894991 1.0082399 1.0960857 -0.25302693 1.330772 1.0372515 -1.3685542 0.22765075 0.92346275 -2.262561 -0.5452389 -2.689602 -0.08179515 -2.9222932 3.4411452 -0.9309681 -0.90674245 -1.1941894 0.90845877 -0.52176374 1.4077071 2.0172045 -0.6441461 -0.74141145 -1.7224205 2.6091175 3.9195704 0.9360895 1.5983597 -1.3582964 -0.50494933 1.2818868 1.3795546 -0.63639706 -1.3086683 -0.15669134 -1.4597592 -2.1227913 -0.22278695 0.022946937 3.329681 -0.19466999 -0.16711941 0.18597291 1.3575281 -4.975773 -0.8875217 -0.95320815 -1.4146031 -1.1573309 -4.1201944 -0.31128794 -0.61216944 -0.364669 0.3911053 -2.3167078 2.524848 -0.3928587 -0.004789258 -3.1445944 0.123149574 1.1429423 1.6419009 0.98579466 0.52843726 -0.8578572 0.79801714 1.4688799 0.90210867 2.0585191 0.75945807 -1.2589704 0.566815 -1.8705537 2.4443603 2.1260026 1.3938051 1.8592588 0.13143283 -0.09885455 1.659781 -0.86801517 0.37484273 -1.5170546 2.5471919 -2.8146005 -2.4900398 1.4452266 -2.496068 -0.06729607 0.602916
C10H7NO3+K+ 0.9907329 -1.7320311 0.10200375 -0.44293427 1.0652696 -1.1906486 0.6260279 0.41106653 -0.340645 1.406953 -0.04071931 0.41346046 -1.3374287 0.4532347 1.1182895 1.1932164 -0.4497925 -0.69312435 -0.3662333 -0.98482287 0.7727345 -0.9703841 -3.027228 0.22301485 1.0959877 -0.6023439 -1.2869087 1.6515484 -2.072627 -1.4283457 0.9708521 0.5199609 -1.204312 0.8036972 0.80582297 -0.73004806 2.4892108 1.3273877 -0.2116823 -1.1609377 0.06704198 -0.0109316185 -0.846389 -0.61345536 1.1923573 -2.1072066 -1.1064061 -1.1252406 1.6738228 1.081396 2.4262607 -1.6443722 0.8301405 0.3928305 0.81896627 -1.6275077 1.0080613 -0.2682895 -0.1126086 0.009634009 -0.2522467 1.1148467 -1.7641573 -2.6074631 0.5454495 -0.7545453 -0.7662601 -0.42519602 1.3028269 0.84418184 1.5214664 0.44721124 -0.9162668 -0.20547004 -1.1191089 -1.9672877 -1.2353679 -0.75795656 1.0167973 -1.4098537 0.4123397 -0.06698688 2.4700816 -0.7086864 0.5927324 -0.29750818 -0.39041743 -1.214016 -0.77826905 1.0423026 0.87237644 -1.2608804 -0.9243898 0.4688929 -2.3415685 -1.5530238 -0.004794427 -1.7028761 0.8712661 -0.95329386
C11H20N2O3+H+ 1.1771506 -0.21672334 0.41571832 0.686417 -2.2482674 -1.8787469 2.1396694 -0.31156403 -2.9089391 -1.4092221 2.25432 -0.73900765 -1.6118103 -0.24141447 0.67060757 0.5699231 -0.49644682 -0.103402354 -0.39273512 -0.92959136 1.8258692 -0.1522778 1.2979115 -0.028988516 -0.8732726 -0.90091026 0.08659721 -1.3091147 0.3294995 2.5788329 0.63966227 -3.6837568 0.26756215 1.2511631 2.7510405 2.6552608 -0.54389197 -0.38443795 -0.37000355 -0.11950337 -0.0002812065 0.5514391 1.1871047 -0.38596404 -2.7480273 1.1772888 2.0395737 -0.9758512 1.1329335 2.0969162 -1.6994861 -0.8317986 -2.295847 -1.2391162 -0.6345869 2.3863907 0.040654786 -1.7999933 -2.5492358 -2.5796094 0.99382985 0.3963776 1.3899691 0.35296032 -1.8233817 0.90115184 2.1984847 -1.691011 -3.361181 -0.08066437 0.23366255 0.19582719 0.27659 0.8065042 2.0210629 -1.2171476 -2.2054887 -0.6586438 -0.7986462 2.9490771 0.7165653 -1.5154815 0.43461052 -0.10375965 -0.3169057 -0.2526702 -1.3925463 1.7146453 -0.38686463 -0.08192079 -0.15742823 0.28312677 1.4943203 0.89277554 -0.26202607 0.67519975 -0.97644025 -1.146291 -0.30963698 -1.338503
C8H17NO2+H+ -0.4391948 0.9090073 -0.5543513 1.8578513 -0.8505268 1.3594406 0.78088564 -1.559953 -1.096519 -1.4362047 1.7615454 0.99224794 0.39168203 -1.7145841 -0.95619965 0.7142955 0.013539163 2.1563003 0.6378453 -0.67799413 -1.2503347 0.70016956 -0.28858408 -0.5133108 -0.36462617 -1.309864 -2.1328535 -0.6092593 1.1845253 0.46129405 1.7060416 0.9892741 1.8705351 1.1260849 -1.163547 2.4301271 2.0726237 -1.4144218 0.43663377 0.32149357 0.16849731 2.5497196 0.76997197 2.0065315 -1.6167551 0.7246821 -1.163019 -0.98540217 -0.5021065 0.47973225 -2.192407 0.9959655 1.1716595 -1.3622285 -0.5944484 -0.8054006 0.41136074 0.6403747 -0.42066833 -0.25302786 0.27089697 -0.7785807 1.1970879 0.8303672 -0.9733487 0.6525181 0.51782405 -1.6273634 -2.3543994 -1.2718956 -0.32784525 -1.359113 -2.3740308 -1.3055626 -2.2161062 1.216614 1.0859319 -1.5935333 -0.80850625 1.2472879 2.3920646 -1.0539848 -0.8155121 -0.047230225 -1.0985427 -0.45991883 0.41661015 0.10410392 0.91713774 -0.045363173 -1.5291554 0.7737789 -0.98185635 1.4556003 0.24215755 -0.5056128 -0.05991072 -1.6847631 -0.25374064 0.91800386
C10H11NO+Na+ 2.2511094 -2.1232042 0.54684013 0.46121213 -2.1726844 -2.8371148 0.96358263 -2.3791661 -2.925456 -0.43663937 1.1873165 1.1977881 -1.9304008 1.1648679 -1.4727474 1.9452823 -0.34581274 -0.014048937 1.4254241 -0.41359434 -0.84518015 -0.071193 -1.7209823 0.14164945 0.33178353 1.1117897 0.37404087 -0.1500396 2.0659478 1.7121572 0.22240637 0.7963869 0.7693453 1.6123288 1.7909714 0.5214071 0.1844555 -3.256944 -0.051754188 0.002102994 2.1556025 -1.9925344 2.269259 1.8184018 1.0766834 1.4586648 1.3664509 1.1877922 0.59037405 0.49761403 -3.194351 0.23561989 -1.9731275 -1.0853251 3.3352513 1.3492523 1.3448793 -2.5735004 0.1020518 -0.15459023 1.5272253 0.10392411 -0.1591362 -1.7612131 -0.39198524 -1.796312 0.20685296 0.17646714 1.6988789 -0.89035165 1.3217037 1.5091531 1.3760341 -0.16224685 -0.42629632 -1.3043035 -1.9206759 -2.1075597 0.8551785 2.104133 -1.1315184 -0.6383405 0.8713025 -0.27360395 0.8661012 0.8912509 -2.4473183 -0.50552124 2.237921 -2.6916869 -1.7928122 -3.0333998 -0.89205 0.969004 2.276929 4.6437964 1.5494843 -4.14392 1.0537587 0.09574877
C29H47NO4+Na+ 3.1947255 -0.8424943 1.2996432 -0.2358201 -1.031208 -0.77537423 0.72219837 -2.5986986 -3.2935693 -0.13055782 -0.494673 1.2184999 -0.71314114 -2.2247717 0.61912996 1.0003879 0.791927 3.342606 3.336938 2.1142414 1.632311 -1.9054155 -0.59732205 0.43523982 0.46842912 -0.8959293 -1.4637299 -0.41116548 -0.6321373 3.316088 2.1872525 -2.8951256 -0.7427715 -0.5565769 0.7473318 0.75258946 0.94430405 -0.39455986 0.88060254 -0.14207067 3.5591912 -0.6859068 3.024675 -1.1827716 -0.04057101 -1.1895458 1.7548256 0.58153677 -1.2392893 2.0040526 -6.292041 0.7160952 2.4308589 -0.6309618 0.35710245 3.403527 0.64657515 0.94034076 1.641325 -0.13688329 3.6481538 2.7950616 -1.2586358 -1.8005708 2.1186182 0.3885165 2.284672 0.08021098 -1.5881008 -2.8717232 -2.35718 0.66257936 -0.49333477 -1.8972389 0.34734568 0.8562196 -4.512581 1.3131862 -1.2457875 3.0948868 -0.1939001 -1.1316327 -2.156189 1.5246137 1.6901463 3.0300632 -5.6165833 -0.627963 0.21190819 -1.6021985 -1.2863665 -2.504102 -1.0632882 -1.1311699 2.6273952 0.557746 -0.4397437 -0.00065683445 1.6651181 -3.6036723
C9H20N2O2+H+ -0.44327906 -1.5352963 1.5604612 0.9152802 -2.3990488 -0.9715215 2.3971915 -3.5137424 -0.17460771 -2.3496923 1.7916464 0.64852285 -0.0863054 -2.0587637 -0.43397224 2.623196 2.34113 1.6084001 -0.7267954 -0.7239848 -1.0405282 -0.70894665 -0.6545792 0.50178856 -0.11764244 -1.2762668 -3.108437 0.30190137 0.024428766 1.7425812 0.14001268 -0.9759912 1.7094023 0.8792699 -0.46892098 -0.84444135 0.30423647 -2.88791 0.71960187 -0.05934379 0.9957231 -0.18435684 3.4462473 1.9089483 2.3116417 0.9940259 0.32205915 0.026311187 -0.35553768 -0.29900345 -1.0459516 -0.9748116 0.7440522 -2.2457092 3.362989 0.78496295 3.8738582 -0.7811347 -1.4050246 1.1938002 -0.22389671 -1.3573568 -1.180953 1.709108 0.5190269 -1.1299835 1.9973172 -1.845408 1.5779158 -1.7835869 1.8770748 2.5376875 -1.2086257 0.923909 -1.825439 -0.41737086 2.737343 -0.831313 0.5711345 0.755558 1.1879941 0.3221591 0.6336622 -0.93408006 0.786386 1.8012462 -0.34793133 -0.43631625 2.2828116 -2.1504698 -0.26542875 -2.7173452 1.1581557 0.5198611 2.1084075 0.61879677 0.32222694 -2.4723384 0.613292 -0.32689485
C7H15NO3+K+ 0.022075165 0.654464 -0.10091805 -1.4883665 0.28090715 -0.32714367 0.9737392 1.2503812 -0.21964446 0.36938673 0.5268306 -4.3393507 -0.9239041 1.5576186 3.555655 -0.7478752 -1.3561969 1.5745472 -1.1008952 0.9528802 0.56732327 -0.09000834 0.77130485 0.09184739 -0.18545757 0.27654302 0.44804838 -0.33095664 0.7161846 1.5778612 -2.3596907 -2.5178328 -1.5692345 -0.16725805 -0.35515055 0.91089106 0.09645965 0.16785291 -0.69726884 1.0930421 0.29117888 0.30338493 2.210455 -1.0345845 -1.7824916 1.57708 2.2294152 1.3988249 0.46406662 -0.6452879 -0.05202196 -1.2760217 -0.37641823 -0.68922055 -2.1708724 -2.1119819 0.5215019 0.94197404 -0.1829256 -0.028158102 1.3172449 -1.2203648 0.90610665 -2.579822 -0.7807958 -0.5195477 -0.5474455 -1.2027227 0.8875061 -1.9262869 0.5116847 -0.6124863 0.6663812 0.37095204 1.3167343 1.4329149 0.4214396 1.6681296 0.45416665 1.1709814 -0.5175342 -0.114521995 1.9748821 0.49550822 1.4270334 1.3707469 -1.6885333 -0.10100982 -0.00068323535 -0.53252447 1.1713725 0.7363495 0.5219463 -0.93376356 2.889042 -3.0792854 -1.9202204 0.094542205 1.4468266 -0.6039455
C26H50NO7P+H+ 0.10750001 -0.18339755 0.36561957 -0.63076466 -0.63514644 -0.9585718 1.0388553 -0.39763895 0.73607016 0.6361262 -0.7560584 0.07964338 -0.6850595 0.6659506 0.013958138 0.31463078 1.6980559 -0.48562863 -1.6601257 0.38657823 2.2575321 -0.16071352 0.95236665 1.5415397 0.09155201 0.36028254 -0.484427 -0.76075673 0.46399328 -0.13684413 -0.49080122 -1.4175942 -1.4027 -0.004008101 2.105043 -2.209447 -2.35788 -1.2387947 0.46573567 -0.14529075 2.069593 -1.9484038 0.812353 -1.243869 2.1143627 2.2680585 0.61950237 1.5199417 0.3375227 -0.90008044 0.54308987 -0.17020804 -0.673909 -0.9462038 1.7253525 1.6977884 0.56260335 -1.6275581 -0.92847335 1.275931 -0.42475453 -0.34227708 -0.25121614 -0.8330664 0.65412396 0.9946726 -0.5313495 -1.1927736 2.5763738 1.6893784 -0.73459077 0.9202143 1.7497332 0.26489583 -0.4935689 -1.5396564 -1.6344774 -0.2805866 -0.34105444 -0.12922089 -0.45997146 0.11519789 0.43172157 -0.9465695 -0.07004846 1.4728991 -2.0269084 -0.5952459 2.0601645 0.0043291925 0.18709695 -0.39154342 0.49742627 -1.9152427 0.5325972 1.6209873 1.3065795 -0.9681938 0.26801628 1.8073555
C13H17NO3+Na+ -0.4967633 -0.3035314 -2.205463 -1.2591705 0.6742656 0.8452057 -0.07897933 2.578199 -0.42246953 1.5056448 0.31249356 -2.3940136 -0.5981645 -1.0918834 1.1111199 -2.3074496 -1.8852154 0.4205639 -1.102623 1.4035969 1.6192347 -1.0909376 0.5384508 0.48487005 -1.2387729 -2.0496511 0.24144712 -1.24996 -0.56030816 -0.65614146 0.7207352 -1.1028385 -1.6582475 -1.3975971 0.79411036 -2.1428945 -0.49929515 2.5815043 -0.017628392 0.09545971 0.42775288 1.2825031 0.42582944 -0.031897575 -0.6651987 0.35679287 1.1034873 -0.021410275 -0.6708557 -1.0266541 0.3180403 0.72757626 -0.04420041 0.5207994 -4.2913065 1.459914 -2.1899228 2.9563935 1.1286727 -1.3061645 0.1117869 -0.9320064 3.628955 1.0665859 -0.75719416 0.6912535 1.5230962 -0.008194498 0.014349275 0.42181572 -1.621307 -2.4795885 0.48306182 0.93323636 0.6829409 -0.013089495 0.29829234 0.079452194 -0.70093745 -1.2332608 0.5866769 -1.9909128 0.35063538 0.92346764 -0.61825883 0.9574246 0.589737 0.11346132 -0.25613752 0.9206118 0.049021363 1.1029515 0.07729947 -0.4991723 -0.45597762 -2.9651089 -1.4591218 2.833438 0.4410447 -0.6764816
C10H16N4O3+H+ 4.5156884 -4.5146527 -1.0093685 1.8210007 -3.6082585 -3.335058 1.0832254 -1.4194894 -1.7571899 -2.1990573 0.7918687 1.041828 -2.3788629 0.14763905 -0.23114316 2.0274837 -0.4233019 2.2634246 1.0516274 0.5362933 -0.797643 -0.5274496 -0.7870759 -0.55858046 -1.2397071 -1.2407043 -0.394107 0.5167185 1.286524 -3.6290727 -1.3539766 -0.84040916 0.8854211 -1.7260971 -0.5264802 1.8576549 -1.1084514 -1.3755325 2.0468032 -0.4305098 0.13844766 1.2371595 -0.51524687 2.554432 -0.89869076 0.07261668 1.2926866 -0.081222616 1.1199803 -0.87969345 1.7995646 0.07067072 -1.603287 -2.140518 0.8664895 2.9784477 2.1470885 -3.1907825 -0.73339415 -0.94635826 -0.13966034 -0.96080667 -0.111109346 -2.4224339 -0.8879948 0.19165578 0.102797635 -2.473856 -0.2734347 1.3312266 1.491223 0.22131161 -0.933905 3.3474011 -1.9872882 -2.5758574 -1.7547394 -0.7098658 -0.08171275 2.471246 2.0333045 -0.5076236 -0.5196695 1.8314979 -4.2422843 3.9053917 -2.7751415 2.1453905 -0.6391894 1.7375677 -5.3543596 -0.9146344 -2.462835 -2.9143636 1.2521069 -0.047640156 -2.3931525 0.16082434 0.08786477 1.2887455
C8H20NO6P+K+ -0.9646983 -1.52771 3.2590678 2.362747 0.96089876 -1.5216961 0.75661415 -0.21162874 -2.783008 -0.98682433 3.0778792 2.5026877 -1.4196048 -0.17525217 0.43439648 5.434683 -1.0053229 -1.8665621 0.37488815 -2.162285 1.6723728 2.6384869 -0.657568 0.939157 2.2312179 2.3812015 -0.08156394 -2.1392224 -0.12868348 1.7362682 2.4686024 0.82607025 2.1954622 4.3033333 2.5618792 0.8528303 -0.8562492 -1.1209439 1.8366731 -0.95889455 0.3254285 1.3962789 -0.8991281 0.3483332 -1.470211 -1.4808366 1.3708302 -0.3386396 1.8704796 1.1112736 -2.1451046 0.10436031 -2.6003761 2.2084005 2.4828677 2.1105402 -0.12564135 -5.999351 -1.8941945 -1.7125072 1.4919646 2.3436754 -0.36865565 0.4312013 -2.0610628 -1.6151166 -0.83007526 -0.1303983 0.14307514 3.2872164 -0.28581843 1.8546156 2.7335644 -0.3308468 1.0192564 -0.20315 -0.6104575 0.50968987 -2.9011965 -0.6676435 0.5831773 -2.9227133 3.457376 -1.1095841 -3.2462072 -5.0962143 -0.7552972 0.7898203 -1.6288885 -1.0766529 1.7715558 -1.3554475 3.249201 0.60954076 2.2994921 1.9057822 0.67176074 -1.3540837 -0.45591894 -2.0126486
C26H52NO6P+H+ -0.3036965 0.5710396 -1.0378547 0.31042928 -0.60853404 0.20720923 -1.3912172 -0.02979143 1.2307644 0.61775744 -0.8603909 -0.49204916 0.9131081 -0.5084861 -0.5198149 -1.2084757 -0.49353838 1.6622496 1.2029988 0.84555274 1.0979884 -1.0595268 -0.05201677 -0.8923019 -1.9056534 -0.52652204 -1.0462815 0.13933064 -2.1423888 -1.7780597 1.0280468 1.50628 0.048011314 -1.89924 0.6109155 -0.27273253 0.51137054 1.299664 0.8068928 -0.51231474 0.7121901 0.46826774 0.88148123 -0.38009784 1.1640551 1.0546733 -2.7035882 0.095836066 -2.2315686 -0.59655654 1.261541 -0.68875736 0.56526446 -0.21122167 -0.7615074 1.9353535 0.47654182 2.1203904 0.93924236 2.6324434 -2.7809627 -1.9924486 2.1220956 0.40508825 0.10795234 -0.13833578 0.11653645 -1.325677 0.4683634 -0.6319268 -2.1348357 -1.5553641 0.21373315 0.11096753 -1.1117516 -1.493065 0.8975016 -0.6083983 -1.3334109 -0.97105676 1.4155122 -1.573482 -0.98127896 0.85527664 -0.05070192 2.3147557 -0.6976237 -2.0403452 1.0893744 1.4546036 -1.1202657 2.022194 -1.1395892 0.15006675 -0.7183936 0.6927286 0.6584222 0.15717973 -0.63186055 1.8452834
C10H19NO4+H+ 1.6324457 -1.6088462 -1.7918273 -0.7755501 0.6875313 -1.9886405 -0.69657075 -0.24624527 -1.6989228 -0.106234 0.5526332 -2.1942763 -0.81887734 2.2722018 -0.50433236 -2.3218713 -1.837426 0.534493 0.51351696 1.4376917 -0.024731886 -1.2937282 -0.8734586 -1.2353469 -0.5584458 -0.7375383 0.36302447 -0.3014854 0.91570306 0.7449124 -0.2631238 -0.74815977 -0.20524544 0.6180309 0.8920664 0.12792084 1.7770506 -0.87739384 -0.20169081 -0.023025207 0.04344722 0.011116543 1.923211 0.3319696 -2.0529492 1.8062491 2.2375362 -0.8299921 -0.37239975 -0.38495278 -2.1303442 0.43231726 -1.7290845 -1.6272359 -0.53637373 0.31636044 -1.0472002 2.3913395 1.2928299 -0.675708 1.7948307 -0.009989557 1.3016291 -1.8097095 0.41730267 -1.623857 1.5976917 0.73508596 -0.66818535 -1.6676009 0.42398688 -1.4215993 -0.97805774 1.294665 1.2551079 0.10906956 -0.172556 -1.5990847 1.0625765 1.6183699 -0.7265306 -0.66907984 0.6171894 0.5533062 1.1573262 1.2369143 -0.3725991 0.46275342 0.9648226 -0.5927698 -1.831371 -1.5814478 -1.2782394 2.0367196 0.82406825 0.4435622 -0.9211048 -1.0394422 0.8576588 -0.8607596
C8H20NO6P+Na+ -2.9039302 0.32404044 1.4839357 -1.051748 2.1063676 0.68716776 -2.3677065 0.25310242 -0.010619665 1.4459513 -0.44196236 0.15775886 0.61435544 -0.6143004 -1.5571892 0.32145986 0.5338201 1.5468088 2.11193 0.9281105 0.5079679 0.6608436 -1.5834959 0.26575428 -1.066463 0.29633498 -2.714245 -0.05363086 0.12394168 0.08875641 -0.109611325 3.456193 1.3946639 1.5768068 -1.7373649 -0.760214 0.62342 -0.28383395 1.5210513 3.3365326 1.052275 -0.32494277 2.0294716 2.8657315 2.5285568 0.98869765 -0.996712 -0.19369295 -0.8380174 -2.0677125 -0.8926297 -0.2558227 0.68644065 -0.9726643 2.5730603 -0.9739677 3.5497246 1.2885051 0.9362549 3.8988616 -1.3077016 -1.3178712 3.4384701 -0.61633366 1.8109009 -0.9414869 -2.1843958 -1.8633518 2.8600295 -0.9569135 -3.3738828 -0.9349697 0.20223054 -2.5538173 -2.792722 2.1615388 2.234929 -1.9959204 -2.444224 0.10524287 1.7125823 -2.467743 1.0123557 0.0987203 -1.9642451 1.1385041 0.54309636 -1.6331002 3.0335164 -1.446208 1.0004481 -0.22742552 -1.3381004 2.2985775 0.5844872 1.6475364 -0.080253065 0.8316024 2.4932895 0.16614574
C10H11NO2+Na+ 0.04883079 0.89436525 1.4840541 0.86978656 -0.5293938 2.250654 2.6447554 2.139166 -2.3543441 -2.2346113 -0.44164664 -1.7372762 -0.4896922 -0.2848643 -1.2386478 1.0428692 1.161413 -1.0590671 -2.5154977 -0.37457278 1.926352 0.36304528 -0.45294482 0.17195813 -1.3718184 -2.4702387 1.2101762 -0.3051784 1.7315035 -0.6896471 1.2896856 0.090572424 5.1616716 -1.452785 -2.2615361 2.3705418 -0.42243838 0.19782054 0.49138632 -0.41265893 -0.12576544 -1.3775392 -0.26480955 1.3448509 0.111307554 -0.40594444 2.4841585 -2.1026897 -0.9421556 -0.5722315 -1.3903446 -1.728376 0.9210157 -1.5320703 0.5982771 -1.2362014 -2.1292849 -0.9060275 -0.5177648 -1.7760234 1.6828182 -1.1624701 2.02042 2.3939085 -0.41351128 1.1644135 1.0104201 1.3378801 0.6152547 0.9525092 1.6602538 0.9979588 1.8951174 -0.3481019 2.879518 0.6311604 1.643884 1.0665525 0.35313535 2.1982644 -0.5834677 -1.3807827 1.131638 -0.55790555 1.1735334 -0.39455345 0.2508355 1.1753378 -0.16383624 1.0258615 -0.100602515 -1.7276497 2.5586605 1.766148 -0.057472803 -1.362692 -0.4205598 -2.9152272 1.1854905 -1.5039889
C37H68O4+H+ 2.92235 0.2548422 -2.4534745 1.1508851 -6.264239 1.876556 1.442701 -6.0393887 -4.2056255 -3.2049184 2.185207 2.277718 -1.4064832 -7.1820316 -0.23134951 -1.7045399 -0.7753524 4.5431285 1.3671975 0.4750561 -0.15413107 4.67667 -0.2847286 -0.63795596 1.1956239 -0.6006594 -2.7116294 -6.344333 -1.7231367 2.6716304 0.1948869 -4.677065 0.26968008 -1.4375682 1.5745484 -1.523621 -0.43511304 1.1574255 -3.0098896 -0.6816624 1.2167518 1.1329229 2.926648 0.83680004 1.9589239 -1.1156539 0.33786413 4.275458 -0.51401705 1.0537345 1.4613838 0.9497014 -1.1589184 -0.23806453 0.93778783 5.969257 -0.85466856 -2.6887698 1.6366295 3.721048 -3.09367 -0.2540396 -2.0658455 5.5246177 -2.6261146 -1.0611268 3.3683228 1.2573578 2.6061668 -3.8155873 -0.99072057 3.8195117 -4.515071 6.071318 -2.0057297 0.05041275 0.90915376 -1.5209787 0.13151601 -0.3289874 0.509986 5.3918605 -3.209777 -0.27817973 2.5942416 5.1519494 -3.4890487 -1.87496 -2.238038 -2.8950872 -6.106972 0.11574558 -2.3612862 -0.8975232 -0.9915027 1.9185808 2.7890196 -1.1772659 -3.2261665 -1.2729714
C7H6O4+Na+ 1.7214389 -2.2618191 0.8348286 -1.1418208 -1.331256 -2.8302476 4.7708297 -0.4818977 1.0181112 1.9403614 -5.0918694 2.4230478 1.4447097 -1.6731514 -5.043008 -1.0378584 3.8736608 -2.96753 -0.7457456 3.5236714 0.8859405 -2.7615492 0.7616844 0.3419979 -0.23379545 0.7241095 -3.365583 2.7632372 0.93617773 1.3487535 -0.88002336 1.4017887 -1.3169429 2.5408902 -4.6590757 0.59130627 -1.3935393 -1.8142518 -3.5522845 -0.08667203 0.7466008 -1.5793998 -4.4542885 -5.5513673 2.5476193 1.7110193 -3.032792 -0.5358199 1.4034991 2.9898458 1.0423527 3.3031979 -2.5961206 2.4417584 1.5190216 1.5634791 2.7273016 -2.9078264 -3.067338 -0.5476326 -3.2318974 1.4724727 0.466802 -2.3256564 4.988997 1.9190488 -2.9646313 -0.5852332 0.2244882 2.482996 0.1446562 2.147858 2.3839478 -2.2910511 -1.0699459 -0.021283219 -5.4868135 2.3376243 0.050245993 -0.11831113 0.118212864 1.2235552 -5.0087557 5.264993 -2.9740536 -1.4764583 -3.4119878 -0.8374288 0.15243006 0.1412877 -3.294214 1.3560619 -2.4583423 1.0807298 0.7638182 5.3475413 -0.11580637 6.4053917 -1.924591 -1.0290956
C15H28O4+K+ -0.48252377 -0.41991603 0.06516405 0.047156185 0.95583004 -2.666635 -0.83405197 -1.6473268 -1.6799529 0.12545206 0.8334676 -0.67355835 0.35355476 0.401844 0.74020827 -0.06758196 -2.3736665 0.110935405 -1.1730914 -0.48156765 0.35738674 -0.58652204 -2.670693 0.43384868 0.27885473 0.93718314 -0.8568521 1.2911283 -1.1242415 0.050933965 0.79986864 -0.62455165 -1.4184873 0.6470742 3.7969906 -0.03821348 0.017990822 1.1112044 -0.70912373 -0.83806056 1.6599394 1.0532709 1.4421846 -1.015832 -1.3048482 -1.2960883 -0.22800516 -0.010646476 -0.79060215 1.2253947 0.5646174 -0.44485018 0.806161 1.3441015 -0.47463512 0.99719775 -0.47564054 -0.12546659 -1.7971175 -1.5366632 -2.331666 0.18068083 -1.5063848 -1.8299832 -0.29354218 -1.1622971 0.90635306 0.86337525 -1.8218945 1.2466364 -0.2846908 1.1204042 1.4074421 1.466562 0.13419479 -1.6226379 1.5094905 -0.09554997 0.004983533 -0.60984385 1.0670555 -0.8235856 1.5796646 -0.39850134 2.6668954 0.1007005 -0.032918766 -1.4219468 -0.7614289 0.57336944 1.1938248 0.0625615 0.733164 0.86993957 0.45116177 0.23390087 0.89725214 -0.83175564 -0.372654 -0.20046787
C35H66O4+H+ 0.70441556 1.5963122 -3.0678697 -3.6240952 -0.81885475 -2.0001926 2.9208665 -2.5000644 -2.7680128 1.6335434 0.7672382 0.57649726 0.23902689 -0.3381049 -1.6583459 -1.28746 4.3782606 5.672628 1.5239809 3.5200534 4.471421 1.1650941 -5.641655 3.9811792 -3.410122 -2.6690671 -3.5750976 -0.7711742 0.018471017 1.5866458 4.9621716 -1.8046118 -1.3005939 2.1328807 3.9615993 0.21421942 -0.66030675 1.5077509 -2.9359548 -0.387815 6.5660996 0.16679467 0.97801626 -5.217802 5.691898 0.60811305 -0.36493418 0.19494818 -0.77993304 5.9830604 -6.166749 1.5784003 4.564302 -1.0401822 -1.2080116 3.1918082 3.0619352 -1.0518762 0.010113473 0.6172916 -3.6166759 -2.7702332 0.73037183 -1.759189 1.4136128 1.0259355 4.064554 1.3322637 1.9529121 -3.1780562 -7.147592 3.784914 -0.2782623 0.2677734 -1.6175416 1.1659902 -2.4323437 1.650673 -1.6190125 0.93702096 -0.90655196 -0.4609772 -4.5792737 3.7813418 1.494282 11.812597 -7.911892 -2.2340803 0.82094735 -5.625575 -2.5516646 2.8317282 -1.9193044 0.88613284 -1.2533116 3.4399765 2.3905604 -0.083863914 -0.36869603 -5.7624273
C7H6O4+H+ 3.010601 -1.4130552 0.6242394 0.020411784 2.313045 -0.1974126 0.9873642 1.1055744 -3.322377 2.2629526 -0.76182646 0.24494784 -0.09116385 -1.5606731 -2.1899416 -0.7185545 -1.4550072 -0.007870309 1.2905741 0.9400788 -0.17249182 -3.6840847 -1.9217074 0.21712998 0.7612826 -0.7268748 -0.87019145 2.0423899 2.6647239 1.6352222 1.25806 2.6765606 1.6667534 1.3901533 1.5973052 -0.16354038 2.0666914 -0.88056856 -1.7793708 -1.0773913 1.6554612 0.20897444 0.39141673 -0.50803995 -1.9953104 -1.5875288 0.9993074 -1.2574793 -1.5732753 -0.6054144 -3.9717894 1.1294436 2.282904 0.01678027 0.61219656 -0.23737995 -1.1956483 1.5505595 0.69211674 -3.3474538 2.59915 2.7273495 2.6427498 -2.4956086 2.9105835 -0.7834452 0.14438474 1.4796519 -0.086162485 0.92662454 -0.6983535 0.4398101 0.7902172 -5.35668 0.22346823 0.0916879 -1.0383172 -1.1946926 -0.43533716 1.0775434 0.25452152 -1.7773631 1.2979732 -0.036207303 0.33740366 -2.1012588 -1.1982071 -1.3809 0.44224882 -1.1565983 0.40035966 -2.2531855 -1.5634652 3.2312572 0.18783124 1.0221559 -0.20265788 -1.444684 1.6093924 -0.88999176
C22H24N2O2+H+ -0.36831197 -1.1906941 0.7306502 0.12397668 -0.42568356 -0.19399837 0.57198125 0.09125033 0.9812941 0.054065596 0.6251088 0.4795726 0.5734073 3.4397485 1.1600662 1.0112414 3.3727999 -0.35357136 -0.50775427 0.80794644 0.40839666 -0.04159856 -1.6588863 2.6019013 1.425961 -0.79193246 -2.448831 -0.58254147 -1.375116 3.0045643 1.8866937 -2.1868958 -1.2785186 1.8700731 -0.41448215 -0.5085547 1.8794588 -0.24323778 1.4095068 1.6112988 2.0593743 -0.32104298 1.5092537 -0.5049519 -0.38123134 -0.94747645 -0.11685046 -0.8915216 -0.17706294 0.19589914 -2.4028647 -0.99738085 2.0460017 -0.15510617 -1.41515 -0.59143484 2.4578445 -1.5556393 1.1093112 3.994989 3.4485607 1.8298906 -0.32224208 -0.6651315 -0.77778536 0.043947075 -0.76348543 -2.6902103 1.7700871 -2.3409412 -2.7266219 -1.0303186 0.46499825 -2.2136984 1.4865896 3.8497252 0.45308563 -0.17102617 -3.202578 -0.030370615 -1.1055433 -2.2602317 1.643923 -1.025346 0.48396385 0.35149303 -3.1878548 0.6456093 4.373881 0.59157234 1.4105865 -2.8741972 1.0414876 1.0128264 2.1593003 -1.7079847 -2.204891 -1.1829859 3.0827584 0.13482505
C18H24O3+Na+ 0.18657497 -1.411815 0.4367789 0.80565995 0.22591035 0.31048816 -0.17042522 -0.29591316 0.8741988 -0.6602064 1.0614463 -0.44985038 -1.3695537 -0.79997796 0.75084937 0.09179786 1.0407375 0.60463077 1.2278545 -0.6798257 -0.07672198 -0.52464855 1.4308305 0.42770836 0.18139073 -0.78788143 -2.786583 -1.013944 -2.0789309 -0.9652674 1.4937861 -0.59714866 1.7735974 -0.2218981 1.5008547 0.41892987 0.45268926 -1.8934212 0.38903406 -0.61220866 -1.4192468 2.148915 0.052670117 -0.33924255 0.011672194 1.8367568 0.546344 -0.5832256 0.53391856 0.2659722 -0.13577951 -0.7215084 -0.0035496578 -1.9971215 0.47614565 0.9475495 1.4788364 -0.1785722 -0.3849808 0.82637924 1.1365031 -0.08761946 1.2733725 0.7134763 0.2603459 -1.4902433 1.8570477 -2.380929 -0.63054466 0.19063872 -0.76702446 0.2808016 -2.262167 -0.70366824 -0.45878634 -1.527719 1.2466542 -0.40244046 -0.4630353 -0.32295224 -0.20857254 -0.24825148 1.0207502 -1.0318366 -1.1465524 -1.6476651 0.65155005 0.5316894 1.3261142 0.4011903 -2.168098 0.10651723 -0.40719327 0.7730944 -1.1568155 -1.0788355 0.046993148 -1.1575305 -0.17910433 0.49966142
C13H8F2O3+Na+ 2.7099714 -2.6738324 -0.55679715 -0.06458834 -1.3977631 -3.072008 1.3863422 -1.1475632 -4.018482 2.604828 0.71764064 0.035401966 -1.8066474 -0.59295756 -0.7540465 -0.7571234 0.09152126 1.7469474 2.3465908 1.149546 0.39792126 -0.62031513 -3.4264529 2.6760726 0.31586382 -0.520152 -1.7513531 -0.8931802 0.11356005 2.9380374 1.6422266 -1.7637638 -1.3027736 2.444427 0.5914055 2.0642471 2.0889273 -0.67692196 -1.9529502 -0.44731528 2.309077 2.6325498 -0.58345616 -1.5323604 0.20947978 -1.4398586 1.6029904 2.404786 0.22880529 1.5474715 -4.5196624 0.6732436 2.4372382 0.5675138 0.2728771 1.1845815 1.7203732 -1.7439804 1.4730501 0.940447 2.0531118 4.9195127 2.3307257 -2.8657138 0.49387977 0.28431234 1.1021636 -0.8122053 -0.6241283 -1.3048337 -1.6059016 -0.2625656 0.31665313 -3.6885545 2.627653 0.47313523 -3.1318436 -0.90139467 -2.944464 0.88154155 -0.7716393 -2.585833 0.93833333 -1.3877048 1.4774233 0.50869834 -6.5008154 -1.4017264 2.2742732 -1.930997 -0.71674424 -3.1378248 -2.0850859 1.8820384 1.9214321 2.1409276 -1.7404375 -1.5663013 1.5342337 -0.55127037
C23H45NO4+H+ -1.1910163 -0.15423673 0.044001903 -1.2769965 -0.31980753 0.58660644 4.208071 1.4953887 0.94596314 0.10934441 0.6086155 -1.5151315 -1.6964259 0.82490516 1.0741231 2.2068453 2.2084339 -0.93974715 -2.9488573 -0.5640045 1.733059 -0.18818706 1.5632275 0.83869034 -0.06074442 -1.9653386 -0.91481245 -0.6142157 0.9142417 0.700852 -0.2521301 -1.4260061 -1.1315844 1.5263995 -2.2560873 -2.6397731 -0.61088115 -1.3271421 -0.33638376 1.243454 0.35875714 -2.890414 0.8237348 0.9182485 2.8096862 2.696196 1.2904308 0.36751434 2.1786263 -0.7089541 1.1156864 -0.7696554 -0.27954012 -2.258632 1.1098914 -1.68106 2.7508705 -0.55580246 -0.9652869 1.2612989 1.0889952 -2.4915767 0.98068327 -0.62173265 -0.4980946 1.2214068 0.054653533 -2.5346725 5.1167707 -1.6251109 1.7088892 0.67207664 -0.40463984 -0.03049647 -0.6270145 -0.4745665 -1.9098195 -0.4881441 0.22234946 -0.7672829 -0.15345432 -0.56592077 1.1850213 -0.5595833 -0.48827595 1.0345559 -1.6235234 0.35693666 1.5167803 -1.3908504 0.63808197 -0.80020404 2.0510454 -1.5978549 0.51183385 -1.7905816 -0.36714026 0.30835474 1.316098 -1.0356525
C11H8O5+H+ 2.8052015 0.2939509 -2.8611774 -1.9167478 -1.6433171 -1.580311 2.831281 -2.118526 -2.2601616 1.5998118 1.1886764 1.5310235 2.093761 -1.16212 -1.067823 -1.9955211 1.6715144 4.220292 2.1100779 3.369964 0.6752007 0.015578915 -5.0449967 3.258089 -3.379711 -0.3302281 -4.088047 -1.8050972 -0.77846795 2.7380917 3.8328307 -0.7312099 -0.31240502 2.3984537 2.6697896 2.1063535 1.0180285 1.0180756 -3.516384 -0.958419 4.210165 0.93401486 0.69882977 -4.4135294 3.492798 -0.70758337 -1.309403 0.8840534 -1.7732928 6.91032 -4.952482 1.4530423 0.62795746 -1.4113955 -1.1989186 2.9424188 2.5197601 -1.601134 1.8021538 1.4142962 -1.319344 0.07726818 1.0860518 -0.053193852 -0.45996708 -0.011735408 3.6541123 1.8189617 0.5986292 -4.278313 -4.894927 1.314145 -0.02260335 0.24536064 0.30648735 1.6945932 -2.1107888 -0.24980141 -1.9019289 1.0687475 -1.1047043 0.58995974 -3.4758692 2.0891812 1.6836971 9.186537 -6.7357755 -1.9751934 1.8558726 -3.8726754 -3.4567442 0.54080826 -3.7048407 2.6298513 -0.7847837 4.375878 1.041595 -2.4089072 0.33903185 -4.4342136
C14H10O6+H+ -0.11063169 3.3209944 0.17899989 0.82547337 -1.174787 5.1006665 -0.67227083 -2.953843 -1.34626 -2.1089237 -0.27457073 0.4876616 -0.8182873 -2.9120991 1.9604857 0.7306317 -1.4532181 0.8749355 1.0221435 -1.2019184 1.5176195 1.1952745 2.268935 -4.600517 0.9344489 0.5275767 -0.60702926 -1.0480201 -1.3217221 -1.9728334 2.4310946 -0.95559007 1.7686558 -2.5675058 0.81362504 0.67591816 -1.0607349 0.0130663505 0.5176649 -0.18431696 -0.08123992 -2.4400365 2.1639361 0.51602924 0.5068311 0.46308854 -1.2775952 -1.3734896 -0.02517776 2.7985785 0.5936551 -0.7129579 -0.7185008 -0.97085756 -1.3080016 0.9249097 -3.116801 1.2836257 0.22205211 -0.15893327 0.81491244 -1.4836679 -3.5577028 2.0745819 0.7501268 -0.87260836 0.16625813 1.3830693 -2.2778778 -2.0899076 -0.06347898 0.0039620656 -1.9645126 2.013183 -3.8104556 -0.63517904 -1.4785146 -0.28376982 2.886419 1.5378697 -0.25921533 3.044219 -1.0951853 1.6662401 1.971479 1.6277258 1.3997765 -0.47551998 -1.6171185 2.1570106 -2.1062667 2.162546 -1.1843107 -0.42411742 -3.1533504 -1.2632632 1.8370408 -2.1299627 -0.045368295 -0.921311
C24H32O5+Na+ -1.106351 -0.7100737 -0.49445677 -0.26093924 -0.36740944 -0.34213632 -0.48412684 1.2956922 0.43262714 -0.7067216 -0.040325895 -0.48046958 -0.15898718 0.65328884 -0.70259845 0.116689734 0.90156686 -0.6919598 -1.6080093 -0.61470985 -0.40019396 -0.057456017 -1.351576 2.4947371 0.2272549 -0.8730532 0.19167611 -0.16666783 0.38265386 -1.0853324 1.1398675 0.039651617 -0.0402843 -0.15937333 -3.4805098 -0.47350025 -0.12270714 0.20145579 0.60319877 0.045765787 1.021219 0.13672374 -1.2234594 1.6949902 1.6038069 -0.121142775 1.4926862 0.73303205 0.14473526 -0.59857726 -0.63790363 0.60867274 1.4545522 -0.5718137 -0.46021566 -1.4656074 -0.99737895 0.77091545 -0.30338663 0.014177284 0.38053185 0.010915945 0.0059350124 -0.19744895 -0.7056827 0.26058906 -0.05139772 0.93629783 0.15900211 1.0778584 0.8750413 -1.9198272 -0.6225099 -0.52254605 0.7377582 0.6974106 -0.8000324 0.2626764 0.32882974 0.05532573 -0.9659248 -0.7027377 0.44211596 -1.4836845 0.89000547 -1.4878131 0.51888937 1.4434885 1.1111835 -0.554586 0.2626627 -2.0278044 1.4155773 -0.50499725 0.8467729 -0.8432762 0.37334603 -0.039261937 1.2895745 0.156736
C15H10O6+H+ -0.65305597 0.1668515 0.8417335 -1.4709657 1.1476734 -2.0559115 1.4392732 0.95478344 -0.020020472 1.3339714 -0.5959875 0.91667604 0.9213355 1.5321202 -0.89809686 1.8276502 2.9852958 -1.4301873 0.59160113 0.10914352 0.19544402 -0.4482678 -1.0427971 0.6756864 -0.7824616 -0.8012059 -1.3304498 1.5840119 0.7155803 -0.83475643 -0.58597517 0.8381601 0.88145524 2.4617133 -1.488933 1.4048529 0.25167763 -1.3709536 0.1285855 1.7673465 1.2051522 -0.8430173 -0.059472647 -0.42055255 1.7037331 -0.5236554 -1.1759725 -1.8124087 -0.051120467 1.2852342 -2.5303917 0.058228783 0.59117234 0.7430006 0.5035325 -2.1921935 3.2715564 -0.0112582585 -0.8845053 -0.18903069 0.37144634 -0.096970834 1.0205607 -1.1739215 1.3442067 0.32568192 0.14751653 -1.96316 0.26977724 -0.5349621 0.1910464 2.2512712 2.5305932 -3.5366838 -0.6116597 0.56312996 0.025693055 0.6219664 -1.8060701 1.4229347 -0.9210985 -1.8886828 0.09721429 1.0848637 -0.47890958 0.9256799 -1.2819856 -0.92973673 1.2812886 -1.2273214 0.44213095 -0.39926115 -0.051944975 0.2098695 0.3881639 1.0849311 -0.50177896 0.36412612 1.4371498 -1.4832817
C37H66O4+H+ 2.2105095 -0.74064404 -2.8620734 -0.99979115 -3.6349144 -0.6920051 0.9807639 -3.5162568 -4.8133516 -1.3173249 0.8376788 1.3135527 0.95787895 1.214123 -0.8432138 -3.1535387 1.5796406 4.5130677 -0.7012336 3.0222723 1.7399379 1.3150041 -5.3940005 3.5488305 0.4472716 -2.1853302 -4.1965938 -1.3805083 -1.5649033 2.6658952 3.8811977 -4.9121737 -2.7814124 1.6831515 3.8707228 -0.80816185 0.054438528 1.0669187 -2.5554714 0.9751031 4.4346905 -0.9704683 2.2873251 -1.6568413 0.6576669 -0.6862836 -0.17530647 0.025773626 -2.6680586 3.3608303 -1.7754617 -0.27864698 0.9330378 -2.8277304 -1.558876 3.7085135 0.9236258 -3.5634053 -1.1654062 2.8064167 -1.7518729 1.7151356 -2.6281002 0.30231 -0.5919233 1.7491467 1.8395036 2.150721 1.4111205 -3.344652 -5.3485465 -0.052724943 -3.2100248 3.4625196 -0.63320845 1.93775 -0.7634641 -2.9313896 -0.48049212 1.8235112 -1.847141 0.7018109 -1.6103871 -0.68622863 2.860763 6.4863997 -5.343247 -0.9106312 2.709916 -0.84602207 -2.4930005 -1.8990638 -2.6442273 1.6785507 -1.1683109 1.5096456 1.1787881 -2.2723384 1.413483 -1.5925161
C10H14N5O7P+H+ 3.2040534 -1.5303732 -1.1303203 -0.5990841 -1.2426871 -1.2654498 4.635807 0.64770985 0.8804027 0.8249877 1.8618243 -1.0193398 0.059160456 -3.5389524 -1.1410667 -0.59756356 0.43370983 3.2373972 -1.692646 3.2777684 3.2933261 -1.5066484 -0.95036256 3.3322866 -0.9349371 -1.4090805 -1.5089418 -2.5567265 -0.7400329 4.483035 2.6085951 -0.933363 -0.48764664 0.6698422 -0.5780629 -0.38341022 1.554403 0.27003184 -1.0534497 -1.4466294 3.5796247 -0.361167 0.47345617 -4.455763 0.2789285 -1.2154243 2.169362 0.5784397 -2.5265613 1.5824442 -2.475185 0.071154766 0.13827622 2.1383762 -2.4664896 4.284766 0.44107312 1.6977317 0.8393979 -2.1517508 1.1296619 -1.1958333 4.0612307 -1.6919812 -2.1805415 -0.5965974 1.1500386 0.29011777 3.9205043 -2.2023697 -4.8132515 -0.55809414 1.227227 1.1082056 3.6039445 4.0314946 -0.08547653 2.462645 -4.1751757 -0.04059696 0.47395954 -1.8387177 -1.9324799 1.195538 0.7670494 2.337938 -3.978814 0.5777347 1.3291155 -0.40015256 1.3297182 -1.9855387 -0.69666415 2.2414088 4.117401 -2.282615 -0.39239174 -1.4813892 1.2032545 -2.4956503
C10H15N5O10P2+H+ -2.1581738 2.067778 2.611217 0.027415289 -1.032839 1.7264146 -0.094773844 -3.1493146 0.82696307 -1.3168578 -0.38460606 0.43043664 1.3437681 0.7611783 3.1501908 1.3252454 1.7413166 -1.7101442 2.0609267 -2.6332872 -1.6351912 2.6937506 2.1787689 -2.309481 1.5318934 1.6119739 -1.547216 2.0762131 -2.104764 -2.3076348 -1.1111239 -1.3052568 1.300285 -1.3963926 -1.1518855 3.1653228 0.023229629 -1.299494 0.8410823 1.6994361 -2.4764078 0.548683 0.44538677 1.8293915 0.95403737 -0.4209236 -3.3144534 -0.62006134 2.2619042 3.6858804 1.4825191 -2.286269 -0.3063206 0.016291771 0.09137878 -3.738213 2.2709816 -2.1943436 -1.648995 1.36931 0.70715433 0.33909768 -5.0257874 1.4327819 2.2121437 0.18114711 -0.09170357 -2.0848489 -4.9495625 -3.0864 3.1185184 1.668041 -0.3984807 -0.8269743 -2.957858 -1.1400857 -0.3411865 0.5155556 1.83997 2.4438655 -1.0455505 2.4290082 0.60252494 1.1400844 -0.09000145 -0.14627503 2.0138505 0.29303038 -0.32356036 1.1356355 -2.2943485 1.9119418 -1.4910326 -1.7199436 -2.8256166 -0.54762256 -0.29781187 0.09193776 -1.2230259 -0.5190188
C15H16O9S+K+ 1.1995171 0.5254098 -0.71410483 -0.34053537 -1.3530777 -0.29967108 0.034730766 -1.6221763 -1.8113356 -1.4103832 -0.6837346 0.4981613 0.9294173 -0.23298235 -1.8055172 -0.7317678 -0.31776968 0.23837268 -0.76201135 1.0576699 -0.5694062 -0.0073277554 -0.56316346 -1.0724189 -1.4963963 -0.116296805 2.7116866 0.20696148 2.6117826 1.0306107 -1.2031617 -0.39306712 -0.013829433 -1.1785359 -1.1647027 0.9339004 -0.63466537 0.24389325 0.4468945 0.1408886 1.3083717 -1.4335574 1.5295392 2.0048542 -0.57324904 0.042140555 1.2073195 0.23623312 -1.0426997 -0.4322836 -1.2372788 0.7429944 -1.3657616 -0.6944362 0.8679785 0.5508303 -1.7350754 0.9130848 0.7032005 -1.7387857 -0.13690934 -0.05191625 -1.1740131 1.1222209 -0.025747446 1.0041542 0.28932434 2.3915586 -1.340561 -0.44694147 1.5987586 -0.5585849 1.1720356 2.5572133 0.7153782 1.051828 -0.6319171 -0.47214895 1.7422981 2.4170763 0.40557534 0.9411643 -2.0678384 0.6947171 1.3347983 2.6712136 -0.14591652 0.7995954 -0.1298043 -0.58539134 -0.3526679 -1.1196632 0.065884724 -0.10473598 1.5600636 2.269758 0.14547755 -0.6283525 0.06991678 0.3319699
C12H20N2O3+H+ 0.66528165 -0.24676007 1.0568551 -0.14703293 -0.58587736 2.407168 0.47904187 0.14625195 -0.21460393 0.6065179 -0.91455644 -0.4564248 0.10425606 -2.8095992 0.10609059 -1.5250146 -0.68963355 -0.93152773 0.20173472 1.1226627 -0.04387166 -0.9350818 1.051288 2.22858 -1.1722963 2.2546148 0.44454792 -0.19444789 -1.4270376 1.8147678 0.6154938 0.5984205 -0.70221114 -1.262235 3.539195 0.32647786 -0.9770973 1.7681576 -1.9035195 -0.0631636 0.1396662 0.23807894 0.4964455 -1.4839875 0.48010662 0.5921835 1.1979063 0.05064634 0.21191034 1.7469604 1.6938913 -1.2727625 -2.124653 -0.6125914 -0.040387556 1.306053 -0.53787374 -2.4246757 0.00317288 -0.8102335 -0.46370742 0.47792014 0.06523494 1.5860128 -0.9077109 -0.7170255 -0.13937415 -0.09644809 -0.021742344 0.5198098 -1.8488616 0.74465847 2.0862966 -0.32860932 1.2286242 -1.1078383 0.8469065 1.2284821 0.26851836 -0.5856166 -1.1754053 1.0182709 0.6495801 0.43393472 -0.12836231 -0.13645257 0.12650643 -0.33210418 0.35217202 -0.032035004 -0.7337074 1.4183971 0.26783288 2.3905869 -0.44199845 0.0934641 0.51289004 0.62427276 0.53701216 1.8742558
C25H49NO4+H+ 2.688548 1.3713237 0.08906539 1.0226539 -1.7153486 -2.4971108 -0.7457534 -1.0034713 -2.4933019 -0.1182335 1.3231703 1.1312711 -1.7450169 -1.1801971 1.1027769 2.5110068 -3.184074 4.459343 3.755483 -1.6159844 0.9111543 -0.5542154 -0.4577367 -1.9787216 -1.1437435 -1.0381793 2.1784592 -0.70791155 -2.0137987 -0.7427079 1.2981882 -0.94939 -0.9099548 -1.7563761 0.0460755 0.7419065 1.1405514 0.26459846 1.8412652 -1.17535 0.4287962 -0.46473816 0.3383847 -0.0814494 -1.132994 -1.1030123 -2.634624 0.39494222 -0.24744071 0.36779088 -0.6631618 -1.9701809 0.80839777 0.05626185 -0.3790854 3.1045394 0.0027106984 0.81978345 1.3884058 -0.26036295 0.8617067 -0.5749562 2.3779032 -3.165572 -2.0895138 1.6545547 -0.23262472 -1.6285614 -0.9463525 -0.28104606 -0.2544909 -1.4665823 1.3099666 0.11035367 1.4622225 -3.136144 -1.1512269 -0.6570834 -2.0876417 0.8897593 2.2560549 -4.3823667 0.6919708 -0.4518041 -0.269617 1.2956733 -1.785119 -2.4554398 -0.92588913 1.8052297 1.2363236 -0.2845915 -1.1625806 -1.5860237 -0.11108032 -0.29081404 -1.0800697 -1.3847806 0.06338052 1.0587724
C9H14N4O3+K+ 1.6640527 -0.7736188 1.0110048 0.96630853 -0.7603369 3.2665126 -3.193712 3.6794739 4.246155 -2.776889 -1.6842648 -2.8666146 -1.2408162 0.29556048 1.24154 0.45394933 -0.03175916 -1.551698 1.5698551 -1.5463125 -2.5611846 1.0834837 3.1204343 0.3466508 1.694719 0.6108436 1.9157509 0.22844315 -1.9672444 -4.927618 -1.2790614 0.32437038 -1.1022863 -4.532861 -2.832952 -3.587341 -2.2620814 1.7871308 -0.26706493 1.7839957 -2.3830361 -3.745843 -1.7207527 1.3163451 3.4883235 -2.1553376 -1.3202467 0.5475678 0.15314008 -0.08696121 4.113632 -0.15974985 0.7304229 0.16828285 -0.9888827 0.13085046 -2.9402177 -0.5484742 1.449908 2.8844903 -1.4785104 -3.1287048 -2.0350785 2.0376248 -1.5742431 -2.580011 -1.2674267 1.8987966 4.7992616 -1.8185679 -0.016276818 0.06557168 -2.3005931 -1.5275165 -0.08565082 -0.68530715 -0.80575573 3.1271253 0.6505393 -0.6623145 -5.2951155 2.8764684 1.4049443 1.0337969 -0.7342116 -2.2754974 0.37569717 1.337867 -1.8551776 2.3984778 -3.8913727 -0.25577068 -0.70043945 -3.533139 -0.14232077 -3.0112054 0.22992142 3.2542698 0.34001425 -0.79952013
C26H52NO7P+H+ -1.3588068 -0.31866947 0.8603981 0.7075462 -0.80943215 -0.3511014 -0.54762715 -1.8210642 -0.71481204 -0.21968263 0.17062937 2.1534188 1.3704425 -1.3124452 -0.16807681 0.39102662 -0.022393564 -1.4786083 -0.032435507 -0.59813946 -0.39944494 -0.84069836 2.2955809 -2.0201275 0.571332 0.36324978 -1.9020133 -0.26170582 -2.3084512 -0.34407043 1.1846814 -0.00845191 -1.5700634 1.7175251 0.54403996 -2.7283452 1.6236954 -0.28521138 0.25423917 -0.6097467 -0.16198836 0.6152091 -0.6325699 -0.2096984 -0.46887636 1.0464073 -0.35294312 1.6344408 -1.2290151 0.17069322 -0.124665044 0.9007892 0.4530206 1.115929 -0.17241244 2.2368088 -0.43231595 1.3612792 -0.9800191 1.545341 -1.055704 0.6012215 -1.5101314 0.628313 0.46766847 0.40862435 0.11114662 -0.5496967 -2.0050268 -0.8154103 -0.979937 -0.3671855 -0.44663623 -2.2874246 -1.4059558 -0.65353054 -1.4636317 -1.1640611 -1.5565711 -1.8659378 0.8187325 -0.018301088 -0.34221202 0.7155769 -1.2848893 -3.8496883 0.11980796 -1.3522996 -2.0411255 0.3790329 -1.8365079 2.7896454 0.810417 -1.5189874 -0.5564593 1.1402798 1.0393821 3.219564 -2.4155693 0.68606967
C24H50NO7P+K+ 1.2693703 0.16936854 1.9956591 1.2314501 -0.9587781 0.79907334 -2.76299 1.1817154 -0.5110107 -2.0331705 2.0418873 -1.3796962 -1.7185678 -1.2565838 1.054758 0.0053101983 -2.6952503 1.2005202 1.5463907 -1.8619186 -0.17147326 -0.04523024 0.19902243 2.3915641 0.2597132 0.20820785 0.6432945 -1.2347492 -1.328144 -0.12823607 2.8821692 -0.2050933 -0.35579044 -3.1281116 3.7906318 -0.9307528 -0.42444098 1.7828326 1.269024 0.57908607 1.8358119 -1.4211229 2.193166 1.3453553 0.1998692 -1.3162961 -0.32689965 -0.67188036 -0.41612607 1.6810575 -1.7151325 -0.40490746 -0.35997847 0.26876348 -2.4782355 3.541548 -4.775322 0.05813998 0.5988467 -1.8058894 0.515351 -2.3378963 1.7069589 0.5932513 -2.3750758 -1.2369989 0.1802262 1.0300109 -0.7564737 0.102101356 -3.1424325 -1.1510093 0.1616757 -1.432115 0.12927173 -1.0500737 -0.19733566 0.5828149 -1.0494028 2.3513424 -1.818428 -1.9578704 2.7074025 0.88813573 -0.2426791 -1.9628612 1.880719 0.8130237 0.69095737 2.104869 -1.5576472 -1.4373251 -1.1631519 1.0804825 -0.48335883 -1.6800206 1.5276284 -1.7874118 1.5379148 -0.7381952
C17H14O10+H+ 0.027924595 -0.20068115 0.6960137 1.3602841 -0.9258416 0.019284068 0.99407756 0.22405618 -0.18009056 -1.1818478 0.44151506 -1.6830989 -0.7138462 -0.555859 -0.21046145 1.2352719 -0.8184115 -0.29999897 -0.82349694 -0.26515034 -0.07864145 0.14554673 0.78816885 -0.10709157 -0.51674336 0.30876374 0.3460331 0.3955935 2.5048478 0.41672543 -1.1548702 0.25952154 -0.43632004 0.4456912 0.40733916 0.4515013 -1.9751579 -0.21252999 -0.35255352 1.6189922 0.5403185 -1.4407904 1.3207332 1.5097479 -0.14552493 0.91432905 0.042717457 -0.19891328 0.25215116 -0.035745237 0.25786942 0.48057806 -1.1651236 -1.0422305 0.7421552 0.1851654 0.4601839 -1.5748405 -1.5693052 -0.66596335 -1.6493992 -2.053912 0.46635208 -0.080967724 -1.088422 -0.31762415 -0.6526709 -0.24952683 0.8313391 -0.12293897 0.2928278 -0.13753574 0.19521481 0.66677684 -1.3671033 -0.20662092 -1.0196767 -0.15285847 0.25600097 1.3177747 0.9778105 0.1324829 0.2969795 0.18150684 -0.35743806 0.7539848 -0.7073526 0.9229858 0.82431066 0.38044924 0.24650759 0.43290302 0.17726524 -0.7281193 2.398952 0.8379263 -0.26977384 -0.6564262 0.63443476 -0.07056479
C10H16N5O13P3+H+ 2.0228877 -0.13745692 1.2245525 1.4545846 -2.3912158 -0.2985204 0.57072467 -3.2537684 -3.9980152 -1.3740892 0.1904438 1.6879758 -2.2935877 -4.9073434 0.14584419 2.273921 -2.2685506 2.1283085 1.1677862 -0.74958533 1.076237 -0.3973202 -0.7870096 -1.0025169 0.64175516 -1.3749872 -1.3422879 -0.61218953 0.7589907 0.20999248 1.9491895 -2.8291142 0.63190144 0.006413934 -1.636832 1.699329 -0.600849 0.19507837 0.2590513 2.288366 3.3867965 -0.68794763 3.320323 1.9568725 -0.31927842 -1.6318249 0.29311758 0.16938096 -1.4720635 0.37512845 -2.8301735 -0.20362052 0.80029494 0.35562578 0.39025295 2.7061384 -0.09557448 0.16495383 -1.2470815 -0.42200893 0.63541126 0.5749852 0.5709526 -1.9889954 0.22221252 0.6053261 1.1170928 -1.1249303 -1.7526332 -1.3723285 0.3514321 0.5796814 -0.77639216 0.04949297 -0.528976 -1.834072 -2.6343014 0.5139458 -1.7870649 2.9575508 1.627237 -1.9380054 -1.8362571 -1.0494694 3.296934 -0.20675406 -4.607397 -1.2144661 0.52304447 1.1660888 -0.83575636 -2.6105897 -0.51097846 -0.43402135 2.3191123 -0.91833544 1.296001 -1.8286955 1.5521778 -0.0035549495
C9H14N4O3+H+ 0.53325754 -0.9542604 1.2493964 2.9376462 -2.6384575 2.10089 1.0345 -1.9466869 -2.44056 -2.0256133 0.54799837 -0.48157078 0.81687784 -1.0118635 1.6856083 -0.4866604 -1.5632111 1.8041378 -1.0563086 0.64051324 1.0021044 -3.1997147 -1.3544592 0.7009452 1.3214456 -0.46633455 -3.5194974 1.884986 -0.72322166 1.6957333 4.3842278 -2.2683585 -0.23936725 -0.24934295 1.0504895 0.38024142 -0.43724993 0.9366473 -1.4936198 0.71616083 2.4111865 -1.4682456 3.5967424 0.47431973 -1.661105 -0.37040117 -0.356051 -2.7867026 -1.1998832 2.8491402 -0.84128475 -0.7872206 0.8541637 -2.393292 -2.5612507 1.7427945 -1.0049503 -1.9881552 -1.9875998 1.0362173 0.9868313 0.37368408 -2.17125 -1.0884917 1.1273817 0.04508171 0.8285703 0.82542455 -2.198018 -2.139939 -2.7237375 -2.2602916 -3.4374316 1.3477366 -1.3358345 -1.2129084 -1.82205 -0.8799685 0.26089546 2.1757243 0.44237453 -0.5185642 1.0948662 -0.34393728 2.369992 0.40863147 -1.7331182 0.5696123 3.321205 2.451815 -1.1190417 -1.9524348 -0.19295105 1.8745852 0.53571457 -2.1030674 -0.5192981 -1.9786863 2.9238822 -0.8285579
C11H21NO5+H+ -1.6274438 -2.1063774 -0.8310819 -2.0128312 1.5285841 0.66277087 1.8896921 -0.5841775 2.684931 -0.006151704 -0.8350724 -4.4503145 0.14197724 -0.35037848 0.3280857 -1.6649535 2.2555182 -2.1258059 -3.811745 1.8914685 -0.10102951 -0.854762 1.113448 -0.51739293 -0.73848623 -1.2391212 -2.2073436 1.9089959 1.3721244 0.24018498 -2.848247 -1.299519 -1.3658667 0.29884073 0.55675036 -2.794626 -0.79256696 -1.1687013 -1.0431331 1.3462236 -0.5633928 0.28255028 2.846043 0.5146142 1.4508117 2.9631305 2.2417924 -0.064918526 0.2627151 -1.1254303 2.1350079 0.05472934 -0.070862845 -2.0798626 1.3211006 -2.0943365 2.8307972 2.1569574 -1.6882898 0.2421422 -2.004151 -2.3172605 -1.164096 2.1647825 2.3005612 -2.1176763 2.246742 -0.64771193 2.111403 -1.611053 1.9132267 0.5151096 -0.92377913 2.1425188 -1.4782017 1.2464585 2.3857296 0.100698866 3.3681092 -0.89528894 0.4086066 3.0934064 0.26264408 0.36156148 1.0548167 2.1595516 0.45129094 1.0849347 1.7176347 -1.1775799 -0.17417903 0.6305955 0.70669717 -0.072127596 1.8708068 -0.8344534 -1.0327227 1.4346523 -0.05370053 -0.8566759
C9H15N3O2+H+ -1.6540841 2.6908145 0.99843943 0.16234013 3.8664832 1.8026226 0.45413247 3.2984905 3.2473736 1.3298867 0.31750214 -3.4766722 1.7457228 3.5313752 3.0415294 1.7851207 -1.1796503 -2.3211384 1.1185346 -0.6173479 -0.8897692 0.27979743 0.53993195 0.44712764 -0.59998524 1.390961 -0.97265804 1.5863698 3.223758 0.10608119 0.08117073 2.394436 0.75538844 3.0351918 2.8198204 -0.22038795 -0.5209741 0.4065136 0.056032624 3.0742822 -0.23245272 -0.6076706 0.66827327 -1.9797974 -1.0436581 0.7413064 -2.4983463 -1.952767 -0.3578182 2.331866 -4.6374397 -0.46218792 2.712493 -1.7493347 -2.1571493 -4.615503 2.312269 -0.7309081 -1.1359164 -0.09469075 2.4233854 -4.641552 1.5989461 -3.1659284 -0.8658771 -1.7877861 -0.04115457 -0.59582317 0.043020274 -2.8779771 -0.57755864 -0.89297503 2.5296557 -5.649561 -0.1645249 2.5165725 -1.4503665 2.0109396 -0.9171879 -0.06181847 0.12535562 -0.79831123 0.12115825 -0.50866646 -0.5537986 1.4911766 -2.431087 1.057665 0.99437994 -0.78329754 2.9943867 4.25069 0.880755 -1.4685245 2.3998563 -1.1836354 -0.9220921 -1.8859917 0.19165148 -3.7791436
C25H47NO4+H+ -1.6320292 -1.3051105 -0.98823553 -1.1582768 0.5882168 0.51809704 -2.4047623 -0.35994834 -1.3457612 0.104940936 0.7317744 -1.6346567 -0.28841054 0.2499139 0.5792852 -3.0511181 -1.0225301 -1.0331211 0.35614645 0.3641318 -0.06023545 0.8940822 0.6137012 -0.9628138 1.0299022 -0.05847094 -3.1205387 -1.5589461 -0.8566116 0.22151473 -0.7333553 -1.5385975 1.1895605 1.545327 0.38276112 -0.5290835 0.365228 0.14760214 -0.3139607 1.6120348 -2.1364381 3.2803018 0.90250826 2.2195523 -1.8192477 1.3307775 2.3543992 0.088753305 0.38039285 -0.83992684 0.040064413 0.014065862 -0.94503963 -1.2768836 -1.2087188 -0.36041856 0.5782198 1.3610278 -1.1816763 0.8084051 0.92019385 1.0596423 1.0348234 1.3643605 1.2765224 -2.3840642 1.3468306 -0.40588215 -2.657164 -0.84097415 -0.33919796 -1.8162142 -2.548243 -0.017198196 -0.37155795 2.0081482 0.82852644 -2.1629128 0.1634142 0.26335454 -0.09401448 0.8429393 0.72129005 -1.1693934 -0.9297502 -1.797099 1.6067568 1.5915102 -0.054859962 -1.2020242 -1.4215343 0.9524385 -0.048662454 1.9748019 -1.6068666 -0.2101972 -1.0601649 1.8178004 -0.41772765 -1.4364471
C6H12O6+K+ 2.4733078 0.36195993 -1.7418742 0.95395404 2.4894233 -2.428904 3.3309321 -1.9987869 -5.177261 2.8429909 -0.28057307 5.0102744 -1.0108585 1.7370794 -4.8251576 0.6314801 -0.52901673 -0.61781406 0.3632846 1.0417421 1.1703895 -1.0639572 -2.8443425 -0.8724844 -0.21466042 0.35231405 -1.1132869 0.19073312 5.2764378 1.4372388 2.607616 3.311177 2.3895044 6.2788 5.0922327 4.973987 -0.466969 -5.437231 -2.8922563 -0.40009925 2.582069 -2.415005 -1.3624697 -2.8926008 -2.5954592 2.5847163 -0.13268343 -2.4452565 -1.0381755 1.6626205 -5.457998 2.8025038 -2.510961 -1.6413554 3.784423 0.22390199 1.6694219 -2.9413464 -1.3534054 -3.9041467 1.7631315 3.3147094 1.9487102 -4.7582784 1.4158552 2.0421557 -0.05438066 0.6210064 -0.882817 2.5922613 -1.1312367 2.87362 0.64106226 -0.7608917 -1.9958977 -2.2849908 -3.680524 -4.9489884 0.11950293 1.6174932 1.0064329 -1.1392394 -3.457271 -1.7400678 1.9905965 0.64266217 -2.526388 -1.6057566 2.8650541 -0.7936965 0.2107074 -1.2991021 -3.3461335 3.8126218 -1.2461367 6.479477 3.7555928 -7.576991 0.963223 1.322582
C28H33O14+Na+ 0.47114587 -3.075707 0.9580471 0.64858454 0.052828554 -4.2175775 -2.1469753 0.2703301 -2.1700237 -0.014803005 -0.4211463 2.3449554 -0.4486167 3.9132206 -0.93026924 1.4081607 -0.013587046 0.6988406 2.5925648 -0.31748027 0.7648504 -0.2807843 -4.155369 0.015860278 0.80025494 -0.3482954 -1.569322 3.01291 -1.3227249 -2.6105933 0.55460054 1.0685751 2.8732748 1.3597193 0.5300539 0.8948415 0.5865947 0.45337093 1.0576138 0.668595 -1.1356611 0.1890337 -0.64217556 2.1175842 -0.46135253 -2.1542146 -0.21201901 -1.9896041 -0.052627005 -1.6425072 1.340211 -1.8409457 0.22647485 -1.1794118 3.4037344 0.6063167 4.382647 -3.905724 -1.7597858 3.0915375 -1.5961295 1.3650627 -0.54405993 -3.538203 1.8986341 -0.743383 -0.26420802 -1.1299162 1.1819801 1.1953427 -0.09933211 2.0752428 -2.0026937 1.3485451 -0.68435985 -3.3890576 0.42655045 -2.137634 -1.2022436 0.26370832 0.86977994 -1.9751817 1.0875388 -0.6257855 -1.741423 0.66167825 -0.92581314 -0.022718843 -0.5433683 -0.5061575 -1.3283987 -1.9465961 0.043430284 0.9358729 -2.7290528 2.1326017 -0.2201541 0.5857469 0.19251485 -1.0126096
C21H22O5+H+ -0.085155964 -0.08453557 -2.549444 -1.9670055 1.6173894 -1.3721339 -3.3812442 -0.6598818 0.2479568 3.1846626 -0.09411105 1.9184222 0.5110987 0.41263416 1.1566486 -1.6957536 -1.7124077 0.47509587 3.8472538 0.4163999 -0.69626606 -0.34288245 -0.32499197 1.2456604 1.2704828 3.4688919 1.4200386 0.29958647 -1.9219233 1.5234547 -0.2653417 0.41887534 -5.4553213 1.0923697 3.8883133 -2.4110305 0.14238764 1.3268927 -1.5536978 -0.6329504 1.006703 1.6092373 0.5390361 -1.1671157 -0.2505277 0.47511923 -0.99961615 1.9948754 1.9684633 0.9287741 1.4075698 1.2747366 -1.271675 0.82775617 0.060924888 0.40570322 1.1498536 0.16214271 1.1296936 1.2336053 -1.4985254 2.5207527 -2.4080722 -1.8686543 -0.0988957 -1.3850229 -0.0044752103 -0.4669512 -0.22758898 0.0075706257 -1.859294 -1.0310342 -1.0257494 0.2145872 -1.524991 -2.4755213 -2.794835 -1.2084891 0.44968608 -2.4666688 -0.22956751 0.8925477 -0.44931307 -0.01758007 -0.64344245 0.8119968 -1.0004511 -1.623321 -0.7867257 -4.3318777 0.53435796 2.2533338 -0.54156154 -1.5025012 -1.1822379 2.7667522 1.4854223 3.9530344 -1.1056505 1.518877
C26H30O12+Na+ 1.3137445 3.4015567 0.5195756 0.668373 -0.5516724 0.086745284 1.5454292 -4.0203876 -2.7416704 -0.57231665 2.4151342 -0.48258317 1.4731959 -3.1377187 3.4725854 -0.5055882 -4.034065 1.9437203 -2.2647197 0.48894778 1.9602925 2.816557 -1.4127927 -1.9048291 -0.1462663 1.9065607 3.5201788 -2.4267457 4.1580386 1.836711 -1.8754785 -1.8672081 0.8022553 0.6752931 0.20952769 1.7059081 1.8130492 0.90678185 1.6724267 -1.8249525 3.54689 0.6775421 3.2971952 -2.0052898 -3.5135477 -0.5799816 2.2475598 0.66627717 -0.34692118 -0.3542005 -3.3777494 -2.636322 -1.7024214 0.66473746 -1.7742814 -2.2185276 -4.4476695 0.778731 1.5254807 -3.152243 3.9885669 -2.1287751 -1.9706477 -3.4379232 -0.2841212 -0.0711628 -1.4361136 1.1640801 -3.7139797 -1.5514618 2.0264878 -1.2313807 2.4857516 3.364723 1.020798 2.3505616 0.2998086 1.8229281 1.1040347 3.3101723 3.0640416 2.2945452 1.1963677 -1.3822743 1.5516844 3.530746 -0.9875239 0.11384361 -1.1058767 -0.96888494 3.218659 -0.067919455 -1.9201329 -1.5173227 4.1457343 -3.1882455 0.27524772 -6.7814674 -0.06184425 0.15224504
C9H8O4+H+ 0.2096313 0.45525673 0.26836133 1.33547 1.7384945 4.2891483 1.1141543 0.050341383 -0.17692788 2.6850731 -3.0669477 2.1147013 -0.33406457 -0.79261327 -6.280505 -1.1149642 -0.52618617 -0.6232598 -1.7240388 0.95157784 0.47471792 -0.5858665 0.09536621 1.2268475 2.1259956 -0.120373 -5.2679896 3.0528278 1.4183471 -2.3546815 5.8334303 6.9781284 4.0588603 -1.1349337 4.176093 -0.57799333 -0.86535794 -6.200133 1.2446436 -3.2853448 -0.11834467 -2.3619592 -0.85941255 -1.37548 2.21723 0.83634686 -5.0866203 -1.1435353 -5.2110596 -1.7848406 -2.468033 2.5089216 0.916097 -1.6933789 1.9960308 2.916654 -2.3473332 -0.70164526 -1.3246031 -3.2516868 0.3607059 -0.6934894 1.8973988 1.9583948 5.321763 2.435638 -3.692578 -1.1674373 1.8872603 1.0382763 0.24056028 0.3286859 -0.74344283 -6.7094536 -6.172795 -0.98803735 -1.8093135 -5.1308913 2.2726078 -1.305023 0.27810642 -1.1226809 -2.1868625 1.5705663 -4.0904236 -5.2246847 2.235084 -2.0978978 1.844431 1.8552988 -3.8089128 -4.157262 -5.838405 5.038654 -4.078532 2.3224971 5.442509 -2.1199124 -2.1986854 2.8134875
C12H22O11+Na+ 5.6142216 -5.6653953 4.518597 7.026955 2.8219256 -1.5148876 -0.22691484 0.32252216 3.4932113 -5.826652 0.64671975 -2.0412576 0.16954716 -2.758441 5.132064 6.73766 -2.006023 1.4257815 0.11439364 0.15680642 3.5983918 -8.797622 4.133362 -4.9624615 -0.15396164 2.1538026 -0.96613044 0.8729772 -7.009119 -3.224765 4.672349 -1.1428362 1.0244944 -2.3633335 2.3991833 -0.9562116 -0.10623434 0.34314504 2.7519236 -8.585756 -0.21935146 -0.9174328 2.3120255 -5.551578 -3.3010707 0.267698 2.4332466 -3.1920018 -2.0183246 2.52933 4.0950036 -1.4373232 -3.568953 -2.9787514 3.6644845 8.093449 -3.243236 0.6908526 0.9301055 2.037678 -0.56687456 1.6856232 -6.2124853 -0.65057635 0.049969923 -7.1937294 3.3788016 1.3157537 0.8826609 3.074466 -1.7345705 -0.7878705 -3.2782264 5.89142 1.830874 -8.063733 -1.9235936 4.9627247 -0.76014364 -1.9110036 1.553679 0.25364944 6.0758243 0.7510741 0.39850032 -2.9284372 -3.129241 0.17146696 -2.6338165 6.5290055 -2.3898702 -1.6205049 4.8180523 -3.131283 5.0392103 -2.2796907 -1.2151506 -2.0085332 1.3740764 -1.3435552
C21H36O3+H+ -0.24085706 2.2963815 -2.50591 0.6097623 1.8490713 -2.1378624 2.4838324 1.4139805 -3.7886083 -0.47948754 1.0577983 -1.0700436 -0.9777947 4.1661286 -1.6007819 -0.12469093 0.83270735 1.9402707 -2.4474742 0.5100628 1.6866708 1.3610711 -0.5869529 3.350736 1.7009491 -2.6335595 0.96102804 -1.8417795 3.0763004 0.034333587 1.4204621 -2.3210332 0.33720633 -0.6063345 0.7015666 2.4803455 -3.9180527 -4.3976655 -1.5036113 0.6405324 3.0448017 -3.4408038 2.2467778 1.1215103 -2.253754 0.6690414 0.98040646 -1.0217224 -1.8640614 -1.6021122 -4.2028403 3.0964952 0.12403155 -1.0141822 -1.7540957 -0.07608877 -1.6370416 -0.687801 0.5104921 -2.9806998 2.0881279 -0.44151402 2.1970215 -1.1797253 -1.6425685 2.7570834 2.375992 -0.050765213 2.18065 0.6454584 -1.1102513 3.0667026 -0.3346336 3.2691143 0.046587776 -1.1932782 1.3420838 -2.2738118 -1.103219 2.0375571 -1.4514799 -2.8813655 -0.15586108 -2.1178098 4.626295 1.1626037 0.8686696 -0.06595388 4.1777334 -0.60553795 -0.56724346 -5.515755 -0.1504001 -1.4744737 2.4053462 -0.63556325 1.9954146 -3.193244 2.1887984 0.014339309
C13H13N3+H+ 2.5217032 -5.796545 -0.09375041 -2.27368 0.082452305 -12.561695 4.460863 2.1052976 2.0989268 5.3034124 2.050212 -0.70629793 6.2455792 5.483626 -8.441866 -4.7517233 6.5468855 5.286377 -0.54379284 6.1616187 0.61206025 -4.731402 -7.6827917 16.551268 -6.851637 -3.686165 -2.4036536 4.321422 0.70737165 3.2996643 3.4571762 2.7439742 -1.6589755 1.7706648 1.1293339 6.3102074 4.8922615 -4.714296 3.5997064 -2.1811488 6.2121153 3.0678298 -2.8192556 -4.1945934 4.058278 -2.5587592 1.4372941 0.035214964 -7.9482207 2.3667119 -13.302766 0.44599393 4.064177 -1.0502588 0.6327188 2.778795 6.106204 1.5715014 1.4121375 -5.615689 2.5746028 3.5849595 8.154097 -5.7756224 1.9780364 7.946347 3.472629 -3.179277 -3.0239885 -3.3202212 -6.284314 -2.918233 4.5984955 -7.8629646 7.6916656 2.8549945 -0.69154966 -1.3004813 -10.010799 6.418331 -1.7260046 -11.461675 -1.6063712 -0.63597906 -3.7007453 6.2658052 -4.130657 2.4670172 10.678542 -1.905896 0.8737259 -12.064001 -6.8471494 5.337295 5.8719015 2.2335484 -2.6447315 -3.771591 3.5023034 0.5360417
C14H28O7+H+ -6.2646136 2.3993313 2.0599458 -0.97919977 7.7394295 -2.8170583 -1.8052 12.179629 14.7460165 4.330958 -3.7858024 -9.222927 5.735064 17.147913 2.1068025 -1.3247689 1.4012913 -11.0564375 -6.2615657 -0.22618043 1.5812857 -1.9368427 4.8854322 0.34241566 0.66729456 4.5513487 5.73084 7.4499173 3.6798182 -2.806753 -4.4745917 4.551246 -5.4657245 4.2490287 -2.8268838 -1.8061887 -1.2463217 -0.35128835 3.216285 1.4023019 -5.5345197 -4.3243365 -9.190877 -7.561099 -4.0439935 3.4565148 -3.902633 -3.097074 1.1686572 -0.10826441 1.7723607 -0.50760627 -0.86317223 2.2884545 -5.2552724 -10.057063 -1.83758 1.2743521 -4.3977466 -0.87550783 1.3395948 -2.74327 0.26785338 -8.119014 0.9495176 1.5831485 -9.658786 1.33164 -1.5650615 3.3882046 0.4637905 -10.857081 6.8542123 -7.3423514 5.5532455 6.072151 -5.4060845 3.562974 -0.037930068 -1.8799229 -2.9456663 -2.4033792 4.2726374 0.059285622 -5.359186 -8.519318 4.8430734 6.5814223 2.7837355 7.4813333 11.951526 5.4453654 3.1276696 -2.8176472 3.1670046 -1.3357465 -5.78803 3.114765 -0.050445598 0.8364357
C12H22O11+K+ 15.462587 -3.283086 0.58997244 -1.1033721 15.509409 4.6979046 -1.2989538 6.895876 -3.5027077 8.879443 -10.999532 1.8070402 -0.6686838 -3.004475 11.114881 15.433061 -8.966436 -17.14672 7.806543 -2.4861183 13.217298 22.4509 0.12778361 -30.18247 15.014663 14.459569 2.568249 13.410433 0.34008098 -42.02977 -14.022468 7.390988 5.563907 15.878058 -10.744965 -6.4428296 -5.092233 1.076208 -12.415656 6.4438963 -5.8515997 -15.080033 -15.554748 -14.476351 5.843033 -21.035448 -4.490028 -1.1578387 1.5988779 6.98835 25.293259 -11.158927 3.7317586 12.945548 12.30823 -13.104534 9.987318 -16.842743 -7.8247013 18.240965 -11.640862 -8.518372 -23.270859 -21.51963 13.408317 -18.821934 -10.224989 0.6201222 26.813438 -16.757586 0.048569545 14.956152 -5.027228 -8.258512 -8.404384 -11.551848 -25.141827 8.554301 -5.1215363 -5.9710774 -7.1554294 19.047337 6.1274996 2.1306143 -11.847208 -0.5023102 -37.98117 -8.495138 -32.66814 -3.2521327 -14.3404875 17.076853 -15.961524 -25.149202 -6.382915 -3.1551294 4.017791 12.136363 -8.95643 -17.609713
C15H18O10+Na+ -12.255172 4.5965357 -0.8263414 -0.4791955 -7.549161 -11.671264 -0.6825318 -11.938837 -2.682901 -3.4795046 7.66695 -2.9768538 2.3591259 -2.1030018 -13.698683 -15.423546 3.3053203 17.023064 -7.236228 4.9118643 -8.979983 -22.54582 -6.64441 22.104578 -15.901284 -13.52781 -1.0592687 -4.4895973 5.1622825 38.8455 10.185683 -7.7008367 -10.811551 -9.756059 20.570581 3.9037325 2.7653954 -0.89394414 7.6206355 -4.0607567 10.549748 11.11337 20.059101 8.699863 -8.943675 16.321348 1.2326559 -1.421288 -6.8032827 -5.022149 -25.857635 11.167937 -0.6553506 -10.643543 -5.6992464 14.512951 -7.334092 18.705717 3.06077 -20.744389 1.3780236 9.474046 20.13034 14.894919 -6.160503 17.28238 12.322987 3.3311732 -27.922262 17.129614 -3.0686464 -11.86359 8.569355 9.723537 6.1936603 6.578135 24.757841 -11.603788 6.716251 7.145997 13.185966 -18.109003 -5.68786 -4.0893407 18.165682 5.7769685 31.715494 1.2453129 30.923096 3.6429238 21.855518 -15.114725 9.9394045 24.778992 7.437707 11.154212 -2.7754118 -13.717417 8.460516 15.688174
C47H69O8P+H+ 2.5128658 3.4646869 -3.224393 -2.698628 -2.6317296 9.023531 -4.3910837 -9.216821 -6.066247 -8.763437 3.8765986 6.7074556 -10.856741 -19.015749 6.4804683 5.2891016 -4.2208586 4.252992 3.5310962 -6.613096 -2.8422697 8.022424 6.670923 -11.837961 2.5316675 -1.1601933 7.122916 -14.251913 -6.3961706 -0.08848298 -6.9802394 -8.784094 -0.49555078 -7.263729 -1.1740469 -6.874503 -2.1024356 5.619078 -2.125727 1.5171937 -4.1783943 2.5062954 4.2416725 9.127087 -0.8776469 -0.3822665 7.897764 4.924276 9.802554 -4.334251 16.506857 -2.8219037 -4.7109027 2.930418 4.531787 3.5930943 -3.0379953 4.5015492 3.6354792 -0.6271774 -2.9730809 -0.8169865 -6.26413 11.221398 -10.2638 -7.0223417 5.309775 2.864146 5.1886587 5.4133177 5.1162577 9.492095 -4.2538743 18.61587 -2.061982 -2.6237593 12.556605 3.1109831 6.7735496 -5.924951 2.8851604 11.932049 -1.6769178 -3.3174925 7.3049645 0.55056834 7.6769757 -3.2296994 -14.47746 -2.4470577 -0.5415311 8.28342 7.885124 -6.4018836 -5.3315606 -6.496479 3.9493592 2.6283278 -2.8693979 2.4905431
C35H64O4+H+ -2.0492413 -2.0956333 6.291183 4.809023 2.1748557 -1.8179877 -3.0551205 2.5632012 1.0487036 0.07054496 3.2912655 -3.8834093 -5.9169874 -1.1324356 2.4009037 4.430812 -4.3850975 -4.59983 3.1847467 -8.053769 -2.0472643 -0.024833081 6.588642 -0.727598 1.0395849 0.25862268 9.825385 0.9496551 3.233754 -4.0036173 -5.715218 3.195332 2.559065 -6.2508492 -2.1620119 5.144139 5.0284686 -2.021535 9.45507 -1.0380422 -3.7136955 3.3591669 0.7558612 10.0365 -2.0930111 -2.0925124 6.140042 1.3806276 4.6959496 -8.335104 -3.1071994 -1.8010285 2.1632493 3.8103228 3.9267378 -5.899057 -5.123427 6.4658475 5.1667266 -6.097505 7.8721666 1.6369011 2.7295513 -2.749518 -0.43769082 1.2996742 0.13851798 -7.311536 -7.75183 1.437129 10.468953 -0.08266858 1.2543199 -7.941782 1.3254881 -6.8353033 -1.858684 1.0723811 -2.2355776 4.776092 2.397491 -5.7594705 7.5275216 -2.0217392 -2.3330011 -9.424576 6.7898483 3.531354 -2.3389168 2.2036042 0.63885796 -6.289649 1.2897524 -4.52696 3.5267968 -7.712575 -2.7213445 -2.599776 0.52828205 4.843125
C15H22N2O4+H+ 6.7842155 -8.429029 5.0114627 7.968667 7.924202 -7.746636 -9.78268 -3.418251 4.2066135 -7.4564137 -5.3927836 -5.045501 0.5717012 -5.3369565 0.6612079 3.0406747 -3.3549523 0.5353036 -3.4222608 4.0344815 3.3498383 -9.574711 -2.6104488 -5.942792 -3.136313 -0.23930888 1.5026549 4.787294 -1.2597156 -6.834107 -1.9046423 -4.3298974 -7.806339 -3.4013343 8.962892 -6.0548086 -3.2935102 7.5763445 8.348116 -5.2950997 1.0947065 0.38565102 4.5515676 -2.841406 -6.4199886 -2.9411507 0.6819812 -6.351864 -4.715135 -3.3046136 8.167399 1.0355142 -5.6284537 -6.8485417 10.230464 10.225167 -7.2378125 1.9686339 -0.4036996 1.4015151 -12.189957 6.7776265 -11.101726 0.5496694 3.9070938 -5.5469065 -0.032897137 6.6980696 -4.7451096 15.242444 -0.85283023 -6.3020444 -1.8188764 14.398943 -1.651216 -6.622535 3.2763882 2.200888 4.395728 -0.45079413 9.039543 4.017705 8.137242 -3.304345 1.7292372 1.3596556 2.0836942 1.1608181 0.36693034 17.259521 5.1355186 -4.200957 0.84463996 -4.0051246 7.249707 3.172857 -5.2348285 -2.591156 3.5025897 4.4917245
C18H32O16+K+ -5.54798 3.2326453 -6.624526 -8.318018 -15.1332035 6.640083 10.843563 2.7731974 -16.135681 8.581457 10.254083 8.075138 -7.7046504 5.7707553 -3.523272 -5.7128973 -0.35848343 3.434618 6.717935 -3.9772162 -6.9694076 6.1718 1.955032 14.020653 6.01486 -0.30393934 -7.095019 -13.745702 4.5963135 17.054377 2.1751034 3.5405812 10.289235 4.9436274 -6.0950527 11.378541 0.91415095 -13.546215 -8.385747 8.450016 0.81884 2.6830165 -2.6629074 12.817456 3.1757388 7.3107724 7.412671 10.160139 7.5122533 0.020932974 -16.365778 3.5200396 1.0161679 3.7975688 -13.056903 -6.62808 8.284135 -3.7489278 0.25277632 -10.094128 23.870142 2.0246773 20.235165 -1.985905 -7.783122 7.2978945 -1.44556 -7.9551053 0.48744467 -10.176558 0.5575354 4.80203 1.3486716 -17.705372 -1.7543648 11.473177 -6.679046 -11.354558 -5.677856 6.7847204 -10.731606 -9.325492 -8.289182 0.4651648 -2.612582 -3.603933 2.4272826 2.5494955 5.8370743 -21.035042 -6.298933 -3.6356463 -2.2196639 9.39686 -5.590282 -1.0684193 3.6260295 -2.3848877 3.855745 -3.56003
C29H40N8O5+H+ 9.603152 -4.7141466 1.4477589 0.94774914 -3.059835 -8.879191 1.665023 -6.4152 -17.562563 -2.2139747 -2.1720905 2.5743403 1.7807367 -5.135302 0.020729115 1.4204677 3.2004855 7.104968 1.0871993 7.360388 4.3332305 -9.069897 -12.388455 -2.4553983 1.151603 -8.791157 -5.8474817 4.419665 2.8510065 2.5126736 5.840069 -12.2438965 -0.69419926 6.248229 0.29413122 -0.4236607 6.4547434 1.4508406 -1.635056 -1.9307294 14.007068 -2.6314623 12.470749 -2.6793895 -3.5694866 -8.07701 7.646286 -2.8577578 -11.638631 1.7096864 -18.477764 2.8408167 6.4776506 -4.3194456 1.220154 5.581893 -3.214178 3.8821232 1.4778638 4.5400624 2.1617715 12.5715275 -7.595565 -2.4673698 9.285106 -0.05667809 9.666225 5.070949 -3.797096 -6.109093 -2.4183986 3.262426 -5.138165 -2.9302866 -0.6583598 -1.0924497 -4.006455 -1.237724 -0.6094278 9.999376 -1.8859137 -0.9429991 3.594303 1.079807 12.698219 6.7054768 -15.961107 -7.5081944 1.364619 -3.9382994 -4.0717325 -13.01546 -2.0656762 0.0521047 5.728304 3.8426738 -1.4869899 -4.1727395 9.096928 -8.687079
