37 100
C7H15NO3+H+ -11.833957 -6.0921197 6.705925 7.2228813 9.005845 -6.4331713 -8.680683 5.7643456 -2.2354157 -3.5966995 7.056922 -0.3870176 5.5846024 3.9305682 10.675604 15.4953575 0.57539177 -5.257779 -1.4526213 0.86677027 2.674601 -1.451778 -1.0153753 -0.54101074 0.20770654 -2.14625 0.8993941 -5.298183 -4.013717 8.186208 -10.10075 1.6662719 -2.1372106 -14.327155 -1.656548 3.4025042 -7.0015655 -16.96496 4.242278 2.6093879 0.6280995 0.28549868 -10.226009 -4.48428 4.9150834 2.0240335 8.066518 -0.050429888 -4.608808 5.0453343 -0.7130852 -6.4654303 2.2507164 -2.6913145 3.7097623 -0.6768224 -10.606522 -0.83848184 -2.152917 1.000006 -3.0823624 -0.15908651 2.4233847 0.057985786 1.3958011 4.086099 0.54871196 -2.988273 6.940425 7.25688 -4.2309914 -6.219249 -0.7356111 -7.2389274 -5.635516 4.3025794 5.126233 -5.8520904 5.863291 -1.0597831 1.9092369 2.912283 1.3904032 3.4999635 -12.697584 -3.7720025 0.14832185 3.489566 -4.1483264 -10.260528 4.505956 7.474337 0.75572234 7.736429 15.985533 6.8372464 -2.0893052 2.095985 5.9314194 1.5057656
C15H22N6O5S+H+ -4.993641 -5.600157 2.0312319 8.779315 5.1040125 -2.1696105 -6.9993415 4.375552 -2.1667569 -0.8206105 7.348921 0.2608387 2.7314994 2.154916 6.500613 10.60269 -2.02108 -5.8305144 0.22036862 -0.5152401 5.47132 0.7171444 2.1614306 -0.4266577 1.7345537 -2.9083455 0.93725246 -10.330598 -8.89986 14.193162 -10.775513 -0.46661815 -2.6097908 -10.931258 -2.9596572 5.178537 -7.733836 -16.12537 3.291814 -2.361172 1.5588847 2.8534262 -8.391211 -5.1052136 2.241811 4.098432 6.8622384 -2.5463266 -1.6135539 2.1332064 -0.1742535 -2.2866209 -0.15267634 -0.7129873 2.5763884 -3.335933 -12.642432 -1.3421202 -4.6779976 3.5345876 -6.0958657 2.8989582 4.704303 3.628724 -0.38971496 2.578813 -0.09625521 -1.0979273 3.246803 5.354052 -6.1994696 0.19708648 -1.5996714 -4.5304656 -7.27239 3.6694007 2.2322214 -3.8058097 4.679389 0.49217588 0.11553933 2.6244044 0.85363346 0.48309505 -10.955227 -4.969546 1.238369 0.72373784 -0.13919006 -7.8550644 4.743686 9.177806 5.9299626 5.426729 8.776336 1.4523698 -8.236836 2.7833724 2.3555174 -3.968741
C24H50NO7P+H+ -11.000169 -6.96293 7.299631 7.195212 9.103711 -1.3562853 -12.270885 9.366412 1.6641002 -1.8658516 2.3109522 0.6008845 4.767915 -1.4930613 7.071056 10.449198 -0.083413824 -0.9276046 -0.30559835 0.051339623 -3.9771266 -2.7573814 -2.9282653 -2.0520945 -1.253031 -0.6727171 0.7655962 -2.901214 -3.1407049 3.7185206 -8.035682 -1.3245698 1.4688135 -9.583404 1.2274563 -0.30942824 -1.4488133 -12.156268 3.5101397 0.74857277 -1.6324227 -2.3726933 -1.0517902 -0.45702782 4.43492 0.33955738 7.7596464 4.956849 -3.1378238 2.681646 3.381137 -7.1469646 1.0842794 -6.6721454 3.799786 0.2365377 -6.2343817 0.39632216 -1.4814931 0.32495448 -3.8151321 -0.41503677 0.82366323 2.092242 0.7236251 1.1705334 0.9461621 -3.3736959 6.7687826 3.006429 -5.32153 -6.823991 0.2761014 -2.4638178 -5.169283 9.87698 10.230602 -5.4425864 6.9408927 -1.1902705 1.6049818 5.125376 1.0896631 8.59224 -9.108948 0.026307482 -6.87289 2.3490984 -3.2127643 -2.0792165 5.225944 6.3134212 3.544326 7.518425 11.035932 2.1115782 -2.6129165 0.97820616 2.9850562 0.19346936
C4H9N3O2+K+ -6.0101523 -1.5684732 1.7793545 2.9226854 8.02417 1.857901 -4.170141 5.5801992 0.6094835 3.7905731 -1.3476603 -1.4310243 1.1161939 -3.5606353 2.1087234 5.8738976 1.4605572 2.479572 3.8759012 -1.7738103 -1.6957068 -0.65619403 -2.9805853 -0.46498394 -4.0477953 1.3019941 0.62167764 2.072597 2.0886486 -1.5588176 -1.6753114 -0.78558755 -0.6692127 2.523649 2.277722 -2.1434934 3.2969482 -0.33784086 -0.5338162 2.927048 -1.9629265 1.0524671 1.5292355 0.12698866 -3.2187417 -0.8386438 1.571752 1.5519081 -2.0999563 -0.24900182 -0.31490794 -2.4357378 0.08424093 -5.3528204 -0.33820882 0.18698701 -2.3416739 -0.25467 3.18768 -4.358549 3.6868129 -3.0284064 -0.13014174 -0.2445707 -2.7902958 0.11251102 2.7821255 -2.7681928 4.343354 -2.0769732 -3.4972596 -8.116436 -0.842707 -0.3421135 2.1376717 4.9505844 7.4526124 -4.810002 2.7119045 0.3895079 -1.2306237 2.886115 3.4163525 5.484047 0.631738 0.5414953 -5.508739 1.1119446 -1.0985832 -0.90675575 4.778528 5.0545225 -1.4841814 4.538283 8.648279 -0.02581942 -1.6275221 -0.4829994 2.0085573 -0.05635614
C9H17NO4+H+ -13.785691 -6.010316 10.511833 7.409924 10.842573 -5.30005 -11.103632 11.7782135 -4.941388 1.1011055 8.120662 -1.3295324 8.019523 4.9112124 15.204689 20.662418 3.12045 -7.349907 0.4374666 4.2484965 4.3077297 -0.24980162 1.4229435 -1.0740418 -0.9092078 -3.6438317 0.6186246 -7.342199 -6.8080597 13.79741 -17.90944 -2.39779 -2.227287 -14.966896 -4.5504737 8.127952 -5.0193133 -15.832537 -0.567166 5.933277 3.587871 3.384202 -9.958459 -5.983278 4.4245677 2.9011242 0.663812 -5.22738 1.2802603 -0.0973519 -5.249536 -1.4530789 0.33743694 3.5656986 -3.2097359 -1.4446557 -11.919979 0.2540173 -6.878142 2.1590033 -7.069969 3.4244726 7.1469736 -2.228566 -1.0650086 6.3756495 2.779374 -6.2009926 8.639699 7.7710757 -4.814543 -11.044257 0.7421061 -9.131165 -0.12941542 5.061854 8.920003 -6.378331 6.557263 -0.37376538 -0.68256754 2.6388843 5.680768 6.4148684 -13.154013 -7.3534555 2.3382077 7.7211833 -5.76633 -9.63888 1.461126 9.774538 2.95331 11.577461 13.798621 7.054544 -7.5716443 1.7749667 7.837588 -0.7358822
C11H21NO4+H+ -13.969323 -5.1129622 5.5680337 8.912561 11.478283 -3.7355099 -6.2899547 6.5212183 0.95609075 -0.27427456 5.234118 -1.7258986 3.56102 0.25441116 6.644134 10.8079815 0.39662182 -2.7269967 2.7273195 -0.70366144 -4.073 -3.2584558 -3.035174 -0.68447477 0.6994192 1.6404225 2.9236207 2.6750515 3.4021983 3.957781 -6.422067 -0.77489066 -0.66393596 -7.6797767 -0.47818738 -3.5405722 -0.5894879 -4.6141543 -0.006963145 5.3028646 0.93929917 1.2140665 -4.238654 -2.7841196 3.9159489 0.082246095 0.68080825 0.87626433 -2.6365378 2.959728 -0.69701815 -4.598668 2.3281662 -2.0719597 0.35721433 -1.3077118 -3.2158978 -2.7819765 1.6037016 -0.43850744 -4.778522 -4.0051894 -1.8624206 -1.1539495 -0.6246083 2.4908335 1.373373 -5.1336746 8.854906 2.2381525 -1.6678483 -14.536522 2.343793 -5.1071377 0.36116964 6.2764187 9.492511 -3.9536493 4.4387565 -1.2516656 -0.6212205 2.3989863 0.38721004 6.6589246 -7.590821 1.981633 -2.3445551 2.348771 -4.0219393 -4.1275873 2.5729 5.6863656 -2.182501 5.936719 9.226886 7.7116265 0.6070641 0.80989754 4.8939486 4.385519
C22H22O7+H+ -6.6378274 -1.9508611 1.3623936 6.0586324 8.332143 -0.046439268 -4.106149 3.4138725 0.6992964 1.530996 2.5273545 -0.8607425 1.955485 -2.713087 0.7430612 6.84054 2.3972538 0.09094984 1.9868687 -0.5623099 0.5392719 -0.8123559 -1.7594255 0.9698061 -0.86556894 -1.0610275 1.5490029 1.0142485 -0.15984465 4.3707724 -2.6930525 -0.6349745 0.9376739 -1.7684793 0.087626345 -2.6850286 1.4787401 -0.049979046 -0.1815515 1.8359934 0.687022 1.069086 2.2640886 -2.7863388 1.2180334 -1.3426574 3.0252333 3.112702 -2.4299982 2.427937 1.4224049 -2.0016732 1.1588136 -4.4828563 1.5688263 -1.2360529 -3.2786953 -1.2489088 1.9353601 -0.09234628 0.076955736 -3.049137 -0.2887402 1.3269783 0.2176157 0.2324133 3.9991014 -3.5574455 5.055313 -0.59770554 -3.00664 -7.9869547 0.1889836 -2.2539723 1.4465888 4.0443387 6.5593843 -2.3299031 0.041943755 -0.7655905 -0.1739168 0.6472448 0.6341234 4.079427 -5.5961313 -2.5904498 -0.5103464 0.23922893 -1.7134305 -2.8311715 5.330168 5.04841 1.1103473 5.266727 7.3353963 1.5744948 -3.9113839 2.2849922 0.89274395 -1.2676574
C8H20NO6P+H+ -8.692963 -4.8007197 5.832611 4.357062 13.616353 -5.291331 -14.509952 7.423625 -1.7159345 -1.5651795 2.455681 0.59227383 6.168123 -2.8696687 6.1315856 11.925639 1.943516 -2.6056843 0.60194427 -1.7989709 2.974475 -0.8678137 0.7939694 1.1777339 -0.97703224 1.8388819 2.2155113 -3.5793347 -4.488176 7.359536 -12.851156 0.99290806 -1.8941922 -8.555365 1.2949967 -0.6590207 -2.2638187 -9.344257 2.1185071 2.5694597 0.14372693 3.452458 -5.069925 -3.5145063 0.1774172 -0.6172487 10.674783 4.140518 -3.5551863 -0.37472966 -1.6868885 -8.315733 -1.343281 -2.4414158 -1.4042451 -0.52324367 -10.832292 -1.0191689 0.9975426 0.29550922 -4.318484 -4.6886296 -1.6078236 0.7057809 1.1476531 1.3255444 1.2003062 -9.147331 5.058202 7.457214 -5.5740504 -2.3267682 5.434659 -8.35185 -3.11758 6.3612685 9.666363 -5.2265096 3.827183 -5.832353 3.0559728 5.2061677 0.76143634 8.061596 -14.157549 -1.4531617 -2.016734 3.941421 -6.936656 -4.044665 7.2302866 4.9036236 4.901898 7.122324 14.830589 2.5418363 -3.6353989 0.92984754 6.70954 0.5903651
C10H7NO3+K+ -1.9220827 -5.282802 3.9758062 5.98813 0.31626529 4.113785 -2.573652 4.629594 6.0670533 2.567372 -1.3327694 0.1520516 -0.6469797 -6.4110556 -2.580697 -5.1194983 -6.150065 6.056502 2.1091251 -2.7022698 -7.6926866 -4.1278152 -5.11312 0.41302067 -4.530933 -0.43489727 -1.6136018 2.282597 4.0143685 -4.55065 1.5326898 -1.1824142 0.6635492 2.1573946 5.03784 -5.3541417 5.0474777 -0.4141872 2.736076 -2.078677 -2.3740973 -5.1620064 5.305697 2.7445695 2.213315 -1.8296403 4.50706 6.4653497 -0.77522683 0.97945094 3.2352238 -4.0477343 1.54684 -4.034156 3.240353 1.6783166 1.242012 0.7689842 2.9924853 -1.7091345 1.3790026 -0.18950707 -1.9393599 -1.8396041 0.64022756 -0.8508042 -0.70101124 -0.44987163 0.9709305 1.8871703 -1.8942521 2.4615653 -6.1406918 2.3708105 -5.0777583 4.415562 1.5189095 -3.8770263 3.5130014 0.58118 1.4518898 2.3559508 0.9684755 1.6741416 1.2021061 1.4517759 -7.891084 -0.13055316 2.2830458 0.60552096 2.2677145 5.6103296 -3.069557 -0.45105505 3.124637 -3.071749 -1.8905568 -2.9409237 -1.7927333 1.6990302
C11H20N2O3+H+ -12.484782 -2.8633363 5.180593 5.49256 11.734545 -5.3014927 -2.6387281 5.5827837 -1.8848509 -3.323605 7.0277977 -0.52790797 2.479466 7.778098 9.695624 14.798699 -0.06723574 -1.9826235 -1.3255426 2.5277917 5.4440274 -0.30282658 -4.680583 -2.6150498 -2.1127183 0.2842932 1.9117955 -3.6706393 -1.495064 10.391077 -9.312403 2.2484775 -1.121749 -8.293937 -2.2052655 2.9518318 -7.409407 -7.530561 1.3529365 5.4097643 3.003843 1.3868028 -7.328215 -2.5991745 -0.09160033 2.1418748 2.0439613 -1.685733 -2.8228955 1.9732566 -0.25183025 -0.9992233 -0.7727737 -4.4872665 -0.7424081 -5.1991773 -8.102163 0.59059304 -4.869941 -1.5804698 -0.6718023 0.66015714 3.2507434 1.4836128 -3.851862 4.8203273 3.053137 -5.9055214 6.0776606 1.9537307 -5.74513 -10.670567 -0.19715631 -6.6660056 2.3076572 4.567856 5.6644354 -5.2392964 3.8629055 -0.49774492 -1.0677562 1.1611607 3.0129967 5.014094 -7.5401363 -3.961728 2.2499664 1.8492051 -3.8704371 -9.019741 4.3752522 5.031572 0.32018718 9.426975 12.903323 6.0015125 -0.37869895 1.9122957 3.7818272 -1.509105
C8H17NO2+H+ -5.6023045 -4.7973447 5.114397 4.3937654 4.5105476 -4.607583 -6.6798077 3.9368484 1.6134465 -1.9371432 4.071771 -0.361621 2.717825 -1.4822627 1.9499952 3.4895172 -0.65083677 0.12774807 -1.430288 0.67041045 -2.8276272 -2.694875 -1.2993033 -1.2063419 0.609729 1.2544379 1.265326 0.23220505 0.57394606 -2.1343238 -3.2706141 2.0528204 1.1605966 -7.499682 0.86012286 -5.5456457 -3.1127691 -1.7708459 3.0686166 -0.8529759 1.0549864 -0.44570774 -0.06910651 -2.60299 6.003029 0.44806904 6.415893 6.2068877 -1.2821509 2.2557085 1.497442 -4.925049 1.4022942 -2.7385142 2.6141639 -1.1024287 -1.5098068 0.21700075 1.0735227 1.2254463 -5.47003 -1.9320958 -4.494573 0.27410492 0.46425018 0.7827543 0.4587151 -4.2060323 7.2537904 3.8887124 -0.01611319 -4.3764277 1.136979 -3.3383436 -0.954536 2.126908 7.5335727 1.1629387 0.33990633 1.2334801 1.4377806 0.40154693 -0.382454 3.5155256 -4.6050773 5.3974175 -3.217713 0.87127244 -0.24109127 -4.4872293 1.548449 2.5794024 -2.3353539 2.5167775 5.6757326 5.464082 1.2237164 -0.99674785 -0.2444515 3.6676826
C29H47NO4+Na+ -3.4671397 6.467404 1.4970044 -3.3795605 15.660651 -6.98948 -9.555816 -2.878472 -7.967745 -0.10746221 3.059246 -0.6318318 7.58844 -2.7542827 2.4577343 17.355549 10.600247 -3.4093204 1.2380394 -4.0165772 8.203271 1.1499243 2.3371713 5.51873 3.017869 -0.8587021 5.5801697 -3.6694782 -6.565772 10.227313 -9.668295 2.3622854 -5.5463552 -9.8486595 -2.1662035 -6.895336 -6.34876 2.4330497 -0.6685838 8.939897 1.1433927 8.386919 -7.2890043 -12.160084 -0.5048938 -0.69228077 13.982402 6.1648326 -2.220588 7.003395 -6.201107 -9.438935 5.666936 -4.6803694 2.3654685 2.3986545 -18.101702 -2.0943377 0.6597323 7.6280417 -4.7240105 -6.8417716 0.742282 0.9165989 2.9247885 -1.5792483 6.0497684 -14.678029 7.762866 4.27613 -5.896231 -6.177247 11.385166 -10.566208 1.5218391 -1.5624306 18.911318 6.452042 -7.076046 -1.3611015 -1.5775095 0.53142834 -0.96074843 11.396426 -16.987103 0.49387896 6.988029 1.818795 -2.7711973 -8.438612 8.948733 5.9854484 1.5731508 8.7079735 23.448832 1.8986754 -13.134814 5.101117 7.467518 -7.0414867
C7H15NO3+K+ -8.500213 -7.3475404 3.612657 9.0809355 3.1510391 0.37331903 -3.8107824 7.7895226 1.3975623 1.671123 4.568734 -2.3462563 1.9966694 2.2986255 8.798548 8.688538 -0.07136528 -3.949893 2.8760302 0.55515516 -5.469711 -2.391005 -1.9291766 -3.7331324 0.7768166 -2.1570587 1.1241462 -2.257745 -1.1327784 5.0127 -4.9409056 -0.11667468 -2.4638944 -7.605193 -1.2752509 3.929434 -3.3965425 -9.113518 2.412014 0.6790266 -0.5428423 0.61849785 -5.729034 -3.8469293 2.2071614 0.2866553 5.340422 0.28794086 -6.53654 6.019102 0.04804088 -4.648834 2.3557906 -3.2713215 4.4435644 4.1299944 -5.506652 -1.1410022 0.9287051 1.2362269 -0.7919706 -0.058461074 2.9636648 -3.0332549 -5.3699307 4.328953 -1.5082617 -2.94877 5.6766477 4.046445 -4.1643333 -4.5968003 -2.0549574 -2.175865 -3.6784806 4.957467 8.406516 -3.7663207 8.963106 5.0983973 -2.5162306 3.011603 5.7620287 5.9435863 -6.0700493 -0.024229988 -1.5881153 4.054616 -4.2239876 -5.5766406 1.620315 7.0526385 0.36435148 7.3331814 8.38344 5.9420786 -3.302452 2.5972283 3.8159282 2.7459278
C26H50NO7P+H+ -6.465751 -0.44837636 4.8895154 3.2938592 7.657612 -0.03884475 -1.8159786 5.178247 -0.11494687 -0.034239914 -1.821191 -2.62566 2.9110725 -6.2747145 -0.85338175 2.5116532 6.8198395 4.236202 2.6759782 -1.0803853 -1.10137 -2.981025 -3.6078732 2.730587 -5.026858 -0.3904521 1.0116829 5.5278726 4.0750256 -3.4470782 -1.4019878 2.8697894 -1.023986 1.0295571 3.2073054 -9.164293 4.046988 7.6685877 -0.19592705 5.936445 -1.3614247 -1.0687646 3.7780013 -1.4387875 1.1830016 -4.652743 6.0877686 9.681238 -0.39137623 1.2493825 0.19929197 -7.418426 4.357795 -2.869438 1.355004 2.7789216 -3.7173014 0.60045034 3.9573245 -1.5610644 4.1712484 -6.467827 -1.3449224 -3.3460186 -0.68704534 -0.5113156 3.5770392 -9.087982 4.8583417 0.8975909 -1.8772134 -6.156674 2.864136 -4.064314 4.829415 0.76392335 9.953149 0.6366045 -3.3670883 -2.454173 -1.8133047 1.1215186 0.7100445 8.647382 -2.1782448 2.8059099 -1.488667 0.6990766 -2.5845947 -2.7246168 5.0065885 1.358118 -4.322292 4.2408895 14.971569 -0.27394167 -2.784725 -1.1014938 4.0020657 -1.6582254
C13H17NO3+Na+ -0.3504116 -2.7180748 -3.2369833 1.634189 -0.7047322 5.8111873 0.77179116 -3.6825511 2.4972575 2.2914484 -2.0409193 -1.645563 -1.0004808 -2.5339744 0.3963682 0.93227684 1.4650245 -2.7631025 1.5974945 -1.4560164 -7.1258035 0.51028115 0.5702562 -2.2185066 3.623149 0.006841636 0.37101725 2.8507743 0.8417348 -2.727253 3.0134373 -2.3505068 -1.7499344 -1.1453414 -2.2025607 1.5132558 -0.79690653 -0.6218933 -1.38587 -1.2566429 -0.62307525 1.2787199 -1.3554834 -1.9151385 1.6539221 2.2282171 -1.9905977 -0.38499063 -3.620175 2.9397967 -0.5075743 2.1765623 4.6694875 -1.0096333 4.6544704 5.1138964 3.2760682 -2.67296 -1.0708275 2.165156 -0.74568933 2.1103103 1.067194 1.1083859 0.082960345 -0.7705466 0.42558393 3.649204 -0.25123408 -2.5670178 -0.5714453 0.7577055 -0.32563728 4.028511 -2.0229855 1.0167413 1.9323376 2.661608 1.959949 4.0107994 0.26217574 -0.9131322 2.7653735 3.9211462 -2.6508248 3.3427625 2.5051575 -0.47809175 -0.43837008 3.758075 -1.1026793 0.63759625 1.4507082 -0.86646265 -5.30737 4.1144695 2.4094076 2.712979 0.008064515 3.7069468
C10H16N4O3+H+ -9.211522 -7.957536 0.72817457 10.756635 5.8850093 -3.3106782 -1.8904594 6.447125 0.4180242 -0.4197226 6.8484836 -2.396155 -0.5154514 5.8573103 7.3172207 6.79188 -1.4279143 -3.1284862 0.9656387 1.7046672 0.09029092 -0.39517775 -1.0917593 -4.1516185 0.4949925 0.74569434 2.236842 -2.700425 -1.8892418 6.918049 -7.8327217 1.934961 -3.9966128 -5.3221984 -0.80065596 5.49513 -6.3666244 -6.838234 1.0889068 -1.5409393 3.0200999 5.288128 -7.9223566 -3.0032558 0.31113553 3.171034 1.6929979 0.33525974 -4.917691 1.8109671 -0.535174 -2.2801816 0.2628249 -1.1766334 -0.35416168 1.2416495 -6.1167827 -0.9713825 -1.2138268 2.5344682 -4.721786 -2.9905915 -0.5255055 0.44040215 -3.0135555 2.8710914 -1.8356833 -3.2232711 1.3998004 4.1147118 -6.259307 -2.84731 -1.1670572 -2.2318184 -7.197883 8.599403 2.4625468 -6.6473475 9.606482 -2.6731126 -1.1641583 2.1166747 2.2120636 4.355042 -9.930089 -2.7752924 0.8201206 2.5629613 -6.203591 -2.9495661 1.6568974 4.139128 5.58316 7.2256503 3.9210725 6.7278757 -4.104438 2.9233134 2.8792038 -1.4047598
C8H20NO6P+K+ -20.961704 -12.469569 5.589449 16.633533 9.640706 -3.7725296 -8.585439 12.153766 0.4470864 0.45204583 11.738407 -3.0379205 3.6723235 8.079 17.478012 22.223976 0.89231586 -9.724779 0.93228644 5.289867 -3.7868633 -0.98874813 -1.1548337 -6.894333 2.842238 -2.2432156 1.9102213 -5.3776526 -5.75682 10.512576 -10.509359 -4.037943 -1.1333209 -14.505841 -5.9898267 8.897779 -6.563081 -13.861497 -0.16293934 2.12041 5.0085545 5.5134635 -8.848165 -7.6736903 5.675451 4.7456927 0.05993302 -4.585579 -6.074602 4.4459357 -2.7069697 4.394249 2.6742272 -2.449573 0.8996831 -0.7465778 -8.518237 -2.133531 -8.450769 2.3730123 -7.231541 3.8406718 6.813191 3.3933327 -3.0660398 7.3251987 1.6293907 2.9797766 7.8018756 2.7515547 -6.956417 -15.543336 -3.605534 -2.7317073 -5.366726 10.984582 7.038314 -6.3815007 12.0575285 4.0024195 -2.585338 -0.088963464 4.655491 5.945956 -13.855171 -3.0203261 3.546614 3.8860564 -5.4299393 -8.096215 2.0571725 9.60186 5.9564652 12.885213 6.9226775 12.484143 -4.7265286 6.2815113 3.0789425 -0.0129425
C8H20NO6P+Na+ 4.6030536 -0.41112 -3.0269878 -3.4407034 -5.8338475 0.47488427 1.3340472 -6.004883 5.369784 -5.4614115 -4.2703776 -0.4080906 -1.4064993 -8.5694475 -8.72755 -11.845343 -1.5279518 2.4159455 -1.0296087 -1.9875518 -7.7263403 -3.0012238 -0.362612 -0.63035214 2.1344957 4.6268144 0.13441737 4.5088058 5.5196342 -14.966745 11.289835 1.7678041 4.7350326 3.6536703 3.7465606 -14.474902 6.44842 5.6700034 2.7991474 -5.4306173 -2.3637369 -3.4697943 6.3826613 3.5822341 6.148855 -2.8864505 2.965922 8.475886 -3.352663 -0.0056323092 6.899577 -0.5031784 3.8783658 -1.4840753 7.1231055 -1.3368998 7.3257737 -2.610951 3.4499815 -3.9769206 1.8060204 0.0032545254 -5.090698 4.266481 4.5338492 -2.6094496 -4.2922196 8.148322 -1.9821724 -0.65527236 5.502637 8.987719 -1.6745442 5.4946265 -3.8392236 -3.0269608 -5.32003 9.206279 -3.5533335 3.6993032 5.5392084 -1.8307104 -7.5974994 -4.5174894 4.257776 12.382758 -5.157108 -7.0578156 2.5119045 4.2155924 1.9455395 -7.239288 -3.655909 -8.037792 -7.541582 -1.168267 10.2378435 -2.4377046 -8.689596 6.5857964
C10H11NO2+Na+ -3.8384469 -8.974418 -1.3489301 16.762701 1.3756002 8.944065 -1.0330213 -1.4662222 10.491793 3.8973086 -1.1014887 -1.3414587 -0.926336 -17.797716 -8.417373 -11.644228 1.4555104 1.1298584 5.8405304 -5.574174 -17.73135 -7.532122 -0.20043322 1.4946097 0.46937698 5.336457 2.3845415 14.098973 9.922692 -11.555295 10.225704 7.222804 3.8820553 -2.422689 -1.4857548 -12.2825365 0.4454862 20.05638 1.7189051 -0.8995005 -1.1938521 -2.517863 13.491249 -8.268631 4.4302363 -6.307322 17.693363 15.313473 -5.4881845 8.606614 0.1733957 -7.8545427 3.6171212 -9.210022 4.875158 8.695654 9.677217 -2.67101 12.826909 0.8308259 0.09835462 -15.450785 -14.02909 -4.224151 -7.348474 -4.7704 5.2320924 -8.135823 9.469683 -3.9364333 5.915756 -8.815964 13.453558 -1.37949 17.04445 -11.038336 19.370419 16.187963 -12.927814 8.135903 -9.499957 -3.384273 3.2042813 11.911162 2.4494493 19.553892 5.484355 -0.73466724 -0.5095523 -1.9387385 0.39489862 -2.510108 -10.096622 -5.8088474 6.242308 10.920888 10.281498 -1.8564496 5.824289 11.097029
C37H68O4+H+ -1.6043656 -4.0043316 4.9807663 -2.8178465 1.9922585 -3.6270888 -9.983214 9.209111 -4.0695925 0.6204286 -5.833939 -1.4886227 5.5932417 -1.7116109 6.7875705 3.488818 5.831139 -1.4321995 -2.4721756 2.1278944 -8.427906 -1.734754 1.3275653 -7.5556808 1.0907378 4.0228643 0.4124932 0.402982 0.52142715 -12.795644 -5.2565813 4.081903 -2.5945795 -5.0032325 3.1240122 1.0471579 -6.5537467 -0.454245 3.7121544 0.06868652 -5.6496615 2.0592582 -0.8133877 -1.4891176 -2.8778257 -0.7089868 12.579262 5.839143 -2.845862 -0.05453279 -3.4761708 -11.303239 -3.5018175 -5.9867864 -1.6854217 10.077997 2.6030483 2.381304 8.15808 -1.2859302 -1.3917608 -9.5282345 -8.779833 -4.998766 -0.7447412 -3.6394968 -0.86999273 -3.893292 4.0992727 7.062589 -0.5394109 1.1212467 8.509001 -3.6329927 -3.151905 0.92487764 8.352941 -4.565778 6.3512855 -2.8752446 1.1161051 7.1987967 5.8873925 6.2701564 -1.9428264 1.4007993 -6.219355 8.630903 -8.923653 0.50629234 -6.425525 -4.668162 1.8566839 6.4633956 9.633155 7.6536727 7.6119637 -3.0604498 11.83865 6.5159826
C35H66O4+H+ -7.6316624 -6.4872613 0.8754911 7.8618517 6.0422745 -3.7906806 -3.5747523 4.5809793 -2.6485655 -1.589101 6.7323236 -8.56369 3.8450873 -5.344376 4.46839 6.0126247 12.419892 -10.549939 2.7417479 4.2795963 -0.575983 -0.032415435 6.6635385 -4.709715 6.243587 1.1427583 5.2065916 -0.48272017 -2.0687644 -1.5786536 -5.791053 5.623532 -3.1140745 -6.4052653 -4.5741134 -4.03298 -2.5155892 3.8760943 -2.5808017 -0.3006829 4.481548 8.075289 -7.289103 -7.5329747 7.2538047 2.4827306 0.99531585 8.108627 -8.676914 2.7733276 -0.7632901 -1.7909154 6.70492 2.5917916 5.610448 1.0771378 -8.218194 -3.4624789 -0.7782508 3.3605027 -5.1610584 -1.5132554 0.15122612 1.2975157 -3.534323 3.2456253 1.545147 -7.311973 9.319401 1.0965563 -1.8578923 -5.3057966 7.6696835 -3.378706 4.5993967 -0.81697524 12.208707 13.692975 -3.4065673 5.518611 -1.3020849 -3.409017 1.8002241 8.547866 -13.752823 11.70207 8.560713 0.06711039 -6.7479324 -5.747853 4.87205 1.1414766 6.61402 5.479914 1.3696624 11.185831 -2.886214 4.735241 3.207528 -0.23491037
C23H45NO4+H+ 3.220507 -2.7272093 11.060064 -12.617661 13.382814 -9.074907 -20.010424 3.055 -0.6945074 -4.644241 -8.637657 0.77097225 8.838819 -13.558567 -0.6470353 -0.04626803 -2.0907364 8.967805 -3.4669678 -6.9847608 -3.920714 -4.7328596 -3.64173 -0.0073125623 -6.175403 9.173758 1.0431547 -0.21897134 3.5400345 -17.106989 -11.35039 9.286869 -5.5394115 -8.822769 13.142005 -16.606691 -4.691706 -10.653796 11.623321 -0.10524201 -9.612574 -3.8268178 -6.3582897 2.9293606 1.5337929 -1.095804 28.114214 21.175547 -6.3286095 -1.0672067 0.5018131 -26.530735 1.5946938 -8.905782 5.971458 6.4616714 -8.020686 2.3655035 11.3068285 -5.478719 -0.6375194 -10.3916025 -15.02093 -4.2706695 7.899811 -6.213937 -3.2968435 -14.72747 6.9324656 17.480736 -3.4433522 16.16369 5.749503 -8.680698 -12.438036 3.1735852 12.818628 -4.4173613 3.809979 -7.311068 13.631454 11.449616 0.68396586 10.916321 -12.02553 8.226847 -17.286163 5.9112406 -6.492594 -3.2078137 7.6613226 2.4045434 -4.480786 2.2399473 24.932396 1.6832502 8.112282 -9.082492 8.247847 12.666261
C37H66O4+H+ -3.841792 0.41450575 -0.42266116 5.4969106 4.3341074 -0.43254158 2.2575812 0.8386675 -3.739127 1.1792692 -0.56304 -6.803626 6.4028306 -8.953659 -1.0798626 -1.040207 16.419664 -9.959263 5.819492 0.9138637 -2.9959633 -2.3117402 5.9931645 2.0682135 6.9561057 -1.1372453 5.2448664 5.365487 2.146379 3.940358 -4.5756054 1.7652988 -5.719117 0.49433944 -2.580139 -4.3500814 5.664451 17.91158 -7.8017817 9.867007 2.9910705 9.14678 -4.20767 -8.769321 1.4701484 -7.6622896 -0.1835389 4.4659505 -4.1312656 2.9147305 -5.949097 -4.182692 4.7377324 5.1689525 -1.4988796 8.258538 -4.6498756 -4.965036 6.4125123 7.768391 -0.32795995 -9.527389 -1.3025019 -6.330683 -2.3511946 -1.4573382 1.1069204 -12.941672 2.374309 2.4617634 3.1447656 -1.0920161 17.590118 -7.4021487 7.351611 -8.598326 13.037296 16.247755 -6.9212027 0.4918133 -2.5788913 -1.6098974 -0.05899803 11.921496 -13.478605 11.182103 14.885405 2.3479228 -12.686929 1.477719 2.3853507 -6.781018 -0.41842967 0.85162634 8.017447 8.236366 -1.9582789 5.895898 10.605186 2.6356852
C10H15N5O10P2+H+ -9.411936 -14.626888 3.1952624 23.06705 2.975716 3.3848631 -4.7753224 8.6293 3.029006 1.6202081 3.9183865 -3.885916 5.351396 -13.028158 2.2190635 2.0189345 9.544511 -5.4204173 2.9688046 -0.9517743 -16.593935 -8.109107 2.248133 -2.703702 4.5768294 2.8646376 3.4614637 11.724946 7.353688 -8.77088 4.0806003 13.641317 -3.5210922 -12.011456 -1.2626812 -4.670742 -9.834533 9.031024 5.3272967 -3.0425975 1.4963107 1.6977195 2.0716558 -11.721443 8.731306 -3.272323 20.196321 16.598923 -9.353955 12.719064 -0.81286174 -13.059672 7.10358 -7.681902 8.657288 12.546767 1.0508354 -1.5570697 10.759078 8.135238 -4.8434553 -15.217675 -13.177927 -8.542159 -3.95235 2.1179442 3.500598 -10.100388 10.336295 5.397189 -0.78535885 -5.7497215 11.261784 -8.379172 10.702744 -7.024399 14.175093 8.878773 -8.114016 0.5489911 -5.258844 -2.7882957 8.056564 11.386161 -9.408368 9.975053 11.091785 3.4595048 -5.8914084 -10.049829 -1.0639278 -1.5858104 -6.487208 0.87260705 14.580387 15.197495 5.4591312 1.1842963 12.960843 5.985618
C15H16O9S+K+ -21.260792 -9.163112 7.9733095 14.119955 11.176506 -5.547206 -9.44423 12.369526 -1.1410797 -7.7282696 8.676674 -2.6471148 6.24185 5.8476605 14.514365 19.699844 5.9527698 -7.3663707 -2.9522314 5.7340426 -0.09861035 -2.7917702 -3.992553 -5.8345313 1.4970635 -3.6759088 1.5702428 -5.762157 -5.0429516 8.439526 -8.288916 0.15598643 3.6465645 -14.200823 -4.2154474 -0.9717083 -4.741371 -8.994155 2.528809 4.2315097 2.8553648 0.5820218 -1.9032302 -6.548332 7.2706666 -0.9344602 7.7347054 2.6624398 -4.910756 5.373876 2.5994568 0.44031268 1.6796484 -7.2702847 3.7301307 -5.0600557 -7.6018553 -1.5747778 -4.375052 0.36773548 -1.846639 -0.11742367 5.0211163 4.878853 -2.9095106 3.9139652 2.6603808 -0.9627799 8.908405 1.7195235 -5.3358016 -14.309831 1.8705959 -5.747537 -1.8666166 6.2430916 9.456307 -1.3760306 6.4278345 2.8438668 -2.1769228 2.6746726 -0.33229792 6.636775 -11.012042 2.83285 1.3108056 -0.2984848 -6.223298 -8.995735 5.195014 2.8519363 3.880005 11.86312 16.062374 10.326587 1.8161068 5.4043746 5.5225053 -1.641777
C25H49NO4+H+ -14.962754 -9.14824 7.138214 14.579278 9.108281 -2.8578212 -7.297554 10.212444 0.44034415 -0.87820816 9.277774 -2.5960698 4.168896 1.667313 9.78843 13.348501 0.7028651 -5.9136076 1.8279656 2.2305481 -1.3426262 -2.8252878 -1.5173061 -2.0824118 0.7288498 -2.839241 1.7912774 -3.5713913 -2.639068 10.805279 -10.059479 -0.8263612 -0.30829123 -12.007877 -3.1148806 1.5245233 -3.077122 -11.936757 1.2701514 1.7058765 3.555214 1.5896896 -5.3785605 -5.649618 6.9046845 1.9586936 2.8057358 -0.06425772 -2.4927824 3.6991558 0.43719614 -1.6239921 2.100703 -1.946986 1.9792786 -2.5018885 -7.4854374 -2.2903275 -2.568373 2.258584 -5.7575483 -0.02043211 3.3608546 0.7905825 -1.3607761 4.1380363 1.6154815 -3.2854362 7.400586 4.6848474 -5.35443 -10.528829 -1.8592472 -4.923443 -4.6852956 7.6401906 6.6103363 -5.064166 7.872679 0.415006 -1.1451275 2.7011678 1.6910511 4.7791295 -13.041188 -2.8130178 1.0172144 2.377496 -4.8147306 -8.449225 3.2890425 9.392407 3.5283394 9.473022 10.333886 8.611758 -5.131677 2.8713245 4.93117 -0.49874237
C24H50NO7P+K+ -7.273439 -5.210263 2.0706987 3.650002 3.2834122 -4.707167 -6.1698947 6.4575143 -1.7116536 -1.2512 4.195389 -0.6175632 1.4043628 7.193731 8.819129 7.809182 0.15447311 -6.2338824 -2.796382 4.9446096 1.2984937 1.1521556 0.8334469 -4.6547003 0.7863068 0.04625188 0.14260122 -3.4589913 -3.045268 2.61989 -7.9733734 0.641001 0.15025641 -6.09282 -1.5134356 8.087429 -5.845213 -9.132162 2.2259572 -1.5054808 0.13763684 1.6235567 -5.795338 -1.3339443 0.27567127 3.7173765 0.37565613 -4.357208 -1.8539361 -0.15469415 -2.528463 -2.2484977 -3.6812246 0.20475206 -2.403594 0.079891324 -0.5261496 0.89192724 0.94757026 -1.2907336 -2.520736 -1.6914294 -0.72973967 -2.2353625 -4.8888297 2.1238053 -0.71580327 -0.53229856 4.8210645 1.2762375 -0.60443515 -8.384586 1.4100535 -2.5577679 -0.19970486 4.05824 3.3606055 -7.0830545 7.796323 0.16784953 -1.5882163 3.1707065 4.353532 1.8366314 -1.6889566 -1.4422995 -1.52893 5.0857754 -5.11894 -3.5538561 -2.3055012 1.677751 3.6543458 5.6394734 2.4314237 6.813388 1.3943824 -0.25907838 5.517115 2.1560855
C10H16N5O13P3+H+ -12.031492 -6.7708426 -0.8305674 2.6339111 6.8681617 2.7116077 -11.136775 -5.830136 11.178277 0.42389062 -3.6910727 6.811583 -4.5797133 -2.315454 1.550073 4.7254443 -15.390435 2.6725383 2.7241514 -12.388899 -22.343132 -4.661832 -5.9542885 -1.9273037 0.7955948 10.353525 -0.59745675 11.655303 11.670244 -17.266787 15.947172 2.5866804 2.377658 -6.071363 1.7154189 1.6667818 -6.446442 -10.568592 6.487818 -4.8488374 -2.4480374 -5.8495927 1.8420836 1.5570213 -0.25789234 4.837568 7.897317 -0.2256464 -7.044828 7.8325124 1.6220407 -2.373278 -0.33599582 -13.217909 4.82254 2.1108265 11.85539 -1.6450754 3.8786244 -5.5952654 -4.2331777 -1.0647573 -10.826444 3.8331485 1.0432287 3.0278718 1.4779052 9.667273 3.6141336 -2.717813 0.88977164 -8.625167 -7.042343 4.0895767 -0.9190843 7.895769 -2.308567 -11.989729 5.8510704 0.077714846 1.8682998 0.8006987 6.901374 0.7902959 5.4908557 2.2723894 -9.8292055 2.007965 4.5423474 -2.9558582 -2.8093243 5.047154 -8.549819 -1.463392 1.5955898 8.313243 17.211256 -5.3886027 3.5679886 12.043393
C9H14N4O3+H+ -8.462007 -6.594299 -1.0013602 13.646275 5.7472286 -0.2842492 -1.4807671 -2.5192835 3.4086597 4.72072 4.6297493 1.7992741 -0.07788805 1.8811573 1.9296457 9.2581415 -2.9389734 -1.9901317 -0.5543229 -5.9925056 -8.321011 -0.7346168 -3.372038 -1.0183543 5.4965706 1.4534664 2.0326846 5.347411 3.5582309 1.7090948 1.1094241 2.9627194 -6.04181 -2.573507 0.8811965 1.0357006 -8.153454 10.992429 2.693966 0.011903618 -1.4251891 3.2782288 -1.6820765 -7.8767543 -4.0163584 -2.0321574 11.896384 4.433313 -10.610656 12.347726 -7.2724543 -6.418061 4.9173822 -6.6206045 2.3238573 12.744069 -0.87157226 -3.4780574 3.4063609 5.1506853 -0.26227856 -6.921344 -4.0352573 -5.089551 -1.5578235 1.6022625 2.8771772 -5.362212 -3.4432805 5.969582 -6.4926944 4.6204395 0.8975078 -6.515153 -5.971018 -2.228589 3.4460475 -2.9847453 0.8769776 -0.60835534 -1.1500746 -3.7660742 4.320495 0.04326608 -11.337928 -9.824604 12.00126 5.0549216 -4.567379 -4.090079 -3.9056687 3.1299253 4.5339994 6.80663 3.4150465 2.5680966 -4.9285173 4.0409193 5.8214116 0.35123974
C11H21NO5+H+ -8.784833 -5.027926 2.9359303 9.185218 3.1010354 -0.62587816 -4.486758 4.8525596 0.3620203 -0.76571953 4.831144 0.028982535 4.6572866 1.4799606 7.5022144 9.576089 -0.01870251 -8.97408 1.1514438 1.0907696 -5.506438 -2.829624 0.6135432 -3.562101 6.3443995 -1.5832813 2.3393877 -4.6824555 -2.8241017 10.497684 -5.007191 -1.9584529 1.950048 -9.670385 -3.8353655 2.663299 -0.9296731 -7.453183 1.0931506 0.441258 0.9996974 1.7578098 -3.8081148 -4.7934785 4.732237 -2.766346 2.9289968 -3.643017 -5.770156 6.1429954 1.8730278 -2.3930206 0.20627366 -1.7822182 3.6938305 0.6523434 -4.575538 -3.9454083 0.37519068 2.3092887 -3.6601393 1.2254348 3.7422667 0.0429527 -1.4552197 4.456929 -1.6546378 0.34801263 4.9903054 4.151445 -0.95044416 -4.783505 1.7540706 -4.429542 -3.5820289 1.9886279 5.839063 1.0491773 5.777366 4.997988 0.31869662 1.8599759 1.1117275 1.7081822 -7.669281 0.24789488 0.67466533 2.3759801 -5.3175716 -4.595927 1.3364722 2.8919995 0.5573572 5.3565493 5.186986 6.689345 0.13598487 4.6166787 2.259435 4.996674
C25H47NO4+H+ -12.748512 -8.955562 6.5004005 9.2567005 11.871644 -5.128768 -12.97187 8.462262 -1.4271411 -1.7106392 8.30696 -0.284396 5.6093106 3.5993905 12.391789 19.301464 -0.5662404 -5.017366 -1.3895682 1.4125974 2.08472 -0.6494279 -0.88977486 -2.987932 0.05391302 -1.0330167 1.1993226 -8.192905 -7.0329127 10.343372 -14.05581 1.0488404 -3.095376 -16.054602 -1.5838834 4.90079 -11.087142 -17.515173 5.288852 0.11238356 1.2103829 1.8276747 -8.877363 -5.7644873 3.6091256 4.991699 11.418478 1.8868053 -4.9146433 4.0391994 -0.4372903 -5.6446176 1.4474666 -5.0347104 3.7055776 -0.94827694 -12.124751 -0.05636713 -5.099129 2.0494573 -6.8707275 1.6776875 2.8736675 2.2394822 0.06607221 4.393887 2.2238955 -3.845007 7.369005 7.5158124 -8.384047 -5.5576434 -1.3850712 -6.9580526 -5.9650054 7.89434 8.241901 -8.220725 7.636705 -1.015688 1.410646 3.434476 4.777475 6.1412277 -15.439775 -6.629184 0.1715177 4.830903 -4.0032334 -10.245455 4.713147 10.396343 5.9219637 11.452083 14.732025 5.8712664 -6.7135787 2.551014 4.6774626 -1.9237295
C26H30O12+Na+ -2.756394 -4.2077227 1.0760401 2.2115498 0.06923908 -2.011454 -2.1720672 1.4581048 2.4044104 2.270576 -0.10853408 -0.38208815 -2.6192086 2.5807848 0.114852555 -3.9398856 -5.9333687 5.289026 -0.13602903 -2.9884117 -2.5264275 -0.25559035 -3.9944181 0.46696413 -3.1630676 -1.0420235 -1.7313358 2.8093448 3.609267 -7.8879976 0.7392286 -2.3467612 -1.7027354 1.1641004 3.836057 1.4384831 0.61371917 -5.4085383 3.046668 0.15868917 -6.4235554 -4.740691 -2.1173623 3.9066195 -0.82044643 -0.14220107 2.3852694 2.0063214 -3.5165164 2.0897558 -1.5029415 -6.5705867 1.1252921 -1.3205395 2.0107186 4.79811 2.0281816 0.392313 6.442335 -3.8246171 3.374763 -3.885294 -3.282308 -5.0556846 -4.324753 -1.3616503 -4.140682 -0.32298768 5.7310324 2.3220265 0.7368327 -4.383571 -1.8688992 2.1223063 -3.6920288 2.4290173 5.4029913 -5.8356023 6.622136 2.5350769 -2.3724985 3.043866 1.5539899 2.2478237 5.481305 5.2406545 -9.350843 2.7169034 -0.06610519 2.4597437 -0.5534199 2.399333 -4.335223 -1.505823 2.089147 1.0663534 3.7546134 -2.7817612 0.5244438 6.8360605
C12H22O11+Na+ -3.3956914 -1.2596266 -2.7629325 3.939241 6.064024 1.2474915 -2.010845 -4.7089663 4.026525 -1.7968622 -0.37834835 1.9350439 -1.7847643 -4.859434 -4.7988615 0.8049406 -4.3637156 1.582738 1.080691 -6.043339 -6.004629 -1.6257288 -1.9366381 -0.11242316 1.9001672 6.3032837 2.3222733 2.1861985 2.7678175 -3.8032336 4.6815677 2.346221 1.8803014 -0.684784 2.3944058 -11.081734 -0.5013459 -0.057779074 2.9438076 -3.5351415 -1.9198434 -0.5473103 4.038926 -0.01472794 0.14704725 2.7379851 7.724872 6.4932184 -4.4981456 4.19937 5.494224 -4.9545007 2.8128972 -12.140213 6.594616 -0.9109677 2.1258352 -3.7352457 3.1615784 -3.1098404 -3.4079037 -4.42006 -6.576489 7.891784 5.595055 -3.0395608 3.330339 4.161741 -0.6778142 -2.86007 -1.642242 -2.1731555 -0.42451656 3.093635 -1.5666639 3.3123698 -0.98350334 -1.0969299 -2.3899164 -2.9667778 2.9332223 0.9394194 -3.673296 1.4887984 -2.3980205 3.462519 -5.0229692 -5.452408 2.3175213 1.3257964 3.906259 1.3233222 1.229405 -0.4223581 2.010239 0.95108503 4.9537106 -1.5268375 -1.8174053 0.83581394
C13H13N3+H+ -11.586513 -7.560968 13.159228 15.334546 5.3608994 2.482721 4.0127144 15.031056 8.875095 -2.263243 5.755287 0.093821816 -2.609192 3.454124 5.3300495 -7.4974403 -13.493736 11.088167 2.0435221 2.8259087 -4.690204 -11.325706 -16.561037 -1.0705552 -14.344268 -2.0286548 -1.2350342 -1.4334754 7.7509503 7.0001836 -4.5431733 3.1849947 1.0059868 -1.3319099 6.5655103 -8.556298 -1.8128065 3.6295054 6.144696 7.39256 0.8301562 -13.633989 7.8510866 3.1764104 -0.23904432 -2.2964213 10.121738 7.980396 7.221644 1.7247083 6.4415607 -5.2453713 -5.6657515 -12.43125 -1.6672447 -8.874932 -2.5736594 7.52943 1.9023184 -1.4555326 1.0735157 -2.9486332 -4.0850134 -4.0205784 -8.495761 -1.400978 2.46907 -12.186157 8.655818 -3.212918 -2.0435665 -16.460974 -4.2678294 -2.2091978 3.5482216 8.485325 10.754639 -7.77437 4.394857 -0.9190158 -8.30325 7.612865 1.8345817 12.027289 5.37141 10.557284 -10.613538 -0.9162544 6.520633 -8.654746 6.655554 12.370981 -13.927589 1.8313121 23.370466 0.0594299 0.25286347 -5.9985895 4.9710164 -1.0017996
C15H18O10+Na+ -13.585699 -5.565631 6.213799 9.880713 9.702598 -5.2832747 -7.0988474 8.593915 -3.1391547 -2.9301805 3.831925 -1.9772923 2.6921077 2.6262789 6.7957473 8.888871 6.418453 -1.3025658 -0.35376745 0.06519514 4.271347 -0.30202422 -1.2794667 1.2972211 -2.3567314 -2.0350854 1.0368778 1.2947835 -1.98544 2.4618137 -6.760318 2.1059017 -2.4385676 -6.3355823 -1.1784161 1.8628027 -4.4100804 -3.8889105 -0.28002065 6.132974 0.8614382 2.2754765 -4.2011704 -4.3643303 0.16201183 -0.4758826 5.56593 3.0204134 0.17802513 1.0561103 -3.5550418 -5.2901225 -0.34738147 -0.87933123 -3.2930777 -0.19472234 -7.238156 1.0258663 0.9128939 1.9386613 -1.0473604 -7.893194 -2.00681 -1.2469052 -5.802412 0.47635594 3.0404673 -9.965815 8.302908 1.5294781 -3.3955233 -13.920943 7.3604865 -7.112882 3.0374606 4.28876 11.1052 -4.530048 1.8406266 -5.1723866 -5.245232 2.6115446 0.9322975 10.041852 -6.5742693 2.8586323 1.9124265 3.5393174 -4.347877 -4.4960103 3.5377018 1.6335001 1.5915992 6.072198 16.305502 5.8861356 -1.6903081 0.91858417 9.767623 -3.389038
C12H22O11+K+ -14.468888 -4.721657 6.712683 7.7949486 9.018755 -2.219451 -5.9961295 6.588017 -1.1114231 -2.3823128 0.85861516 -1.2213674 1.8637401 1.886628 6.579967 7.897277 3.9783156 1.3251283 0.86198 -1.8252798 -0.01707302 -1.3764122 -3.600136 2.2309382 -4.26866 -2.5747128 -0.38622263 4.7857275 1.528331 -3.084523 -2.3304775 0.084410086 0.87211156 -5.074671 0.13581687 -1.1556664 -0.1688837 -4.1859775 1.2338227 6.790543 -3.0834572 -3.9913867 0.69489884 -0.93508685 1.2362119 -2.6965067 6.7222586 4.7448163 -1.8256309 3.6518753 -1.5333725 -7.2006555 1.694359 -5.905001 0.92239404 2.8923786 -2.050675 0.6373281 3.3537662 -3.1833994 2.985442 -7.1886334 -1.7114013 -2.4978418 -3.2538655 1.0785236 2.7760472 -4.298329 10.121421 -1.7083105 -1.0285554 -18.106758 4.813661 -3.1040266 5.314583 3.7824993 11.036388 -4.089387 0.9336336 -1.4803056 -4.970585 2.7312775 0.7027206 8.78038 -1.0510164 5.2195926 -3.4364684 1.9727285 -2.2324898 -3.1828444 2.9477408 1.8276829 -4.5081086 3.8431985 16.104216 6.0768557 5.103458 -0.27321738 9.633361 2.8020515
C15H22N2O4+H+ -12.482168 -7.8969693 6.1182747 11.577451 9.858746 -4.289174 -7.761642 7.1787677 2.1064625 -2.9142208 7.843223 -1.1464471 2.990037 0.7244548 6.352438 8.753605 -3.1080372 -1.6453815 -1.285177 0.98861516 -1.6895318 -3.4049783 -4.4702373 -2.998199 -0.54122907 -0.6501018 1.214082 -3.5394447 -0.81899375 4.812991 -7.18264 0.9601963 0.14994094 -11.0457325 -0.6461209 -3.9087763 -6.0703764 -5.392132 3.9993887 1.0177712 1.8693364 -0.9497836 -2.1421962 -4.4203196 6.129849 0.8519891 9.720695 6.4489813 -3.24805 4.2618246 1.3254002 -3.644463 1.4964176 -6.0626154 3.1282954 -3.5774443 -5.5915513 -0.87135345 -1.3623184 1.445277 -5.254022 -1.5712924 -1.8455102 2.042862 -1.4176066 0.75430316 1.1805186 -6.4995484 6.3841553 5.147304 -5.915466 -4.886147 0.46832982 -5.2461677 -4.989132 5.0779877 8.66135 -2.0616696 4.441203 0.73732615 -0.5385994 2.5238595 0.1347097 5.63682 -10.268079 3.255179 -1.2473049 -0.040074993 -1.4425148 -7.2594695 4.694323 7.1162148 -0.0137021635 6.112362 12.312929 7.079294 -0.65636235 1.1383413 2.4737372 0.8624102
