37 100
C7H15NO3+H+ -5.8497667 19.901356 8.585678 -2.692825 -9.935812 15.873561 -17.736088 -1.7496569 0.98768264 2.365592 1.0758269 -3.3913894 1.2428129 6.1082788 1.4893131 1.8641406 -1.6008978 -0.09610612 -1.5457926 -1.9381943 10.9241 -6.8004217 2.6288223 -1.3643556 0.7619774 -2.2110038 2.095799 -1.5766617 -2.303183 -0.9061284 -3.4527147 0.8285676 -8.939158 -1.7726561 -4.9979644 1.3657838 20.168034 16.913404 -2.7444117 -5.653859 5.826141 -1.906904 1.6503004 -6.5816097 5.8943853 -7.667269 -9.340545 -0.34275374 0.89151824 1.1225046 -0.41858667 2.1215556 -1.952327 -3.9155114 4.2134175 2.0233355 0.9077095 6.508166 1.1192248 -3.4413126 2.94538 -1.6440783 3.1925855 1.0512638 17.620615 10.7927265 -13.910251 -1.5873042 20.864412 22.569218 -11.852031 -19.253773 -6.557551 25.382015 -6.8980985 -11.570528 19.948736 5.3299804 -5.6335626 4.617854 0.7765628 -9.934392 -11.508415 7.869248 3.509792 17.15858 -11.697433 -6.1350846 -9.232117 7.2913113 9.041462 0.9032187 -1.2085965 8.3612 5.967577 -6.686579 17.65807 -12.4236 -23.392178 -15.183808
C15H22N6O5S+H+ -0.00988448 31.742197 11.051208 -4.196012 7.134565 12.657451 -18.83289 -0.03361114 0.88532704 -2.1686504 3.0078108 -1.5567108 2.282818 10.311424 -9.177807 -0.39628342 0.0016039198 -0.279204 -1.4162706 -0.64701974 6.538884 -2.4100919 1.772331 -1.414098 1.6827366 -0.11309461 1.2712102 0.10051332 -5.408314 -2.2737224 -8.330548 1.9755752 -6.1600556 9.196504 -2.3234932 -5.9673266 19.47111 -2.3660955 -5.729368 9.64733 4.601072 -3.249805 -0.71768415 -7.8260317 14.704591 -8.306592 -1.0791084 0.573458 0.79397845 -1.5949731 6.368633 -2.5768983 -0.28360745 4.940122 9.384021 1.7485268 1.7447389 10.824004 1.2150859 -5.2703276 1.9094632 -4.225205 3.72854 -0.9728913 15.8334 5.4290943 -0.004771389 -8.962976 37.393845 43.754246 -5.9165764 -25.886696 0.6960522 4.4986706 -16.65458 -13.553214 0.7224383 -13.847934 -1.8651779 -8.896623 -3.34414 -0.033935003 -0.13360244 0.90351707 0.58379126 7.7380514 -9.61052 1.2513072 -4.332641 5.015279 15.286534 -1.9080766 -1.4251679 11.429264 18.862312 -12.71746 22.704725 -15.733108 -9.808011 0.15104526
C24H50NO7P+H+ -0.2723766 23.849863 8.664836 -2.5590518 1.1967543 9.393475 -13.469313 -0.40785444 0.099061444 -1.3593838 1.2850498 -0.5432802 1.3151835 5.433414 -3.2297392 0.43384048 0.9408656 0.5754708 -0.73387873 -1.6319163 4.5910354 -0.40965986 1.805548 -0.93669236 1.1298487 -0.6370034 0.9633095 -0.58854926 -3.5012293 -0.77548325 -6.8483653 2.7191408 -3.774007 6.6461215 -3.4205112 -4.2033315 16.114038 -1.4158583 -1.6095936 3.8831184 3.1664746 -1.4101382 -0.67131424 -5.0166297 9.23521 -6.3138857 -2.0634668 -0.30537468 1.9104668 0.8797198 2.6617732 2.5565372 -0.62026995 0.8461843 7.7571235 3.2961612 1.9509801 11.689387 1.5080824 -5.5170608 1.4931495 -4.153274 3.9950101 -0.7930456 17.133413 1.9142517 -4.55544 -8.421249 28.561165 27.703268 -10.913176 -20.524712 -6.0088344 14.844347 -10.963651 -8.527275 0.5470145 -14.698861 0.44099736 -9.9902315 1.630384 0.040064372 2.0429244 -2.391642 -0.026090646 1.6225259 -12.350036 -2.9445076 -3.997353 8.230874 14.313299 0.7064374 2.086333 6.6681805 17.276022 -8.905992 21.676477 -23.058035 -6.3554735 -5.3711333
C4H9N3O2+K+ -1.5138146 29.4322 11.605958 -1.5496293 -1.5146321 10.532861 -22.33864 -4.1920934 0.5542285 0.64636534 1.053433 -2.5398388 2.189517 7.330108 -7.182543 -2.9652805 -0.29158625 0.3850389 -1.5974635 -2.547831 6.681236 -1.5691472 2.0280733 -0.8742507 0.996222 -1.3723204 1.4745494 -1.0879246 -3.5109189 -0.793216 -8.241363 3.16455 -4.0185156 3.0076432 -3.521292 -4.4307446 14.830184 8.741244 -5.068385 -2.929802 3.8661208 -0.99210155 1.0357201 -5.8031206 6.495367 -10.442543 -9.919292 -0.53723735 -0.13536036 0.032681942 0.464 -1.3414105 -1.9433124 -0.16014735 4.4615536 3.369656 0.80695564 6.2011213 1.0164241 -3.3793516 1.555674 -1.6323735 3.7648723 0.067660965 22.041979 9.863039 -11.833007 -4.6475444 32.82079 35.847187 -11.168161 -19.898853 -6.524949 17.885988 -15.245628 -12.238603 10.030432 -13.114623 -3.7121844 -5.6658297 0.24156983 -3.7814472 -2.421051 3.5314808 -0.05648435 11.19373 -7.6820674 -1.4439037 -6.6432214 4.6257553 13.494271 -2.677212 -2.00953 13.281156 13.250958 -5.954114 20.414564 -11.812534 -14.576769 -6.5824914
C9H17NO4+H+ 0.64284605 28.94958 13.430098 -0.8569587 -5.4591007 7.288132 -21.371979 -4.3683023 -1.8931627 -1.3765393 -2.1518533 1.8530867 -0.7127748 5.3290577 -6.0020328 -4.0384502 2.000788 0.779763 0.22544645 -1.236448 5.7380705 -1.810248 1.9514157 -0.7353188 2.258232 -1.1973996 2.6551604 -0.5008659 -4.8973446 -2.1771898 -8.8765 2.1160114 -4.7874217 6.253783 -2.3286073 -5.0650973 13.671713 0.44647053 -8.829515 5.249397 5.2395105 -3.0717843 0.95969933 -7.188093 11.236407 -11.328891 -9.463644 -0.0037052473 0.21592022 -0.6846538 2.6426642 -1.5702878 -5.6682663 7.8019743 4.272893 0.19424711 1.4225235 8.519643 0.8563854 -4.184464 1.6813759 -2.9020417 3.432899 -0.817091 17.17508 14.744203 -7.198481 -7.254044 31.155577 24.948044 -12.692114 -16.50269 -6.6514115 14.395996 -15.605983 -8.087112 14.48939 -1.2061671 -2.4998906 -5.162509 1.0988935 -6.0144997 -4.6445274 6.6552505 6.0471845 9.826935 -8.838019 -0.4759334 -7.5637794 3.0561802 15.189756 -4.82304 -2.6446323 8.558745 6.3393273 -9.296875 30.828968 -12.368067 -24.604334 -10.234546
C11H21NO4+H+ -4.513704 26.27929 9.193324 -3.7359838 -8.734052 12.154264 -17.635141 -0.59665126 0.57383454 0.26013082 1.1391412 -1.8445525 3.6158836 7.819777 -4.283998 0.44607413 0.27727467 0.16925706 -1.0536572 -0.9969112 5.493992 -3.0710082 1.7837938 -1.3515073 0.013710801 -1.2995354 0.4058984 -1.3859224 -2.7581213 -0.7509323 -4.919608 1.7174369 -6.0874906 3.556076 -3.8637922 1.243603 14.119918 4.727963 -0.2906328 5.028276 5.8227773 -1.5080122 0.65475523 -10.310178 9.152621 -9.590372 -5.7257733 1.3340404 1.6701763 0.14210775 3.9139779 1.182498 0.19762477 -1.0558474 6.261458 5.809404 0.95883083 5.36142 0.5690959 -2.3920875 3.162467 -3.9759777 0.46418333 0.025325786 14.688965 3.712109 -11.516092 -8.447038 30.487965 38.251293 -11.458284 -24.58082 -1.3672035 12.324624 -8.842421 -9.954386 9.474466 -6.917242 -0.12238866 -7.314519 4.225802 -4.6817613 -0.7286882 -1.0185429 -0.54322696 8.053451 -10.152435 -6.847503 -6.6540613 4.8519983 11.853374 -3.2106109 -1.8922257 11.084101 9.943746 -4.1213183 17.9881 -12.067268 -15.010066 -7.5524387
C22H22O7+H+ -2.0214212 24.329735 9.8865795 -5.0108194 -2.0504663 11.767567 -19.94164 1.9325984 -0.3240799 -1.2642691 0.5595759 -0.15740047 0.94548833 5.9887724 -4.30959 -0.3034601 0.63266915 0.2619228 -1.1645215 -1.4506861 5.678 -1.3872551 1.7573674 -0.88298875 0.96785635 -0.9394267 0.96161306 -0.91252804 -3.5803213 -0.8991072 -5.969178 2.2520654 -8.767601 4.1455245 -5.0271473 -3.6043394 20.346933 7.126481 -4.1515217 3.4450088 3.0958967 -2.9542725 -0.29683867 -8.579964 12.388974 -10.7088585 -4.8741045 1.1059642 3.38354 -0.12619177 7.3025784 4.0861473 1.5307747 -2.3822036 6.4490743 5.521444 1.6130002 11.78707 1.7950308 -6.226991 2.7227643 -3.1379416 3.5071204 0.13478173 11.766462 0.08243923 -2.311304 -10.02454 31.398458 34.196674 -9.055185 -21.746233 -10.456361 14.136131 -13.096847 -9.774921 10.719116 -8.7126665 -2.6621342 -5.536021 0.93990797 -2.5008054 -2.7925005 -1.2746998 -3.495722 15.001295 -15.938268 -5.565262 -7.647109 8.834129 17.500034 -2.337257 4.868134 16.307467 12.055211 -10.664929 23.316244 -24.909952 -14.735844 -5.6931343
C8H20NO6P+H+ -2.756053 28.207525 10.933445 0.31641322 -8.073498 15.73405 -18.879026 -3.1520047 0.91158485 0.6299052 1.9397315 -2.5106828 0.825966 5.3758364 -4.7931747 -0.45533264 -0.33361727 0.049892925 -1.4717344 -1.8966322 7.17555 -2.744268 1.453743 -1.1237034 1.1514857 -0.95415425 1.4553549 -0.6282372 -2.1474247 -0.3545765 -4.736166 1.9907974 -6.902617 1.8075857 -7.231623 1.4031025 17.211432 0.037913453 -0.7525443 6.1544213 6.793413 -3.366426 1.313121 -10.409305 12.848989 -9.4838 -5.335665 -0.15124957 0.8046018 1.166657 0.32058126 0.6927863 -1.4391165 0.13300222 3.284003 -1.5818138 1.3300953 8.338279 1.0174618 -4.118934 3.0100436 -3.547293 2.3316922 -0.28642228 19.631996 11.768688 -4.438223 -1.1259196 20.191792 23.526546 -6.355897 -21.036148 -9.823234 8.625838 -5.9381776 -5.447604 9.572828 1.8985332 -7.1766095 -2.673671 2.5461035 -6.1808953 -1.0801196 2.6317773 0.9352902 12.463394 -5.9329257 -10.972466 -9.057574 5.045415 15.513045 -5.0664034 -2.406579 8.586302 12.5303335 -6.423275 25.416065 -14.666533 -19.624926 -15.188803
C10H7NO3+K+ 3.3308167 23.711418 7.127802 0.08472356 8.541308 4.50208 -15.7020235 -3.9871767 0.33571094 -0.59741175 1.1911784 -1.3800287 3.446609 8.723375 -8.117987 -2.0583827 0.2689897 0.17302833 -0.79257274 -0.9660775 1.6848905 1.2557666 0.6006478 -0.5061169 0.6778596 -0.600202 0.7335649 -0.51529974 -2.5281825 -0.22817807 -6.3922105 2.90858 -4.898623 6.699716 -2.5671 -5.22187 19.207561 -4.3717647 -6.881812 6.691243 3.2307303 -1.9595937 -0.50598913 -3.9462886 13.610814 -8.052791 -2.3662305 0.20833151 -1.6226996 -0.29656914 -0.9105002 -4.888958 0.036454715 -1.9618919 3.8901994 1.6524196 0.79926807 3.6419408 0.07767325 -1.397046 0.73146063 -2.8817449 0.82150185 -0.9137709 12.09495 9.087108 -2.7191107 -6.15562 39.439495 29.331713 -0.38759065 -23.375053 -6.2646437 3.5069103 -15.195654 -8.871009 5.956278 -2.9738216 -1.7979047 -14.168154 -0.80183357 -2.8045497 0.48107067 -1.8842763 -4.2716312 4.4507756 -9.638772 -4.3589587 -4.6649942 4.200559 12.927379 -3.3917332 -2.8541415 10.704533 9.775556 -9.331905 20.07517 -14.992006 -11.224389 -0.4477895
C11H20N2O3+H+ 3.2716799 28.108421 12.242547 -3.042446 -2.264781 11.889102 -15.7002 -2.325468 -0.33114508 -1.0771924 0.69563514 0.11911863 -1.1689769 3.1709983 -4.144402 -0.29423502 1.9450572 0.5161229 0.12335077 -0.5492846 4.819472 -1.6676507 1.2924254 -0.8868214 1.5588315 0.07934023 1.2244928 0.36725843 -2.8195195 -0.843121 -6.964702 2.434043 -2.895052 3.211218 0.3445443 -3.9895012 13.28158 -4.794832 -6.124972 7.252903 3.8485272 -3.8084764 0.5003919 -8.275648 6.2670236 -5.9293513 -4.438937 1.2477539 -0.17019312 -0.1360071 1.0320876 -1.8800824 -1.8397412 4.7166133 -0.37630725 -1.8479464 0.74357986 2.82304 -0.031185644 -0.89216036 1.3771421 -2.3252466 -0.119909115 -0.6714825 16.219973 1.1218702 2.0738292 -8.678702 35.106247 20.71878 5.485367 -16.317202 -4.3719554 6.1315084 -14.453801 -13.280609 0.59978896 -4.6363277 0.09492224 1.0605066 0.2882655 -5.109588 1.0249017 -1.7033055 0.14209975 9.690302 -11.290794 -3.4237494 -1.4276067 1.0502344 15.67372 -6.266405 -1.3425001 12.706837 15.831802 -3.8330195 22.244104 -19.795279 -7.94754 -5.4493604
C8H17NO2+H+ 4.254291 28.994709 10.397024 1.0311906 4.5432944 6.83555 -19.044004 -6.130217 2.0410235 0.48868513 3.9833612 -4.66871 2.8849354 8.323047 -10.029399 -3.3071094 -0.18465263 0.19984086 -1.4550819 -1.877857 2.7529397 0.13636747 0.79351866 -0.6424347 0.78797805 -0.6260288 0.94754404 -0.4341707 -1.977488 -0.12729158 -7.0755534 3.0896156 -1.1258898 4.705548 -3.9851491 0.22567943 10.845278 -4.9632893 -3.738123 5.907153 4.1998096 -1.8140529 0.32446057 -3.9677408 13.25149 -9.758532 -7.198712 0.2716212 -0.9204304 0.016748276 0.15100503 -4.071088 -1.8910921 -1.0474236 7.4070544 3.409172 1.2390367 6.6079283 0.8315766 -2.8702767 1.5007614 -3.8371835 2.4535248 -0.53355354 15.360407 13.777581 -3.9471412 -6.144437 34.17675 26.88052 0.6594506 -16.953447 -4.8501387 5.338519 -16.974539 -12.843607 3.7709992 -4.991964 -1.1082672 -13.543475 -3.1708066 -4.6277013 -0.21709812 2.1111257 -1.8678514 10.17446 -8.736961 -2.8418279 -2.5771167 -0.12457427 11.338877 -5.4229355 -3.3506286 9.734736 9.993357 -7.40133 26.788992 -16.096306 -14.100013 -2.4483705
C29H47NO4+Na+ -3.151479 28.643147 9.69393 -6.0716057 -11.138288 17.923534 -18.540457 0.29642522 1.315999 -2.384777 3.9280012 -1.9044837 -0.55820704 4.512547 -7.2696247 -0.45418948 3.692329 1.5283377 -0.5803628 -3.5881114 12.512541 -4.795497 3.5656707 -1.8064405 1.9687035 -0.12625144 1.3264493 -0.017395947 -3.9230106 -0.92341 -8.012455 3.1277697 -5.669074 7.5414324 1.7606692 -15.356388 24.952465 1.1442957 -2.4054892 4.4623146 5.2622128 -3.1908135 -0.9559951 -10.477079 19.175909 -9.42845 0.5596219 -3.9783685 6.536281 0.123541 12.951299 8.813989 1.9591535 -0.47312436 13.234294 6.6642013 2.5676954 19.10391 3.2191534 -10.214446 0.15174052 -2.5584688 8.780677 -0.5156807 18.612776 -11.586838 2.677974 -11.162506 39.97389 50.324486 -9.511161 -20.033306 -1.5071276 8.269096 -13.789887 -9.424124 -0.019243257 -25.124792 -2.730833 -1.1196513 3.4368534 0.5043382 5.494817 -5.423531 -1.5700536 2.2162378 -16.758993 4.3759975 -9.819255 8.722332 22.949207 -2.8410585 -2.621229 15.478195 17.837029 -3.8820007 15.5052185 -24.024302 -1.9721013 -8.991879
C7H15NO3+K+ 3.8086119 26.63006 9.20536 -0.67635584 4.5158806 6.721927 -14.194152 -5.1289706 0.9736178 -0.03783977 2.2890346 -2.349222 2.4825335 7.3770266 -6.7987943 -0.9445783 0.487153 0.2378842 -0.7217239 -1.2476377 5.0592623 -1.4844329 1.1272303 -0.97500265 1.2356292 -0.34147173 1.1053356 -0.13530989 -3.082439 -0.9843081 -6.5129375 2.183434 -3.9065542 7.7851667 -4.168682 -3.0587823 20.571388 -8.127712 -4.2017508 11.429021 4.7224526 -3.4087932 -0.17959927 -6.006477 15.928955 -7.523153 -1.5017984 0.83321565 -0.182823 0.21913466 0.8982401 -2.402854 -1.0779595 0.043348365 9.600831 2.4809103 1.7252097 8.436424 0.58806956 -3.4552305 1.1598535 -5.2892632 1.6696233 -1.6977583 16.12417 1.0014113 -2.3405342 -5.402194 32.34375 34.349903 -5.5625687 -17.727571 -3.5768235 6.465181 -13.363261 -4.2891355 2.455924 -10.466915 -0.81941694 -15.24811 -0.76461476 -3.238612 3.67184 -2.7778454 -3.1496708 7.6676736 -9.262916 -3.359923 -5.3522186 3.9647465 17.219877 -4.210989 -1.0725595 14.64585 16.78794 -10.08666 22.992468 -23.199564 -5.9983196 -2.385177
C26H50NO7P+H+ 8.080168 41.391747 25.072584 -5.543135 14.889636 11.264409 -18.051823 -6.892468 1.8529915 -3.778792 6.618811 -2.1470764 5.2064757 13.170255 -24.015411 -7.227997 7.4850674 2.7670655 2.0969095 -2.6263516 -0.4790122 3.1348898 0.45864308 -1.1462228 1.6587065 3.018426 -1.4803488 2.000403 -4.8494873 0.26996797 -17.017897 8.317917 -4.7000356 17.51794 0.9367941 -10.946809 21.506128 -21.96791 -2.8891587 24.038507 4.9618115 -5.873458 -2.4379466 -10.054498 30.255703 -10.927947 3.4361207 3.204534 0.975998 -3.596675 12.801891 -6.9692693 1.740148 4.8070693 15.713131 8.246832 2.1494002 13.792375 2.19957 -6.69297 -1.7278352 -6.229325 6.8282905 -2.695455 17.45254 -3.263987 18.313868 -11.465672 67.489 65.04184 1.4137189 -17.257513 6.004904 -8.777429 -25.148209 -19.648548 -14.458726 -14.965746 0.9622406 -31.189926 -7.103969 5.250414 10.52851 -11.078158 -2.7307434 2.518992 -12.203466 7.14804 3.6634586 -1.2910285 23.030834 -11.294542 -1.6468867 19.327137 27.880653 -8.206623 27.533413 -37.431976 7.231542 4.8981276
C13H17NO3+Na+ 9.744464 30.95895 16.942074 12.374153 -7.726072 -0.83255684 -15.653907 -13.918107 -8.097184 -2.7675629 -10.375823 11.849702 5.7816286 7.8730955 -13.861232 -10.013229 3.714121 0.33518535 0.58564395 2.6562507 -6.879732 7.4864297 2.0835671 -0.046953507 -1.1970936 4.1043887 -4.080929 2.6470628 6.217128 2.5407107 1.9023156 0.5618859 3.8112862 -0.10634205 7.310831 -1.7204559 9.732555 -31.161499 -27.859875 23.654228 -4.99303 0.09323629 0.27310112 19.077162 7.4442644 1.8906496 6.4114003 8.243838 -15.132902 0.8620333 -27.069609 -26.37527 -0.86256313 10.652596 0.09571992 -8.5093565 1.1485816 0.26549676 -2.4104075 1.6810673 -5.0901895 -1.9148693 -6.8114944 -4.611819 -0.64804435 21.41116 4.457708 3.6903684 92.45807 24.896473 -48.294437 -41.739567 -10.507642 -15.221437 -56.316345 37.284996 -35.09583 20.27195 9.722666 -39.2155 -16.541805 -15.188441 25.800037 -11.408748 20.602455 4.663842 -1.1748886 28.715464 -7.1915207 -14.145655 17.87483 -14.413444 13.786865 17.013378 -2.2378743 -17.728647 24.67172 19.097628 4.5369077 20.922953
C10H16N4O3+H+ -2.4414523 29.20516 14.928175 -0.38380346 0.31327495 9.760875 -11.276655 -5.531041 0.56302077 0.6377027 0.40424013 -1.5579113 1.8880113 4.5875907 -3.4317772 -0.7835017 -1.4082583 0.11784434 -1.6612216 -2.6358266 5.4959903 -1.1091026 0.61356276 -0.3170951 0.9161845 -0.9186382 1.4051774 -0.50513405 -1.1496674 0.3440377 -2.025804 1.5287769 -7.4243474 1.9928632 -6.0244083 1.8669947 9.738255 1.46414 -2.3045187 1.6007211 3.544994 -0.10390064 0.52365136 -3.2600996 7.6879034 -6.556902 -2.764568 0.3844477 -1.9704431 0.26903597 -3.6047611 -3.686752 -1.9074407 0.2170927 5.360056 -1.0176957 1.2218255 6.8742504 0.5727997 -3.1947389 0.656055 -2.302776 3.5701897 -0.3167564 18.719873 14.745814 2.059087 4.478374 8.6575575 14.987012 1.8516462 -25.013239 -3.5948129 13.479188 -10.2442875 -7.640578 14.078412 13.053988 2.0987368 -15.277858 -1.2665423 -3.420227 -4.233129 6.57848 4.215487 14.879025 -2.2675881 -9.550278 -5.222074 1.925134 11.2914295 -6.3839235 -1.5233178 0.065854445 8.39192 -7.371051 26.69372 -7.8770404 -13.179094 1.1606338
C8H20NO6P+K+ 15.560109 41.53114 -9.324663 6.677229 47.07836 -31.023867 -34.06918 -7.601636 4.105628 -1.4177736 8.321428 -7.817423 8.214751 22.998383 -10.489686 1.3572886 -3.143431 -1.2473136 -1.8709884 1.4697653 -8.114548 6.6606436 -2.8305814 1.2445326 -0.5265487 0.6432735 0.040361922 1.0922856 4.1197915 3.278499 -1.1603652 3.2871099 0.67499983 8.893956 8.709268 9.325893 -3.4741004 -21.89535 -14.715375 15.14763 -7.890985 -3.0281713 -7.788255 -4.997212 35.32553 -23.252708 -2.301434 -3.8522327 -3.9253173 -0.8992169 -4.7079287 -8.125338 -5.8608613 5.2302356 7.9361324 1.261655 0.8715316 2.1272738 -0.27496657 -0.16021982 -3.919684 -2.2049332 8.100105 -1.5888617 24.174913 -2.308385 10.204505 -9.077006 22.319248 34.937542 5.6620636 -4.539709 -6.2271714 -20.758505 -38.737896 -9.952184 -24.331583 -17.558727 23.833187 -42.56579 11.410326 11.6032715 -3.579743 -1.3891051 14.968356 -0.19707865 -8.536075 0.19585124 1.4813994 -4.353443 15.172253 -20.085148 -8.903545 -1.3283043 -11.721905 -5.455366 16.45871 -43.389683 -23.819458 1.9147468
C8H20NO6P+Na+ -17.851952 21.188126 33.104103 -15.513106 4.9910836 5.901533 -25.21618 -3.8068979 -0.8112623 3.2002425 -3.68072 -0.40672186 10.90551 16.676138 -17.76916 -8.171156 -3.9459746 -1.1183592 -2.3274963 -0.9612444 -1.5614159 -1.0786834 -2.7981396 -1.263353 1.5284065 -4.389439 3.6888342 -3.5359852 -10.413136 -3.9664106 -10.091114 2.018789 -17.767973 16.662241 -30.78192 11.303584 11.473436 26.052872 15.737904 -9.022101 11.362382 7.050089 4.4798737 -12.970442 5.157961 -31.347353 -31.250626 10.537671 -3.7968059 -10.174379 17.7866 -21.682037 -4.6198707 9.9447365 10.987326 20.482252 2.6064072 11.681067 0.19477251 -4.287214 6.1746426 -11.686838 5.996451 -0.81553066 22.493303 43.39554 19.156307 -29.440248 2.2022834 34.49779 -6.711225 -31.99272 -12.917868 25.070131 -9.821706 -4.825958 -9.172253 0.06316961 5.0738378 -62.413277 -2.1451435 7.4498315 -8.620685 10.6841545 10.120712 32.347534 -14.703086 -10.42278 8.508888 -7.2363353 11.943636 -13.41966 7.5667133 19.82615 18.146378 -17.096365 62.452324 -18.562561 -35.902657 33.34394
C10H11NO2+Na+ -3.9263062 23.950436 9.088845 -4.53422 1.2804137 15.479266 -13.742213 -1.6191012 1.8930665 1.0815613 2.2702122 -3.6835272 1.865806 3.908008 -2.34474 2.9942024 1.7026033 1.0788246 -0.36385676 -3.4828768 6.9706206 -1.5862634 1.2032984 -0.86571187 1.9867791 -0.15764783 1.8405817 0.3495876 -1.094849 0.06741943 -2.0696354 1.2646435 -1.4888986 5.9368095 1.4998151 -10.886274 13.149894 -4.9515224 -1.5178355 4.414651 4.6369386 -3.6891708 -0.45987093 -10.5186825 16.22693 -5.883158 -0.6418231 -1.5215884 3.4390755 0.05598762 7.0418057 4.3416786 -0.31887427 0.18741174 10.497924 1.8607793 1.7528569 13.599711 2.4053657 -7.422749 -0.074466996 0.48311737 8.587835 0.7271771 8.934846 -5.5864873 7.33269 1.4328495 27.292152 28.646597 -6.1717515 -14.189332 3.1800942 12.476433 -5.7327228 -8.370251 0.46522173 -12.48358 -3.5767515 0.48014367 3.8808277 -0.12578714 2.8358512 -3.1463683 -0.11429046 -1.5643127 -8.990359 -0.71443915 -5.3801293 6.9452877 17.438229 -1.6643692 -4.3897567 4.823662 16.1301 -0.5527091 11.030143 -21.878576 5.483481 -8.541249
C37H68O4+H+ 1.7047353 34.660515 20.538227 -9.039503 8.045566 15.509032 -17.378794 -4.334475 3.553595 -0.8818966 8.004318 -5.7176857 6.1875467 11.423995 -17.982693 -2.2983801 5.6276064 2.5128303 1.0613489 -4.306582 5.292516 -0.68144304 1.3309225 -1.8859618 2.232652 2.0537593 -0.012791505 1.6544749 -4.9478703 -1.0658518 -12.625627 5.044229 -5.1166806 17.762264 2.921537 -17.621935 22.531462 -11.257703 -1.1416876 14.424953 4.4243374 -3.8838308 -2.0578911 -7.97031 28.099558 -8.480453 5.328425 0.19459163 3.032615 -3.1085722 14.622909 -1.9210229 2.9049234 2.8860145 17.776403 8.41755 2.103723 16.427607 3.120502 -8.847681 -3.5165567 -2.4373655 10.392691 -1.5940719 14.085264 -13.190792 17.797632 -14.838611 53.99954 57.061676 -1.7070078 -9.15661 8.948376 -3.8001106 -18.086212 -8.388605 -15.051656 -21.561865 -0.40021107 -13.822894 0.74827355 5.2297673 8.85648 -12.278092 -6.749541 -6.0317783 -13.374886 8.551871 -5.124142 4.856854 26.204935 -6.749962 -4.343883 17.15188 23.954817 -8.127415 17.10629 -36.489635 13.798967 4.8644657
C35H66O4+H+ 2.3527222 29.542143 13.948174 -4.786546 1.5157217 19.732891 -18.772099 -4.787292 2.9231403 -1.4645498 6.512504 -4.328763 3.7106216 8.191625 -15.214434 -2.1265395 5.310608 1.9961481 0.92797166 -3.1038332 2.9836369 0.10168387 0.93449336 -1.1717099 2.120841 1.5289696 0.32070345 1.2811527 -4.211983 -0.961275 -10.668652 4.197284 -2.5401976 15.391493 3.0973036 -16.924698 18.775314 -14.010502 -0.7744415 14.50117 3.9564872 -4.398044 -1.7938658 -9.910802 25.682274 -8.18315 2.934308 0.9837209 4.0955043 -1.8822285 14.003284 1.0494758 2.5405266 2.236063 19.612991 9.320067 2.3668418 16.840227 2.9161012 -8.695091 -0.91687 -3.2349372 9.248854 -0.6462164 6.188597 -10.285792 19.284504 -7.0672836 45.541122 48.289246 -3.7072122 -10.199427 11.361529 -1.2497458 -17.06806 -7.3307567 -12.97712 -19.273643 2.2010043 -16.113829 3.127947 3.4744346 9.264397 -11.352612 -8.449881 -6.3538513 -9.990256 4.7556252 -2.1029503 2.8589144 19.881086 -3.8684037 -1.598167 13.194791 20.578598 -6.478046 15.263637 -31.321232 12.8357725 4.4030557
C23H45NO4+H+ -1.7950659 1.4126904 -4.5710344 0.058934502 -9.93906 4.725643 -4.782232 0.54519916 0.2560969 -1.8430408 1.5219324 -0.7222462 -1.1414001 2.278145 -3.0633214 -1.8078648 -2.0737748 -0.33125246 -2.3585048 -2.3825836 10.142599 -3.079533 1.974976 -0.49491495 1.097043 -0.8968566 1.659978 -0.35589585 -0.22604604 0.072590634 3.929801 -1.3106146 -8.079705 -2.6158009 -1.1489785 -3.3192582 13.000935 7.9302483 -5.1357765 -7.107472 1.7320855 -0.76392466 -0.9283392 -3.4234502 9.701584 -4.963866 -0.047048606 -4.4652686 4.373029 0.9953033 5.955064 7.956689 -0.4345884 -1.6154857 9.125192 2.2453184 1.4608604 10.417145 1.6245121 -5.455787 0.777736 -3.8686533 2.5465825 -0.85778123 1.7965516 -2.6834948 -6.1778 2.1624053 -7.0114007 -1.5811332 -11.644644 -12.636475 -4.840427 15.242652 4.1617126 1.994524 10.61425 -6.413957 -9.0052395 23.629452 2.5438514 -3.0686228 -4.4580956 6.517248 3.5524464 5.8135796 -11.66845 -4.778791 -7.643918 11.58149 8.311918 3.1790547 3.954008 -2.2786968 0.29857537 -8.990598 7.034558 -8.359074 -8.1541605 -7.464695
C37H66O4+H+ 2.940068 27.462236 12.641526 -5.5701876 7.159348 11.376738 -16.96202 -1.5096688 2.567435 -1.291368 5.502753 -3.9073012 3.1830678 7.9491906 -13.066827 -2.196249 3.166001 1.2195882 0.07530055 -2.6030107 3.6478376 0.018890576 1.1303065 -1.0826379 1.8927155 1.5830967 0.23103331 1.383526 -3.4955132 -0.5678464 -10.039685 4.2083583 -1.8351887 11.890037 1.8456811 -15.847367 13.652111 -11.288385 -5.7079926 11.938836 3.2389283 -2.7956026 -2.8012016 -7.759117 27.781754 -9.296367 6.29028 -2.6677623 3.1328294 -2.0694463 12.32452 -0.27106974 2.367077 2.8886902 16.945532 5.372275 2.1784751 17.732912 3.328595 -9.7648735 -1.2473425 -2.7958462 11.034405 -0.5607482 14.357713 -8.407291 12.389833 -7.736321 46.425144 49.031406 -3.3256648 -15.6897335 10.670925 -2.1178257 -17.813898 -11.506721 -9.126311 -15.747425 -0.50624746 -11.048314 -2.171765 2.88283 7.8753705 -5.662317 -6.5219374 -2.9712844 -12.447041 8.307104 -3.0837905 3.4002345 22.802034 -3.8523571 -3.4265168 14.562888 24.915771 -6.3759594 19.803444 -34.746735 8.74929 -0.47059125
C10H15N5O10P2+H+ -20.865852 9.533326 -4.524379 1.9728273 -18.920513 13.590259 -19.473219 1.6379071 0.7611604 1.0022106 1.0045807 -1.7092117 -1.724486 -1.0781606 4.205257 3.0875251 -0.80870885 0.4241857 -2.2996364 -3.2085388 7.5302835 -2.6402981 1.4022342 -0.051896967 0.7349059 0.12608254 0.5424301 0.27000263 1.901107 2.248465 -0.8550338 2.5471249 -14.043568 -6.6274695 -6.5438404 10.26995 5.5563602 16.75483 1.00245 -3.9555159 4.350841 -3.6556475 2.4490566 -12.530445 1.6556228 -3.9805505 -6.600648 0.7599001 4.1114755 1.7728689 2.2972531 10.403728 -3.4320476 -8.257248 4.7104516 -0.4043142 0.13372447 3.8804588 1.1613638 -2.7461514 2.595677 -0.90645766 4.548724 2.2919037 6.9799147 15.811814 -23.230165 6.086571 -10.227693 12.8206625 -12.678115 -19.934309 7.1126847 16.747608 3.363358 -4.572943 29.31686 1.105258 -9.217684 -15.162825 0.4823224 -7.2025614 -9.571146 9.637959 -5.1084843 5.6902714 -7.125155 -6.8335342 -16.290524 6.8564687 -1.4412112 8.675923 0.028933443 6.2765102 2.2129912 -2.5920367 2.6117218 -4.110693 -14.84159 -3.330956
C15H16O9S+K+ -3.1438055 -11.22792 5.640998 -1.8756001 -16.052546 -3.971404 11.684417 0.6220282 -2.52087 -3.0445278 -3.7253463 6.8079796 -2.629432 -9.100391 0.39108026 -3.713275 1.6836437 0.9369261 2.1063454 -0.19709647 -5.0271654 3.159824 -1.7955072 1.1162832 -0.45642313 2.1190484 -1.8108712 1.5242099 4.072114 3.190718 2.5609407 1.7948605 -3.8716397 -4.668657 2.37174 3.2126956 -11.649158 1.9989634 8.639862 2.6483018 -1.9736595 -0.5775048 -0.5142012 -0.9119637 -1.6313857 6.4102173 10.754253 -0.2610807 -1.3061856 0.30309474 -3.6742642 -0.85999805 -0.30566126 4.798809 1.3366444 -3.2932081 -0.17828427 -0.5562415 -0.061799567 0.09425886 -1.8741673 -0.46255565 -0.98498833 -1.2299827 0.6321485 0.5680018 3.4304223 9.64344 -14.327359 -8.589427 -4.4780383 1.4826311 -1.7044058 -3.5573199 4.81445 1.8144283 -2.9082363 3.953363 0.002677667 -9.041739 -5.3351436 7.0574164 3.612336 1.5367775 0.46204665 4.518832 14.981203 -2.7254963 -1.6791613 -1.7749199 4.00412 -5.1783867 -0.1044148 -0.9132587 10.188516 8.999281 -7.2502656 7.6771164 10.172491 1.8407137
C25H49NO4+H+ -1.8220513 15.686334 6.878736 1.5262134 -1.3412216 12.950183 -13.92813 -1.9691653 0.35918087 2.7238533 0.03690579 -2.5754616 2.4846845 4.590614 -1.9836903 -0.5142272 -1.5800735 -0.40455306 -1.4923137 -0.9345342 4.138025 -2.4716733 0.9771514 -1.02531 -0.06201377 -1.539299 0.8805011 -1.294559 -1.640143 -0.9204847 -0.24016163 -0.5937089 -5.223709 1.6051941 -7.042435 -1.1328988 14.305361 2.703549 -0.13752069 -1.313197 3.9635582 1.4025536 1.2819201 -0.47272828 5.3918357 -6.9334984 -4.6505046 0.787285 -0.5934157 0.94394696 -2.3981106 -0.9063661 -0.388239 -2.915199 2.814957 0.90231746 0.5410226 3.1981597 0.28189144 -1.5018609 1.9725827 -2.300856 0.80794734 0.075138845 14.640429 4.5503845 -14.088978 -10.150292 24.387789 23.687954 -7.135069 -8.160725 -2.4038923 10.221893 -2.1933222 -4.440889 10.022306 0.4588516 0.84899676 1.9961921 2.058317 -7.145568 1.2987522 1.6321889 2.3310738 7.513564 -9.363946 -2.9942603 -6.5829015 2.7241554 4.0532084 -0.93476474 -0.97075856 2.1193223 2.540698 -11.301179 18.530651 -11.1018715 -11.584603 -2.7458458
C24H50NO7P+K+ -2.4871447 -0.6977942 9.908095 -1.6301662 16.03488 -4.245439 8.301612 9.650042 -3.899402 -2.1780574 -3.7353723 5.9300737 4.047402 10.666196 -6.498161 -2.5168319 4.6373987 0.8593524 2.5814705 2.9445388 -10.205501 6.9768615 -1.6462982 1.2300106 -0.21589182 1.5059277 -2.2113485 0.312606 -4.889936 0.8473241 -12.859419 7.407497 -15.951825 -2.976407 -6.4485145 6.6637187 17.55326 -8.293526 14.714364 4.9265738 8.887126 -2.4372406 4.3192677 -3.4894426 -1.055866 2.0517826 -7.7285905 5.9837823 -2.1081278 1.7865406 -7.726324 -1.2809343 4.161798 -9.237765 -10.969542 -15.981138 -0.25801513 -0.6165983 -0.4370678 0.112362415 0.4488883 -4.6099577 2.0105007 -0.7085196 37.138153 15.514336 -23.281738 -9.640823 27.753086 42.412834 -7.8994904 11.934187 18.399166 -5.257006 -1.2123408 -36.436695 35.547832 35.923557 -12.608052 2.976119 5.205259 -8.862349 1.41342 -8.6064 -0.7882955 -0.10027748 -15.570709 -0.9163797 -26.819035 17.870033 2.1020772 17.628487 -26.849813 -16.906544 -4.743481 -11.117161 8.209782 -0.5715781 -18.401321 -23.2888
C10H16N5O13P3+H+ 1.4938011 18.253115 13.131892 -5.098545 5.438061 -2.052137 3.3090343 7.071875 -0.7415971 -1.1466869 -1.1196619 0.9839768 -0.09018196 5.000246 -0.37214267 -0.48277146 -0.8352209 0.05376938 1.9230394 0.37002176 3.305087 -4.1476126 0.010175583 -0.16910864 -0.47131348 2.0732212 -2.0059767 1.3432832 1.3023897 2.7219117 -4.4773917 4.621881 -12.452049 -2.1227207 -6.8927107 16.32451 -0.77064764 27.656963 4.156049 6.116119 6.5404706 -8.405298 -2.2044091 -16.924225 11.528086 -2.7670622 4.0481205 0.41757855 -1.7739915 -2.496341 2.4369197 -6.066236 0.3363886 -5.365354 -1.7350719 -1.1998508 -1.4781858 1.0719802 3.0917583 -3.158023 1.3709334 -1.2382716 1.780892 1.0080224 13.075747 0.5992847 11.562626 10.603969 -5.6257806 21.184872 -8.543828 -9.203078 -1.8187273 -3.7416818 -7.4016128 -36.358658 3.3702688 28.286222 -18.446592 21.267452 -4.858791 4.6837754 -19.79823 8.03139 -2.1132379 22.910933 -5.036935 -6.7590766 -1.7219087 2.9312117 21.201447 -5.6823163 -9.783567 0.716295 5.308004 -20.835297 8.700612 -10.526568 -15.441259 -25.12256
C9H14N4O3+H+ -17.402224 12.025589 1.0810872 1.3484247 -30.408485 11.820361 -5.003949 8.356369 -0.59571046 2.4219358 -3.1220183 0.10818242 -2.8132405 -3.9239285 13.852129 5.148586 -5.308581 -1.2182605 -2.630861 -1.063058 12.25448 -9.112713 3.024011 -1.0287952 -0.18590333 -2.5603957 1.589165 -1.996689 0.5747756 0.24926208 1.6672508 -0.629872 -13.81488 -13.216666 -7.515982 19.136822 8.877127 30.971369 5.3531914 -7.781525 5.780609 -2.41798 1.9991757 -16.733109 3.2757006 -6.7732954 -4.935949 2.4203746 0.24474639 5.2895603 -12.442965 8.324762 -3.9082901 -7.022579 -0.54009455 0.43099248 -0.6158735 1.256614 1.3044022 -2.0603302 4.767458 1.7730742 0.30747125 2.8015184 13.332411 14.508569 -35.192593 3.1349156 -4.191975 12.235975 -14.729157 -13.894751 -14.499588 27.998774 6.621495 -5.680201 25.244055 4.5804796 -2.580331 10.408418 2.3897774 -7.6824245 -9.002159 9.988414 10.892062 17.289019 -8.638923 -10.587033 -13.973166 10.07612 4.443948 1.5005307 -0.53752965 -0.58472884 -0.5407833 3.0700884 6.0223145 6.9800696 -23.628534 -21.963934
C11H21NO5+H+ 23.47397 49.456596 17.0716 7.42188 -5.27126 31.221975 -32.605663 -3.8833869 -13.550086 -7.38282 -21.03591 25.25678 -15.984415 -39.87289 8.490316 -8.379203 15.256453 6.6478667 9.536503 -1.24354 -33.690334 15.410318 -4.639552 2.0591698 -1.4103805 7.561351 -6.8718004 5.036262 1.2566924 4.879671 -22.199652 14.09336 3.6742566 4.0229273 2.838393 10.232604 -19.978146 -5.3944073 -16.400455 16.912003 -2.2255375 -7.2400036 -2.5943582 -23.226002 40.10156 -21.269224 8.951975 23.028616 5.6921806 2.3680127 2.943666 14.970052 -6.054019 -2.9038415 -12.007385 -3.6006756 -4.2873764 -9.796849 4.191018 0.09785041 0.27665818 21.006447 11.779913 9.442416 -15.528585 0.9302396 7.3813114 9.857702 -16.499475 52.77263 17.356195 -29.614727 -12.371796 6.7437625 17.51141 -13.653979 -26.43928 5.2456336 8.898312 25.565434 -4.2087793 10.252204 -27.291395 7.0008407 -9.638462 23.384829 -20.335388 -10.94847 4.1512394 -3.1382554 14.843731 -20.854273 8.389345 14.734826 6.9442024 5.211864 12.9056015 -4.962647 0.6691851 6.7012286
C25H47NO4+H+ -19.171785 22.698593 3.3837965 -9.636196 -18.101484 29.388493 -17.456839 3.6017888 3.9134614 5.776766 3.144629 -8.4295845 4.877685 6.6361494 7.7275214 10.63467 2.481006 1.4885037 -0.39555445 -4.1755047 13.960592 -9.238553 4.252425 -2.556836 1.0070919 -1.0821627 1.0948737 -0.9938023 -2.6742494 -1.6285148 -6.098538 1.1087154 2.145293 6.0062437 2.334983 -11.840458 17.03058 9.163711 -1.7047015 -2.1917386 7.857167 -1.8500218 2.1209188 -16.54899 7.995351 -9.683955 -10.20898 -0.23409197 7.6185822 1.2830503 11.275133 13.414581 -0.18825999 -5.873608 5.435385 8.577771 1.2275413 13.709659 3.390125 -8.418791 2.7624326 6.4631915 9.999639 4.5567355 0.6187259 -6.0919566 0.82152 -0.38014486 20.305157 27.417952 -15.467329 -3.3324924 9.010583 14.304067 -3.549537 -6.511368 1.359006 -1.792245 -9.155972 10.672774 10.15508 -8.6705265 -4.007518 -4.4964285 -8.843311 -11.2424555 -13.185962 7.3772764 -2.448771 3.5459063 7.3120565 4.7268267 -11.451055 9.685808 -7.904283 15.39529 -6.482887 -10.506623 5.2438126 -17.937313
C26H30O12+Na+ 4.0372386 30.18135 8.982348 -1.6613612 -1.9472173 15.267644 -15.12186 -3.1579697 2.023494 -2.3910444 5.140358 -2.6666048 -0.12309196 5.385278 -8.527491 -1.6393533 2.2344613 1.0566328 -0.46202666 -2.5531354 6.7852764 -0.73143274 1.6973072 -0.7528088 0.89938486 0.91444856 -0.06728319 0.7256182 -0.64581025 1.2617342 -6.2603636 4.153783 -4.616389 2.4336014 -0.0698725 -6.7571898 17.223118 -4.8198366 -7.457506 5.913087 1.9889178 -3.2710407 -1.3755203 -5.010178 11.734784 -5.5494523 1.8538369 -2.679066 1.9596431 0.043092564 4.5087028 1.7780302 0.83519167 0.43112648 4.3075585 -0.99829787 1.264218 8.427542 1.267771 -4.276524 -0.20279215 -2.8863144 3.2020743 -1.2135768 11.013879 -1.196452 4.8388147 -5.7523756 26.85359 28.363033 -4.5019917 -15.093486 -0.35557708 2.6367447 -12.294528 -11.073768 0.12069921 -9.856655 1.3633819 6.407038 0.048475124 -2.430786 1.9066648 0.65891963 -3.5107126 4.6734514 -13.284024 -5.7022495 -1.3387932 2.647065 13.484766 -3.6511567 -1.277115 9.959794 13.3008795 -1.8092626 14.477494 -23.94913 0.19961698 -8.013196
C12H22O11+Na+ -5.4276876 -8.312063 -2.7193482 5.484986 -21.837364 -3.2337127 -7.911699 -6.422755 -3.2707765 7.587396 -9.0352 1.7976131 -0.6954284 -10.921322 4.558587 -5.42882 -3.3719797 -0.38141447 1.286668 -0.5931421 -13.086693 6.6999526 -4.797838 1.2930733 -0.65286624 -0.27869806 0.360444 0.16009107 5.4339623 1.9331574 6.2222495 -1.6992878 -6.205299 -3.3713121 -15.731864 4.36009 9.987199 -3.8259213 -0.37208718 2.5396206 10.726529 -0.5803706 6.0705404 -11.589717 18.615273 -18.171 -15.350072 2.1951563 -1.8446051 3.2811682 -9.663923 -0.403195 -11.435065 7.5938387 -8.038578 -14.324856 -0.1477284 -4.244284 -1.4653603 2.8390148 5.374982 -1.8207095 -4.4886775 -0.069150805 17.457733 30.450352 -21.333004 6.229044 16.424097 -17.855318 -13.546393 1.9901351 -16.276674 8.98792 4.9473057 -3.1364303 12.944606 32.281425 -2.9225984 8.44883 4.214691 -13.519615 -8.366961 16.006454 -3.2519329 13.521554 7.4189444 -19.629105 -10.943205 0.980647 -2.9121444 -1.7407598 -23.642113 4.513217 -14.941862 5.308579 15.374883 7.320433 -26.115955 -2.512513
C13H13N3+H+ -15.565734 -23.673233 -17.324793 11.489727 -56.947548 12.2154665 -7.3075585 -4.097965 -7.41277 7.9540234 -19.64353 7.601154 -1.755789 -6.894355 33.446793 5.5858927 -13.608369 -4.1627893 -6.248845 0.47756866 16.455206 -7.084654 2.1022391 1.3957949 -3.4162912 -10.984258 5.0469337 -8.8425045 10.426736 6.317664 27.77798 -5.9318347 -8.92631 -39.72934 -13.553034 20.551067 3.1378949 34.351925 9.82529 -38.88944 3.448256 2.718852 7.7366877 -5.401208 -28.03109 -7.0596447 -20.878288 -8.526408 -5.103762 10.946799 -37.630234 10.490906 -8.090644 -8.282242 -23.77192 -17.691568 -0.46734908 -10.55058 -4.645921 6.7129273 12.321809 -2.1011536 -15.3151245 2.079186 25.96624 36.438686 -58.12871 25.02241 -64.57293 -71.44638 -46.648254 -25.176413 -36.346718 44.178455 27.570938 -2.6587315 61.715878 53.979073 -22.703575 45.065037 5.603014 -24.705095 -19.19114 35.085365 21.664698 33.04275 11.013959 -38.283337 -22.258242 10.623143 -12.885926 5.140454 -0.12392448 -8.609653 -25.074175 15.038768 17.065836 38.822304 -65.64999 -38.444794
C12H22O11+K+ 6.45518 20.063013 23.631504 -7.7126837 19.928436 -8.3831415 4.520309 -18.38264 -0.49443364 -7.5892715 -0.38417852 7.615839 4.5674744 1.3184874 -17.967037 -8.103678 7.4422803 3.4905367 5.1538405 -2.3173187 -22.079334 19.037354 -7.6620536 3.3195486 1.675097 3.106275 0.099839635 3.3272152 5.6114745 6.317686 0.7078156 6.0618987 -6.868997 12.370156 -2.1779807 -3.0097125 4.959369 -28.910288 -1.9196637 4.3703237 -7.1702204 1.6006477 -0.92099416 15.837678 -13.420795 0.72742337 0.50269413 7.20351 -17.26149 -1.2643749 -26.42044 -32.40186 -8.117628 10.409058 -3.5224552 -14.471928 4.8605213 14.233107 -3.5811298 -2.760455 -5.3260846 -12.657269 4.4748926 -8.015861 26.66901 46.69903 26.697378 -18.030428 29.445929 26.319824 41.721027 22.411173 8.422555 -34.50861 -5.498066 -27.524897 -16.742117 -7.9341207 3.4022973 -13.096507 1.3906803 9.677758 22.697947 2.188826 29.649733 5.638256 42.177002 1.8097863 -0.13076612 -19.245916 34.426342 -42.536934 -13.55987 1.3841053 16.249243 -15.692551 6.970807 2.486867 31.652882 15.904696
C15H18O10+Na+ 36.95245 19.544973 27.813316 4.6330266 29.522556 4.001904 -21.762857 -6.6048017 -1.2948554 3.4175878 1.011616 -3.2039707 12.712623 19.184366 -40.44593 -20.528229 0.67623264 -1.0636564 -2.3259397 1.2053635 -0.051110923 6.635502 0.41888204 -1.3340337 -0.8319391 -0.7140762 -2.2325597 -2.363957 -7.256616 2.470462 -18.00405 12.081284 6.3157907 -0.43902904 0.5888336 -16.992498 -5.1600246 -44.429462 16.84211 25.247295 12.78911 -7.6279244 0.29647022 -22.816551 41.491817 -14.400043 4.6749735 -2.115472 2.2134414 -5.3177576 19.453087 -7.7781777 13.409542 8.922457 13.391282 8.627777 -1.3933102 -5.0517735 0.69711155 1.7849152 2.294808 -7.395051 -7.298952 -2.5912697 2.01052 -5.580048 -1.2134393 -11.202008 43.613705 -6.4041786 -13.406341 -18.238607 -14.904398 -4.6565895 -12.189658 10.349228 -31.75945 31.105932 -18.188696 -44.590405 -18.176851 3.9001634 16.842484 -15.568919 -36.834396 -2.720605 -35.553444 -13.308468 5.2864027 -5.756717 -10.175862 13.2651615 8.610019 21.248785 28.234343 15.189848 60.773045 -32.805805 -17.253778 39.10966
C15H22N2O4+H+ -4.1589923 11.029849 1.5261501 2.3372927 -5.8280044 5.060718 -12.400823 0.3641048 -0.9324111 0.653843 -1.3952252 0.24588957 0.7367837 1.5651228 -1.2519691 -1.2606132 -1.8949171 -0.47830456 -1.098618 -0.4349203 0.460654 0.26708952 0.13820374 -0.26471874 -0.14396651 0.20308258 -0.22483183 0.14316173 1.3131031 1.0524995 0.73675007 0.60647845 -4.0140014 -0.45627257 -2.7706425 2.5421414 3.3873188 2.0215561 -2.893438 3.6023505 1.2869684 -1.3594134 -0.2791901 -1.6595984 6.8345556 -3.787484 0.3767126 1.1780908 -1.1732736 1.7285393 -5.6341224 -0.24680364 -1.6912534 -0.8384131 1.4858183 -2.2708201 0.1799335 1.0598128 -0.02987936 -0.5248818 1.1132257 -2.3115094 -1.6896496 -0.82200664 3.075137 7.8946657 -16.331108 -3.7986317 20.673038 15.537537 -8.327397 -8.053575 -8.3187 4.5191007 -1.2442436 1.2552574 0.18940432 5.5048723 -0.07670327 -4.4913 -2.0362835 -2.5235155 -0.05862973 2.338631 2.8941817 3.3627582 -6.0255036 0.6095289 -7.0770483 2.5503798 4.077963 -1.4213568 -2.3460503 4.009668 1.4496078 -5.0758786 8.535285 -1.6596347 -10.894231 -2.6404767
