37 50
C7H15NO3+H+ 0.081566736 -0.059323624 0.5441996 0.71735644 1.125052 -0.23637463 -1.2199287 1.0845515 1.199407 -0.17441332 -0.17788428 0.8648247 0.69603586 -0.15136553 -0.10339796 -0.37143674 0.18265581 -0.062532194 -1.5847051 0.2530935 -1.1756033 0.1459245 -0.22903553 1.7708985 1.5351948 -0.6684209 0.13675117 0.21484469 -0.6801162 0.45010117 -1.0162824 -1.2165117 1.0968136 0.59933805 1.0628493 -1.9492276 -1.4397097 0.680755 -0.6392556 1.1186376 -0.14369608 0.5841877 -0.9633056 -0.13612458 -0.43876296 -0.52365756 0.5786844 -0.080685794 0.6874654 0.46342018
C15H22N6O5S+H+ 1.9506919 1.199526 -0.06785198 0.57321167 -0.43450868 -0.4795418 -4.055506 0.35198173 0.5315641 1.9946165 -1.0335273 -0.7528769 2.0451498 0.23999722 -0.2343521 -0.02389179 1.1220692 -0.3537113 -1.3067087 1.0501001 -1.1174506 0.35884988 -1.0145221 0.80312854 1.603437 -0.57936794 -0.70295376 1.2424833 -1.7258049 -0.77104706 1.0593412 1.022595 2.6843362 1.496334 2.1423628 -1.0115836 -0.30733937 1.1672107 -1.5636836 0.38344154 0.29105884 2.049695 -0.261454 0.29306278 0.88345945 0.72337276 -0.34001774 0.12441293 0.6570726 1.8596144
C24H50NO7P+H+ -1.8880517 -1.8210151 0.6365857 -0.13188694 -0.87618124 -0.5843518 -0.29573286 2.600925 -0.5852293 0.16739696 -0.3018264 -0.91936845 1.8386526 -1.5528829 -0.95237476 1.3381414 0.8589435 -0.94194335 -2.239109 0.12102821 -2.0783637 0.74151736 -1.3906375 1.5984913 1.4032958 0.34010792 -3.5366452 -1.4437604 -0.5957991 1.3497975 0.44430652 -0.14517348 0.42632914 0.020382432 0.11649239 -2.4049816 -3.6728525 -0.75227237 -1.9798312 1.2880514 -0.11790149 -0.66411513 1.5408015 -0.5803077 -0.41508195 0.18787332 0.082602605 -2.7170212 1.7484376 2.718146
C4H9N3O2+K+ 0.81868815 -0.033523746 0.67818904 1.6162884 -0.5820801 0.921804 0.85958946 1.7405717 1.4936785 1.0607649 -0.50371164 -2.3735425 1.0949866 -0.91872513 0.21110703 0.5784798 2.2589958 -0.99292284 -0.028082598 1.3037723 -0.7722772 2.3006737 -3.1303396 -0.86656713 0.32556516 3.9988031 -3.748409 -1.2604265 -2.1051025 1.5068085 1.8892549 1.582994 0.37267715 -2.171025 -2.2045023 0.08446726 -4.273311 -4.4496765 -4.356587 -1.4996911 -1.6503557 -0.6341442 1.188276 0.70865566 -1.0910285 -1.113045 -1.6858866 -3.0955293 -0.8163586 0.7396489
C9H17NO4+H+ -3.143421 -0.14676856 -0.1417027 -0.51608145 -1.9919393 -0.10549815 0.49520692 2.4029522 -0.5510506 0.5473786 0.20372957 0.6104758 1.3604071 0.040837064 -1.5264844 0.051774163 -0.18610962 -1.4843162 -2.4665282 -0.08908045 -3.7721777 1.2150465 0.11318219 3.0552814 1.9195743 -0.11265165 -2.6310828 -1.3226588 -0.37273586 2.514248 0.72165924 0.49772218 -1.5024565 -1.9528109 -0.4403928 -0.6661775 -1.4283491 0.0560141 0.56389606 0.9939039 -1.1246307 -1.3325596 2.486667 1.1007518 -0.94705784 -0.008267751 0.30714938 -2.293415 1.5191436 0.050434623
C11H21NO4+H+ -1.151075 0.39448258 1.5863079 -0.58318067 1.8788733 0.707068 -1.5142108 -0.3231024 0.42574695 0.75576186 0.8012295 -0.11813848 2.0912104 -2.3506856 1.2786974 -0.18722348 -0.9205481 1.8142873 -1.7499241 -0.19425051 -1.2866784 1.3897635 0.4251825 -0.5957182 1.48614 1.0883839 -3.0732572 0.42681888 -0.74954206 1.0860155 -0.016149865 0.66676563 -0.07976617 -1.6537868 1.5197008 -1.801743 -3.0133047 0.6079978 1.4966043 -0.3487759 -0.64233285 -2.0337617 1.4459231 0.6935702 0.104776755 -1.2788798 -1.4676687 -1.3644712 -0.4609972 -0.9804234
C22H22O7+H+ -0.05958691 -0.92631567 0.3592707 0.67136616 0.03908132 1.8817781 1.3035415 0.36004287 -0.0073678168 0.40535608 -0.7315934 -0.13432433 2.26288 -0.45982388 -0.40455976 0.8132886 0.103782 0.35401934 -1.9605247 0.19489588 -1.5305403 0.16074432 -0.4771719 0.54057527 0.41025853 0.66204995 -2.6217997 -0.19756198 -0.2120419 2.2149274 0.8570918 1.1546516 -0.8394482 -0.8596992 -0.6957922 -0.7655294 -1.4979835 -0.82054687 -0.34535366 0.14408171 -0.5658141 -1.3411478 1.8681005 0.6007038 -0.065696046 -0.045879792 -1.3905771 -2.2212164 0.6949035 0.3694412
C8H20NO6P+H+ -0.6967663 -1.5850759 -0.4993346 -0.4061168 -0.6642514 0.1653893 0.49864408 0.68852067 -0.91763884 0.9932021 -0.98097074 -1.5046535 3.1985466 -1.9279968 -0.6044556 1.0966341 0.5687495 1.1218879 -1.0370442 0.4729525 0.29231977 -1.4268972 -0.41693795 -0.5084256 -1.5094368 0.38089448 -1.6339995 0.10560524 0.08202037 -0.15581827 -0.12635809 0.29023567 1.1876198 -0.45307332 -0.30636504 -0.8120975 -0.6798246 -0.4225596 -1.5661248 -0.32485616 1.4037846 -0.848178 -0.10069853 -0.029833734 0.089032605 -0.39043885 -1.227376 -0.72939086 -0.15785922 1.5902042
C10H7NO3+K+ -1.0235037 -2.2200162 0.7040343 -0.63856417 -0.7758273 0.030127453 1.036967 -0.64367616 -1.5253396 -0.40039015 -0.4523846 -0.3909644 0.8539539 -0.73463863 -0.6037791 0.31659764 0.8552682 0.57209796 -1.7547761 0.2844509 0.7953651 -0.901431 0.13930911 0.07199891 -0.36694798 -1.334279 -1.2612946 0.9964256 0.5807363 0.23352744 -0.09759229 0.59684306 -0.5138761 2.3494709 0.54568046 -1.0986943 0.56882066 0.5600285 -1.2109752 1.4595383 -0.21599838 1.3718098 0.87925917 -1.0044861 0.79713285 -0.45473444 0.21192935 -0.37183395 1.4078693 1.7068131
C11H20N2O3+H+ 1.9040525 -0.60893637 -0.12808992 1.3651127 -1.8969222 1.1079638 -0.3966146 1.1216348 -0.3265821 0.74168503 -0.74874467 0.6628318 3.0150948 -1.5314786 -0.40035763 1.7764373 -1.3667073 0.15414299 -0.46554726 0.7662785 -1.3558259 -0.40714538 -0.7862709 1.2476388 -0.276442 3.9690957 -3.8446665 -1.8537202 -0.7314543 -0.25421172 1.2905968 1.4593719 -0.61683923 -4.0070677 0.44341797 -0.93100154 -0.40496752 1.5684373 -2.5007536 -4.3991237 0.034527093 -2.8576238 1.6490748 -2.2984416 1.9315844 0.2579334 -1.5109903 -1.23334 -0.2886714 -0.11921013
C8H17NO2+H+ -0.9878827 -0.8378855 0.9400962 0.66299844 -0.29688492 0.3599324 -1.4846514 1.6198717 1.9985062 0.5046765 0.75113815 0.38992208 0.5504105 -0.45333645 -0.7374076 -1.4927673 1.2872669 -1.2575651 -1.6673498 1.0611197 -1.0489774 0.45081848 -0.69079345 0.8927406 2.0977993 0.2883296 -1.9610505 0.5687941 -1.8144944 0.9085419 0.40214252 1.9348282 0.87574166 -0.9815931 0.50310516 -1.1329678 -0.6873869 -0.2704004 -1.9925274 0.9976474 -1.2647445 -0.44339573 0.082779095 -0.21141796 -1.8505905 -0.04969782 1.8872653 -0.4011352 0.021735173 -0.4582683
C29H47NO4+Na+ -1.8111368 -1.9857577 0.7590532 -0.55145943 -0.2116547 -0.4927176 -0.1530828 0.33070907 -0.55692255 1.151575 -2.0263364 -0.43546748 0.60489476 0.0046078754 0.9097368 0.14214264 -0.92229146 1.6053913 1.1557422 1.4443405 -0.2152281 0.66212475 0.1773748 -2.0071826 -2.2958333 0.51221246 -0.35433835 0.30467638 0.5590145 -0.77599907 -0.31287605 -1.0216081 2.3381996 0.7085096 0.050764058 1.0203651 -1.8168882 -2.1435063 -1.8670691 -0.8910987 1.6745852 1.1586982 -1.2279661 0.35816592 -0.29497692 -1.5079837 1.7408191 0.3178234 -2.4923508 -0.6397565
C7H15NO3+K+ -1.283175 0.18495736 2.3553581 0.57156295 2.0942674 2.143206 -1.1500198 -0.06928261 1.6137527 1.0971217 1.6317077 -0.23163307 2.230178 -2.2828443 0.77085453 -1.7924135 0.67912877 2.247397 -2.4775813 0.6502885 -0.35212645 -0.12307375 -0.41371942 0.12748024 -0.12047431 1.1637114 -2.6332796 0.5934382 -1.6597693 0.6617812 -0.6701116 0.40101242 -0.35072875 0.5206762 -0.1803059 -3.256876 -0.13851792 -0.54254526 -0.44045696 1.7633567 -1.9394196 -0.29592288 0.5686109 -1.2519288 0.5839947 -1.0190812 -1.951399 -0.6107257 2.5432131 0.90315604
C26H50NO7P+H+ -5.636244 -0.15606658 0.36066204 -0.81709605 1.8328626 0.22853576 -0.85324746 5.042301 -1.6739914 0.1645387 -0.21435468 -2.0898104 5.505403 -3.4725468 -1.1586623 3.0172958 -0.43892422 0.35683134 -5.5954437 -0.5547113 -5.935559 3.7248237 -0.95029247 1.0001994 3.9757392 1.3120123 -8.827781 -2.6661105 -1.2253098 4.9211245 1.9071006 0.06140005 -0.74655306 -2.0629175 0.91027784 -4.321639 -10.855216 -0.93480384 1.0767373 2.0536323 -0.5355614 -5.2750797 4.5958147 3.8397384 -1.4400402 -0.84683025 -0.64797103 -7.6684117 -0.2714278 2.1968107
C13H17NO3+Na+ -0.9575051 -1.7836232 0.46078885 0.04372684 -1.7051735 0.19563787 0.6876761 1.3063354 -0.87580615 0.2105659 -0.13373849 -0.92512006 0.96020293 -0.506048 -0.9578763 -0.3996534 1.8624649 -0.07818738 -1.7498946 0.95236164 1.0701016 -1.363009 -0.53480005 0.35129106 -0.8584154 -0.10425391 -1.077015 0.4571455 -0.98839474 0.16003004 -0.14405783 0.8304724 -0.23496643 0.50630337 -1.0869671 -0.44668484 2.1282856 -0.9946779 -2.85207 0.74879795 -0.003367754 0.95863307 0.021846112 -1.1654955 -0.01588033 -0.19015208 -0.17091246 0.340086 0.8314402 0.82823193
C10H16N4O3+H+ -1.724525 2.290281 -0.6384309 0.31688583 2.9341815 0.54230106 -3.6829877 1.4838467 0.9851324 0.4685912 2.3712049 -0.15679404 0.56955636 -0.8419856 0.028090294 -0.9149849 -0.57166284 -0.2523441 -0.53358585 -0.44840825 -1.4032353 1.2726746 0.72105765 -0.38071844 1.9262757 -1.7601225 -1.035241 -0.3128892 -1.6828141 0.6123247 2.0368383 0.24319443 0.69197 0.2877698 1.5160935 -1.8130307 -3.0338454 1.2940191 2.9583845 -0.34943414 -1.0132043 -0.93296766 0.44796517 0.6809634 -0.6635328 0.10370022 0.44116455 -0.15927646 -0.4830381 0.5893667
C8H20NO6P+K+ 0.20981127 -1.9934757 -0.27717882 0.5944305 -1.8222864 -0.9136195 2.3526425 1.4091609 -2.1361706 0.69259983 -1.3850757 -1.5207776 1.9727746 -0.57769215 -0.9234838 1.5185186 1.6724129 -0.39198947 -0.42952377 0.25268358 -0.7568484 -1.8086523 -2.4302533 0.16713165 -2.22693 1.2395681 -1.7073897 -1.4295217 -1.4009824 -0.79541075 -0.035358224 -0.51816267 0.7146642 -0.5018331 -2.3371947 0.043907356 0.95304346 -2.3545322 -4.3026586 1.0586365 1.0262939 0.49737322 -0.6038026 -1.8506835 0.3505661 -0.77706504 -0.3141122 -1.2957759 1.0858811 2.4392128
C8H20NO6P+Na+ -0.24755518 -0.5620214 1.330256 -1.9347956 -1.421529 -0.7069888 -0.2982173 -3.0288224 0.6745937 0.059740867 0.15704805 1.2842739 -0.16468424 -0.55350333 0.40785173 -0.6205041 -0.47169986 -0.20165864 -0.77403814 0.32671106 -0.981109 0.4334658 0.47586596 1.7905406 1.1629723 -0.36722326 -0.70801437 0.9985655 1.2821624 0.29931858 -0.8671229 -0.062457275 -0.32019168 0.4309494 2.0012636 -0.23711647 -2.0351863 1.3644359 1.6009936 0.24182002 -1.8202344 0.67581564 0.873702 -0.087565824 -0.30323488 -0.9939155 -0.54718274 0.3555985 -0.08174303 -0.66939735
C10H11NO2+Na+ -12.798184 7.137526 1.082269 -0.43143812 2.428411 -8.3993025 -2.3101997 2.6378565 1.4639944 7.604785 -0.18514639 -0.45505586 2.0057538 -1.4310337 1.4457376 -3.5962205 -3.3858557 -0.06010102 -4.735574 -1.205032 -7.1055083 2.6932178 -0.22802037 5.3197355 8.934004 -2.1545975 -0.46112886 1.1305095 -5.4169235 1.5456582 8.081541 4.043984 2.964509 4.188152 8.611893 5.063216 -10.105257 6.429322 7.670829 9.327725 5.2833266 -1.0467134 -2.0993452 8.792842 -6.6606054 0.20103732 0.5396382 -4.2297254 1.0566769 3.4033878
C37H68O4+H+ 2.432084 0.64255995 -1.1563185 -0.8687862 -3.448557 0.12773493 0.7331033 -1.0730295 1.3217431 0.946323 0.5850328 0.051129382 -0.8137937 -0.09506706 -1.3081454 -0.20978616 -0.42813104 -1.4006954 1.6630876 0.7948264 0.88625234 -0.2977948 1.5526773 1.5156204 -0.55273217 0.50000787 2.4447868 0.9705269 4.3867984 -0.7544378 -1.0113889 1.331346 -1.3036987 -2.1831021 -1.2759757 2.196103 2.280204 -0.37372485 -0.081640504 -2.0892754 -0.41668037 -0.903953 1.2693404 -1.1151819 -0.16777524 2.030158 -0.91094524 0.5504127 -0.4678757 -1.4103689
C35H66O4+H+ -1.6858777 2.38935 -1.0552001 0.10699105 2.6639261 -2.1027672 -0.5578217 0.40739167 0.51868325 1.3568692 1.9513891 -5.0566463 1.4763091 -2.8874788 1.6183313 2.1470723 1.1664368 1.3621918 -3.0904343 -0.8730318 -0.99159753 1.7426647 -1.5412102 2.3911862 -0.2863976 0.9718905 -3.2817428 -2.7170603 -4.050973 1.0026712 1.1783158 0.24973442 -1.8172382 -1.4441344 1.9092644 0.17852096 -0.23231795 2.2884266 -1.6766517 1.707806 -1.2778122 -2.1513834 2.142365 1.4911405 -0.24861951 -1.8319322 -1.1647501 -4.6845875 1.4209037 1.8163174
C23H45NO4+H+ 0.87797755 1.2005688 -1.088502 0.71305895 1.5458106 0.06985468 1.6962364 0.73157626 -0.9839101 0.7826652 -0.5885339 -0.7764467 3.9390233 -0.47326285 -0.22644931 1.0812051 0.36021647 1.1504983 -2.870693 -0.02625393 -1.2523841 -1.636233 -0.63327515 2.3044298 -0.3786623 -0.8572883 -0.64602697 -0.56373197 -1.614432 1.7808068 0.44264808 -1.6656836 -0.50353074 -0.3601926 -0.4695369 0.4241159 -1.2452742 -0.16811027 0.23057719 -0.14348054 0.58210266 -0.71967024 -0.13575158 0.057049673 0.3360573 -1.100506 -3.071918 -1.3965908 -0.1267603 1.1507126
C37H66O4+H+ -2.880114 0.4080641 -1.7200404 0.16613322 0.23512244 0.35697582 -0.027781403 2.1361384 -0.1811493 1.3099658 3.041911 -3.4913452 3.269718 -1.1182604 1.3936746 -0.83399016 1.0915995 1.2077575 -1.3973947 0.5049434 -2.143508 1.528521 1.2148684 -0.017195951 -0.22904295 -0.86053395 -3.6114614 -1.3734459 -3.1572404 1.1401846 0.6805683 -0.42241162 -1.2300192 -0.73126715 0.27362525 -0.47599417 0.2526709 -1.201999 -2.2378175 -0.24215563 -0.37206954 0.08440503 0.31657955 2.1307845 -2.2389922 -1.9777827 0.36851183 -1.5262253 -0.030193815 -0.26955977
C10H15N5O10P2+H+ -0.27142197 -1.1648047 -1.6151301 -0.58674437 0.34664106 -0.8297173 1.8706626 -0.32469594 0.13355458 -1.0616555 0.9300923 -2.462111 1.6867965 -1.8180053 0.21631387 0.57960916 0.6757942 0.4242079 -0.9225386 -0.6877349 -0.7077462 2.1173792 1.0356306 -0.9664286 -0.18196805 -1.048648 -1.2840232 -1.0758057 -1.2238256 0.67367506 -0.3410807 -0.2038293 -0.20918837 1.03146 1.5563848 -0.29813218 0.71954 1.0636487 -1.9831599 1.6047823 1.0828522 0.12281788 0.7534871 2.3943532 -2.7740173 -0.8094272 0.79507625 -1.9458206 -1.1589742 -0.61160475
C15H16O9S+K+ 0.89088154 0.13761537 0.4170495 0.44764957 -0.25845215 0.7855125 -1.3357708 0.5803744 0.619321 0.10615342 -0.49127892 0.86028683 0.4697371 0.596015 -0.4772154 -0.8997162 -0.30857572 -0.5181984 -1.1624081 0.23923324 -1.7742457 0.71148324 0.5368231 0.7781867 1.7449532 -0.38836187 0.36665654 0.11710828 -1.503351 0.522767 -0.55522454 -0.09135394 0.108085096 -0.14201884 1.9331547 -1.8796015 0.86886525 1.9014902 0.09659679 0.98666763 0.37821236 -0.5609361 0.43852872 1.240427 -0.42344117 0.986121 0.5408279 0.20777428 0.47786927 -1.2499338
C25H49NO4+H+ 1.8358843 1.225947 0.051200803 1.8706151 1.7980487 1.4645237 -2.230338 -0.27803776 2.4692483 0.5496045 0.107491456 1.1483967 0.4566413 0.35203972 0.22500086 -1.1712015 -0.3247778 0.0121712135 -0.74025095 0.49909106 -1.519545 1.3093183 0.3625645 1.3810674 2.241146 -1.064725 0.79107136 1.0537717 -1.0213621 0.69816357 0.5365113 0.01147894 1.088809 1.0443537 2.3889234 -2.0597858 -1.6156956 1.8796984 0.15702908 -0.38287395 -0.7848837 1.5232501 0.06324112 0.6391816 0.22462343 -0.34243867 -0.13373935 -0.22387813 1.7247044 0.017290838
C24H50NO7P+K+ 0.3463246 0.27778462 -0.021456122 -0.58909667 0.16489163 0.9460014 -0.5150651 -0.7506911 -0.8075771 -0.020032907 0.87415427 0.2654624 1.0197678 -0.4367799 -0.27168328 -0.5004518 -0.79479617 0.124200754 -0.9595279 -0.036765188 0.35526118 -0.4074459 1.3382417 -0.3919373 0.61986744 -0.9218352 -0.73293215 0.20344412 -0.9158011 0.5497656 1.1599996 0.90051997 -1.2894641 -0.14033261 1.5947809 -0.30175328 0.554861 2.1933823 1.9657029 -1.271042 -0.11952972 -1.7201353 1.2905346 -0.2565049 0.30927467 0.74132735 -0.9225753 0.702108 -1.4076445 -0.6757157
C10H16N5O13P3+H+ 0.029647186 -1.667278 1.3956661 0.57714784 -0.5461473 0.5310701 0.3024494 -0.23968498 -2.6628435 -0.7707862 -2.0236986 2.6334217 0.69400156 1.0238731 0.04548502 -0.08621028 -0.920716 1.564943 0.559071 0.15039553 0.5385773 -1.1200838 -0.20688854 -2.628937 -1.5411845 0.7083588 -0.24802595 1.101724 1.4233246 -0.21122888 -2.1501882 -1.3653476 1.0950602 -0.5518077 -1.7205173 -0.2333574 1.2839154 -0.9126527 -1.9770155 -0.24392948 -1.1967018 1.6960429 -1.4867835 -0.044066165 2.0790336 -2.482305 -0.5441168 1.8789828 -0.42354524 -0.8104622
C9H14N4O3+H+ -1.2170386 -1.5892342 1.523321 0.9447096 0.32730976 -0.92882425 -0.21744789 -0.9253831 -1.0795829 0.7470631 -1.6845285 2.8001719 1.445092 -2.4556842 -1.3662373 -0.38865837 -0.8675048 2.0562966 -0.57145786 -0.17113073 1.4369326 -1.8338015 0.11331392 -2.1809556 -0.17066894 0.008342192 -0.42078945 1.8111056 1.1188564 0.6358396 0.8896462 0.56134635 2.2190974 -0.26867878 0.18011607 3.6951368 -2.2195308 1.3062464 -1.1040406 -0.2716193 1.4541508 0.026987612 -0.35419816 -1.1057472 1.9823768 -1.612871 -0.14068148 -1.0036801 0.7213977 0.5547548
C11H21NO5+H+ 2.230302 1.1825734 -1.4007326 1.1933676 1.5434653 1.3406811 -1.1832138 -1.543947 -1.2479289 0.76249033 -0.6890309 0.43090066 3.1556005 0.61732584 -0.34932306 0.70035523 -1.2893729 2.012398 -1.8534045 0.12091252 0.08856556 -1.4321074 1.959771 0.69155693 0.28338653 -3.054875 0.28114766 2.159411 0.22026013 -0.32242623 1.481719 1.5843073 0.06312874 2.5050418 3.7627168 -0.909184 2.0205598 4.8327255 0.8718874 -0.8083201 1.0547062 1.3604556 1.4410193 0.39772135 2.5309596 0.72647095 -0.045767255 -0.1555203 1.0701691 0.5615569
C25H47NO4+H+ -3.4275317 -2.4723434 1.868596 -3.69578 -3.6569583 -1.0302855 0.5053749 -1.1288071 -1.7396231 -0.18688656 1.2610412 -0.78969735 0.25202918 -2.637407 -0.5053295 -0.95895666 1.0805068 0.30433774 -1.3227898 0.8891858 1.7815233 -1.3118207 -0.006574173 -1.43903 -1.3626294 2.3594594 -3.6579466 0.21073514 -0.018685577 -0.7785217 -1.1288068 1.6093844 -1.6060442 -1.5436031 -0.42623502 0.8548298 1.2543443 -0.28095192 -0.49923193 0.4970619 -1.0045503 -2.3434498 0.691103 -1.5363017 -0.79882205 -0.61890596 -0.014200773 1.2094133 -2.6309447 -1.2928506
C26H30O12+Na+ -3.8557522 4.9225044 1.8973796 0.83839923 7.2917914 2.920876 0.98032475 2.4390314 2.2526314 1.6669407 3.7525513 -3.0737035 6.7420297 -3.7259283 2.1425242 0.36765966 -0.547506 5.8898606 -5.4669733 0.18180008 0.101963915 -1.0069095 -0.22395077 1.8334427 -1.4737701 2.9851434 -5.7234926 -1.255663 -1.6703037 3.1616027 0.7691287 0.9533309 -3.2183213 -1.0779873 -2.250627 -3.0188437 -3.1380653 -2.4840677 2.383722 1.8106323 -2.3625333 -5.2643466 3.1126904 1.3192868 0.03813625 0.10155819 -4.473037 -6.0689282 1.5937836 1.348603
C12H22O11+Na+ 1.6625197 -3.9388635 -1.1942906 -0.2484949 1.157832 1.7365837 2.9343832 0.08776814 -1.4234182 -1.1492387 -0.5723992 0.17537536 4.113975 -1.3196253 -0.8679366 1.5391449 -1.6858602 -0.5793907 -2.648513 -1.497159 -0.18536374 -1.3480217 3.245528 2.7546468 1.2066394 -6.376613 1.5368366 -0.5063302 -1.6010112 2.2130864 1.0802592 -0.8866839 0.32124802 -1.0143108 4.983811 -4.5838065 -2.1003985 5.1001234 1.3618722 -2.9526107 3.12969 -1.7177681 2.3391793 1.416492 -1.6601328 -0.5328926 -1.9549335 0.5756661 -0.81867546 -0.6244476
C13H13N3+H+ 2.2023869 1.4197398 1.4237257 0.17647108 1.8180566 0.3581682 -1.2261193 1.5966631 0.6170073 -1.7735287 -1.003493 2.018413 -1.8876314 3.102886 -0.63128436 0.89067274 1.2561245 -1.9282937 -0.22236045 -1.3859859 1.1388683 -2.82509 -1.0029268 2.6351109 -0.02839205 -2.1510372 2.6299605 0.2833415 -1.3971974 1.8178266 0.4635044 0.8541213 1.572779 -2.9278443 -2.2661219 2.4379015 0.0012735894 -0.47053912 3.2089865 0.5583221 -1.1070906 -2.316042 -1.3097469 1.132238 -0.6593809 2.1162148 -1.2720946 0.6038461 0.22537585 0.22604872
C15H18O10+Na+ 0.33321935 -2.211545 -0.050962314 -0.36849874 -0.018653031 2.6382291 0.7698159 -3.4397364 -3.10649 -0.47720996 -1.1326486 -0.93484545 -1.6162325 0.8102653 -0.050945215 0.3546147 0.08360295 0.7075884 1.2698668 0.12555464 0.8585909 0.7985727 1.5600129 -6.4754534 -0.0034636334 -2.4956808 -1.6470093 3.4536266 2.3085492 0.8509435 2.183204 3.8621745 -1.4383559 3.8635974 -0.022794358 0.61463827 0.35853904 -1.1751794 1.9430707 0.46535325 -0.3965542 1.1533977 3.3234215 1.8401914 1.2785789 1.0423735 0.63345706 -2.137479 -0.58739775 -0.54467076
C12H22O11+K+ -5.269256 5.253996 -2.5389452 3.5908897 -0.15158403 -1.4957823 -2.7775853 7.442812 -0.14192687 1.0509423 3.3732743 -3.9504926 -0.23173594 0.5467759 -2.0154634 -0.7243015 5.4172797 -2.658518 -2.0060914 0.88755333 -3.483972 3.847146 -5.4266524 0.10161108 0.8697335 2.4362626 -5.5132008 -3.505903 -6.348669 2.9205556 5.255384 -0.5910775 -0.012044839 -0.26667094 -3.3688095 3.6690955 -7.4655805 -5.1379213 -4.8165503 1.0150645 -4.11355 3.8407915 -0.51741076 0.48419112 -1.9151924 -4.1150045 1.6774579 -1.1848234 0.41641793 2.419454
C15H22N2O4+H+ 2.888904 -0.5191381 -2.4014616 4.6669145 -0.06784211 3.5420196 -0.70716995 -1.8066149 -5.0827503 -1.515316 -6.742823 2.249669 0.56467295 3.407027 1.6564757 3.3382993 -2.7135072 4.845625 0.21613769 -2.890771 -2.0292575 1.0181963 -0.36876598 -6.6091924 -3.805553 0.58904713 5.0633693 1.1994743 1.3871412 2.7920818 -1.341984 -3.8999581 0.066056274 1.2195491 2.2491071 4.2466745 4.036115 5.7753153 1.4971915 -1.7798457 2.5769885 5.6668215 -4.9678874 3.1943386 4.2502217 -5.0817666 -2.1626222 11.905375 -1.5594233 -3.313867
