37 100
C7H15NO3+H+ 19.676573 -19.15061 19.187796 -31.912308 -22.630005 1.3756125 -7.744942 10.074974 -16.7351 -21.689106 -12.767648 11.69545 -6.630977 -32.298046 -10.157837 -16.305267 -14.026963 25.35401 6.7241883 -1.3980533 -10.209536 -29.064873 12.613572 3.8751488 -10.806803 6.853384 25.256966 -18.505114 1.5031166 -1.2628279 4.4995294 -14.223567 -11.307754 -1.1172042 -12.80009 -34.797073 20.978632 -0.2715774 23.718363 39.629353 39.25029 27.214155 13.22673 -37.91131 -0.4965039 -18.061148 -37.209293 9.418107 -27.252436 11.598603 -20.115625 0.06454693 -24.050716 18.203743 -10.42436 17.726711 3.2910392 -23.575064 20.789845 33.676735 -28.56771 29.384083 27.390501 7.9226623 53.559284 -23.003742 32.198696 24.27192 -16.251112 22.137995 6.7449017 -7.432882 4.2721233 -19.821554 25.94313 -10.09625 8.647155 -23.285397 10.833125 -12.9852705 2.1337528 -17.03517 32.185925 -10.670455 -41.80752 -19.618954 23.052849 10.718571 5.6072693 -23.558538 -35.852497 -6.668989 -8.085097 20.763416 -16.442795 14.57418 6.615344 22.799864 24.657879 34.321293
C15H22N6O5S+H+ 22.858622 -42.901947 -3.23932 -1.9648135 -3.2039652 -36.29119 -14.765085 -27.930029 -20.052193 -2.600855 -1.8841563 -20.746277 2.6635475 -10.70803 16.833765 -20.01346 -15.4435425 24.74581 -30.936625 -7.0557857 -21.736721 -4.7198424 11.94649 -1.3033686 -16.652077 5.3117375 12.8354845 -21.760952 4.8261266 -16.818176 44.46603 5.9701796 -54.994804 -0.6900866 -0.13282847 -19.94612 18.90155 -10.812201 16.795794 0.90725005 -10.578759 4.247312 -18.725601 12.667949 4.129611 -2.855455 24.625097 -10.354988 -27.731327 20.630438 2.651096 -18.354248 -17.6262 8.497571 -25.492168 30.7361 8.203515 -1.9622763 19.646296 3.9274852 -1.2174498 -15.210158 -0.13944793 16.52846 -21.068523 -20.63927 -17.712639 14.398333 26.779139 44.33313 21.926031 -67.96158 -22.345581 -50.001053 12.874274 12.094818 -21.633 33.296513 8.113803 -3.02902 12.320879 -2.986711 0.5384831 48.88828 12.317348 -20.207647 29.790596 26.330677 -12.089266 -14.886275 1.3578837 -7.687489 -9.986697 -37.11025 -45.795815 16.057287 0.20201455 8.624901 -13.898787 -6.587971
C24H50NO7P+H+ 4.633792 25.763468 -3.3860984 7.3631387 -34.610584 52.343864 32.09175 8.865732 9.804487 -31.116104 -3.5840752 2.1640854 6.118497 -35.765026 -31.739964 -27.535702 27.945606 -24.489973 30.710531 4.76007 8.387764 -2.1077724 -0.37702706 2.3648207 -38.565567 -27.270094 -2.0809844 -8.536438 -4.2023053 7.1683106 0.23413105 -17.61144 -34.632614 -10.708881 -3.4935076 -33.69346 4.669239 -2.4746113 30.083109 -15.241026 13.940828 -26.116531 8.378672 -15.842106 1.4371312 -2.4982266 -21.45893 -25.854433 -26.144619 -11.55361 -51.574333 -31.832882 30.26109 -2.302597 -2.3947837 -28.415962 -8.744189 -5.882015 -14.477712 5.3013268 -4.7774897 14.533164 24.233559 17.307732 56.702774 0.40045097 13.436249 -1.6472833 8.580879 38.422466 15.84816 12.214183 25.565374 -16.532059 24.265356 -11.59616 -18.78116 29.280619 34.416332 0.15776555 -12.355321 -24.301178 9.889832 10.746297 -3.1984794 20.815634 -25.169317 27.824703 34.46223 -13.0413 -7.2154045 4.9172945 -9.077207 46.906475 5.141568 -32.390575 18.920862 -18.015602 -13.213607 15.090732
C4H9N3O2+K+ 23.539011 -56.06774 -1.4750781 -8.864977 0.54118407 13.561927 -55.157352 -8.146511 5.200405 6.3364763 -15.013746 19.98332 -22.464811 -69.30126 -14.436444 -8.841506 -18.174675 10.73312 32.24201 -6.3348465 -2.6472313 -9.051549 4.2495575 3.9286208 -0.84850144 -18.016033 15.734874 -10.116978 -2.961602 -16.886059 23.87229 -14.113641 -22.025478 28.406576 -15.468608 12.379 0.28682533 -40.589237 -15.707977 24.615738 48.65858 10.258079 14.336611 -39.837997 15.749346 1.2053598 -10.04096 1.5688822 -4.313031 15.937642 -7.001821 14.956674 6.591458 3.475496 2.8640947 12.738784 5.749371 -20.30333 19.056963 18.07681 -26.643885 17.189798 32.90329 2.5713823 3.3546822 23.498377 21.055965 -2.7996168 2.8397853 23.125648 -39.113323 28.976881 0.29604456 -60.276352 7.1371446 14.787835 -41.972946 21.371357 -11.1105585 17.075539 -26.776272 -6.4171653 4.011953 -1.2584729 16.176146 -4.3708253 32.630756 16.092915 24.572327 -17.088245 -71.7402 9.030213 7.3599863 -5.257592 -2.5652738 -12.799761 -18.20177 65.83502 -10.785138 -39.1419
C9H17NO4+H+ -20.741833 7.4142866 -9.359869 30.65331 -28.181156 28.229841 14.682315 -8.758941 -29.93794 -10.054704 -22.181278 -17.334364 -10.850378 -4.938206 -12.199903 -6.462705 -6.6141615 -7.0582595 13.466114 -9.322029 0.05626036 -17.331774 4.651149 -14.253951 -59.53021 -35.803185 24.043999 -17.186432 7.2788067 -13.365339 13.436257 -21.54738 -15.209099 43.41137 14.583242 5.2934027 43.982624 12.279522 4.1946144 14.245863 28.321468 18.713676 -10.838816 -3.3305488 14.345206 36.811382 -2.4280994 -35.91425 11.528205 -14.377627 -11.461323 -7.013336 28.782457 -12.137161 4.583676 -13.544203 -14.263619 28.643888 -27.499996 -10.460742 -6.4604096 4.3308725 28.133728 -2.9230556 43.594288 12.116229 23.724344 43.376766 -49.865364 3.6273932 6.2324 -2.937623 -13.541763 17.165659 6.7684155 9.675277 7.556374 -6.066278 -25.61952 -16.325653 -7.6570787 -8.942421 9.231138 -19.173498 -3.3833032 3.9105818 -4.163186 10.109994 -13.450021 4.3670692 -7.184399 -9.738592 -25.74791 47.409565 -20.074242 -24.310734 23.902472 40.17497 -17.525032 -14.638691
C11H21NO4+H+ 31.197126 -25.603874 19.919521 -31.749615 -36.825867 -20.05028 -3.4201248 5.0088396 -8.674524 8.270043 1.5976717 15.001147 -9.2199545 12.400302 -0.8175747 7.4157295 -2.736642 -2.280068 40.764423 -21.555365 -25.139606 -0.74342996 1.8790276 12.946245 -8.817674 15.454474 12.418542 -26.375835 -21.530737 -1.0368836 -7.0249577 -8.513909 -2.9940686 -18.5378 4.6025577 4.393798 -20.843235 26.761389 2.2655685 6.538274 -4.780488 -7.517579 7.513384 9.132322 7.378143 -38.303818 -3.1535585 11.554196 0.37063405 -1.3467302 -7.7549524 -21.57034 12.791892 16.014736 17.444466 -4.0143523 -5.3143024 15.264369 0.6394222 11.978666 -9.787323 19.527246 -6.2480803 -20.653822 32.962826 -3.631281 -0.24314064 24.42987 26.506985 -26.150478 -8.731494 7.541864 -4.6124897 37.773884 -24.777016 -15.414068 -4.8069077 -8.295739 -30.179504 -20.088074 25.673704 -15.947809 34.56309 -1.1289521 -21.428406 16.362022 54.81557 50.43354 -0.49795341 -25.11505 -14.285176 -24.254328 -27.682789 50.84827 -3.6550803 -33.480343 -0.84559774 32.19828 25.062817 44.823402
C22H22O7+H+ -2.3665533 -6.592584 -17.20549 -56.645866 -20.905653 -21.294584 12.800686 23.304802 -26.040321 -11.572765 -13.178762 17.233065 -12.575008 -23.581758 -9.326067 -9.070487 -22.801617 7.3522086 32.462116 -3.1700957 -36.13851 14.534386 -4.604864 7.8842406 -6.115781 -23.657202 16.218655 -23.11335 -9.87875 1.0842369 17.756311 -23.57992 -17.881252 30.457787 -20.983868 29.543716 24.339207 -6.6370153 -13.206667 16.351376 16.314133 3.94464 5.5723724 -0.78923947 18.970354 6.159594 -18.611189 -9.046578 -13.262598 4.299646 -9.754933 -4.609331 28.58852 0.52870095 4.3691916 -2.7617826 7.3673334 -20.491121 13.752421 17.883995 -19.994865 21.1181 34.551254 2.0236607 -25.47461 3.1279469 -15.228215 6.170117 35.33712 -4.238756 -35.808125 -10.999045 -12.600855 -21.851631 20.126474 -1.4265203 -4.7681665 28.186132 4.1338964 -3.437564 3.6239476 -15.5639305 16.277342 -21.839916 -65.26519 -31.725464 -37.84538 17.63207 -10.441238 11.2487335 -26.32582 -4.671776 11.038461 3.8981547 -9.078049 1.846194 10.808896 4.492192 25.511398 14.686517
C8H20NO6P+H+ 66.55569 -31.714504 2.977397 -70.38683 -18.805063 73.93521 31.195427 5.0975986 30.69281 -16.315552 9.889253 66.38416 -2.2019703 -23.094822 -4.441389 -15.302254 -21.404707 45.61649 -7.642006 -15.41182 -36.10992 -37.18256 24.64427 24.587063 -25.019657 -24.480698 49.938557 -11.631086 13.106145 -18.10844 26.36317 -12.371925 -32.654583 3.9200108 0.18754178 13.829142 24.519556 -38.500854 23.960707 -27.30173 9.149255 -3.2223527 -4.1753206 -4.2143297 -6.0334477 3.8895788 -12.466197 14.498092 -7.5666857 12.050636 -7.678622 -8.854827 -21.441608 14.754284 -5.7929125 18.643644 -3.7715192 8.765524 -3.3359723 6.797361 -6.5764813 3.2584019 16.450583 1.8859173 6.119569 -42.02883 35.328712 17.788214 -39.080944 -20.687805 16.306858 -17.456738 27.386135 -30.636362 19.478317 -4.4095855 -9.047549 0.92335373 -23.755209 -21.571737 -24.575426 -28.481781 40.727383 17.643097 10.660975 17.204592 14.366656 14.273337 2.524941 6.3412437 -22.627966 0.33272472 -2.8711874 22.119251 -4.093132 9.044901 18.98354 27.325163 3.1563206 -18.029177
C10H7NO3+K+ -1.0663866 17.904596 1.9666591 -1.9707065 -25.431322 21.833778 17.217606 2.2825513 -4.119435 -14.371735 7.076827 18.822699 -3.0962322 -20.753616 -10.542825 -16.084867 -5.598899 -13.876436 4.834257 -2.0598178 2.5647714 -0.097023204 -4.747939 1.2327527 -16.218748 -25.009964 -10.720907 -12.490694 -8.86831 10.687708 -0.19953564 -16.492466 -14.242393 12.272007 11.25572 -24.893305 18.138365 -5.996381 -4.3728094 -8.287904 0.19517875 -24.770834 8.673485 8.016108 -6.4198694 -28.039383 18.29197 -6.528449 -14.685445 15.811305 -10.7216425 -23.471907 8.14372 6.6399837 3.3059227 13.810519 14.3258295 -7.487057 21.521965 21.15077 22.143389 0.55083394 -12.201439 27.141958 22.703846 5.723333 21.525751 22.09408 23.440802 33.67634 -4.139209 30.46456 -11.380496 3.707676 1.1782361 -2.0169442 36.752388 14.733608 -12.158769 15.629189 18.688007 -11.198651 22.9401 9.188966 -26.517328 -0.90205216 -2.4742382 4.0789504 -22.63818 -10.393811 -47.223816 -5.1041355 11.436287 22.518312 -9.762148 4.870235 10.508114 7.430995 -12.434444 7.223302
C11H20N2O3+H+ -3.248856 -10.101426 -19.068892 2.6323335 -25.967655 -11.365734 23.10597 -54.20222 23.873852 0.67969865 13.240063 47.856037 -38.335693 4.5457845 -21.86928 19.837189 8.875735 -5.5009084 12.79315 -0.7587004 6.4071937 10.977696 -11.475006 -0.5575383 -20.550138 -35.06977 20.1379 6.456064 -1.2780436 -3.3502285 5.6284604 -12.495765 -11.020224 -23.561214 -11.079374 -15.918344 17.75194 12.513804 7.3372116 -14.331107 -1.9762365 -16.431932 -2.9587948 6.2154074 -13.020494 0.06619001 20.06238 -22.341934 -1.6680562 0.6753606 -16.086136 23.79404 13.824719 3.349967 -8.422622 2.776047 -7.383552 3.8804908 -6.6620884 18.215975 16.28052 6.9211135 -3.8170526 20.920004 11.4198 3.470994 51.25874 68.07145 58.518185 52.429256 -21.438889 4.7945714 43.601078 18.585878 -14.789704 -38.22554 14.199451 -9.117286 -41.13473 -1.9017022 22.45732 2.4677768 -48.458305 31.701513 -33.023148 8.244239 -0.14916846 38.925064 14.279318 -26.09339 -35.627625 5.0806046 23.923946 -22.64344 24.832382 27.340528 15.6721115 -0.65540886 -21.025778 53.714165
C8H17NO2+H+ -34.50567 -16.719917 14.470501 -11.101542 -2.9340434 33.17776 -25.629097 -6.4954367 4.2945433 -0.47043496 -8.144435 38.550125 -12.096302 16.985312 -0.5052907 4.803735 11.948567 36.779945 12.668926 12.01349 -35.87292 -4.884136 17.683506 19.881615 -14.867883 1.5051856 49.62671 -8.704729 28.863316 -15.194034 8.047373 -2.0356793 -6.541243 3.1560028 8.630687 -20.657492 5.5490522 -10.041243 -4.1450686 -2.823073 0.48668003 -1.1432291 5.73464 -9.274413 -15.4647045 2.9609091 14.016857 2.8419409 -14.342504 2.2624454 -14.769138 21.397089 -6.7842174 1.2722892 -21.666739 5.3033996 -20.88482 2.618042 7.0964217 24.065245 -14.525455 10.87538 16.748335 11.803958 5.1638284 -42.530735 15.8704605 32.531536 -27.362984 22.144617 -43.709625 15.970085 -26.267895 14.050379 35.959656 -12.307326 20.38051 -18.11002 -22.568108 19.921318 -21.208265 -21.765892 6.9612374 14.624495 -29.448954 23.192772 26.077013 -12.424889 -23.794987 1.7866788 -8.090707 1.7278569 -8.227761 21.09285 -6.138018 -19.291752 15.0903 5.214507 -6.487136 -14.6628065
C29H47NO4+Na+ -24.802214 -11.203635 26.29269 -35.955227 -4.0056014 3.2874904 -16.05471 24.145155 -20.63172 5.6874847 11.175523 44.901154 -13.480106 10.035803 4.11421 2.8611944 3.9572203 -5.996249 -14.858452 -5.1865187 10.503238 1.585256 -2.642915 -1.1956046 11.848944 10.4716 17.747734 -10.411858 -5.5548935 17.08842 1.2684864 -6.505802 -40.404587 19.422567 -2.930239 -22.72625 27.360088 6.989575 9.476051 0.65470535 15.177697 -2.2198904 9.336237 -25.923347 -1.738243 0.47773406 -13.077515 -1.3670835 10.940358 3.1400914 2.5570729 -0.894834 12.418927 0.33513162 -4.205434 9.288529 -1.6609988 -18.094822 30.97695 29.821651 6.214776 3.824349 -2.2120743 3.661306 7.8949995 -16.210028 20.46424 12.976199 1.1402692 34.200672 -10.28728 7.1572986 30.132719 -5.4994483 -10.169985 8.667329 20.256016 4.05465 10.140985 8.110556 0.570125 -39.21777 -14.594226 13.511728 33.704075 -59.639557 -31.625603 60.684933 32.91112 9.361018 -18.592964 8.547957 -11.393658 10.7122345 4.3000455 -29.46444 49.632156 7.32576 7.4309864 12.493794
C7H15NO3+K+ 8.805544 -40.03269 -31.608315 9.628054 -17.664083 22.41017 -19.79659 -35.793694 -7.9083843 4.6832914 -19.166773 22.265762 -34.779163 -24.319725 -14.93447 -5.026022 -30.807055 9.265193 24.332531 -10.6831665 -26.0446 10.440385 -1.7949048 0.97573125 -6.902464 -26.019373 -18.428467 -19.409527 -10.466043 -12.485663 7.87193 -28.042118 -27.510622 2.4178503 -2.5206916 -31.89168 51.833458 2.6067693 40.86359 6.7184134 33.80789 -11.534942 -5.3996363 6.1983404 39.540833 12.014709 -26.544605 -7.2608695 6.3841076 -13.161479 6.035033 13.920516 26.704681 -4.456045 -1.906383 -11.358495 3.1720617 -5.8230104 8.429686 10.90042 -11.808269 0.5077404 15.912764 -12.717058 14.630784 20.195112 14.760193 -22.145514 -12.42259 26.0146 8.732167 26.616087 4.350662 -35.40477 6.115828 -7.631044 -11.644969 33.619083 9.090731 -19.493355 -0.21969415 6.4569464 -11.316323 32.3102 25.124126 29.921442 -22.022047 41.325783 18.049383 -5.641046 -34.333237 -13.789355 13.869199 53.07637 -4.190582 26.452091 8.174675 28.290318 -19.916265 -4.101846
C26H50NO7P+H+ -15.680625 12.56795 -18.590014 14.391629 6.2858806 27.327103 0.79520047 16.375124 2.3413436 -7.5775466 -0.39747164 4.2182913 6.4706273 -6.546006 -18.241346 15.196215 -9.861737 20.944954 -3.470237 11.048611 -1.8853067 -3.7869785 16.342125 20.082727 1.9723207 -0.57127607 -1.8568945 -4.3551364 -0.8627127 16.400188 1.8238319 9.621109 -43.469643 12.315122 3.2288926 0.302584 1.4207504 -32.63914 -4.1391687 -8.146155 -0.9955288 -3.809807 -5.708289 8.735549 6.6287518 16.404558 -0.18921678 -14.927113 -16.239176 16.363369 -5.4799666 -15.830901 -23.29845 9.8060255 -3.9576778 15.867339 3.4885604 -4.3469024 6.8309917 5.4030547 0.16378726 -5.9265494 16.467142 24.982277 -28.513638 39.40496 8.2509775 -4.0727453 -5.9153657 -5.4518366 23.214083 -23.413813 -9.643749 18.84706 -10.211801 3.1733332 -1.6454467 -16.133226 -19.182962 33.135292 13.571633 -20.455027 -13.065237 11.382283 -11.409891 30.94258 -23.733202 25.651077 13.820949 -7.5750365 32.304028 -1.6607125 -6.645982 8.890713 -9.5671625 28.32024 24.477428 21.521948 43.849495 39.228554
C13H17NO3+Na+ 0.38664973 -23.202995 1.8872149 -14.254161 -1.1470764 -9.529973 7.2195253 -26.32677 -15.83518 -0.8591482 -1.081789 19.617737 -25.356604 -34.720245 -10.532608 -7.727852 -34.683323 16.5152 -17.85543 -8.992651 -11.726369 20.337673 -3.7122102 6.7749343 25.727402 15.901659 -16.123531 -20.926435 -20.09912 27.243385 -10.144984 0.5809289 -12.237702 6.298087 -14.524956 -11.074296 -9.842715 -23.517685 -1.4947891 25.446714 9.309628 -0.79022616 8.857274 4.3161335 25.92368 -12.9290695 17.052221 -8.525325 -5.9160852 12.741401 -1.3742237 -3.5395203 22.566793 -2.1222432 -2.5775516 -7.781961 9.507533 -19.342724 15.915429 20.56999 3.4050655 7.8077536 12.643942 11.480798 -29.40777 0.18368629 -18.06408 -35.90597 -59.022 29.265871 59.659943 22.412518 12.207805 -0.35989606 29.890493 -11.561675 -2.2341225 17.511164 -2.0814137 45.92742 73.288246 8.443099 -26.121067 40.13511 -21.143991 2.6920564 7.557945 31.394745 -14.471543 -6.023534 -62.29216 -12.510325 17.344023 3.1489766 -7.232992 24.118038 -4.1095433 9.944387 -26.755264 5.065384
C10H16N4O3+H+ -10.138056 5.660917 5.835275 -17.72015 -3.741851 -40.420273 -22.950476 24.529459 3.1728034 -12.280935 23.020828 43.870872 18.152752 9.498839 26.364079 -13.325473 17.64891 8.255497 33.6035 5.5120587 -6.5699215 -14.639571 9.846088 36.542427 -5.2322545 24.238148 7.147336 -23.692142 7.0634093 -17.733221 -0.41492593 -9.644134 31.032118 -14.100233 8.570053 3.6488059 6.952227 12.743492 29.576797 -35.597958 -7.365131 16.052 -4.8027215 2.5138965 -23.535364 -4.695168 -8.530524 10.577281 -36.08563 -5.7354302 -18.227968 5.7076178 4.943374 -4.4253798 -15.589947 -12.529083 9.166378 -5.6400504 1.7967553 21.892366 -32.156933 24.677542 21.872496 0.1661274 -16.531452 12.634591 13.666992 -10.287906 20.666405 15.627828 6.9590273 25.17201 -21.322264 -31.051298 -14.88443 26.770544 -16.168037 17.444283 -50.03469 56.760845 -19.006227 -33.461124 -8.60949 55.352886 -5.816326 -24.15561 -4.0323334 21.57155 -3.574874 -14.234066 -54.53912 -4.7692647 8.841794 5.351933 15.390034 -1.7615142 5.22892 27.766777 -8.778995 -21.204288
C8H20NO6P+K+ -18.725897 -8.543036 5.949536 4.7168684 1.8274302 -31.189209 -19.975607 0.8873509 6.9357724 9.406925 5.682123 30.90744 -1.7369165 -17.648273 -7.6543036 7.226392 -0.647825 30.985168 -19.863947 2.1656148 -39.80615 3.4771805 6.6690583 25.290152 5.373023 -11.410491 -0.3556128 -1.6628819 1.0816189 -21.800617 -0.66088915 -24.69952 27.17877 16.3774 23.14611 -15.386772 -13.780404 38.235443 0.6658666 4.039701 1.0024632 30.220264 6.757171 6.9614787 6.5853314 4.936596 5.6746206 -29.249737 -6.6722603 -16.832375 -1.5612975 5.5329366 43.08752 -8.69734 0.33289656 -3.992711 7.046563 0.40946317 10.642833 -1.4020677 -6.9630785 29.49791 -0.27737254 -12.007277 10.450724 9.792161 13.814625 15.730311 10.337771 16.85021 -21.477062 33.548515 15.037833 -34.179356 33.02252 5.384879 13.518732 34.843952 37.8204 -14.4577465 -20.703865 -10.562495 34.992085 27.99435 31.833542 0.8225161 6.68781 -18.27032 -5.1202617 6.3443413 -8.178792 -2.6512609 -11.367815 33.527683 2.2393854 -34.35402 2.0830345 5.664176 17.026749 1.7704959
C8H20NO6P+Na+ 7.9134936 -16.305447 0.8804291 -29.710728 -23.8406 15.189686 9.370001 -10.035113 10.425696 2.7075348 0.2802089 25.548067 2.019125 7.5909996 -3.0213506 -11.411665 2.2299452 -24.390083 28.22012 -5.7506304 -2.9083269 -1.5974771 -6.0259748 -4.4412484 -10.680159 -31.30126 -2.9020848 1.5797502 -14.188094 16.03042 -9.097517 -21.148401 -50.764435 -23.564844 -9.506978 -1.3719839 47.223934 -12.366484 -4.4576044 2.970805 -7.5018315 -33.375874 21.14761 6.3545914 -2.1592093 -18.677076 17.718079 27.48054 -9.524706 5.569464 2.8326752 6.314017 -40.388535 0.3607774 -16.720278 29.560122 2.3683143 -1.6406435 5.2801704 -1.0848631 22.688623 -41.109966 -43.158215 5.861073 -15.029313 21.632658 57.782753 18.882494 32.380283 -4.346556 23.547827 -23.306973 -3.6117046 -6.139112 -5.3537617 3.2966661 34.822468 14.168779 6.3636384 39.122517 -11.130613 -9.754458 34.50603 -7.9896727 -5.0546045 -37.35742 -13.939213 -13.371037 4.93651 0.62027365 -4.725783 0.50261146 2.1706145 39.218388 -0.7572216 9.226837 21.493826 -26.159481 0.7364053 3.775196
C10H11NO2+Na+ 12.175978 -14.213187 6.100027 -25.364138 -23.847523 12.479546 5.143538 -12.474737 6.0331936 -3.1407173 2.7236083 8.9709635 -11.469552 -19.993898 -9.812617 -3.1799877 -3.1300385 -1.5547625 -5.9364247 -7.464043 0.9320111 1.787022 4.4251614 5.9737115 -5.4229956 0.03654249 7.3069396 -6.6141047 -11.760285 15.375328 -9.453402 3.528332 -15.86932 -0.11984743 0.07481818 -4.0318875 -8.242215 -8.204255 1.991918 3.1546304 6.7661405 2.4789124 1.6379852 1.352912 2.3703725 3.6084337 12.718706 -7.522845 -8.139253 6.2234063 -10.076811 -13.916782 -16.997066 7.8328805 -3.3712795 8.218992 -0.7516622 -5.838612 -7.4553027 5.743792 8.877983 4.4333663 -1.1512576 8.539844 4.413654 -1.8852575 11.340106 4.7461953 -20.70731 11.11907 10.62652 4.413131 21.299932 -24.047398 10.98132 6.4712977 -11.793414 14.665561 14.402222 7.568663 9.394054 -21.112759 8.045476 3.1135733 -6.815161 -4.0133967 -14.482782 12.734385 9.500853 -0.5416773 -11.308903 -0.8470569 -8.0752735 8.563603 4.151543 -1.4306145 9.975716 5.833842 0.98960876 11.835322
C37H68O4+H+ 21.40672 -30.925676 4.256272 2.223008 25.11084 -16.77381 -18.881866 -6.5095105 10.4233675 -22.870975 16.980911 31.544086 -7.820688 9.93896 25.513893 -13.26952 -8.222833 10.082014 -4.8536882 -16.322702 -18.211412 -20.414373 0.27385384 -13.647819 -29.141474 -2.0347667 20.458202 -23.669071 -9.632422 -2.7935388 24.87262 -3.707005 -14.314755 -38.89237 -2.9605064 -19.165018 11.059075 0.7253439 40.551266 8.1793995 0.979369 -3.8355658 -13.854307 6.9105105 7.579849 -14.519559 27.48397 20.326357 15.459679 -5.750646 0.8088207 -27.03166 -43.573174 -0.750427 -4.1373944 8.834469 -8.139709 31.219316 -6.5245295 2.2165143 6.351584 1.8067746 6.4041514 -5.3908057 51.14489 -17.552723 4.6023693 39.84109 -2.481672 15.337339 -17.712984 36.83442 15.94697 10.334692 30.493437 -29.658096 -18.46424 -53.82689 -3.781886 -40.03295 -6.416552 1.9415003 -29.341919 -16.468275 -46.705475 0.8145674 13.317077 38.89283 -14.585933 3.0898728 -24.088314 -7.692205 2.5343692 72.00215 -28.24266 23.783634 18.84341 -14.377154 -32.902645 -9.010021
C35H66O4+H+ -3.7377846 5.2908435 27.140104 -25.371367 -55.02551 22.870367 11.16547 5.1611433 -8.531206 -4.007142 -11.064731 -14.137879 -6.7516437 -37.054195 -29.988619 -14.22274 -4.155465 9.944891 0.8889589 -0.8120892 -17.711391 0.51557744 10.645796 28.517096 -16.068077 6.8699703 -6.7853317 -12.64201 -13.726297 22.973616 -27.97343 2.9790301 -12.04009 7.709837 0.5212565 16.09476 24.206568 8.291413 -12.002999 -27.665573 -13.175525 -17.580378 7.4801836 17.838741 -10.611923 -19.309607 -2.664936 0.7897492 -24.532917 18.93959 -14.103336 -1.2803812 12.240565 12.511188 -12.27296 5.9553304 2.2190943 -17.042345 12.810432 27.94453 0.10740836 24.514376 -2.1648262 17.877253 8.037952 -13.493748 24.854244 -34.088516 -8.194868 9.632397 -62.06322 -33.722088 30.048859 -59.155376 24.765491 0.11134187 -14.266102 47.2783 -48.172764 11.062198 3.474368 -6.05136 38.78808 1.360552 20.32526 9.296596 62.715435 25.136887 1.5533551 -3.1615036 -18.81207 -0.874622 7.009541 5.9465485 -2.465516 2.6815813 8.01151 -15.67284 -7.980464 39.8956
C23H45NO4+H+ -23.241219 14.268096 -6.704864 -8.597851 -22.478119 28.36748 5.994794 13.080357 1.7855313 12.565565 -4.033646 37.313774 -27.46595 22.206459 -12.376438 8.426377 -3.945893 -1.1088953 -3.4280536 0.032482915 8.412562 32.66306 -1.165438 -2.367222 -18.34021 -28.681055 15.222276 0.4622453 2.525915 10.4464 -3.8892787 -8.540921 -3.2377174 18.40378 0.457018 11.417385 0.14194396 13.635322 -6.9603376 17.747253 -5.08245 19.484447 1.3144385 15.409238 -28.897638 -16.870312 50.91048 -36.322124 -23.04432 20.851215 -18.927393 18.300106 -20.464478 28.683876 0.13004929 29.94917 1.1399169 -14.797781 19.398256 33.317898 -5.761894 12.026112 -18.681843 12.859586 20.979107 34.04527 6.5746694 -6.1477523 15.525177 -1.8193676 -20.749907 -10.201929 -5.884169 2.3561742 26.256805 -22.318377 -0.75938654 11.638087 -5.149832 33.391903 7.492697 -18.900139 4.7915955 4.163672 -50.286373 -17.714237 -45.31477 3.6452851 0.6384696 -1.8803958 -5.010898 -2.6073835 -3.675065 18.203218 20.81735 5.2480235 13.796627 5.5580397 -13.438764 22.826038
C37H66O4+H+ -13.745091 -29.560396 -2.3704915 -6.4831624 1.0827249 39.63009 -6.607097 -30.165245 -15.237113 24.32252 -16.309025 36.17145 -33.6149 14.719448 -2.0679023 20.112461 -6.932613 -9.911883 16.675638 -3.84688 15.111942 -0.019662788 -8.849283 -19.558544 15.4116335 -8.056782 36.747704 2.1134179 10.210497 5.262602 -4.3685308 0.6599379 -14.293108 22.4422 3.9514322 3.467779 -8.298307 -9.004085 -22.17697 4.3164415 5.6130824 6.531127 -8.308707 19.301773 8.776402 29.460648 9.919009 -35.502796 10.4560995 -8.779598 3.6267982 17.029985 36.106945 -4.5956016 11.681478 -0.7883263 -7.5906577 4.8953466 -28.000593 -17.143759 9.130791 18.971079 28.56256 17.922733 -10.089606 24.715816 -8.4401865 30.232332 53.428974 45.716026 45.537544 52.714355 -5.616378 0.6982372 -14.646487 -6.952395 9.57767 31.595585 10.230656 -9.60706 21.996927 -53.072617 37.55369 14.0774555 -24.47254 -40.00494 -25.573755 9.6133995 -8.077384 10.508199 -40.265675 3.7803195 -43.04356 -14.2778 -4.407372 -4.682515 5.837842 52.586468 22.76861 23.479471
C10H15N5O10P2+H+ 5.573877 -54.151875 21.393871 -21.249361 -20.415466 65.25637 0.85910934 -59.52469 -0.09004171 21.626215 -17.477596 1.088783 -28.822355 8.95839 3.697167 13.960104 -49.44501 2.3941762 10.704009 -14.890015 -10.21205 0.47832245 -1.0956502 -19.232025 -16.748747 -19.662966 12.307661 3.5225294 -8.930585 15.308985 -1.8907796 5.8505545 -14.627206 -9.611047 10.519284 -30.380909 46.481964 -7.9186296 -24.766356 -26.708141 7.5523806 11.2239275 14.998937 1.6677958 -17.804386 -0.3404578 -0.9281306 5.780391 -1.9416566 -3.237803 16.470165 48.80744 -28.243431 -4.839476 -26.889555 21.29734 -4.6395116 8.741166 -11.323295 -5.4056034 6.9322 -14.314187 7.28293 18.815737 -43.65549 10.0829115 45.33264 -29.214745 -2.6915274 5.7430544 24.968637 9.655593 26.165667 13.0904665 26.107817 -27.369234 26.32667 -5.5221815 17.379358 5.009646 -13.105425 21.682037 -4.129502 13.434937 3.4272408 38.23334 21.022436 -42.8039 -19.264566 3.180811 -12.311913 9.478877 3.329922 30.706106 -9.646249 22.38187 -5.397715 28.506392 -8.118782 9.424439
C15H16O9S+K+ -0.49984127 -17.775229 8.634053 -8.298096 -8.226695 7.856529 -7.2014523 -6.262063 -7.947915 -1.5961716 -1.9386501 8.312674 -11.033656 -4.6077476 -2.6595244 -2.7627547 -6.384283 1.9722435 4.296296 -6.000595 -2.8884513 0.03012225 1.8107198 -0.6343141 -11.253124 -3.3229861 7.9043107 -9.136533 -4.436808 3.553842 3.6010482 -3.493668 -19.274061 1.3662364 -1.4105958 -5.5297704 10.353075 -2.112188 7.0907145 0.68624735 3.1571333 0.5601946 -3.1770828 2.5686247 1.0917561 -0.89552474 6.792412 -5.2968507 -3.5927794 5.00809 -4.3973727 1.5240127 -2.7156086 3.3647685 -6.1407657 4.086859 -3.3383667 1.2624948 1.1113495 9.60526 -0.5578848 2.6009371 5.1319103 4.106939 3.1015863 12.009349 12.3765955 3.929678 -1.4909155 7.0631847 1.65658 4.0395565 8.991752 -6.806171 12.421844 -6.477663 -7.175209 1.5872824 0.7495202 3.0044014 2.8637516 -13.0341215 0.7422076 0.339174 -10.025509 -5.662328 -6.6857214 15.863894 2.1781 0.585539 -11.182404 -1.531078 -9.011794 13.378442 -7.090016 3.9019942 11.616996 7.332793 -3.2611303 11.94324
C25H49NO4+H+ 23.87509 -75.38435 32.864796 -56.21041 -26.727415 -7.2521486 -33.51951 -23.965668 6.3705072 -10.018147 19.883741 61.477657 -34.993202 -49.730278 -9.980022 -15.219276 -13.406923 9.611668 29.061768 -22.245663 -30.297266 -29.661526 8.885373 14.90721 -43.75108 -18.245188 51.90546 -36.95528 -4.4648156 -13.486318 24.997482 -28.751604 -52.99627 8.940459 -11.464556 -11.756021 34.911655 -3.732062 25.889816 2.5947871 23.560497 4.818732 0.9199611 -15.920776 4.1013336 -12.937951 14.84613 -0.7740731 -19.915764 13.791972 -15.721517 5.2068124 6.995852 10.540428 -23.589853 28.887524 -1.8056229 -7.831625 28.04433 39.03055 -9.608775 21.754957 16.250443 5.572803 -2.123522 0.83332825 84.75861 48.418602 -37.676884 0.4302832 15.767778 12.990741 24.906818 -6.230488 18.58227 3.3527582 7.431053 26.370861 21.18629 17.53247 28.359875 -26.885044 15.959335 37.698925 15.598742 -49.674286 13.64404 65.237755 29.169662 -15.190143 -29.737446 -4.90042 -32.613712 36.039055 -16.832214 -39.598408 39.88737 19.43471 5.703552 29.753525
C24H50NO7P+K+ 3.217958 -22.346415 8.365629 -7.907005 -14.122895 7.698722 -4.9392157 -11.81701 -10.609822 -2.3910372 -3.911192 7.8538203 -13.290862 -6.96098 -3.748978 -3.024629 -8.788881 6.560829 3.4771078 -8.54302 -9.151754 -2.5345066 3.949955 1.5135217 -16.64286 -3.2281709 13.55517 -15.38698 -5.0177507 2.1559443 4.5920744 -4.3283157 -19.526972 1.88432 -0.95281494 -7.400142 12.384609 1.9695194 9.963399 0.78446466 5.632694 2.644082 -4.745929 4.2144165 4.848186 2.3472269 3.9570076 -8.515006 -3.3257186 3.1238532 -4.45494 1.4399463 0.88090837 2.4767644 -6.8484645 1.3014952 -4.722029 3.2194872 -1.0516555 9.973943 -2.477152 4.999661 10.547252 3.59249 5.7512026 7.5170703 12.422003 6.1838913 -3.9643242 12.001554 6.616555 4.5181813 13.648505 -11.384826 14.326248 -7.317609 -11.826604 5.2942963 0.36190006 -3.0480702 5.609581 -15.915303 1.4156415 4.91216 -7.552948 -3.1796198 -3.9723697 26.538595 4.2791753 -0.42581484 -14.745924 -3.1490018 -13.713971 19.538269 -12.016603 0.91467416 13.181753 13.116768 -3.14534 14.982592
C10H16N5O13P3+H+ -39.76081 10.916593 -19.93678 25.20454 23.941828 -29.599161 -36.246017 10.448888 6.1726503 -22.587847 15.8927765 -17.552065 -12.988834 -24.502773 -4.8343625 -0.43533596 12.056339 -29.451263 26.030632 17.557055 28.264423 -11.820549 -5.533497 -7.401776 -7.0905533 6.1426797 -10.373231 1.3336556 8.496596 -7.3119683 2.5711079 3.8341458 -13.028816 3.9718227 -17.866232 17.556263 -7.5799775 -11.185657 17.089306 10.884043 -14.204942 -25.728498 -32.23724 12.704892 -3.7379644 -2.215216 -0.9041167 6.486026 -10.670674 10.499724 -8.931596 -13.614015 -11.068789 17.41218 1.1127291 17.127102 4.6264052 -13.42996 8.491715 11.428717 -5.986916 9.887301 8.120076 0.10323079 6.057486 7.4288673 51.84953 30.983587 -46.440903 -25.35398 -21.242373 19.879158 -0.47755823 -28.297304 17.99004 14.560805 -15.335557 21.260176 13.839838 -9.06777 5.458299 -32.962505 1.6515567 -24.477875 -16.942577 -35.553963 -65.96769 38.63342 10.002011 7.994119 19.44745 -4.496219 -22.745977 -26.450197 -21.627205 47.307293 16.77879 -41.170654 18.36797 -1.1792758
C9H14N4O3+H+ 28.645327 -1.5943894 1.0254589 -43.460163 -16.423601 7.311026 24.66236 9.686302 4.5811734 -18.59659 8.389027 11.983453 12.512284 -27.097065 -24.18294 -9.769141 -0.51257795 2.1151054 7.2943187 -0.2279374 -8.179612 5.2138405 4.071507 10.504467 -11.624017 -8.843068 4.3206806 -2.592144 -1.6916072 -12.830922 6.253428 -18.477732 0.22186401 -13.776154 -2.5039647 -11.6912155 2.041737 -3.5925436 24.513813 -4.5451202 4.477444 -4.6947355 3.1822882 -4.602695 10.63991 -12.5783615 -7.8116302 13.848518 -10.984969 4.1807594 -6.1994014 -20.118124 -8.711228 3.5132682 -4.888387 -2.6333768 2.438589 -12.509263 10.551722 10.527709 4.2672057 -2.943181 -9.114421 4.3733697 17.21273 6.790084 8.548716 -7.2652173 4.716177 -3.354304 -13.34453 9.437248 -20.020683 -12.847512 2.584344 5.380776 8.546882 -9.065867 7.898935 37.211563 16.497791 1.2590564 -11.437155 7.2539406 -22.0812 -42.56336 17.94945 13.108627 15.646204 -1.6578283 -2.7426794 -4.103813 -1.3476372 -1.4541018 8.714121 -11.320249 23.201155 -23.017818 1.8762655 10.518052
C11H21NO5+H+ 0.6508153 -12.81339 4.8861117 -6.2667813 -11.0512905 8.113253 -1.1577765 -6.704269 -6.2916217 -0.6702431 -2.9320142 5.719299 -8.217294 -1.4479902 -3.3758323 -0.7451296 -5.44757 2.2532642 2.3281243 -4.630122 -3.8675811 1.0948094 1.9472858 -0.046566438 -11.029606 -4.6946783 7.3761215 -7.5986032 -3.2296495 2.8412912 1.202894 -3.273972 -13.738511 1.2457504 -0.015112059 -4.803634 10.167994 1.8010309 5.214735 0.52191556 3.0569916 1.2399126 -1.8806984 3.2699528 1.6763533 1.0473163 4.1286135 -5.3814816 -2.7719498 2.2016454 -2.8896396 1.6484708 -2.6279387 2.0829494 -5.202018 3.1183667 -3.0512137 1.536363 -0.2877742 6.570205 -0.37016198 0.8912233 3.6460438 3.3296034 3.474391 8.488115 9.505689 2.6921632 0.7235992 5.9228644 3.3866847 1.083176 6.350535 -5.7598534 8.892549 -5.10599 -4.539839 2.221761 0.32256043 2.584297 2.2723014 -10.306308 1.2671305 1.0874218 -8.214262 -4.1233106 -6.570159 12.97703 2.5342796 0.42002478 -7.2986546 -1.7143055 -8.334305 14.059704 -5.5606546 1.5072336 9.931855 6.666302 -1.483638 10.046345
C25H47NO4+H+ 11.03814 2.0233657 -15.833245 4.1924424 6.616519 -5.3862147 16.8758 -8.7526 -8.442581 -9.7213955 -12.60237 -26.19669 12.563007 -7.755458 -5.846781 -1.0057094 -8.140939 12.49642 7.967996 3.0521317 -10.386071 -5.6774235 2.4249012 6.020923 4.464254 8.551504 -11.788544 -2.80963 -2.7184145 -6.0613227 3.2062163 1.0717015 -1.1798501 -15.7757435 -2.9985862 -8.751747 8.906798 -5.656805 8.543813 -11.844162 5.64847 -3.0693526 0.8627176 -5.713115 20.075594 16.110092 -43.242573 10.58044 5.685845 -17.658731 4.6763344 -7.9533415 16.062199 -17.615906 -0.49612468 -30.64103 -3.5408928 11.77168 -24.420254 -23.345913 -8.776281 -9.430304 27.127357 -7.505429 -20.576597 -7.965224 -9.284988 -6.926966 3.4566355 10.711782 7.8483567 -12.819614 1.7831469 -15.948875 -10.014692 6.4322886 -8.83538 -7.354078 -19.892796 -21.105728 -9.28592 10.679751 -11.265487 8.172669 10.057077 22.453667 30.395842 2.4117038 -1.9149207 -1.1451664 -2.5292943 -3.9198518 9.422738 -5.0442514 -11.16862 10.177495 -7.0986524 10.698167 6.649896 -10.690073
C26H30O12+Na+ -12.675638 12.328849 -5.670159 5.171506 -2.757356 -5.6045485 -6.508396 1.1311007 -20.05708 4.295341 4.9239483 -0.23602204 -19.019709 8.655908 12.430649 -0.676872 -19.436796 -13.4603 20.175005 4.782032 19.971222 3.045435 -8.623213 -15.259079 5.618419 -6.4501786 -7.9516907 -16.618013 -40.241688 41.571873 -17.726814 -15.8899 4.2195435 6.2556973 3.1503134 -0.7111919 29.522905 -9.233829 -6.9204445 9.236977 30.786028 30.499062 21.086086 -16.618767 -13.89368 13.223566 13.353596 7.508795 -0.2818315 -24.472404 -3.2725494 41.69794 -4.79522 -13.779325 -5.330803 -13.644258 0.13394721 16.055597 -12.472198 -1.4023719 8.65727 -8.887688 0.49591562 -2.6268883 11.498251 -11.168796 17.09276 22.872543 21.39768 -1.5911791 -7.619096 9.59116 22.920788 -27.417887 19.207533 -3.0219455 20.999907 7.3806806 -22.726847 0.99031264 7.14069 23.08205 -2.928257 10.995182 -44.565746 -16.806347 12.088708 3.2295833 -17.165602 1.0581255 -39.89684 13.885663 38.0538 2.0302267 5.245927 23.962172 17.801386 23.02556 -36.231922 18.376083
C12H22O11+Na+ 37.70009 -32.945366 26.716255 31.991291 -55.01083 14.014242 26.215874 -56.31473 0.61525935 -17.478354 17.530844 -16.348478 -18.049002 -22.853401 -19.788296 23.449211 -27.150574 25.015957 -12.524291 -19.471598 -32.07343 -9.059902 13.964632 17.39485 -50.779236 -10.841433 -0.14947501 -18.713905 -11.903182 -2.7422538 -2.4796088 3.3359587 -10.281492 -12.152471 20.455833 -69.53839 1.8676208 37.86692 33.847824 -18.328272 12.0857315 2.449047 -9.060355 -6.2344413 4.336165 -4.8650985 -13.992058 8.82557 1.5714374 4.9329705 10.5317745 13.525935 -29.321993 2.7366867 -27.632763 -5.079283 -15.704018 27.591349 -1.130211 21.7286 4.7406344 -40.183617 5.5462856 2.5189776 -26.27894 9.825296 42.863453 -4.382688 -32.694485 -19.908945 37.687336 37.83729 36.93298 -10.785998 35.673992 -11.422258 -28.13554 -25.341055 20.328037 8.539051 22.309494 -31.61746 -16.810984 5.397103 -33.544514 21.746424 -53.927547 33.14468 4.0248556 -1.45556 -21.562601 -4.655652 -19.681002 3.4267685 -7.5649962 -2.5897405 -8.448812 39.926723 -6.804886 -5.8363204
C13H13N3+H+ -10.121288 14.375317 -3.0371473 9.109741 16.551397 -4.4174986 -5.2679887 12.101166 -3.2319865 -17.6329 3.5570486 15.774276 -16.260014 -4.6784744 1.033474 -21.699831 2.7959933 12.136879 -8.904374 1.2170428 -6.292588 -7.698662 -0.12787342 5.58695 -15.701812 -3.0797853 3.354834 -25.40354 -4.72071 15.6123295 4.3536406 -4.417156 -27.045109 -0.7862663 -7.0457783 -5.453282 11.62667 -1.9899437 16.444996 -1.4769647 -5.6947775 -9.7443905 -4.7230597 12.592328 -2.7056122 -11.380532 19.893112 -17.156538 -11.485417 3.5105999 -18.83342 -17.98007 17.991026 4.934641 2.4164934 -2.6369889 1.2126853 8.089017 2.697132 11.014218 1.2532431 18.530485 18.56308 7.126729 8.520948 -4.084103 11.165952 33.90862 4.207786 19.413265 -7.7756815 -11.966978 24.575758 -4.28441 17.563625 -14.776771 6.422056 17.33185 -10.246003 -52.714863 13.555524 -9.119873 25.896204 15.290702 -7.1762924 16.32758 7.294672 33.528584 -9.63487 -4.04158 -2.371188 -7.504581 2.2967932 37.722393 -26.271252 4.625231 18.456669 -9.28437 -5.012671 29.326302
C12H22O11+K+ 75.72215 -34.99426 47.799156 -42.337456 -24.012026 -39.072346 31.605396 -11.13534 -52.630356 -30.113369 19.905035 -10.3579645 16.077858 -7.276429 30.511255 -45.218403 -8.657788 28.485008 -84.04224 -21.730757 45.905933 14.036437 12.202928 6.999741 -32.470814 33.749996 1.3331937 -37.254486 6.5603375 -41.656906 11.373347 -11.695779 32.5924 18.333782 9.4068575 41.940075 -9.244275 -20.02625 43.835167 -23.533276 -11.857762 -26.684238 -50.615738 31.976341 17.663515 3.5656257 -11.639634 19.752823 16.141092 29.858757 3.5937529 4.28121 13.499311 1.6735595 3.0862613 -31.649372 0.073707536 5.8679895 -17.1099 25.459845 14.094825 11.8056755 -20.341257 -8.85641 -3.3673818 113.9537 11.439855 -12.408 51.40886 -47.364243 71.649284 -10.688577 32.01817 -10.203668 -26.079592 -20.489399 -11.368809 -32.47058 -36.37338 1.7424437 7.5872493 -49.578365 6.179486 -36.632854 1.9442611 29.243114 -12.097575 36.27365 -18.23572 -9.121457 -35.22213 -25.512703 -43.19458 14.635034 -35.0754 61.829227 41.036396 10.682143 -3.019363 44.724747
C15H18O10+Na+ -88.32768 16.458918 -36.02426 8.301968 13.650605 52.870983 -56.25241 26.54433 10.862018 33.812485 -54.727673 8.62677 -1.6079701 9.928856 -34.19531 20.04714 25.210802 -35.723164 132.66685 18.763985 -41.926575 -6.98907 -12.098532 -1.3035653 33.78242 -25.877102 16.549383 17.209085 -7.22553 33.70429 -9.2836485 -0.079575166 -53.04154 -19.173029 -18.47073 -13.13938 25.073362 -19.317245 -48.823395 24.856367 -3.4691436 5.014717 41.352287 -8.705992 -10.062453 -6.617546 19.532322 -21.119242 -23.643549 -3.6672456 -14.542354 -9.656768 9.754951 0.7019751 -0.9609705 16.926888 -0.3633382 -12.702643 9.462098 -12.142399 -13.994065 -2.5337017 15.886664 14.122037 31.87028 -92.10969 -18.113594 34.928307 -31.224743 94.256355 -100.79506 23.32336 -60.629406 -14.490538 16.847837 25.889622 -11.341523 30.519323 -32.204582 27.40608 -28.722795 31.643152 15.494698 3.5888598 -35.01169 -26.97135 44.44235 -57.6362 -5.929295 9.890746 -27.072557 19.603712 33.91173 -16.499533 14.012706 -41.95996 -38.72418 7.534909 -11.762775 -24.187586
C15H22N2O4+H+ -23.439493 3.6786532 8.543596 6.6871614 0.21860212 6.790428 -20.64392 3.052138 -7.581925 -3.0714302 -4.030436 6.4470396 1.7789735 -13.934139 -12.147616 2.2283034 -5.7731996 -2.1996555 8.22221 1.3646044 -2.7592044 -5.2977724 -3.9232213 0.8979637 5.6073065 -7.4914527 -6.427195 2.515883 -14.608821 10.340821 -6.1543093 -14.467242 -6.5816255 10.402343 -2.9019914 -4.9389496 -1.9812707 -0.38438624 -4.0982494 18.30132 13.492088 18.906801 6.4922705 -6.695579 -7.968478 -3.2216651 -15.238493 5.015189 -3.7799613 -12.149313 3.6774073 25.869461 6.4269276 -5.132888 -6.618278 -6.408903 3.7655132 8.011144 -1.9272648 2.5738153 1.9061067 -6.2619705 0.11767694 1.0478468 5.029562 -14.622253 13.81161 -4.5697374 -1.1981362 19.569672 0.075262204 5.1195545 6.8363514 -17.104616 9.579958 -3.7471354 14.151976 10.456297 -2.437813 1.5603112 6.6982207 -0.3427964 4.0202956 14.9395075 -9.979244 -23.029135 19.658882 8.298949 14.998266 4.6512165 -7.8744597 -3.7685523 -18.768175 7.034905 -11.797003 -5.8291607 -3.47899 27.085299 -11.103266 -2.0820448
