69 50
C7H15NO3+H+ -2.9536273 -0.7233153 2.6851425 0.5129243 0.10177703 -2.7437065 -0.5698653 0.42449716 1.103934 0.33511195 6.138912 0.9965857 1.6492406 0.60451275 1.0703119 -2.0464058 1.5319866 3.6434007 0.7272136 -0.053025767 -1.1194364 -0.12709452 -2.8074105 3.284016 0.5713946 0.6764806 1.9749396 -3.129974 -2.879914 -0.45501578 -0.06326734 2.5454113 -0.99665976 -2.6781573 1.695252 -0.6642935 0.9011586 -0.93812096 1.3536503 2.2188942 -1.3091245 -0.30752295 2.808691 -1.8269621 0.28221607 1.9127929 1.8463054 -0.9177718 2.3564134 1.7732314
C15H22N6O5S+H+ 0.9650913 2.3870063 3.1846952 -1.1503409 0.57314026 -0.030259244 0.84974813 0.093716495 -0.43197742 1.5149812 -1.1369822 2.147062 -0.35284683 -2.6768131 0.89004374 0.8946321 -3.0844524 -2.2709386 -1.3431246 -0.30058455 0.32583535 1.1331668 -1.6876227 -0.8883514 -0.9740329 -0.72223467 -0.7648007 3.7295582 -0.50007737 1.0574142 -0.24875899 0.9387937 1.5880057 -3.3381777 0.76300615 -1.4732342 0.8400177 -2.0218406 1.5107349 -1.3367646 -1.4031898 -1.9038482 1.0746157 -1.330322 -0.74787533 -0.8104361 1.2862247 -0.12956774 0.089303754 -0.6362771
C24H50NO7P+H+ 0.9411206 -2.2749753 2.452245 0.41034898 -2.041826 -0.50132805 2.7234843 -0.69101745 2.2401924 -0.0054252427 -1.2116681 0.6041625 -2.8205714 0.3367775 2.276357 -0.5161734 1.7839185 1.2456036 -1.6219381 2.2168703 1.7375942 0.40972042 -2.415062 -1.9008054 1.0129391 0.44163674 0.0037161312 -1.3109827 -2.2387319 0.060891476 0.5553263 -1.1368896 1.4198974 -1.1107353 -1.8798751 -0.94791335 1.9030681 0.30084714 0.31006306 2.3850548 0.33053255 -2.0644958 -1.3041329 1.023544 1.6975886 1.8394556 -0.3793841 1.7672718 -0.32302207 0.85329354
C4H9N3O2+K+ 0.71435577 0.62905174 -0.49066025 -0.56033856 -1.5207852 -6.0533576 -1.7152704 3.473177 1.6106975 0.6731952 -0.9128598 1.5467486 0.724418 -1.2111651 -1.3536837 -2.680572 2.557414 -3.856675 1.2578421 -1.841711 -1.6995203 -0.11606789 1.5052186 4.433444 -3.8279338 -1.9962016 1.7807528 -0.3717943 -0.2871684 -2.6696846 -3.3584046 -1.1186842 -4.7596517 3.0095742 0.27866063 0.23807496 0.5318626 0.19126539 -1.0658094 2.5064793 -1.9155648 -2.5931573 -2.038703 3.4534993 0.18030368 -2.8419352 -3.102698 -2.5546515 0.9289781 1.0419872
C9H17NO4+H+ 0.59109825 0.449424 0.87894356 -2.843562 3.0058029 0.7558544 -0.09524296 0.3339999 -0.24285315 -1.9117852 0.8189469 -0.6429397 -0.46836156 0.0018447002 2.2555456 1.7997516 -0.56514597 1.0640434 -0.25117427 -2.1987944 2.1011875 0.5695224 0.76957625 -2.320022 0.5616422 1.4356871 -1.9425349 2.6229968 -3.9857504 3.9189897 -0.4491034 0.11526061 -0.9981714 -1.888759 2.0270486 -0.8925985 -1.3453542 2.0897515 0.2695998 -2.742375 -0.6750906 -3.6897933 2.7342622 -2.7822826 3.2032545 0.26239738 0.3212901 0.9723363 0.29600653 -4.0649486
C10H7NO3+H+ 0.33842126 -0.009809376 3.518047 -0.75276154 2.3265612 -3.2236137 -1.6374271 -0.8189787 0.031679943 0.5098858 0.8155414 1.3079773 0.028759258 1.8619173 1.3228974 -0.36114717 -0.2658106 1.0076636 -1.7765471 0.6178121 -1.0443314 -0.8346106 -1.7006027 1.9688724 -2.7662413 0.45323873 -0.4799494 -0.18542425 2.3956196 -0.1662518 -0.8769925 1.6839267 -0.1616542 -0.46513093 -2.3540523 -0.40668407 1.1441556 0.12694483 0.34381413 2.2743437 0.549093 -2.4084096 -2.129055 0.84651023 0.28673622 -0.7961313 1.8921683 1.2937877 1.2343006 -0.6660044
C11H21NO4+H+ -1.3516206 -0.44684643 5.37794 -1.564462 1.6117259 -1.0128183 -0.8783086 -3.1404984 2.0261295 -5.52904 -4.282327 1.662606 -1.5135165 0.15198731 1.2502226 -2.8334613 1.0942354 0.15533476 1.1423681 -1.3909674 0.21214777 0.34631625 -1.2541994 -2.3671157 0.9432879 -0.16713698 2.8015125 0.63569117 0.5161623 0.8517448 0.0056367596 -2.4687896 -0.10083995 -4.57687 -0.33381566 -2.819331 1.2816998 -1.4208484 1.4290888 1.4717569 1.9767157 -0.2330886 2.5034752 0.39040422 0.6345116 -0.19892436 -0.97464585 -1.7631806 1.8606894 0.55498326
C22H22O7+H+ -0.36975482 -0.008968916 1.343956 -1.0230271 1.1375402 -3.2415385 -0.08244023 -3.1571214 1.5976981 -0.69463646 -1.5768243 -1.136338 1.4076742 0.20536053 -1.3527 1.3136944 -1.836469 1.7756542 -1.2697322 -2.3302674 0.21754889 -0.8111693 -1.0029945 1.9017445 0.15394624 -0.2066681 0.40271565 0.15542105 1.3072641 -1.5903195 -0.31237358 -0.18545346 -0.9212072 0.10391567 -0.52727634 -0.6932742 2.217015 0.72126347 0.60171723 1.3012453 -2.8974884 1.8027723 -3.5142078 2.4551682 1.8441777 -2.4341762 -3.1378067 0.11800255 -1.4242138 -0.1432772
C10H7NO3+Na+ -0.694867 1.0723029 -1.0801156 0.49423355 0.29233328 1.6274183 1.2498612 3.7600772 4.237839 -0.05406817 -0.52002776 -0.06681911 -0.81743324 -0.23433946 0.39185622 -0.57567304 -0.40591598 3.3760786 0.3803423 0.71730024 1.0028374 0.23898573 1.7148653 1.0366118 -0.09252468 1.6990229 0.2220507 0.110177964 -0.6966558 -0.743954 2.3635154 1.2937071 -1.6130912 -3.2739098 1.9276241 -2.3164463 1.8193727 -0.7750014 -1.8646352 0.88460237 -0.23207858 1.5579547 -0.4804949 -0.6740571 2.2634842 0.9088812 -1.5230978 -1.2249845 -0.17893483 -1.4577441
C8H20NO6P+H+ -0.83966404 -0.7981588 1.3020134 2.6180842 0.23894566 -0.8546606 -0.19611819 0.046720494 0.96595484 1.947925 0.99529415 3.2132494 -0.78207004 -1.1644092 -0.35272267 3.146403 -1.7638525 0.10364361 -2.9023895 0.07169203 1.5484616 -2.6851618 -2.4583387 -0.05056258 0.85112786 1.0519245 1.7710229 1.9968603 1.5480264 0.25966036 0.34670717 0.23556376 1.6480006 0.028757434 -3.2519343 -0.80235964 0.79917306 -1.1559551 2.1785066 -1.9797971 4.377714 1.2394267 -1.1144571 3.7413208 -0.5510927 -0.7106621 -0.6319735 -0.31492436 -0.8099105 1.1595066
C10H7NO3+K+ 0.33801943 0.013853062 1.2631979 0.608517 2.238584 1.4268656 -0.097480506 -3.0077577 -2.6127758 -1.763721 -1.8407398 -2.84429 -1.2021878 4.1572347 1.2211009 2.6702397 0.42549548 -0.14413461 -0.72318727 -1.2839267 -0.63821524 -0.16954477 -0.25239307 0.81830436 1.0807806 1.3796163 -0.18733993 1.8998849 1.7425277 -0.19393083 0.9871426 -1.2007792 1.691278 -0.9733844 -1.3528167 -0.5121085 0.6537571 -1.2023361 -2.1147008 -1.862182 -0.9367764 0.63319165 -0.670023 1.0092994 1.9144946 1.0002509 1.7366271 -0.44087413 -1.2916137 -1.1285863
C11H20N2O3+H+ -0.40400124 0.7730387 1.0003518 -0.040523324 2.4750354 -0.4694779 -2.5265667 1.7450279 1.8542066 -1.6735202 -0.6667608 -1.5732017 -1.2472383 0.11247428 -1.6729863 0.041757837 -1.4398155 -1.679741 0.7037658 -2.9977393 -5.3063893 -0.432372 -1.2228539 -3.000448 0.2110107 3.6514244 3.6229904 3.964527 -0.10374813 1.0047411 -1.9608434 -1.2755208 2.9251502 -3.3490143 1.1603916 -0.78755236 0.36826974 -2.895985 1.7523811 -0.8265913 -0.97053677 -2.3814096 -0.7860103 4.5894856 -2.5840464 -2.3154972 -0.8053951 -0.046640523 -1.1869042 -2.2161279
C8H17NO2+H+ -1.1940504 -0.17083438 -3.4198344 -2.1472874 -0.31829745 -1.6616987 -3.2150624 -0.9663099 0.47449118 -1.0187123 3.4523604 0.24151698 2.1635063 -0.5514176 2.4796848 -0.73157775 1.4221033 0.37133253 -0.99121547 -0.9646275 -0.09911233 1.8444425 0.41849586 -3.071439 -1.1074417 -0.5198277 -0.19359481 1.1646559 1.9055072 1.5608903 0.71685565 -0.07914907 1.4711025 0.4452206 0.43701115 -2.6958818 -0.5546779 -0.57909566 -3.0696301 2.1682293 -1.4441154 -3.7904816 -1.5787653 0.8910218 2.0328174 0.16194221 0.2577718 -1.1033473 0.38510087 -0.82727337
C10H11NO+Na+ -0.88122106 -0.45770502 1.0040351 2.7717953 -0.9378718 1.6619511 0.4857349 1.6886091 -2.521589 1.7614875 -1.917683 -1.2513952 -0.8079835 0.5606218 -1.0683753 3.361273 1.0485699 -0.93482506 -0.36934868 2.5874827 1.624346 0.05515228 -1.2732856 0.14378761 2.9876242 -0.8823625 2.8337207 2.1744668 -3.981178 -0.95900476 -0.33796817 -0.13755319 1.2067105 -1.2660139 2.2173827 -2.7808433 1.5719742 0.16478483 -1.3814588 -3.6834955 0.82220304 -2.2569854 -1.8122369 -0.025859194 0.4823252 -1.4471778 -2.550174 -0.82930416 -1.7616946 -1.729313
C29H47NO4+Na+ -4.1319427 1.4351963 1.8407218 -2.3099556 1.905825 -4.1124024 1.2238382 -0.47582886 4.0940704 -0.87852347 -1.672102 -2.3061454 -3.4428222 2.199031 0.45035803 -0.7767851 -3.0287838 2.3273802 2.3346975 -0.82844824 0.29011673 -0.9699345 -0.6928278 -0.65262294 1.8500243 -2.8307347 3.1364372 4.129061 -1.0366575 -0.24453448 -4.5707874 3.6732306 1.6549836 -1.9679842 0.77816015 -0.8444073 3.8792806 -6.6126556 -0.4157621 -3.4389853 -2.531054 -3.0867198 -1.7122486 -1.6738324 -0.19386894 -3.1329908 -0.68141955 -0.0065031885 3.9990456 3.2043722
C9H20N2O2+H+ 3.079381 0.030723818 2.6671073 -0.24854197 3.1630328 0.70999914 -1.3651407 1.1099137 0.05085342 -2.340171 -0.087740816 0.64696807 1.6391541 -3.06874 2.3473356 1.239652 -1.6595252 -0.5459416 -0.4811326 -0.7267892 -0.12460293 -1.0258356 0.76004 -0.30752337 -3.6352108 0.45705032 -2.3820827 0.6184556 2.2318912 1.8570014 -0.36218685 1.0400554 -1.4625642 -1.2347846 1.137376 -2.847945 1.8252589 -2.4460423 -0.3845255 -3.4627588 -3.0528781 -0.10886007 -2.651595 2.0071275 3.3166537 -3.3263383 -0.61583084 -0.2793185 -0.75597507 -1.7851433
C7H15NO3+K+ 0.3752643 -0.9722164 -3.2156215 1.3275323 0.96811455 -1.362304 0.09862599 2.7917593 -3.2376404 0.3832929 0.24128161 3.3514695 1.4471924 -0.010116102 -0.6841943 -1.2082577 -0.57101935 -1.3630624 -2.5324779 0.88426447 1.3209461 -3.018131 -1.6962022 -1.1965644 -0.78883183 1.1656549 -2.5897257 -0.14632136 -0.26144093 -1.3185922 1.1057385 1.1157291 -0.6719265 1.5072155 0.48013383 -0.3805348 1.887617 0.56461674 -3.1480207 -2.55716 -1.5634533 -1.8036215 -3.4830537 1.8703212 1.8873687 0.3565714 1.7352586 -1.2144015 0.048146803 -2.0415637
C26H50NO7P+H+ 0.35574058 -1.4611964 2.4085212 0.89287305 1.2975621 2.108647 -1.0114825 0.87495846 -0.1142783 -1.4543502 1.1132551 2.5098498 -1.3044558 0.88437283 -1.6703719 -0.3843204 -2.2858248 1.1044502 -1.2652667 -0.2164078 -0.27328134 -0.42584574 -1.6156493 -1.6406063 0.8559589 0.49622285 0.055187996 2.904199 -0.12274089 0.45872062 -0.74366367 -0.74565357 0.1945919 -0.40693107 0.8005619 -1.9231402 0.64953786 -0.68376076 0.822717 1.2947487 1.357923 1.2300133 0.74090815 1.9809921 -0.08808317 -1.2897724 2.4028523 -0.84816164 -1.1209756 -0.41605535
C13H17NO3+Na+ 0.75587595 -1.8023983 0.41561356 -0.23079242 1.159059 -1.7457888 2.0644896 -0.7659946 0.60445136 -0.8141542 -1.0586402 -0.47969818 -0.38408872 0.09094112 0.24150655 1.4461045 2.7707233 -3.4498656 1.0121274 -0.48403898 1.5173275 2.623753 1.6971952 -0.7095426 0.2737361 0.6736005 0.11734055 0.05793355 -3.1802557 0.7149298 -0.77958286 -1.9313167 2.1691384 1.8137783 -1.3707064 2.1216156 -3.22961 -1.3743913 -0.3500268 -0.9489554 -0.218319 -0.55936724 1.4818434 0.894594 0.086574346 -0.8155847 0.8043178 -0.2235058 3.4564047 -0.5699233
C10H16N4O3+H+ -0.6749774 2.0975423 -0.48993042 -2.5619617 -0.49068823 -2.5912805 2.284661 0.31597763 -1.9717709 -1.3444088 -2.3121548 0.62742156 -4.3106494 -0.054547925 1.326179 -1.528972 1.8390474 -1.906349 1.362497 -2.2808964 0.7898465 0.34693918 2.5264237 -4.6841755 -1.6131252 1.8387697 -1.3309003 -0.9293803 -4.683602 0.35710868 -0.1585909 1.1893324 1.5376344 -1.837204 0.6140137 3.7849088 0.3625452 3.2728791 -3.2330644 -3.6720593 0.5341996 -1.0402818 -0.21508665 -1.0664147 0.96688336 1.793978 -6.0652523 -1.527325 -0.5797035 -0.7415997
C8H20NO6P+K+ 1.0400703 -2.43992 0.3952788 -3.01871 -1.1531467 -1.2228372 -1.1734968 -2.03394 -3.931232 -0.42139062 1.2708724 -0.17129913 1.9120431 -1.5247593 -2.6880996 1.0988692 -2.3405857 -1.9734133 1.1315371 -1.2183444 0.38954934 1.61756 -1.1967039 -3.870128 -0.65545034 -0.907124 2.5259879 -5.5898213 -3.6307 0.98065925 -4.45069 0.3931576 2.1934304 -2.1256685 2.3561268 -1.9288847 2.1892972 2.9858134 2.238537 -0.5277113 1.8537602 -0.8430823 0.3948938 0.72128487 -1.2823619 -1.6611046 -1.8328873 1.3991026 1.6790146 -1.9030678
C26H52NO6P+H+ 1.0863614 -0.30574802 0.2614646 2.772125 1.2958016 0.7452536 0.81723017 0.5198319 -0.12518723 -0.10305999 1.0289718 0.62061244 -0.13558242 -1.8985926 -0.4558034 -0.54843915 0.9263737 1.3573301 -1.2759923 1.4275756 -0.82803464 1.4778094 -0.9790575 -0.122937694 -0.47779024 -0.3581522 0.5775366 1.84457 0.27059454 0.9555365 0.743869 0.020847628 1.4944577 2.2179234 0.94478124 0.22756441 0.10482378 -2.6809077 0.67238003 -0.38583338 -0.2938128 0.26506034 -0.9322366 -0.6874624 0.00430698 -1.3804575 1.6081355 -1.4166455 0.6496492 1.0270395
C10H19NO4+H+ -0.48265526 -1.4802206 1.6470476 1.463407 -1.4717602 -2.0126052 0.48631555 2.7555134 1.6884502 0.79878885 -0.2617704 -2.1400259 -1.0333066 0.23473203 1.0451485 -2.4753819 1.2551003 -2.2026646 0.83965474 -1.3308326 1.1043099 0.5712187 2.0075238 2.4524565 -0.797912 1.1083971 -0.035290256 -2.5825527 -1.7265047 1.5303477 0.023542743 -0.117064506 0.056142222 -0.7586195 1.2009519 1.4734101 2.3488765 -0.801582 -0.37409186 -0.47258514 -1.8676163 0.4303947 1.3920985 4.395224 3.0949492 0.103160165 -1.7496853 0.77800506 -0.8935667 -0.35850835
C8H20NO6P+Na+ 1.1244467 -2.2741916 -1.0960505 -0.2617862 -3.200484 0.60861564 0.6173217 -1.2188838 -2.902918 1.3501413 -2.0569077 -0.74710876 -2.7741528 0.72090894 0.20079052 0.6805557 0.13149549 2.7032263 -0.07082146 1.8617343 -0.7162454 1.6944195 0.21004736 0.26315248 -3.3796275 -1.175935 -2.8276873 -2.8224483 -0.159825 -5.1059384 2.90952 0.4443885 1.3064202 0.944073 -2.0635498 -1.4116732 1.1708348 2.8862422 -4.406801 0.94918424 -1.4240679 -1.1158226 -0.2676761 0.88868266 0.00382963 1.3487353 -1.2605922 -4.8207417 -1.4573025 1.600015
C10H11NO2+Na+ 1.748508 -0.47481373 3.6179945 -1.7528613 1.2291299 -1.6586119 1.4307852 -2.1235948 -2.7117581 1.5012861 -0.07291389 1.6576312 1.1489513 0.037505493 5.1619177 -0.44067544 -1.3883579 -0.79875195 0.33117932 2.2767885 -0.41419765 -2.273578 -1.4281536 0.43984404 1.4982027 0.36150396 0.7142523 0.08006935 -1.874858 -0.7058634 0.58121103 -1.4631851 1.1806835 1.6996832 -1.2587928 -0.41517466 -0.12919763 3.8529172 0.33324093 0.60229045 -1.5448751 -0.47239965 -0.7433895 0.16731784 0.90216076 -2.4946635 1.0571971 2.5959878 1.5939332 0.006501226
C37H68O4+H+ 3.6849911 0.7038975 0.011385132 1.202007 3.5939364 -2.0128124 2.8017092 -0.12009728 7.800709 0.6717381 -3.696043 3.7388408 0.5767986 -0.5825713 4.440366 -1.7853363 3.665105 0.3599983 2.3117287 9.482945 2.6637325 -1.0284723 -1.3789932 -4.2781906 2.3421192 4.5378027 -0.10299013 5.0315413 -5.6664166 -5.368632 1.4249215 3.4406688 -2.4150507 -0.046899464 0.8788018 0.42949975 -2.044275 2.747761 -4.846318 -0.7282977 1.6918267 -2.5564606 0.95064056 -3.2531476 1.2182331 -1.3359294 -0.8405822 -0.35984364 0.007865388 -3.10743
C7H6O4+Na+ -3.1350973 -0.96145993 -1.4820406 -2.3760252 -2.921586 -0.7715348 5.83859 1.2737551 -5.030403 8.319518 -3.4847739 -0.6498045 1.6238899 -2.1261463 2.1469693 -3.9885514 2.5523424 2.011972 0.26700187 3.4606292 3.5631418 2.7539947 -2.290773 -0.82575285 -2.0123549 0.41843405 -3.3767047 0.4613012 4.78944 -2.0688639 3.1432722 -0.058098435 3.4120169 -3.889828 -1.2842656 0.88334525 3.6734736 -3.510918 -0.6305667 0.009365473 -0.21703681 5.5728436 2.9180486 -2.7360916 -4.313754 -0.3046225 1.6748294 2.714101 -1.6111665 0.3405073
C15H28O4+K+ -1.8403696 2.377838 2.740869 0.53747606 -2.34946 -0.8709484 -0.23110873 -1.6211332 3.4917672 0.5930866 -0.04466205 -2.6676664 1.7179741 -0.42760217 -0.70511526 -0.67688745 1.5334923 0.9756258 1.9636751 0.9786139 2.3523433 2.8695252 -0.23739198 0.0006560461 2.1637092 -2.0188103 -0.30759877 2.276795 1.2237865 -0.9854266 -2.9312556 3.3716216 2.184723 -0.4611851 2.746602 -1.16462 -1.1678511 -1.9313262 1.4882301 2.2270725 -1.244585 1.319928 -0.086350866 -2.4489791 1.1396846 -1.8025905 -2.0665588 1.788383 0.70633924 -1.3186579
C35H66O4+H+ 1.8085641 5.094727 -1.140427 -3.4352207 2.1976826 -3.0098522 2.4418242 -0.4811422 9.239882 -1.6142457 -1.8126167 -0.12943831 0.38267747 -4.0610566 7.0726366 -1.7365432 3.0323248 -2.339116 3.7559252 4.71284 -1.9857309 -4.2903566 -5.107048 1.1722457 -0.2983275 -0.00043545116 0.78956234 6.8483872 -7.3729267 -3.8822906 2.0514622 -1.5362532 -2.9602914 -1.7367978 -0.004015627 -0.81908464 -2.7424433 3.7097611 -5.328217 0.013973092 4.2474995 -6.5935616 0.2005475 -1.9044899 -3.0046577 0.73705703 0.08010999 -0.0034820137 -2.56433 -1.401906
C7H6O4+H+ -2.3144267 -0.71865165 -0.31322932 0.2172627 0.4800298 -4.5447083 1.1111078 -0.3687829 0.825699 0.296491 5.4488215 1.9580785 1.404453 0.008448899 1.465806 2.6179845 2.667819 0.28712183 5.2706013 1.79254 2.632497 0.17920755 5.8192053 1.4444907 2.0971417 2.6571088 3.6802053 2.3361166 -1.3143827 -1.5616177 -0.18552643 2.101152 1.912875 -3.7845075 -1.2524902 2.4292676 -0.19745113 -1.6240206 -0.1504319 0.939036 -2.9836278 4.165611 2.037821 4.9715214 0.81885874 3.3282874 1.7712641 -3.0890384 -6.2794247 3.7797081
C22H24N2O2+H+ 0.17929053 -0.9505957 -0.19604413 3.699147 -3.6094553 1.4970735 -0.5398459 -0.55553126 -2.8086903 -3.5188437 2.1536806 -2.7310717 2.6872115 -2.3897586 3.9787624 0.3042329 2.7195551 -0.1428507 4.483928 3.9020631 -3.7294505 2.6915836 2.684475 -5.2117424 1.1236565 -3.6039212 10.394644 -3.1284962 -2.1827745 -2.1511037 1.4688709 -4.432418 2.2309027 1.063687 3.934008 -4.5406723 0.7952518 1.960568 -1.1387784 1.3209256 -1.8101202 -0.40934232 0.10933706 4.5778933 -3.6610875 0.123950854 0.6526741 1.6767955 4.7112203 3.0340145
C18H24O3+Na+ -2.0458822 0.33101565 -1.200658 1.3127398 2.0694008 0.71263444 1.6486467 0.82873285 0.84698105 -2.208757 0.40365654 1.3533319 -1.7497909 -1.6878896 -0.6295242 -0.30642605 -0.9737492 -1.5349332 0.2348811 2.8261738 0.29555458 -0.5511906 0.43277684 -1.3304424 -0.29376268 0.09967475 0.61494446 1.500077 -0.954265 0.6395876 0.32243964 0.3825465 2.285336 1.5118448 0.4639602 -0.5511781 -0.10228757 1.1790464 -1.0196035 0.9538991 1.881818 -0.5524783 1.5454617 -3.1725776 -0.23704623 -0.91151476 0.7186177 -2.8372052 2.4504712 1.3572307
C13H8F2O3+Na+ 1.822474 -1.0501583 -0.89575815 0.8758497 1.4339281 0.7073346 -2.7898054 -0.934183 2.4796216 -1.6213456 -0.09313973 0.15541804 1.244368 0.20092675 2.0604978 -2.4617379 2.9769447 -0.6244097 0.13282894 -0.28884244 -0.837247 7.770396 2.3984535 -1.0641415 -8.575444 6.26199 -2.2079785 3.5507693 2.0771139 -0.40641093 -0.78365874 -6.6076107 -3.7043555 -1.2197813 -3.9026656 -2.0088856 4.690707 5.54085 -1.6643676 1.3775575 0.9845886 -5.814534 1.2264364 6.9691863 -3.5639849 -2.3959424 -3.6370301 -1.7325022 1.2066246 -0.5326648
C23H45NO4+H+ 3.5817235 -0.45182455 1.1906817 -0.20396987 1.3808299 0.85199606 1.7580208 2.5426655 2.8171275 0.6344663 0.7889263 0.6976204 -3.1449947 -0.09659359 -1.7770602 1.1020787 -0.9536758 -1.6303009 -4.9031644 -5.277315 2.3599539 4.5823426 1.528021 1.5926751 0.27327245 0.32358673 2.0206559 -2.0078802 -0.8891869 3.0619314 1.8733845 -5.128816 -1.2002927 0.39342275 2.928765 0.1884886 3.506768 -1.7508929 -0.5639133 1.2346903 -0.6412715 0.3394406 -0.473147 0.12576962 3.3316975 0.9397527 1.3268205 -3.0473626 1.3497778 -3.0941913
C11H8O5+H+ 4.2047906 4.7451477 1.2620165 -2.1782334 3.9579647 -4.8118095 2.5122497 0.6837657 4.2073092 -7.2577496 2.353852 0.42367002 -1.3645632 -0.2525526 3.4083033 2.4041865 2.512643 1.459231 -0.07736107 4.7584333 2.1769304 -3.7166743 -1.9926648 -2.5308378 -2.040567 1.4655098 2.9126117 3.0146139 -0.28016096 -1.9597502 5.400369 -1.7231777 -1.395953 -1.5099435 4.184073 0.80324185 -4.038039 -1.3099657 -4.745121 1.9336592 3.8598955 -3.892131 0.33013412 0.6680228 2.6764467 -3.1254745 3.5378911 0.1092695 -1.1070555 0.08925703
C14H10O6+H+ 0.9694155 0.19862956 -1.1602943 -1.5032266 1.8582294 -2.617365 0.30042928 2.3556166 -0.38363826 2.8060436 3.4546337 2.5661619 3.4774413 -0.5026411 0.8751182 1.3477367 -3.5285883 -3.8910222 -1.5953288 -1.4792372 -0.34438056 -0.43320736 -1.864152 -4.1144667 1.4858407 -3.4408996 -0.9564248 1.4572499 -2.2872815 3.6670535 -0.9076048 -0.76483697 -0.5439761 -1.4411627 0.6871385 0.9465923 2.2146735 -2.3998814 -0.5998066 -3.0664203 -0.32816425 -2.8983855 -0.15409485 -2.1496348 0.9148615 5.0121856 3.9659855 1.2672086 0.36218786 -1.3541797
C24H32O5+Na+ 0.35057437 1.5468706 -0.64590144 1.4520661 1.5559644 -0.228511 0.10391433 -1.946996 1.2761799 0.5704913 -0.6436661 -3.6568403 -2.2738037 -0.437881 -0.11166261 0.7853277 -1.1393934 0.10406129 1.3783404 2.0433447 -0.6871048 1.9773811 1.7874821 1.3111404 1.0631834 0.16760303 -0.4173948 0.8120287 0.5218425 0.46812052 0.0887494 1.4730058 -0.6443755 0.08169599 -0.38574004 2.320928 1.6923406 -0.06800751 1.3179852 -0.12877813 0.55784804 0.7593946 0.8664495 0.34969178 0.62149 -1.570121 -0.25120845 -0.16522789 0.8700864 0.5490029
C15H10O6+H+ 3.8104737 1.8944796 -3.314541 -2.0283494 2.3562696 -3.3422966 0.0049641095 -3.5917184 -0.17572443 -0.751221 -1.5090009 3.7127101 -1.5779307 -4.7186213 2.7646396 -4.426968 -1.3253895 -1.6975172 -0.05182855 0.3278383 -2.9342759 -6.635438 -0.3677267 -5.614495 0.8424485 -3.3568666 1.8983887 0.6730692 3.8042367 0.5129112 -5.200765 -0.42813402 5.0357714 -4.1865764 0.98167795 0.98814696 3.3550615 1.3652267 2.195701 0.2509526 -1.9923273 2.3884478 0.74923503 1.1104323 3.3754926 -0.8423327 -2.0259328 -0.6602864 6.047372 -1.7472414
C37H66O4+H+ 0.7377981 5.5927386 -2.6046946 -3.177831 3.3474112 -3.4324048 -1.5759494 0.93220866 9.244583 -5.241417 -0.7607401 -5.5963674 1.0877672 -1.9465108 3.3405106 4.0900135 -1.0356637 3.6209986 -0.5933274 5.103788 3.6473918 2.8360708 -2.9666197 -3.46095 0.7561747 -0.002622445 -1.8870335 4.0991774 -6.518772 -4.7045164 5.678388 -0.22695486 -2.7386317 -1.431542 4.7013917 -1.3600941 -7.022298 0.3190279 -4.2533193 1.342679 5.4610887 -12.102707 -3.4080515 -0.3205511 -0.89224976 -3.4265234 -3.3350763 4.5166683 -7.015219 2.0127618
C10H14N5O7P+H+ -3.9340477 0.4606121 3.3393707 1.3302836 -0.29107815 4.3289394 1.3669552 -2.333059 2.7742796 5.074114 -1.5547944 2.6596465 1.3680074 0.29164565 -5.7721114 0.07762947 -0.44376937 6.694644 -3.2368233 1.0883676 -3.565869 6.068045 -6.6757765 -1.2675498 1.2289445 -2.2968583 -0.80811775 2.195402 0.5511658 -9.395871 -0.16928191 -0.4649599 1.3332258 -4.8281193 -2.2077744 -2.1155145 1.5058651 -0.7912102 -6.280067 -4.952252 1.7559956 3.0700564 -2.7956388 -0.7916369 -6.105774 -1.8623626 -2.6098769 -2.6094 -1.347776 -1.3632511
C10H15N5O10P2+H+ 2.2013652 -0.12873597 0.5917124 -4.49718 1.5105104 1.6954646 3.1358657 -2.9070268 -3.9263387 0.08514531 1.9655739 -2.8926222 -2.7193189 0.123901255 3.5699897 -2.9718974 -3.9601188 -3.9238513 6.274267 -1.2670271 -0.7296 1.8336716 6.347868 -3.3763933 -1.5329338 1.1124351 4.859939 4.927035 2.6401277 4.518537 -2.1522975 2.975723 2.0955348 0.7938828 1.0809442 -0.4648491 2.3034494 1.343129 1.6391015 0.5452857 0.49123397 -1.4572424 1.4522413 0.12147912 -0.41751298 5.1510644 2.1113932 1.4349796 -0.74665815 0.6272311
C15H16O9S+K+ 2.0373876 1.6078418 -0.9426247 0.25599155 0.47670817 0.3195747 2.2337022 0.32721406 1.4161812 -0.47180027 -0.87641454 -0.57719964 -0.73629546 -1.4960644 2.4717653 -1.3484448 -0.17858605 -0.36368552 0.38064176 0.049889654 0.08715383 -0.39925742 -0.113746464 -1.8164182 1.2862402 -0.09834532 -0.77958304 -1.0479493 -2.555543 0.4979924 -1.0489552 -1.2902024 0.8420084 -0.3206351 -0.25030357 0.6031037 0.91627955 -0.7692446 1.955161 -2.3965235 -1.2980894 0.47177994 0.18732643 -0.23310442 -0.036110174 2.0934453 -0.32718986 3.227743 -0.197757 1.1065555
C12H20N2O3+H+ 2.231358 -0.33784413 0.89433795 -2.0602384 1.2381444 -2.44009 2.258278 -1.6471807 -1.0187943 -2.5566633 0.7759906 -0.42546493 0.31089318 -0.51586056 0.9362398 2.1556945 -2.473259 -1.5313857 2.8864663 -1.5959129 2.229682 0.26655486 1.0318308 -1.3897643 -1.1238897 0.72304934 -1.2613617 0.31364164 -0.69129956 -1.9482037 -1.4752746 2.3807666 0.17213064 1.9596405 -1.5582119 0.08639341 -0.92533284 1.2914454 -1.2287024 -1.0966861 -0.11013322 2.3029344 1.5058676 0.6301628 -1.91307 2.1022813 -1.1295425 1.8364437 -1.8941429 -1.4273171
C25H49NO4+H+ -0.8702258 2.1915772 -1.7352829 -3.3455877 -0.4166151 1.3241892 1.5511329 1.89497 -1.9783856 1.8265909 0.2335379 2.1529431 -0.8069177 0.2058309 0.91627383 -1.0343382 -1.3565508 -0.2676688 -0.64378804 0.9919174 -0.30170602 0.610336 1.1224704 -0.11505918 -0.9263876 -1.4990273 0.13539468 2.638854 -0.8101531 -2.6656551 -0.6285041 -0.2565792 2.4516575 -2.135981 -1.8009478 -0.3038124 2.6461327 -0.39761615 -0.21572353 0.7662244 0.39603668 -0.19147685 2.5313933 0.74222124 -1.4935486 3.3564074 3.3113956 2.8171194 0.14369474 3.2926378
C9H14N4O3+K+ 2.11589 -1.1031879 0.33488524 4.8468113 -0.2172041 2.1366549 0.40743464 -0.51059514 -2.35695 1.7195417 0.19532038 -3.0313518 0.9817321 0.5052567 1.4782492 1.1812682 3.2179213 0.34376377 1.1854463 1.6083622 -0.60794485 0.5924216 -0.56457114 4.814286 0.64761364 -2.5264916 0.30355304 -0.60838145 0.661189 1.8356744 2.198564 -4.031131 -1.8237135 2.3869088 -1.6699911 -2.0462005 -1.2656797 -0.87379354 1.0721012 1.7625494 -0.8918175 1.5335342 1.3104506 1.1242247 0.011052309 1.8885889 -0.37216672 0.18643433 -1.1340809 -1.0230902
C26H52NO7P+H+ -0.1360565 -0.49618253 1.2324263 0.4442709 1.647623 -0.26429468 0.72606146 -0.91269964 -2.221809 -0.64786214 2.573319 3.1217625 -1.9503924 0.8319289 0.23926464 0.5668437 -1.228911 -1.0173876 -2.219791 0.17638241 -0.5742272 -0.09614183 -2.4713984 -0.7648895 -1.0202109 -2.4604192 -0.7207223 -1.7938225 0.44060963 0.17154971 -1.1039902 0.0071722735 -0.18836127 -2.2227623 0.6304667 -0.18601711 1.005273 2.6089447 1.2987591 -1.6729872 1.1596425 0.96434313 -0.8918807 0.1563321 0.5446172 1.1912978 -0.5965493 -2.057924 0.5574876 -0.13138989
C24H50NO7P+K+ -4.4696455 1.1776707 0.16691582 0.61397517 -0.7365171 1.4713196 1.1266153 0.5401808 -1.3508631 -3.0708957 2.4374483 -0.0029734755 -2.310657 1.5860194 2.6702719 -2.6911073 -0.26971823 0.4812997 1.1610692 3.179409 -1.6253483 -2.4505012 -0.60242003 -1.7205335 0.41060564 -2.7942557 0.15932326 3.1891596 -2.7214062 0.68701786 -1.9328145 -0.20269963 -1.107673 -0.16203286 -2.319516 -1.3043694 1.1279625 0.93952346 0.10593554 1.3881861 -0.7320928 -1.6453837 4.5312357 -3.332737 -0.95294666 4.5759974 1.3812301 5.4346137 -1.240025 3.0892026
C17H14O10+H+ 2.1466088 -0.52400094 1.74032 0.1820049 1.2652044 -0.72740686 -0.009571314 0.19985968 -2.4590137 -0.10841421 -1.7587178 1.8335439 -0.6556926 -0.8092466 0.20698097 0.36752626 1.0193747 -1.3140731 -1.5852376 -1.9461393 -0.3068137 -0.92800415 -1.8310764 -0.78352183 -1.6517395 -0.91402334 0.75288844 1.8687582 -0.75114554 -0.0035367708 -0.32809204 -1.492506 -1.0021875 -1.6093216 -2.397565 -1.0492952 1.5102024 -1.2460276 0.23843755 -1.6018957 -0.28775242 -1.2575047 0.12585491 2.6574872 -0.12549317 0.390731 -0.78121096 0.8697892 -0.056642726 0.4706959
C10H16N5O13P3+H+ 0.54631704 0.2238339 1.738262 0.13122378 2.7911048 -2.7003384 -1.4275935 0.9096085 -1.6785852 1.2018248 -0.29210675 3.417174 1.0525254 0.69208324 4.9256983 1.5696309 1.2826397 -2.883853 -4.83178 -2.0630152 2.1484616 5.273461 -0.967667 -2.8964858 -0.5962944 -2.9245589 5.23985 -0.59521264 -3.0720868 1.084656 -2.055999 0.7529667 1.0557861 1.5505475 -0.92299855 -3.5758839 0.15646632 3.0132344 -2.0955243 -0.36088845 -0.34869006 2.601821 4.4158835 3.6870708 2.1331172 0.65486306 -5.118193 -0.025209581 3.5901601 1.9985634
C9H14N4O3+H+ -2.8572192 7.4139676 -3.519914 2.3857865 3.3967516 -3.3776672 -4.218932 8.97455 -3.467494 5.619654 4.642779 -0.91600573 0.556318 2.2070045 -9.274202 -5.591733 0.79157025 3.4439714 -1.332433 -6.4787025 -0.9109935 7.1134095 -0.147102 -2.1987457 -5.714248 2.2492774 -6.0337873 -4.2459297 -0.58898425 5.2234993 -5.3762465 4.651607 4.1743746 -3.4552402 -6.823326 -0.7379827 -0.23736264 -4.7102914 1.6800534 1.1393025 8.886438 -1.7896082 -0.4867399 1.3902748 1.3340775 -2.227529 -7.3224306 0.97304624 0.863137 -0.45333117
C11H21NO5+H+ 2.7416854 0.44989634 -0.16667123 3.909981 4.476756 1.0265685 -0.30376652 -2.0548959 0.96151066 0.7373517 0.5239557 -1.5816442 -0.28297415 -1.7933775 -2.4671004 2.305058 -0.318104 2.6308575 -0.22484356 0.85547835 -1.8371277 0.486495 0.3033445 2.4492495 -0.9987769 1.50032 -1.0000015 0.12480922 0.4220523 0.08483344 1.6069912 -0.3745022 0.7135141 1.4901242 -3.2966824 0.79366034 -1.6993148 -2.1128669 -0.79144883 3.6072824 -1.2285305 1.3142958 2.8889554 -2.411637 -0.61746407 -1.5624341 2.0221977 -1.1347201 3.5180955 1.0619533
C9H15N3O2+H+ 0.83007824 -2.905597 -1.1333169 -0.3326247 -4.1224184 -4.341502 -1.4152645 -2.837249 -0.5617474 4.8270683 4.707578 -2.4819586 -2.9719784 -0.2072624 1.7866342 1.9406224 -1.1242087 4.0424943 1.8065982 3.5600991 -1.6425782 6.532324 6.2215524 -4.365025 -0.09158798 -1.019885 -2.330827 1.6003621 0.9144255 -1.0898883 -2.1518497 -2.3247185 1.0623766 2.9546263 -0.59892946 1.3097584 1.5686979 1.374463 -0.07807155 2.5707517 -1.7478576 -2.831435 3.5829303 -2.4710345 4.679219 1.7689322 -0.7992117 1.0026245 0.67368877 2.849974
C25H47NO4+H+ 1.4120277 -1.5847092 0.31929725 3.885675 0.6862804 -2.8476026 -0.7929269 -2.6082792 -0.8285137 -2.7808945 0.73213476 -2.78445 1.5448126 0.97168314 3.344368 3.4754038 2.1174037 2.2373292 4.68272 -0.136192 -2.1353624 -0.44305623 -0.5532424 -1.6794158 -0.57247156 1.8269328 0.7543324 -1.7836366 -2.0971975 0.08723569 -1.3312712 1.8746449 0.07432015 0.20445177 -2.4870024 -1.8135283 -3.8658843 3.122338 -2.2632346 -0.7167215 -0.013240068 -1.3464569 -2.948559 0.84610707 2.9795947 -0.4145421 -5.1584644 1.115796 -1.3607274 0.37038276
C6H12O6+K+ -1.0406874 -2.1259916 5.6686563 0.12492809 0.52336764 -0.0123050595 0.06273583 3.1903043 3.4176376 0.28151032 1.3420331 -0.45273522 -4.406354 -1.1625255 -0.19406462 0.83785826 1.0762668 -1.7180063 -2.9529433 -1.8497182 1.268555 -0.73983216 -2.0734587 -0.55680686 -0.9341844 -0.1958908 1.1312491 -0.42518687 -3.094215 0.42227867 1.6183484 3.2172146 -1.3022478 -4.012108 0.2048491 -0.27234146 1.2033789 0.07799254 -1.1308875 -0.74268043 -0.17823479 -5.342481 3.0006464 -4.233133 1.423448 -0.6358447 -0.49231642 -1.3866279 2.264443 0.23348105
C28H33O14+Na+ -2.2902546 -1.5886484 -1.4844546 0.60890496 0.66337615 -0.53896636 -1.3337306 -0.2335858 -0.22893506 -4.847498 3.8842654 1.5069402 1.6517864 -2.4983234 0.49958396 -2.8615656 -0.36405066 -1.0691519 -2.0145104 -0.65072596 2.181489 -3.1958845 -0.99645287 -4.901363 3.2273345 -1.7122937 -0.08870221 1.8292984 -0.39963883 0.6537481 0.7743398 -1.7880318 0.71137583 0.5636332 -0.83063203 -4.8502035 0.24650867 -0.13268179 0.6068202 -0.23032323 2.1408036 0.24372564 -1.3663479 3.6671872 4.763936 0.5615546 2.6399662 0.8073412 0.9477671 -2.6627502
C21H22O5+H+ -0.41638583 1.113337 0.53213656 3.6691494 0.37120086 3.1905403 -3.296029 3.0808294 5.272638 1.069048 3.350103 -1.9927244 -3.1131487 -0.15428191 -1.157805 -0.5047022 -2.562985 3.574529 2.7724955 0.8248696 0.8356711 0.7346474 -0.032850638 -1.4377693 -1.4835216 2.5083249 0.92414844 -3.9952419 1.4564381 0.7177088 3.6711562 -1.9462628 -0.2028741 1.7548331 -0.814586 -0.98460233 -0.06092609 -1.0325869 1.6307168 3.1105196 -1.2530249 -5.578362 5.6657495 -0.5372764 -3.8501282 -1.6871349 1.6231223 -2.4315052 -3.051397 -1.0401375
C26H30O12+Na+ 6.446183 2.5468452 6.118535 -0.80945885 3.1694767 -0.7453941 1.5032098 2.708054 1.7745241 -0.39220685 -3.900035 -3.6408904 -3.1523728 1.8294085 0.8909351 -0.873931 3.4377227 0.15806237 4.200334 -4.0908875 -4.727876 2.2668138 0.1270816 -1.151787 -1.9529781 1.3964744 2.9465415 0.32543835 -2.499006 -2.5637083 -3.14585 1.504689 -1.4167885 -4.8147683 1.0676848 0.00043546187 0.6716595 -2.3617945 -0.36696827 -0.107224256 -0.46139333 0.5787582 -0.36086133 1.360621 -1.5777624 -1.3016983 -2.5606024 -1.7418026 -0.907668 -0.24545065
C9H8O4+H+ -0.5811497 7.587486 12.437474 2.498785 -2.7467573 -2.3874443 4.842186 -3.0689898 -0.57771075 10.001842 -4.721572 2.849029 -1.3659546 -7.833441 0.47912768 3.645309 0.75401527 6.2118387 4.617307 5.6420183 0.5178555 -0.100549094 6.6691093 3.8921328 -0.8084114 2.9455507 -0.4089117 -1.606213 -3.0907242 -0.09961719 7.3106647 3.6395233 -0.8285429 8.689748 2.4336185 4.721398 -3.3348997 3.627379 -3.4660127 1.0260016 9.120322 5.3765936 1.3999269 -0.22213939 6.8076987 5.783388 2.7179267 8.270696 -2.7445097 -4.439997
C12H22O11+Na+ 1.1734354 4.03055 0.2688939 0.23380703 -2.021857 1.9290723 -1.0891683 1.6706039 -1.2387121 -4.380102 2.32431 -1.7068727 -1.4913766 -1.7415634 -2.1756918 -5.8387146 3.5161803 -0.78786415 -0.064363025 0.88680845 3.583117 -3.9191658 1.0442787 3.9474902 -0.13094744 -2.1321976 -4.6040034 0.47273597 -0.7141547 2.1735525 -5.3330235 2.027833 -0.89042485 0.34752315 5.19388 -0.009348137 3.373575 0.8577235 4.7727795 4.3243027 0.05236322 1.734863 -1.1296753 -2.7657104 8.89664 1.6191013 -0.62348074 4.0726604 1.5667732 -5.566666
C21H36O3+H+ 2.2335792 -2.6227891 -0.5665686 -3.0106122 0.5139684 -2.875231 3.528399 3.9130657 -0.48600474 -2.0964353 0.37333244 -1.1011602 0.9421999 -3.8260508 1.8457325 3.040275 0.3320583 0.7703478 -1.2488128 1.8973305 0.7228827 1.7565643 1.9341856 -0.327426 0.5849192 1.3894888 -1.6182936 2.8906767 1.1106952 -2.3280168 -0.10736522 2.4058897 -0.3518117 -1.9825175 -1.0153923 0.9553449 2.373455 -1.6354054 -0.8211961 -0.8402546 -1.8287462 0.9090118 -4.434451 4.279828 1.8093598 -4.0381007 -2.236669 0.81327295 0.7761253 -0.12383536
C13H13N3+H+ -5.5358434 7.5120416 1.3981495 -0.085519694 -4.9208302 -2.8300407 -0.08527721 4.6543155 -0.97723883 -3.2607489 -5.966918 -4.6154547 0.4325114 0.7064083 0.9795845 -0.817933 -1.1404902 4.8971443 3.8356957 7.50671 1.5187002 4.822372 4.695195 -4.584426 3.5315669 2.9403517 3.8803697 0.6969537 -1.0854796 -7.5769143 3.2978575 0.50674915 -1.4671308 0.3327404 1.4533612 0.58886653 2.9531024 -3.218487 3.7843802 -0.759789 3.4077225 0.076025866 5.5490794 -0.43141243 0.58389956 -4.4886837 -2.9129057 -2.6148922 -2.2067983 -2.8213823
C14H28O7+H+ 1.582774 -0.65186983 -7.7259707 -5.7852607 -10.676942 -0.7556234 -3.9800076 12.053215 -3.0050313 -9.7699375 11.126731 -7.3906207 7.6701465 -2.1126902 4.540453 5.2096944 3.5377991 3.6539667 4.441099 0.7810862 0.52227193 -7.564017 -2.4755008 -4.3021927 0.3748857 -7.7387853 -5.553698 -1.8770425 7.6573396 -1.9382209 3.226915 -10.095081 -4.3500323 -5.8985844 2.740312 4.89859 5.889098 -4.8944054 0.33866847 6.624061 1.2940246 -13.005297 -0.4875896 -3.82033 0.14912413 0.35483855 0.057199586 -3.1885288 -0.79749686 2.8327148
C12H22O11+K+ 34.431854 -14.874654 -3.4839888 -12.37195 -13.45271 3.0942533 -15.794812 -11.120474 3.458109 -1.6458535 -19.095884 -10.530603 -1.0621412 -4.207402 10.977551 18.229656 12.89898 22.928326 -22.578205 -18.671566 6.635585 -23.765724 -9.65029 6.080244 12.471626 -2.690632 -22.077692 10.519928 -31.12752 -17.5046 15.577305 -17.436357 -9.155639 -16.868702 -38.105568 0.83812183 -29.57342 -24.38656 38.245228 -23.197542 -15.866336 -27.704762 0.5672672 28.702324 16.98861 16.113663 18.7652 27.7424 -9.796058 -24.159037
C15H18O10+Na+ -26.304522 14.668246 19.018023 13.591578 16.075058 7.7900124 4.642265 22.124304 10.394659 0.344344 16.21791 -1.3642035 -6.035898 12.336585 -0.09291832 -13.666209 -6.600044 -35.456097 22.39015 28.364319 -4.838326 16.885605 11.478583 -6.476085 -12.076481 2.7552578 16.69376 -7.4682155 34.93116 9.16349 -13.92644 31.067324 25.715807 -0.50738704 38.253155 1.2672207 16.422108 4.331868 -33.78154 17.713032 20.022501 25.692142 -3.0346577 -25.000055 -19.268457 -27.977346 -7.522998 -20.667133 9.494454 24.055634
C47H69O8P+H+ -1.1727892 -13.894444 -0.49329323 8.275791 12.515447 11.167864 1.4779267 -6.800269 6.155583 0.6270398 -2.822664 4.488609 -8.213406 5.216683 -9.290807 -0.27473316 -11.067229 -11.379964 -8.285533 -9.26333 -1.6585182 -0.3204054 -3.183985 15.606116 -1.095078 1.0400523 -3.6522667 4.334818 -4.1798425 3.8037894 -10.544206 7.6157165 2.3441596 3.0473697 -4.381096 -6.88771 -11.363359 3.140733 4.2282743 -6.5867405 -8.069494 8.952012 -13.872237 -4.362421 -6.874529 -2.52542 3.179556 1.8635958 -2.0415769 -0.68291175
C35H64O4+H+ -3.8186355 -7.394475 3.9912324 0.09435942 -2.2466958 3.3755903 0.6077472 -0.028850008 -18.119312 5.212995 1.7692965 1.6409085 -5.1769753 9.77712 -9.1155 -4.8604608 -7.0933747 3.544413 -4.1507154 -9.482709 -7.085856 9.995348 8.2960005 -0.38393506 6.8110867 -5.5864697 6.836476 -9.492693 14.102739 -0.5072119 -14.857402 3.1481137 0.47273827 11.096199 -6.3995967 0.70906067 10.299135 -9.06986 16.107832 2.2699518 -9.935909 16.474037 6.097723 6.295211 5.902785 0.13374023 -0.4720618 -7.6876116 10.333824 -0.36595485
C15H22N2O4+H+ 4.3457184 8.187607 22.720911 -1.5571886 10.414558 8.347755 -8.240188 4.32659 14.653955 -18.283762 -5.4881845 -14.4489 -8.717976 -3.138467 -1.1609665 -1.7179407 16.841923 -1.3101537 -4.9233766 0.29035866 2.215297 3.5542176 8.596299 4.611269 0.44138962 -6.316606 -0.70916265 21.42725 -0.05332043 -5.6923885 -9.094523 13.07567 25.107807 -13.611399 7.357002 -3.3088863 1.0433509 -20.15407 7.633882 8.798712 -12.50177 -13.0364685 -11.440989 -8.53396 27.190723 -11.957613 4.7811956 16.468227 11.701033 -8.088171
C18H32O16+K+ -14.633738 -12.324904 -15.694307 5.424816 -10.627749 -26.552197 25.39312 -12.342018 -22.92185 14.119579 1.0137005 20.829567 10.856367 -5.248524 -6.816759 -3.9371912 -19.309187 15.45987 6.0307455 -8.454868 -7.094371 15.922059 -9.785841 -6.3212748 -9.246458 5.7809377 11.428561 -11.971816 -8.661666 10.017778 10.528684 -19.237019 -30.234617 16.28951 -11.55306 -13.083791 16.78947 25.57133 -16.852772 -4.4553304 -2.0265498 1.8908073 13.635804 12.849119 -11.584567 22.763672 -10.311131 -23.049515 -4.424517 -4.6817155
C29H40N8O5+H+ 4.638255 0.3689383 -4.2645802 4.628561 7.7435927 -12.986839 3.8482783 6.8358855 2.289082 1.331936 3.0559864 0.12166092 12.178307 -8.855513 8.182555 -8.544863 0.17775592 10.166623 1.3966162 3.9369013 -0.919234 0.29296494 -4.0808263 -14.328859 -3.0490015 -7.574147 -2.8076975 0.2597936 -6.8753304 5.626633 8.671757 -7.2627583 -0.743824 1.3892691 0.8089848 -2.2004378 8.1428995 -5.615466 -8.65655e-05 2.1481745 -0.24677916 -7.582645 -3.4680471 1.5612168 0.6583437 1.9874073 6.9974194 -0.022822253 2.566105 -1.5916327
