190 20
C7H6O4+H+ -3.9272969 -14.75338 -8.561788 11.888141 27.980692 -23.185669 9.011058 -78.97274 -37.512108 24.521877 23.275578 -37.338852 20.803278 19.810701 32.45966 0.8981587 27.32718 -27.165327 -14.095281 5.3012056
C7H6O4+Na+ 16.196941 -5.129701 46.25274 2.80473 13.062309 -21.872408 11.959205 -65.88575 -1.5293465 15.105028 12.800308 -38.540577 38.016228 22.723888 42.0182 -2.412955 30.550165 -13.315098 -10.472521 6.0587454
C8H7NO+Na+ 1.4607114 -13.644815 -0.46453595 9.543258 22.308952 -25.737356 11.964334 -88.69091 -14.276423 23.44875 17.925676 -43.960712 23.159948 14.272728 29.342226 0.7972953 35.294415 -12.823916 -16.25354 8.055616
C3H10NO4P+H+ -3.5601747 -3.895336 -2.4128284 2.5736601 19.253801 -1.3843293 2.870755 -28.086674 -32.554436 31.005617 25.89937 -51.0767 19.379625 11.108502 15.2879505 -2.0822155 52.832333 -15.877649 -36.244255 20.126703
C18H35NO+H+ -24.364985 1.997422 -57.23099 -0.12259533 19.069643 -29.046894 14.948285 -90.22607 1.7906892 14.175792 7.6045465 -27.15271 5.1116195 -4.5528674 0.35098863 1.140738 35.43732 -1.0325487 -20.401466 12.400474
C28H46O4+Na+ -13.564696 -13.284005 -38.969418 9.801218 26.628763 -13.243329 6.2389965 -66.2848 -25.62569 27.09937 17.420776 -39.98574 8.674198 5.5667872 5.4770484 -0.03807692 33.96043 -16.730898 -20.94098 5.387199
C28H46O4+H+ -11.75288 -8.641763 -39.189262 6.356734 12.874735 -21.12634 9.637103 -68.72956 -9.626189 17.2912 15.631618 -35.28756 14.421945 7.3395944 10.611386 -1.3126562 20.671963 -2.8391845 -11.982156 4.5171
C10H15N5O10P2+H+ -16.389933 -3.449319 -35.53353 2.8273342 31.112255 -8.981304 7.929833 -54.553318 -26.54817 26.940083 22.374666 -45.906082 14.244268 7.028835 4.9374614 -2.2648363 43.58412 -20.80354 -28.97528 11.788622
C31H42O3+Na+ -14.934464 -20.256224 -50.301937 16.673761 13.5265875 -11.9812975 -1.9525241 -50.02613 -27.111336 21.889505 10.738672 -20.371937 -6.2867084 -1.287927 4.101499 5.0780444 23.640898 -11.526335 -13.946705 3.5636857
C10H11NO+Na+ -3.223285 -12.153166 -44.88498 7.090447 -12.344031 -12.3004875 5.580986 -38.50643 15.290762 15.535405 22.940834 -49.842495 9.14645 -3.182527 9.748582 1.8018712 36.497272 37.525562 -22.87956 23.286228
C13H17NO3+Na+ -8.900353 -9.088292 -35.266415 7.4894905 20.332346 -30.990568 13.586009 -90.79166 0.67107683 5.2770967 5.8231797 -13.317986 9.844612 8.104422 21.151524 2.5933535 4.524232 -1.4199411 4.0057225 -2.1597018
C8H20NO6P+H+ -7.098089 -12.418827 -34.412933 7.5774684 10.1186495 -5.5637097 5.509639 -36.50122 4.582593 15.963716 19.95683 -45.691288 11.866836 1.2364833 -0.4935811 -1.9111881 25.255348 -2.4289267 -14.9014435 4.4652677
C7H15NO3+H+ -15.030439 -15.932203 -48.77725 13.550813 5.408971 -1.9768436 -6.050521 -15.971973 -47.753445 28.698118 28.872438 -36.412636 2.141882 6.349248 12.4473295 2.7364378 35.315426 -9.784242 -28.340439 17.681774
C8H17NO2+H+ -29.75161 16.766571 -65.18952 -12.154323 29.346846 -23.516605 20.282822 -73.892654 -38.073982 24.006134 42.154995 -58.57163 33.611588 22.567467 23.979269 -7.48108 35.655758 -1.9332377 -31.435213 24.085554
C10H14N5O7P+H+ -5.7403316 -17.150667 -60.54062 8.800475 -9.50311 -3.4968195 4.589676 -26.12782 17.39875 17.640232 28.383745 -62.52096 14.7240925 0.2901427 -1.6727622 -3.2736728 20.557867 32.913372 -14.460908 9.125626
C29H47NO4+Na+ -20.911055 -18.847578 -68.44052 14.414824 14.719797 -12.138592 2.0480618 -52.76282 -17.622667 18.447733 14.566647 -27.740673 -4.147259 -2.45553 -9.0525 1.2053878 9.18745 -9.192158 -6.660812 -4.237401
C24H50NO7P+H+ -21.077183 2.259227 -49.012463 -0.511123 12.057133 -4.759142 3.9987385 -28.497198 -16.699675 20.814173 18.707323 -34.88043 -0.5886169 -6.5887785 -5.7349157 1.1531279 48.180046 -0.76014096 -34.892403 24.130438
C11H8O5+H+ -3.9988213 -0.61689925 -13.055602 0.49868622 -0.8160245 3.6315432 -1.6020116 8.291557 -2.3350966 0.9204411 3.1653142 -2.3899672 -3.1257472 -2.1184652 -5.2732763 -0.16249667 0.3913641 1.3984065 -2.2407975 1.35387
C8H20NO6P+Na+ -6.7748065 -10.056061 -37.135166 8.329752 18.58497 -38.23323 15.434813 -110.80603 24.962461 0.7468034 -9.011091 -3.4700406 2.7810571 -1.726526 17.27123 5.650219 12.265902 12.00761 4.43681 0.30255905
C26H54NO7P+H+ -9.989952 -7.463407 -45.74313 5.579506 12.121569 -30.353167 13.834331 -87.32748 -9.327607 17.08932 22.16568 -40.39344 19.078825 12.513236 27.407469 0.5823006 23.473671 13.248176 -13.308365 13.732419
C14H10O6+H+ -7.573456 -22.630909 -30.579388 16.21253 28.935106 -14.255729 4.3395877 -77.0796 -18.734255 29.464453 10.11824 -37.496044 1.953245 0.62644565 4.5265164 3.522163 32.53777 -16.064379 -14.421115 -2.1433756
C26H52NO7P+H+ -19.8975 -1.6990551 -61.816456 2.1083603 -0.76158243 -11.037819 2.3273928 -29.832027 -21.765337 14.853616 17.107355 -21.416498 0.15282227 0.8820265 5.0719056 1.3460821 16.513592 14.33243 -16.025175 14.101539
C26H50NO7P+H+ -32.38007 19.73929 -74.74475 -14.061249 20.151403 -8.499874 12.061777 -33.252285 -22.910625 15.3241205 23.642967 -33.354164 10.451074 4.5371456 -5.7400107 -5.961635 27.841558 9.342873 -28.641962 20.557028
C18H12O7+H+ -4.525577 -0.56252074 -14.657985 0.46644446 -0.82727766 4.0314193 -1.7418015 8.993212 -2.2649403 0.9488898 3.009364 -2.3066788 -3.7193782 -2.5871356 -6.332756 -0.20217495 0.45538992 1.7452095 -2.4711864 1.4034431
C8H20NO6P+K+ 4.7234893 -26.411842 -1.61719 20.041513 3.5772562 -0.98568416 -6.2300577 -18.852581 -11.096767 16.696692 9.164659 -24.430832 4.1622167 2.8604393 8.638013 2.78621 22.769571 -21.92901 -9.647147 -0.61443216
C13H10N2O5+H+ 20.417318 -24.87347 35.520557 16.642982 15.802942 -8.623365 2.6551623 -40.25458 -28.20847 22.404472 27.358082 -46.89635 31.900862 28.877808 41.92858 -1.6698027 15.146773 -18.967348 -4.6727576 -1.809786
C9H17NO4+H+ -4.4415727 9.333897 -1.1845772 -7.1519504 36.205784 -22.592024 19.247377 -76.47554 4.907102 1.6478828 1.2979167 -12.192066 17.946404 11.706101 13.611352 -3.2244627 10.488009 -9.651169 -1.1606812 -1.645433
C18H26O4+H+ -4.208925 -0.6546199 -13.946074 0.49581897 -0.8086922 3.9077673 -1.6456857 8.746779 -2.137025 0.91652006 3.0582297 -2.3902264 -3.4736571 -2.4111016 -5.885708 -0.15340021 0.34474578 1.8060263 -2.2978446 1.4093766
C24H50NO7P+Na+ 7.9465647 -33.11677 -12.090872 22.350454 -19.026655 28.164925 -19.746565 52.369324 -21.2752 31.76023 28.423264 -56.080368 0.51317066 -3.2066514 -6.707377 0.8062786 41.274353 -0.8522662 -30.804836 13.884055
C5H5N5O+H+ -3.7658858 -11.416717 -6.533035 7.8033366 5.7435484 18.787098 -8.655245 29.562307 -42.649654 31.03859 34.80796 -55.412197 16.609495 11.758923 2.3709688 -5.004426 37.02828 -26.773344 -31.493225 11.757541
C29H48O4+H+ -4.059456 -0.53143454 -12.960225 0.47645873 -0.67508996 3.664339 -1.5731663 8.186634 -2.200381 0.84880495 2.8260796 -2.0293305 -3.355731 -2.2953095 -5.654572 -0.14891642 0.37706318 1.3837582 -2.1869843 1.3084472
C4H9N3O2+Na+ -15.62306 -26.37818 -40.580128 20.243034 28.810349 -0.3050705 -3.6870892 -48.74102 2.0179157 22.028894 -7.814444 -17.64033 -24.513634 -23.890272 -32.839855 6.9527655 33.227604 -32.04737 -12.287793 -11.166621
C10H13N5O4+H+ 7.1472716 -16.030344 3.0102148 10.652515 12.023378 1.8657979 -0.7030636 -19.627901 -4.4910345 19.051792 17.463776 -39.15401 9.094665 3.1250837 14.8611 2.8883915 37.52618 -2.6235733 -19.129007 12.322148
C28H50NO7P+H+ 13.674277 -14.444964 18.760237 7.8120894 -0.9532614 19.651812 -7.517692 28.656046 -12.002878 23.296219 20.873837 -46.48652 10.642209 4.3606105 2.668756 -2.0461018 34.48041 4.9585667 -24.301447 12.621449
C10H15N5O10P2+Na+ 8.321285 -15.572861 4.227588 10.700699 4.2894216 -2.1299083 -0.5763526 -16.752222 -27.854 24.14288 32.879917 -49.224724 19.411594 15.560608 32.744324 1.7023002 35.415394 -1.0435841 -22.431715 19.188105
C10H15N5O4+H+ -1.0947342 -3.0270252 -25.026375 1.2302012 -1.475808 -23.64296 12.599695 -61.46407 25.610407 2.7592986 11.335497 -29.193792 16.05543 3.1040378 20.68596 1.414395 16.131763 25.342554 -4.3399596 10.901944
C10H14N5O8P+H+ 6.6890254 -13.751892 12.685518 9.80003 4.0051947 10.863998 -7.5117207 13.109088 -43.467014 30.840807 32.247814 -49.715492 19.800203 16.342953 25.0646 -0.83353496 45.074078 -16.52121 -32.3502 19.848541
C4H9N3O2+K+ -5.2455316 -16.765608 -7.25346 13.7251425 18.053877 -10.780863 -1.0921302 -47.44016 -25.854874 19.556301 2.4254544 -15.086809 5.231655 6.723554 5.847376 0.55897397 15.491051 -30.284796 -6.712559 -8.050038
C6H14N4O2+H+ -12.842554 -5.507739 -56.952667 1.2489831 -16.6385 5.990496 0.6227241 -2.6786146 33.808384 18.862362 14.127896 -57.88637 3.0012999 -19.220566 -29.07885 -3.0787573 51.70211 29.652536 -35.490498 19.874311
C30H50NO7P+Na+ -0.8180082 -14.103871 -47.654728 7.3151093 -12.587162 -6.066434 3.2697222 -25.35627 10.242956 18.15984 28.661018 -54.572224 9.74792 -0.21018833 15.119284 2.5334785 26.714117 43.054775 -17.059994 20.247704
C10H26N4+H+ -2.9765456 -0.020504512 -8.675134 0.17068729 -0.74245906 2.261808 -0.97594726 6.0300837 -0.6097976 -0.54692686 1.3451102 0.14624026 -2.7386775 -1.9401304 -4.327954 -0.050770063 -0.591373 0.2504416 -0.86393434 0.6469452
C4H9N3O2+H+ -2.8149743 -0.010282252 -8.126829 0.17295146 -0.69980055 2.112334 -0.95602906 5.540773 -0.5305129 -0.45965835 1.1991438 0.13496159 -2.53584 -1.8313661 -4.036824 -0.050767537 -0.53586346 0.19299898 -0.8389648 0.5728557
C30H50NO7P+H+ 5.6272297 -17.484282 -4.247133 12.598971 -1.9032515 -2.5308833 -3.417315 -14.455768 -24.552538 23.409416 29.029964 -44.394123 15.225272 12.182755 30.578228 3.0509868 32.65446 0.24156539 -20.341427 17.108482
C11H20N2O3+H+ -31.707838 19.680119 -47.5632 -13.786993 53.792202 -13.036191 18.879963 -72.16947 0.22099611 8.3482 -5.342199 -14.427268 6.858888 -1.796986 -29.397003 -8.75378 23.727797 -30.3271 -15.460579 -6.426534
C5H5N5+H+ -1.5936809 -0.09949525 -5.3707376 0.09387216 -0.7999295 1.8424515 -0.73809373 5.2493906 -0.4984297 -0.6275618 1.3970767 0.053668678 -1.7917364 -1.0773104 -2.29483 0.05238135 -1.0777949 0.49954727 -0.16482162 0.5630928
C10H16N4O3+H+ -24.650434 4.7622714 -45.437965 -3.2248142 38.7692 -3.6911223 9.409234 -45.30779 -19.983448 22.149935 14.253858 -38.85958 11.032729 3.4793835 -18.058565 -7.4551883 35.802986 -27.796478 -26.768887 3.4156482
C26H50NO7P+Na+ -28.51777 13.5050125 -52.573555 -7.7755327 44.641438 -25.559814 18.489765 -87.76183 3.9043012 -2.6141918 -9.528411 12.341903 -11.752981 -9.387847 -10.4814825 3.4805207 7.075106 -12.979318 0.9675798 -3.8212278
C23H45NO4+H+ 4.3346424 6.5212464 0.16595836 -9.479696 0.9581223 5.153253 10.169461 3.8870962 -13.212954 22.348152 47.591415 -85.25412 59.324368 35.419456 21.97937 -18.493608 22.712973 6.1030207 -24.265068 13.00224
C30H52NO7P+H+ 5.354426 1.931397 18.916256 -2.7986321 28.628437 -9.294967 11.517592 -48.67675 7.890064 8.83974 4.57555 -27.046963 23.247786 11.929533 13.381936 -4.2391024 22.048964 -12.622223 -7.4214807 -0.53300804
C10H14N5O7P+Na+ -11.515474 -13.21628 -50.011845 9.254041 20.05125 -22.224337 11.735453 -79.2185 -3.690215 17.67693 20.999422 -43.059227 11.873689 5.850867 13.459857 1.2108703 24.10506 4.2256413 -11.995548 6.480396
C9H15N3O2S+H+ -1.5435858 0.15459411 -4.1971173 -0.01938724 -0.3681865 1.8189399 -0.82028383 4.9491725 -1.6634818 -0.117492855 1.2593173 0.06264344 -1.4002483 -0.6430153 -2.0243993 -0.08421598 -0.43823034 -0.33140954 -0.69145876 0.56602407
C10H12N4O5+Na+ -13.308185 -17.556107 -71.16268 11.44374 1.3634605 -52.11155 24.565817 -131.38687 0.20234418 14.133988 42.889183 -65.306435 33.13988 21.058083 40.892925 -0.4783938 -2.7406297 19.634567 5.353965 3.320337
C25H47NO4+H+ 5.258858 -4.324211 18.212608 -0.27108613 5.6791797 48.787178 -15.742099 96.89935 -63.76174 41.519165 47.640514 -78.65544 35.84168 27.207714 -5.525585 -17.453913 40.516678 -26.843481 -44.962463 13.274741
C14H18N5O11P+H+ -3.6597502 -7.0732746 -3.37637 6.502836 24.055044 -16.880983 7.9706717 -55.465054 -43.707897 24.149675 34.24472 -45.17823 27.184254 24.12299 39.353825 -0.34663182 33.825264 -24.61608 -21.888706 15.27731
C18H24O3+H+ -2.6928 -0.25298154 -8.977534 0.19127247 -0.5797526 2.5745394 -1.0588616 5.9121714 -1.2333022 0.32777444 1.8056153 -1.0427194 -2.5970004 -1.7323165 -4.041442 -0.07770143 -0.06764514 1.3750787 -1.2883818 0.8895923
C18H23NO4+H+ -17.184887 13.140526 -41.037457 -11.167666 25.633602 -1.6588081 11.863894 -30.048409 15.606934 4.1826725 2.9264975 -16.963003 -3.2704613 -10.067791 -16.08244 -0.48945832 18.356573 7.2205744 -10.094008 4.0209413
C22H24N2O2+H+ -13.949183 -4.4889417 -46.704037 1.9531991 38.071926 -40.810318 29.179428 -141.63344 7.724797 30.758982 33.04935 -85.037735 37.819042 13.284096 24.792053 -3.7060273 68.06883 3.5907974 -36.920868 24.1445
C28H50NO7P+Na+ -2.0265799 0.1830257 -5.525915 0.021877792 -0.3892008 1.943092 -0.8643202 5.2892194 -1.3599597 -0.3486577 1.1580656 0.36420882 -1.9521377 -1.1085316 -2.7944846 -0.060584195 -0.5560541 -0.2391463 -0.7113295 0.5934379
C10H16N5O13P3+H+ -2.1483593 0.030655032 -6.144986 0.091106996 -0.57422644 1.9342511 -0.83808374 5.165548 -0.7690954 -0.31949133 1.1233822 0.10090634 -2.0910764 -1.3949229 -3.249874 -0.06703041 -0.59639716 0.19888626 -0.6481842 0.47364864
C18H33NO+H+ 16.059792 -13.934738 39.41013 8.228411 44.894943 -42.038235 28.535072 -145.03345 -36.38712 48.234516 55.22425 -113.58464 76.20638 50.481903 76.20672 -7.9752502 81.81292 -26.10297 -45.316315 29.704266
C15H10O6+H+ 4.779225 -9.929612 9.423518 7.3240213 21.780218 -31.848642 12.894362 -105.277084 -6.3825827 27.802523 14.514153 -52.519444 38.946735 21.287035 44.776455 -0.5786861 55.89906 -14.491552 -24.93885 12.666273
C18H29NO2+H+ -14.4404745 -8.800536 -40.695965 6.3252254 44.43765 -51.482944 28.531618 -167.57787 -4.9177628 28.053286 18.33266 -56.811184 26.84044 12.899018 28.797194 0.7837308 50.78262 -6.5032487 -21.179428 10.842205
C28H52NO7P+H+ -2.1946132 0.19322638 -6.001345 -0.008189876 -0.24995735 2.0748842 -0.8921323 5.436669 -1.4787638 -0.28121713 1.1042124 0.4577695 -2.181034 -1.2595271 -3.129505 -0.059986312 -0.44599515 -0.17167798 -0.79599696 0.6431243
C24H48NO7P+H+ -1.5456607 -0.17938656 -4.345453 0.23261039 -0.3979204 1.4033366 -0.652088 3.6518009 -0.41674966 -0.3207154 0.80984527 0.14835967 -1.7115159 -1.1630517 -2.4477978 0.03532374 -0.18183905 -0.2641696 -0.5505839 0.40063387
C21H26O3+H+ -1.5948963 -0.09398629 -4.4808936 0.10182439 0.25380126 1.7836238 -0.83280116 3.3897126 -2.2208712 1.0457932 0.8043556 -0.71537447 -1.5025394 -0.8881502 -2.5282068 -0.119116746 0.91851866 0.32329756 -1.5296639 0.68989396
C9H14N4O3+H+ -7.3694344 -3.4465563 -61.444145 -3.047959 -16.100487 -3.5744963 10.341187 -26.003206 28.569937 23.871855 34.084957 -87.8427 30.913645 3.201442 -7.036445 -10.835916 39.88897 54.017273 -32.69036 22.623606
C25H49NO4+H+ -7.051141 -3.4252207 -24.461987 2.1768687 -4.0828466 11.552761 -5.5975556 30.169828 -39.769352 16.112175 29.244938 -30.89753 12.063244 14.059398 4.723142 -5.5838223 6.2154784 -3.4297733 -15.750427 9.762187
C22H22O7+H+ -1.441591 0.13206358 -4.0994363 -0.033836532 -0.37191558 1.4924077 -0.6014195 3.9662635 -0.63180614 -0.36380544 0.7519067 0.2815529 -1.5064586 -0.96696854 -2.2014241 -0.029694915 -0.5760224 0.18963134 -0.3786106 0.4035096
C21H36O3+H+ -1.6779983 -0.060045637 -5.5789413 0.09638502 -0.29569176 2.2537146 -0.9326641 5.58065 -1.8458887 0.03519 1.3814979 -0.021872945 -2.0023928 -0.96915674 -2.527574 -0.005825986 -0.52995765 0.47031894 -0.73024344 0.71760434
C11H21NO4+H+ -0.72152454 0.102294095 -2.0303051 -0.042134862 -0.19165441 1.1040912 -0.44704103 2.890037 -0.81861144 -0.07075104 0.56568134 0.1285972 -0.8610753 -0.44183296 -1.1369913 -0.019502705 -0.33410105 0.057389334 -0.2201878 0.2751709
C8H18NO2+ -13.487065 1.5174704 -62.09071 -3.8477352 24.954142 -51.34303 32.60403 -149.91876 5.2048297 22.685575 36.836346 -77.284454 51.199703 28.892426 48.158745 -5.9401684 31.42983 29.912043 -15.453897 15.9201
C28H46O4+K+ -0.8675182 -0.13908309 -4.0237155 0.022808677 -0.22571254 1.2702825 -0.3937617 2.744196 -0.084613435 -0.025787624 0.5337329 -0.043011867 -1.7163105 -1.1066209 -1.9585619 0.10012539 -0.52426285 1.7173337 -0.21142818 0.46317977
C7H16NO3+ -3.0267406 -16.889528 -22.230167 12.314728 10.720326 -36.71951 15.138297 -101.52631 -34.52673 31.33109 46.766838 -76.30122 49.18421 35.26321 53.799267 -4.5143356 33.670876 -10.774482 -20.639431 14.090305
C9H12O4+ -20.97372 10.696473 -45.951992 -6.1248517 23.595423 -40.310333 19.916853 -112.65102 -27.300047 24.684193 21.953543 -39.548714 26.613228 15.997991 41.524925 1.483651 50.477867 9.093227 -31.813246 28.786867
C5H15NO4P+ -33.609364 11.5289345 -81.16217 -8.858161 15.328796 -21.627134 15.32894 -75.86461 -23.17544 35.368748 30.646074 -66.31814 20.581081 3.5125015 2.378512 -4.916884 60.679203 14.072797 -46.536327 28.56431
C24H51NO7P+ -17.893114 1.3705728 -56.756428 -1.2302828 3.479142 -15.064049 8.755933 -54.632507 -3.046168 25.97028 24.912052 -55.058323 12.166996 -3.6536095 10.5941725 1.6074998 66.70902 24.205025 -43.96832 37.361492
C12H18O6+ -8.57957 11.191789 -3.393107 -6.974051 20.35457 -12.116941 9.96625 -42.63531 -24.871807 23.393137 27.763924 -46.805294 24.955278 11.888649 27.287485 -0.87809056 64.36954 -8.374406 -41.852833 33.3888
C21H41NO4+H+ -2.8673859 0.01042339 -8.196144 0.11896228 -0.4848096 2.0717368 -0.9310501 5.28911 -0.5968463 -0.37328273 0.8810106 0.3931957 -2.7459776 -1.9622529 -4.2968755 -0.052613944 -0.40175527 0.18889347 -0.92725545 0.53970724
C14H16O6+ 1.1007828 -12.919096 -11.2404175 11.823031 23.882545 -29.79235 8.473024 -87.98305 -28.931845 17.445772 12.119247 -15.812086 5.940826 12.509292 38.937607 6.891033 36.46817 0.4219073 -18.128696 21.66776
C15H15NO3+Na+ -3.0917525 0.57548434 -11.938317 1.4810753 2.3861747 10.736357 -6.44839 29.452427 -38.396904 13.2071705 19.452347 -12.704802 -3.4966407 4.6806602 9.85575 2.2652426 37.05652 -1.363464 -31.654644 29.067944
C26H55NO7P+ -13.165188 13.502413 -26.111425 -5.921969 11.817822 -23.429842 8.510145 -48.74369 -24.3324 0.7220234 -4.315321 17.567106 3.2234216 10.229156 22.56532 1.4897599 16.908232 8.500913 -14.238227 20.944832
C21H28N6O4S+Na+ -2.7700741 -0.35466418 -8.063635 0.43281764 -1.2035431 2.5993376 -1.3038213 7.380844 -1.5920107 -0.30599102 2.3331816 -0.7083244 -1.9535599 -1.1812129 -3.3383722 -0.12661003 -0.737989 -0.5945049 -0.9420445 0.62072295
C26H53NO7P+ -21.576588 10.679802 -64.52063 -6.70639 13.876788 -38.332554 19.392311 -97.76201 8.966948 1.8607515 3.1756787 -7.836764 1.7348958 -1.6873266 13.172575 3.0468662 12.541411 29.566853 -5.4454427 13.243489
C9H9NO3+H+ -8.935996 -36.557785 -77.53437 28.572578 -25.47093 -26.42504 -3.1323555 -67.96162 3.1275394 25.008095 22.869967 -48.370003 -3.8341005 -9.826966 20.103806 11.180388 56.039967 32.751446 -33.169113 33.20629
C6H15N4O2+ -6.8081274 -28.054773 -70.15862 17.109379 -29.33479 -13.684972 2.7076643 -46.820797 29.730667 27.088509 28.764477 -82.22554 18.358946 -6.2292204 -4.005482 -2.1899762 44.99285 34.07248 -27.104853 14.653704
C25H45NO4+H+ -2.7078881 0.15039106 -7.4545593 0.04204639 -0.21807024 2.3239148 -1.0455862 5.6879563 -1.4075983 -0.145091 0.8270136 0.5245891 -2.7014887 -1.7233112 -4.1247573 -0.091348864 -0.26692688 0.02988191 -1.0793232 0.60280347
C15H14O11+ -2.0797246 -22.579802 -34.726776 15.725964 15.189563 -11.510324 3.8156288 -63.78006 -3.705562 29.486465 22.937103 -57.615387 9.030957 -0.7364571 14.690381 4.313284 57.794975 12.868242 -31.41458 21.736115
C4H7N3O+Na+ -2.785117 -0.21545166 -7.8326607 0.35645145 -0.78460747 2.4932897 -1.2514839 6.89267 -2.0086117 -0.16391027 2.085398 -0.42335325 -2.0691898 -1.1716634 -3.395087 -0.14090674 -0.43755206 -0.7027105 -1.0926572 0.705691
C28H48NO7P+H+ -2.2969916 0.08886608 -6.441623 0.100482 -0.49608195 1.6550863 -0.6980685 4.6348267 -0.5405393 -0.6587763 0.9803292 0.52623045 -2.1489239 -1.4410558 -3.2330973 -0.020324217 -0.6196789 -0.19768767 -0.5604497 0.5264157
C6H6N2O+H+ -2.4300506 -0.3025157 -7.0268354 0.3932773 -1.2780468 2.274915 -1.1530411 6.9859314 -1.210702 -0.61738527 2.2879274 -0.5196695 -1.4941303 -0.8523751 -2.4646013 -0.08022391 -0.9496585 -0.79035056 -0.6305147 0.5853144
C17H12O5+ 0.8618832 -19.387804 -18.634716 10.985214 11.777591 20.625477 -5.593034 11.7703495 -30.328516 44.042 43.656666 -89.549 23.463013 11.095333 1.7419523 -6.3024426 61.71653 -4.356241 -46.41896 21.111128
C27H44NO7P+H+ -1.40521 0.3407851 -3.8204727 -0.15525496 0.041884355 1.2740211 -0.41516134 3.1682675 -0.64259446 -0.39500815 0.33217922 0.77770406 -1.7132969 -1.0613624 -2.2845032 0.0054243 -0.3925117 0.14225386 -0.40640554 0.45536733
C12H20N2O7+H+ -13.18606 -57.780003 -17.156733 44.225155 87.2316 13.651557 -10.321792 -66.953186 -111.59604 75.1598 40.359833 -77.45387 -9.221949 7.0533876 -9.838968 5.255637 77.71707 -108.756905 -48.08893 -4.75254
C28H28O6+Na+ 0.0995968 -0.1874038 0.008585767 0.1643665 -0.6138187 -0.0071904217 -0.023454797 0.73869914 0.52322644 -0.3847549 0.5951915 -0.35720944 0.1749604 0.067141235 0.18415588 0.018813277 -0.54920894 0.06916566 0.33216357 -0.09204196
C24H31ClO8+H+ 0.06336401 -0.26505855 -0.38233304 0.19446987 -0.721274 0.14149265 -0.10099098 0.9228793 0.69891036 -0.2639274 0.5168413 -0.53586346 0.29128793 0.049354754 0.30406848 0.008996994 -0.503892 0.21652399 0.34409994 -0.1582152
C13H15N3O2+Na+ 2.9370208 -18.746962 7.15614 11.052623 41.71377 21.870337 -3.0405798 -0.6401332 -64.16758 50.126102 51.80206 -87.39006 25.923561 21.012062 13.8242655 -5.51562 59.60563 -36.331482 -44.488617 15.913376
C12H16N2O5+ 16.456509 -40.159004 19.413696 26.554918 22.709515 27.77476 -12.119911 14.533444 -44.38202 52.330303 50.650387 -96.876366 20.533678 11.68964 15.0143795 0.15030202 81.60601 -31.406868 -51.85476 24.162344
C11H18O11+Na+ -2.7969692 -0.33277825 -8.02842 0.4237095 -1.2515497 2.5967681 -1.3091506 7.577779 -1.6329405 -0.4292042 2.3694448 -0.60084295 -1.967086 -1.1586814 -3.2860305 -0.11811171 -0.8444744 -0.67712677 -0.86697036 0.63336897
C14H17N5O8+H+ -10.61835 -14.292511 -31.78054 12.681775 -4.6207104 -13.482736 -0.4840306 -26.6106 -44.554962 20.139084 41.066708 -38.812702 10.687948 12.046482 33.97214 5.447961 23.544428 -13.23823 -17.98045 20.594833
C7H19N3+H+ -0.7425478 0.4019459 -1.4533155 -0.18366782 0.08081332 1.0506204 -0.38191074 3.079915 -1.6365767 -0.23096123 0.6381764 0.69149476 -0.79921436 -0.1652422 -0.8466642 -0.03825915 -0.35650665 -0.71966964 -0.37862942 0.48663697
C10H15N3O5+Na+ -20.637117 8.317734 -49.610176 -6.6982975 37.50987 -22.525026 18.246727 -87.150566 -31.103249 28.043856 34.764397 -58.678715 31.68224 20.681976 29.113194 -4.068558 40.81437 -2.4239862 -28.02797 17.90393
C26H44O8+H+ -0.6599707 -0.03952807 -3.334877 -0.055031147 -0.16269693 1.1198381 -0.32518142 2.5148454 0.17897835 -0.3130497 0.2363161 0.37037703 -1.6403718 -1.0503821 -1.7173462 0.1838705 -0.7124748 1.712607 -0.019111684 0.36787128
C5H4N4O+H+ -0.47498274 -0.14653471 -1.4932638 0.20264587 -0.8853069 0.4313741 -0.26273152 2.5902624 -0.03696372 -0.8098724 1.382835 -0.25944823 -0.021100782 0.079923496 -0.0053946376 -0.002529696 -0.9238747 -0.78787875 0.2852541 0.23079197
C32H48O7+ 10.337483 -10.067345 23.212261 6.4620833 18.57927 -0.670721 -0.063070096 -29.687428 -21.443312 28.630957 11.674889 -38.034546 16.740902 10.708126 24.003836 1.094698 47.448692 -6.622889 -26.799835 12.730143
C18H30O+H+ -2.3566515 -0.20377076 -8.374408 0.104440756 -0.24573913 2.1650188 -0.8285875 4.440223 -0.7610888 0.43816185 1.2143309 -0.8386016 -2.6403573 -1.837379 -3.7776468 0.06728436 0.15325566 2.0316863 -1.1858245 0.91243446
C17H13NO3+H+ -0.3217455 0.37490425 -0.89459324 -0.26824218 0.41264158 0.8638256 -0.22819296 1.7236391 -1.0772978 0.19411744 -0.04157673 0.5031788 -0.9095772 -0.3787024 -0.9414501 -0.0057393024 -0.030080827 0.46590552 -0.36534712 0.32158265
C28H51NO7P+ 6.808615 8.4145355 39.529133 -7.8839283 37.413902 6.7885995 6.8076415 -18.46743 -48.971905 41.06329 37.562057 -74.008644 43.67007 29.872698 33.212063 -8.507396 70.83886 -21.628313 -49.859955 26.562433
C14H26N4O11P2+H+ -7.6433587 -30.771961 3.0819616 30.618694 13.645571 2.2803583 -22.581503 1.3307384 -93.21752 33.95513 24.583864 -5.3010874 -15.165024 5.7832613 37.14608 16.644974 55.728382 -70.92776 -33.86048 21.345524
C23H46NO7P+H+ 1.9413676 -40.586475 12.294676 35.242275 -30.966675 28.499044 -40.423477 68.665886 -69.673294 46.306347 13.412817 -21.072832 -29.036907 -18.687443 -1.7384073 14.650176 83.431305 -36.945133 -58.24975 34.022694
C23H44NO7P+H+ -1.6693214 0.07570618 -5.90947 -0.023184868 -0.5094709 2.154076 -0.8072463 5.93267 -1.5747236 -0.5156366 1.7037407 0.24445936 -2.0061963 -0.8405354 -2.1803105 0.054808468 -1.2166809 0.7282646 -0.27362043 0.7668691
C25H36O3+H+ -0.11634892 0.07743141 -0.45801866 -0.043462086 0.013824327 0.14876783 -0.002515168 0.30283383 0.10819638 -0.070699096 -0.0067342026 0.11872102 -0.20405099 -0.095675215 -0.18785287 0.004102939 -0.102928214 0.22381625 0.01117422 0.05636201
C15H15NO3+H+ -0.42663947 -0.003951282 -2.036977 -0.00898139 -0.3438303 0.119148076 0.07810181 0.4418215 1.4751947 -0.7548797 -0.05524524 0.38483465 -0.9781182 -0.92312443 -1.2254182 0.13071772 -0.710792 1.0355946 0.39926368 0.037293293
C10H13N4O8P+H+ -1.1542066 -0.11943261 -3.7325034 0.14996628 -0.76561624 0.7811305 -0.2912917 2.5374503 0.8117966 -0.74829245 0.778401 -0.049522366 -1.2358981 -1.0652865 -1.8927681 0.052918322 -0.7748038 0.37862805 0.053138047 0.23689017
C34H48O7+ 25.811714 -52.555466 9.688334 34.732838 -16.177406 -10.616536 -5.01569 -52.072624 -17.913803 51.217022 53.200825 -110.62883 42.25736 23.256325 57.1675 3.3169093 56.887318 4.632594 -26.454363 15.43175
C11H21NO5+H+ -0.17387272 0.50846124 -0.05798298 -0.36628583 0.58518934 0.6548289 -0.13928957 1.190366 -1.0571811 0.108715214 -0.3010267 0.8770315 -0.7607243 -0.2511145 -0.69605136 0.014474697 -0.010483269 0.16449632 -0.3168652 0.28525674
C6H12O6+Na+ -0.90141404 -0.0595538 -4.1366634 -0.026458282 -0.047269903 1.4698653 -0.5157913 3.0156627 -0.28538153 -0.023105327 0.1664813 0.41333935 -1.992162 -1.1896764 -2.2352643 0.12475696 -0.59829414 1.7925404 -0.18803817 0.3678483
C10H14N5O5+ -25.03958 -9.011013 -43.058205 10.350133 17.608932 0.73184156 -6.742077 -13.773741 -77.36028 37.951214 41.320583 -42.059544 -3.1527038 4.124614 16.571478 7.2202196 54.456184 -38.4525 -41.19898 25.903055
C10H13N5O5+H+ -20.884295 -11.386098 -37.45948 12.259624 21.805048 -11.379 -1.351526 -42.10532 -72.3469 34.038094 38.298573 -36.74239 0.54713804 7.862867 28.111074 8.497827 48.432877 -34.48623 -33.33576 23.49564
C11H19NO6+H+ 0.123263225 0.28887448 0.43834758 -0.21386586 0.23117472 0.42091718 -0.059381474 0.89003676 -0.6416969 0.07669849 0.06545367 0.25201297 -0.22863138 0.028382208 -0.025712896 0.023423456 -0.13451064 0.19969514 -0.059307937 0.19379441
C23H43NO4+H+ -2.9689567 -0.082369775 -8.766243 0.21736187 -0.6747554 2.0181344 -0.8829516 5.1508718 0.04560983 -0.5659988 0.9460636 0.22000411 -2.8274229 -2.147795 -4.491345 0.0024943936 -0.49469575 0.4734373 -0.7561391 0.48856363
C37H66O4+H+ -1.9795295 -0.4952783 -7.727889 0.3266352 -0.72648627 1.8950541 -0.7587426 4.3262877 0.049349487 0.052372698 1.3158242 -0.8883565 -2.2503724 -1.6592495 -3.201889 0.07750744 -0.43642652 1.9893057 -0.61371034 0.5973651
C8H14N3O7P+H+ 6.185572 -20.019924 -15.023965 10.288892 -15.050447 24.050089 -8.084515 48.647964 -63.26568 50.697403 91.9335 -126.21735 47.191986 31.497824 45.249416 -5.7516117 55.83485 4.2888393 -49.59355 38.917965
C10H13N4O8P+Na+ -2.0147889 -0.3709572 -6.2218733 0.33420646 -1.0367047 2.0782454 -1.0819701 5.552348 -0.87900597 -0.03932748 1.5228959 -0.71972555 -1.5481431 -1.0759753 -2.7990766 -0.10338766 -0.50965667 0.1395752 -0.6853526 0.29869258
C12H20N2O3+H+ -0.77910423 -0.112827554 -3.6979966 -0.021362389 -0.09167081 1.1770697 -0.38270053 2.4527133 -0.10067951 -0.12553829 0.10622155 0.42976847 -1.7620294 -1.0306721 -1.8624947 0.12828122 -0.5767476 1.5954088 -0.09823676 0.33413294
C10H13N5O5+Na+ -14.543619 -25.476404 -35.392666 22.062206 2.2836642 -13.422777 -5.224341 -35.37573 -72.92824 33.62128 46.98258 -45.50627 6.0599117 13.340183 34.429245 7.9144955 30.40082 -34.90431 -22.548613 16.182497
C14H10O8+H+ -1.3482625 -0.21798413 -3.9106553 0.28648126 -0.99612945 1.273259 -0.6254018 4.372947 -0.6225711 -0.6262658 1.6350064 -0.3537911 -0.7641556 -0.39886045 -1.2731899 -0.06761437 -0.869542 -0.64457947 -0.13804047 0.3627174
C5H11NO2+H+ -0.19816963 -0.051870197 -2.11832 -0.12241462 0.23112983 1.8236086 -0.6993241 3.6200957 -2.0564363 0.7333789 0.52355725 -0.008207238 -1.3223387 -0.35483032 -1.0586197 0.04973816 -0.314267 1.6512418 -0.46333227 0.4756062
C9H17NO8+H+ 15.087357 -23.287148 -29.732338 10.914192 -19.616508 -1.8318968 4.1340666 -19.570765 7.351454 32.245644 58.69832 -104.7878 42.689644 20.353392 49.992085 -0.6926149 42.835796 53.492157 -25.504267 29.958817
C10H17N2O5+Na+ 17.311544 -20.890097 -17.439327 8.912366 -12.989932 -3.9652522 6.803305 -30.558205 9.851741 33.05078 52.855812 -103.209885 44.08234 20.631311 46.346478 -2.174519 43.003002 50.09468 -24.46497 25.83313
C34H50O7+ 5.8584256 -3.8109932 16.02687 -1.2760875 22.315638 7.033107 8.217714 -24.561432 1.1750762 34.114914 30.241844 -86.50968 40.209553 13.762297 5.0302258 -10.2966795 59.99368 -16.197021 -36.695316 10.530323
C10H15N3O5+H+ -26.656296 20.4008 -70.495186 -13.239747 8.43415 -45.117916 23.509096 -88.085014 -62.86062 14.920187 58.28543 -44.473877 44.476814 42.52481 74.79481 -2.2558618 4.799427 16.812906 -13.563973 31.408054
C7H7NO2+H+ 0.104611725 -0.026229821 -1.2860365 -0.13219073 0.21384935 1.8452172 -0.6397983 3.6535566 -2.0978076 0.76958436 0.6259568 -0.15455616 -1.0582254 -0.0792349 -0.5989585 0.062959865 -0.413172 1.6700665 -0.38066617 0.46892452
C10H19NO4+H+ 0.07752247 0.44736907 0.65660197 -0.34566194 0.56151956 0.64935124 -0.16172843 1.2416663 -1.4759578 0.31842163 -0.14080971 0.5821808 -0.41042817 0.06607474 -0.24299286 -0.040405557 0.10078669 0.07391642 -0.34990758 0.27237526
C35H66O4+H+ -1.3600831 -0.0056470064 -4.088253 0.04892925 -0.21078257 0.8090794 -0.31201974 1.8575295 0.14624144 -0.11272638 0.32261857 0.0074708234 -1.2840058 -1.0300514 -2.1357996 0.011171238 -0.030412458 0.4780063 -0.46964255 0.24924916
C12H23NO4+H+ -0.33544534 0.4428101 -0.41470075 -0.309294 0.54652756 0.56999373 -0.1274736 0.93825334 -1.2910746 0.2719168 -0.28027374 0.7046674 -0.6901811 -0.18222505 -0.6745039 0.0057680137 0.16176139 0.033307828 -0.40497482 0.24261443
C9H20N2O2+H+ 0.09197132 0.196898 0.32926142 -0.20551197 0.28853524 0.53087485 -0.14764792 1.1402832 -0.931317 0.22472261 0.11164067 0.20554519 -0.31200314 0.071689144 -0.06786739 0.027590327 -0.069428116 0.22143787 -0.15431404 0.21507917
C17H26O4+Na+ -0.12336229 -0.26090884 -2.3576565 0.021174647 -0.20014045 1.5881419 -0.5321499 3.376711 -0.9305384 0.31822094 0.77886045 -0.3508448 -1.1701826 -0.4452433 -0.8519616 0.10047662 -0.68618464 1.887229 -0.04913831 0.37284893
C19H22N2O+Na+ -25.115927 30.873213 -41.068893 -23.011658 36.73206 -13.39231 21.335197 -45.44255 -38.308327 12.466113 32.26921 -32.414627 22.282665 18.727325 16.004248 -6.891464 16.45949 0.86074305 -21.17979 20.6307
C18H23NO4+ -24.941797 31.714619 -41.96597 -23.410902 35.179005 -15.947368 21.47795 -49.50791 -40.48154 12.81307 33.13416 -31.348316 23.156094 19.807322 22.76501 -5.712981 19.983362 5.20403 -22.942408 24.702662
C14H20N6O5S+H+ -0.6714901 -0.21011028 -2.2711284 0.22934796 -0.8688315 0.74847174 -0.37420243 2.7884204 0.029259577 -0.47701076 1.127256 -0.4169445 -0.2933027 -0.20027956 -0.58864975 -0.038261984 -0.6901204 -0.25709593 0.09310761 0.16673674
C29H45NO4+Na+ -1.2782295 -0.2771544 -3.9422755 0.27831605 -0.9761413 1.3309864 -0.67011243 4.0564194 -0.38306278 -0.38948137 1.3106794 -0.4670472 -0.7936745 -0.5012169 -1.4106535 -0.03662999 -0.7043531 -0.25313044 -0.13847265 0.1796819
C10H9NO+H+ 9.632089 -33.000656 26.426435 26.479671 -12.167609 36.95911 -31.998697 88.04733 -90.621574 40.00725 38.54843 -36.479393 -1.137243 12.495225 16.083416 3.7113657 41.069916 -45.013596 -36.992855 18.555964
C21H20O7+H+ -0.890186 -0.21728659 -2.7372282 0.2382093 -0.84638023 0.89422715 -0.47659656 3.1175609 -0.15520556 -0.44609132 1.1941682 -0.4326769 -0.46209055 -0.33004045 -0.88015044 -0.04257251 -0.67765105 -0.27878094 -0.024492744 0.1544053
C14H29NaO4S+H+ 0.09536712 -0.35148367 -1.8255588 0.073346704 -0.267704 1.4803685 -0.5286648 3.0742378 -0.94543755 0.43545496 0.8860826 -0.615594 -0.8154516 -0.20227182 -0.45118117 0.08973627 -0.63408864 1.7825084 -0.051580418 0.3030657
C11H15N2O8P+H+ -1.2119486 -0.18333818 -3.6151927 0.23185675 -0.60806924 1.2007906 -0.60477597 3.3002279 -0.60110044 -0.084152296 0.9828135 -0.36143208 -0.89929366 -0.5828682 -1.5470951 -0.065799646 -0.3239803 -0.123402655 -0.36929616 0.23983197
C19H24O4+H+ 0.12361942 -0.41353953 -1.7206677 0.13124505 -0.29320183 1.402846 -0.5358 2.950612 -0.9153148 0.43142745 0.8909488 -0.6835696 -0.75542235 -0.16644746 -0.38361374 0.08828026 -0.6034496 1.7709491 -0.042683512 0.2927245
C27H44O7+ 2.3027015 -43.079124 15.637275 37.455383 -41.678623 33.720364 -45.160976 87.5744 -75.60264 51.406067 20.798882 -31.566563 -27.98187 -19.849197 -3.1760871 14.388491 93.23164 -40.30513 -67.09949 39.99596
C27H30O11+Na+ -0.24637349 0.5095439 0.13239525 -0.31888747 0.5591727 0.6496058 -0.20675792 1.5772036 -1.7949232 0.13892442 0.013137884 0.8700604 -0.49351037 0.08556617 -0.40100718 -0.033492047 0.055079907 -0.6279958 -0.4039673 0.3249448
C37H47NO4+H+ -1.416065 -0.13918224 -3.915493 0.19742702 -0.52218753 1.2608612 -0.60074764 3.5885522 -0.9480936 -0.1476577 1.1437646 -0.22649524 -1.0465307 -0.602154 -1.7516432 -0.09271982 -0.36387956 -0.39593577 -0.51224536 0.33421642
C24H48NO7P+Na+ -0.5521855 -0.1873369 -1.878116 0.18418643 -0.5835372 0.63724583 -0.35114083 2.0069568 0.038603496 -0.15876956 0.6781765 -0.35643446 -0.32953203 -0.27355567 -0.67097473 -0.033209205 -0.41593075 0.029527664 -0.008843838 0.07283565
C26H56NO6P+H+ -3.287697 30.451553 -6.4887033 -24.118765 -17.814045 -5.110256 12.577896 12.20775 13.327497 -6.9265428 17.59832 -22.119963 29.167025 12.982713 14.448771 -9.440619 8.442309 35.440777 -14.282274 24.277716
C25H50NO7P+H+ 22.83186 -70.9528 2.9958887 50.610912 -34.18051 13.368354 -29.042032 21.934889 -72.13716 54.994766 54.558403 -82.23422 15.416704 20.898676 38.86807 5.4517517 28.39721 -14.762805 -21.566092 7.1762447
C6H8N2O2+H+ -0.8741153 -0.05162818 -2.6722105 0.04045227 -0.15181902 0.5665138 -0.24492401 1.2722881 -0.05341707 0.06401592 0.33006868 -0.28206113 -0.7424392 -0.59015703 -1.2886626 -0.027720924 0.10519034 0.3457598 -0.40901732 0.19291206
C16H12O9+H+ -0.6404106 0.07965064 -2.1039038 -0.04006655 -0.19948623 0.07948549 0.07704109 0.4183896 1.2070186 -0.6442095 -0.012405814 0.33300713 -0.8166501 -0.79025036 -1.0822339 0.0932145 -0.41092274 0.52609545 0.22897334 0.10171248
C26H52NO7P+Na+ -25.350431 -18.28695 -108.474464 14.17274 -16.576197 -43.635548 11.694065 -99.80043 23.42473 -2.777581 6.1982594 -8.385725 -10.144425 -10.31612 5.107142 7.6785 -21.319595 36.1752 18.394354 -4.8321805
C19H37NO4+H+ -1.2579944 -0.11519867 -3.5418625 0.13211156 -0.25289378 1.1806053 -0.60261804 2.8837988 -0.85050637 0.1300122 0.63180983 -0.1746239 -1.014775 -0.635551 -1.739936 -0.045789663 -0.056383695 -0.017617244 -0.54904187 0.20109001
C12H22O11+Na+ -4.9878635 6.259366 -10.041434 -4.08677 3.6579783 -9.426016 5.871661 -19.735285 4.8390555 -5.382694 -1.5975573 5.935721 0.68423927 0.37965205 3.3338594 0.35183847 -4.2213483 3.7128987 3.3122642 1.2446792
C6H6N2O2+H+ -0.7405994 -0.076836124 -2.3369594 0.035124987 -0.13603133 0.49109522 -0.17614558 1.0396941 -0.010430459 0.050250173 0.2782677 -0.25574383 -0.6388601 -0.5333982 -1.1046765 -0.023504421 0.047506697 0.32788005 -0.32559425 0.16043547
C31H33N3O7S+H+ -2.4334338 3.9479444 -2.0247858 -2.7807586 0.2091994 2.0509722 0.2962218 6.669181 -6.1111565 1.772618 5.2317295 -5.1061573 3.421507 2.221796 0.55527794 -1.5250988 5.14044 -1.312848 -5.835831 4.829662
C26H48NO7P+H+ -29.10507 19.189913 -47.099247 -11.664349 45.34785 8.815469 1.9833609 -0.71383184 -65.87989 18.02259 19.776443 -2.0784996 -12.495874 3.3797815 -0.24159414 1.996263 21.883703 -15.840664 -25.641598 19.303844
C30H46O7+ -29.177883 18.40455 -48.186203 -11.218619 45.93742 8.034855 2.1486077 -3.767868 -67.08695 19.123587 20.58488 -3.7148066 -11.878562 4.0368414 0.51000714 1.9434899 21.860615 -16.061378 -25.496162 18.810347
C26H45NO7S+Na+ -1.4090196 2.9642153 4.0777307 -2.0188746 3.050428 4.474376 -0.58528316 10.523479 -13.907123 4.827114 8.653083 -8.718067 4.9387097 4.4686995 2.3161027 -1.7787277 7.8964996 -7.9247875 -8.118086 5.219344
C28H56NO7P+H+ 17.672743 -66.605865 -2.5692089 49.919754 -52.34912 6.46267 -32.110886 29.242334 -70.777405 43.719418 43.803547 -53.596024 2.9372396 13.422377 36.564453 9.125357 17.823612 -11.413673 -16.193777 9.10625
C32H49NO5+Na+ -0.1964786 -0.12933753 -0.69350183 0.073198244 -0.29782644 0.246662 -0.16519615 0.8059045 0.13604903 -0.10445169 0.29601848 -0.20023985 -0.09086723 -0.1252502 -0.20576645 -0.019706078 -0.2428895 0.06339412 0.0703776 -0.009638583
C24H34O2+H+ -0.31853634 0.16032974 -0.5474675 -0.09275512 0.22206059 0.20899382 -0.0846742 0.51373094 -0.5293552 -0.0018462229 -0.019756544 0.3148753 -0.32732004 -0.09916786 -0.40729752 -0.01265765 0.07638129 -0.30288795 -0.18793577 0.13999772
C13H24N4O3S+H+ -7.482478 7.105608 -6.7963347 -4.1192875 14.972444 -5.1838827 4.3707604 -16.995348 -11.722166 -0.07842184 -0.367778 7.3885775 -2.5073547 1.2583046 1.879007 0.74796504 1.7388773 -7.8815665 -1.9292548 2.3234415
C34H34N4O4+H+ 0.12876531 -0.15838882 0.006620164 0.100028716 -0.43678656 -0.0033238716 -0.058231838 0.35549566 0.5672763 -0.16873614 0.24580845 -0.33862677 0.19629955 0.044779547 0.18905148 -0.005107297 -0.32823128 0.20424809 0.27107 -0.12799685
C27H54NO7P+H+ -0.47765082 -0.0020812815 -1.6027542 0.00922162 -0.107930236 0.24166323 -0.06687483 0.56670594 0.28163397 -0.13109633 0.05928521 0.06817268 -0.5385991 -0.4509017 -0.8280385 0.013056299 -0.06898803 0.30661565 -0.06649931 0.10773887
C24H50NO6P+H+ -0.18381839 0.082044825 -0.4285984 -0.04741171 0.12886165 0.23420477 -0.087589405 0.4502076 -0.40785107 0.07414937 -0.06281176 0.24720047 -0.31094292 -0.15174995 -0.3723669 0.008224356 0.034216914 -0.0031312958 -0.15910964 0.08931742
C20H16O7+H+ -0.40204903 -0.20406358 -1.4448977 0.11929809 -0.011150015 0.37915537 -0.14883386 0.6238866 -0.4146531 0.3236068 0.46145952 -0.6786928 -0.18992493 -0.15597789 -0.46317777 -0.024487846 0.37364784 0.1470692 -0.44803467 0.21082334
C31H42O9+H+ -0.3063772 0.03509065 -0.71516514 0.058129814 -0.16813661 0.22071956 -0.09341583 1.0289243 -0.28988054 -0.2872231 0.5049243 0.062226903 -0.10319077 -0.0009698665 -0.10380036 0.018540254 -0.3006493 -0.44440162 0.029854488 0.14370324
C25H31N3O4+H+ 0.020886287 -0.54439425 -2.087104 0.2842316 -0.49249634 1.0568887 -0.48769656 2.3532362 -0.36789185 0.30265844 0.82212245 -0.76973665 -0.62996095 -0.2264792 -0.3974154 0.11281841 -0.520523 1.5444565 0.0362963 0.16238469
C15H10O5+H+ -0.058169752 -0.05905809 -0.21078685 0.018670864 0.00430148 0.04656097 -0.001654844 0.007760776 -0.117578685 0.08607796 0.1748118 -0.22035782 0.05470335 0.013453161 0.018772114 -0.017819569 0.12958123 0.019847604 -0.106572725 0.062101226
C24H51NO7P+H+ -0.073335014 -0.019548072 -0.3007756 0.024364406 -0.13019161 0.095603615 -0.024688173 0.34535828 -0.025393903 -0.060091298 0.1562404 -0.08984303 -0.03226749 -0.0278662 -0.09013681 -0.016911816 -0.10683119 -0.032300383 0.009134532 0.025988258
C16H18N6O5+Na+ -0.034747534 0.04337235 0.008847866 -0.0665356 0.09653498 0.05293285 -0.017201796 0.12137243 -0.18800576 0.024087906 -0.045941386 0.10193073 -0.07806018 -0.023879573 -0.12576671 -0.025993958 0.037394937 -0.024875494 -0.08928131 0.038612176
C32H66NO7P+H+ -0.18331283 -0.017953245 -0.817443 0.016561387 -0.046271995 0.2684126 -0.08463525 0.5636064 -0.06292423 0.04681093 0.08782931 -0.05090899 -0.30531222 -0.20086777 -0.37887046 -0.009255175 -0.06368737 0.24639665 -0.076574735 0.0686183
C24H29NO9+H+ -0.05382401 0.062475022 -0.080052294 -0.017199358 0.09550865 0.045508627 -0.0023544694 0.08548477 -0.14149675 0.036339723 -0.10262655 0.11674736 -0.120921955 -0.053797048 -0.16755472 -0.006472958 0.021190612 -0.03310416 -0.059054893 0.039919168
C18H33NO+Na+ -0.017568817 -0.011837035 -0.014917077 -0.0002561976 -0.018919492 0.008349853 -0.0036632784 0.010794264 -0.03247346 0.010375567 -0.008139903 0.022353677 -0.0007082636 -0.01843745 -0.024770046 -0.007564805 -0.02424024 0.03491775 -0.016818631 0.015800685
C15H23N5O3+H+ -0.08479526 0.07552978 -0.13228194 -0.055917747 0.13953978 0.07707728 -0.03328394 0.062768966 -0.16890119 0.045734208 -0.10522662 0.17107728 -0.14454642 -0.08406476 -0.21147373 -0.020885205 0.090943106 -0.011754759 -0.10914368 0.04419229
C15H10O4+H+ -0.04027168 -0.026836619 -0.1444694 0.031608157 -0.03179738 0.049629223 -0.04443327 0.11888558 -0.047730375 0.03404498 0.012667313 -0.047395542 -0.042790946 -0.04317055 -0.093123645 0.002708957 -0.004266569 0.016156524 -0.039679438 0.018665254
C12H22N4O5+H+ -0.0026097922 0.043252535 0.00088086165 -0.009528834 0.043889962 0.03152962 0.010099179 0.048110142 -0.024427323 0.029058196 -0.0044859378 0.053233102 -0.049937677 -0.025248948 -0.025153685 -0.005796485 0.011400268 -0.024225028 -0.025153229 -0.0070501864
C21H26O4+H+ 0.004846965 -0.011438466 0.014674836 0.026220208 -0.021667121 -0.007985301 -0.005832254 0.046491217 -0.015483663 -0.028667731 0.021833556 0.013667688 -0.017993469 0.0055884337 0.015466626 -0.008572 -0.0028669727 -0.03511766 0.021411987 -0.0017165057
C25H30N3+ -17.537987 27.978842 -25.047857 -19.250853 -0.765906 -6.035993 6.6451426 -10.045982 21.09977 -7.348336 -21.89918 22.141127 -13.44501 -18.612013 -23.308521 -0.23021218 19.729088 24.29274 -16.325813 15.793378
C19H19NO3+H+ 0.025390629 -0.013753399 0.000901659 0.011907471 -0.014119169 0.0009820303 -0.004890728 0.014274681 -0.0067594494 0.0042870506 -0.022927415 0.0392832 -0.0019382748 0.0047653774 0.00034272321 0.02170183 0.00626629 -0.033841956 0.019835338 -0.016321082
C16H28O8+H+ 0.020300081 -0.007176934 -0.012257803 -0.0021955324 -0.03214047 -0.0028313152 0.02493735 0.00572667 0.012157338 -0.0018910627 0.0011972538 0.003564619 0.0064532184 -0.013430795 0.018604765 -0.0072459555 -0.009995814 -0.014885427 0.020319559 -0.010105011
C30H26O9+H+ -0.010650263 0.011273651 -0.045304336 0.018619366 0.013840193 -0.0133631155 0.01881405 -0.0008765001 0.044435643 -0.019933324 0.008689546 -0.0013690697 0.0053793266 -0.030911181 -0.0070772246 0.009593532 -0.0053117466 0.028636007 0.021359468 -0.008920039
C15H27NO2Si2+H+ 0.006066314 0.008702718 -0.012501679 0.0042996313 -0.011892153 0.037995283 -0.0059301425 0.05598042 0.013589328 -0.0016261745 0.028631207 0.019960633 0.0020130454 0.003767393 -0.03102151 -0.015320374 0.0064466987 -0.017062042 0.013706332 0.009319355
C24H30F2O6+Na+ -0.020785127 -0.0068317107 -0.018139705 0.0034300832 0.015629297 0.012124795 -0.021318758 0.039611034 -0.024499804 0.0074105454 -0.011833237 0.038430203 -0.03103952 -0.004308594 -0.04366621 -0.010900343 0.031489797 -0.022946244 0.0054105013 0.019569254
C15H29NO5+H+ -0.013471694 -0.012307053 -0.010366905 -0.011606361 0.0014865525 0.012062677 -0.02104741 0.021063427 -0.00595771 0.020849723 0.013099513 -0.012649563 -0.00045054048 -0.005014654 0.022957016 0.021072002 -0.017445842 -0.011051462 0.0033063903 0.00027072045
C16H33NO3+H+ -0.04912571 0.07959918 -0.18966417 -0.061334807 -0.04037705 -0.02344973 0.014400732 -0.013331395 -0.058450177 0.061431997 0.14164421 -0.2122069 0.0907958 0.049215693 0.04566598 -0.032724403 0.16784385 0.16402686 -0.13979647 0.12235263
