37 20
C10H14O4S-H- 154.73952 38.511208 -98.24329 -40.474903 216.59245 -45.647552 -187.09207 84.12987 125.108864 -75.005226 -32.790977 50.86104 -101.15615 -81.163826 -56.195534 -43.05702 4.8541417 -69.72342 -49.757618 -3.0138204
C13H9NO-H- -69.39927 47.750103 -115.99101 -161.51004 -18.81646 -37.041183 78.082726 -62.567356 27.36813 22.740648 -122.431564 -58.143124 54.628174 26.817379 -87.90416 20.504171 -73.40943 -42.00875 13.8913355 65.72175
C13H22O4-H- 168.83037 -25.968584 -28.057774 -149.03976 -20.023582 56.866478 87.283195 -68.72613 20.376554 -225.39755 65.441284 160.3154 53.406918 129.6238 100.00536 -71.056206 -50.020912 -155.58113 -52.437386 169.30643
C10H16O4-H- -190.1822 157.47641 114.619675 14.61015 5.9056787 1.3679166 -314.26038 244.32661 -100.70111 98.77579 11.905754 -34.653606 49.88143 -35.62313 61.095695 -25.073332 -67.16787 -20.37573 5.1162486 -80.59499
C6H13O9P-H- 18.353167 -72.60179 5.875836 109.22786 48.968548 7.648025 -77.00547 -36.17718 -77.72399 -108.677605 17.993353 -79.405174 78.95368 17.418005 51.780186 -49.936646 12.543481 101.96047 -201.50053 -77.09795
C10H14N5O7P-H- -48.558403 137.83047 -35.522854 -37.891438 43.925774 -54.47122 76.160095 24.69126 -227.55734 20.80183 29.143242 110.81317 -11.842744 71.022835 -85.30656 -96.83673 175.11423 7.0622897 6.594111 176.16077
C10H17N3O6S-H- -6.839598 6.4809623 91.65722 51.578312 -69.180244 104.042786 31.914978 -87.42503 60.31553 14.121441 -77.56471 -22.356337 -127.83687 -4.3128934 -41.702312 33.49114 -36.874023 -108.6232 -47.02779 71.59284
C14H24O4-H- -5.894125 -148.10341 47.37569 -22.71772 -89.08986 -61.647827 -38.723564 -100.62098 -18.48731 -45.05211 22.54964 38.86665 -1.6375047 -68.08814 -189.90778 120.53663 106.32616 -94.01425 -0.33313432 -41.243874
C16H32O2-H- 88.19375 102.4842 92.2763 17.228645 -44.230064 -9.743298 0.38125077 53.28133 51.96764 215.35303 3.9739347 -114.076004 23.89471 -66.879845 40.44729 -183.26437 15.601052 -131.21169 74.7538 -3.5976815
C18H36O2-H- -116.57024 -33.39731 -144.71277 16.493769 82.38269 8.186084 -66.56709 93.412926 -51.27481 -122.84406 157.43405 -106.30479 -102.53788 67.735245 -30.541763 10.306801 -93.997215 -106.28471 -41.31742 -117.1017
C6H14O12P2-H- 19.165852 15.888321 46.38064 -12.141196 -139.09427 40.125114 72.86319 56.075275 -79.596 90.762794 31.777065 83.83411 -71.93065 75.12379 -52.434658 -38.390972 -21.098988 81.78598 20.548475 -52.88406
C18H34O2-H- -101.02856 24.458145 6.3959045 -149.23132 -101.89833 -27.567701 42.870808 -66.40907 141.09288 37.19846 66.89466 126.35482 -32.87179 44.68349 -7.625717 115.5041 127.78211 161.49275 -43.19659 89.87424
C10H16N4O3-H- 171.30249 9.985876 -35.643444 -50.514076 25.547789 106.223816 -129.87971 18.648624 -125.44823 -18.39441 4.450499 -118.43924 42.51454 30.66534 107.774666 158.96141 20.680906 72.70481 -3.102571 -59.150745
C10H12N5O6P-H- -1.4406221 -2.7389388 -16.764486 -4.1552143 -23.626476 -38.866417 43.09215 -44.40468 134.70267 4.967016 16.940554 -10.718963 2.2108772 -4.9409633 -26.451206 114.53048 -76.28486 -45.584183 58.582726 -83.6566
C16H26O5-H- 19.583044 -11.202898 11.946273 105.6059 15.069068 3.6066837 53.16451 1.9432436 36.933434 28.508526 -23.979877 -19.699673 37.620033 36.48487 -7.5546703 56.078953 -22.580122 55.147816 37.089474 -34.75428
C6H12O6+Cl- -16.846087 41.885456 53.801834 -41.52346 -40.140125 -43.5142 37.098038 50.80432 27.518593 58.583 -1.3288609 -22.4875 -14.2274065 79.34227 -56.337658 -9.859668 4.27847 14.62676 20.522549 -37.152153
C9H14N4O3-H- -88.12623 -12.699437 15.882041 18.98366 15.94272 -102.88027 129.36395 -24.05135 139.71533 -67.63176 -24.229195 96.00847 22.772703 -39.1576 -69.89358 -134.62152 10.816957 -49.472466 -7.9197593 52.774406
C12H18O3-H- -45.81651 -48.36541 26.384129 49.67185 20.560556 25.689371 116.19171 -38.85124 42.24071 27.210138 -31.252716 -58.40043 -71.20901 -8.978921 43.955215 35.54961 34.99971 103.511566 64.241776 -41.82006
C10H14N5O8P-H- 9.878101 -148.5083 -103.43161 -44.904175 4.481152 84.75351 -78.450745 -21.88481 -121.59843 -15.817263 -14.905879 63.915737 109.42514 -174.63612 238.75677 -52.97022 -12.909418 72.72036 126.31097 -61.478626
C18H32O2-H- 35.518044 -36.27066 -47.109486 49.73955 12.794901 13.522992 60.13715 35.782917 -0.4871856 34.100666 -67.07114 -35.715275 2.580615 -19.488874 18.13887 70.5341 -79.18103 -24.538862 -11.308772 25.62442
C16H24N3O8-H- 10.437289 -19.133097 24.754112 38.57544 -69.05365 24.927952 50.272923 -16.465958 -74.006676 3.0491128 93.45061 -40.08791 -35.019966 -4.1500154 73.917854 -45.298656 9.973054 53.28698 -35.319912 8.390393
C10H13N4O8P-H- 44.998238 -20.802153 49.11394 -35.748592 22.013037 -164.44003 -68.41039 -25.679953 37.369495 10.91328 -32.382042 -91.55712 51.009117 -66.920074 -14.27613 20.768805 41.744675 0.921694 -29.623688 161.2025
C6H8O7-H- -42.88637 -58.312828 -36.108173 34.22385 -7.3288183 15.31731 -37.450428 -70.87234 15.757735 9.624453 -10.920949 32.290993 38.371086 -16.060535 -27.048542 23.221485 -26.17109 -0.122983426 46.78296 -21.998953
C20H32O2-H- 166.45844 116.36965 113.996025 30.872663 -32.594967 -18.76316 -51.40137 115.99697 -97.06007 -171.692 32.434334 -8.21138 59.440483 -60.861378 -108.87483 -46.407482 -80.38179 106.44062 99.62185 21.94493
C23H32N2O5-H- -95.313034 -44.711864 80.49575 -60.36405 113.44728 -77.67483 -60.33192 -45.72812 -27.849735 -21.265549 -72.17081 -74.66111 40.400993 62.724255 82.25232 -65.049225 224.64738 -40.10086 41.361748 -41.19911
C9H17O12P-H- -33.118195 59.250202 10.260902 90.898575 -48.05694 142.55956 120.784004 -22.524633 17.684927 11.115516 -1.2824507 107.595406 -39.793877 41.039883 -40.613693 -15.938575 -60.844494 24.306932 22.840334 -74.15733
C22H32O2-H- -18.226685 -68.39272 -47.778374 -24.137413 -42.904648 20.908289 35.374916 -5.542905 -2.0570414 125.09351 -9.164925 26.829678 -26.790873 36.344982 37.51542 24.798267 -14.814289 -19.878582 -115.85647 3.507916
C26H32O3-H- -49.122444 39.03365 -51.601635 68.15427 30.901447 11.179891 -24.281158 -93.7192 40.29848 -1.6443155 49.049156 10.3458185 -4.774797 -51.52697 19.69674 22.510834 31.563051 -8.730766 74.536835 22.68749
C6H9NO5-H- -9.609094 -18.409904 12.367064 20.590868 20.924076 10.100436 0.09990141 24.349445 -8.106001 35.15219 -59.603897 -24.611382 -22.133461 44.317066 18.468483 40.326054 12.171708 -10.45367 -14.21638 -1.5241882
C39H73O8P-H- -167.0424 101.82049 19.095366 79.68841 -92.24238 -182.27893 246.8627 -63.26256 253.33139 112.27986 13.238299 114.27848 -11.252896 -83.693596 -27.517841 49.332726 100.121056 -45.829575 113.58455 26.813019
C8H14O7-H- -2.6579418 16.826849 -15.409124 2.14854 8.969291 8.804668 -2.8218627 -14.22773 8.983189 3.7048419 -16.257719 40.728523 -1.3824763 -23.67274 -2.897705 38.161484 -12.288348 -26.847683 35.13632 1.669122
C18H30O3S-H- -25.299456 -33.590706 -13.555328 22.995543 -8.763313 5.0606666 -28.046396 -37.941986 8.89906 -6.6845427 2.9738226 2.372571 29.274567 -10.849276 -19.386501 13.243388 -16.728497 -1.4038657 29.703829 -7.785134
C37H71O8P-H- 280.59885 -331.9594 17.041138 -147.14731 33.077885 268.23016 -241.80223 268.5847 -437.9296 -33.863846 -141.15022 -209.89691 3.6015263 192.522 65.78595 62.711094 -60.49744 106.39701 -229.74887 -63.735664
C45H78NO8P-H- 13.147719 123.56781 -28.95699 -40.093975 -0.8895343 5.0430818 -38.985638 -120.44883 29.56427 -37.931385 82.0868 30.534086 -8.60049 -107.13601 -56.175198 -64.17028 -30.506107 -29.463537 69.48224 49.93937
C41H78NO8P-H- 138.3924 78.2703 214.4767 47.664337 -62.872402 -154.699 84.22374 151.56563 12.324878 77.763054 -176.22575 112.69041 125.24195 193.69902 -82.38877 -147.7675 -24.308174 14.531762 -71.85888 -216.31114
C39H76NO8P-H- -190.70206 132.87024 -195.28601 2.6171217 123.761536 20.193863 -15.887863 -314.88498 137.15869 -113.29166 248.3901 11.637598 -105.48688 -288.68448 51.985836 -54.06213 14.120249 -143.16608 154.25423 287.43924
C29H41NO7-H- 47.042686 -25.551159 -29.886625 -59.35416 -2.9608073 12.939787 -2.741473 16.935411 -8.601898 9.820425 -11.501716 -4.240664 -7.7054405 29.9717 -3.4006722 8.069554 -2.2010775 -9.498218 -19.298618 30.49354
