190 20
C7H6O4+H+ -48.095886 -17.527657 2.2019799 8.542976 -3.254779 24.26615 4.60288 28.989832 -18.388866 28.848751 -11.309697 13.60488 24.452412 25.162485 13.627213 5.9065504 -19.727188 -0.667409 3.8825257 14.6501
C7H6O4+Na+ -55.894863 -19.725859 1.1630931 10.268328 -0.43028805 24.997967 6.207028 32.061844 -23.045675 37.310635 -14.195661 18.465797 40.843243 43.04225 26.746288 9.622996 -16.687176 -0.98989874 2.4939365 18.50508
C8H7NO+Na+ -29.406496 -4.6054087 -0.4983443 -0.4126433 -23.0808 40.63396 5.034154 39.41824 -28.354633 30.005245 -10.660665 13.371829 32.06471 41.032322 29.938162 6.872372 14.615979 -1.5739316 -4.825938 3.5993938
C3H10NO4P+H+ -17.313023 2.5612245 -1.1318372 1.6303501 -12.225866 34.188244 5.433077 37.001778 -27.9045 33.733486 -12.321509 14.17124 33.664246 33.323353 15.911897 6.664958 -34.31974 -5.7159996 9.833037 12.292423
C18H35NO+H+ -44.539387 -14.081965 0.45358184 8.601429 -2.0610952 27.19047 6.0821323 33.852604 -23.750141 36.750748 -13.734836 17.601578 40.656017 41.37825 23.981375 9.378912 -24.973965 -2.215864 5.2288237 19.177776
C28H46O4+Na+ -51.61842 -19.141823 1.5884546 6.3795514 -15.902182 39.432613 5.456995 41.714714 -25.712917 33.942284 -12.260797 16.425167 36.7827 45.22641 33.420628 9.298377 12.608846 1.0190054 -6.2523403 11.763705
C28H46O4+H+ -37.358723 -12.559909 1.2889975 4.5320477 -16.811451 39.489117 4.6242676 40.775547 -24.044205 29.896936 -10.631387 13.372581 27.08619 31.272272 20.280062 6.8718176 -2.6877477 -0.41227484 -1.0067573 11.172474
C10H15N5O10P2+H+ -29.594282 -8.1938095 0.056716766 5.3255687 -8.475142 31.441639 5.0601487 35.32447 -23.69109 31.893282 -11.450659 14.394782 30.292772 30.311823 16.230352 7.055701 -20.546152 -2.2957747 4.567385 14.643236
C31H42O3+Na+ -23.335224 -8.216336 0.80683994 3.3986077 -18.473492 42.721466 3.939105 43.91893 -23.246405 28.17821 -9.238784 12.410652 29.272491 32.926968 21.600704 8.049112 -6.5165977 -0.78327817 -0.42280367 13.150866
C10H11NO+Na+ -39.008366 -14.655709 2.2286477 7.1758323 -10.629441 34.05334 4.036277 36.91189 -20.113487 27.868546 -10.357882 12.345899 21.015873 21.550156 10.915113 5.621669 -21.358656 -0.757946 4.114557 14.974671
C13H17NO3+Na+ -29.506392 -9.590971 1.432547 2.0971038 -25.687366 48.90538 4.0136485 47.277954 -26.22615 28.20835 -9.57508 11.688886 19.916275 24.374693 15.701989 5.4919558 -0.7638271 -0.45032132 -1.3592691 9.467166
C8H20NO6P+H+ -38.04188 -13.240796 0.9531412 5.464328 -16.169487 41.622692 5.148721 43.600742 -26.667585 34.045074 -12.096522 15.308139 29.167097 31.915823 19.357094 7.387555 -7.6314635 -0.62512267 0.2746174 14.036906
C7H15NO3+H+ -42.72173 -17.888733 2.1898484 6.2792497 -15.288052 38.069008 4.102805 39.44262 -20.507202 26.965162 -9.53194 12.268104 21.74256 25.297556 16.727991 6.24852 0.5014 1.2047491 -2.476103 12.576844
C8H17NO2+H+ -49.21521 -18.597195 2.3231692 6.059294 -13.620738 33.407204 4.3245554 34.700657 -20.837236 27.373764 -10.319472 12.768963 21.036821 26.117918 18.08124 5.4699917 3.8659792 1.1305624 -2.999808 9.818572
C10H14N5O7P+H+ -23.40291 -6.871001 0.9888633 -0.5574806 -29.561842 48.95671 3.3507886 45.5865 -25.22268 23.922377 -7.82079 9.890497 20.148138 28.755312 22.328379 5.4288464 19.4125 0.50490594 -7.2299395 3.6860173
C29H47NO4+Na+ -30.838335 -8.86588 1.6601263 -0.4751254 -31.72418 50.699398 3.5298996 46.338223 -25.792881 23.72356 -8.233217 9.394607 13.741948 21.951035 16.892347 3.6954465 17.435268 0.57083064 -6.153008 2.0658202
C24H50NO7P+H+ -46.36273 -16.939856 2.426576 5.587541 -15.407635 36.22641 4.2573485 37.2108 -21.278666 27.08662 -10.125459 12.282897 20.972668 25.720778 17.237211 5.4472218 0.31744695 0.5918651 -1.9777014 9.911123
C11H8O5+H+ -1.0845834 -0.55303454 -0.03772961 0.48773345 1.0671527 -0.4251233 0.17060785 0.044274062 -0.22344308 0.9483558 -0.3681006 0.5508024 1.4000945 0.98247266 0.35921037 0.34817958 -1.643987 -0.065368064 0.4256063 1.0318011
C8H20NO6P+Na+ -41.555164 -16.041775 2.3958738 2.7404025 -27.774559 49.168545 3.8061337 46.523968 -24.217176 25.959118 -9.019622 11.291886 17.254324 25.49885 20.157846 5.191703 20.062613 2.0762215 -7.8224707 5.90976
C26H54NO7P+H+ -42.487892 -17.407242 2.9888725 4.268298 -23.96438 46.391167 3.5320966 44.95843 -22.42711 25.395525 -8.962728 10.966681 15.385737 21.36609 15.446268 4.913972 8.0556555 1.7183137 -4.572265 8.656771
C14H10O6+H+ -58.35263 -21.173004 1.1422629 9.705334 -8.158487 37.058167 6.86402 43.029064 -28.266457 41.78745 -15.227704 20.366959 46.98215 51.96704 34.61482 11.520631 -6.3981524 -0.23981214 -1.0865515 19.53637
C26H52NO7P+H+ -39.02311 -16.518494 2.8273401 3.3609807 -24.631804 44.950436 3.1714146 42.95361 -20.832836 22.543285 -7.791184 9.818699 14.895549 22.418373 18.012945 4.847999 16.703701 2.2093923 -7.065347 6.371853
C26H50NO7P+H+ -13.091581 0.5879031 -0.7516244 -3.8584945 -37.077232 58.096523 4.3005586 52.96528 -32.376266 29.01997 -9.17697 11.40265 24.341145 32.603306 23.669752 5.9293747 18.204384 -1.249445 -5.7920566 2.3722734
C18H12O7+H+ -1.1864926 -0.5795032 -0.049402844 0.4682238 0.9432742 -0.31442493 0.2071974 0.1661945 -0.25288752 0.9948072 -0.3735782 0.51712406 1.3534087 0.9927041 0.41768324 0.3437764 -1.3825477 -0.046482634 0.3287814 0.96826154
C8H20NO6P+K+ -32.572136 -8.375661 -0.008617522 3.8132885 -16.79836 41.552486 5.52223 43.47396 -28.464054 35.17756 -12.452798 15.499574 32.371994 34.735416 20.375093 7.675417 -10.38893 -1.8383435 1.4981985 13.699462
C13H10N2O5+H+ -59.7005 -30.198217 4.3295593 9.587763 -10.513951 30.32301 2.8803687 32.089653 -11.849811 20.415579 -7.502749 10.70246 15.532965 21.912104 18.980225 5.9559426 19.119408 5.2368965 -9.172302 11.889332
C9H17NO4+H+ -37.041306 -16.560913 2.9107869 3.7669876 -23.69869 44.861115 2.9280357 43.400425 -19.865387 22.190771 -7.386286 9.889614 16.982168 24.421354 19.727385 5.69618 16.23071 2.4502552 -7.4594293 7.884548
C18H26O4+H+ -1.0269893 -0.5401862 -0.024342217 0.44693083 0.9218986 -0.31699374 0.17505947 0.07179796 -0.20497999 0.9004234 -0.34974703 0.50137913 1.1894282 0.8764918 0.32894227 0.32157034 -1.4182923 -0.05654388 0.34775922 0.9188611
C24H50NO7P+Na+ -24.5695 -7.2625203 1.0130641 -0.5978052 -29.622 48.514107 3.347109 44.68644 -24.60578 23.399483 -7.719921 9.373248 16.223148 23.334164 17.53032 4.5796857 16.23064 0.5077712 -5.730172 3.4572053
C5H5N5O+H+ -39.95527 -7.332722 0.46281642 1.7092128 -19.101274 37.879555 5.4040627 38.12536 -28.240788 32.261642 -12.22221 14.380185 31.887547 39.300846 26.494589 6.373289 0.883736 -2.3788514 -0.8957998 5.4867635
C29H48O4+H+ -1.1500019 -0.5625815 -0.027602855 0.49744633 0.83912563 -0.14748138 0.16424562 0.2663412 -0.30830926 1.0325627 -0.35437843 0.5260137 1.346962 1.024938 0.44660565 0.33489314 -1.467678 -0.027115751 0.33557156 0.99986356
C4H9N3O2+Na+ -28.177397 -12.716308 -0.17199165 6.437323 -6.8512 28.873209 4.4179325 32.495945 -19.159687 28.37184 -9.484216 13.307183 27.178303 26.80121 15.851135 7.4877596 -6.791048 0.6051332 0.028123444 16.530272
C10H13N5O4+H+ -53.13571 -22.33583 2.1572175 10.416137 -6.200623 33.567013 5.408681 39.010044 -22.598938 35.207508 -12.963433 16.81727 31.77007 33.128143 19.911192 8.486406 -13.805648 0.5471349 1.0073893 19.595575
C28H50NO7P+H+ -3.7110536 -5.4423137 0.08095101 5.333335 -8.813173 32.57417 2.4666202 35.193375 -14.462407 20.169489 -5.7145343 7.893678 13.092226 6.078128 -2.9667857 5.0683894 -32.564976 -0.70823956 7.5258102 19.18608
C10H15N5O10P2+Na+ -61.637646 -23.792837 2.9998517 8.514132 -12.084478 35.632843 5.200233 38.728645 -23.15065 33.199753 -12.598976 16.1046 31.014475 37.381847 26.332125 7.9162574 3.53325 1.330069 -3.7774465 13.182272
C10H15N5O4+H+ -55.78981 -25.235914 3.7487 4.981394 -27.663866 49.066933 3.5988016 46.332447 -23.31775 25.427614 -8.87681 11.697341 14.823825 25.515491 23.012188 5.282763 35.566734 4.6938934 -13.155342 5.25065
C10H14N5O8P+H+ -19.998886 -6.2433968 1.1491113 0.10224768 -30.538952 53.624916 3.4039066 50.62546 -26.569616 26.092937 -8.25228 10.418386 19.888885 25.932936 18.268047 5.837642 7.0606327 -0.15730065 -3.788723 7.088136
C4H9N3O2+K+ -44.06516 -22.158037 0.8697638 8.5782795 -1.088794 17.808643 3.9360652 21.892607 -12.505708 23.153643 -8.07057 12.318381 25.16608 27.803423 20.77541 7.429323 14.725524 3.6159565 -6.678555 13.311283
C6H14N4O2+H+ -56.46454 -19.023035 2.1670475 1.0015231 -31.455908 47.813778 4.5841837 43.44188 -26.882847 27.0118 -9.975603 12.535122 23.36363 39.022346 34.581444 5.7094326 50.303818 3.1620548 -15.950819 -2.1630878
C30H50NO7P+Na+ -17.198425 -15.595724 1.1844281 10.846719 1.3697172 26.028759 2.8188 32.13661 -11.316041 23.23628 -7.0034337 10.123262 13.172176 1.8357397 -7.8590417 6.0960155 -42.631336 1.057662 9.288367 27.329185
C10H26N4+H+ -0.5683411 -0.58267075 0.053990997 0.42527148 1.0558436 -0.7246496 0.017183362 -0.36252278 0.36675024 0.19837739 -0.076175325 0.20272075 0.66777396 0.44637907 0.2302033 0.21004552 -0.98896044 0.049328357 0.18667838 0.75407934
C4H9N3O2+H+ -0.5973389 -0.57400733 0.0068806037 0.43612456 1.0884892 -0.7840074 0.026043432 -0.36182788 0.35484943 0.21405743 -0.083458774 0.20231846 0.74200267 0.46443155 0.21701317 0.24836636 -1.0405703 0.06430818 0.17040674 0.8018182
C30H50NO7P+H+ -9.224947 -14.531137 2.1183434 6.5941734 -16.127232 42.98818 1.3433093 43.49208 -11.9524975 16.784664 -3.7214801 6.4135776 3.9076054 -1.7840103 -5.3149414 4.9124637 -15.530616 3.2699747 1.12215 20.393782
C11H20N2O3+H+ -75.53563 -36.750065 3.6870313 13.053368 -3.522475 25.78484 4.7982244 30.799833 -15.778843 29.608658 -11.080491 16.268696 30.32657 37.76126 30.621792 9.157026 24.952702 5.706133 -11.293213 15.491975
C5H5N5+H+ -0.5477668 -0.5384999 0.04196248 0.3970676 0.92620206 -0.62932146 0.011450802 -0.29496843 0.30036017 0.21207555 -0.06788055 0.19373105 0.66310906 0.4251206 0.19728173 0.20025998 -0.8889064 0.06872997 0.17043817 0.6944116
C10H16N4O3+H+ -36.16442 -26.401054 2.2530391 10.206312 -3.3846946 23.617056 2.2637281 26.760897 -7.2119646 17.127012 -4.9271884 9.093208 12.174529 11.301328 8.891847 6.355033 12.481593 6.1583033 -7.200009 17.50715
C26H50NO7P+Na+ -58.47785 -17.557812 3.5831306 3.7515657 -16.106644 28.916834 3.778053 28.764526 -19.41269 22.657492 -9.793702 11.0777645 21.673168 34.267765 28.21316 4.3004436 18.484274 0.34282976 -6.930386 -0.03892658
C23H45NO4+H+ -39.79246 -17.069384 1.0116384 -0.98790205 -29.852203 39.60653 2.9156737 33.998165 -19.19282 17.095554 -5.2837253 8.8369665 18.76738 35.46031 36.397327 5.64425 72.81913 5.601416 -22.833368 -5.3279676
C30H52NO7P+H+ -19.128843 -19.74153 2.261148 6.1806755 -16.110884 36.945526 1.05306 36.049175 -8.320827 12.004202 -2.2656233 5.2037 2.0390687 1.1734471 1.8608581 4.46168 13.202091 5.8195305 -7.1075873 14.527135
C10H14N5O7P+Na+ -42.632973 -16.689522 2.9492166 2.2091215 -41.77022 71.33873 4.3644724 66.577995 -33.50694 33.388954 -11.043985 13.692762 22.187166 32.36409 24.793373 6.952013 19.473703 1.6170307 -8.206657 8.218172
C9H15N3O2S+H+ -0.62129086 -0.5995773 0.017562872 0.43321958 1.0904459 -0.7331258 0.05050928 -0.3725439 0.37971625 0.18933703 -0.05696535 0.20284317 0.6895784 0.43043128 0.20702636 0.2376289 -1.0199391 0.05421079 0.15121575 0.7660686
C10H12N4O5+Na+ -3.1332648 5.2700315 0.5965566 -1.839128 -33.55389 61.061073 3.6728325 57.67101 -31.179722 28.698189 -9.395626 9.252603 11.653112 9.496135 -2.1663842 2.9369535 -36.344368 -4.7320313 10.241831 10.5027485
C25H47NO4+H+ -59.27423 -33.73983 3.6417253 7.7890096 -10.98504 21.51134 1.8677034 21.140808 -5.982726 12.066939 -3.9203084 8.44487 15.316643 28.131628 31.425737 6.4635487 64.74884 9.186008 -22.649088 3.8199387
C14H18N5O11P+H+ -37.653557 -9.685957 0.18392195 4.3242073 -15.688076 41.213295 5.869799 44.336483 -28.94553 37.14189 -13.126863 17.347511 44.710762 51.32323 34.81125 10.609761 -4.6428747 -1.8519535 -0.91336524 14.116858
C18H24O3+H+ -0.7467033 -0.4365411 -0.0054242737 0.380109 0.8227571 -0.36349905 0.11078702 -0.024390304 -0.021444062 0.58167195 -0.20397635 0.35132435 0.90715396 0.6290381 0.24564886 0.22040552 -1.1099197 -0.0022036412 0.27440992 0.7651744
C18H23NO4+H+ -56.036278 -17.20923 3.601262 -0.071526416 -34.633694 49.60989 3.7420466 43.997612 -26.46474 23.927841 -9.349116 10.436023 14.274889 30.001848 27.62441 3.2533772 40.74263 2.0965214 -13.139304 -4.7349086
C22H24N2O2+H+ -82.58355 -30.307678 2.3789506 15.473925 -8.889205 52.55398 9.539283 61.939312 -38.515377 58.689014 -21.821854 27.800657 57.63102 59.321556 34.463154 14.181509 -32.190052 -1.3420892 5.363577 31.107481
C28H50NO7P+Na+ -0.5033313 -0.47079495 0.02487571 0.35821754 0.8490944 -0.59787595 0.03732153 -0.27020118 0.29466507 0.1796175 -0.04960963 0.14732338 0.5583355 0.37112862 0.14939637 0.20191154 -0.799294 0.06968103 0.16524822 0.6338568
C10H16N5O13P3+H+ -0.3388036 -0.34085587 0.010758322 0.26279086 0.5863923 -0.39190492 0.005767105 -0.16686903 0.19306502 0.14780326 -0.027335284 0.11243635 0.42906892 0.27148387 0.1358681 0.14159338 -0.56958926 0.053126883 0.08783094 0.45731115
C18H33NO+H+ -69.585915 -21.183424 0.9348436 10.366213 -17.424482 58.328045 9.575487 64.83475 -43.903778 59.66939 -21.864346 27.590374 60.435078 66.03967 41.129673 14.195948 -19.968744 -2.6813622 2.937277 23.985634
C15H10O6+H+ -60.57708 -13.986267 0.42489564 4.0248785 -34.323578 72.5963 9.208905 73.978035 -48.59396 56.448208 -20.09429 25.28657 60.081528 72.07755 49.401287 13.753518 4.788017 -2.9774854 -3.6853495 14.779137
C18H29NO2+H+ -69.72844 -20.933393 1.6982713 8.530182 -27.434965 70.058495 9.120535 74.19596 -45.387585 58.233677 -20.84691 26.649193 59.56667 67.9335 44.4832 14.623952 -10.86143 -1.9475815 -0.45851028 22.728477
C28H52NO7P+H+ -0.55889994 -0.5720954 0.03181805 0.41244417 0.96025807 -0.6741404 0.009536683 -0.3048607 0.34097993 0.20336787 -0.06529667 0.17254515 0.66331923 0.40305144 0.21056469 0.22963342 -0.9002611 0.09514702 0.17142813 0.715983
C24H48NO7P+H+ -0.50391555 -0.49348617 0.036984056 0.3661109 0.9368449 -0.68355185 0.010048885 -0.35824984 0.32442647 0.203006 -0.06730487 0.17063323 0.5911571 0.3704255 0.18181327 0.18046594 -0.8789604 0.04889065 0.1490511 0.6389104
C21H26O3+H+ -0.38504153 -0.08602162 0.0075581176 0.08023437 0.10279616 0.055296008 0.026714977 0.11117748 -0.08742334 0.2525836 -0.10383513 0.11143657 0.2699404 0.25133827 0.08680729 0.02944729 -0.34771997 -0.05685249 0.07585711 0.13176648
C9H14N4O3+H+ -22.429827 -25.484888 2.337558 10.736709 -11.010382 41.189774 1.8659692 43.465034 -9.660263 19.337994 -4.3131638 8.671002 5.1682377 -1.9386073 -4.413561 6.5256214 -4.494213 6.8182087 -3.0636704 25.983927
C25H49NO4+H+ -10.740278 -2.0606139 0.6068339 -7.977578 -33.96874 32.076893 0.1536727 22.359627 -12.114949 1.1836994 0.3833478 0.3418692 2.766268 20.225233 26.800873 0.9738248 73.68692 3.7611141 -21.622887 -16.897264
C22H22O7+H+ -0.4313964 -0.38775408 0.00062053115 0.28471485 0.7379256 -0.51779175 0.043638173 -0.28457373 0.24652237 0.16594319 -0.048523996 0.14602494 0.5104701 0.3057144 0.1391645 0.17240292 -0.72386616 0.039508365 0.1399054 0.5026658
C21H36O3+H+ -0.4782009 -0.46796963 0.045038592 0.36127838 0.81741446 -0.56947345 0.018049471 -0.30684724 0.27177674 0.15762745 -0.062709376 0.17099932 0.57182795 0.32644367 0.18408106 0.19680329 -0.7647146 0.07519141 0.13480656 0.6055587
C11H21NO4+H+ -0.43518606 -0.45916164 0.021191044 0.3269306 0.8071258 -0.53753746 0.004884202 -0.27465177 0.27926317 0.16728891 -0.039491553 0.15292767 0.5309833 0.35896316 0.1515461 0.16245006 -0.7726546 0.056325153 0.13260934 0.5813194
C8H18NO2+ -79.63391 -26.013067 2.2815301 10.702995 -22.257584 63.238907 9.390042 68.103294 -43.962627 58.126255 -21.56431 26.63928 53.427574 60.037872 37.593822 12.643506 -12.046205 -1.3292559 0.5307572 22.099257
C28H46O4+K+ -0.13664846 -0.028077884 -0.0066633597 0.04490667 0.22307974 -0.19497879 0.020360712 -0.14110644 -0.007884773 0.007660264 -0.027278433 0.042890023 0.042055354 0.05662281 -0.012760552 0.0037541091 -0.043571614 0.00036892414 -0.0043293163 0.04395279
C7H16NO3+ -47.89169 -8.425407 0.46005633 1.6802777 -46.06733 89.07861 8.959578 87.089485 -53.67719 58.072556 -20.20878 24.004463 47.287457 54.507362 32.706757 11.107612 -11.755982 -3.9463978 1.9249257 16.380913
C9H12O4+ -84.23062 -32.585842 4.0196414 9.518026 -37.189457 79.91156 8.293889 80.73281 -44.954674 55.158016 -19.431423 25.39963 50.884205 63.693016 46.405838 13.703917 17.962288 2.0140853 -9.629768 19.216278
C5H15NO4P+ -41.409096 -15.353259 3.887122 -0.57871044 -45.22811 69.605194 3.1133153 63.205563 -29.086325 25.564228 -8.142138 10.685888 21.992863 38.394203 34.45345 7.1350017 41.043564 2.6637366 -15.081833 0.7281413
C24H51NO7P+ -57.386925 -21.773252 4.433974 6.4590955 -10.764462 24.385502 2.841189 24.810598 -14.135182 19.295694 -8.235191 9.098713 3.6586442 9.24993 7.7138214 1.2119627 5.033405 1.6025794 -3.129372 3.6417873
C12H18O6+ -43.49933 -9.439982 1.3505278 -0.7421642 -36.506477 59.664986 5.484686 55.5978 -34.519413 33.59164 -11.997127 13.997099 28.912937 41.325897 31.039476 6.6086693 19.015165 -1.133202 -6.57963 2.268451
C21H41NO4+H+ -0.31832665 -0.22370459 0.0030724937 0.19429353 0.58426327 -0.46093175 0.038340963 -0.24269426 0.15078986 0.14000791 -0.039321277 0.11077333 0.37504697 0.23652846 0.07844317 0.13211855 -0.6717284 0.015291958 0.17111102 0.40079808
C14H16O6+ -62.20784 -21.984173 2.970589 6.5366426 -29.878798 63.820633 6.5484304 64.401245 -36.291855 43.859257 -15.60435 19.852547 39.23486 48.54803 34.089134 10.300906 4.4031262 -0.016421426 -4.1357617 14.2803
C15H15NO3+Na+ -25.02172 -9.283464 2.0034025 2.5835855 -17.232035 34.785595 2.4915717 34.618526 -21.270662 24.729229 -8.464661 10.913494 18.341213 23.673443 17.433434 5.4004745 2.2602608 0.60970694 -3.076311 9.105081
C26H55NO7P+ -30.580542 -11.418125 1.8673506 0.64565885 -30.840757 51.62326 3.2434242 48.311337 -26.861168 25.885584 -8.508489 10.892992 22.944563 33.743996 27.14627 6.3961673 22.24735 0.8783159 -8.450103 4.694026
C21H28N6O4S+Na+ -0.61810595 -0.7343723 0.01860587 0.56389457 1.2565463 -0.7683463 0.032729868 -0.33137128 0.41721073 0.29960117 -0.0907829 0.2796725 0.91193265 0.5711796 0.28043836 0.31114066 -1.1789157 0.103887275 0.17767787 1.0228022
C26H53NO7P+ -58.17165 -17.186605 1.6104923 4.4025025 -39.881104 79.71676 8.169774 78.63827 -46.810745 53.173313 -18.527481 22.849306 42.91883 50.763863 32.64559 10.865492 1.9499602 -0.8742415 -3.1145504 16.028727
C9H9NO3+H+ -82.404175 -31.980358 4.555194 7.500462 -42.81868 82.90276 7.4037843 81.167694 -43.353306 49.962547 -17.443224 22.680662 41.562668 57.79475 45.398724 11.847363 31.105713 3.1429806 -13.131445 13.781091
C6H15N4O2+ -45.63634 -8.789875 0.6705155 -2.1952486 -52.51507 85.0151 7.2817793 77.87251 -49.147865 46.61499 -16.291748 18.230022 27.52038 38.083233 25.297146 6.1981397 18.242825 -1.3287562 -5.4428267 4.226789
C25H45NO4+H+ -0.15736498 -0.07409553 -0.013846221 0.075605646 0.32583788 -0.24190563 0.030985067 -0.15862966 0.07889627 0.08556192 -0.031963784 0.0704205 0.1960476 0.14178781 0.041092325 0.029021729 -0.36925295 -0.030460902 0.11726751 0.17681497
C15H14O11+ -68.58865 -31.776943 3.8116682 10.923456 -32.863274 77.96824 7.011779 79.955345 -38.988792 50.12992 -16.80765 22.945549 44.30212 52.27698 36.701286 13.537401 8.1749935 3.247667 -7.6833825 24.836739
C4H7N3O+Na+ -0.10429147 -0.09418138 -0.015423416 0.08229074 0.19309416 -0.081560224 -0.011234424 -0.014401775 0.062079202 0.06462381 -0.044581685 0.05255097 0.1168188 0.077169456 0.04732033 0.033293806 -0.26661354 0.003587996 0.05834752 0.1913449
C28H48NO7P+H+ -0.17498122 -0.13340443 0.026101958 0.13392371 0.3207799 -0.211036 0.028227113 -0.08787485 0.09471895 0.090716355 -0.037493218 0.07721991 0.24127714 0.14687139 0.044820916 0.06967273 -0.3355481 -0.0021166406 0.062236663 0.20405243
C6H6N2O+H+ -0.6888323 -0.73166245 0.05091984 0.5228059 1.1819717 -0.69445086 0.0053872536 -0.23553213 0.40383753 0.25561374 -0.047106475 0.25336134 0.86688066 0.5639367 0.28502998 0.31389022 -1.0355822 0.10739611 0.14003372 0.96295613
C17H12O5+ -64.82649 -22.25595 2.5500152 3.8381824 -48.787525 89.47619 7.814324 85.854675 -48.847336 52.241425 -18.01492 22.426664 39.50837 52.36239 37.910027 10.623064 22.337383 0.9286605 -9.351423 12.986538
C27H44NO7P+H+ -0.30506063 -0.2686513 0.00869708 0.2109614 0.5670687 -0.4172876 -0.003048423 -0.18885753 0.18693136 0.09955513 -0.04295175 0.10537581 0.363892 0.2097488 0.11410152 0.11328874 -0.55075276 0.035471853 0.13281459 0.36198804
C12H20N2O7+H+ -62.58353 -3.1135232 0.2902782 5.2220325 -18.407354 56.226322 10.742836 63.616867 -52.59656 65.610176 -25.720778 29.554077 75.14126 84.14106 50.3415 14.138597 -50.78878 -10.761329 13.422967 17.962433
C28H28O6+Na+ -0.6773273 -0.76822054 0.04779701 0.5566717 1.2229186 -0.7778826 0.009651274 -0.29134136 0.43006283 0.28318185 -0.07970892 0.24451315 0.87094486 0.5658902 0.25340623 0.32105058 -1.1206843 0.123180285 0.16780314 1.0550705
C24H31ClO8+H+ -0.71304464 -0.85182965 0.056169946 0.5967086 1.3260199 -0.7994696 0.0142882345 -0.28843698 0.4891498 0.2804782 -0.08649709 0.24925523 0.9469502 0.5781796 0.28835997 0.36493102 -1.1827685 0.14379586 0.18107793 1.0851231
C13H15N3O2+Na+ -72.104256 -30.999601 3.5379221 8.186217 -40.732788 83.59199 7.3913126 82.98819 -43.84042 52.83184 -17.682634 24.098969 46.287598 58.563847 44.32754 13.992418 26.747 4.2934656 -12.986443 21.136284
C12H16N2O5+ -90.77971 -38.902843 4.186426 14.178581 -26.55108 72.70943 8.640956 77.12649 -41.54769 58.02148 -20.465317 27.471684 52.448753 60.43729 41.636093 14.892831 6.1890936 3.4502351 -7.1845417 27.579573
C11H18O11+Na+ -0.6195391 -0.7148474 0.05918843 0.509987 1.0710647 -0.641039 0.027303439 -0.22136213 0.40952393 0.2544653 -0.07143051 0.20289479 0.76773036 0.49763075 0.263615 0.2914171 -0.98255414 0.088848054 0.13368005 0.8996591
C14H17N5O8+H+ 25.419014 22.93511 -3.5411055 -9.142839 -35.99481 55.984863 3.9527678 50.799057 -33.816116 26.6064 -8.054701 7.990823 20.989153 21.241653 7.3373237 3.6255789 -24.429214 -7.5071406 8.777929 2.9093006
C7H19N3+H+ -0.77565044 -0.7987484 0.027794067 0.585146 1.3174449 -0.8538299 0.010926951 -0.37571073 0.48488134 0.23481755 -0.0573281 0.25214493 0.8702794 0.5574551 0.285169 0.32767823 -1.1646174 0.14503145 0.15563707 1.0150266
C10H15N3O5+Na+ -55.303097 -15.489597 3.245701 -0.37454635 -55.32009 89.858864 6.296102 82.42885 -46.859074 43.398514 -15.232923 16.954666 22.694645 36.096313 26.335836 5.8880396 22.698692 0.17705566 -8.182742 3.8369193
C26H44O8+H+ -0.20502272 -0.047846287 0.0007619601 0.09998362 0.3344435 -0.36173543 0.027152034 -0.2372772 0.06599034 0.07112608 -0.037616376 0.070605226 0.15192524 0.109556615 -0.005140503 0.023457736 -0.4071179 -0.009845796 0.1209039 0.11396064
C5H4N4O+H+ -0.6743615 -0.83214647 0.036200974 0.5565528 1.2070827 -0.7493551 -0.0005493911 -0.25030157 0.46774817 0.2492141 -0.029798863 0.2291968 0.8400727 0.56349486 0.2779705 0.32599813 -1.01779 0.12119546 0.11853518 1.0416284
C32H48O7+ -22.569569 -21.490383 2.1361818 7.580188 -34.483818 76.778404 3.7050297 76.07655 -27.221836 32.657364 -8.142743 13.340275 19.975742 19.441044 12.16289 10.054659 1.9784157 4.68242 -5.6323576 26.205568
C18H30O+H+ -0.6281888 -0.17644793 0.022013469 0.12141748 0.25871754 -0.064518996 0.07840483 0.07900448 -0.14777043 0.33596957 -0.14900078 0.15436324 0.44220027 0.37729958 0.17428012 0.06973037 -0.5524372 -0.07145825 0.16933177 0.2303743
C17H13NO3+H+ -0.18347241 -0.031733453 0.011135239 0.08132492 0.31216428 -0.2943115 0.024924444 -0.18572272 0.043887157 0.07141934 -0.06104783 0.030248042 0.14425749 0.10491809 0.025799574 0.033127517 -0.3543669 -0.050974675 0.117500186 0.10867063
C28H51NO7P+ -23.049128 -25.236038 2.681126 9.2984085 -30.35749 71.494095 2.9423401 71.095665 -22.339186 29.312445 -6.830474 12.145723 15.172523 11.493704 5.5198016 9.598271 3.2860556 6.585727 -6.4382806 27.53109
C14H26N4O11P2+H+ -28.242132 5.5669193 0.19548978 -2.3336456 -38.12566 69.45345 7.077948 67.48722 -46.00007 46.042812 -16.900757 17.829546 37.700726 43.507812 22.74883 6.782393 -33.204353 -7.945919 9.611255 8.613615
C23H46NO7P+H+ -7.787105 2.9895499 -3.445895 2.0498981 -10.557991 36.100346 6.251072 40.47788 -29.275377 37.5132 -12.271647 16.807714 48.943676 48.870205 28.511747 11.331462 -21.865278 -4.3558655 5.355388 18.029709
C23H44NO7P+H+ -0.7043801 -0.7048705 0.034337386 0.5110571 1.2073874 -0.8349079 0.0350441 -0.36367065 0.4214287 0.22335295 -0.056161556 0.23549215 0.8045137 0.50749886 0.25916427 0.26254183 -1.0974879 0.07540806 0.18262514 0.89544475
C25H36O3+H+ -0.13927922 -0.020615531 -0.017268376 0.049021084 0.26025358 -0.27377504 0.015945628 -0.19045763 0.07631803 0.04985685 -0.034858875 0.02998573 0.13718523 0.061316058 0.014800239 0.013019228 -0.29919344 -0.028305754 0.09824387 0.102272846
C15H15NO3+H+ -0.095126465 -0.026742388 -0.022670373 0.058464564 0.20243396 -0.21756011 0.032711186 -0.17436841 0.02241762 0.054202594 -0.012780878 0.028568514 0.08636862 0.077635 -0.0024964781 0.019126225 -0.21832003 -0.009403942 0.059785686 0.08350427
C10H13N4O8P+H+ -0.022887114 0.02896043 -0.0056282342 0.015948836 0.049168516 -0.05337502 0.018164959 -0.041610196 -0.025333673 0.008755983 -0.0035062158 0.011305269 0.03258555 0.051898867 0.0034116982 0.01890311 -0.10485462 -0.03443338 0.0248241 0.026692377
C34H48O7+ -41.20508 -35.07731 3.6630514 18.368351 -16.552887 73.451324 5.351001 80.893875 -26.864637 46.006355 -12.958681 20.279125 29.156418 16.485285 1.0459142 13.76326 -45.93022 5.167927 6.064184 49.04479
C11H21NO5+H+ -0.07766218 -0.02254453 0.020546481 0.019532477 0.17249715 -0.1784341 0.032945905 -0.12463738 0.022477217 0.050764106 -0.037278455 0.04506668 0.05846368 0.037521698 -0.006884302 0.03172252 -0.1769444 0.011316961 0.038697585 0.063111156
C6H12O6+Na+ -0.15273754 -0.04603979 -0.019852826 0.057667833 0.24627319 -0.23971096 0.038254403 -0.16507787 0.07051349 0.056511335 -0.04873131 0.020197611 0.12986168 0.04395204 0.024744453 0.002953803 -0.31659284 -0.022976069 0.08841457 0.076502725
C10H14N5O5+ -27.861084 12.218089 0.7584007 -10.283923 -62.32517 89.96512 6.8394637 80.38283 -55.560196 44.374077 -16.66818 15.504055 30.759167 47.355938 31.039568 4.044538 -2.5936055 -8.654057 2.0356357 -7.248789
C10H13N5O5+H+ -28.503704 12.621712 0.5072589 -8.097336 -54.30414 82.93227 7.219785 76.04984 -54.313362 46.985237 -17.949331 16.97774 34.413124 46.879044 27.32246 4.5835934 -21.046701 -9.893213 7.4958196 -2.5869937
C11H19NO6+H+ -0.043678418 0.008164537 0.0030637826 0.021564087 0.11623623 -0.1378449 0.015298668 -0.080318615 0.02124859 0.034982663 -0.01272315 0.04042275 0.056555554 0.046839863 -0.017895905 0.027851682 -0.14884537 -0.019704303 0.017480813 0.047950175
C23H43NO4+H+ -0.12800168 -0.026586665 0.007698167 0.060731374 0.27248383 -0.2441695 0.016670847 -0.15373835 0.036797546 0.10062041 -0.02732413 0.050540928 0.18271823 0.08804554 0.028183283 0.036577094 -0.3462952 -0.050834835 0.095567666 0.11077702
C37H66O4+H+ -0.12447422 -0.111354 -0.016627625 0.096083455 0.32478577 -0.24442954 0.014708074 -0.13224123 0.050807606 0.09509352 -0.026155313 0.091011986 0.20564571 0.12537941 0.029847927 0.03728275 -0.3597788 -0.0050162356 0.07655749 0.18343942
C8H14N3O7P+H+ -24.579092 2.5029001 2.4782486 -12.94463 -84.41969 113.099976 4.419914 95.831024 -52.800816 35.120434 -11.313232 10.903585 11.010051 31.840176 27.922615 2.673015 50.69043 -1.0116457 -14.731828 -12.66324
C10H13N4O8P+Na+ -0.10542703 -0.08151098 -0.009391159 0.071613386 0.17529255 -0.05421478 0.013632449 0.042835347 0.029944628 0.09383694 -0.035192534 0.071679726 0.1972128 0.1432486 0.09253017 0.053236537 -0.2657738 -0.0077723255 0.027555551 0.1592099
C12H20N2O3+H+ -0.068312176 -0.038636673 -0.0114975115 0.046743523 0.1652209 -0.181202 -0.0059039993 -0.13333653 0.019591555 0.044899713 -0.04489899 0.024438342 0.08826533 0.06527099 0.005512815 0.005246577 -0.1902269 0.00718378 0.038376283 0.0639548
C10H13N5O5+Na+ -4.676146 28.255373 -0.40751362 -18.116917 -72.76432 92.624084 5.7165737 77.79232 -57.069923 37.50643 -14.401097 10.3267975 16.317978 31.766432 17.914305 -0.9324074 -7.901166 -11.747742 6.1642895 -17.85336
C14H10O8+H+ -0.7100072 -0.85232097 0.026906755 0.5845539 1.2652996 -0.7626985 -0.0014228537 -0.2964991 0.48419616 0.24480705 -0.051332504 0.24118628 0.91494083 0.55261225 0.28967357 0.32786453 -1.092426 0.12131658 0.11473746 1.0644295
C5H11NO2+H+ -0.079713926 -0.0469284 0.0049058157 0.03370953 0.21441811 -0.17451766 -0.008263214 -0.15359391 0.01318076 0.018191952 -0.04500828 0.043480605 0.09834467 0.033639565 0.006216524 0.0034034555 -0.23101936 -0.011255336 0.057789337 0.05443631
C9H17NO8+H+ -53.299267 -33.445374 2.985947 11.803409 -33.406 81.64463 6.0626516 83.086494 -34.905113 45.813423 -13.553018 20.632305 34.636494 37.379284 25.7104 13.337747 8.92991 5.7113614 -8.518373 30.233557
C10H17N2O5+Na+ -42.616714 -30.23565 2.3830433 11.002539 -32.87866 80.80263 5.539091 82.41645 -33.06729 43.620197 -12.154892 19.74581 38.5532 41.536846 29.395052 14.722735 11.577368 5.9200535 -9.741042 31.426105
C34H50O7+ -43.02933 -40.597538 3.2010264 17.331772 -11.569263 55.93755 3.6000535 61.442486 -14.811699 31.522427 -7.580287 15.078882 19.64196 11.605479 5.076273 12.127177 -0.8526577 9.845783 -6.696201 39.51687
C10H15N3O5+H+ -15.58353 10.260243 1.1117256 -13.977431 -70.81289 89.330284 3.930409 74.08287 -45.12271 27.832996 -9.472088 8.030705 11.659899 30.655825 25.741009 1.31857 38.463257 -3.4587176 -9.964802 -15.739073
C7H7NO2+H+ -0.11972114 -0.0409514 0.015583038 0.05559849 0.17762636 -0.17422707 0.02764884 -0.13991155 0.018180937 0.017862853 -0.0025341436 0.02167172 0.098668344 0.06802736 -0.009851913 -0.004293873 -0.20328166 -0.008429681 0.060015317 0.050154112
C10H19NO4+H+ -0.056294706 4.2180298e-05 -0.0002724404 0.013040319 0.14133148 -0.14191379 0.010257868 -0.08424135 0.016273005 -0.0017934283 -0.006300365 0.003824452 0.0724811 0.024155157 0.024968231 0.01997124 -0.116872765 -0.01735996 0.036080908 0.020465357
C35H66O4+H+ -0.1061349 -0.021248719 -0.0003229157 0.06650512 0.15416071 -0.13699342 0.009859855 -0.10191493 0.051246434 0.01287161 0.0045752283 0.025156673 0.08412408 0.07173002 0.026516875 0.025597688 -0.20100583 -0.012200822 0.049979165 0.074698135
C12H23NO4+H+ -0.064484715 -0.037317123 -0.008352521 0.037013568 0.13623278 -0.1634322 -0.001852669 -0.0847903 0.013833214 0.0040359413 -0.018292554 0.007826888 0.08888846 0.05433948 0.023114817 -0.002066084 -0.18050346 0.008091492 0.061713032 0.03363367
C9H20N2O2+H+ -0.0363716 -0.0033507573 -0.0010491132 0.0030384432 0.08038119 -0.10211536 0.016671956 -0.08008726 0.035578817 0.016995557 -0.030508826 0.02548647 0.030610222 0.025361734 -0.015611846 0.0136207715 -0.1256128 -0.0039001945 0.017199963 0.033958185
C17H26O4+Na+ -0.026438134 -0.034483064 -0.0023611258 0.045716684 0.08547927 -0.107217014 0.008657149 -0.059102885 0.02519462 0.007661177 0.0053460198 0.01337011 0.054046493 0.03889139 -0.007814709 0.008710782 -0.101403594 0.011780889 0.023299633 0.044308815
C19H22N2O+Na+ -44.840942 -4.512843 2.270639 -3.2809317 -35.644344 51.095222 4.733247 45.994457 -32.414093 28.296598 -11.4491205 11.405967 21.537407 36.188133 27.859642 3.0684798 16.149317 -3.0262144 -4.6337776 -5.997384
C18H23NO4+ -46.935368 -5.5344825 2.3199139 -3.1848166 -35.945377 50.82361 4.707369 45.5166 -32.104584 27.936413 -11.456798 11.429655 21.330288 36.670303 28.770647 3.0282154 20.09629 -2.6754107 -5.7915545 -6.729943
C14H20N6O5S+H+ -0.55420065 -0.6694455 0.048598234 0.45259678 0.9666849 -0.5762648 0.023244768 -0.22834101 0.38856214 0.21026911 -0.035280373 0.19596787 0.66053444 0.44012502 0.23610541 0.25915128 -0.82262105 0.08796426 0.11686094 0.83010864
C29H45NO4+Na+ -0.62589324 -0.73819417 0.04759313 0.52645856 1.083397 -0.67331094 0.024120783 -0.2402556 0.42614606 0.2006974 -0.066966414 0.21046782 0.77725416 0.49020973 0.28431544 0.29884714 -0.9416734 0.11040297 0.14454895 0.9099839
C10H9NO+H+ 15.994635 26.095173 -3.402252 -16.420355 -46.133377 49.36883 3.2143645 37.782837 -32.850433 16.71556 -5.865011 3.8340714 12.535383 25.107828 18.791187 -0.47406527 24.040081 -6.5524106 -3.1791832 -18.877068
C21H20O7+H+ -0.4969769 -0.5950438 0.017858343 0.40835205 0.87786746 -0.5208436 0.024901707 -0.16455294 0.3247553 0.1910743 -0.050878037 0.19309731 0.62936336 0.38955474 0.2021028 0.21637823 -0.75293434 0.106027745 0.0978468 0.7280717
C14H29NaO4S+H+ -0.029650182 -0.010319531 -0.010621074 0.035866868 0.06663798 -0.047581997 0.014317607 -0.028998783 0.034900725 0.024472315 0.0073625147 0.013614578 0.037923392 0.013732264 0.021707824 -0.00012051611 -0.11438972 -0.012771876 0.05007852 0.045901902
C11H15N2O8P+H+ -0.23856583 -0.2812589 0.02926766 0.22639453 0.44800326 -0.2717247 -0.00023862097 -0.06826631 0.14573993 0.08661397 -0.0047221957 0.10070196 0.32210055 0.24084762 0.13197295 0.1065878 -0.4196795 0.03144933 0.04020751 0.3583325
C19H24O4+H+ -0.061404057 -0.011630444 0.0042489455 0.01812528 0.06260999 -0.05056165 0.028624333 -0.030730667 0.015345632 0.04353317 -0.023072336 0.016387112 0.063077085 0.027598932 -0.014386641 0.0096354 -0.10833716 0.0131428875 0.010797692 0.022295892
C27H44O7+ -7.4226017 5.199507 -4.3754554 1.0992161 -16.510542 46.660477 7.5124965 50.631428 -36.888676 45.306683 -14.72976 20.02971 58.015667 58.756092 34.661415 13.286624 -21.915646 -5.3703556 5.4854 19.685207
C27H30O11+Na+ -0.43046683 -0.47984305 0.02401362 0.3103067 0.7098872 -0.4614551 -0.0010455525 -0.1766716 0.27102086 0.16154222 -0.048657004 0.11577515 0.47207034 0.3117211 0.16790688 0.1986029 -0.6317718 0.064009026 0.11138484 0.5872026
C37H47NO4+H+ -0.28804898 -0.2919178 0.011717786 0.21292615 0.51301134 -0.29247728 0.03566821 -0.114561245 0.16606799 0.14338991 -0.01159921 0.08837223 0.37334767 0.25812456 0.11421601 0.14364398 -0.4823676 0.030705018 0.06037986 0.43166387
C24H48NO7P+Na+ -0.34094766 -0.39544985 0.04146803 0.29426947 0.61981565 -0.393075 0.0038013507 -0.1409357 0.24304563 0.123753324 -0.019473694 0.13599636 0.40896225 0.29452345 0.16009803 0.17268534 -0.51422065 0.053259335 0.046861146 0.5209836
C26H56NO6P+H+ 35.13464 19.868145 -2.759398 -7.9110165 -18.249317 22.637032 0.35854417 18.112411 -11.292761 3.5962567 -0.011630357 -1.1837797 -0.45979342 -2.8690891 -6.309826 -0.7297205 -14.69661 -4.1150436 5.975089 -1.7225361
C25H50NO7P+H+ -47.626835 -22.48301 0.43667474 11.111168 2.4650807 21.629522 5.4949946 29.072138 -17.643303 32.951145 -11.53266 17.162865 40.752262 42.227398 28.416666 11.009915 -2.3606143 1.8827794 -2.537921 21.381235
C6H8N2O2+H+ -0.20702258 -0.17563201 -0.00651324 0.1240802 0.42760593 -0.35354015 -0.004213631 -0.22698483 0.1068461 0.09494075 -0.047916647 0.06781042 0.23680866 0.11940764 0.055646133 0.09134703 -0.40940928 0.01860476 0.08018631 0.22839016
C16H12O9+H+ -0.036828622 -0.014006329 0.009923133 0.027703168 0.010310313 -0.04268297 -0.011157004 -0.040653452 0.014040294 -0.012114569 -0.024003422 0.025750864 0.019646551 0.0037484248 0.0068688057 -0.0012695426 -0.034942403 -0.016306093 -0.010411434 0.0024516205
C26H52NO7P+Na+ -63.671272 -10.60691 3.3206494 -4.095042 -31.255825 33.32852 3.933273 26.458574 -25.97403 20.162907 -10.073801 9.04234 13.552709 35.215256 33.35154 0.07643275 49.767982 -0.6496513 -13.411078 -19.07172
C19H37NO4+H+ -0.03041958 0.01905087 -0.01818449 -0.013780215 0.045444593 -0.021637313 0.00985823 -0.00028339867 -0.0311585 0.011887264 0.00046519865 0.005696292 0.057315715 0.03574196 0.014498854 0.014743089 -0.09039676 -0.011692879 0.028741876 0.031073704
C12H22O11+Na+ -2.8789062 5.6895204 -0.23546629 -4.968096 -13.811266 12.176907 0.7607105 8.259848 -8.63917 3.1955771 -1.6046057 0.5707166 1.9427477 8.217069 7.763797 -0.92492455 13.779798 -1.6030438 -2.8073514 -8.856107
C6H6N2O2+H+ -0.09963395 -0.020005465 0.0020823786 0.046279468 0.20710659 -0.24760807 0.020704579 -0.15954658 0.025015105 0.062094662 -0.03194777 0.03989618 0.09315905 0.072179995 -0.014088314 0.02529837 -0.2752256 -0.033555724 0.063083984 0.076075494
C31H33N3O7S+H+ 20.948812 15.312908 -2.4525487 -6.6053414 -11.113418 10.452072 0.6709181 7.32024 -8.314296 2.6415465 -0.5719981 -0.304374 3.762418 4.7110167 1.6957241 -0.4419606 -2.887688 -3.456814 2.5888739 -5.113558
C26H48NO7P+H+ -22.536085 -8.26944 2.5774276 5.278544 3.0054371 6.2105694 1.1828198 9.933391 -4.5206556 9.838175 -4.3831124 4.9110374 9.045841 8.792094 3.739717 2.1737142 -23.367477 -1.2580527 5.085638 7.7575636
C30H46O7+ -22.600468 -8.3451605 2.5782473 5.293935 3.0507662 6.187663 1.1786085 9.922882 -4.4476438 9.807103 -4.366786 4.8791943 8.993048 8.704862 3.7000406 2.1411774 -23.416983 -1.2489322 5.0826654 7.785243
C26H45NO7S+Na+ 20.667128 16.181042 -2.5039942 -6.739712 -11.392754 11.139433 0.84942603 8.195078 -9.447099 3.840476 -1.1024157 0.09817249 4.9867244 5.8818927 1.9984381 -0.34698027 -5.7672954 -4.010682 3.523843 -5.0107465
C28H56NO7P+H+ 4.112748 8.022101 -2.8210971 -3.195911 -14.581778 25.805555 3.336849 25.070736 -19.439302 19.564692 -6.1507535 8.097203 25.698555 28.392546 18.149757 5.377105 -0.32744205 -3.0563552 0.58394545 3.689175
C32H49NO5+Na+ -0.19483659 -0.21730949 0.02237008 0.17506482 0.3116659 -0.20590219 0.0014930365 -0.090580136 0.1152547 0.045172486 -0.0063834395 0.054059442 0.19903658 0.12704167 0.07194184 0.06489452 -0.24844924 0.044217344 0.05440904 0.27042612
C24H34O2+H+ -0.109965816 -0.12746078 2.6853337e-05 0.08682107 0.17459008 -0.098118976 -0.00703263 -0.031820837 0.05748599 0.054153398 5.517219e-05 0.02148247 0.13845827 0.07391652 0.057174537 0.023345117 -0.12874934 0.013254084 0.043184664 0.1538991
C13H24N4O3S+H+ -21.803133 -1.6419194 1.358471 -2.1181085 -7.7059298 3.830483 0.88355774 1.1690052 -5.917318 2.7178783 -2.634967 0.9147426 -2.8630831 3.6085832 4.471647 -2.5542345 11.52706 -1.0866969 -2.1074216 -9.949357
C34H34N4O4+H+ -0.02695961 -0.016446406 0.0063455226 0.0355644 0.043631002 -0.018553175 0.0041195857 0.016220223 0.016603647 0.009987077 -0.014013148 0.026064359 0.026223334 0.03719277 0.00013512559 0.0040950347 -0.012146566 0.002387316 0.010718055 0.02815045
C27H54NO7P+H+ -0.06674056 -0.0076371618 -0.017171547 0.0067993137 0.11337968 -0.11987572 -0.014278566 -0.08324998 0.042557828 0.010651932 -0.013188652 -0.0017777568 0.060393643 0.01495536 0.014987127 -0.0006427004 -0.13889426 0.009773283 0.022187725 0.009500505
C24H50NO6P+H+ -0.3382533 -0.3505187 0.020935606 0.27275348 0.5625247 -0.34797 0.028391898 -0.14793931 0.23359041 0.08773071 -0.0032750582 0.104047604 0.37567207 0.23955183 0.10877471 0.12442362 -0.47416988 0.043940056 0.05629801 0.47868475
C20H16O7+H+ -0.19041705 -0.0618869 -0.013369061 0.06968373 0.058970597 0.16080749 0.04507742 0.18861005 -0.16158652 0.26458022 -0.0758465 0.13648354 0.33848584 0.26834297 0.12260787 0.07726241 -0.20861897 -0.0013594215 0.060192436 0.1828354
C31H42O9+H+ -0.20245905 -0.21997501 0.016176008 0.17639035 0.32746157 -0.2153665 -0.014370144 -0.06226649 0.14897822 0.088822894 -0.016365191 0.092059724 0.24366602 0.13015564 0.0818176 0.09212784 -0.30368203 0.0518984 0.014506432 0.27243188
C25H31N3O4+H+ -0.004593689 -0.026491161 0.023444314 0.013406872 0.017601099 -0.005498796 -0.01601498 -0.01728564 -0.023720684 0.02762404 -0.020755697 0.03102845 0.017860424 0.018310836 -0.014170662 0.019412288 -0.020241354 0.014969639 0.022199977 0.037698634
C15H10O5+H+ -0.0027494766 -0.0041823275 0.003523457 0.014035203 0.067279935 -0.04613367 0.020336136 -0.019515542 0.020056276 0.0091196755 -0.0061993864 0.016632851 0.059711263 0.029565085 -0.014569293 0.023747379 -0.06812717 -0.017260866 0.010072851 0.015594171
C24H51NO7P+H+ -0.05005902 -0.07023844 0.022225946 0.010869532 0.094406776 -0.03960266 0.005628407 0.009038336 0.041542046 0.02657358 -0.013783821 -0.000991507 0.038194664 0.020885276 0.014150081 0.013096361 -0.08481919 -0.0007791915 0.026297158 0.0375793
C16H18N6O5+Na+ -0.021308236 0.0030809403 -0.0016417068 0.0032310446 0.022699434 -0.022921206 0.015455263 0.012710975 0.0113494815 -0.014280072 -0.023992132 -0.0068638125 -0.0017011586 -0.022952665 0.016076183 -0.010344872 0.0032360451 -0.023486761 -0.012995369 0.01838545
C32H66NO7P+H+ -0.05050878 0.0020913084 -0.0022420785 0.025676334 0.07234938 -0.087644406 0.009690276 -0.09248295 0.009016925 0.008790005 0.0042549064 0.007284184 0.056599393 0.014760319 -0.00656882 -0.0017933096 -0.09706101 -0.020821415 0.019426439 0.048377316
C24H29NO9+H+ 0.0033538486 -0.0147359 -0.019569907 -0.0035824957 0.028272234 0.006787585 -0.010898532 -0.0053733345 -0.015300346 0.01238015 0.018184239 -0.01563876 0.021151898 0.0005944413 -0.014899023 0.0144636 -0.024745472 0.010813327 0.012087523 0.009250053
C18H33NO+Na+ -0.076043576 -0.09957549 0.007814107 0.041038312 0.12107084 -0.08668515 0.008165155 -0.010701816 0.03863953 0.042280227 0.008220779 0.0355695 0.08025989 0.060059328 0.047489718 0.042377986 -0.14183244 0.035681725 0.033420242 0.102190584
C15H23N5O3+H+ -0.02302577 -0.009279891 -0.021085728 0.041916292 0.09757629 -0.08463018 -0.01974492 -0.078026645 0.00029600784 0.02529933 -0.013614285 0.025685376 0.0451806 0.03301718 0.018012593 0.027703606 -0.07778979 0.010308279 0.0018494977 0.0134035535
C15H10O4+H+ -0.008303784 -0.0019513723 -0.013274463 0.01576499 -0.009465275 0.016429985 -0.021933602 0.020309098 0.0095249675 0.0038722402 -0.019136867 0.012087619 -0.002721885 -0.0022972417 -0.006374431 -0.0064271297 0.017930938 0.0231418 -0.0059102755 0.005910069
C12H22N4O5+H+ 0.01639333 0.0050444067 -0.0023962324 0.004613193 0.018352289 -0.02106505 -0.024900345 0.00037570766 0.014487496 0.0024380786 0.008404818 0.014597701 -0.01645458 -0.01563859 -0.007954 0.01642087 0.020027874 -0.019057369 -0.0068718228 0.01260011
C21H26O4+H+ 0.02442471 0.015210462 0.015431064 -0.0152894 -0.012307521 0.010159037 -0.016456462 0.018012056 -0.0116241025 0.012895898 0.002891957 -0.019261587 0.0182261 -0.021576693 -0.007679514 -0.015663614 0.0011789221 0.009966301 -0.008256229 -0.018013552
C25H30N3+ 0.186825 0.192527 -0.05417612 0.013068794 0.44378734 -0.5204497 0.015842749 -0.35635158 0.07960732 0.04495356 -0.03191079 0.04708356 0.5131141 0.49598858 0.26917464 0.10355785 -0.6536194 -0.11417259 0.20945331 0.13137427
C19H19NO3+H+ 0.013643821 -0.025864732 0.006946764 -0.009838457 0.03655374 -0.0264983 -0.023978844 0.01752235 0.015271207 -0.011236212 -0.022406798 0.00026440644 0.030477023 0.006216918 -0.013670373 0.00664113 -0.019354254 -0.022333285 -0.016373204 0.00092059094
C16H28O8+H+ -0.012350289 -0.021021578 -0.002699885 -0.002498977 0.022254467 -0.027933046 0.019717602 -0.013219334 0.005255236 0.0071455725 0.01294662 0.009847347 0.026654733 -0.001784753 0.031019598 0.0065709446 -0.03497441 0.024639888 -0.017185636 0.02317611
C30H26O9+H+ -0.021139387 -0.013092918 0.022101022 -0.0032977886 0.0044936524 -0.0224146 0.014789157 -0.0018875548 -0.0066034584 0.013752646 0.02065129 -0.00062727754 0.021605454 0.0056351996 -0.023678496 -0.017357435 0.02283265 -0.006932481 0.009419662 -0.0062899725
C15H27NO2Si2+H+ -0.0073059034 -0.004988489 -0.009586204 0.023701368 0.011870874 0.015094276 -0.011524216 0.016068589 0.016406672 4.705793e-05 0.02219466 -0.022520157 0.012329717 0.013434313 -0.020466074 0.00020132141 -0.011145542 -0.02150313 0.0021630127 -0.01733838
C24H30F2O6+Na+ -0.0026490188 0.007995303 0.018403921 0.02033412 0.010740062 0.0029422918 0.0148443645 0.015122637 0.019906785 0.013836589 -0.0017479551 0.0133200735 0.002045024 0.0070473133 0.022004325 -0.005711385 -0.017945964 0.0036775335 0.015890056 0.006281621
C15H29NO5+H+ 0.021487562 0.0040305797 0.0025615972 -0.020204043 -0.016702395 0.015971338 -0.00704483 0.022373341 -0.001885622 0.00519545 0.01839377 0.0024690127 0.021183373 0.019998292 -0.0012288986 -0.004069376 0.024523698 -0.017234147 -0.023677606 0.0011217986
C16H33NO3+H+ -0.87559235 -0.3373643 0.08079897 -0.059005156 -0.5884848 0.46935126 -0.0077271736 0.28537798 -0.16110729 -0.02902278 0.0035005775 -0.0037681935 -0.32957616 -0.03597634 0.20049068 -0.08560364 1.394895 0.13159549 -0.38317963 -0.387302
