106 100
C7H15NO3+H+ 4.412156 -10.139539 11.343173 19.27269 0.22382642 -10.711025 -1.011986 0.8718858 -29.435022 -10.159265 16.45687 -24.212835 6.6092033 -0.5136681 2.4668403 -27.021004 11.039726 9.8143 9.101181 -10.951568 -11.021898 6.86414 5.5801773 -17.621485 -7.2729034 -14.828947 2.5387323 0.6342776 6.6096463 2.8937821 -6.279152 1.0962836 8.102353 2.7027009 31.571165 -6.8556437 -1.3160369 -4.2613955 1.2806051 -16.147978 -4.349657 -37.264187 -5.724949 11.131953 -14.86855 -4.3234406 -0.5465416 2.6499388 8.843469 -9.984892 18.848677 -8.366946 13.875107 -3.303857 13.704102 6.448632 -8.260287 27.78856 16.707851 0.1690243 -3.7721946 -1.8355657 -18.96313 -29.18013 -6.8171754 2.1844604 -2.0059383 1.5806917 -2.5379007 -22.062109 -21.511904 -0.977514 22.745253 3.6461508 -6.6836514 -4.6529603 8.033717 -20.12348 -26.8626 -10.643919 -0.6679493 -17.655039 1.7278368 -7.124291 13.401087 1.2064005 -11.322498 -17.069635 5.855828 3.7457 15.146306 -5.470349 8.052958 17.864666 -8.880092 9.447685 2.00371 3.5896866 4.076014 5.2063856
C15H22N6O5S+H+ 5.142508 -11.235751 8.860457 22.690027 -7.692427 -11.723027 7.682129 -2.1923378 -30.222776 -10.490107 21.242485 -28.172003 5.17077 -0.05529549 0.13578276 -28.7732 8.884439 12.45771 12.51317 -14.098063 -7.556706 3.1687584 2.8791134 -21.7591 -5.4635406 -11.382341 1.094311 1.5900828 6.075494 1.6583015 -4.7172585 1.5118624 7.500556 4.051549 29.013508 -9.895255 -1.4838759 -4.263646 1.1661452 -16.365187 -4.735861 -41.654457 -7.002869 13.154088 -15.64377 -1.2687725 1.2296562 3.5829256 8.607442 -10.409343 18.758295 -7.898275 14.013734 -3.268309 13.624933 5.7203236 -6.6308174 24.315117 13.703934 0.7218161 -2.700649 2.8668797 -26.792711 -36.114082 -13.260235 6.1656756 -4.617934 2.8588376 -2.909279 -27.428469 -30.591028 1.5108033 22.317913 4.6089134 -9.230522 -2.3549495 11.270677 -24.954226 -28.986269 -10.333805 -0.69485015 -19.542206 4.479808 -7.1974134 15.751829 4.066882 -12.279027 -14.498791 4.1775966 3.4134302 11.116545 -5.6925235 6.8677893 15.723636 -8.129515 8.317437 2.9387944 2.7333305 3.099154 7.9757447
C24H50NO7P+H+ 6.3997803 -13.35657 8.951945 28.757263 -13.033358 -14.729571 13.254145 -4.02764 -34.388912 -11.906929 24.73804 -32.459095 4.738973 0.35631922 -1.5724113 -32.759907 9.303038 14.992 15.142672 -17.173641 -7.7236986 2.8341198 2.535973 -25.4303 -5.806228 -11.9279585 0.31450483 2.149301 6.4496927 1.9288204 -5.0010467 1.5548826 8.893369 5.9020877 34.173046 -13.936333 -1.0406313 -0.09652125 1.150538 -21.405539 -5.470092 -47.925243 -7.8402476 15.08703 -17.93024 -1.9093437 1.8016987 3.4977682 11.078213 -11.574366 21.594025 -10.142292 16.496695 -2.9701192 15.660373 7.849 -7.9840975 28.980783 16.406733 0.8201133 -3.0555336 4.036122 -32.46353 -42.925606 -13.31478 5.641871 -4.8530684 2.8986773 -3.0205512 -29.88607 -31.881527 1.240343 27.041525 5.515558 -11.7131815 -2.2708292 14.385062 -31.190458 -35.2841 -11.934797 -0.86991316 -24.809061 6.028647 -9.136543 18.844439 5.1356945 -14.780752 -17.053293 5.1762404 3.9539943 13.484605 -6.609599 8.387576 18.618265 -9.620129 10.024858 3.4908369 3.3162334 3.6773577 9.711258
C4H9N3O2+K+ 6.137388 -12.029753 3.9626844 32.1745 -22.309137 -14.006235 23.37901 -7.601027 -31.615427 -11.778159 27.50789 -33.90727 2.7524846 1.0425504 -4.9142847 -33.66462 6.2329664 15.990576 17.161892 -17.94345 -3.4385395 -1.7504679 0.14168593 -27.75363 -4.6285787 -9.955438 0.28214297 2.4198606 5.0311217 0.83110017 -3.3043597 1.4245614 8.314096 5.8586664 29.142914 -15.079332 -2.362516 -6.4415474 1.6536841 -16.535551 -5.931853 -52.58762 -9.405086 16.851135 -18.778534 1.5871437 3.215195 4.768324 10.146787 -12.160749 21.317072 -9.052964 16.370975 -2.833171 15.404262 6.870958 -6.763311 26.461973 13.963711 1.3754517 -2.6605036 6.886317 -38.698185 -49.514824 -19.056353 9.513037 -8.20536 4.273028 -2.9461088 -33.26838 -39.187046 4.460111 23.781355 5.939454 -12.15548 -0.6592415 16.390617 -33.04841 -33.552532 -10.209348 -0.8066454 -23.835346 7.4205437 -8.227995 19.271294 7.45729 -14.0913925 -12.526542 3.5078475 3.4279637 9.187631 -6.6591034 6.749234 14.261221 -7.893156 7.974367 4.23943 1.8262446 2.096229 11.84339
C9H17NO4+H+ 6.3026595 -12.742471 6.271768 30.507164 -17.837883 -14.663696 18.50228 -5.8746023 -33.65309 -12.099979 26.724287 -33.916004 3.9059856 0.7059421 -3.3363538 -34.605503 8.046097 16.049385 16.82918 -18.11638 -5.5945096 0.33929834 1.2579887 -27.745375 -5.4619193 -11.581615 0.48289266 2.461885 6.2323627 1.1302569 -4.2220125 1.8161087 8.636797 6.221452 32.144836 -15.15567 -1.7907181 -3.5869443 1.3679909 -19.588898 -6.208244 -55.108944 -9.60584 17.753893 -19.648027 1.0759546 3.3115559 4.799927 10.574082 -12.860471 22.688168 -9.492539 17.201609 -3.411339 16.370665 7.029817 -7.4389653 28.154472 15.364756 1.151286 -2.9876292 5.1534843 -35.60844 -46.653732 -17.265734 8.317398 -6.8226595 3.8164055 -3.1526334 -32.673687 -37.41865 3.1588545 25.706753 5.8350663 -12.079664 -1.5028535 15.365238 -32.146374 -34.53869 -11.227874 -0.8339668 -24.189802 6.7513433 -8.606228 19.30287 6.4608674 -14.547956 -14.74952 4.319736 3.7469745 11.372216 -6.6994877 7.404354 16.072718 -8.630123 8.811284 3.987153 2.444528 2.7558277 11.101695
C10H7NO3+H+ 1.5145448 -5.8871503 16.020916 1.0279148 22.36619 -4.0156426 -24.643644 8.901268 -20.003498 -6.133229 2.4205859 -9.4187565 9.387113 -2.12787 9.857609 -14.848756 12.710505 2.0386522 -0.10096763 -2.1286151 -15.061378 12.753713 9.065838 -4.5178294 -7.353282 -14.601451 3.6680117 -0.9743817 6.5295486 3.478594 -7.087608 0.8687419 5.697267 -1.0992788 24.655926 2.5598207 -0.46405005 -3.7326636 0.7506608 -10.116105 -1.3948402 -10.3138685 -0.42191395 1.9926164 -6.2909307 -8.262315 -4.0242586 -0.016353965 4.427278 -4.866402 10.443006 -4.7124543 6.864798 -2.8465984 7.583458 3.53511 -6.498396 18.370008 12.852066 -1.0175494 -3.5052428 -9.766514 7.34357 1.3361763 5.731243 -4.6566443 3.7120655 -1.176802 -1.2650124 -4.921445 0.7277142 -4.9702625 13.357974 0.30514014 0.48863494 -6.316454 -2.165284 -1.5743188 -11.382793 -7.22278 -0.3040798 -5.900225 -3.9779177 -3.6175122 3.6125407 -4.80344 -4.967846 -15.261459 5.938826 2.7424128 15.253012 -2.5319877 6.829891 16.100782 -7.295426 8.058854 -0.55222565 4.0886407 4.652705 -2.2421837
C11H21NO4+H+ 5.644969 -11.249241 5.535463 27.880121 -15.632451 -12.669176 16.153652 -5.1005135 -28.819645 -10.4611025 22.95503 -29.135872 2.8573885 0.8089936 -3.6422994 -29.416967 7.2994986 14.165342 14.773273 -15.992375 -4.296026 -0.2760816 0.7869378 -24.376661 -4.4941654 -9.371066 -0.01606155 2.0827734 4.8161745 1.0854926 -3.4534357 1.3071823 7.7468038 5.199958 28.096819 -12.945995 -1.588177 -3.315947 1.3451551 -16.717127 -5.0498486 -44.234966 -7.4439683 13.885683 -16.397932 -0.83607644 1.82662 3.5384543 9.733986 -10.856166 19.819338 -8.886045 14.793934 -2.6205015 14.035285 6.825028 -6.929944 25.277811 14.170889 0.78857833 -2.8181262 3.587209 -29.34038 -38.93959 -12.667829 5.6703978 -5.1997848 2.8663855 -2.5705984 -26.659437 -29.24364 1.8613796 22.560041 4.783516 -9.744408 -2.0234296 12.687994 -27.053814 -29.906044 -9.927288 -0.7289289 -20.872906 4.9468765 -7.648974 15.9925 4.67162 -12.32374 -13.69044 4.2894225 3.3104122 11.085046 -5.7302294 7.0146394 15.058581 -7.913219 8.241099 3.1274183 2.5001235 2.8081005 8.694328
C22H22O7+H+ 5.8829517 -12.594456 7.773746 26.872868 -13.487078 -13.140626 13.97886 -4.379638 -32.857883 -11.556812 24.069033 -31.45092 5.802155 -0.11941203 0.30099475 -31.960144 9.384651 13.462217 13.683046 -15.117124 -7.891975 3.1193857 3.018185 -23.403728 -6.2561083 -13.226449 1.677063 1.7758538 7.3225713 1.512224 -5.388697 2.0746067 7.896258 4.3174653 30.562986 -10.658472 -1.8239121 -5.995793 1.2682306 -16.680595 -5.3449206 -47.30261 -8.154821 15.078266 -17.566412 -0.34829277 1.7327287 4.4486966 9.219683 -12.251813 21.517628 -8.415466 15.8818655 -4.0993786 15.575259 5.7731543 -7.454169 27.735249 15.47994 0.90789586 -3.1312258 3.3281446 -31.254581 -42.37075 -15.400262 7.4432044 -5.6134768 3.367351 -3.1669466 -30.233475 -34.46059 2.175153 23.805826 5.0923195 -10.094951 -2.3504274 12.532059 -27.360857 -31.193909 -10.985349 -0.74509096 -20.94547 5.2079277 -7.5769773 16.82598 4.768041 -13.0165205 -14.74817 4.147312 3.5784023 11.057881 -6.1862664 7.0418496 16.00047 -8.394291 8.523003 3.2264125 2.6404364 3.011524 8.78621
C10H14O4S-H- 2.583906 -9.196204 6.482803 4.330971 -2.2841878 -1.8887513 3.629816 -1.6230989 -19.799856 -7.6000586 14.301773 -19.221674 13.9738035 -4.0371842 16.326046 -21.503054 9.574526 8.74973 9.9166 -8.460051 -8.944379 5.426731 4.6725974 -12.611848 -6.494618 -15.398098 5.5570455 1.269237 12.813219 -2.6098032 -6.2546654 6.4252687 0.38433194 -4.1033506 6.7002344 8.672488 -4.4962234 -32.651535 0.8146616 12.225129 -2.965256 -29.922558 -6.941765 10.005759 -9.161962 8.599651 1.1614833 7.9651365 -4.6929755 -9.878951 10.674369 4.724289 5.4517593 -7.148986 7.57665 -6.5869107 -2.246826 15.198677 6.4328547 1.7584251 -2.1550777 3.0241916 -27.442173 -40.059082 -26.446127 17.243982 -12.43988 6.230789 -2.7721052 -28.3488 -45.17353 9.48513 -0.8139181 1.9918377 0.1825171 -1.1243845 1.9923108 -3.5544798 -2.0748553 -2.161119 -0.028765347 -0.09906563 0.91114056 0.8924833 6.7067895 4.2388525 -2.6004112 2.2688255 -4.1417427 0.7682085 -7.5848284 -1.7790381 -0.5660652 -5.316167 1.3202028 -1.587765 2.9697127 -2.4346886 -2.5500042 8.92197
C10H7NO3+Na+ 1.6060431 -6.0227537 14.798326 3.5651793 18.42306 -3.9422712 -20.381502 7.432684 -21.289787 -6.9054265 4.945379 -12.030189 9.206149 -1.9374082 8.892204 -17.217775 12.608979 3.7910182 2.0576146 -3.8937259 -14.334404 11.322265 8.659466 -7.771448 -8.4667425 -17.196184 4.4708056 -0.80626434 7.6408167 3.1925464 -7.7386746 1.4044299 6.420702 -0.8884015 26.241838 1.3427751 -1.265674 -7.5008774 1.1200488 -9.810924 -2.5430636 -20.83866 -2.7723851 5.6373844 -9.763474 -6.290014 -2.9796267 1.5589567 5.358058 -7.4032216 14.081149 -5.425692 9.453669 -3.7257674 10.133119 3.6317623 -7.379654 23.587095 14.91417 -0.3278963 -3.8909564 -6.7115455 -5.18669 -14.29078 -3.8974738 1.0663292 -0.31102467 0.9502455 -2.4410164 -17.209188 -16.561268 -2.0308123 17.736542 2.4581647 -3.3011649 -5.385649 3.383911 -11.703772 -19.842308 -9.546705 -0.48558894 -11.679831 -0.5928792 -5.0563946 9.351287 -1.1799947 -8.583983 -16.088482 5.314099 3.2129793 14.026453 -4.042856 7.0265603 16.579075 -7.954771 8.406746 0.75403696 3.655025 4.251577 1.2949564
C8H20NO6P+H+ 5.118118 -11.125681 10.339699 23.912592 -4.731236 -11.981808 4.2210093 -0.8723788 -30.570631 -10.705598 19.282158 -26.874723 5.0958138 0.14215492 -0.38567004 -29.05286 9.993203 12.334048 12.088552 -13.901201 -9.368349 4.790936 4.2770424 -21.213015 -6.6115475 -13.48366 1.4099294 1.3224062 6.151854 2.416124 -5.5266666 1.1443456 9.084949 4.6664715 33.933514 -11.678722 -1.5341991 -3.4040136 1.4784526 -18.637688 -5.0345902 -43.419453 -6.8836913 13.207976 -16.801552 -3.4385345 0.49058068 3.0181797 10.259415 -10.655345 20.317461 -9.60479 15.352557 -2.863414 14.76601 7.6933074 -8.3476515 28.625738 16.870914 0.385695 -3.635874 0.087827675 -23.780804 -34.142586 -8.541084 2.8671632 -3.1030216 1.9942318 -2.6248128 -25.232924 -25.080198 -0.16088857 25.196804 4.61159 -9.055139 -3.7442014 11.502677 -26.203016 -31.601229 -11.391783 -0.8010321 -22.121992 3.628054 -8.554193 16.890123 3.1443284 -13.639689 -18.069763 6.0810103 4.0835886 15.705389 -6.310151 8.969956 19.90652 -10.041643 10.592672 2.73186 3.801013 4.2971764 7.2851186
C10H7NO3+K+ 2.738016 -6.987575 8.582413 13.51975 0.73346186 -6.2232823 -1.2809849 0.8125549 -20.877453 -7.422701 11.268812 -16.995918 5.586598 -0.6144761 2.8281214 -19.756042 8.149014 7.976757 7.7624655 -8.576686 -7.6982207 4.0649276 4.157101 -14.631993 -6.16496 -12.974264 2.602885 0.6743505 5.938598 1.3558449 -5.0007677 1.5581231 5.9831967 1.4648283 21.969442 -4.6408935 -1.8036246 -7.8825374 1.2894393 -8.932089 -3.3595576 -29.023966 -4.694279 8.6652565 -11.695059 -2.4303014 -0.48595053 2.6790898 5.737936 -7.962048 14.361243 -5.47856 10.136354 -3.064095 10.307177 3.827878 -6.2167873 21.382412 12.659041 0.23369524 -3.159076 -2.2118812 -14.156147 -22.984606 -7.687036 3.4175043 -2.8561866 1.8458322 -2.1421688 -19.027996 -20.469013 0.37696788 16.077961 2.8485422 -4.6155977 -3.548599 6.1273046 -15.041491 -19.688747 -7.8897476 -0.45141172 -11.563485 0.4196506 -4.7410684 8.953942 0.091673866 -7.8002415 -12.965185 4.480111 2.7969391 11.6776905 -3.8777626 6.138645 13.743457 -6.769117 7.1753445 1.147139 2.7653008 3.2394342 2.6390173
C13H9NO-H- 1.6010144 -5.992822 4.561712 3.3494089 -3.095841 -1.48923 3.9175038 -1.6197122 -14.287471 -5.0810933 7.4062996 -11.397917 9.065466 -2.3885496 10.169574 -14.957128 8.633772 4.483395 4.765552 -3.6995373 -9.852078 6.969545 6.1928673 -7.8461885 -7.418121 -17.968859 9.6269 -0.8042649 9.437933 0.31486577 -6.244075 3.1486094 -0.2724403 -5.066719 8.751079 12.975023 -1.4912713 -18.439978 -0.39399695 4.7903123 -0.80474514 -10.166816 -2.5224512 4.385903 -0.952991 3.1748738 -0.21483356 3.6952746 -2.5121694 -7.191314 8.567491 2.1981103 4.510689 -6.6323028 7.116299 -5.167191 -3.704888 15.955145 8.425901 0.75230867 -3.5403523 -0.9712083 -21.558584 -34.728172 -27.44131 18.055422 -9.65454 6.019758 -4.181695 -27.939293 -44.103043 6.043498 5.467277 1.6486275 -1.5147865 -1.8169012 1.6843734 -5.722962 -9.247339 -5.8814163 0.034382116 -0.32393998 1.3397589 0.7809193 11.1621 3.9978528 -4.8322105 -2.1756868 -1.7463126 1.2208254 -2.7749968 -2.7777326 -0.39568758 4.915632 -2.6795726 1.1411322 2.330701 -1.0221809 -1.0145631 6.196288
C13H22O4-H- -2.161612 4.83958 -5.269288 -0.26659587 -1.3980707 6.21694 2.513775 -1.3432934 -7.5949297 -5.0694995 7.669575 -10.340929 9.783971 -2.7305615 9.7453985 -15.922262 3.7343638 5.7050724 7.881135 -4.286928 -3.9670153 0.3289122 3.3495755 -9.637332 -5.6117187 -13.518254 5.959656 0.2611067 7.5948997 -2.2994215 -3.7798991 4.1642284 0.90461075 -5.6278157 0.97199905 8.79315 -4.6059995 -29.23488 1.2595463 13.402503 -1.5201958 -14.609086 -5.554743 6.4004416 -4.054547 9.028673 1.9902445 5.655538 -3.3174615 -8.561638 9.341963 3.2671356 4.5611053 -6.48435 6.7140603 -6.6488333 -1.3385046 10.3317175 3.2110305 1.8702973 -2.5084405 1.4898256 -23.749794 -35.851078 -25.564985 16.708332 -9.981426 5.6563487 -3.5743258 -30.305138 -47.288494 7.31409 -1.5215753 2.184704 -1.647442 1.2043931 2.2839143 -3.7458792 -2.137341 -1.9718473 0.04755866 1.325788 2.8998497 1.9073113 2.7119517 3.0629456 -0.8787606 2.5097365 -1.7418308 0.69477254 -3.9161634 -3.3170125 -1.3322107 0.8212596 -1.3097172 -0.5254961 2.8921382 -1.0119377 -0.33277854 5.9213557
C11H20N2O3+H+ 7.9613495 -13.968791 -1.6899782 43.42335 -41.023792 -18.353765 43.41758 -14.469815 -32.91873 -12.704206 36.56144 -41.49738 -2.5967126 3.0213654 -13.75381 -37.364746 1.7260113 21.14599 23.709003 -24.103807 3.2430332 -8.865267 -4.9088626 -35.52268 -1.7871612 -4.1087494 -2.812452 3.9497614 2.7438805 -0.3219211 -0.49100727 1.1249635 8.43678 10.216982 27.863785 -24.85023 -1.9929686 -0.40323314 1.4990859 -21.178328 -7.151119 -64.40445 -11.767603 21.221312 -21.793293 5.4801416 6.6867175 5.5970273 12.477931 -13.134704 23.003794 -10.803768 18.291508 -1.5780822 16.331217 8.626152 -5.597368 24.443644 11.740417 2.0078013 -1.4249989 13.808846 -51.56094 -61.087173 -23.715374 11.898553 -10.888363 5.2474527 -2.832686 -37.49803 -45.01118 6.747465 26.157953 7.478433 -16.844185 2.3623812 22.998676 -43.580433 -39.717644 -9.86278 -0.98170686 -30.441208 11.959536 -9.969915 23.697844 11.890277 -16.5003 -10.083694 2.3176715 3.3022497 5.993287 -7.5915904 6.1905103 12.0597105 -7.3119125 7.2481866 5.8225064 0.86065644 0.8978233 16.86155
C8H17NO2+H+ 4.385527 -10.177965 7.535418 21.892237 -9.334088 -9.338924 9.647727 -2.9624586 -27.177265 -9.8668785 18.594307 -25.204077 6.408753 -0.5675224 2.3122606 -27.053265 9.251226 10.92122 11.035919 -11.858353 -8.250281 3.7160852 4.071302 -19.53944 -6.97715 -14.890197 2.9332182 1.1458834 7.484818 1.143474 -5.6922545 2.2867818 6.880364 2.297413 25.781645 -6.571281 -2.1799834 -9.433936 1.4067 -11.161994 -4.452798 -39.22787 -6.7699995 12.253263 -15.017042 -0.7952657 0.6602601 4.0257373 7.22151 -10.909619 18.904102 -6.712093 13.4239435 -4.168061 13.550305 4.280158 -7.1035547 25.913952 14.693336 0.6873202 -3.4472082 0.44230035 -24.578236 -35.77948 -13.999292 7.00872 -5.218294 3.1564074 -2.9793324 -27.438362 -31.77391 2.038516 20.425081 4.2724824 -7.7343144 -2.9291844 9.966007 -22.430801 -26.548803 -9.857177 -0.64094436 -17.54268 3.563138 -6.4303513 14.454571 3.2898524 -11.360598 -14.263716 4.1095333 3.4645698 11.066265 -5.741737 6.70507 15.212227 -7.930676 8.052425 2.9578533 2.4131732 2.8493493 7.83738
C10H11NO+Na+ 5.007341 -11.577863 9.247048 24.313698 -8.915196 -10.898909 9.079764 -2.6967082 -32.615158 -11.850622 22.889471 -30.680693 7.3870196 -0.6374984 2.6355982 -31.179209 10.728861 13.191373 13.364179 -14.399375 -9.507631 4.1464047 4.5565844 -23.530556 -8.212862 -17.592337 3.2092059 1.6696963 9.06816 1.5855336 -6.9999523 2.6693287 7.883131 2.7641044 29.37946 -7.765772 -2.2568054 -9.227136 1.570866 -13.372175 -5.026487 -43.995537 -7.456719 13.637932 -16.326988 -1.9799122 0.26582038 3.9904475 8.324539 -11.519838 20.445599 -7.7870655 14.64466 -4.2017627 14.690121 5.3112783 -8.731985 31.970423 18.052069 0.91161484 -4.0286894 0.7620149 -29.3692 -42.41961 -10.113154 4.550491 -3.515109 2.3417325 -2.7896442 -24.382019 -26.394018 0.44078916 20.663265 3.7996202 -6.659342 -3.8746204 7.416928 -18.553802 -24.741026 -10.007129 -0.6036042 -15.827407 1.5148512 -6.272105 12.358257 1.0365798 -10.45381 -16.049877 5.310627 3.9201658 14.105961 -6.0490255 7.6778445 17.362583 -8.792128 9.112195 2.600343 3.1409187 3.650417 6.737124
C29H47NO4+Na+ 4.843395 -8.538895 1.474327 21.321428 -16.810759 -11.583678 17.561293 -5.7217507 -18.907871 -6.242671 16.625841 -19.938135 -0.77756476 1.2789463 -5.58193 -17.475815 2.4585543 8.910562 9.157065 -10.817773 -0.79368556 -1.192816 -1.4938779 -15.005585 -0.59559876 -0.74458396 -2.602679 1.8230909 1.1977412 1.0858421 -0.80590403 -0.006267652 4.6412797 5.298351 18.887474 -11.296379 0.54577166 7.5200815 0.15281336 -16.668118 -3.08454 -27.21268 -4.2531247 8.810563 -9.751457 -0.7313426 2.1607966 1.2699949 7.2725496 -5.3186135 10.771996 -6.536784 9.04723 -0.36902186 7.939013 5.6469164 -3.3609998 12.247257 6.8850303 0.40010253 -0.60701 4.8597918 -18.443386 -21.302998 -3.658463 0.60896766 -0.9286129 0.6269398 -1.0583342 -11.683456 -10.301525 -0.3983608 14.963937 3.0555837 -7.8693852 0.181884 9.172239 -18.864399 -19.848833 -5.753847 -0.51444054 -15.312601 4.652797 -5.5719323 11.040466 4.0288916 -8.471339 -8.087321 2.2719793 1.8827758 5.7446866 -3.5861204 4.1542816 8.864195 -4.7258787 4.96702 2.3308678 1.5131167 1.5570565 6.8425846
C9H20N2O2+H+ 3.883644 -9.624814 9.3064 18.581604 -5.420435 -8.163305 5.426813 -1.505305 -25.571533 -9.175763 16.373686 -22.804464 6.418846 -0.6822494 2.9000282 -24.791553 9.882301 10.838828 10.836265 -11.726773 -8.460635 4.232948 4.325208 -17.767698 -6.8646955 -14.560175 2.8364785 1.0065453 7.2410307 1.2421912 -5.659935 2.149068 6.710133 2.214021 25.095016 -6.3513594 -2.0021453 -8.664671 1.3605906 -10.665476 -4.048884 -35.347294 -6.002861 10.915891 -13.816957 -1.5598518 0.14766307 3.4999857 7.1209726 -10.654282 18.455692 -6.5896015 12.3884945 -3.860911 12.532739 4.1069 -6.7813687 24.48611 13.975185 0.5932596 -3.2736573 -0.089591004 -21.747942 -32.099026 -10.311201 4.9057956 -3.4974577 2.3154933 -2.6254275 -22.684729 -25.281675 0.7344871 18.054733 3.424678 -5.7800364 -3.4807408 7.2952995 -17.614544 -22.601946 -9.034019 -0.5843292 -15.780815 2.7923133 -5.8926272 12.09268 1.810165 -9.901014 -13.960527 4.247696 3.2342122 11.403779 -4.984297 6.4721127 14.921862 -7.5702615 7.7754035 1.9906934 2.8400266 3.3354073 4.953942
C7H15NO3+K+ 4.1821713 -9.992832 9.820462 19.908718 -3.4013753 -9.717206 3.0866427 -0.631245 -27.681055 -9.94251 16.8544 -24.027983 7.242584 -0.7648928 3.3685346 -27.361609 10.311322 10.985741 10.931503 -11.862338 -9.606234 4.9141793 4.9306145 -19.622244 -7.9366984 -16.971193 3.5382657 1.2343267 8.60311 1.4298989 -6.5839615 2.5633085 7.6264954 2.6076243 28.498457 -7.4762216 -2.511884 -10.806535 1.5856434 -11.980678 -4.8139305 -42.39919 -7.277277 13.182025 -16.21379 -0.865217 0.73203087 4.316839 7.5501313 -11.570531 19.981398 -7.004467 14.23009 -4.3642497 14.341521 4.5791636 -7.710023 27.96364 15.896693 0.7279373 -3.7371848 0.28694826 -25.966139 -37.954857 -14.544468 7.3217783 -5.397922 3.300883 -3.1245973 -28.707329 -33.52332 2.33702 21.05642 4.272409 -7.3606343 -3.5956798 9.7080145 -22.267818 -26.930473 -10.26188 -0.6316858 -17.221258 3.1951404 -6.367084 14.083742 3.031605 -11.135967 -14.271483 4.2874575 3.5235567 11.486239 -5.814538 6.9052596 15.277416 -8.00429 8.161652 3.0453584 2.516481 2.985655 8.034031
C10H16O4-H- 1.0007662 -6.5435157 5.4944243 2.0762742 -2.965044 0.6500815 4.0300136 -1.6289623 -10.102599 -4.699927 8.838719 -11.411746 10.644521 -3.2600393 13.259602 -13.887221 11.254265 5.4514494 5.7137794 -5.0151854 -10.179911 7.4216957 5.8141356 -7.5229197 -6.95932 -16.584408 7.7101297 0.19925015 11.791554 -1.8254977 -5.895055 5.797452 -0.4777611 -4.455796 0.3974858 8.783429 -3.8630922 -27.262243 0.89504075 12.708495 -2.0464792 -19.002726 -6.114833 7.448916 -4.8397527 4.210751 -1.1332157 5.6198525 -2.7472732 -7.8948197 9.113873 2.677635 4.005291 -6.428006 6.09469 -6.2270694 0.13850261 5.4154434 1.1170226 1.3253248 -1.4520752 2.0775244 -19.521873 -29.358875 -32.009388 20.845797 -14.254175 7.894915 -5.2315946 -39.184326 -53.840755 3.4654028 9.778266 3.2437227 0.12890178 -6.0899215 -2.2182782 -0.81399673 -8.874508 -9.633485 -0.1477764 -1.7071408 -0.42189676 -0.4588548 8.67119 2.2257328 -5.251423 -4.375351 -2.9292781 1.7039309 -3.5965438 -2.0100286 0.3168477 0.573943 -1.0559013 0.7737549 2.5260732 -1.3047203 -1.4228711 7.3411317
C6H13O9P-H- 0.18711579 -2.2716517 -0.42530775 6.2732153 -4.794388 -1.0275276 5.5095634 -1.9121283 -8.417643 -4.138043 7.922888 -10.164377 9.282298 -3.010265 11.232033 -10.807667 5.8902326 4.8893633 5.7910724 -4.4836984 -4.346906 1.6600105 2.9418833 -7.387257 -4.7707815 -11.217389 3.802301 1.0075568 10.626433 -3.258128 -4.504525 6.5306 0.6761616 -2.8603313 5.6711574 5.6778545 -2.798134 -18.949774 0.3369448 5.410098 -1.7994567 -19.298689 -4.6242886 7.4915977 -7.805238 7.5028834 2.162345 6.365637 -3.458316 -12.491459 15.469965 3.3583233 7.114814 -8.975545 9.582904 -7.1637106 -1.4513773 9.900369 4.0201883 1.2402829 -2.173919 1.5856869 -22.382368 -34.13008 -25.710855 16.85401 -9.096242 5.6471434 -4.0398674 -29.58145 -46.75665 7.137867 2.9001384 0.82577413 -1.2612547 -0.768231 2.076422 -5.3393726 -6.13083 -2.838768 -0.1865033 -2.076324 0.22505933 -0.09355622 2.6861184 0.42462105 -2.0208817 -3.8970222 -1.0274727 2.1445675 -0.5744089 -4.4049797 1.4710902 1.3749758 -1.972609 1.2120926 3.065249 -1.5247597 -1.4869047 8.782563
C26H50NO7P+H+ 4.656436 -10.107826 8.808188 20.044294 -5.5392942 -10.770446 5.3164396 -1.3769522 -27.341259 -9.174348 17.252256 -23.821129 4.6953607 -0.086143404 0.4979742 -24.54047 8.981678 10.097943 9.563379 -11.662789 -8.038273 4.3829966 3.390445 -17.831293 -5.2376614 -10.550367 0.4955395 1.3388838 5.256109 2.004784 -4.573401 1.0736837 7.415575 4.113817 28.72385 -9.746112 -0.883634 -0.77865714 1.0238833 -17.759745 -4.360384 -37.716484 -6.023873 11.714179 -14.507561 -3.0013318 0.56954336 2.58967 9.099059 -9.429154 17.867577 -8.441015 13.42179 -2.6323926 12.874481 6.424756 -6.7103014 23.503847 13.697352 0.41884613 -2.7071762 1.3129781 -21.717962 -29.98353 -7.654387 2.6395254 -2.5014198 1.6781987 -2.3531365 -21.853216 -21.764898 -0.33580795 21.73227 4.1123686 -8.549238 -2.5120625 10.210977 -23.116121 -27.687977 -9.908544 -0.66405797 -18.692268 3.5420356 -7.182803 14.322251 2.946292 -11.557442 -14.86745 4.6475334 3.2501535 12.122105 -5.038658 7.0946345 16.097946 -8.0927925 8.518662 2.2965076 3.1315038 3.4825683 6.250499
C13H17NO3+Na+ 2.6669157 -7.143015 15.988072 11.714243 16.421309 -7.8706894 -18.850765 7.19935 -26.386768 -9.006929 7.9301534 -16.490341 7.525526 -0.78152484 4.2582326 -23.184626 13.647556 5.753479 3.8625393 -6.1956167 -15.262224 11.547684 9.150607 -11.372254 -8.734665 -17.277012 3.5618207 -0.5646426 5.72597 4.4142766 -7.320817 -0.0777454 9.14242 1.326143 33.56696 -4.425144 -1.2174094 -3.59446 1.7160507 -15.605971 -3.2253506 -25.310715 -2.7979488 6.1661115 -11.8170595 -9.82408 -3.6404219 0.19783577 9.028784 -6.9151874 15.47848 -8.936936 11.460436 -1.6635116 11.239236 8.109231 -9.252979 27.594357 18.049273 -0.75229424 -4.683587 -8.698484 -2.691428 -11.62383 4.4837594 -5.0007653 2.2206132 -0.6906603 -1.6038057 -12.209518 -4.681024 -5.062123 22.765331 2.3300188 -3.4007187 -7.33747 4.0826426 -14.161354 -24.203709 -10.874594 -0.6160133 -15.376272 -1.9024115 -7.1500463 10.740023 -2.3203795 -10.215861 -20.176992 8.362567 3.925172 20.973963 -4.5001945 10.116525 22.496408 -10.553957 11.693847 0.13670294 5.3875093 6.1035614 -0.36987957
C10H14N5O7P-H- 1.352952 -4.180007 -3.1479685 2.5520825 -16.021313 1.6497107 18.787445 -7.2674794 -4.8659725 -2.749836 9.016283 -9.422953 5.522106 -1.6335696 6.0223355 -11.89049 1.6665401 5.193778 7.3560147 -4.4845037 -1.5235276 0.14410247 0.33643472 -5.6877584 -1.1679157 -5.646986 8.029061 -0.4302167 3.6217694 0.12769 -1.044293 0.8408383 0.0061128438 -6.7001424 6.7640066 14.557126 -2.7378476 -23.488377 -0.012303167 5.8437643 -1.5070894 -15.498862 -5.9893646 7.201828 -0.962072 6.2552915 0.73101455 4.597835 -5.8886147 -4.105274 0.87153715 6.2218437 0.60394585 -4.0775495 1.9468576 -7.4025493 1.7466795 2.5111532 -2.1604452 2.3175862 1.5410892 10.54001 -26.316261 -29.486946 -31.744062 20.348633 -11.8208 7.160612 -5.074366 -38.765125 -55.35186 5.447741 -0.102708325 3.7641413 -2.6943614 1.1585656 3.0097146 -6.0635896 -6.476108 -5.6732316 0.19540194 2.124288 6.857257 3.021431 6.528312 7.4518185 -1.8747543 7.9223065 -6.696403 -1.3520838 -15.9957905 -1.0314329 -5.9187555 -6.7307596 2.5614471 -4.946634 2.7319562 -3.6201606 -3.51697 6.4755573
C10H16N4O3+H+ 6.220068 -11.168832 0.5702764 32.694675 -27.410444 -14.50395 28.867382 -9.514937 -27.755667 -10.37688 27.873524 -32.579987 -0.62792563 1.9612685 -8.930972 -30.18315 2.7873049 15.9897785 17.587553 -18.278063 0.7286579 -5.182488 -2.7308416 -27.367903 -2.104462 -4.567792 -1.7264231 2.8275464 2.6388016 0.30550435 -1.1331874 0.7784649 7.163129 7.170575 24.90729 -17.371826 -1.4913977 -0.76827294 1.2134082 -17.46018 -5.4743524 -48.860184 -8.644065 15.824386 -17.015667 2.503199 4.168972 4.0449934 9.828447 -10.05624 18.08537 -8.67432 14.535509 -1.5225892 13.182655 7.074734 -5.2962823 21.249664 10.91743 1.3047345 -1.6411245 8.624125 -36.89368 -44.799126 -17.18118 8.399025 -7.533087 3.7554681 -2.2822297 -28.908936 -34.062485 4.6082573 21.61748 5.666597 -12.672512 0.9155071 17.0248 -33.05091 -31.474585 -8.420259 -0.7644173 -23.388958 8.377016 -7.8927627 18.413849 8.428744 -13.086435 -9.3681345 2.3993669 2.754486 6.159175 -5.973233 5.4245415 10.75846 -6.2829776 6.33924 4.340358 1.1103352 1.1837697 12.536341
C8H20NO6P+K+ 1.705531 -5.1696877 16.157124 6.963131 19.653025 -6.5396314 -22.353828 8.397061 -21.983622 -7.438672 4.316681 -11.965757 6.7132573 -0.7302149 4.104902 -18.939451 12.391349 4.180423 2.2199833 -4.488153 -14.161901 11.091865 8.64612 -8.5178585 -7.7982874 -15.205217 3.0552208 -0.7559271 4.664328 4.302737 -6.596791 -0.4097723 8.055756 1.1278597 29.404379 -3.7554395 -0.82796973 -1.5075749 1.475822 -14.248309 -2.621839 -20.137074 -1.9787871 4.6461034 -9.735868 -9.222093 -3.3583093 -0.34619322 8.249079 -5.669045 13.332231 -8.197517 9.8295145 -1.170671 9.594448 7.690145 -8.528869 24.65531 16.493267 -0.8940164 -4.284646 -9.05841 1.1443839 -6.268323 6.9796653 -6.3443403 3.3091419 -1.2842528 -1.1561546 -7.7334127 0.5436058 -5.4760566 19.707123 1.5522219 -1.9085475 -7.179641 2.1080594 -10.078957 -19.89352 -9.44886 -0.558356 -13.305824 -2.5648313 -6.4614973 8.754481 -3.063785 -8.865199 -19.034008 8.102475 3.616249 20.261892 -3.9005814 9.583849 21.191423 -9.850444 11.009593 -0.14442576 5.204381 5.8967905 -1.126043
C10H17N3O6S-H- 2.5672712 -6.6409807 1.9251561 3.9441826 -2.6275394 -6.5840106 3.4910657 -1.4495248 -14.418046 -3.6636367 8.812021 -11.667477 12.936126 -4.307892 17.8045 -12.107552 4.0424085 2.3465044 1.6266751 -3.3251162 -6.6772776 5.514119 2.7044926 -6.136129 -2.5500247 -7.172768 4.1867385 0.6170333 10.5857935 -1.0851121 -5.3759365 4.4716573 -1.8445431 -3.1107962 6.4895606 10.676029 -0.28113684 -10.944884 -1.3995035 -1.0315763 -0.6053418 -8.942442 -2.5569158 5.2267847 -2.4588013 6.790758 2.252378 4.366759 -2.5710638 -4.833066 4.9957404 2.5706446 3.8549101 -6.9813547 5.7292914 -6.7625017 -1.4089886 7.5794277 4.2537622 0.2715487 -1.2123731 1.041523 -13.826643 -21.194683 -23.418158 15.669242 -2.106062 3.3566577 -4.385955 -24.31142 -42.756977 5.2734823 4.758656 0.91591686 -3.3571951 0.8036356 -1.760079 -0.17987913 -5.465754 -4.554116 0.017148893 2.9082057 0.4237886 1.5751735 -3.316527 -2.7209146 0.596344 -4.650586 -3.6615086 1.018323 -6.13438 -1.9931064 -0.56959134 -2.224704 0.21725371 -0.79223937 2.149838 -0.0505161 0.28970325 5.588325
C14H24O4-H- -0.9725188 1.4851607 -1.0787544 1.0466977 -2.799335 3.545766 4.1074843 -2.0060887 -7.3580313 -4.945392 3.8292675 -7.4709516 14.246139 -4.2247987 15.645953 -18.119226 3.7330472 2.5481935 3.9388375 -0.9595315 -7.3804235 4.1810207 5.6952143 -4.8408747 -5.9375777 -15.046064 10.378953 -1.4766024 4.912094 1.6242963 -4.0280967 0.3131667 3.5265408 -6.9173384 6.785047 9.879488 -6.54246 -35.606182 2.8600764 14.225073 -1.7182477 -17.096375 -5.0348897 6.0553 -7.147612 4.214762 -1.0651658 5.9287753 -2.2000775 -10.186457 12.59216 2.1760244 6.877433 -7.468962 9.152061 -5.6708 -2.7750015 15.205787 6.4939685 1.7465109 -1.6763917 1.4102864 -19.296429 -28.460989 -26.553654 17.091642 -9.21553 6.199401 -3.417674 -31.024145 -50.812534 11.329711 -0.61003107 3.5735574 -1.4792057 0.233461 4.323182 -6.8167334 -4.0663037 -2.455441 0.107919425 0.7941488 3.9952278 2.7013767 4.566169 2.036386 -3.214927 -4.4654408 -1.3397336 0.22676253 -4.561813 -4.389108 -2.4524674 0.8222884 -1.128642 -1.5303298 2.8040233 -2.1861396 -1.1014333 5.0161133
C26H52NO6P+H+ 4.154832 -10.6978 12.422741 17.74908 1.4594467 -9.239482 -2.0443287 1.1118565 -30.25188 -10.6107235 16.456148 -24.653776 9.783359 -1.5862865 6.8797617 -28.832405 12.818434 10.392704 9.84861 -11.138007 -12.914216 8.051316 6.9947643 -18.724504 -8.870008 -18.85357 4.4493923 0.76654464 9.714354 1.9066806 -7.7084203 2.8010218 7.686083 1.2932734 30.230913 -4.197508 -2.466959 -12.218357 1.5029156 -11.637903 -4.606387 -40.413563 -6.864004 12.5425625 -15.776338 -1.8399286 -0.10337974 4.286375 7.507382 -12.564052 21.484274 -7.032386 15.016138 -5.344298 15.464634 4.119007 -8.317216 30.113447 17.239117 0.70635027 -4.146913 -0.5598699 -26.380377 -39.617912 -16.54693 8.5936365 -5.829733 3.7020717 -3.5866566 -31.496452 -37.450405 2.5018773 22.241743 4.50805 -7.61267 -3.9635189 9.651334 -22.719563 -28.291836 -11.232344 -0.6650715 -17.817923 3.0488727 -6.621215 15.092228 2.7465208 -12.024081 -16.207972 4.5288696 3.8202553 12.291297 -6.17954 7.274771 16.699678 -8.677903 8.751988 2.9693315 2.7778947 3.3061888 7.71046
C16H32O2-H- 2.8390112 -7.9603686 2.8372288 3.4880426 -5.558482 -4.77041 6.903785 -2.7207372 -14.810631 -4.3043056 10.509912 -13.52299 14.6298485 -5.0753603 20.135248 -13.111423 6.9310546 4.5869117 4.6785007 -5.2750216 -7.4131155 6.0840425 2.6238816 -6.560632 -5.2087708 -10.976354 -1.2994541 2.8257396 13.708758 -4.0743203 -6.0248337 8.827288 0.21098414 -3.743449 7.948724 9.245297 -0.9310667 -10.356618 -0.6275763 1.2509278 -2.2037902 -18.873863 -5.830522 8.755756 -5.576386 2.826143 -0.12418027 4.468276 0.65629184 -10.487723 14.842386 -0.58507127 7.2381787 -8.024559 9.353024 -5.3370485 -1.7658976 10.807268 5.0646486 0.91763496 -1.2110666 1.9181408 -17.826319 -26.385704 -16.945255 10.73767 -2.0223577 2.3702586 -2.7649682 -17.94256 -31.304214 5.0055327 2.7380452 1.3218358 -2.4864542 0.6236674 -1.0920055 -0.25962555 -3.8127337 -4.21281 -0.11142971 -1.7276947 1.83431 -0.4460184 6.1849203 2.3517377 -3.6228487 -1.7171378 -2.1565406 0.6546522 -3.4681447 -0.98528755 -1.4593534 3.057767 -1.4451327 0.32825613 1.5382757 -0.011382446 -0.17606857 4.06466
C10H19NO4+H+ 4.54864 -11.424496 13.145144 20.193663 0.9033062 -10.499717 -1.6028156 1.0492039 -33.576805 -11.97819 20.104736 -28.843857 9.24919 -1.1361744 4.9498453 -32.835667 13.003183 12.396483 12.0776615 -13.395666 -12.540568 7.1255965 6.5509963 -22.134327 -9.202481 -19.448614 4.1921334 0.9987478 9.837089 2.1367066 -7.9119577 2.7283993 8.579495 2.8107357 33.09203 -7.7190065 -2.5170717 -10.937348 1.6129181 -14.507622 -5.317719 -46.77175 -7.924168 14.557676 -17.956785 -1.4803741 0.59745985 4.6678925 8.636531 -12.955714 22.593542 -8.0627775 16.054325 -5.005426 16.222954 5.275445 -8.873174 31.745037 18.279913 0.67694354 -4.2837396 -0.36101055 -27.586794 -40.94912 -15.918654 7.9038005 -5.663297 3.6052125 -3.6712072 -32.623917 -37.548893 1.9982316 24.730846 4.7696404 -8.172952 -4.580175 10.387891 -24.639727 -30.96646 -12.20387 -0.7581915 -20.437416 3.3354971 -7.701214 16.781685 3.0126178 -13.454786 -18.163122 5.4945703 4.333365 14.725609 -6.863208 8.599196 19.363407 -9.9845495 10.229496 3.1468406 3.3148699 3.8933575 8.226408
C8H20NO6P+Na+ 0.01499159 -1.6499792 13.822508 -2.8619688 26.23055 -2.0767856 -29.177494 10.572428 -11.83736 -3.308559 -4.9948125 -0.5236752 5.819126 -1.1628731 6.1310863 -6.838705 10.437219 -1.9749717 -4.607337 2.190688 -13.4078455 12.428815 8.69946 2.039837 -5.714116 -10.568465 2.2806408 -1.5184063 2.6019464 4.163348 -5.1937447 -1.0758275 5.615126 -0.55289817 21.792337 0.94631124 0.21624322 2.0093236 0.8195169 -10.8007345 -0.7881452 -3.6711211 1.023835 -0.55552006 -3.866086 -10.653157 -4.7644334 -2.040068 5.1893773 -1.7126124 6.550231 -5.4778395 4.756435 -0.2962598 4.779582 5.539877 -6.13246 15.324419 11.602068 -1.3931885 -3.064778 -10.420541 13.278312 10.131993 14.120497 -10.126434 6.447251 -2.910876 -0.12449951 3.7109427 14.889394 -7.528464 12.655387 -0.1190948 1.0819314 -6.359643 -2.2219465 -1.1192164 -10.493359 -6.403338 -0.30116296 -6.119769 -4.326405 -3.9313474 2.9983768 -4.910108 -4.522054 -14.407654 6.744561 2.3717782 16.692781 -1.5485741 6.912585 15.772919 -6.8387737 7.9665165 -1.5899384 4.4762344 5.0052867 -5.0524817
C18H36O2-H- 4.946526 -12.370481 5.1662264 7.373591 -9.078843 -9.556135 10.70579 -4.066835 -19.583128 -4.035866 12.383803 -15.636326 11.130062 -3.5886734 15.320308 -13.422537 5.222443 4.1418285 3.4953291 -5.4166155 -5.968585 4.8789434 2.0954304 -6.7944922 -1.060295 -4.85728 6.913568 -0.2651438 8.809933 0.33952063 -4.0632806 2.926064 -1.4547532 -2.251956 9.206653 9.281874 -0.56205064 -12.374214 -1.1578704 -1.5448134 -1.4985012 -17.653053 -3.4604487 6.6771274 -7.00394 6.788939 2.2602377 5.546052 -3.5172818 -6.42602 6.5154276 3.7818372 4.552176 -6.358448 5.663485 -6.1299105 -0.6012276 6.109276 2.8034759 0.654982 -0.20571667 4.6537404 -17.805412 -22.692701 -21.22542 13.875606 -5.4482317 4.1056046 -2.9976113 -19.901707 -35.0832 7.074426 0.04698813 0.73016757 -2.0507495 1.372431 1.3184379 -3.0732546 -2.9716725 -1.8760636 0.059199534 1.0368029 2.6263897 1.337875 6.1376348 4.4948044 -1.7744081 3.8019896 -3.6277077 -0.66276497 -8.508561 -0.07369247 -3.9254985 -5.8919854 2.4715261 -3.6926966 1.941139 -3.0361962 -3.5249312 6.562231
C6H14O12P2-H- 0.76827544 -5.00571 -1.0479667 -3.3908017 -10.090442 3.105741 12.715242 -5.129798 -5.8596516 -1.2138507 5.390753 -6.1257 11.21155 -4.470103 17.747972 -2.9787714 5.7018347 1.7959237 1.7210636 -2.0611148 -5.603067 3.8172622 2.7127337 -4.985885 -3.970171 -9.903751 2.409082 1.5944009 9.933289 -5.150884 -3.143631 7.028141 -2.2849092 -5.0883107 -6.7940555 10.117636 -3.0169692 -23.859339 0.31955686 10.892019 -0.8770329 -9.92038 -4.4892893 5.6156187 -2.0022364 4.664324 -1.2053636 5.852132 -4.7992983 -9.543438 10.699133 4.476935 2.4317677 -8.512202 5.432373 -9.635055 0.6360299 4.940505 0.77542824 1.3345722 -1.12196 0.3822065 -13.907453 -23.390463 -26.458563 18.675285 -14.838106 7.3899946 -3.4774165 -23.71301 -35.634125 2.3133762 -9.176171 2.350836 -1.1375518 4.179358 0.55327564 0.9458021 4.0080433 -0.31866676 0.30648804 6.132842 2.8279934 4.1220164 5.6275363 2.7124803 -1.9416592 0.48704427 -5.861229 0.17347826 -10.972537 -0.096761666 -3.4201095 -5.6019664 2.1821232 -3.2496405 2.193369 -2.7029188 -2.405744 5.369649
C10H11NO2+Na+ 4.9032774 -8.729328 -4.7853217 25.318586 -32.00989 -10.005489 34.534622 -11.8539505 -16.820732 -6.475343 23.220652 -24.626848 -1.5569446 1.4091182 -6.9541087 -19.63857 -1.1971768 12.803474 14.957511 -14.629255 5.03133 -8.025915 -5.1218643 -21.334887 0.20718324 -0.3685158 -1.9720073 2.921182 2.6651576 -1.877249 0.4523888 2.014365 2.9122038 4.936761 10.843254 -11.507472 -1.1856306 -2.5327027 0.38601416 -8.7954645 -3.9381113 -36.813755 -7.338333 12.920542 -11.925703 6.3385353 4.861568 4.5152984 4.7975593 -8.435857 12.9226465 -3.842855 9.799866 -2.4261713 9.192383 1.8845936 -1.7694043 11.296344 4.352957 1.5920668 -0.08318228 10.566732 -34.10725 -39.753143 -19.220982 10.88953 -7.810111 4.0672264 -2.1447587 -24.642086 -33.571335 5.9583507 11.487437 4.228258 -9.457096 2.6513429 12.31773 -22.648523 -19.317263 -4.617429 -0.43045276 -14.018652 7.41354 -4.0133243 11.933154 7.3038745 -7.862119 -2.5707116 -0.72301483 1.34815 -1.266895 -3.900669 1.3696188 2.7920957 -2.3403847 1.8532144 3.6134772 -0.68007165 -0.7361667 10.3585825
C37H68O4+H+ 2.352576 -5.7108636 6.432709 7.8471704 1.367581 -5.27144 -1.7169967 0.7999239 -16.431784 -5.2961698 8.983901 -13.157154 4.898522 -0.8529903 3.7977347 -13.749709 6.8221164 4.7009573 4.048668 -5.351081 -7.1196404 5.0882196 3.5802274 -8.400852 -4.0406456 -8.374017 1.3026025 0.6767739 4.495987 1.1309062 -3.5245965 1.2362148 3.1759858 -0.28484863 14.096776 0.7985024 -0.35983455 -2.6165645 0.39632568 -5.989877 -1.3590162 -11.261953 -1.3073157 3.0528872 -5.5007997 -3.2640157 -1.4704269 0.9992712 3.0734286 -4.4497604 8.32935 -3.0935972 5.6428304 -2.3471937 6.0641565 1.9336272 -4.227376 14.720218 8.76669 0.13852324 -1.9851748 -1.9484235 -7.326438 -12.708589 0.648561 -0.9751027 1.2625449 -0.13060585 -1.1024597 -5.701528 -4.026508 -2.2286716 8.758894 0.6947935 -0.7036611 -3.359534 0.5136161 -3.9877605 -8.866919 -4.7509384 -0.21400796 -4.6502237 -1.1842629 -2.2648187 3.8410254 -1.4914473 -3.8037262 -8.5237665 3.1358483 1.894042 8.363015 -2.2298727 3.8948753 9.413003 -4.391083 4.70047 0.51250815 2.0303025 2.3312807 1.066482
C7H6O4+Na+ 2.8760967 -5.204549 5.6596966 10.444062 0.5851776 -7.8019085 -1.3330206 0.8417551 -15.224151 -4.602471 7.781339 -11.594981 0.7784769 0.59003216 -2.1173148 -11.935497 4.4915347 4.0430603 3.085993 -5.3293495 -4.760778 3.716451 1.6853433 -7.08619 -1.1722465 -1.4422024 -1.7519872 0.575429 -0.0008233655 2.4756496 -1.3288897 -1.2103133 4.7090864 3.6201043 19.059542 -7.5308437 0.90226746 8.467355 0.21102971 -15.674855 -2.009955 -16.335659 -1.8256283 4.6475534 -6.642693 -4.7287507 -0.32024464 -0.5234209 6.7076473 -2.831785 7.6735215 -6.320418 6.731475 0.4499576 5.809941 6.1061893 -3.6584768 10.729747 7.075107 -0.2999212 -1.0155392 -0.053031087 -5.4058933 -6.784503 4.1334352 -4.161066 2.1233234 -0.9881015 -0.34002244 -3.657188 2.2369673 -3.2543194 13.160901 1.6808336 -4.643865 -1.6338471 4.752166 -11.564874 -15.1501255 -5.2817063 -0.38676 -10.99186 1.2772328 -4.6688113 7.328436 0.68945825 -6.345472 -9.23559 3.697429 1.6314658 9.019385 -2.0269308 4.6757593 10.474026 -4.8946233 5.5309734 0.4772802 2.5772004 2.7210786 1.4376562
C15H28O4+K+ -0.78922164 -1.5076402 19.243496 -9.208286 38.899715 0.70978206 -42.753693 15.242111 -10.368732 -2.4490333 -14.09722 7.101446 10.252935 -2.7779124 13.567867 -2.968812 17.034174 -6.2196283 -10.511808 7.406889 -19.999292 19.071983 13.517616 7.538137 -9.032382 -17.381575 5.361689 -2.8742707 5.186188 5.455061 -8.342612 -0.7286144 2.7369983 -0.46979877 9.695744 0.6528343 0.3565662 2.3243058 0.37346482 -3.5169961 0.32867572 5.010644 1.8910997 -2.8075235 0.33037803 -6.0259943 -2.9199533 -1.9562802 3.027646 0.2050314 3.295032 -3.7317195 1.511471 0.15651274 1.7095926 3.3947573 -4.6536975 10.681198 8.67445 -1.3587931 -2.8838446 -11.342224 17.193468 14.552619 3.9667532 -2.8412676 1.2608461 -0.75404966 0.40557915 3.8362424 7.943725 -2.1932604 1.5843834 -0.42871216 0.94703925 -1.3979335 -0.79066426 0.63975656 -1.0066172 -0.6151168 -0.051512167 -0.6371854 -3.0883574 -1.1545452 0.03294438 -2.7028718 -0.8192546 -5.1384125 3.5805633 0.7741968 8.554288 0.18808585 3.1354892 7.256073 -2.8875794 3.5653577 -1.5837888 2.3618088 2.6312273 -4.7705636
C35H66O4+H+ 3.0076604 -6.3814106 2.7976246 12.51847 -8.571821 -6.3879056 9.112963 -3.0101428 -14.735208 -5.0593543 11.8357935 -14.823255 2.5447035 -0.12632613 0.33610025 -14.10421 3.636559 6.961579 7.277918 -7.966457 -2.5790067 0.45586306 0.40850645 -11.833211 -2.2520986 -4.8942633 0.21453762 1.1976868 3.691392 0.21312368 -2.1555052 1.3891907 3.0853355 2.1589465 13.109232 -4.8144 -0.62133765 -2.0086045 0.3351208 -7.8190904 -2.482677 -22.455587 -3.9585814 7.4224706 -8.130066 0.6828266 1.2401342 2.3814077 3.885434 -5.985719 10.0924015 -3.4773586 7.31249 -2.2558925 7.2424974 1.9971368 -2.9435172 11.660927 6.3018465 0.5158809 -1.1181678 2.6520362 -15.981318 -20.860071 -10.314671 5.4861317 -3.7707415 2.1872034 -1.7062186 -16.458204 -20.339422 2.106978 10.74041 2.7179034 -5.794956 -0.011215709 6.9795623 -14.363064 -15.024045 -4.8773108 -0.3514699 -10.328414 3.6231427 -3.474732 8.672649 3.4059896 -6.321717 -5.581196 1.1507267 1.5275344 3.309604 -2.9723117 2.6016057 6.0625396 -3.3715968 3.2689502 2.1290066 0.7469422 0.84028757 5.989984
C7H6O4+H+ 3.7138243 -6.1543612 1.7091701 15.919802 -10.671876 -9.271448 10.927795 -3.4479985 -15.792991 -5.0920734 12.9802685 -15.901859 -1.519036 1.3757161 -5.9082894 -13.926852 1.5132868 6.949879 6.9819193 -8.706456 -0.29598302 -1.0209173 -1.5615308 -11.637256 0.21033376 1.1215172 -2.839998 1.3905077 -0.78812987 1.427868 0.23507187 -0.98981696 4.065023 5.316189 15.466973 -11.522086 0.78567934 9.431426 0.1467333 -15.593205 -2.6215937 -22.649473 -3.4587133 7.225017 -7.949558 -0.9576408 2.1048594 0.47667214 6.9825087 -3.344587 7.827972 -6.252051 7.252298 0.9462178 5.8565764 5.9991555 -2.6898398 8.986865 5.277678 0.15972278 -0.25781432 3.9679945 -12.904088 -13.778645 -0.8492342 -1.0585645 -0.55100787 0.08714727 -0.2950521 -6.921373 -3.8262615 -0.7673832 12.335822 2.441958 -6.85443 0.597753 8.463148 -16.735111 -16.6344 -4.190969 -0.4174355 -13.054569 4.192596 -4.788978 9.265736 3.8434262 -6.884054 -5.552478 2.3580468 1.3120496 5.606053 -2.314456 3.601369 7.7239695 -3.8655386 4.2767363 1.293814 1.6686041 1.6744701 3.9735613
C18H34O2-H- 5.455257 -14.411529 4.014344 6.6261735 -12.02807 -9.058684 13.901428 -5.131053 -18.262178 -3.7197163 14.490459 -16.676577 7.084753 -2.4975593 10.831546 -9.412847 3.9889026 5.6236286 5.746079 -7.1102605 -4.365238 4.2167726 -0.45609537 -7.785255 -1.0492935 -3.02616 0.57583153 1.6496594 9.609798 -0.4219587 -4.1555915 4.6372294 0.0027160943 -3.501364 15.4214 11.859083 0.21915081 -7.792684 -1.4589418 -7.97227 -1.8922548 -17.593988 -5.2371273 8.745474 -5.951969 0.8746541 -1.1170796 4.6529274 -1.8756554 -5.9491262 6.6891546 1.9473219 6.0216537 -7.455856 8.030605 -5.798821 0.49505675 4.7574906 0.445655 1.5589807 1.1277508 7.480916 -20.221039 -23.979591 -19.489563 12.390853 -1.3662485 2.6039858 -3.773553 -22.6144 -34.136673 1.808351 8.540389 2.8940923 -5.225833 0.3574862 -0.15784593 -2.564071 -7.241926 -6.0914207 -0.058160283 -0.87891066 3.3562124 0.083398685 2.0709186 1.5489504 -2.4183826 -1.1706264 -3.948115 0.29556134 -7.060523 -0.254547 -2.6117928 0.642236 -0.2576211 -0.91410935 1.4343745 0.61960685 0.48481232 3.398157
C22H24N2O2+H+ 3.3140264 -5.658968 3.9244106 12.997678 -3.997911 -8.69934 3.6155162 -0.8736413 -15.26849 -4.7060437 9.964356 -13.304732 -0.4564077 1.007951 -4.066819 -12.586015 3.0725226 5.398138 4.8372164 -6.9795346 -2.411365 1.3314579 -0.054825664 -9.186761 -0.13264275 0.6728164 -2.727394 1.0463094 -0.63064593 2.0016882 -0.4050646 -1.1987472 4.4889483 4.1479044 18.047085 -8.636821 0.994678 9.255505 0.14218695 -15.682334 -2.0067372 -16.491974 -1.8994154 4.779255 -6.5577435 -4.1858063 0.0467135 -0.48448956 6.77683 -2.9066532 7.648883 -6.3121285 6.741135 0.6634855 5.6561255 6.0736794 -3.2872732 9.844407 6.3708086 -0.1981286 -0.72896695 1.1375794 -7.179136 -8.150847 6.2105017 -5.4170237 3.16355 -1.4575962 -0.2017329 -1.3613551 5.646679 -4.08851 12.795102 1.6435683 -4.719167 -1.3804704 4.901229 -11.633411 -14.81052 -4.949252 -0.39315373 -10.930809 1.0900178 -4.7153144 7.033578 0.61530477 -6.1728563 -9.065989 3.843623 1.6201781 9.316656 -1.9573823 4.7896304 10.57347 -4.923617 5.6161637 0.3689348 2.6681058 2.8145618 1.1840761
C18H24O3+Na+ -2.1789572 0.24936856 24.476019 -17.848108 55.31403 2.6440365 -60.612602 21.501717 -11.50538 -2.5381963 -17.436129 9.342666 12.309668 -3.41694 16.608103 -2.5911222 17.712223 -7.509257 -12.174002 8.847964 -23.768375 22.975567 16.165155 10.657955 -10.347266 -19.805376 6.220055 -3.532028 5.9396095 6.442905 -9.745463 -0.90346885 6.8124676 -4.4704986 28.8076 10.01752 0.11928287 -2.5489094 1.051842 -9.344495 0.20681213 6.5638943 3.8780324 -5.025366 -2.419205 -16.903212 -9.1358185 -3.1579216 4.2837343 -1.5204763 7.1965575 -5.269344 4.121878 -1.9405653 5.297181 5.093873 -9.322035 22.62988 17.778776 -2.4786644 -5.6124024 -21.638105 31.149519 24.879133 19.517082 -13.337386 9.687726 -3.991978 -0.7346322 5.373863 19.358116 -10.955795 15.105179 -1.4401141 5.5335608 -11.324955 -8.88267 7.8709106 -8.572979 -8.952921 -0.2679401 -2.8313863 -9.530749 -3.7459145 0.48500448 -10.385601 -4.1450586 -21.91423 9.666844 3.446488 24.378819 -1.6958759 9.840235 23.133234 -9.894481 11.391929 -2.9471292 6.5802627 7.5020456 -9.55543
C10H16N4O3-H- -1.2689183 -2.2096138 7.0765185 -12.1038685 9.82268 9.814017 -9.129758 2.55821 -7.9851837 -3.336152 0.8605336 -4.2559657 10.264745 -3.6899107 14.927964 -3.0775921 7.947608 1.1304048 1.3796222 0.34542495 -7.9482026 5.844729 6.230756 -0.50783044 -7.072073 -16.973513 10.246161 -1.6149861 9.009228 0.27068433 -6.121972 2.8716826 -3.007472 -6.1753435 -4.5938973 14.350834 -3.6224954 -34.09078 0.30177596 20.027708 -0.6355674 -11.496345 -1.7863764 2.5028656 -4.655044 5.427589 -1.8786609 6.9209766 -6.460497 -8.313323 8.447647 5.8211284 1.4982972 -8.680887 4.9088354 -10.242304 -1.1865915 10.30952 3.8839147 1.4214929 -3.0647218 -3.3894255 -13.636728 -26.732038 -24.903896 16.824287 -9.784024 5.331471 -2.7968435 -23.705915 -41.22893 8.399957 -4.085687 1.5563602 -0.40040335 1.2227752 0.59111255 0.30536115 3.0545845 0.21500897 0.16706309 3.7381847 0.4427377 2.4106154 6.4325213 2.8515692 -2.0912015 1.0368605 -1.777834 0.6601261 -2.8497322 -1.1241417 -2.2025137 -0.93912786 0.14638618 -1.4782193 1.739714 -1.5482465 -1.31283 4.0131235
C10H12N5O6P-H- 3.4144456 -8.704205 2.025254 0.64255875 -7.572772 -4.654494 9.342924 -3.7211168 -13.313696 -2.7037072 8.978182 -11.101858 9.357096 -3.4644668 14.052634 -7.438034 5.136684 2.6238015 2.0322938 -3.861363 -5.9487796 6.053981 1.3217014 -2.8327346 -1.0822555 -3.1360357 1.2679714 1.1216134 9.108638 -0.6826597 -4.0002584 4.3515553 -1.3303735 -2.3671248 9.59952 9.722029 1.0062102 -2.6906097 -1.7893704 -5.103425 -0.6793984 -9.202244 -2.157629 4.830935 -2.8946269 3.0538301 0.60642785 3.7704325 -2.4362345 -7.399399 9.015267 2.3962362 4.5394206 -7.4144373 6.642985 -6.187833 -0.7880091 6.3243256 3.1695325 0.4711932 -0.06318368 2.2799082 -11.058342 -15.646177 -18.645992 12.333194 -3.7626402 3.446093 -3.3055985 -19.014912 -31.571554 3.5423086 1.5532637 1.1393505 -2.5291097 1.2689487 -1.0247514 0.27529857 -2.1829927 -3.0944114 0.045549903 1.7789425 1.8130071 1.3243262 2.5497947 1.0340974 -1.3749721 -0.9102549 -2.8811548 0.26580232 -5.425332 -0.629923 -2.103102 -1.2787783 0.40318188 -1.3964806 1.5026795 -0.8888858 -0.97040427 4.2297587
C13H8F2O3+Na+ 3.09414 -5.5942025 5.74579 10.429844 0.49114794 -8.38687 -1.237573 0.8089123 -15.415741 -4.5124874 7.9579206 -11.710242 0.6603693 0.590634 -2.1466093 -11.693885 4.3137026 4.2944856 3.322329 -5.762812 -3.7735388 2.8627076 0.78728867 -7.8452144 -0.4934178 0.044322327 -2.5243366 0.8492624 -0.19012429 2.3317788 -0.94352305 -1.1585033 4.6103277 3.7910113 19.469252 -7.511943 1.2812599 10.409773 0.015350397 -16.680794 -1.8782507 -15.2354355 -1.5104365 4.333321 -6.3201694 -5.0124273 -0.342731 -0.7386523 6.7518263 -2.7940774 7.7472672 -6.3990374 6.725153 0.3533001 5.814624 6.0506516 -3.7985523 10.83892 7.3598247 -0.43102822 -1.012372 -0.58700466 -3.7723274 -4.861914 5.1939616 -4.841321 2.7424555 -1.2524018 -0.27828422 -2.357953 4.1980634 -3.780894 13.161664 1.5271311 -4.5782585 -1.6318655 4.411683 -11.020008 -14.803374 -5.1714835 -0.3916864 -10.926767 1.0469012 -4.743075 6.7506866 0.18269435 -6.119895 -9.616229 3.9814703 1.6757492 9.716301 -1.9203725 4.913785 11.005881 -5.077167 5.7968283 0.2677961 2.835846 2.989013 0.879634
C16H26O5-H- 2.3592544 -7.2242346 3.4624493 -1.698292 -3.0129147 -1.3655766 4.436272 -2.0075128 -11.550596 -2.5388823 6.3876715 -8.690241 9.623305 -3.5112195 14.337827 -6.4071426 5.133181 1.9917847 1.575344 -2.6154256 -5.96926 5.5224466 2.2361856 -2.665273 -1.954038 -5.2215366 2.6005614 0.6713729 8.084816 -0.9910234 -3.644482 3.8810854 -1.6725996 -3.0452604 2.8609219 9.05946 -0.66678923 -10.819045 -0.8169371 2.6794393 -0.6625787 -8.752393 -2.4624717 4.206278 -2.5683832 4.1375194 0.44150132 4.055651 -2.9932337 -6.1914206 6.920437 2.885103 3.155667 -6.2652693 5.09869 -6.0375795 -0.35854584 5.012949 2.0278182 0.6464085 -0.5706178 1.4656156 -11.247175 -16.852875 -17.930967 11.987125 -4.7434893 3.5830803 -3.0171912 -18.245708 -30.161226 3.7293625 1.2479513 0.9860784 -1.2725226 0.1792551 -1.256131 0.7032277 -1.8547153 -3.0593774 0.068515174 2.2231631 0.8103758 1.31904 2.5919974 0.6783668 -1.2322216 -1.0897473 -2.2769854 0.30728352 -4.1069956 -0.53575903 -1.7593992 -0.7900298 0.23606293 -1.090616 1.1585745 -0.7632988 -0.8305815 3.2559497
C23H45NO4+H+ -1.3421512 2.6357605 10.095371 -14.349737 31.481785 -0.5781011 -34.80491 12.388985 3.1963627 2.7056632 -15.639038 14.02318 0.7427544 -0.3722718 3.0742507 9.197173 4.701599 -9.320609 -12.572332 9.560874 -8.721308 11.455542 5.688242 15.756474 0.28054044 2.8907876 -1.8907045 -1.9799056 -2.832561 4.270367 -1.3282716 -3.00422 0.8130323 -0.16916119 7.1887016 3.067989 3.6324487 19.516369 -1.0091711 -9.94975 2.4565337 24.65644 6.832864 -9.513567 6.580925 -11.048377 -4.4463053 -5.846039 1.8043748 6.117506 -5.873319 -2.3730648 -3.487254 2.9897346 -3.8772001 4.306101 -2.183279 -0.8829226 3.2677736 -2.3432848 -0.88136685 -12.271463 34.397274 39.873802 29.544424 -18.88604 13.282183 -6.5407214 2.2908006 27.71703 45.608757 -11.220601 1.6416398 -3.5892756 6.0142293 -5.0284133 -9.482405 14.225553 6.277416 0.020568866 0.06588518 4.192588 -7.3939495 -0.61531556 -7.4305606 -8.478179 2.901938 -7.2195306 5.355251 0.41579032 12.500528 2.2155962 4.1125345 8.555455 -2.8694248 4.323416 -3.6495638 3.7678564 3.988978 -10.26111
C11H8O5+H+ 3.1182053 -5.4529986 4.0412064 12.225137 -3.6752129 -8.153787 3.3206542 -0.80063015 -15.154592 -4.7102613 9.949324 -13.268028 -0.093813956 0.8675717 -3.5208235 -12.617104 3.1850405 5.224568 4.7050157 -6.686082 -2.8196232 1.6706859 0.29601797 -8.932183 -0.6560447 -0.5044765 -2.086779 0.866899 -0.09195388 2.0533748 -0.8630564 -1.0345641 4.4635 3.9012861 17.99788 -8.191577 0.8396293 8.344063 0.17311575 -15.376644 -2.1560028 -18.023064 -2.3313315 5.4076123 -6.919043 -3.4254768 0.4154569 -0.15427239 6.560169 -3.0209577 7.631466 -6.0766783 6.775892 0.47515213 5.7618747 5.814622 -3.2342014 9.861006 6.2918334 -0.13842489 -0.7280228 1.2904191 -7.7696915 -8.930898 2.7503781 -3.2549896 1.5056678 -0.69172996 -0.392682 -4.619825 0.35732296 -2.6048503 12.85251 1.7858405 -4.9212084 -1.2703453 5.1999006 -12.142137 -15.162971 -5.0793557 -0.38709053 -11.120444 1.705858 -4.6077914 7.5212975 1.1664193 -6.3390174 -8.527928 3.3823967 1.535581 8.218831 -2.0264628 4.3955154 9.760559 -4.6116905 5.196799 0.61235875 2.3750267 2.4867303 1.880285
C14H10O6+H+ 2.935838 -5.48011 6.381453 9.490287 3.1847837 -7.80359 -4.140098 1.8119148 -15.468566 -4.52701 7.1624823 -11.123333 1.3115008 0.3854904 -1.2031453 -11.684717 5.388575 3.8998308 2.7155528 -5.236907 -5.7370625 4.770646 2.1481144 -6.676695 -1.4396061 -1.9486991 -1.6397038 0.5362622 0.8018727 2.6401982 -1.8963742 -0.9186211 4.325221 3.1907835 18.015186 -6.331733 1.164339 9.607858 0.058704518 -14.989015 -1.6084001 -12.692929 -1.0273741 3.4212997 -5.4628835 -5.188334 -0.55342966 -1.0275656 6.566701 -2.6353092 7.4845796 -6.2400527 6.1622357 0.54314905 5.2682567 5.9704766 -3.8313646 10.602697 7.3711853 -0.5374691 -1.1277391 -1.4499435 -1.7489004 -2.7799416 5.934441 -5.130078 2.9417963 -1.4004352 -0.12268383 -1.5764054 4.3119373 -3.2126796 11.407179 1.294366 -4.0844717 -1.2735993 4.045467 -9.826949 -12.855072 -4.281701 -0.36111316 -10.142103 1.2789066 -4.3482127 6.0968585 0.56168145 -5.3981547 -7.8820887 3.447817 1.4375026 8.381329 -1.6646925 4.2906494 9.440939 -4.3724823 5.0266447 0.23783663 2.573029 2.6902893 0.8293588
C24H32O5+Na+ 1.8869674 -3.9933019 -0.3166673 8.68006 -10.044829 -3.5798635 10.939161 -3.7795403 -7.7473564 -2.8565125 8.63056 -9.722401 1.2571628 -0.07578757 -0.04290773 -8.3968725 0.8419032 4.69726 5.405753 -5.1870704 0.26079848 -1.6296482 -0.80805933 -7.877787 -1.0761423 -2.7779856 0.44586682 0.96259826 2.7170722 -0.7632905 -0.97982776 1.4596065 1.2611915 0.9528113 5.7102375 -2.250741 -0.77173203 -3.9334629 0.18926539 -2.4743812 -1.643736 -15.495797 -3.10427 5.4036717 -5.328168 2.3096602 1.3919736 2.332549 1.564899 -4.658905 6.8491654 -1.2423878 4.744085 -2.1008053 4.8661513 -0.016392406 -1.299727 6.945751 3.105168 0.71092534 -0.42921886 3.6407201 -14.88823 -18.617176 -8.969204 5.2298126 -3.2031057 1.8684717 -1.2634361 -11.845703 -16.429943 2.479203 5.4292693 1.9885751 -4.004829 0.7786121 5.0604897 -9.669866 -8.874822 -2.6277466 -0.17953588 -5.2140317 2.4185207 -1.5079 4.679998 2.2071583 -3.3437061 -2.526594 -0.029812004 0.8391031 0.39443496 -1.8956332 0.92017883 2.3369935 -1.514039 1.24408 1.5181979 -0.13699993 -0.08334717 4.2036233
C15H10O6+H+ 2.9505124 -5.5854816 6.936011 9.222634 3.2945015 -8.220467 -4.2688336 1.8727256 -16.0605 -4.6657014 7.1771984 -11.3414135 1.4868321 0.34116542 -1.0029511 -11.927269 5.407504 3.602821 2.3517714 -4.920352 -6.000079 5.0953236 2.3473938 -6.228016 -1.4057014 -1.7936532 -1.7679639 0.4928979 0.6532263 2.7610028 -1.9237517 -1.0420039 4.698479 3.1663494 20.181273 -6.084527 1.226451 9.542885 0.048289917 -16.312393 -1.7603465 -14.023873 -1.1734306 3.7911208 -6.192097 -5.5601416 -0.768033 -0.80658835 6.5602016 -2.8191047 7.7991858 -6.262821 6.650223 0.14221682 5.88684 5.994386 -4.1778436 11.810728 8.092377 -0.5142164 -1.2284826 -1.5407324 -2.1747594 -3.4653468 6.7783337 -5.813101 3.5363739 -1.5913326 -0.23660822 -1.2919891 6.0861955 -4.387894 13.551153 1.3376467 -4.13252 -2.1472387 3.4323127 -9.673446 -14.497003 -5.474028 -0.38274023 -10.344145 0.26558712 -4.6901994 6.317331 -0.54599315 -6.003682 -10.480585 4.4602757 1.8178862 10.923619 -1.9236333 5.225605 11.665326 -5.355955 6.1254354 0.13706562 3.0587702 3.2324402 0.4881941
C37H66O4+H+ 3.7146091 -8.040572 4.6786356 14.786212 -8.079274 -7.9976006 8.482361 -2.7171478 -19.105442 -6.3601747 13.615936 -17.805967 3.8291018 -0.35702595 1.4145372 -17.383486 5.5718994 7.659382 7.6315994 -8.8086405 -4.745859 2.2178416 1.5698093 -13.24853 -3.197984 -6.749775 0.30849388 1.3484372 4.759861 0.5465246 -3.0848572 1.6605188 4.0740085 2.9062304 17.115767 -6.457685 -0.6939059 -1.790903 0.4347024 -10.565011 -3.0087018 -26.998087 -4.5982585 8.829036 -9.985825 0.2216505 1.3778378 2.6300304 5.127747 -7.1249533 12.387192 -4.6440806 9.074412 -2.6297264 8.934384 2.9167593 -4.0619764 15.252568 8.556703 0.4760235 -1.5992945 2.20589 -17.733583 -23.787203 -10.868408 5.550749 -3.7518573 2.25589 -1.9651641 -18.639545 -22.380968 1.994622 13.398892 3.0854356 -6.739411 -0.36726576 8.051931 -16.920599 -18.251331 -5.9907904 -0.4397726 -12.539383 3.728507 -4.411178 10.205827 3.390123 -7.710445 -7.936287 1.8073351 1.9620734 5.0593667 -3.524716 3.5679848 8.137565 -4.380083 4.3892794 2.183739 1.2147573 1.34164 6.146485
C10H14N5O7P+H+ 3.1665404 -5.556884 4.6598043 11.545976 -2.8855343 -8.5129795 2.4272714 -0.4775421 -14.844796 -4.435059 9.23552 -12.506866 -0.3208397 0.91178626 -3.5855365 -11.700866 3.4695828 4.7540035 4.0170836 -6.2853594 -3.4434988 2.5113366 0.6455961 -7.8341746 -0.48497638 0.0054525696 -2.4637904 0.8561849 -0.20652458 2.2025585 -0.8720697 -1.1080331 4.4216347 3.9155378 18.382599 -7.9170065 1.1361129 9.761301 0.06253447 -15.809299 -1.8885126 -15.5033655 -1.6589841 4.464198 -6.2949634 -4.426535 -0.09898282 -0.58562654 6.639872 -2.8157284 7.5534496 -6.214538 6.558112 0.54720265 5.5787973 6.052339 -3.3779047 9.676505 6.5027475 -0.33916792 -0.75460404 0.3784981 -4.884264 -5.478549 4.2500434 -4.1710453 2.1928062 -1.0159698 -0.26158154 -2.9122176 2.9311879 -3.199573 12.425402 1.6491274 -4.798903 -1.1378015 4.9919853 -11.6179285 -14.500727 -4.7467237 -0.38655356 -11.026828 1.52299 -4.645897 6.883979 0.67960316 -6.023285 -8.752003 3.7044828 1.5902956 9.009936 -1.903739 4.642104 10.312227 -4.794506 5.4558496 0.38204646 2.5957274 2.7401237 1.2020786
C10H15N5O10P2+H+ 3.2026894 -5.440708 3.1704502 12.416029 -5.3808384 -8.313983 5.199192 -1.462573 -14.20042 -4.3591843 9.989375 -12.899156 -0.7100489 1.0047704 -4.1260095 -11.711541 2.2972527 5.1860204 4.7870207 -6.725289 -1.7089895 0.77037466 -0.47708184 -8.716288 0.24606255 1.3686984 -2.85045 1.1035358 -0.7584155 1.6912206 -0.0826032 -1.0792594 3.8541858 4.4579625 15.618364 -9.276531 1.0450599 9.847559 0.0056146444 -15.248854 -2.1018963 -17.813585 -2.4071164 5.5380225 -6.5631905 -2.5086198 1.0065547 -0.10062671 6.3569784 -2.6565938 6.9004936 -5.8272667 6.31843 0.7441189 5.197027 5.6334453 -2.672771 8.15079 5.1798935 -0.09752784 -0.38709673 2.133894 -8.085153 -8.563482 1.8551927 -2.6399314 0.96067387 -0.51028514 -0.26250446 -4.4017315 -0.04368908 -2.0121408 11.636064 1.9330258 -5.6366916 -0.10190479 6.2550616 -13.258072 -14.660438 -4.2210975 -0.36990637 -11.22463 2.7353735 -4.408336 7.6064277 2.2066693 -6.06941 -6.5679 2.570106 1.2395722 6.1540437 -1.8876265 3.5807765 7.812224 -3.7814608 4.2550507 0.960173 1.7357473 1.7365438 3.0251799
C15H16O9S+K+ -0.82957804 -1.2377806 18.904097 -7.179389 37.970856 -0.31537688 -41.911045 15.037298 -13.522072 -4.202851 -6.303058 -0.3913646 7.9817805 -1.69285 8.582033 -8.993916 12.876325 -1.8547109 -4.648342 2.509853 -16.290861 14.591282 10.911895 1.4944656 -8.571138 -16.710455 4.5682454 -1.942209 5.1732 4.562213 -7.5039854 -0.31582093 5.9165993 -1.413507 22.453901 2.355568 -0.60760134 -3.3966575 1.1599139 -7.937195 -0.9714346 -5.4757595 0.8111716 -0.30476156 -4.835014 -10.632737 -5.3366694 -1.314787 4.440205 -2.4757614 7.8976064 -5.113889 4.929477 -1.6316435 5.7327824 4.9214087 -8.290099 21.593437 15.888151 -1.700498 -4.889843 -16.735876 20.772163 14.461424 14.7832 -10.283058 6.743014 -2.9031603 -0.46324056 3.0953963 14.125578 -8.032393 14.494927 -0.29795974 2.658929 -8.72932 -5.235888 2.9415255 -9.569928 -7.6527123 -0.33497962 -5.832879 -6.2434473 -4.086908 3.196173 -6.6730466 -5.1363325 -18.235249 8.179892 3.2903905 20.544468 -2.6965005 9.107084 20.38184 -9.191606 10.39302 -2.3280232 5.6066403 6.414699 -7.6123376
C6H12O6+Cl- 4.172658 -10.538951 5.26054 3.3638535 -3.602659 -9.654329 4.1913815 -1.4285443 -13.494489 -1.4720861 8.511966 -10.002491 5.4223514 -2.0797462 9.238122 -3.745816 7.095118 3.1144688 1.9521037 -4.664689 -6.5055003 6.747265 0.81366277 -4.392291 -1.7830367 -3.6244645 -1.6402795 1.9354178 11.992032 -2.4000814 -5.2374663 6.9202614 -2.3185344 -0.7175642 4.8800206 6.462723 2.2286043 7.5346794 -2.1591604 -5.857405 -0.4797139 -5.5183854 -1.4363763 3.861989 -3.8744912 3.1494 1.4179832 2.9515426 -1.1244293 -6.425602 8.614367 1.0604068 5.421886 -7.132488 7.1035886 -4.7642207 -2.224012 8.982386 5.813814 -0.16398026 -0.12711743 0.47035742 -5.171974 -8.127579 -10.332123 6.6281543 2.65402 0.8276148 -2.57154 -11.288875 -20.15999 1.5753452 6.901075 0.19909243 -1.3236421 -1.9232094 -4.3946633 4.4227443 -2.023345 -4.0072 -0.107349984 1.099984 -0.7698378 -0.059883073 -3.7664657 -2.9863963 0.5246572 -3.6246653 -0.87222993 0.90959895 -0.5373546 -1.1337965 -0.28646147 1.905692 -1.0255492 0.58695936 0.5259356 0.94414514 0.75258666 1.3586283
C9H14N4O3-H- -1.7402744 0.8863129 -0.8980585 -5.598041 -4.831334 11.086599 6.805758 -3.062755 -3.0750203 -3.1058166 3.2987525 -5.0239496 10.161499 -3.0471127 11.892878 -12.293585 6.4179034 4.487086 6.198864 -2.693756 -5.8942924 2.8567672 4.3250475 -6.79116 -5.5652413 -14.416959 8.507129 -0.25034317 8.39979 -2.240176 -3.9627469 3.9057393 -0.10773803 -5.264063 -6.4947515 7.1576 -5.469137 -29.484762 1.9822143 19.376287 -1.1647242 -11.362539 -4.960643 4.6580553 -2.466208 10.551369 2.8431609 5.0923524 -3.920845 -8.246763 8.668698 3.8817708 3.4726799 -4.666213 5.27716 -4.887691 -2.1985555 12.3612 5.1624565 1.4453142 -2.0839803 1.2604237 -19.757038 -29.606028 -28.153034 18.325478 -10.944715 6.460806 -2.909448 -26.765617 -48.715824 14.549671 -1.5785501 1.0656321 3.8105931 -4.0710745 -0.043203514 -1.1087106 -2.1558208 -3.8247523 0.10470404 2.7413747 1.2022752 2.4257452 5.7863955 4.0428987 -1.6249827 3.1766655 -2.3914049 -0.025604881 -6.108313 -2.4266212 -4.395944 -5.122985 1.8250319 -3.709367 1.9199593 -3.581351 -4.151453 5.600103
C12H20N2O3+H+ 3.8178031 -7.423984 -0.9716371 19.029573 -20.327011 -7.837494 21.855793 -7.43321 -15.34536 -5.688849 17.1875 -19.334772 0.4277469 0.6656031 -3.3825476 -16.544724 1.4673868 9.702972 10.932163 -10.9519615 0.9610593 -3.6397493 -2.0193608 -16.411007 -1.4937345 -3.67154 -0.49472463 1.9966547 3.5818284 -0.92763406 -1.1744791 1.8851243 2.5988524 3.9282994 9.666738 -9.209472 -0.9960022 -2.3344746 0.37792134 -7.293899 -3.2509935 -30.295956 -5.895957 10.470849 -10.098186 4.6446447 3.6705022 3.671317 4.1833363 -7.156211 11.213024 -3.451388 8.404705 -2.178047 7.9853497 1.7791244 -2.0037663 10.781963 4.639345 1.2109061 -0.42977113 7.618372 -27.036022 -32.282806 -18.448238 10.51127 -7.6895695 3.944247 -2.0074074 -23.474327 -32.126793 5.8461323 10.594368 3.9608722 -8.699978 2.3896782 11.665279 -21.321072 -17.972523 -4.1972876 -0.40627033 -12.815134 6.3109374 -3.7483313 10.847876 6.240944 -7.28967 -3.2194633 -0.30018353 1.4361768 -0.21666777 -3.7927701 1.6938965 3.426419 -2.564751 2.1519232 3.3039665 -0.5436591 -0.5904907 9.501483
C25H49NO4+H+ -1.5643644 2.643419 9.849088 -13.076178 29.714426 0.57976526 -32.802486 11.667245 3.1185052 2.326097 -15.128199 13.395001 1.4776053 -0.5113888 3.5288477 7.158139 4.9334664 -7.9058843 -10.704991 8.384578 -8.508219 10.390181 5.854585 12.935045 -1.1472247 -0.53857374 -0.34910464 -2.0251422 -1.8533006 3.701222 -1.761326 -2.445022 0.91119146 -0.7417684 6.0537715 3.5038776 2.739446 14.520071 -0.61276007 -6.942951 2.1971612 22.231134 6.111851 -8.743606 5.9509873 -10.138968 -4.402145 -5.188524 1.3087273 5.537266 -5.404875 -1.9007667 -3.350628 2.6094482 -3.58478 3.7022889 -2.3429 0.24342126 3.6286075 -2.1458936 -1.24438 -12.254086 31.652096 35.567665 25.730354 -16.406633 11.5851145 -5.64786 1.8784003 23.523478 38.865658 -9.72039 1.5571382 -3.2106297 6.0176134 -5.1895094 -9.041132 13.50899 5.866503 -0.25625855 0.06394432 4.3275495 -7.227708 -0.38740942 -6.927018 -8.087516 2.6976843 -7.089831 5.0281653 0.40554157 11.801828 2.06239 3.7468033 7.820292 -2.606156 3.9049716 -3.5004401 3.4454632 3.728683 -10.029461
C9H14N4O3+K+ 6.402139 -11.228409 -3.8757222 39.74572 -39.84331 -14.531334 42.40156 -14.248162 -26.969847 -11.312431 32.721798 -36.59491 -1.77621 2.5534647 -11.889953 -34.151497 0.6829764 19.4478 22.52874 -21.405687 4.48861 -10.248629 -4.6595883 -33.278072 -2.6590579 -6.669167 -0.45844793 3.451092 3.680171 -1.3913027 -0.735993 1.8881046 6.8331327 8.005342 19.898996 -20.994967 -3.4343445 -9.928602 1.8798693 -11.379459 -6.5964813 -60.34685 -11.693668 20.017035 -19.924181 8.672032 7.0319285 6.589772 9.09483 -12.595876 20.3585 -7.6332517 15.978113 -2.1543114 14.538852 5.6693854 -4.6285367 22.55397 9.903984 2.4066956 -1.5194389 14.046899 -53.488922 -64.41036 -28.473396 15.6350155 -13.167432 6.350129 -2.8530269 -38.90743 -51.17742 9.788726 20.774282 7.036783 -14.817481 2.716375 21.644611 -39.70601 -33.773045 -7.72799 -0.8164954 -25.736355 11.44935 -7.8452334 21.307629 12.193644 -14.086931 -5.7822876 0.8917018 2.7648375 2.5299249 -7.0710087 4.384024 7.526716 -5.3215213 4.9670396 5.834272 -0.39141026 -0.3554565 16.708456
C12H18O3-H- 1.540375 -5.6002393 0.5379719 0.7334626 -9.1519575 0.9526027 11.151316 -4.367338 -9.839107 -2.8622437 8.234204 -9.931461 8.577746 -3.0470362 12.068762 -7.820592 3.4153337 3.5906541 4.1345263 -3.820708 -4.196771 2.8652074 1.5911266 -5.9348555 -2.5399733 -6.8863626 3.476689 0.7796718 7.7703376 -1.6687378 -3.231874 3.9447374 0.079299554 -2.3455896 8.04302 6.6811934 -1.2655044 -12.67196 -0.36056435 0.21516715 -1.6733446 -17.385849 -3.989405 6.8866496 -6.012503 3.8444545 0.62717146 4.806322 -2.4591389 -8.138493 9.674838 2.4517744 5.404156 -6.7558713 7.256728 -5.2769985 -1.1247324 8.305098 3.6412418 0.89348537 -0.9458505 2.4042659 -16.678478 -23.92787 -20.724161 13.241523 -6.1641545 4.239691 -3.3435876 -23.097845 -35.615437 4.6896887 5.3792963 2.0606885 -3.5013833 0.15260556 2.2939727 -6.1233406 -8.2202425 -4.6628113 -0.067840345 -1.7076209 2.1918344 0.043410152 6.3574686 2.3443077 -3.750933 -2.7788541 -1.8520823 0.9042328 -2.8959086 -1.7261254 -0.7544964 1.2119522 -0.93801653 0.09284313 1.9564681 -0.76692617 -0.8504402 5.570146
C26H52NO7P+H+ 3.4232905 -7.2607603 1.2215087 15.98069 -14.70948 -6.7432594 15.8623905 -5.383583 -16.188004 -5.8217087 15.099865 -18.02233 2.6386125 -0.081553586 -0.10083204 -16.598026 2.9037364 8.370226 9.162167 -9.400778 -1.2615337 -1.3170524 -0.4449396 -14.33109 -2.3361359 -5.4156013 0.45247838 1.5367371 4.245882 -0.461983 -2.0288184 1.8997785 2.7782695 2.2821486 11.196857 -5.4578667 -1.0775348 -4.3512344 0.4387475 -6.1961474 -2.7384062 -25.23634 -4.823846 8.576538 -8.792118 2.6063545 2.0973225 3.1631153 3.4832537 -6.5568447 10.361382 -2.9641879 7.488755 -2.4733913 7.3956327 1.303043 -2.429566 11.166783 5.415221 0.87644935 -0.8680322 4.617219 -20.727455 -26.082977 -12.424798 6.9954762 -4.67828 2.6491218 -1.8214258 -17.799078 -23.44629 3.169467 9.38597 2.7700684 -5.578349 0.31608063 7.030726 -14.045924 -13.9840145 -4.4341836 -0.31500703 -9.309742 3.64851 -2.9449284 8.13816 3.4500012 -5.8569384 -4.8696833 0.63382095 1.4548374 2.1428697 -3.017553 2.0982177 5.001809 -2.937944 2.6901312 2.2436159 0.33670482 0.44447812 6.2132564
C24H50NO7P+K+ 2.8701606 -7.8358693 14.67698 14.895147 10.924022 -7.7086296 -12.765463 5.0480537 -27.50293 -9.890703 10.891054 -19.466667 8.085759 -0.8708251 4.3903923 -25.813454 13.362642 7.7881823 6.572516 -8.103457 -14.182654 9.610375 8.601086 -14.997856 -9.753222 -19.91119 4.585518 -0.24067584 7.3466163 3.424477 -7.787741 1.0094377 9.059243 1.0219651 32.284077 -4.5193324 -2.2729447 -9.641005 2.0374165 -12.547665 -3.9144034 -32.194763 -4.604487 8.738458 -13.9668255 -7.334909 -2.7493124 1.8188044 8.68615 -9.131872 18.14816 -8.526673 12.959128 -2.9678068 13.0378 7.0328097 -9.7384405 31.018435 19.282728 -0.23228848 -5.068028 -6.669041 -12.125451 -23.996141 -3.4017322 0.059391305 -1.1669405 1.0422305 -2.2794359 -19.752205 -17.262665 -1.9249667 23.026365 3.2905514 -5.0283246 -6.2891107 7.0677977 -18.996452 -27.103971 -11.297477 -0.6566508 -16.660248 -0.3744747 -7.1505613 12.503511 -0.6199027 -11.056603 -19.302809 7.3496423 4.269551 18.765924 -5.9463716 9.558873 21.01714 -10.260071 11.071077 1.2972692 4.465054 5.1501803 2.8722177
C17H14O10+H+ -6.4476366 8.0761385 22.699377 -44.191463 73.674385 12.976856 -79.65116 27.596333 9.701668 6.0037932 -38.068447 34.060272 12.829231 -5.185453 24.404222 22.192038 14.679759 -21.285332 -27.426899 24.126108 -23.936272 27.596542 17.566385 34.75615 -7.3714714 -13.441213 6.919993 -5.7166595 3.7937453 6.2827573 -8.46758 -1.5333798 -0.40439048 -10.242852 6.3861165 25.483097 2.3936322 2.5808327 -0.6751933 3.6227143 5.4408703 52.645714 12.170189 -19.60151 13.997665 -18.685637 -12.267905 -7.102942 -4.734074 8.176068 -10.176687 2.7766051 -9.371 -0.53057396 -7.036172 -1.5060252 -3.8001747 1.2217605 6.5949473 -3.6556067 -3.3327458 -27.466442 63.52331 66.04766 35.845192 -21.39314 17.513945 -7.7837973 1.5108228 33.78327 52.64158 -15.386407 -5.0680623 -6.5794125 15.913597 -10.768913 -23.947254 37.594048 20.560556 -0.66828555 0.45789963 18.834965 -16.356579 3.6712918 -16.766417 -17.555323 8.261123 -11.75378 6.5731683 0.44167033 16.440413 4.336448 3.864997 11.24077 -3.1367016 4.50833 -6.9964576 5.346673 6.0832124 -20.9958
C10H14N5O8P-H- 5.5022917 -13.155857 6.8095765 2.427129 -3.0762565 -10.480619 4.2077804 -1.7736144 -19.96374 -3.5549216 10.534508 -14.0990095 10.421764 -3.7673383 15.818213 -8.878863 6.774418 2.8503075 1.4641204 -4.8284984 -9.120123 9.76251 2.1261299 -2.811954 -0.706244 -1.6401312 -0.76545167 1.6377777 10.618986 0.076792054 -5.0967546 4.843769 0.19998124 0.08154943 26.911177 9.331398 5.077229 18.216251 -3.7146337 -24.232382 -0.78855795 -10.019283 -0.3355431 5.1099987 -4.7309933 -3.2262447 -0.41717857 1.868005 0.38587627 -8.275726 12.354029 -0.3840753 7.8618107 -8.422779 9.882911 -3.5282006 -2.8146763 10.721821 7.30155 -0.38691583 -0.09442605 0.09934713 -4.4419794 -7.4390182 -5.529736 2.9428697 5.3021564 -0.05055643 -3.8692782 -14.435255 -17.91861 -4.072291 13.638397 0.9975221 -4.5487933 -1.7133834 -3.275759 -0.14193824 -10.767204 -8.149953 -0.18243594 -2.9097166 0.36511335 -1.4616647 3.020055 -2.1418917 -3.760778 -9.422264 0.9674506 1.8240678 4.7183995 -1.1134804 2.3449237 9.309045 -4.050046 3.9249206 0.43520668 2.6781347 2.788747 1.2493689
C18H32O2-H- 4.169464 -10.120899 3.271358 3.5818992 -5.6580157 -6.034316 7.2456827 -2.9112265 -21.446833 -3.2016816 11.135676 -14.698135 9.3616085 -3.3577793 14.074947 -8.105049 4.901715 3.6385865 2.2882912 -5.6670146 -5.697137 5.3239436 0.72431743 -6.8112235 -0.45130944 -2.2581358 1.9432144 1.0094773 9.513042 0.45449525 -5.06941 3.2261925 0.10219264 -1.4016155 16.15444 8.135036 1.1627617 0.68680716 -1.7120367 -9.300108 -0.8857177 -11.460832 -1.831859 4.755611 -4.5629497 2.7439969 1.6083287 2.8875055 -2.4845314 -6.651796 7.506548 2.925626 4.52607 -5.3833694 5.2939615 -4.3841033 -0.7885621 6.826295 3.1098492 0.82050234 2.6446848 7.167501 -9.124042 -6.1344414 -7.550922 3.9214964 3.7122817 0.24855824 -2.6063824 -14.463338 -21.74875 1.3076177 6.351312 1.1303266 -4.671971 1.4359173 -2.8403008 1.7447642 -4.0807 -4.6757355 -0.09725978 -1.6883386 1.1454005 -1.0799252 3.923479 0.24525763 -3.278217 -3.6948576 0.733233 1.1967306 3.2676048 -0.6742739 1.113262 7.249549 -3.094465 2.6982577 0.8771579 2.1546977 2.5841172 1.7541595
C10H16N5O13P3+H+ 3.1457617 -4.770636 -0.30360287 13.217859 -11.547752 -8.05983 11.959023 -3.8718338 -10.374304 -3.2422004 10.731525 -12.045047 -2.99986 1.5678961 -6.730527 -9.0962715 -0.30832532 5.312157 5.4515686 -6.927056 1.6570745 -2.211512 -2.6424837 -8.621403 1.736242 4.381496 -3.9514182 1.4983841 -1.7065476 0.6263674 1.3695781 -0.8553285 2.7275875 4.814496 11.02424 -9.933833 1.2832912 11.403095 -0.21366505 -13.76769 -1.8204738 -15.806801 -2.2438447 5.17683 -5.429142 -0.91992897 1.8530488 -0.08596636 5.5099106 -2.0235794 5.348626 -4.935807 5.1659703 1.0694604 3.956682 4.809408 -1.2989249 4.3320894 2.5208583 0.10391477 0.3496198 4.220298 -9.813133 -9.156583 1.2091701 -2.0007212 0.4624585 -0.3787942 0.014085408 -2.7825565 0.7474549 -1.249632 8.982675 1.764801 -5.665613 1.140802 6.5013075 -12.59182 -12.090638 -2.6261296 -0.31169218 -9.898188 3.307175 -3.683148 6.435354 2.7911203 -4.907545 -3.87735 1.4874516 0.7845742 3.420151 -1.4519757 2.332992 4.7225404 -2.3882234 2.7520747 1.0324254 1.028596 0.9252798 3.3884716
C16H24N3O8-H- 2.4614787 -5.953531 3.5828207 -1.2851167 0.65784335 -4.4683337 -0.16717805 -0.1641869 -8.856742 -1.5444986 4.0027623 -5.740629 5.9018908 -2.1536195 9.008319 -4.116798 4.241871 0.48997605 -0.4147132 -1.3385515 -5.3996935 5.993167 1.6891614 0.51560444 -0.14468785 -0.4623831 0.1560482 0.51213455 5.013517 0.17015894 -2.3517153 2.2136748 -0.9794545 -1.3214402 7.307905 6.672367 1.5396887 2.7332962 -1.4997007 -5.356502 0.0177322 -1.5868373 -0.01603522 1.4369874 -0.66174066 0.1669557 -0.15296191 1.3448983 -0.9842265 -3.6849687 4.9794664 0.8304655 2.6256344 -4.382173 3.9457777 -3.0323725 -1.0625452 3.993961 2.920366 -0.27306297 -0.38811758 -1.0658916 -0.83319515 -3.073823 -6.750763 4.5832443 0.09391165 1.0392036 -1.892812 -7.6101627 -12.17832 -0.27346748 3.0098681 -0.10988348 -0.5240707 -0.78255373 -3.1463046 3.3595045 -1.1409165 -2.7250264 0.015085846 1.6946162 -0.8221984 0.4208807 -0.17369112 -1.6887605 -0.34843963 -3.1296525 -0.30386376 0.46856987 0.26495147 -0.10852374 0.011492788 2.0275104 -0.8083873 0.5765527 0.11822848 0.5837415 0.5578406 0.41357934
C9H14N4O3+H+ 2.803901 -5.3818517 6.4283485 9.26065 1.5035928 -7.691429 -2.2803288 1.1582146 -14.851909 -4.435142 7.3801665 -11.119181 1.1577603 0.4129769 -1.363119 -11.520826 5.174079 3.5976236 2.4633396 -4.811518 -5.615551 4.665897 2.2369087 -6.185793 -1.5574093 -2.1900306 -1.5505323 0.4694231 0.7966141 2.495091 -1.9085815 -0.8357934 4.440665 3.256024 18.74645 -6.444524 1.0226414 8.549895 0.097027324 -15.205455 -1.8014815 -14.587275 -1.4618756 4.104853 -6.1676235 -4.861783 -0.5436139 -0.54625916 6.327016 -3.0077178 7.8591385 -6.0078626 6.548212 -0.05252812 5.8552 5.4931564 -4.039696 11.618152 7.8722887 -0.46015975 -1.3414694 -1.6239376 -2.8337023 -4.7267594 4.222811 -4.0728526 2.2971292 -0.9757056 -0.5098983 -4.2244925 0.91898054 -3.0658953 12.531887 1.541065 -4.2011676 -1.755834 4.1879077 -10.558473 -14.288182 -5.1689925 -0.3824801 -10.438865 0.9798424 -4.487034 6.6833706 0.21261725 -5.962759 -9.361765 3.7900665 1.6967773 9.346568 -1.9694711 4.7547617 10.553986 -4.918107 5.582536 0.3489808 2.6421874 2.8071218 1.0718489
C11H21NO5+H+ 3.5012126 -10.385469 16.260155 17.96871 8.5175705 -7.9123287 -9.831448 3.9273171 -34.18658 -12.575764 16.043894 -26.259647 12.778821 -2.1544995 9.4679 -33.983322 16.460936 11.010847 10.267816 -11.135624 -17.135708 10.916108 10.384444 -20.558716 -12.542182 -26.71366 7.6426525 -0.030251455 11.772015 2.847044 -10.239716 2.9527023 10.1231165 -0.23126137 36.98439 -2.482759 -4.1493807 -21.53017 2.5873835 -9.737229 -5.197791 -44.597713 -7.455792 13.026886 -18.151123 -4.3841033 -2.1194575 4.7501907 8.25202 -14.364133 24.825687 -7.9715643 16.957788 -6.308656 17.840275 4.9222703 -11.108538 38.676323 22.666813 0.56527877 -6.1960845 -5.334583 -25.040758 -42.602398 -18.13809 9.341131 -6.978824 4.347382 -4.311895 -37.52402 -43.65565 2.2842517 26.46162 4.9720707 -6.718649 -6.9313416 9.486862 -24.135363 -32.549934 -13.98873 -0.76134944 -19.6137 1.6215364 -7.5949297 17.2821 1.8685081 -13.926258 -20.594345 6.465833 4.855271 17.325409 -7.3981833 9.632058 21.890194 -11.174072 11.412663 2.7815838 3.8497112 4.643622 6.7488775
C9H15N3O2+H+ 2.3785648 -3.9010088 2.5620666 9.439823 -3.3202553 -6.480271 3.0300207 -0.75332785 -10.347068 -3.2068517 7.0546565 -9.246565 -1.0953746 0.96693015 -3.9461749 -8.514144 1.8064361 3.6755667 3.2797348 -4.8456163 -1.3947186 0.7766213 -0.26689225 -6.1252794 0.097682446 1.0487638 -2.384388 0.7366547 -0.8025959 1.5319641 -0.1679827 -0.9940678 3.1928236 3.5094318 12.6850605 -7.2892733 0.98833287 8.796586 0.028072916 -12.305061 -1.4954898 -12.266934 -1.3667886 3.585552 -4.769655 -2.8893473 0.41292143 -0.5522188 5.277999 -1.7511795 5.2458997 -4.9117265 4.8409967 0.8684007 3.9054508 4.918579 -2.312213 6.5843334 4.415586 -0.22509345 -0.4478979 0.93712735 -4.7857323 -5.0681686 3.8786752 -3.616829 1.616168 -0.87255776 -0.017914075 -1.3247476 3.775092 -2.5807343 9.55856 1.2366847 -3.8282905 -0.72320855 4.0842447 -9.248298 -11.189512 -3.4391742 -0.29237705 -8.572053 1.2297522 -3.603667 5.505739 0.8382106 -4.657323 -6.280689 2.628253 1.1154245 6.285536 -1.465613 3.458598 7.3730493 -3.4520555 4.000363 0.37350762 1.8364427 1.882003 1.2771258
C25H47NO4+H+ -3.2141047 6.3257184 8.601477 -22.580172 36.893032 3.7960064 -40.47252 14.224413 11.785637 5.7428093 -22.383492 22.589417 -0.42117968 -0.46412957 3.5958142 17.999214 2.5736582 -13.129573 -16.494488 13.966475 -7.1154447 10.966745 5.3683944 22.070927 1.1831323 4.7209525 -1.5650305 -2.6653805 -4.420263 3.9427607 -0.33636934 -3.5135546 -1.1110728 -1.8129945 -0.50072134 6.79058 3.834802 19.193256 -1.1943547 -4.630182 3.9072556 37.60523 9.0709095 -13.768009 11.269453 -11.3717165 -5.370539 -7.0072618 -0.599804 8.858508 -10.810042 -0.2145424 -7.208555 3.7379713 -7.4191847 2.7254798 -0.6462719 -6.4627376 0.08731368 -2.4937518 -0.26633218 -12.826078 40.07535 47.50609 31.809822 -19.747686 14.10296 -7.0693026 2.9415367 33.549652 51.360786 -11.032382 -4.7474117 -4.925326 8.928959 -4.6153736 -13.588447 22.661032 15.094684 2.7550228 0.2744342 10.496187 -9.343335 1.6040653 -12.542233 -10.362594 6.645264 -3.7656918 4.3237686 -0.58197904 9.752569 4.0322347 2.1290138 4.181551 -0.5014143 1.9252598 -4.848128 3.185906 3.3614392 -13.668845
C6H12O6+K+ 3.5888586 -8.004433 8.698324 14.659612 0.41520584 -8.239548 -1.0606487 0.77750725 -23.152212 -7.5868754 12.432033 -18.43906 4.6580887 -0.3346925 1.6471841 -19.651642 8.480834 7.5510907 6.734008 -8.815493 -8.331281 5.4167547 3.8797271 -13.479626 -4.755157 -9.44654 0.6733851 0.8221269 4.341084 2.2669497 -4.2492256 0.570939 6.8137016 2.7902699 26.998085 -6.583319 -0.6069177 -0.63751787 0.89079916 -15.894361 -3.4520156 -29.174297 -4.3890524 8.779743 -11.766946 -4.86461 -0.91475713 1.6423466 7.750816 -7.6299863 14.992454 -7.3363323 11.130996 -2.3280141 10.857754 5.7754407 -6.2021165 20.647308 12.571926 0.03201314 -2.5816524 -1.2965952 -12.892459 -19.626995 -3.4007232 0.26991108 -0.6818336 0.81099176 -1.914328 -15.884873 -13.313315 -2.2391007 18.901306 3.1001754 -6.114604 -3.2658525 6.8125553 -17.012259 -22.785475 -9.000121 -0.55456585 -15.048457 1.766078 -6.0965347 11.501533 1.0798218 -9.70868 -14.413038 4.723861 2.8840144 12.242838 -4.0019455 6.6231294 15.6568575 -7.570564 8.050562 1.3253453 3.3451667 3.729506 3.406605
C28H33O14+Na+ 3.9400396 -11.633438 14.954821 14.300309 5.8406444 -7.606814 -6.4561043 2.5302625 -32.44214 -11.0129595 15.502624 -24.637295 13.504521 -2.9448195 12.652057 -29.172937 15.663347 9.878061 8.945499 -10.38483 -16.35038 11.170607 9.210704 -18.001572 -11.029835 -23.704391 6.5860534 0.4073553 13.075335 1.8983756 -10.02516 4.1521773 7.6801653 -0.85643154 32.67946 0.93333465 -2.8899379 -17.417646 1.4659702 -10.098297 -4.520404 -39.792828 -6.8883553 12.4391365 -16.103228 -2.7835944 -1.5525945 5.1191244 5.8912845 -13.690106 22.639198 -5.692993 14.778026 -7.3281 16.109953 2.0080216 -8.831452 31.924269 18.598597 0.5475996 -4.672795 -3.451803 -21.920965 -36.534023 -17.686779 9.637895 -5.4137235 3.9327664 -4.3678646 -33.535393 -40.680027 1.7045354 21.729288 4.095747 -5.830811 -5.342891 6.459222 -18.10595 -26.542091 -12.353168 -0.60337794 -15.25757 1.4861041 -5.8393235 14.16724 0.96135956 -11.712514 -18.35124 4.6438184 4.143789 13.189393 -6.2131886 7.43518 18.542248 -9.373994 9.277337 2.641724 3.252307 3.9169688 6.4111013
C10H13N4O8P-H- 2.6717918 -9.95493 6.9283895 -2.3772233 -0.73674685 -0.35055196 2.3783798 -1.4044865 -15.894844 -3.8639607 7.858885 -11.503638 15.296864 -5.476045 22.437061 -9.376301 9.303964 2.699899 1.9170455 -3.1715112 -10.660467 9.033188 5.177619 -4.9333344 -5.531921 -13.369299 5.3743615 0.77815956 13.407294 -2.0191 -6.7143316 6.66419 -0.104463406 -5.383638 10.85034 14.024152 -1.7441357 -19.076477 -0.4697447 1.8192538 -1.6078898 -16.481798 -4.498055 7.0991907 -6.0480227 2.7695014 -1.0738285 5.6919713 -2.9621477 -9.921191 12.318735 2.8234477 5.93383 -9.288427 8.655974 -7.701518 -1.4017576 10.343188 4.6042233 1.0673295 -1.4349203 0.7680285 -16.361845 -25.838663 -25.47825 16.720125 -7.067993 5.2154646 -4.580243 -29.662952 -46.578445 5.502424 1.6719974 1.8768476 -1.3714284 -0.31988904 -1.1969683 -0.5605621 -4.8870287 -5.603725 0.04701556 1.7329283 1.4705944 1.5163023 5.8671837 1.7689509 -3.2502537 -2.7238379 -3.2675867 0.7679616 -5.6439137 -1.4356569 -1.8696955 0.41967696 -0.5675542 -0.73045087 1.9027907 -1.0808394 -1.0535154 4.9701953
C6H8O7-H- -0.43964708 -2.3279502 3.2353408 -0.74315095 -2.0532 7.5030212 3.1247962 -1.4157463 -3.4952555 -2.5599482 3.456414 -4.8289113 5.4151883 -1.772872 6.833142 -5.3891535 4.8601394 3.0232973 3.6932697 -2.243897 -3.7391815 1.3680084 3.192159 -5.5219026 -5.132304 -12.079684 4.7471952 0.08459697 5.414791 -2.3050978 -2.5923476 3.2934725 0.42556456 -1.2121943 -1.8220948 0.50397295 -3.576282 -20.075932 1.6101465 10.673674 -1.6741583 -15.812395 -3.5508657 5.13087 -6.1289496 3.7128296 0.34702277 4.231406 0.0970748 -6.725821 9.65858 -0.3713037 4.8719964 -4.199787 6.312585 -1.7877405 -2.030055 8.839715 4.684582 0.34386662 -3.293708 -2.621179 -13.887277 -25.096245 -19.866285 13.03183 -9.929589 5.1262865 -2.4697208 -19.503761 -29.828402 5.284504 5.011175 1.6596884 -1.3003905 -1.7906239 5.364588 -10.4953985 -9.847341 -3.3100913 -0.11145617 -3.8378003 1.476734 -0.6357499 9.951299 3.789667 -4.9360456 -3.073207 -0.20783372 1.1142598 0.06774718 -2.641046 -0.54459906 1.8544152 -1.2429736 0.2799143 1.6136345 -1.7547851 -2.1675084 5.177384
C20H32O2-H- 7.5487785 -11.935916 4.4758787 10.776574 -6.95737 -23.840479 6.959309 -2.253902 -22.040585 -4.3551283 12.059772 -16.14947 4.06928 -0.9298819 3.9707243 -14.162007 8.799583 4.0198197 2.1265852 -6.6642003 -10.440367 12.400312 1.5289861 -0.7318721 2.477261 6.4914885 -3.705609 1.3247495 5.180482 4.933468 -3.3205285 0.32475227 0.28442836 2.4991596 25.597134 4.2170706 7.8351645 37.862488 -4.725073 -31.116116 0.19032423 -1.2637242 1.7195522 2.3465407 0.27635336 -4.7041044 0.8542913 -1.4876891 3.6168158 -8.38277 14.265036 -3.3304057 8.218463 -6.0763974 9.447986 0.060076747 -3.9290352 11.701168 9.198621 -1.1641957 1.5577439 1.775142 2.1052816 5.8170567 5.3204713 -4.483423 10.019433 -2.3209057 -2.0532327 -0.48570648 4.436145 -7.2695384 14.1935 0.73465097 -5.308813 -0.91520226 -1.5838705 -1.635262 -9.863592 -5.9730377 -0.26340714 -5.6833825 1.0043999 -2.5366657 -1.0523914 -5.1232276 -3.1217008 -14.024448 3.379407 1.4005858 7.600234 -2.7490172 2.8456929 11.3613825 -4.995397 4.3971176 0.4933258 2.9186249 3.4590268 0.76475996
C23H32N2O5-H- 5.0509734 -12.108808 4.828573 -4.227453 -5.7628474 -1.2011958 8.206711 -3.6503623 -18.224104 -2.6398845 9.1952095 -12.392225 7.859722 -3.4248376 13.416018 -3.0340405 2.9098043 2.270416 1.345033 -4.5574937 -3.8159165 5.665943 -1.2818091 -0.002134234 1.1140401 3.0269377 -4.6409073 2.42316 7.2520127 0.012732405 -3.0540576 3.5444787 -0.17003466 0.1217392 18.645454 6.570439 3.780932 12.20688 -3.0086813 -16.757025 -0.31837738 -7.8470554 0.32756507 3.543601 -3.3489413 -0.6641869 0.35652792 2.2249 -0.47827005 -4.8843184 6.771225 0.51796085 4.8246064 -5.9015255 6.456691 -3.352601 0.04467768 1.6427097 1.0137762 0.08112064 0.3957593 3.0306358 -8.595048 -10.876907 -7.4118505 4.8980455 0.72522175 1.3576295 -3.195805 -11.923966 -14.315287 -4.0369105 10.5423565 0.3962958 -1.6929282 -3.1581032 -3.8894925 2.2855663 -6.2463913 -6.2543597 -0.24644658 -1.4527521 -0.33449307 -1.0189323 -4.957725 -3.5452604 0.6508442 -5.3393407 -2.0494287 0.99585783 -2.595325 -1.0350711 1.3395582 0.39541078 -0.9874325 0.9319409 1.3708822 0.7767487 0.7703639 4.147914
C9H17O12P-H- 2.8347228 -8.841529 3.8770187 0.2216063 -5.1871715 -2.2970204 6.93903 -2.9216645 -14.0269 -3.3474083 8.57546 -11.3452215 12.272097 -4.4115567 17.935738 -8.796148 6.592456 3.0528908 2.722506 -3.6662965 -7.439328 6.325514 3.0231557 -4.792871 -3.6460276 -9.283869 4.0713468 0.9147973 10.812924 -1.7014686 -4.869104 5.4564395 -0.8668889 -3.9353223 6.514695 10.742946 -1.1001785 -13.752861 -0.73998904 1.4720578 -1.2789851 -13.748492 -3.9971466 6.321959 -4.8678427 4.4957304 0.26789674 5.1788154 -3.0803664 -8.241464 9.472665 3.0982127 4.790709 -7.645218 6.9417853 -7.062701 -0.6652378 8.142571 2.9859369 1.248896 -0.3292598 3.3096604 -16.319534 -22.738441 -21.379908 14.087492 -6.0504274 4.1468153 -3.0830998 -21.8886 -36.635143 5.944249 -0.69445115 1.3906714 -1.90796 1.4578763 -0.2430457 -0.44487485 -1.5499223 -2.4669588 0.042395156 1.5063727 2.3105738 1.4402418 3.1550913 2.3495097 -1.3568687 1.2021619 -3.9086065 -0.03867472 -8.086094 -0.83750033 -2.9560149 -3.2887044 1.1087002 -2.3656836 2.0097692 -1.493068 -1.5183315 5.312066
C21H22O5+H+ 3.863209 -6.092987 -5.7278237 20.475422 -27.800623 -8.146161 29.912682 -10.263832 -10.347645 -4.0848565 17.65912 -17.745283 -3.6478603 1.8151855 -8.47753 -12.921441 -3.3924856 9.713877 11.589952 -11.354041 6.721347 -8.51321 -5.850368 -16.066359 1.836389 3.4498334 -3.0705183 2.443012 -0.086438976 -1.5814035 1.9356669 0.7898638 1.6282445 4.890231 5.0709767 -11.169548 -0.3406224 2.546592 0.1289909 -7.3660254 -2.680879 -25.056913 -4.953724 8.864811 -7.750391 4.8998804 4.2399664 2.5475535 3.9677145 -4.632332 7.3973846 -3.1711202 6.2241006 -0.36486846 5.261062 2.2943056 -0.5196597 5.2882113 1.4459319 1.1269861 0.5540117 9.029907 -24.363884 -26.550385 -11.131818 6.0672655 -4.897959 2.321588 -0.8516701 -13.536341 -18.418192 4.156433 6.423941 2.7195945 -6.9277782 2.982399 9.280653 -16.114717 -12.088221 -1.7782092 -0.2913835 -9.982117 5.7725477 -2.834475 7.9718513 5.733526 -5.010601 0.013737095 -0.7577093 0.5498819 -1.8765308 -2.2373087 0.47084126 0.4276397 -0.8866108 0.6309603 2.4411683 -0.7206919 -0.8719686 7.265734
C26H30O12+Na+ 3.3167613 -11.333056 18.539635 8.047601 15.749168 -6.0456715 -17.089136 6.177014 -31.946762 -10.297061 10.735622 -20.539553 15.922469 -3.9185867 17.107054 -26.28248 18.30383 7.239636 5.4008346 -7.431734 -20.25562 15.5250025 11.844429 -13.526962 -12.3046255 -26.157396 7.668738 -0.27763757 14.521357 2.6108983 -11.641937 4.4221363 7.4611216 -2.271153 34.10572 4.8327026 -2.4728088 -17.118364 1.2190318 -9.983086 -3.889159 -33.97047 -5.5179486 10.392583 -14.642034 -4.905193 -3.063403 4.5570292 5.094135 -13.371058 22.267963 -5.1610346 14.13618 -8.120193 15.967554 1.2956609 -9.460498 32.950275 19.87963 0.13198216 -5.1586466 -6.7934046 -15.089668 -29.995054 -15.038192 8.148914 -3.6332746 3.3247533 -4.5474143 -31.464773 -37.31283 -0.012725753 21.848354 3.4609716 -4.177298 -6.7813916 3.5231957 -13.803775 -24.79364 -12.989446 -0.5553622 -12.906757 -0.55457914 -5.3613253 12.313321 -1.3137066 -10.899741 -20.366854 5.2995415 4.3263974 15.082963 -5.8497515 7.912627 20.218548 -9.917927 9.926048 1.8865409 3.906475 4.660549 4.151345
C9H8O4+H+ 3.4217849 -6.051392 1.2124965 14.153797 -10.952341 -8.076871 11.475683 -3.7566433 -14.7295475 -4.7547445 12.378108 -15.047431 0.20411623 0.66523707 -3.0109725 -13.359392 1.9935274 6.5924206 6.7346063 -8.07857 -0.94972456 -0.45177534 -1.014379 -10.961272 -0.05629722 0.1694921 -1.9015226 1.3565438 0.7093383 0.85816014 -0.34674582 -0.11269301 3.4663064 3.6996527 14.60581 -7.7779446 0.34016353 4.9587183 0.08515398 -12.525514 -2.3724766 -20.929218 -3.4466655 6.8990974 -7.313641 -0.36648318 1.5924975 1.1380594 5.282289 -4.1824274 8.18256 -4.704661 6.8655863 -0.48525175 6.094935 3.9399085 -2.3515155 8.794456 4.8407636 0.35485482 -0.31371325 4.0058427 -14.1484165 -16.094805 -4.165448 1.3553402 -1.154023 0.7516159 -0.96305233 -10.2372875 -10.085566 0.09111118 11.082398 2.3357077 -5.9133143 0.1857054 6.601828 -13.758678 -14.737941 -4.509908 -0.3485004 -10.624971 3.2402723 -3.8968184 8.202754 2.9113955 -6.177518 -5.7923865 1.7392336 1.2843877 4.396194 -2.2667234 2.9396455 6.779135 -3.465717 3.6348639 1.442184 1.2602895 1.2821953 4.249665
C12H22O11+Na+ 7.7648234 -12.581165 -6.734094 37.2314 -45.086246 -16.554024 48.277916 -16.426996 -25.924803 -8.945172 33.039967 -35.30705 -5.7832203 3.1560612 -14.587533 -25.426464 -3.209315 17.301487 19.583773 -20.920483 8.461112 -11.443989 -8.937348 -28.520178 3.5173745 7.2473 -6.663652 4.4062557 -1.1166992 -1.0446883 3.1567478 0.10373072 5.4620314 9.557264 20.906324 -21.1172 0.23819722 9.54308 0.1611672 -22.982841 -5.5335703 -50.333904 -9.319815 17.43271 -16.404364 4.759399 6.320661 4.021693 10.365021 -9.144339 16.305273 -8.771523 13.87976 -0.4866337 11.820855 6.8914857 -1.8086984 11.579121 4.2994676 1.7802289 1.1780705 16.325583 -42.666634 -45.29752 -16.151237 7.6773343 -6.8131695 3.2886252 -1.8384491 -25.183805 -29.072548 3.8408306 19.298496 6.129472 -15.657103 4.8522034 19.37265 -35.670097 -30.888653 -6.7370796 -0.71794045 -23.873066 11.449638 -7.556727 18.81165 10.770333 -12.837947 -5.3875976 0.09063827 1.7051904 0.38168123 -4.839536 2.9635727 6.7927194 -4.230515 3.9927697 4.419355 0.3518325 0.12703574 13.191232
C22H32O2-H- 8.849852 -16.879263 11.585709 11.028784 -0.16714905 -28.767473 -1.0389851 0.9369543 -22.974548 -5.7636127 15.779639 -19.704866 1.3155245 0.31693804 -0.43522048 -17.199682 12.495451 6.2789435 3.7827291 -9.777678 -11.070984 13.369818 0.9702816 -2.5670083 3.5868635 9.74586 -8.154247 2.8587158 9.17292 3.1423104 -4.7398047 3.3098614 -1.2425734 6.626441 26.304043 -1.4781024 10.329546 50.567413 -6.0876093 -39.14127 0.27660272 -1.9356618 3.2524374 2.2863355 -0.22832485 -3.590965 3.0223029 -1.884045 4.339594 -10.487242 18.37271 -4.3233366 8.803519 -6.9654136 10.374898 0.4132021 -4.2726917 12.168643 10.20441 -1.6715931 0.95983475 -1.039517 6.7242665 8.999874 3.847194 -3.7472787 8.321935 -1.9621453 -1.9249809 -0.2896124 2.351477 -4.6491075 13.357762 0.5033926 -7.346124 1.5674698 0.2444308 -5.045451 -12.218138 -5.5536556 -0.30874595 -7.4000893 0.8529622 -3.7105947 4.377271 -3.5524192 -5.859716 -14.877168 3.744996 2.6961243 11.312105 -1.8529094 4.163232 14.218838 -5.933341 6.355374 -0.10587239 4.5406337 4.4529214 0.3082416
C21H36O3+H+ 4.760449 -8.820957 -3.358731 23.708979 -29.207787 -9.424322 31.552301 -10.841205 -17.54718 -6.505581 21.977869 -23.863916 -0.44459245 1.0167463 -5.198033 -19.34085 -0.10844207 12.136331 13.951507 -13.911718 3.3517747 -6.280773 -4.0306325 -20.173376 -0.29651472 -1.4096112 -1.4079262 2.6506574 3.0038111 -1.453704 -0.08428201 1.9026299 3.0437157 4.63608 11.465179 -10.921871 -1.236472 -3.1370168 0.4151417 -8.901573 -3.8486643 -35.860035 -7.2140465 12.608941 -11.606707 5.9254274 4.53229 4.4027004 4.806396 -8.088268 12.460938 -3.8670053 9.467745 -2.3444357 8.880784 1.8747551 -1.6540577 10.689642 4.083597 1.5352271 0.007220706 10.29484 -32.638985 -37.78328 -19.360596 10.983964 -7.782264 4.0497246 -2.163919 -25.000336 -34.234623 6.1258836 11.151263 4.2980957 -9.673273 2.9937649 12.561793 -22.958841 -19.387865 -4.5734663 -0.446951 -14.594138 7.9311686 -4.1404705 12.376442 7.559036 -8.138277 -2.6322916 -0.9017249 1.3173233 -1.6772017 -3.9312932 1.223284 2.7903562 -2.3308554 1.7891197 3.681682 -0.62337893 -0.7210513 10.614604
C13H13N3+H+ 3.4525926 -5.9774127 0.068197936 14.368613 -13.272415 -7.8564568 14.059668 -4.6978464 -13.443931 -4.4418516 13.049962 -15.114279 -0.45751634 0.804241 -3.7251623 -12.6543 1.2857347 6.5283737 6.827611 -8.031521 -0.034478083 -1.2171274 -1.6032374 -10.700113 0.44816047 1.1800305 -2.292127 1.5093937 0.43142062 0.43565294 0.15209734 0.030241176 2.9665155 3.6798878 12.5025215 -7.7428203 0.33795875 4.8400707 0.043448705 -11.419559 -2.2642295 -20.112076 -3.4369335 6.7507005 -6.8793545 0.096392624 1.7076155 1.2095456 4.8829575 -4.008614 7.711264 -4.3319383 6.392089 -0.5059569 5.6765456 3.5127459 -1.8923138 7.46583 3.9777768 0.38635978 -0.16198136 4.290421 -14.137721 -15.918409 -5.1361365 2.076015 -1.8470378 1.015528 -0.95634097 -10.470335 -10.815795 0.3619746 10.08793 2.3644981 -5.967343 0.6493577 6.7683997 -13.667649 -13.944282 -4.066184 -0.33117387 -10.104523 3.5362 -3.5762715 8.079246 3.2939684 -5.8778176 -4.7601247 1.19227 1.1140047 3.101599 -2.0993786 2.3781354 5.4683123 -2.8759556 2.99147 1.5481327 0.85161054 0.82306683 4.649174
C26H32O3-H- 8.408421 -15.403231 1.4948668 9.9464655 -15.202952 -21.190647 16.587553 -5.8197184 -18.274508 -2.0533433 15.285587 -16.399666 1.3773525 -0.84354144 3.5477405 -5.9363484 1.8948203 3.8162782 2.3751197 -7.583039 -1.8469274 5.191919 -4.5199056 -1.2984368 6.5936823 15.224552 -9.02945 3.2167268 5.670637 0.7463695 -0.9412122 3.0342271 -2.9495676 4.848638 16.068783 0.9322046 8.34091 39.582073 -5.356913 -29.271626 0.46943992 -0.37298742 1.9629164 2.6192198 0.20679982 0.026859298 3.3394449 -0.44350958 1.2349752 -4.411113 7.06625 -0.9377296 5.1582217 -5.157789 5.9841304 -1.8379567 0.00010711001 -0.2877504 1.4253826 -0.87869954 2.6576476 5.68968 -2.2396154 2.4327004 2.5894747 -1.9791813 8.473204 -2.1891663 -1.3556625 3.6068153 5.249569 -5.231238 8.705729 -0.35721204 -5.853148 2.305571 -2.4109306 1.5405957 -3.4125772 -2.2505746 -0.14984535 -1.9600391 1.0516759 -1.3947945 -3.4967258 -3.1132007 0.031951226 -4.9116397 -0.44735044 0.56335866 0.22516108 0.110321954 0.38015717 2.255941 -0.859455 0.9260169 0.45077512 1.62384 1.3571324 2.1780167
C14H28O7+H+ 2.8650308 -4.6562777 -2.9278135 14.190053 -17.513655 -6.2375307 18.819006 -6.4355826 -9.627461 -3.572442 12.880146 -13.715941 -1.3390212 0.9549712 -4.6074004 -10.963231 -0.8863632 6.850734 7.8742447 -8.085256 2.8169036 -4.1434956 -3.0773056 -11.206268 0.99987173 1.8619689 -1.8983462 1.6299115 0.22744446 -0.6210192 0.96999127 0.42967677 1.8519433 3.1960316 6.920246 -7.2529516 -0.30695167 1.1756792 0.14991847 -6.809215 -2.098921 -19.272064 -3.8484042 6.8036036 -6.0120935 2.782367 2.6118984 1.8914098 3.26333 -3.785551 6.221959 -2.68273 5.122057 -0.5511167 4.5038624 1.8909352 -0.7023909 4.7444315 1.6899326 0.76726884 0.26954535 6.084537 -17.173765 -18.931744 -8.671771 4.6590934 -3.645571 1.813652 -0.9078172 -11.660818 -15.085969 2.5615175 6.4660254 2.2879462 -5.477305 1.7188883 6.9005723 -12.646269 -10.762327 -2.4545894 -0.24602853 -8.175777 4.2299185 -2.4635627 7.0497026 4.287828 -4.559229 -1.1811415 -0.29460713 0.5852974 -0.5927733 -1.7960167 0.7860547 1.6286026 -1.2372702 1.0781366 1.8155434 -0.19937263 -0.29640347 5.4089847
C12H22O11+K+ 6.6521006 -10.688132 -2.7211947 33.43056 -32.919495 -15.055203 34.746468 -11.565312 -24.750166 -8.687014 27.401083 -30.645914 -5.0146437 3.1014903 -13.784116 -24.43072 -0.69764197 15.034648 16.484627 -18.104801 4.847415 -7.9133654 -5.9018 -25.274502 1.671501 3.9553804 -5.644292 3.410738 -1.6936893 0.3442493 2.011729 -0.8668065 6.683825 9.283857 23.495008 -21.124275 0.2962113 10.772367 0.5823745 -23.56906 -5.0380616 -44.58628 -7.564661 14.628469 -15.292385 0.8142597 4.403164 2.3345072 11.298798 -7.5252256 15.153086 -9.932658 13.168498 0.739974 10.947447 8.9055805 -3.1828618 13.595033 6.535455 1.1404829 0.15147817 11.4099 -33.26356 -35.950413 -8.20323 2.497587 -4.098748 1.7469682 -1.1302623 -18.646364 -17.350729 1.1029415 20.266665 5.2544494 -13.5019655 2.684306 17.161253 -32.58285 -30.098368 -7.012935 -0.7387705 -23.512783 8.903816 -8.08753 17.460035 8.3215885 -12.539838 -8.453654 2.3017313 2.1133485 5.5572743 -4.6289167 4.8627753 10.258566 -5.6289597 5.8821397 3.4510982 1.4685336 1.3904994 10.341439
C15H18O10+Na+ 6.7880235 -10.957892 -2.7176554 34.069435 -33.86442 -15.462055 35.758747 -11.909556 -25.396454 -8.919181 28.148914 -31.4782 -5.091088 3.1555343 -14.073055 -25.095837 -0.6793154 15.371926 16.843227 -18.516256 4.888932 -8.04486 -6.0039954 -25.926361 1.6636248 3.9478793 -5.75164 3.4962273 -1.6430264 0.3672409 1.9969152 -0.8606357 6.8180604 9.367197 24.058916 -21.315668 0.2750838 10.725976 0.6032726 -23.937382 -5.1431904 -45.51423 -7.7199 14.926973 -15.617442 0.80705565 4.4411435 2.413841 11.497044 -7.7284465 15.546365 -10.12202 13.439567 0.6953116 11.203131 9.059979 -3.3321204 14.0843 6.8247085 1.1389837 0.09585534 11.413133 -33.627327 -36.45701 -8.363279 2.589955 -4.1950426 1.7834618 -1.1377482 -18.93046 -17.69612 1.182689 20.420732 5.312869 -13.641202 2.726413 17.375961 -32.947598 -30.373604 -7.0513797 -0.74606925 -23.656456 8.9915495 -8.123355 17.59198 8.397151 -12.641488 -8.507354 2.3528106 2.1250443 5.658411 -4.6687183 4.925184 10.360239 -5.680576 5.954651 3.4787226 1.474862 1.3884635 10.406205
C47H69O8P+H+ 2.4308915 -4.0498543 -2.4076762 11.074502 -14.288469 -5.2875137 15.398077 -5.289129 -7.711012 -2.7462156 10.436028 -11.007632 -0.7050581 0.58271486 -2.9266057 -8.430864 -0.58931226 5.2866135 6.043875 -6.316839 2.0362983 -2.963484 -2.4351842 -8.494134 0.97643197 1.85663 -1.6497579 1.3702216 0.5426399 -0.58755976 0.6967989 0.5710481 1.2105519 2.8075643 5.0218773 -6.1475897 -0.1378609 1.4974803 -0.02048609 -5.7147593 -1.77705 -16.598948 -3.4115145 6.0361238 -5.0291457 3.188947 2.6801822 1.8107904 2.5031688 -3.38762 5.2649245 -1.9608158 4.2971506 -0.6174773 3.7738411 1.1878849 -0.15783745 3.0914955 0.66003317 0.77642757 0.5092894 6.185831 -16.108496 -17.366327 -8.647443 4.8129506 -3.5486343 1.7810196 -0.8232737 -10.594142 -14.423115 2.7284162 4.900733 2.0314744 -5.0427184 2.0446596 6.0474076 -10.841183 -8.736878 -1.7996713 -0.19640422 -6.749227 3.9712498 -1.913403 5.831803 3.9582808 -3.666204 -0.22058097 -0.68987113 0.38849452 -1.5559897 -1.4934418 0.29709706 0.5522309 -0.6977537 0.5025521 1.6861082 -0.40220988 -0.51999426 5.028584
C35H64O4+H+ -0.66391104 0.101556554 8.08295 -6.762738 18.906422 0.59105074 -20.708513 7.33265 -3.000868 -0.41956314 -6.5341296 4.0699773 3.8598332 -1.1392068 5.5520344 0.25336957 5.699984 -3.4736035 -5.2279315 3.8816895 -7.9856377 8.18702 5.359639 5.3642583 -2.8803256 -5.2495604 1.5390159 -1.2062848 1.5723344 2.1892393 -2.9373138 -0.41317067 1.5973519 -1.3077867 7.6324377 3.3861911 0.5184678 1.6692299 0.09618497 -3.1492605 0.4722065 5.688286 1.9866846 -2.7353852 0.62790376 -5.56753 -2.8957627 -1.572729 1.1288561 0.46492118 0.91794044 -1.4789639 0.4265072 -0.21117216 0.7398936 1.6404617 -2.5897927 5.361406 4.8340936 -0.96723807 -1.5994582 -7.2754884 12.594525 11.553758 8.934826 -5.825436 4.2325053 -1.8996903 0.15592575 5.675767 11.530825 -4.3104 3.3881927 -1.0517085 2.6026347 -3.5801563 -4.168035 5.0591965 -0.33795467 -2.057984 -0.029465096 0.68573725 -3.791053 -0.77614224 -1.2675089 -4.0065064 -0.28718162 -6.2050567 3.0971115 0.8325386 7.690086 0.12266755 2.8470843 6.569425 -2.6294794 3.2296724 -1.406826 2.1098163 2.3403332 -4.1943107
C15H22N2O4+H+ 0.35346222 -0.21028696 -4.311302 1.7368885 -10.118595 1.0775449 11.199617 -4.007033 2.3781579 1.1732311 2.1299992 -0.46563298 -3.285278 0.7167481 -3.36496 4.538178 -3.7231014 0.7156772 1.246061 -1.2783662 5.000568 -4.4343553 -3.5424974 -0.938596 2.4697857 5.150421 -2.487116 0.8493186 -2.072164 -1.2305633 2.3454735 -0.18378644 -1.0878544 1.2600566 -4.7688093 -2.6896694 0.41019967 3.03977 -0.21918575 -0.7705712 -0.14214179 -1.6783632 -0.55614096 0.9637949 -0.35524473 1.3219563 0.8924378 0.3512319 0.25158763 0.74329484 -1.2569613 -0.082701765 -0.67824525 0.6418513 -0.99880826 -0.15536864 2.077161 -5.792141 -3.9680336 0.27215222 1.3217356 3.5645583 -2.5196674 -0.12020383 -0.7960268 0.5400163 -0.7564381 0.11575908 0.31962362 1.3938421 1.5386598 0.15425186 -1.8364869 0.43902278 -1.850042 2.5329585 2.232275 -2.6335716 0.18918741 1.3600361 0.0142582925 -0.48698416 1.8986145 0.23033687 0.24302734 1.4745302 0.17295894 2.3767803 -1.488341 -0.5904303 -3.6819947 0.51679087 -1.6128615 -2.8232088 1.3767078 -1.6069034 0.099385716 -0.6062715 -0.75507766 0.43224618
C6H9NO5-H- 7.6376786 -13.80266 0.17844719 11.611098 -17.283752 -19.784742 18.779997 -6.5556083 -17.279398 -2.5767508 15.93501 -16.989443 1.3497523 -0.653419 2.536968 -8.100759 1.9339157 4.939901 4.089549 -8.252103 -1.2243712 3.6875439 -4.260838 -3.399659 5.3995905 12.074841 -6.79755 2.8930817 5.830266 0.57682294 -1.1342473 2.9458842 -2.4533525 3.8171372 14.528018 1.3687128 6.728482 31.120777 -4.6300225 -24.471695 -0.02367397 -4.913136 0.45495084 4.0705748 -0.71147627 1.9125493 3.740923 0.56964546 0.49606284 -5.8608522 8.302344 -0.11099574 5.4062366 -5.4404974 6.3045235 -2.7942877 0.10101298 1.1912243 1.2958896 -0.23889767 2.548889 7.3528843 -8.474358 -5.3400683 -3.5284698 1.8963273 5.0557146 -0.55762976 -1.9187303 -3.614153 -5.631505 -2.6956856 7.736603 0.4306239 -5.990756 2.4901154 -0.63324904 -1.1313435 -4.681576 -2.5330448 -0.16331246 -2.7472372 2.3805113 -1.1974227 -2.1084852 -1.4093485 -0.481804 -3.3738403 -1.2934524 0.52892137 -1.9167004 -0.6733295 -0.09531838 1.2563286 -0.70117724 0.3997842 1.2619269 0.8238332 0.6550954 4.151033
