36 50
C7H15NO3+H+ -0.41070998 1.4593017 1.6570671 -1.3114489 -1.5777502 5.1936164 3.1209981 -0.14731075 6.009898 6.0204425 -1.8495198 1.7794745 2.1055984 -3.260513 -1.3335807 -1.6774999 -1.4773552 0.7184828 0.4999387 3.747267 -0.72854024 2.7423885 2.1018379 -3.2298663 0.89171755 -2.8699276 3.4764178 4.53502 1.4844128 -3.3472686 0.40983096 -0.7533714 0.15855566 3.2835295 1.7704525 -2.1780875 0.5018987 2.9452882 4.4212184 -0.42716226 0.0866077 -0.9185717 2.0992715 1.0050921 1.3202788 3.4823134 -3.5511422 -1.3883481 3.5698564 1.6174059
C15H22N6O5S+H+ -4.68525 2.9200344 -1.5708874 -1.9246268 -3.7016003 7.0086403 2.8868604 3.0740442 4.0204754 3.6270678 3.4144156 2.5439768 1.1271429 -2.7800293 -3.963309 3.565783 -2.6151505 3.2681193 2.8821657 1.3635128 -0.3183998 5.7972617 3.264501 0.29471254 -1.6591004 1.4725713 0.9136471 -2.5687935 6.664525 4.271016 3.7544198 1.5549656 -2.2940485 4.3551164 0.45851704 -4.598148 0.51722586 -4.6927795 0.60119706 4.269592 1.7904817 -0.5494368 -0.6976503 9.198987 0.07628929 -0.6356711 -8.255858 -4.1047616 0.6047847 -0.108286284
C24H50NO7P+H+ -3.1632469 6.8290243 -1.5966167 2.661329 -6.0056767 8.572426 3.3742292 -0.48342243 6.249994 0.6254605 -7.4969473 0.20895073 0.6533691 -2.8840542 3.1709554 -8.032551 6.1445932 -3.2406924 3.2109904 4.4168324 3.5352848 -2.7078526 -1.7553673 -6.297617 0.1854308 -7.1471605 -3.189534 4.0989003 -2.3842032 -6.1309595 -1.3654189 -2.820474 3.2145772 -0.019220177 -0.19686858 8.633233 0.7144249 -1.6860564 5.2089047 -2.8554454 -3.7589595 5.1956334 4.3967133 2.5447485 -2.1095529 3.4087503 -3.1362453 -9.906799 -2.2695937 5.479409
C4H9N3O2+K+ 2.048032 -2.4906213 -5.2774935 -0.79575926 -0.9498562 5.626156 -0.42160714 3.003873 1.3047928 2.3505929 3.0648108 -0.11259339 8.508407 2.7068563 -5.6346745 -0.07478654 2.9312305 1.0356884 -1.1412416 -2.6771839 -2.9368694 0.4224739 -3.4500318 -3.743849 0.3878666 2.8498285 0.6330672 -1.8887303 2.1415272 2.0045252 1.1061002 0.16914378 -0.36482835 2.8165417 -0.23693535 -2.7452993 -0.69071674 -2.0705066 5.9483595 1.3865106 0.2099743 -2.3589115 -1.908553 1.783414 -1.7116237 -2.8490794 1.5907421 -1.1325505 4.5899096 -1.7719066
C9H17NO4+H+ -3.895505 1.3246125 -0.60791487 1.1915662 -1.9474156 2.0396678 1.2038621 0.4153909 4.594729 2.0895472 -1.1267836 0.24034254 1.4042785 3.951586 -5.2608585 -1.7257905 -0.043580722 3.2502944 -1.5445094 2.6907432 0.52918094 0.24537675 1.0021647 -4.667318 -0.52400976 -3.3589957 -1.9285764 -0.47675687 -0.34678063 -3.596546 -0.6224638 2.8008533 1.0629858 1.2646581 1.1444174 3.0701504 -1.3097262 -0.48444414 1.438678 2.700577 0.07805519 -2.2160234 3.3895085 -3.501283 0.45650584 0.16216514 1.0502716 -1.678241 0.82154465 0.27713925
C11H21NO4+H+ -8.894687 3.086298 1.1710299 1.5084032 -6.1654572 8.979951 4.007959 2.0394034 7.9287567 4.951973 -2.9783204 0.037188534 3.9650753 1.1088579 -0.19884586 -0.827685 -1.8240386 1.0162561 -0.46105623 4.440951 2.6669166 6.3122215 -2.2778373 -3.7577658 1.9449497 -6.1232257 2.4983575 4.357326 0.9175688 -3.8986754 4.4929247 -0.9989036 3.8928869 6.013715 0.5034354 -3.2617514 2.4831824 2.3657904 4.9933386 -0.5804222 -0.5539063 6.3115997 0.3113282 1.7318865 -3.439378 2.2254858 -3.0491855 -1.5447998 2.2990568 1.1833824
C22H22O7+H+ -1.3690245 1.3152784 -4.038671 0.88488495 -2.7441685 2.1708539 3.192546 -2.3024652 -2.5250583 0.50148493 3.035005 2.647523 0.23254555 -2.18209 -4.4048753 1.6069949 -0.32910103 2.5476978 -0.45708784 1.1792688 -0.036346246 -1.008447 0.5662869 1.3476061 -2.5261111 -0.9728793 -2.4164128 -2.5141912 -0.23243499 2.904793 3.0356603 2.2070467 -1.1147058 1.5755928 -0.4676659 -1.8077958 2.0065308 1.1120825 2.6306183 1.0823913 1.5656393 -1.3900802 0.28811657 4.421791 -2.1786568 0.72303474 0.8279825 -2.1995285 -2.340938 2.0744622
C8H20NO6P+H+ -6.390197 2.1145039 0.70970875 0.61187196 -2.4436424 5.7976985 -1.5023856 4.543953 3.4908798 2.8916566 -4.60064 -5.285463 -0.096922554 4.5421185 -2.1801167 -4.2824907 -5.2364597 1.4918292 -0.5873754 5.908022 4.905053 3.503548 -0.32888454 -6.9415603 2.0042417 -4.829829 1.0894699 3.545347 -2.5221274 -1.7940425 -0.017177792 4.818377 1.5698828 1.3232414 4.380685 1.8619047 1.0940211 1.4059075 3.6171217 -3.240572 -0.71555936 4.2317057 1.2470007 -5.969591 1.2880479 -0.72778493 -4.761648 -2.831145 -5.218326 1.895725
C10H7NO3+K+ -0.97841203 2.053612 -2.2028687 -3.619419 -2.3517528 9.198481 3.9453883 -1.365457 3.5024807 2.3892186 -1.1359392 6.424257 6.7294106 1.7408528 -6.079882 1.1680378 1.8216121 0.17104988 -0.6655317 4.8359847 -4.0668254 3.413329 1.1213026 -1.0472761 -0.7290495 -4.4539137 4.1471334 -0.21847606 3.488908 -1.001681 2.4793367 -2.73229 -0.5101501 5.126781 -1.0978698 -3.4827642 1.3285484 -0.39610347 7.688517 1.2473452 -0.5500274 1.6031492 -3.3868198 2.256579 -1.6922729 -1.7338804 1.3610489 -1.6767957 2.6624644 -2.8901386
C11H20N2O3+H+ -7.196936 3.5215654 -0.4568673 -0.39370745 -6.8410625 18.047932 3.4067419 3.123902 7.1534204 5.56549 2.853572 -2.0002651 9.420074 0.27117473 -4.2396894 -4.5479355 1.8266997 4.7378287 2.0463557 1.5915273 4.6461606 5.06253 -3.4943259 -8.518842 2.6065447 -2.337334 0.4271138 5.361235 3.3900373 -7.380065 -0.9251566 4.3015933 4.1148586 5.196266 -1.3816028 0.885176 -2.9144468 3.9198418 8.546769 -2.5458543 0.9373556 -0.90045685 10.4611635 0.50360686 -0.10896939 4.6365557 -7.6703806 -4.355883 -2.2556012 6.7780366
C8H17NO2+H+ 0.7963981 4.555368 4.159711 -1.3450855 -3.771441 11.79166 -0.6234555 -1.2413776 4.9768496 -1.5825647 -2.9973352 4.5700336 5.7606344 1.1473683 1.8757087 -5.835312 2.7005758 -4.3239536 2.6126719 1.3559886 -0.32814708 -1.1885284 -3.3717785 -3.4931095 2.3584301 0.72551244 6.0037827 8.53037 3.4689727 -10.515433 -1.4877323 -6.9574437 -2.654447 4.038595 -1.5499854 -1.9261796 0.9222681 4.469756 4.9303718 -3.6272483 -0.18914819 0.22248033 -0.5895136 -4.5321054 0.61734 1.1488996 -3.9432523 -0.9925286 4.2110777 -1.111429
C29H47NO4+Na+ 0.52400964 0.7381542 -4.190975 0.25618404 0.26499674 3.3857095 0.5014621 2.5731623 5.7119536 2.796047 -1.2639498 0.552821 4.59352 -1.8123719 0.16404021 0.47473776 1.9596517 1.4567057 0.27934518 -1.9637188 0.07563107 1.7133646 -0.37060606 -2.0932994 0.78636426 0.5391933 -0.42419964 4.1350226 -0.014727484 -2.0747201 1.564718 -0.33487174 1.3121415 0.15941484 -0.11108837 -0.34182605 -1.7022694 -1.404231 2.6936357 1.1236613 0.004937817 -2.0095932 1.4571074 -1.770424 0.07124292 2.3127694 -0.34374517 -1.6385393 1.5704262 2.7423525
C7H15NO3+K+ 3.607793 2.025185 -5.9866376 0.13074401 -0.10222142 5.3236556 8.531419 4.1435432 4.944607 2.7591896 -2.633423 -0.15843578 0.7167237 0.070762664 0.25562352 -3.425156 0.6106485 -0.16632801 3.0293741 4.1234426 1.7140293 -1.9305112 1.3965743 -3.6107478 -1.7495348 -6.8369374 -1.360094 1.0063121 1.961498 -3.037944 -3.0140402 3.352185 5.4190993 3.944375 0.38983506 1.7355834 1.331274 1.3517894 3.5963664 -0.12505044 0.87888056 0.05010052 3.0568593 -2.3122716 -0.93796384 2.387294 -0.5253916 -6.6179905 -2.6540601 1.9503103
C26H50NO7P+H+ -5.366035 6.0986075 -1.9984039 2.7952652 -3.477463 4.598861 0.256324 -0.15653145 10.771856 7.983042 -7.9411287 3.4223106 3.3367689 2.6391268 -11.098479 -1.961987 0.25019985 5.4680963 -2.3045256 11.805265 -1.316678 2.2665403 2.0831287 -7.8410516 -4.816697 -6.3458147 0.404079 3.8554883 -0.01160017 -6.2593007 -0.92113566 0.16996683 -0.9840029 1.29169 -2.0453496 2.667303 5.549503 -2.0432034 11.422645 5.6223197 -0.632823 4.4818006 6.802136 -0.9912663 8.311995 -0.041333675 0.85109514 -4.2823324 2.984855 -0.56205976
C13H17NO3+Na+ -0.35305792 9.602732 -8.422425 1.309487 -5.1450386 11.728691 7.851895 -1.8084123 7.0066657 4.404049 -4.5076566 3.8953335 3.3417985 0.92803717 -5.5158296 -3.711659 6.0766044 -1.0752493 4.903506 8.428504 2.06831 -0.4819158 -2.61557 -8.312182 -5.5885973 -6.6464353 -3.4008512 1.442413 2.1946368 -5.4068503 -4.5759773 0.4256585 3.8263745 0.9806428 -1.304041 7.322819 3.1778016 -0.20200929 12.207322 -1.16163 -2.078767 4.8360085 5.3020096 1.0578713 0.46329236 0.8099406 3.504113 -11.42581 -8.662596 2.5263503
C10H16N4O3+H+ 1.2283694 -1.4962867 0.71829003 -2.3754032 -0.7331284 0.21670693 0.13457485 2.4006674 3.1018639 0.0113311615 -1.359275 4.396412 0.77237755 0.3042937 -2.0232701 1.7975564 -5.575658 -1.7449242 -0.57681113 5.169867 0.06639461 1.7717369 -0.04158189 -1.0831032 -0.009499022 -1.2343718 7.295141 3.979437 4.008755 -3.5031574 2.614737 -1.0642134 -1.6662378 1.2164456 -0.24480753 -6.515485 2.748077 3.6790183 1.5423647 0.77393293 2.3796551 -0.8572773 -3.9472857 -6.5553174 1.8464912 -2.5740604 -2.7211802 0.53254265 2.4347994 -5.5103683
C8H20NO6P+K+ -5.3095193 7.4371414 2.101723 -4.0203786 -2.0513394 11.104444 0.4590854 -0.043371983 6.470013 0.966618 -6.332634 3.737606 3.8075018 -0.5792903 -5.07548 -5.196112 3.6914449 -0.83682096 4.72245 7.4879107 3.6955888 5.30226 1.2093625 -10.196929 0.056378953 -6.3786507 2.6417196 3.8016884 5.6948276 -5.8609767 -2.2657232 -3.395135 0.60153735 -0.9549557 -1.8802176 11.652003 -0.734667 -3.367784 7.9005938 -4.9566913 -1.4777143 4.094565 6.9213552 1.3148568 4.374889 1.1828473 -6.535015 -9.394111 -6.853914 -0.3777519
C8H20NO6P+Na+ 0.6628136 2.4759786 2.0536914 -0.7732837 1.1540141 9.902587 -1.3653895 -0.14009571 2.812376 5.590312 -0.6181063 -3.1391735 6.792795 8.783134 -5.118465 -6.3004513 -0.15754397 2.9858742 -0.64363325 3.2954533 -0.65684485 0.6693647 1.5067693 -6.923344 1.9963934 0.18429041 2.5884917 4.896482 0.0006356159 -6.6419554 -4.9609447 2.1529655 0.685086 2.5500045 -0.77067083 -3.5116932 -1.1377095 3.175564 5.862046 0.8946372 -0.8859097 -1.1525525 5.065416 -3.89679 5.963492 2.1255083 -4.3463335 3.250896 -0.5465874 2.4596126
C10H11NO2+Na+ -0.34052598 1.0665156 1.0156823 1.1905763 0.043967243 1.1229743 -1.9812368 0.5824323 0.5536107 -0.38442138 -0.4113292 -0.69875807 -0.35571444 -2.1186626 -0.35543138 0.32810038 1.1709557 0.97494584 0.42859808 -0.356742 0.6901284 -0.54935986 -0.7434759 1.0367075 1.9927067 1.6786005 0.82899666 0.38746908 0.3087208 -0.7012623 0.47725156 2.562291 3.287876 0.028405663 0.84816015 0.6858166 -1.1043607 -0.15865362 1.7860603 -0.44626522 2.4148216 -0.23591414 0.7329029 1.7422701 0.18176404 0.82794416 -0.9935285 -0.6402781 -0.3039637 -1.6182988
C35H66O4+H+ -7.31124 4.650306 4.8626647 9.424061 1.6739013 7.8735123 -0.6870586 2.4191504 -2.5700908 2.52531 -2.247302 -1.8068397 2.637116 4.9644456 -7.5291142 -6.1075897 -4.0499244 4.414955 -2.8257499 4.429568 5.5000787 -0.5030301 4.516423 -2.210991 1.6222532 -3.2161264 -1.1505737 7.6566424 -2.648893 -7.2773137 -0.54742604 2.001084 2.418833 -2.310063 1.1116542 2.1994827 1.715282 -1.325087 3.4849396 -0.21561621 -4.1456366 -3.8582358 7.969863 3.7342277 -0.5239444 8.072653 -1.359328 2.3966672 -5.357564 1.4811833
C37H66O4+H+ 0.14245646 0.6400655 -1.3105046 -2.9638422 -2.058051 1.134018 -0.32911623 -1.9805715 -0.38828346 0.14271407 2.4411485 4.74275 2.0535223 -2.1252472 1.603249 0.68822974 1.7456189 -2.6983848 -0.14193042 -0.16146034 -2.4052355 1.7893397 1.3738365 -0.05725373 -1.8085967 -0.7762497 -0.32214573 0.21282482 -0.31956398 -1.0081792 0.19083926 -3.0166523 -3.0552273 -0.7268487 -4.072504 -0.9442042 0.5298394 -1.4570627 0.043330465 1.9427497 -1.0905863 -0.6751435 -2.2818651 -2.823109 -0.67357266 -2.4429696 1.0314913 1.3584322 0.72739774 4.4521165
C10H15N5O10P2+H+ 0.48259348 -0.28109363 -0.32633507 -0.09010841 1.2144859 -0.79708564 0.39725626 0.4639941 -0.5376906 -0.02063905 -0.7812842 -1.0359938 -1.1194644 1.158676 -0.23973863 0.64224774 -0.4793168 0.5232599 -0.029087912 0.23340848 -0.088147454 0.34943837 -0.0001269579 0.024932373 -0.49278405 -0.16102894 0.12894186 -0.85025674 -0.90879285 0.6745755 -0.43577218 0.62037057 0.064869516 -1.0615524 0.5822909 0.5575248 0.15019587 2.1940053 -0.36162403 -1.109036 0.077267386 2.01878 -1.4882613 -1.5938374 1.4736024 -0.6132135 0.16532317 -0.11398242 -0.51160836 -0.3341111
C15H16O9S+K+ -5.7040653 10.074226 2.9797502 -1.4552191 -4.0629673 17.789944 2.5444763 -2.5462935 12.92119 8.863485 -10.206636 1.3247842 7.8306236 8.984875 -8.418651 -8.489816 3.549151 0.029978111 1.2827839 13.804849 0.116468765 4.7559896 1.4770404 -13.963431 1.3274394 -9.757871 4.9376893 7.7635107 1.4548442 -11.512763 -2.727995 -3.1018898 3.7145822 3.9678404 -0.24083333 2.1118736 1.0704641 1.3931518 16.06113 -0.9003652 -5.1762843 9.681946 5.5265326 -1.1948227 4.6419916 2.4870043 -5.592245 -4.9226522 -2.8353744 1.2037683
C24H50NO7P+K+ -6.8323975 6.1004286 2.1334665 -0.94649583 -6.051111 15.563899 4.645047 4.9915442 7.4846478 0.006424673 0.6590272 4.1111608 3.5472207 -7.523126 -5.7481756 -1.3147432 4.334936 0.88558763 6.49786 4.9606686 4.2960234 3.0985363 -3.6515973 -4.010878 -1.183487 -5.367812 1.8315698 3.955059 8.584857 -9.4155245 -1.2038597 0.047447756 4.541089 2.3824964 -1.9121442 5.1525235 3.1460123 0.78706694 9.377631 -2.9838772 3.6462536 4.167267 7.092234 3.2979379 0.45072117 1.6794149 -6.8386173 -11.290655 -3.3520758 -0.023193562
C10H16N5O13P3+H+ -0.025947466 1.0132451 1.8729148 1.0552235 1.5221744 -2.4979687 -1.4315102 0.055159755 -0.79377836 0.32026285 -2.9026694 -0.69951296 -1.4627839 0.9530439 -0.5366007 -1.7112228 -0.6711332 -1.1812155 0.6599048 1.9144112 0.52576894 -2.2447658 0.53144366 -0.03731032 -0.0142513765 -0.7378529 0.5600962 0.072851814 -0.26906174 -0.58869123 -1.2382244 -0.010732173 -0.48134655 1.518949 1.7550864 0.29710886 1.2086781 -0.41161212 -0.40114877 -0.52376395 0.010607338 0.45386395 0.30922267 0.47627848 0.51763886 -0.23690154 0.58843184 -0.13272308 0.29102534 -2.6486118
C9H14N4O3+H+ -2.6755364 1.2688262 3.71964 2.1289244 0.5826586 4.415693 -0.502829 0.9690549 0.57267964 0.93683857 -1.0208939 -0.07866538 0.3566109 1.4728885 -2.5514684 -5.2253737 -0.24315937 -0.5150717 1.22599 2.8817747 0.55611557 -1.7398907 -0.14831258 -2.5370882 0.9466966 -1.8059566 0.5537591 1.6614078 1.1165438 -4.5540013 -2.4941363 -1.3144968 -0.9934444 2.166045 1.3479546 4.407575 2.8395786 -1.6009117 0.46026278 -1.6684116 1.3001541 0.592659 3.5606055 0.069475226 1.9823502 2.6307101 1.0221722 0.0042290487 1.0526532 -2.173553
C23H45NO4+H+ 4.605351 6.0169597 -0.8082218 3.9153862 0.83859056 2.7626665 -6.336125 0.3985088 3.1648002 -1.8704193 6.3376465 2.0818276 -0.8150745 -4.1859818 -4.087224 2.736861 5.2181993 1.4096892 4.4413757 -3.4474163 -1.9515268 -2.29454 -2.0314338 -0.06416903 -5.497389 14.012889 -0.86371076 3.0036013 8.313689 -5.7183 -5.0996375 -3.9685757 -6.8698244 -5.428273 -6.928577 2.7777834 5.0679975 -3.2172701 4.167221 2.8945735 4.01183 -0.37886056 5.3736067 2.773063 11.851141 -0.32850182 -2.494429 0.44468337 0.24868731 -2.4664192
C11H21NO5+H+ -7.346287 7.1736717 0.6357414 -1.7130774 -7.020527 15.021475 5.0399814 -2.7741406 11.275725 6.694426 -11.582732 4.381918 5.9889245 7.9955974 -8.177691 -7.4164515 -1.2427491 -0.23855251 -1.5294387 13.676399 0.781706 3.5243979 1.3343523 -12.626013 1.335459 -13.731742 5.1205516 7.4538455 -1.8168442 -10.545239 1.192878 -1.859672 1.6888095 4.7780447 5.406272 0.7356596 0.47006786 6.0352073 14.066255 -1.9027758 -3.9124095 3.9438732 0.55952823 -8.818729 -0.329392 0.9150547 -2.503665 -5.3202252 0.6746276 -0.2747937
C25H49NO4+H+ 0.55375767 11.18864 -0.6626473 0.8177858 -0.397744 12.448291 5.926881 -0.7799037 -1.0784414 1.1910592 -2.2734497 -3.12783 -0.18628708 1.3821898 -0.8882443 -6.3332515 5.4918222 0.79077774 7.7477303 3.4549816 1.969568 -4.6586366 -0.021220356 1.5621914 -3.7779088 -3.5865352 -3.0117939 2.5066302 0.7691431 -5.932388 -9.9799795 4.3671856 4.245661 5.086667 0.57796127 0.8625594 2.4514248 2.5637236 6.855207 -3.4000301 0.7333392 4.415189 2.4918437 -0.8225615 1.2405022 0.83967084 1.750401 -6.036216 -11.85795 4.2219
C26H30O12+Na+ 3.2111285 -4.9190917 -2.2684608 0.9368903 5.563929 -1.9417213 1.228001 1.7515161 1.5977341 9.686692 6.1780157 -3.9142148 0.7400541 -5.247132 -10.953994 2.948408 1.0931833 5.6840906 -1.7341661 2.934395 -1.9044405 5.084691 2.2994835 -2.779084 -1.0848017 0.34707057 -2.3819497 -4.146614 1.2411121 3.8949242 -3.3826606 5.3679676 4.3772 -6.2845106 -0.9500942 5.786762 3.1743968 -1.6518344 5.518633 0.017149404 1.2531049 4.1412554 9.2028265 11.527589 6.81848 2.526866 -0.45213807 1.365822 -2.834394 -0.2350788
C25H47NO4+H+ 0.999076 -0.54445136 1.6705678 -3.0224476 -4.8719425 27.912493 4.682669 3.9841602 8.367715 6.3310885 -2.8311095 7.2486253 11.32977 -4.3567944 -12.728461 -8.743807 2.1933153 -3.357808 -1.3430575 14.950354 -2.5631814 3.9479957 -4.346979 -10.476231 2.832501 -11.159731 8.436386 11.286849 0.10237521 -17.521217 -7.0477386 -0.2686189 4.986023 -3.981003 1.4785484 7.556679 7.0431848 9.913194 18.173695 -8.725101 -0.28593907 4.9863105 8.184145 -5.642089 3.1544743 2.433837 -1.9743408 -4.458535 1.804441 -1.6801697
C12H22O11+Na+ -5.3382506 3.3384306 3.7166755 -0.3375372 -0.6087781 11.714221 2.252644 2.265125 5.2766957 1.0520731 -3.5708401 -1.3803276 3.813575 6.789982 -3.7941504 -7.773877 -0.10427761 0.030020062 0.37834397 9.772471 4.6840267 5.778444 -1.4392891 -6.416318 3.3296728 -10.393789 1.8902607 4.7153034 1.3048128 -10.994301 -6.267281 2.4649806 6.1272173 2.2856796 -1.207866 11.371441 4.135747 3.9404905 4.605974 -8.148934 -0.28987625 9.050502 8.104836 -5.7400303 2.9407449 2.2642508 -0.82340795 -2.013066 -8.8756 -1.4213933
C13H13N3+H+ -0.9200305 -1.6193974 -3.2215533 0.16767734 -2.5606616 0.26122454 -1.3619032 0.66168773 1.9741834 0.41624853 2.066384 -0.31792754 3.1073244 1.0568378 0.014311775 1.5232038 0.21396211 2.8284016 -2.5936642 -2.2972896 -0.17795138 2.187926 -2.1037285 0.06607802 0.68277365 1.4941088 -0.854428 0.2555235 -0.4366953 0.9960796 2.3788254 1.250679 -0.7713797 2.0937192 -1.8157225 -1.1229517 -1.1440696 -0.038163386 2.046144 0.58227885 0.24253549 -2.3674674 1.1667255 -0.48879582 -0.46919623 -1.0395821 1.8192877 0.16027977 0.574997 2.2204835
C15H18O10+Na+ -5.9349484 0.6459645 3.2287571 2.4150624 -2.9740613 3.1093354 1.7440114 -2.4261801 2.4537394 3.2873251 0.41771546 -4.545155 3.472996 1.4910535 -0.027899308 -2.4925377 2.6392143 1.9351403 -1.0483212 -1.5118033 2.6079516 0.4758705 -3.0557292 -3.425411 4.1798534 -1.9185189 -0.9043711 1.4761276 -2.05563 -1.7485667 4.7083163 -0.45428658 5.3429685 5.2278404 0.038031276 -3.273138 -2.8476517 3.5926442 4.876869 -2.3509445 -1.2396432 4.2308908 1.6384631 4.147501 -5.964392 4.322278 -2.8904278 1.1184189 1.4169512 5.089937
C12H22O11+K+ -2.4971778 -1.0515797 1.838947 -0.42970252 0.11294705 -2.7278862 2.603197 1.5446476 0.9232448 0.7257096 -0.7421201 -5.658328 -0.15159163 -1.5982268 5.4446316 -0.7516504 2.8882205 0.63413954 2.547834 -3.59255 3.729967 -0.41674998 -2.1066916 -2.1052017 2.3877096 -2.775119 -1.7106875 -0.8232288 -0.8592994 2.0392458 1.2675714 1.2708615 7.022138 2.1259618 0.78504914 0.03370775 -4.465075 -0.017574748 -0.10840546 -0.9827715 -1.4486883 2.4646819 2.856243 3.1460118 -4.133851 3.4058485 -3.2367752 -3.467372 -0.9930109 5.650143
C15H22N2O4+H+ -8.017441 5.6369214 1.2140304 -0.30645525 -4.9647923 11.337773 0.08625487 -3.0366113 6.643245 5.699778 -6.1557064 2.376452 6.189976 5.035855 -7.2291408 -4.8085256 0.18999477 2.0332046 -2.4294035 7.8283386 0.7671519 4.733043 1.7478766 -9.831616 1.2031865 -7.255353 2.4952147 5.9431643 -1.705822 -6.9401503 1.4941343 -2.3819692 -0.87088776 1.6564915 1.0002983 2.1248493 0.41894075 1.5586245 9.54092 -0.31868005 -3.2603354 2.3032598 3.4474962 -2.0284913 2.2688086 2.1657872 -2.8877335 -1.4567198 -0.006507295 1.5786189
