64 100
C7H15NO3+H+ -2.6329484 1.3003154 -2.5621185 2.0043287 -0.62959146 -3.1515594 2.9605107 1.8166195 -1.2695031 2.7787602 -1.4622635 -1.5792637 -0.5085773 -0.8231487 0.4400382 -1.467744 0.701461 -0.088845745 1.0924685 0.45587945 0.26081952 2.4714553 -0.6232722 -1.7454871 -0.19016215 -1.9718251 -1.0228016 -1.1865193 -3.3565087 -0.0023423668 1.8364367 -3.2848885 -1.0385712 -1.9340794 0.6650498 2.506805 -2.064604 0.52171236 3.7072847 -0.877931 -0.72232646 -0.54706466 2.536032 -0.8607361 3.2815123 0.13662101 0.6536225 1.5434546 0.122042164 0.4275559 -0.21171859 0.18374893 0.1767801 1.0223165 -1.2087274 2.7319808 -2.0360413 -0.9305191 -0.8977122 -0.12641767 0.098357424 0.7058816 2.3864238 -0.9712799 -0.62326896 -1.0535183 -0.78260225 -0.7128258 1.4801788 -3.2614243 -0.2908477 -1.6765552 1.1112416 -2.0866451 -0.06562775 -1.4505303 -1.2315189 0.38757274 -0.6444489 -0.081418395 0.017524967 1.6746697 1.8879334 -0.7808804 1.0184785 0.6488501 -0.86877674 -1.891976 0.14348727 -1.5787817 1.0039046 0.56648886 -0.72844845 -1.8945203 -0.31272033 -1.0021074 -0.15392612 1.457772 0.07416153 0.875627
C15H22N6O5S+H+ -6.225413 -3.839741 -0.090237044 2.2711709 0.66025233 -10.798911 7.498456 -0.7209384 0.051129583 5.8321867 -1.1377516 -1.5765536 -0.33974546 0.66360533 1.3821493 -4.3082747 0.8356398 -2.0259619 1.52805 -2.468979 4.0925508 3.3889272 -2.6247394 -1.2375605 1.5064483 -3.225621 2.2844126 -3.9077027 -4.442658 0.6903955 1.2159042 -4.5035877 -3.1984508 -5.0146914 -1.9513317 4.457111 -2.6172624 2.9823194 6.104719 0.88682103 -2.825233 -4.2809505 3.0717626 -3.3140275 -0.19702433 -1.4110793 2.4410605 1.6188011 -0.41950807 2.0141063 -0.4862766 0.29427263 -0.23519108 2.6939468 -4.990788 1.2523762 0.11421247 -0.8677858 -3.5625541 1.9922158 0.8756296 0.70413977 3.607295 3.0617101 3.3365715 -6.8665457 0.96256626 -2.7419505 2.3656414 -4.5596933 -2.468907 4.5203543 3.4904346 1.8227193 2.960196 -3.4072666 -1.2555393 -1.2834136 -1.8142872 -0.9259423 1.7127753 -2.7000842 4.1464653 0.5191519 0.45985872 1.7064661 -1.9407645 -3.1563015 -1.2508658 -2.6093113 1.0952654 -3.9052024 -1.2205005 -1.027785 -2.2489715 0.24902643 -2.4091341 0.44740447 -0.3476349 -0.6640842
C24H50NO7P+H+ -4.5723886 -2.3509488 -2.7031865 2.8629575 -1.8653939 -9.168522 5.606826 0.7359796 -2.1514864 5.193807 -2.5605326 -3.8344722 -0.9834247 0.07589515 2.7998192 -4.0508 1.3545841 -1.0559019 1.9270184 -0.65178823 4.0093126 4.9539733 -2.5283866 -2.4077945 1.8495115 -3.876303 3.575991 -4.6390386 -6.7825246 -0.39305654 4.5237913 -7.4601383 -5.943341 -4.742294 0.81857044 4.582816 -5.5311112 2.4502285 7.0278645 0.87317836 -2.2814474 -4.333038 3.4065733 -1.7383763 3.1559863 -1.965123 3.011104 1.998245 -1.0262396 0.36874038 -1.8616292 0.18193692 -0.5958781 2.1794593 -4.2522626 0.6121887 0.23204567 -1.4593279 -3.9911752 1.8725327 0.82752365 1.2296103 3.1710565 0.66324097 1.4087584 -4.3439302 -0.9290326 -2.0257132 3.180885 -4.572112 0.22684315 2.1081803 2.435955 0.6656545 2.3164914 -1.9286759 -1.9773427 0.9950804 -0.50720924 -1.5468198 2.1274831 -1.4672589 3.2193778 -1.5844774 -0.36781296 1.5812672 -0.713977 -3.8018665 -0.7397782 -3.0943284 2.6371253 -1.4084619 -0.4333376 -0.23003645 -0.5795475 -0.7627965 -2.2525566 2.2739482 -0.121746786 0.06738899
C4H9N3O2+K+ -2.0431473 -2.2076452 -2.4356976 4.4484515 -1.8019557 -5.666023 4.8894053 1.2374735 -1.0069954 1.2321088 -2.1550715 -2.4302173 -0.43509156 1.2029178 -2.2211533 -0.67560697 -1.986649 -2.1443386 0.01775418 -0.8105257 3.753318 1.8642917 -1.5543412 -0.6257714 1.8094605 -1.3427376 3.2660172 -0.96702486 -1.2306114 -0.746956 0.10944506 -2.2904766 -3.9172292 -2.5783997 -1.5800265 6.4047985 -2.0530245 2.8804703 6.0387344 -1.8493018 -1.3634373 -1.4275564 0.43372774 -0.23926559 3.3050082 0.31702274 1.5995162 1.0428588 0.8688452 -0.4437367 -2.0088491 1.9193988 0.4562961 1.0252993 -2.8519402 -1.1920458 1.3093165 1.855336 -0.96541727 -1.0880582 3.048889 0.3804996 -0.48692676 1.7816602 1.4423397 -6.590297 -2.7652376 -2.2323766 2.0891428 -3.7872558 0.92955625 5.7461615 -0.3388472 1.3446171 -0.43488386 -2.5793931 -2.1824772 -0.57210714 -2.4765835 -0.7409636 -0.35137856 0.064354524 -0.45044616 -1.0261152 -2.113492 2.7677712 -3.820552 -2.9942336 -1.1371696 -2.2962768 0.83248127 -2.84092 -2.9124699 -0.56736517 0.4292072 -1.1693376 -1.1354831 0.16987903 -0.48729223 -0.7367225
C9H17NO4+H+ -3.862808 2.5430932 0.044219524 -1.395972 1.3285042 0.074439526 1.3415473 -1.4060047 -1.6462042 4.515136 -1.0234319 -1.3668565 -0.5676747 -1.8861998 1.964227 -2.5314806 2.1653273 1.9413465 1.9119143 -0.12517914 -1.8309517 4.36062 -1.2381872 -1.4549158 1.3971742 -1.5619661 -0.1686746 -3.831671 -2.2966928 -0.21302798 3.6903708 -2.5952084 -0.5357416 -1.619714 0.3842786 -0.0647064 -0.4946541 -0.3654122 -0.23553362 0.41387188 0.24909262 -1.2519842 2.3749166 -0.9420642 0.70909864 -0.2729923 -1.1012908 -0.1449396 -1.8175693 0.05344519 0.6328637 -1.6340648 -0.2789227 0.7996422 -0.6912326 0.9180985 -1.6829995 -0.9072195 -1.191077 0.36061683 -2.1097748 0.78380716 1.7321793 -1.3290211 0.655547 0.929042 1.9234802 -2.8795948 -1.5905335 -1.7602913 -0.83402133 -2.2390912 2.4991019 -2.7233553 1.741802 -1.0480397 0.20261067 3.4221756 -1.1313767 -0.010027924 1.4049788 -3.2950225 0.48840067 -0.030979406 1.9547654 -0.19969277 1.2036854 -0.072397575 -0.7719673 -1.6109804 -0.50002176 0.33250496 0.5491959 -1.7986616 -0.07307051 0.25802612 1.1863195 -0.15533823 0.30123338 1.2332399
C10H7NO3+H+ -0.51259065 -0.103647076 0.016572801 -0.9834568 -1.1227415 -1.1925648 0.51646405 0.42776436 1.0187241 2.1603227 -0.3544091 0.30118248 0.8606927 -0.39469996 0.91781324 -1.375264 -0.7629587 -0.6330354 -0.06075013 -0.071056545 -0.042173814 1.2678895 -0.42397532 0.9926356 0.09760165 -0.03731815 -0.5825313 0.46759468 0.39160025 0.80320185 -0.042835463 -0.76751846 -1.4150791 -0.28354394 -0.32182646 0.75881296 -0.1002872 0.77546054 1.3901545 1.0140585 -0.5790109 0.79818445 -0.2079445 0.16452008 1.4969082 0.74237144 -0.5088154 -0.37390277 0.048834972 0.19047315 -0.32109407 0.5825629 0.2631439 -0.313083 -1.1344763 -0.248275 0.276766 -0.4554402 -1.5390085 -0.0775497 0.41503933 1.1625729 1.473884 1.2157967 1.9439594 -0.8696345 0.98287135 -0.10845739 0.30707067 -2.6887364 -1.1704248 1.3619044 1.1843079 -0.3574364 0.107832484 -0.31797278 -0.26757044 0.15450312 0.36148655 0.16323216 0.7620231 0.27790985 1.6493206 0.77266765 -1.0617098 -0.2820038 -1.7126167 -0.1689863 0.33366993 -1.1703845 0.6840947 -0.9052731 -1.4267187 -1.3776412 0.84851336 -0.0895072 -0.90405643 -0.277429 0.17399934 -0.43816203
C11H21NO4+H+ -11.819055 -0.011022219 -3.4614332 3.8618858 0.51112574 -13.868959 7.793701 1.8442456 -2.1549642 11.240379 -5.2580037 -1.3973932 -5.054508 -1.4820992 2.7001588 -8.429049 -2.4440668 -3.4958458 3.9720185 0.3558798 4.9211574 6.214513 -4.8916883 -1.4131166 3.1208613 -4.9563494 2.9086509 -5.431822 -5.665874 0.8006676 5.2288623 -9.234422 -6.114256 -5.1331677 -3.632076 5.941104 -4.116165 1.7098367 8.302729 2.5768182 -3.2975662 -4.822386 6.1818967 -2.7776687 5.8021145 -4.9550996 3.452423 -0.77076447 -0.054915532 3.5983224 -1.7760061 -1.0168366 0.767316 3.3113317 -8.0697565 2.1600869 -0.7541597 -1.1952343 -4.796814 2.6353724 1.4222094 2.270926 5.6196227 1.7892795 2.8679075 -4.804989 -3.211687 -0.8047773 -1.001889 -6.229772 -2.0947077 2.0235405 3.4848616 -0.83327883 2.6185305 -8.581222 -4.712622 1.3514177 0.9533853 -0.77741176 1.5229375 0.49141 4.835485 -1.7289567 3.2550187 0.9112409 -2.0456858 -3.8765984 -2.0636044 -5.720029 1.9136069 -1.6337631 -4.4070215 -0.604616 -1.3615564 0.42912787 -2.9669962 5.6689544 2.839895 1.6216238
C22H22O7+H+ -2.405606 -2.6452806 1.0186919 0.3160881 -1.9506248 -1.2949735 0.8925223 0.6881371 1.4880428 -0.5235763 -1.0597771 2.5392663 -1.7056956 -0.47341228 -0.5532369 -0.7433427 0.1940116 -0.145858 0.36094898 0.0076528173 0.68690586 -1.7182275 -1.0331417 0.72876155 0.23040053 -0.76710933 -0.68352616 0.24986532 1.7973279 0.1761595 -1.8616784 2.1962903 0.17162566 0.73210615 -1.6853933 -1.3490336 1.1518836 0.29854673 0.99139774 2.0966344 -0.7852267 -0.07506418 0.79129654 -1.0879002 -1.6479425 -0.22340459 0.15128885 -2.552257 -1.1893203 0.029619478 1.6762456 -0.098043025 -0.82077 1.4166979 0.8529639 1.006089 0.1828851 0.44930908 1.6424929 0.033276964 0.07040905 0.4602323 -2.7380326 0.22453089 0.721196 -0.226712 -0.63139117 0.51603204 0.078476235 1.264019 -1.1871368 2.675347 -0.890429 3.2049892 -1.2397286 0.55386484 0.92454296 -0.61789674 -0.2949256 -0.18941236 -0.22067408 -1.1605244 1.2044821 -1.4046636 0.42769498 -0.4122053 -0.4028132 0.26146555 -0.33127174 -0.84152853 -2.7029746 -2.0018697 -1.7433307 -1.7803009 -0.6745424 0.8009196 0.28541774 -0.016031416 0.75689965 0.102721125
C10H7NO3+Na+ -1.5288402 -0.6831044 -0.2382468 1.0659783 -2.7944958 -2.5389895 1.6835408 1.8363426 0.7195874 1.0750507 0.48218432 -0.52615774 -0.5649893 0.5839205 1.5423058 1.049529 0.9322122 -1.2956802 0.19713722 -2.0211635 0.13585906 -1.6017301 -1.9734603 -1.6776997 -0.118686244 -0.7419195 0.43807772 -2.2818937 -2.1524594 -0.29711026 0.9878812 0.15892652 0.1071237 -0.118373 -1.1510588 -0.13351566 -1.1304361 2.102003 3.6980999 -0.55467695 -0.25225452 -2.1850705 1.8401841 -0.5876461 0.68951535 -0.64335567 1.719453 0.595935 0.14312394 0.08673049 1.1798748 0.035019856 -0.73223454 0.8583034 -0.6815191 1.7841724 -0.28737974 -0.48903415 0.9631803 0.65893334 0.61550254 0.19989789 -2.0742319 -1.5863538 -0.75735223 -1.1212038 -0.91681445 -0.47376853 2.3135889 1.6326768 1.5189818 0.8832691 0.0049594147 1.7714636 0.4019332 0.45102438 -1.5892642 -2.1969616 -1.2941895 -1.5127352 -0.05999026 -0.48312083 0.34488398 -1.282184 0.4591503 1.6971673 0.6880019 -2.006234 0.7491469 0.7106267 0.09154555 -0.18362202 1.2354311 0.026694247 -0.04728578 0.08895897 0.21553566 0.9514238 -1.3472974 0.37096027
C8H20NO6P+H+ -0.35227826 -1.0133741 1.097019 1.5801051 -0.17723513 0.52928567 0.9991226 -1.4928688 2.3385513 -1.2117379 -2.089543 0.29446745 0.72431743 -0.3847098 -0.3354621 0.57400805 0.41255778 -0.48899245 0.45003256 -0.05795229 0.041247472 1.6400578 0.22341779 0.0058165835 1.4342115 -1.3297284 -0.44503474 -0.13174322 -0.9054538 -0.31697616 1.2314413 0.43349147 -0.20781523 -0.73316246 0.07961602 -0.007897365 0.535347 -0.11773336 -0.192526 1.2502941 0.84701973 0.63141215 0.9366334 -1.4316821 -0.5396613 0.2945705 -0.50510806 -0.2293039 0.08445093 0.17286143 -0.3049893 -0.67657465 -0.27676454 -0.37532437 0.84759057 1.199974 -1.1292118 0.110989064 0.15715128 -0.27094284 -0.79487973 -0.6478981 -1.2577062 0.5397257 0.3837462 1.9400617 -0.6795921 0.86579055 -0.61493146 1.2985634 -1.8568041 -0.6440144 0.64337033 0.31444475 -0.5055382 0.16968653 2.0113807 -0.62027615 0.9007128 0.80356866 -0.30000845 -0.16344568 0.2147197 0.6948058 0.3363177 -1.0934389 -1.027786 1.3677174 -0.395132 -0.40546232 -1.8706014 -0.7081099 -1.3765014 -1.311616 -1.7844087 -0.40559134 1.2993817 0.5674942 -0.43031165 -0.02042992
C10H7NO3+K+ 1.6542128 -1.7816218 1.3553052 -0.40058288 1.5263324 -0.38501915 2.0283215 -2.4392219 0.73601997 0.9100089 -0.8086357 2.1161914 1.4173578 -1.8033193 -1.1633451 -0.7426265 -2.444717 -0.923372 1.2296342 0.9150582 0.93129957 0.97131896 1.5018435 0.63413143 0.48859915 1.4106189 -0.3841474 1.7624642 1.5895344 0.65410614 1.2881268 0.45144457 -2.129419 0.022887914 -0.6294103 1.6231569 -0.68170017 -0.5590436 -0.6417976 1.3512374 0.069417275 1.6963792 -0.03488079 -0.4223422 -1.1570264 -0.25631222 -0.07438186 0.11755268 0.37366763 -0.3270194 -1.6024449 -0.24656966 0.37129068 -1.3728541 1.1678675 -0.9399473 0.85949194 0.16833346 -1.8423549 1.2604191 0.10699715 -0.26658309 0.87003434 3.7751188 1.6845037 -1.2552143 -2.1582963 1.1065776 -0.44577068 -1.0039691 -1.0294201 1.6070573 -0.22731414 -0.55114925 2.2639272 -1.6282579 1.1209683 -0.6911131 1.7231566 1.1239492 1.220752 -0.754629 1.1329018 0.04063071 -0.32072726 -1.6479181 0.14052907 1.321823 -0.26547575 0.52473396 -1.8198518 -0.5880311 -3.6776745 0.7436406 -1.5945894 0.597339 0.8226228 0.48057905 0.44960633 -0.33767343
C11H20N2O3+H+ -2.502343 0.30994552 -0.077939406 1.5298709 -1.3874719 -1.5451351 1.3687086 -2.3388755 -0.026617693 1.8087975 -1.2126275 -2.954012 0.6029567 -0.37735638 2.4814801 -1.7868032 -0.23578896 -2.4331214 0.73058355 0.5835714 0.7605114 2.1436157 -1.1223683 -0.70515054 1.8496805 -1.459907 1.5179615 -0.85808843 -2.9159896 0.31857532 4.220399 -2.335061 -3.544337 -1.8453285 -0.40468702 2.0725007 -2.700795 0.31541103 0.8581984 -0.13118337 0.23207417 -2.582895 0.9671298 0.5906208 3.3597984 -1.4230564 1.7270932 3.0796974 0.53532755 0.5574249 -1.9897187 -0.57568353 -0.43863994 -1.1663082 -2.288003 2.2203057 -0.77640486 -0.14072129 -2.2324374 0.71751 0.010602847 -0.9268785 2.2470753 -0.7087662 0.51132685 0.09598901 -0.7324735 0.5077919 0.42995775 -0.93923444 -0.0024857502 1.2348295 2.6170313 -1.3134264 0.8715614 -1.9989879 -1.9474487 -1.8158098 0.5342194 0.18658926 -0.23440096 -0.0004012012 -0.24229947 0.33228904 0.39097884 0.914415 -0.2838334 -2.5934749 -1.7282906 -0.5005797 2.1620991 -1.375393 -1.272814 1.6174803 -1.5064374 -0.7218376 0.3432421 1.3009504 -0.14670675 -0.024450807
C8H17NO2+H+ -3.1009965 1.2751068 -1.1217568 1.8822092 -0.29032287 -2.6916847 2.8721988 0.29062244 -1.0865829 0.7445811 -1.8062307 -1.9972934 -1.0552595 -0.08947099 0.061566345 -1.9750226 -1.3027823 -1.8018717 -0.8714536 1.5073063 1.2865406 1.3990855 -0.6589693 0.84326196 0.52864313 -0.23218758 0.9232444 1.1695827 0.033314075 0.1805587 0.8539779 -2.3442209 -1.2468596 -1.5418535 -0.24472156 2.8382156 -1.8404541 -0.31093422 0.28321338 -1.764551 -1.4146413 -1.1929679 -0.18678446 -0.055201318 2.6188686 -0.5728486 0.73114896 -0.44892627 1.5895177 0.17635906 -1.7722989 0.8231205 1.3682432 -0.75764877 -2.5402718 -0.46151063 1.0160332 0.665317 -1.9951439 0.75745326 2.98465 0.28485864 2.7811635 2.460796 -0.27202803 -3.113616 -1.7308975 -0.010158208 0.19128777 -2.5617263 0.23927127 1.5545655 -0.48163337 -2.546481 -0.6908832 -4.3172526 -1.036652 -1.1912475 0.041540734 0.223 -0.05517076 2.3128111 -0.1250959 -0.76977307 0.1348146 0.34208718 -0.5926685 -0.95865816 -1.2108636 -2.144838 1.5808905 -0.95973134 -1.7620137 1.471844 -1.919445 -0.0903713 -0.3553884 1.1129247 0.4322745 -0.5207161
C10H11NO+Na+ -2.877204 -2.444297 0.7002982 -0.20507061 0.6152856 -1.1726623 0.43898678 -1.5793737 1.0766361 1.0367656 -0.85681134 2.232525 -1.1508167 -0.94548124 2.0931404 -3.1888025 -0.75987077 -1.5052938 1.0094957 0.6578121 0.9564383 0.795498 -0.7118155 0.61721677 2.7018385 0.2431948 1.042281 0.037272226 1.5475651 0.8742208 0.33890146 0.8744665 -2.0961971 -1.8602122 -2.4180164 1.6576184 -0.28224277 -0.8145534 -0.3401825 1.2829821 0.24908751 -1.339161 0.76344824 -1.164868 -1.4038419 -0.6332888 0.9757527 -1.4520687 -0.93882084 -0.7643715 -0.37816295 -1.0947052 -0.55826545 0.03943672 -0.10638968 0.65420306 0.54056996 2.3001883 -0.55400664 -0.5934429 0.12010516 -0.534985 -2.2951257 1.1392666 0.9561389 -0.33501315 -0.5897083 0.9440508 -2.1129184 0.98686 0.50688833 1.6965883 -0.5070285 -1.3117238 0.12371146 -2.3541684 0.356759 -0.42988485 -0.4814332 0.72881883 -0.7109727 -2.3483472 -0.77819 0.46958578 2.2306926 0.3403401 0.5587816 0.55478 -0.32417062 -0.6015811 -1.9681484 -1.9985605 -3.8413086 0.86725867 -1.8830014 1.53663 1.5420942 -0.42948592 0.31991166 0.34730825
C29H47NO4+Na+ -1.0014979 -6.019911 0.8142368 3.6467357 1.3535012 -5.500292 10.279937 -4.3678794 -4.2106867 11.203529 -3.8140142 -6.2875457 -0.34776226 -8.338913 -1.1773733 -8.898913 -1.3868014 -1.5194042 2.0450883 -0.12582582 0.41179618 7.74732 -0.3896509 -4.966925 0.9431375 0.7927746 -0.42831564 -2.016005 -8.653806 1.2992029 9.422911 -8.317791 -8.152893 -3.3742092 3.9464536 3.8395958 -9.135231 2.9800968 7.1512394 1.6924106 1.4184369 -5.071777 4.722261 -2.0030308 1.9941528 -3.396687 0.5591009 4.287267 -1.7486292 2.867493 -1.1230886 -3.5737793 -1.4143106 0.36899114 -1.4321184 -1.4646773 -1.4601032 -1.1925094 0.12909815 1.2853956 -0.8814776 0.029017638 4.211301 0.1265574 5.7957673 -2.4843705 -6.2336173 0.43366614 1.7140188 -0.3851221 1.988611 -0.3905422 2.0826566 1.9133877 4.8972425 -1.4732294 -11.707536 -4.766296 -2.2944689 1.3861824 -2.8127828 -7.1160164 2.362201 -0.6630977 -2.8816934 -1.0755502 1.8460882 -3.8172922 -1.2844279 -1.8926524 -1.8012807 0.6631531 -0.7222856 -3.1032493 2.9169161 -0.1522997 2.701569 -3.2876177 3.2336674 -2.5100613
C9H20N2O2+H+ -0.94863015 -1.4043787 1.7394403 0.06158013 0.9758225 0.33373654 0.3877144 -0.84948224 1.3720217 -0.05136672 0.281485 1.5245926 -0.95593584 -0.38372794 2.1981986 -0.30705935 0.16553576 -0.53230315 0.042051416 -0.2267243 -1.1836293 0.4112176 -0.28980976 0.21220861 0.9591208 -0.46311185 -0.7339124 -1.1179225 0.61901736 0.39833692 1.1469363 0.6609935 -0.1410768 -0.6747989 -1.1985594 1.9468175 -0.2471899 -0.4461788 -1.511483 -0.7965434 -0.12268377 -0.39658993 -0.3682253 -0.6614844 -1.9402785 0.4423371 -0.55530596 -1.2509896 -0.47297302 -0.36441213 -0.14498203 -0.69915444 -0.44524506 -1.3932612 -0.071442515 1.7409462 -0.90368354 0.87532085 0.32330218 -0.31354517 0.20010878 -0.2985452 -0.83456224 -0.37300992 -0.2594862 -1.2778755 0.2264819 -0.5434324 0.16163526 0.45621255 0.12225626 1.2483852 -0.13797177 -1.9302305 1.0502745 -2.223709 1.1473166 -1.4647567 -0.03956174 -0.1154266 -0.973817 -2.5583768 -1.1284597 1.0490878 2.4389465 1.0975841 1.4988542 0.3702316 0.6340662 -1.0834147 -1.4195616 -0.68304557 -0.5450308 1.4735515 -2.8008115 1.4371464 1.0265831 -1.4135419 -0.89251095 0.17110847
C7H15NO3+K+ 2.9120548 -0.6674271 0.88476247 0.10592723 0.1653653 2.7098415 -0.8303139 -0.9620998 -1.2978032 -2.5961332 0.47311452 0.112647146 1.2371793 1.436349 -0.79667884 1.2518327 0.28313094 0.6853197 -0.36123502 0.30644557 0.93127453 -1.0233078 -0.17606494 0.19626392 -0.4506519 1.2646903 1.1332511 0.06948191 0.019608159 0.11879385 -0.58341056 0.63786936 1.1083608 0.17506905 2.7829037 -0.32215956 1.0303648 -0.14658763 -3.4451234 -1.0092993 1.0963252 0.31657597 -0.74603176 1.1215187 -1.0180554 0.13369407 0.21776599 0.86619747 0.41251162 0.0005214129 -0.53877723 0.4540132 -0.28066948 -0.745662 0.91199327 -0.7192736 0.16579843 0.03536495 -0.10520023 1.1151642 -0.28554907 -0.101417616 0.6104338 1.3434465 0.90672785 -0.046382528 -0.46140063 -0.28148818 0.5416127 0.6285606 -0.41523322 0.08144985 0.8268729 1.4050927 0.86292654 0.3254586 -0.0649285 -0.5380091 0.83407515 -0.11955058 -0.05748849 -0.80314744 0.15315291 1.8380225 -0.74297667 0.038945783 0.8106268 0.7924704 -0.75571126 0.056451816 -0.8860359 -0.81756616 -0.13692676 0.9451695 -0.028206902 -0.89848435 1.3411814 -1.1050345 -1.0096827 -0.31484577
C26H50NO7P+H+ -0.6661866 -1.9239931 1.2765235 -1.0068102 -0.34689206 -1.307909 0.87336355 0.24196169 2.8479748 1.0042634 1.5558702 -0.016830223 -0.05138984 -0.11131936 0.6006828 1.1376323 1.4371488 -0.087533966 0.9753271 -3.192793 0.47293365 0.273486 0.8726744 -0.8697681 -0.6354978 -1.9713992 -1.2019192 -1.7992569 -1.360551 -0.010662159 -0.7311467 0.70490843 0.47079685 -0.2092993 -2.9043167 0.6138205 -0.3766807 1.4099531 3.4469588 -0.12937893 -0.79049283 -0.83605224 0.32067034 -0.38288966 -0.8972823 1.7755597 -0.15903603 0.9304145 -1.7422659 -0.44433117 1.0187695 0.057054944 0.035415698 1.6718824 -0.61257714 -0.34379625 -0.03283698 -0.29005966 1.1220479 -1.1346432 -0.3910993 1.1299162 -1.0827127 -2.0832655 -0.11215283 -0.31802273 2.7202578 -2.1258202 1.6205844 1.7814099 -0.11296718 1.0344735 0.4734899 0.8658307 1.3233949 1.2482257 0.803876 1.6555816 -2.1248956 -1.065728 0.013938785 -2.4925122 -0.33425552 0.12687846 -1.0423926 0.85686547 -1.4640224 -0.25966263 2.0485399 1.5088195 0.18239559 -0.724022 2.8478205 -2.1180968 0.60204524 1.7992578 -0.9009963 -2.9769988 -1.2297513 -0.7849285
C13H17NO3+Na+ -3.053706 1.6454998 -1.4328855 1.9252763 -1.8992913 -2.0454698 0.33294752 0.7349381 -1.5423833 1.114841 -2.4118676 -2.8231049 -1.2284163 0.7577184 0.16808261 -0.4543838 -0.46419847 -0.14163835 0.7727926 -0.49268746 1.2750418 1.1309894 -2.0289757 -0.6161185 -0.26191014 -2.2961938 0.51713663 -2.3210766 -1.421134 0.12640165 0.7221306 -2.4942982 -0.3234596 -1.0152323 0.3484914 -0.35266578 -0.6939573 1.8256385 2.7643704 0.7342636 -0.32071725 -0.54444075 1.6384935 -0.41358536 3.645188 -0.89219433 0.80274165 1.123876 0.9927924 0.56671387 -0.16958073 0.9223444 0.9259461 1.1477906 -1.6913028 -1.0208067 -0.09144144 -1.6511585 -0.5169785 0.19809178 0.45075083 0.7482075 2.7060664 -0.6280074 0.17466824 0.09553361 -1.0634676 -0.86695343 -0.37144503 -1.6838039 -0.43044284 0.11432245 1.1709933 2.5147831 -1.0501292 0.6097283 -1.8556988 1.1877058 -0.23292705 -0.5397001 0.77498156 1.1866431 0.65261054 -0.14090891 -0.8264485 -0.19426626 -2.4626935 -1.2576156 -1.032179 -1.6053778 1.2341807 -0.39744595 -0.57939345 -1.9621559 1.8635939 -1.5590346 -0.9483431 2.7009811 1.100056 1.1125638
C10H16N4O3+H+ -6.8846 -0.7228222 -0.13222556 0.5914758 -0.40414008 -5.8678675 3.682955 -1.5841643 -1.8693382 6.7360125 -2.7306528 -2.03969 -0.8592226 -2.7120867 0.59826666 -5.1635203 -0.40792182 -1.6016114 4.363006 0.72918785 3.802881 1.9602747 -2.694038 -1.492891 2.1330912 -1.3410662 3.7298944 -3.0172489 -2.2313263 -0.44506118 4.134708 -2.632622 -4.927479 -2.555417 -3.733293 2.4821568 -3.3336053 1.4911443 3.6920004 2.3779528 -1.4760119 -4.821223 3.614339 -0.8835686 3.3074071 -2.6387367 1.9123726 1.4384196 -0.5279167 0.41560003 -1.2761484 -1.2937579 0.49927276 1.4344985 -2.9103794 -1.4053888 0.17097111 -0.44177032 -0.965634 1.6433761 -0.15288875 0.9057686 3.024055 -1.3374813 1.5183818 -2.000802 -2.2206972 -0.8201747 -1.148596 0.08689119 -0.32232702 2.83218 1.351405 1.3818979 1.0768483 -2.8781114 -3.0495973 1.1498064 0.012498586 0.061656263 1.1482306 -2.8911145 0.475521 -2.8717282 1.3471146 0.76110387 0.43323135 -2.4677486 -2.8188934 -0.54830617 -0.19512641 -2.1415102 -2.3371239 0.12503338 -0.86330205 1.2391887 0.036864083 1.3180497 1.1500479 0.4198903
C8H20NO6P+K+ 1.9972314 1.2482331 0.3032138 -2.3051298 2.3397923 1.4746857 -0.48233527 -2.0950038 1.0564843 -3.5813906 0.548844 2.9265463 -0.19864069 -1.1631519 -2.914132 -1.4797767 -1.1297243 1.6318427 0.40431502 2.411891 0.15320055 0.0030221795 3.2116 2.1719694 -0.5788138 1.4130278 -2.0647023 4.3288264 4.822364 0.29805648 -4.367018 2.2048259 2.3996453 0.8442382 0.77671194 -1.0819306 1.9345458 -2.462907 -3.748622 -0.106861174 -0.8019621 3.6326234 -2.7952464 -0.7058509 -3.4264328 1.2359061 -1.1059167 -2.1948185 -0.9984062 -1.6997055 -0.98147506 1.1265346 1.070164 0.22159663 2.657598 -2.226779 -1.0416597 1.0993326 0.002131707 -1.6005176 -1.5386765 0.9143237 0.36236334 1.5782009 -0.49341768 1.3836187 0.7468269 1.7332199 -2.748365 -0.9434418 -2.0286496 -3.317164 -2.3973565 -1.9323921 -0.72836065 1.6147202 3.6074035 2.5159376 2.7092187 1.4540131 -0.47013232 0.742133 -0.09010152 0.49383533 -1.1518329 -3.4165297 -0.1616264 4.1142173 1.6716714 1.0749085 -1.6434839 1.0649599 -1.1101638 -0.07675198 0.18676387 1.4745374 -0.85194737 -1.936671 -1.4250703 -2.5633051
C26H52NO6P+H+ -6.1675525 -0.9542759 -1.0673562 4.5125833 1.0942888 -9.069989 8.951992 -1.3092755 -6.1018 5.6701784 -3.1333716 -6.196394 -2.0779624 1.2707834 0.93211895 -3.3179395 0.17470288 -0.29807124 4.4917808 -1.1060449 6.051828 4.6245074 -2.855844 -5.2566895 0.90196157 -2.8684623 3.6928396 -4.5548964 -5.276285 0.16967404 4.9777317 -6.662806 -3.5221233 -3.0812151 -0.51806545 6.679825 -6.808579 1.6909097 6.5649233 -3.1711817 -2.7348723 -5.132977 4.761677 -1.1224439 4.3836617 -2.4385445 3.8076227 6.11493 0.044742182 0.27912733 -3.0942202 0.64816976 0.6754122 1.5254841 -4.5349264 2.167238 0.00070880237 -2.1182845 -4.4967265 3.5091443 2.164019 1.0085495 7.5730386 1.6329044 0.50598675 -8.044475 -3.3462453 -3.5204742 3.3910384 -5.771084 0.15747139 4.575488 1.2067951 -0.12340637 5.113967 -6.589763 -2.719701 0.6166891 -0.21472439 -1.7566524 1.8747796 -2.642839 2.114411 -4.256296 0.9145918 1.7240639 1.446334 -4.668681 -1.7737956 -2.9332647 1.544632 -0.9476399 -1.9879519 2.150197 -3.3735647 0.39956707 -0.24360925 2.7270358 -0.40575737 0.58695143
C10H19NO4+H+ -6.5630155 1.7460208 -1.7490668 2.1990283 -0.19764547 -3.8731527 1.9548672 -0.25224817 0.09009523 3.886959 -2.922167 -1.9419947 -2.043667 -0.5274857 2.0278432 -2.766459 -1.4584903 -2.3320045 2.0949101 0.85426664 1.6684281 2.4320955 -2.164466 -0.3345294 2.765803 -2.518549 2.56005 -4.076788 -1.9760745 0.30622044 4.8453746 -4.56575 -5.3306623 -4.590276 -1.3899965 4.754515 -3.2457154 2.254781 3.9520493 -0.3012654 -0.1744561 -3.0375614 2.4073546 -0.58849126 5.54283 -2.481431 2.1262434 1.2545733 0.90388256 0.733804 -1.9871632 -0.6243633 0.8302957 -0.1292193 -4.5020785 0.36252576 -1.3405192 -0.23442616 -2.6686919 0.20284943 0.9027129 -0.26140153 3.3836725 -1.2589209 0.6395493 -3.0177631 -2.2615762 -2.5021906 -0.7123029 -4.287999 0.8489076 1.1334321 2.1467435 -1.5033946 0.49790695 -2.712733 -3.173747 0.6528151 -0.00830732 0.2031818 0.017811077 -1.2799187 -0.59703857 -0.13023163 1.9472317 1.8615718 -1.4358733 -3.798721 -1.0194563 -2.5166807 1.4041309 -1.0183471 -2.779073 -0.45294625 -0.8691634 -0.5980007 -0.85915387 2.9315052 1.0886275 1.4282079
C8H20NO6P+Na+ 0.28677827 -2.1854584 -1.0485466 -1.5851567 -1.375843 -1.8887906 -0.51449984 1.4130074 1.4983679 -2.5397236 1.375888 3.4512408 -1.280952 0.312162 -1.5203354 -1.3341742 0.76987034 0.2839056 -0.3505329 1.8271003 1.6132715 -2.5933502 0.96916884 2.2759666 0.113620214 1.1929233 1.3251096 2.4853942 2.0554793 -0.69687915 -3.5758338 1.5620441 -0.5634508 0.15141734 -0.086359896 -0.8314054 0.44329336 -0.49554473 -0.6538166 0.21358396 -1.2938244 0.039611474 -2.11548 0.5798848 -1.598576 -0.2715602 0.51278645 -3.1581144 -1.5829097 -1.0746961 0.1315967 0.5682328 -0.40437865 1.5534246 0.3723359 -0.7768538 0.4370929 1.7697597 1.168246 -0.79305637 -0.026044121 1.194985 -3.699788 -0.7384742 -0.12551968 -0.035191774 -0.5369667 0.7450409 0.61592144 0.75520307 0.34881914 -0.49202964 -1.9751021 0.83327657 -1.6213843 1.1226267 0.26710507 1.2438115 1.491973 -0.011037203 -0.78559965 0.14429434 -0.02373601 -0.88671374 -1.3295846 0.31713516 0.9386795 0.5530433 1.1590494 1.0557184 -1.344694 0.17166668 1.1791406 0.61136353 0.8126447 0.8681624 -1.013024 -1.7926531 -0.88719666 -2.61081
C10H11NO2+Na+ -4.720102 -3.3757944 0.029131312 4.001847 -0.2411242 -7.848635 13.586747 -3.2587595 -3.490993 9.20496 -3.5701323 -6.635801 0.984775 -7.5784297 -1.7350864 -4.3012514 -2.8115697 -2.1716423 7.2062373 -0.934162 2.9778066 10.374161 2.0833006 -8.095504 1.7724793 -3.829653 -0.77748436 -6.055199 -10.548928 -1.5998722 8.747865 -7.9507613 -5.6130834 -5.1461415 2.0661018 5.249013 -10.345214 3.5672371 10.177949 3.6332333 -2.8826368 -4.2099614 8.261384 -4.659164 4.9923143 -5.5406055 3.160103 4.442444 -1.2462647 2.722586 2.0842202 -0.84542227 -1.4186453 3.3109133 -3.9163442 3.6540587 -1.9156166 -5.560621 -4.8867226 8.298023 0.2900245 2.008712 4.5779877 4.9750376 2.1385856 -2.8001933 3.7884803 -4.4560513 3.793213 -3.2651498 0.6490544 5.2566524 3.9921882 1.4943724 8.139337 -0.639979 -2.2387762 0.54313207 -3.522038 -0.47797668 4.7500725 -8.197803 4.1075478 -5.621987 2.6544142 -0.95935 1.2917461 -4.691776 -4.41643 -3.5865662 -0.7994387 -4.677899 -5.636518 -6.3716445 -1.5474015 1.0039729 0.23301774 -3.1865206 1.4233599 0.5508973
C37H68O4+H+ -3.6473804 -0.08441301 -3.1998374 4.284638 1.2287481 0.2627163 7.425799 6.2501826 -4.268578 8.656431 -0.36221012 -2.7890363 0.5985492 -2.6594384 2.2227526 2.0351844 -4.563388 0.17756943 5.8558297 -1.4513402 -1.4236614 0.9751647 -1.499412 -6.996459 0.9078026 1.524929 -0.63718015 -2.0264444 -3.755155 -2.4681067 4.999775 0.21016328 -1.1853263 2.6442294 -2.3680272 -0.69788283 -6.5588794 1.8521662 5.3183894 1.0018296 -0.21468572 -1.50709 5.7249618 -4.622138 1.4326242 -3.9732397 2.343108 1.535378 3.8924782 -3.2689295 1.078162 2.0804617 0.06262412 -2.5507865 0.9990569 -0.97097147 -0.67903626 -4.5231147 -3.1072333 2.8950143 2.4566734 3.1180599 -0.48650184 1.3632674 -1.1733108 0.7441279 1.6820174 4.9324274 -2.7494204 -1.1659269 9.092121 6.9783 -0.73478866 -2.7697158 7.5259385 0.8928724 -7.0187516 -3.1269355 -6.416837 -1.7869767 4.8414683 -3.9526925 3.010414 -5.3904796 -0.33035567 -2.2602482 1.3709782 0.16402768 -3.632237 -0.04634639 1.7352723 -3.7862463 -3.9783971 -0.38218462 1.5796198 1.9442276 -2.5544527 -0.97579014 -0.8354393 -4.1048546
C7H6O4+Na+ -0.46559668 -8.474932 -9.993433 21.208553 -11.797759 -4.7714586 19.355326 13.344461 -7.499577 11.189745 -5.7405076 7.99248 -11.078881 0.48915964 -17.236189 -7.607882 -3.9452343 -5.280635 0.027249372 12.59013 -0.92934775 -1.9409058 -2.4538612 -0.32974732 6.584191 3.3939235 -5.531928 7.4432645 -0.05197113 -2.000114 8.82279 4.6811237 -11.552926 -7.1019115 -0.17791034 3.396356 -3.9054854 -6.879318 3.8939865 -1.7745886 -2.341425 -7.9908743 -0.93775517 -5.5359344 -2.989126 -3.2043102 5.4364734 -5.5740848 0.9836938 1.4381471 9.704029 3.4586737 -2.2414968 -0.35141844 2.1981552 12.777547 7.8254385 -0.5380462 -23.029448 -0.9944377 15.230501 3.0630093 5.567238 -1.4298853 2.463991 11.474882 10.356297 10.265005 -6.6124926 -2.1963959 -6.663099 8.122395 4.113547 5.322427 -1.2958908 -10.897142 -0.48244607 -8.112832 3.5916777 2.7962124 -12.6671095 -1.6486632 7.273813 -17.44483 -4.963518 -7.554214 -16.297258 -4.928719 -3.0500748 -13.687267 -4.2739363 -3.435432 -14.141193 1.6128256 5.4312205 1.4305565 3.5048218 4.7953424 -0.17302458 -3.2051306
C15H28O4+K+ -0.9901676 -0.34434345 1.487574 -0.3920276 -0.49532315 -1.8970032 1.7574679 -1.590367 0.018232951 0.27508488 0.07745669 -0.97544277 0.0524536 0.18185912 -0.18874879 -0.42791763 0.99842864 0.9270551 0.20183353 -0.3829274 0.55077666 2.242367 0.08843436 0.38442382 0.23278259 -0.5452853 0.14894994 -1.2622392 -0.9187262 -0.37896255 1.6279593 -0.64932466 0.09962252 -0.09562201 0.30575323 -0.20407975 -1.0965855 0.8650586 -0.21477064 -0.124208316 -0.83179325 0.011468217 -0.7159742 -0.599768 -0.4791323 0.866268 -1.1969001 0.12627426 0.056556948 -1.4293121 -0.96382624 0.55401546 0.9071267 -0.4817941 0.16102298 -2.0014145 1.4561439 -0.674671 -0.7016726 0.383774 0.7579944 0.7291138 0.9029709 0.62307286 0.17198598 -0.7473099 0.47928822 -2.0701249 0.6373218 0.0719268 -0.7546514 0.71341115 -0.36296004 0.38131246 0.40038773 -0.51094186 1.4671818 0.6117022 -0.27126458 0.1485134 1.272897 -1.4855274 -1.2068243 -0.13843152 -1.1825494 0.13330664 0.1446457 0.6470811 -0.7025668 -0.21326588 -0.32964033 -0.7542814 1.5566002 1.0683917 -0.75395626 0.5317266 0.83104146 -0.29305258 -0.4949285 -0.64196813
C35H66O4+H+ -2.7664914 -4.1471496 -9.328771 7.8929076 1.7830646 -8.182023 11.9632015 -1.2727928 -6.5655575 6.0717783 -0.92671436 -10.10532 4.814446 -7.2843633 0.502297 -0.9674042 -2.1660328 0.47383982 6.191422 -1.533545 7.0461454 7.085887 1.5832059 -5.352211 -0.48407716 -2.1088147 4.358725 -1.5018427 -6.323521 -1.4991373 13.1429205 -7.580235 -5.003768 -4.386869 3.488234 10.43941 -5.098864 -2.1585147 -0.89442873 1.460266 -0.51008886 -4.930979 9.048178 2.3406825 5.0672097 -2.0370836 4.969147 2.5663757 0.6995431 2.1221776 3.9287105 -1.0829809 2.5047455 1.7344974 -5.3013363 -2.2640536 -6.376664 -1.5017844 -4.0752907 4.5704017 0.9710157 -4.2405686 13.539351 6.205346 2.3637028 -9.959661 1.6724751 -3.837238 7.36827 1.4345121 12.136299 6.6209326 2.1341019 -2.427574 2.9740407 -0.4242454 -3.1670644 -2.099683 -4.470294 0.35820377 4.4300027 -6.8692837 6.5909567 -7.3489056 4.2291317 3.3078268 3.3055685 -6.9969234 -7.22741 -8.289458 0.15642601 -7.846876 -10.2830925 -2.4812298 2.138328 0.07694417 -0.04539266 4.7207294 5.491127 3.6374333
C7H6O4+H+ 7.727855 -25.631588 0.5746695 10.841437 -0.064066164 0.8309487 -8.850152 8.098746 -7.7650385 17.209782 -6.835506 13.194373 8.985758 -2.7516692 -9.693802 10.643409 -0.71769613 -11.129502 6.068782 -0.37064418 9.724625 20.26702 5.4039 -35.012833 -1.6698194 3.254014 13.468972 1.8815162 -15.942659 -9.959543 9.513209 -8.232831 -3.9858122 -6.9205084 -7.3095884 -4.8419404 0.86258817 -3.7697902 7.239684 -1.5305359 8.6925335 -2.166156 18.472345 5.1615624 4.7197304 0.104319185 2.8718548 10.166876 5.755163 -0.02098405 -0.098706976 -5.3832064 0.5193826 0.4277771 -2.6880186 8.9555435 8.841625 -5.9581666 -16.217953 6.373016 8.892452 -5.1278567 -1.665496 0.064596765 -4.9844556 4.339398 5.582069 -5.0687103 0.40013397 -6.094467 25.621866 -0.43366945 14.540738 -7.5575943 3.823072 -9.795941 -18.49434 2.3144057 -11.803035 -11.897979 2.906534 -0.37229234 19.422256 21.603062 14.845836 4.486801 -23.022625 3.8228621 -1.9366919 -4.140321 -8.6144285 -11.831273 -22.117737 11.792049 14.5754595 -19.571224 24.571012 6.103558 12.735295 -0.13772681
C18H24O3+Na+ -0.014753067 -0.20948389 -0.4988831 1.0517503 1.2451051 -0.45052332 -1.1109995 -0.92630714 -0.23185444 -1.1372052 -0.682836 -0.12588453 -0.32223326 0.86276674 -0.32510588 -0.46998745 -0.15600763 -0.64210737 -0.5601819 1.2407142 0.80523986 0.3804833 0.028593637 1.1047621 0.8115587 -0.53460115 1.327869 0.03901685 -0.4200757 0.15772596 0.009066289 -1.5390238 -0.83383715 -1.8900019 0.94339794 1.5582331 0.098112285 -0.57691807 -1.8293567 -1.2181871 0.59217083 -0.3622384 -0.70700747 0.75279164 0.6574539 -0.63833386 0.5399085 0.13428953 0.6140332 0.4804198 -1.2758691 -0.16940074 0.36952794 -0.22758138 -1.1930767 -0.27253366 -0.3571514 1.0500046 -0.72488177 -0.085073724 0.17338236 -0.84515744 0.5505259 0.40548813 0.08421733 -0.67112833 -1.1415888 -0.19900258 -0.24465479 -0.8255654 0.13799943 -0.6508499 1.0629681 -1.0984799 0.4073761 -1.4872832 -0.49156517 -0.019646885 0.8041987 0.40747175 -0.30430976 0.48879397 -0.30449983 1.6022508 0.35999697 0.5876027 0.35885188 -0.3969198 -0.9940797 -0.75109714 0.6712043 -0.24384937 -0.29276264 0.9217459 -1.3429463 -0.9600425 -0.35542575 0.224933 0.17713442 -0.490637
C13H8F2O3+Na+ -5.560733 -7.1337166 -0.840767 2.603894 4.177678 8.469103 -5.145927 6.790933 5.349484 16.254322 -0.028832775 9.906223 -2.5179825 -17.212107 -22.743156 -3.5233078 -2.5279531 -11.532462 8.3588915 3.9153464 7.759154 13.8201 1.85385 -17.602636 -1.3194364 -0.92937994 11.475769 -7.355556 5.45959 -0.5686041 12.150104 -10.34768 7.1926217 -7.207236 -1.651217 -16.944162 9.579147 1.079865 -1.4445432 1.4091206 10.429195 -7.589665 23.293314 -0.5320458 2.908984 -5.1990895 11.804916 -3.8825455 -5.1373925 6.3503914 -5.3492785 -4.380317 4.45556 4.2545485 1.0295706 -1.1598122 -2.0849628 0.7795812 -7.8343334 5.591386 -0.6753422 -7.042157 3.9429414 -2.514781 -6.922772 0.72362965 0.8310572 3.530711 -2.3488035 7.6665525 11.899685 -5.8710446 13.580988 -17.226217 -11.705907 -0.03837829 -20.393414 0.66203785 -17.952766 -5.2214875 -5.6898994 0.4583457 17.978983 16.17838 -2.829521 -6.609565 6.854542 0.82806677 -2.6415374 -9.715449 -6.3034883 2.9173143 -6.7337146 6.697698 9.37879 -10.70357 21.562737 8.979433 9.559907 -0.5507738
C11H8O5+H+ 16.491005 -4.046995 -8.405191 13.035653 -1.1942241 -17.276157 16.933123 7.9795866 -23.29644 2.732638 15.4292965 -0.94409674 -0.71443087 0.49682456 -21.932592 -0.68741316 -13.847351 -1.3118964 1.2768009 11.893483 -5.5803094 4.907212 0.5603218 -2.7322812 -3.8440816 12.951402 -4.478197 -3.0390077 -3.8641522 1.0273187 0.7225362 3.4570227 3.4852014 1.491481 4.577397 -5.3320475 -1.0552055 2.1189623 6.2438803 5.0766315 -3.4048684 -2.9451342 7.6168447 -14.188332 12.125187 -8.27315 4.5981393 -6.596787 3.140563 -4.4239063 6.687179 4.705756 -7.275152 1.7570896 3.2970915 9.545989 8.035742 0.49658403 -20.259912 4.226379 16.868603 5.9822736 11.331744 -0.5932703 9.250291 -5.2407503 6.644854 5.3126 -3.9944594 -4.731924 -4.059685 14.152481 1.1236897 9.595663 6.1561494 -7.490526 -10.432964 -5.866866 -6.470879 2.6666453 -7.011454 5.5131598 -0.30732006 -13.860152 -0.12950237 -9.366649 -12.2209425 1.8170114 -1.1018959 -7.3241096 -3.5872118 -4.7055902 -4.256631 -3.8229432 8.192276 -2.3484325 -1.0254614 -2.4421248 -10.839346 13.1078415
C14H10O6+H+ -0.94504464 -11.784953 9.010988 0.2886647 -10.657518 -20.413782 14.422815 36.589157 -7.6146183 10.476989 -9.289198 8.757395 -13.108123 -4.3869777 -7.595428 -20.977135 -13.487053 -5.4801283 -9.702217 14.245478 4.007876 -12.506097 -5.2442455 3.5196593 8.477655 12.876274 7.4599934 16.361193 8.15234 0.9222413 10.051999 8.629078 -8.192523 -5.224124 -6.7815604 -3.539846 -14.687693 4.8166738 9.285741 8.853798 -2.0359125 -6.8286824 11.383727 -10.239244 2.7927492 -1.8186761 -11.778902 -6.39304 -5.793727 4.5709267 -2.5913382 -5.6707473 -1.5714573 -3.4358697 -4.6663246 8.3518095 -1.3713344 0.7616299 -16.959082 -5.568046 2.221939 4.5109673 -0.36386374 -8.377462 3.4406955 4.5989747 6.647684 7.2929125 1.0075344 5.9828467 13.124883 -2.140474 4.279795 -9.229384 -21.431694 -4.973277 -21.71478 -16.795786 -12.11871 23.996399 2.7348952 -15.520714 -0.34223616 -25.209726 5.8941913 -2.004161 -17.72368 -3.9992864 -4.6841364 -15.63279 -3.809928 -12.607001 -18.623575 13.11846 -22.373728 13.104467 -3.6186779 -5.111966 13.29273 -22.242605
C24H32O5+Na+ -9.381325 -2.8611448 1.6659639 -0.47284165 -2.2897723 -10.216654 14.912704 -2.362446 0.7358684 15.711664 -2.2951014 -6.632499 7.55376 -2.3842044 -5.686413 -5.162889 2.8362234 -2.336693 3.2359283 -0.34694287 3.707374 7.1681685 1.0986481 -4.05466 5.3407927 -2.197836 1.025997 -3.823256 -6.5786195 -0.99485385 3.2018366 -1.5561607 -2.7175229 -0.46622017 -4.124397 3.5413952 -4.4769506 1.4433142 10.71155 0.5262262 -5.518883 -4.1978335 4.843856 -2.6161005 4.5547824 -1.7570302 3.4666314 4.4977612 -2.291921 1.4130946 0.35441136 0.7491091 -0.92265296 3.642886 -3.8060997 5.186313 1.7550942 -1.439382 -3.7417312 5.6470265 0.27637318 0.44185695 0.9824085 5.912517 3.1556854 -7.289909 1.347865 -3.90293 6.7418284 -10.727737 -6.231765 9.164799 1.5924022 -3.164712 0.09204952 -2.0906184 6.6124945 -0.53851086 -3.3590055 2.3646846 5.321531 0.2911866 1.7955394 -4.943693 2.167468 -0.21142393 -1.5183816 -4.2172947 -5.1716175 -4.608324 -0.25610098 -5.2971096 -3.26421 -1.1847591 -9.02121 -1.9758124 1.1409788 -0.18819796 2.2963338 2.535615
C15H10O6+H+ -2.7775784 -18.287643 -2.7486591 5.4765553 -9.080881 -6.4916077 19.200087 15.417676 -14.583498 17.860598 -21.803095 7.47693 5.503088 9.392893 0.076876976 -6.126419 -11.168805 -12.722362 -13.659458 1.302115 1.9637517 1.3547446 -1.1180509 -10.747993 17.098677 -0.27454457 16.856493 -2.7683024 -3.4777613 -8.553015 9.753589 -0.50312334 -4.2638655 -18.310005 -1.5628717 18.524982 -7.2238383 -17.324303 -3.859608 -4.270091 -1.9936502 -4.90603 15.580154 0.6452509 2.9607067 -2.6790743 -4.6927443 14.518318 -3.2849684 -6.0053587 10.156436 10.286827 -4.7048163 6.0363693 -16.801775 13.710073 -8.540963 0.49818096 -13.022549 -9.460867 4.172751 -5.93503 1.549997 7.6615014 -2.6998773 9.179632 5.472089 0.10956527 3.220568 0.7238691 10.582801 -2.346754 6.450765 -3.3155954 -10.674068 -11.346119 -5.194983 -5.982904 -15.566979 1.5875784 4.546617 5.052495 -11.056204 -10.164996 4.4594917 14.848506 -25.280603 -8.754578 -24.868414 -4.901466 -5.186524 -21.132736 -25.110126 14.245667 4.4189396 -11.452369 17.428495 -1.035952 7.7681165 -1.7156703
C37H66O4+H+ -7.2008314 0.401891 6.623281 1.1923473 5.07377 -7.042944 17.866873 -2.8071284 -6.029208 13.338773 -2.0338614 1.8494804 -3.945964 -4.100661 -4.9371877 -7.867615 1.3445002 -3.4002576 3.0292163 -2.9527733 -1.0275455 9.68915 3.393843 -4.08578 3.957799 1.1648449 4.5093837 -4.1919203 -6.438219 0.2516989 10.60852 -5.7413287 -6.716669 -4.5537915 1.7289516 3.172151 -8.554647 2.636862 9.580594 0.020678535 -0.7191923 -6.048803 2.2962406 -6.8799453 -2.0168643 -2.9057224 0.08617702 4.7037845 -2.035652 -0.89269686 -1.7029032 -3.4538186 -2.0287354 3.8101547 0.07172097 1.0085726 3.756066 -1.6915059 -2.6176207 2.9236684 1.8042637 3.3184364 1.054142 3.6098607 9.897726 -5.107008 -2.9069266 -4.5442123 -0.22740096 -13.4063225 -14.345986 -0.852747 2.8126855 1.8304393 5.651407 -4.5257454 -10.340001 -4.6897755 -8.016616 1.211355 -2.5250916 -3.3959644 0.7451796 -0.94481176 -2.5477228 -2.5761988 -5.086416 -2.8490486 -1.4571986 5.228356 -2.5751445 -4.6527457 -5.693204 -0.13362463 -3.1141818 2.2832856 4.459948 -2.841779 -3.8590684 -4.281366
C10H14N5O7P+H+ 1.9399549 -15.2721195 -3.4180949 24.133747 3.5235877 -8.289105 -0.98115087 0.900998 -21.922277 8.383535 11.473811 -1.889383 15.979775 5.914429 -9.569861 9.052007 -0.9108919 -9.973707 -5.0536413 3.684132 -0.069920145 13.354663 0.15182766 -15.06483 4.7341356 10.075281 8.749362 -4.454335 -9.909794 -10.250868 4.9509535 -2.5930378 -12.626399 -4.260566 -8.490866 -5.4698715 2.3153565 -7.6822495 3.619632 -6.5700235 -0.04350895 -7.6640368 10.767036 -16.153341 0.3352135 7.734671 2.5439801 2.917205 5.1472564 -1.6841487 9.3141365 7.454339 -5.6864614 1.8518895 -0.41351008 13.466898 5.870132 2.272042 -23.03726 5.934175 16.632692 3.3284838 3.1256156 -1.7440968 2.421957 2.5200727 1.1553687 3.7607036 -8.057443 -11.2771225 11.437186 3.6829052 6.7380304 -0.822904 -0.6279629 -7.01397 -6.987771 -9.768081 -22.316818 -3.2531655 -4.0654073 2.7354805 4.295682 19.60987 14.791721 5.1880507 -18.583923 2.9597802 0.930051 1.2454537 -14.487849 -14.251862 -16.036697 12.878176 7.3758683 -16.776632 19.317795 -3.9027836 5.936639 2.1641533
C10H15N5O10P2+H+ -3.9055707 -4.5519757 -1.0010009 9.199748 4.40386 -0.63064826 9.657554 10.050269 -15.919731 10.797327 -5.068413 0.92563426 4.102887 -3.608889 -4.358652 -3.6521332 -6.3868194 -7.288966 -3.062074 -1.0416604 1.7168677 7.3384266 2.32937 -8.211978 -2.8424964 8.53657 11.564998 -1.0749631 -5.302971 -1.8201876 9.197166 5.2997265 3.1382809 -1.7968076 5.277746 -0.7503284 -10.641109 -4.7293158 -6.1358094 4.9302835 2.8699224 -15.782831 7.47083 -5.708379 12.500651 -11.770417 -2.0582254 0.15704317 0.9144636 -12.705657 13.155722 2.3261364 -7.552695 4.5214877 -3.8432736 4.9805927 3.5157287 -0.12772635 -15.9605465 -3.0689898 8.823918 -2.7017245 9.2287245 -9.139101 -0.6608971 -2.6781008 -2.0469553 13.4746065 8.33533 -4.7331614 -10.057952 5.819234 8.548292 2.1088705 -15.832566 -5.1845055 5.3175917 -7.6402392 -8.774637 6.4318137 -5.6191907 -4.667712 -2.5699418 7.2176723 2.6417093 7.3817472 0.110789075 -2.0696273 -4.075749 3.723558 -6.812227 -4.055572 -11.384731 10.766829 7.098812 3.9989214 16.648827 4.1078005 1.6625981 3.744274
C15H16O9S+K+ 0.5830091 -0.71177334 -0.54627055 0.81182057 0.16898014 -0.20637575 1.5378498 -0.0020377156 -0.5786976 1.4544488 -0.053779084 -0.8380279 0.7894299 -1.3509572 -0.77482 -0.05591139 -0.15320465 0.16907279 1.8456798 -0.38831595 1.2723346 0.5481292 0.7801916 -1.9360219 -0.6735715 -1.0836387 -0.17848894 0.10399051 -0.9050437 -0.5053463 0.1786637 0.15649068 -1.2939061 0.114215285 -0.85463464 1.1242555 -0.93924195 -0.34502602 2.0482864 0.8011319 -0.67348564 -0.44786423 1.0165551 -0.04901818 -0.33706814 0.47640163 0.39688766 2.1630821 -1.3463522 0.09174148 0.15654436 -0.06694914 -0.63923115 1.1519336 0.73934066 0.628264 -1.0428402 -0.47060934 0.7764128 -0.6674819 -1.2726014 0.37815115 0.7438985 -1.362348 -0.045428876 0.34076086 0.29391488 0.25680733 0.33561665 0.53213775 -0.38808128 0.7988803 0.77503806 0.88954395 0.4424782 1.1935896 0.37272227 1.1106384 -0.12216724 -0.5099755 -0.21447359 -0.73776376 0.6194657 -0.5845935 -0.06990444 -0.4070001 -1.1813272 0.062535085 0.45521036 1.0716845 -0.103262216 0.018344445 0.3038358 -1.017587 1.2297485 0.202867 -0.50095874 -1.4356128 -0.57726055 0.21037757
C12H20N2O3+H+ -2.82092 -2.0450826 -0.69672245 6.0792136 2.7534933 -8.469082 19.844666 -6.8119855 -5.170079 14.709021 -6.292291 -7.88832 9.809131 -7.6476064 -6.418501 -3.2319632 2.051775 -2.0517113 5.2778516 -4.9285417 3.3834598 11.409366 1.0869287 -7.609676 2.7361064 -3.9136362 -0.44108117 -8.2259035 -13.277287 1.5366644 14.177192 -9.691555 -7.7355914 -6.1200776 0.89353895 8.951026 -9.804177 3.6360428 9.505648 3.0524235 0.43731743 -4.160866 11.16548 -2.6741512 2.525052 -2.7682009 4.30538 6.8646393 -2.370551 0.0964811 1.8928823 -1.5746533 -1.198217 2.5708733 -3.6637437 0.010381037 -0.9616476 -0.26854026 -4.8656044 1.09796 1.0674372 -2.9671154 5.048409 0.905784 1.8899966 -8.590961 0.656804 -7.7447677 5.5931106 -5.272421 -2.5886126 -2.8237195 2.3424041 6.1034164 -0.4183688 3.7348628 2.9400933 -2.3045945 -4.581499 3.9418325 1.8245053 -2.3381357 3.2238014 -2.1341171 4.0253735 2.8320897 -5.860731 -5.908748 -3.819952 1.3013818 -1.396485 -4.8241477 -8.307273 -4.517579 -3.9609916 -0.17551625 -4.442741 5.9909477 3.128248 1.5293893
C9H14N4O3+K+ 5.840676 0.90773714 3.0972996 -5.3719974 0.62807745 5.8963394 -7.594604 0.024633948 2.4115486 -6.8613677 2.8429844 5.3918767 -1.9695238 2.1675231 -3.0466447 2.9325192 -3.30377 2.3514273 -1.9496268 1.0471324 -0.49874714 -3.4438574 3.0477626 4.1680217 -0.11187302 4.6372533 -0.9817938 2.3721144 8.785901 -0.12581545 -3.785032 5.292166 2.919863 5.3700676 -0.921221 -3.1318357 2.3877542 -2.1812265 -5.9537024 -0.8399763 0.3083589 4.403098 -5.66394 3.376718 -1.3141794 1.0621836 -3.9535704 -3.902486 0.37007904 -2.7447538 -1.6217456 0.6850757 2.1453202 -3.2512372 2.1888218 -5.777172 3.3699658 1.1158 3.214396 -2.11936 1.651924 1.4826872 -3.05493 -1.4642031 -2.7370477 3.7614374 0.6077385 -0.39549989 -3.278166 2.6499355 1.4738789 -1.3294291 -6.5651574 -0.17707607 -3.327896 1.3975286 1.6867713 2.3509955 2.7142184 1.282487 -2.4790378 0.054479267 -7.7052855 -0.26893887 -2.6568804 -0.44263178 0.2592917 2.9794908 0.25074986 1.5734693 -1.8116665 2.9909747 2.3115761 5.3932776 1.9250784 2.7791467 0.3676889 -2.803688 1.3211987 -1.6954684
C26H52NO7P+H+ -9.597081 -3.060531 -0.5760171 0.9658128 7.625961 -5.1410937 14.829094 3.0850544 -2.8991694 19.39216 -2.7666214 -1.3364669 -2.0016136 -7.7068963 -5.4156847 -7.174576 3.8828332 -7.317877 1.7985053 -0.3007646 -1.4613581 10.0509205 5.5050387 -2.2792568 4.325379 -2.0139992 -0.40141115 -5.8957725 -10.016046 -5.0484505 14.879174 0.10630716 -7.6451244 -3.916469 4.557303 4.271468 -13.529775 -0.96601135 8.500226 0.51630557 -1.1843963 -8.256153 4.9930015 -5.822986 -0.24405393 -5.5323863 1.858096 0.96959454 1.2211927 -1.821627 -1.4617339 -2.8307061 0.93806213 0.20275481 -1.0497537 -3.6079414 5.9873557 -4.6090965 -4.179303 9.261436 4.9160333 4.5274158 -1.0444366 6.8419733 8.536153 0.13037999 -0.0952587 -3.4546933 3.7282724 -8.357632 -5.161208 2.0380325 1.636853 -0.8723107 7.0283046 -1.0494528 -11.328504 -2.2134647 -11.151585 0.08139684 1.1643833 -2.4953618 0.76174307 -3.461746 -4.033973 -4.437941 -1.3357689 1.2164717 -6.747147 2.9661007 -1.9806211 -9.634145 -7.128482 -5.187829 -3.4336042 2.9962714 8.983867 -6.326079 -2.9643683 -8.871607
C24H50NO7P+K+ 1.5898975 0.58393896 1.540146 -1.7756101 -0.70439017 1.8109548 -1.1168473 -0.4853157 0.4466376 0.6918756 0.3300556 0.49846926 1.5376084 -0.88148284 -0.3262667 0.4700456 -0.07429704 0.31810695 1.2761893 0.7518 -0.50244695 -0.9917064 0.18725148 -0.5251602 0.5764719 0.8635375 -0.07436138 -0.10590327 1.1755223 0.19241276 1.2545222 1.4235822 -1.5557591 1.7365668 -0.9130773 -0.28852767 -0.3020151 -0.25171304 -0.012947282 0.032725755 1.0307642 0.25987515 0.91034794 0.93489295 0.42616677 0.11170271 0.7768131 1.9329323 -0.24606448 -1.397483 -0.6613577 -0.29350203 -0.48670733 -1.10376 1.4571204 -0.20369002 -0.84708863 -0.64053684 -0.7512221 0.36423066 -1.340854 -0.39612105 -0.19890341 -0.77732664 0.13662967 -0.06739382 -0.031220997 0.96352416 -0.25630832 0.013437832 0.5259542 0.8974425 0.19147362 -0.079231575 1.9449126 2.0388274 0.5621896 -1.1922784 0.99147546 0.07986463 1.7213821 -1.6625096 1.1687305 -1.581704 -0.09980795 -0.7468618 2.2064512 0.018586136 0.007884518 1.2713038 0.48603398 0.13353308 -0.774546 0.51365507 -0.17964652 0.3880303 -0.20374127 0.5726799 -0.8288813 -0.43707854
C10H16N5O13P3+H+ -13.480589 -6.358973 -5.4093995 14.63439 -5.6628957 2.8374593 9.4367485 -1.6863263 -10.406005 15.288786 -6.1332874 -2.6810105 7.230388 3.0414724 -5.1914964 -3.192991 -0.38687113 -2.7393427 -2.1131864 0.7662451 -8.8874655 10.836187 -2.052845 -4.057516 2.0011535 1.2078459 12.817612 -6.300249 -9.339034 -12.316436 6.6392984 11.321617 -4.1988354 -5.92773 1.189193 12.253491 4.404434 -13.873852 4.5847096 -6.4198227 -0.28255445 -9.756715 16.562706 -6.181274 -0.34111917 -6.8114767 -0.5410513 13.907222 4.783013 -14.942819 16.608639 10.044681 -2.47577 5.329306 -9.806724 16.29741 0.5743168 2.5626304 -12.39022 -9.258548 11.978122 -4.460818 7.1807923 14.270093 -4.2307534 4.607074 4.951755 1.8655477 8.064147 -7.652093 -7.4307337 -5.944771 7.2447624 5.7338414 -7.5606437 -12.738202 1.4799577 8.500986 -2.106757 -0.1029961 -10.018427 0.8173648 6.1116056 5.8514643 0.15674578 7.452559 -15.559768 -3.0763862 -8.726905 2.3634744 -11.707408 -9.437422 -20.980522 8.25221 10.905694 -9.436503 21.296642 8.339116 0.20776878 -0.17867653
C9H14N4O3+H+ 2.4216092 0.9788088 0.3311461 23.819584 5.9886923 -28.507698 2.72177 4.5516195 -16.988884 20.622063 7.103512 4.7271514 21.012802 12.308007 11.249237 -5.1725545 -20.439594 -17.646976 1.3776599 9.02641 -25.50854 10.393662 4.539813 -4.820166 17.205732 16.316547 22.688667 -10.101677 -13.325298 -12.794013 30.615545 15.151243 -26.111845 -3.2437487 -2.1514778 1.49692 -28.391815 -12.805753 -2.4181757 3.833465 0.07960823 -31.883402 15.210164 -19.331799 15.318436 -20.013607 -12.061966 -15.834879 17.15326 -17.384283 16.438974 5.479814 -6.31517 -19.978237 -7.1221547 19.687302 0.9870908 0.63650453 -20.266592 -9.17003 13.640699 -3.4926126 18.580542 -3.7525399 8.026513 -8.748749 3.4959347 10.829654 4.279598 -0.38406825 -16.559168 12.820367 11.53069 9.21217 -19.810741 -2.4858868 -16.655073 -44.773094 -6.9231267 10.783787 -3.7043421 -13.440195 1.2216258 13.613243 25.126743 5.948557 -12.909441 1.7670412 -6.4134965 11.963903 -18.54974 -26.426777 -38.267036 19.75599 -11.169621 -20.320324 25.842001 -4.942252 18.132307 -20.154724
C23H45NO4+H+ -1.1263887 -2.7688763 -1.8805888 2.0937307 2.381125 -4.6401477 1.2843156 0.5659921 -0.26172045 1.3088104 0.5371738 1.7931508 -0.28602833 0.9439849 0.13451792 -1.7338673 -0.99452424 -1.4119834 0.1628736 -1.1139269 2.9546196 0.04390379 -0.24141979 -0.56853974 0.19429848 -0.9405849 0.48832726 -0.14679024 -1.5472372 0.996967 -2.1255498 -1.4757054 -0.38415182 -2.7674632 -0.7160767 2.1987052 0.53762114 -0.4899159 1.9541049 0.98339456 -0.66017133 -1.6026881 1.2864226 -1.3625966 -1.2233138 -1.2859988 1.518661 0.809368 -0.45343736 2.7964232 0.6381498 -0.6604496 -0.86580807 2.1380534 -1.7728897 1.752433 -0.32681173 1.038793 -0.27800617 -0.4627795 -0.44888735 -0.8381008 1.0465416 1.6173284 1.4967413 -1.5124824 0.6381319 0.7218347 0.0156035945 -1.6275007 -0.7513533 0.50992733 1.3603433 0.47266895 -0.15005486 -2.167809 -1.5837545 -0.5176298 -1.0130321 0.32255924 -1.7198069 1.4900343 1.621568 2.2673361 1.8936521 0.83032733 -2.7146213 -1.0078604 -0.8481359 -0.7561886 0.43387732 -0.6913652 -2.7586 0.2976419 -0.6388956 -0.5272945 -2.37518 -0.16926354 0.94868815 0.6728337
C11H21NO5+H+ -2.6678445 0.25396758 -0.5519453 0.5157618 -0.08977956 -1.8770703 -1.3471782 -0.16244012 1.5929201 0.97017735 -1.2131374 0.33117494 -1.2146758 0.24599469 2.9222662 -2.8091114 -0.66754216 -2.3171186 -0.29449454 0.7816567 0.6359539 0.4203112 -1.7488136 1.5074872 1.3354623 -2.0607204 0.8666833 -1.0703037 -0.19546768 1.0531783 -0.19178064 -1.7981082 -2.1374426 -2.8848836 -0.01221487 0.90809155 0.54919016 0.056660693 0.08525685 1.2205925 0.30623925 -1.3210801 0.59191084 -0.7145895 -0.1520908 -1.434836 2.0153487 -0.62470186 0.3194318 1.3269334 -0.6363021 -0.3539489 -0.31321344 0.5165505 -2.1400979 0.060868945 -0.8600776 0.2715015 -1.7439827 0.05751624 -0.6288237 -0.22986743 0.9545564 0.39934203 0.91971695 0.08035675 0.1774463 1.7830747 -1.8241042 -0.6401384 -0.6492597 -0.68592256 2.9177713 -0.21343602 0.76740813 -0.069369026 -0.5471363 -0.8291127 1.7175685 -0.556038 0.2378765 -0.12278839 2.2568338 2.609821 1.4709094 -0.755086 -0.48336264 0.28690758 0.63824177 -1.2774148 1.5673896 -1.2052617 -0.87404513 -0.82422715 0.020059697 -0.27353472 -1.842593 1.3479849 -0.23748633 0.2516231
C9H15N3O2+H+ -9.824102 -21.876644 -2.713146 17.181652 -12.531495 -1.158999 21.690575 10.440579 -34.01279 12.984785 2.750795 3.1134412 -3.893953 -7.9851985 -35.493015 12.72828 -7.1149745 -3.432263 -14.016398 11.185154 0.5260549 7.4421773 7.302566 -15.667826 3.310761 -3.0188694 3.0672693 -11.731106 -5.074299 -11.64175 -5.1483197 1.0358815 12.572022 -11.02884 -3.9742196 -6.8905187 16.193878 -16.217613 -1.6719656 -9.999936 -1.646904 -6.2561574 23.1743 -8.270487 11.185749 6.768984 0.59712976 7.7422915 -7.586403 -4.7501297 4.791959 9.143297 -4.8552704 16.868172 4.887524 1.9445903 7.133536 5.3818946 -20.146019 2.584425 7.3625336 -5.298608 1.7822638 0.37037915 -4.4523277 -5.5373883 18.992678 -9.775558 4.070796 0.9494458 24.690628 4.3112087 2.6422682 -12.0336 7.395584 -10.841335 -5.4174023 14.358066 -16.264156 -14.142569 1.8880706 -2.9251502 6.6614976 -12.087131 0.8344019 -7.4699965 -18.022112 1.6624972 -12.545475 -9.474835 -8.227778 -10.331168 -0.36307496 -0.9388972 18.49786 -1.9759064 10.368769 12.951478 -10.256759 7.467217
C6H12O6+K+ -9.161861 -0.19860543 -0.26151627 2.031927 3.6538975 -12.602873 11.222895 -3.0640786 -2.0714467 5.3635383 -1.5776185 -2.5321405 -2.210895 -0.94250214 1.7179071 -5.088921 -1.9574962 -0.3425343 5.6666155 -4.255259 5.4692216 6.4614124 -0.71208155 -6.7886524 3.589362 -2.6512299 -2.129344 -6.1327066 -4.1124964 1.9441283 4.1226606 -5.0989294 -1.401699 -4.687108 -5.363552 7.96855 -5.5752497 1.1519306 9.751485 -1.0073477 -3.0057669 -5.193396 8.6777935 -7.375894 0.98445153 -1.9419091 5.432552 5.6749496 -0.5949787 -0.06460343 -2.3003192 -0.49155185 0.45820665 1.7203377 -4.210531 2.665787 -2.1793118 -1.8906362 -5.701477 2.124713 -0.033237882 -0.372809 7.624878 4.5916286 -1.0047483 -9.649877 2.5521462 -2.2866955 -1.0059808 -8.48342 0.070733786 3.7471871 -1.126934 -5.424101 5.8032084 -4.9086995 -0.8298468 -1.6382992 -5.885955 0.1096404 1.8524165 -3.6458218 2.5801544 -5.717931 4.1707873 -0.86345136 -2.1858978 -4.507316 -2.5572731 -3.0621421 3.0830872 -2.7612069 -9.368628 1.2530677 -7.1225405 4.2867303 -3.9443085 3.6810312 -0.58469135 0.37516963
C28H33O14+Na+ -6.469125 -2.5932405 0.30881864 5.2990594 0.8615688 -5.27003 4.1007576 -1.9602365 -2.3157432 -0.9107747 -4.610616 -3.660205 -5.3062825 4.5990915 3.4524763 -3.0603287 -0.40295237 -1.3022286 4.1948023 -0.8547559 7.175869 1.6737074 -4.3290977 -4.2776175 3.5195022 -3.960594 3.4673417 -4.047847 -1.1985992 1.67481 0.9711272 -3.8266034 -3.2652786 -3.4214323 -0.69735825 6.906135 -4.349406 0.17731549 4.6527853 -2.8154376 -0.9730659 -4.9709716 4.6719484 -1.5132987 2.8801992 -3.2709024 6.8125954 4.20638 -0.6684849 0.40236798 -3.7281542 0.29361638 -1.1249541 1.0419643 -4.834389 4.934785 -2.4134388 -0.7283222 -3.8448048 2.627035 0.5969153 0.79026085 3.6314385 0.78725237 0.051294986 -5.793343 -2.0306687 0.41757938 0.08471405 -3.974519 0.9412074 5.255649 1.2300922 -0.50574756 4.864821 -4.3623986 -1.3370391 -0.1587254 2.5454276 -2.7965736 -0.5147265 -5.3823705 2.4360714 -3.6113288 3.2010062 -0.25692606 1.805038 -3.1826236 0.78205216 -3.4882452 -0.2943343 -1.1409433 -4.9760265 2.0320904 -4.5451074 1.5984182 -1.257913 2.8196142 -2.377152 -0.09893135
C21H22O5+H+ -10.911138 0.26407897 2.5895624 6.8223944 14.243958 -7.4944506 29.023314 -6.001378 -2.2391908 22.02611 -3.1342494 -0.9525458 3.459018 -21.253641 1.6708956 -13.783372 -14.213528 -7.0532737 2.3848138 3.6335819 -3.1431062 12.385267 3.8944345 -6.628392 1.3798363 1.2697581 8.507268 1.7612139 -0.8103119 5.0788875 21.498941 -16.475891 -9.98938 -6.872009 -5.4224215 10.265999 -13.642711 4.6424956 14.234189 11.050561 -7.063415 -6.1894884 -0.17558591 -7.268722 1.1073184 1.2527384 -4.801368 7.287704 2.6454916 1.9529426 -0.41903618 -2.563475 3.30217 1.1415261 -0.82896835 -2.6202955 2.0997097 -2.6329062 -9.218836 1.1966755 5.6021414 -6.460552 20.157843 11.366278 7.331743 -8.981702 -9.73183 -4.645463 -5.1531157 -17.099537 -11.905501 3.3119333 -1.0927149 -3.047966 4.3499 -13.073627 -9.38295 -10.237319 -5.9527507 3.9405513 -1.5575877 11.216269 6.7865524 -1.8943973 -2.2467134 -3.0753088 -6.1964226 1.8155775 -10.762457 -5.8768935 9.4037285 -18.531868 -21.437796 -2.7516503 -7.038142 5.9775257 3.2605038 -2.468512 -4.8885393 -3.3132403
C25H49NO4+H+ -2.1179047 -0.004492595 0.6842089 1.6375929 2.7582333 -0.27649003 4.487786 -2.7422595 -2.495338 1.2683333 -2.0651717 -1.6138356 -0.44250306 -0.38060158 -3.0484457 0.38115278 0.57611454 1.091671 2.1604655 -0.36301923 0.87749064 1.424851 -0.15673515 -1.6188351 0.1825733 -0.41924265 0.73323435 -1.4058654 -0.69514275 -0.015491122 0.8400538 -1.3354882 0.97318476 -0.7361456 -0.38132742 2.0652092 -1.0399852 1.2169731 1.5911398 -2.5949435 0.54559934 -0.29389623 2.211174 -0.39695504 2.014422 -0.47316262 0.5330589 1.3752207 0.18714881 -0.34037673 -0.45468467 0.14539236 0.9602133 0.8698191 -0.3241629 -0.48692626 0.24828136 -0.3694581 -1.5711432 2.006322 0.4047309 0.15426101 1.3388141 1.8793058 0.6164279 -3.4155588 -1.2610067 -3.2504694 0.1843147 -2.0888984 0.113365345 1.6016393 -0.38376793 -0.4260764 3.6734247 -2.4130998 -0.15073965 2.4524736 -1.8215567 -0.1202393 1.5860692 -2.978574 0.9284977 -2.9688447 0.21540803 -0.41259357 1.638515 -1.2025907 -1.1025057 -0.05122557 -1.5263873 -0.33893722 -2.772246 -1.8112389 -2.2235608 -0.021074396 1.472652 1.0529351 0.68168336 0.7153148
C26H30O12+Na+ -0.8957196 -3.0378075 -1.6347797 3.0612438 2.8070111 -3.77426 -1.6261945 -1.5447588 4.5675907 -6.401345 -2.7237499 1.2025054 -1.7673287 3.2563872 0.089081466 1.672586 3.069376 -0.99005973 0.6613746 0.35869378 2.0750682 -2.4106672 0.86079204 2.2647564 0.53149015 -3.3220906 2.9586158 -1.0105559 -1.4050678 0.6230362 -2.7524946 -2.43832 -0.83117336 -5.869316 2.8419492 -0.65119964 -1.3570744 1.8838352 1.5487748 -1.6904739 1.4439908 -0.3127905 0.48357642 -2.081244 -1.0375702 -2.3358946 4.5616646 0.11084008 0.8920596 -0.7920205 -1.3587078 0.7533212 1.483545 2.3034048 -1.3215082 -2.2018876 -1.2341044 -0.039205823 -2.7077296 1.2092569 -0.8313201 -2.1552024 -1.0099754 1.933188 -0.5926664 -0.8543606 -3.0307918 0.89652044 1.8751696 -1.6199876 0.6802515 -4.659682 -0.119113155 2.8769994 2.6864948 4.8084373 1.7167358 1.1405573 3.734214 -0.5027221 1.5756856 0.17821757 3.9232204 1.4295001 -1.9838109 -2.2021346 3.2305882 0.38717547 3.4749079 1.4551075 -0.22936976 1.6406162 0.026835002 -3.5285468 -3.4844687 -2.234069 -2.2784667 5.6969233 -1.8020275 -1.9907293
C25H47NO4+H+ 0.8448344 3.1559894 0.19346464 -2.2099538 -1.8375278 3.6528726 -1.9508336 -1.0807923 3.0797346 1.1858859 0.918471 -0.096139915 1.5608374 -4.204243 1.4413272 -0.009597569 -3.5702944 -2.9984727 0.65284264 2.1405349 -2.039945 -0.3371377 2.6954672 0.5881574 0.38694394 1.1806966 -2.8380854 3.361132 2.623117 0.61306685 3.491211 1.4218264 -3.2572365 0.8405419 -3.2853496 2.0093374 -1.6988311 -1.6286434 -1.22402 0.6972698 0.47612804 1.0992332 -1.6868868 2.0909214 3.266583 0.8956814 0.28499138 1.4306992 0.7186772 -0.75621754 -2.1885762 -0.7341465 0.47176075 -3.2208416 0.7711062 0.8381209 -1.9608021 0.6781868 0.3600125 -1.2412064 -0.668518 -0.34009865 0.61067814 -2.1990886 -1.6418326 1.8166159 -1.3808324 2.7395685 -1.2707306 0.5190393 1.7001224 -0.6048778 0.85968804 -6.187447 0.3334011 -1.0064182 -1.3838017 -2.1065507 1.1129081 1.1084253 -0.19050571 1.7595193 -2.0022497 -0.09416202 0.4992443 -0.7327873 -0.71638834 -0.30101666 0.49512115 2.2032833 2.0163007 0.46531594 -1.370135 1.584413 -0.049671642 1.3658856 0.39750102 -0.9535678 -1.3231368 -1.1186906
C12H22O11+Na+ 4.5665503 0.28675193 3.236414 -2.9529903 -4.703 3.0024319 -4.7132063 -0.7926636 3.2821276 -4.0138435 0.047232743 -0.52629006 2.2065766 0.7206678 1.0067177 0.9214243 -0.454795 0.11734788 -1.1911037 1.0725777 -2.3265848 -1.2706277 -0.3262202 1.6914868 -0.050985113 1.3800346 -1.0899671 2.732758 3.9381595 -0.25281653 -1.5389501 3.6023355 -1.4895627 3.152117 0.27735695 -3.1006014 0.5366457 0.87686074 -1.891582 1.0891216 0.17247292 3.3226352 -3.59635 0.93025506 -2.3724098 2.139181 -1.2808443 -0.9012691 0.63998044 -3.7084656 -1.1745263 1.6726797 0.101445206 -2.9980333 2.7019737 -2.493577 0.69214463 -0.59868956 0.28273076 -1.8089561 0.09984224 0.12178324 -2.3390858 -1.6299736 -1.5516452 2.4486187 -0.29920822 2.0755398 -0.8768468 3.4916763 0.20611788 0.5500523 -1.0439284 2.5022202 -1.8605521 6.785256 4.206983 -1.8421115 4.348273 -0.8770054 0.9312787 -1.3329477 -2.1075025 -0.011329576 -3.5226264 -1.9550786 0.68557626 2.3548064 2.8605194 1.9849243 -0.10209634 0.61452323 3.4336617 1.1233407 1.9176598 0.283939 -0.46125013 -0.6775411 -2.5740154 -2.2565212
C21H36O3+H+ 1.7394328 2.5742915 7.593459 -2.8794687 -6.148767 2.625965 -4.290773 -2.3111994 2.9706762 -12.282362 -1.1339778 6.835088 -7.8814697 5.660606 3.4346485 0.66696537 -2.8584847 3.3570414 1.7815379 -0.4813646 0.39133865 -3.9261978 -7.2509484 -1.0129585 0.72528183 -0.5514542 -6.596686 -1.6242014 5.4422245 1.8504763 -10.827977 4.8528357 2.991202 1.9886166 -0.7171979 -0.8213617 4.7065105 0.8548663 -0.14815457 -4.920182 1.0889682 3.945402 2.7316246 -0.38497213 -0.053634264 -0.989557 1.7280084 -0.15105234 -0.7618516 -0.04694041 -3.5083494 2.4502802 -3.0067444 -1.7344334 -0.33384964 7.3545494 -0.71381646 -0.49014193 -0.21745296 3.376762 -1.5329175 4.266241 -3.6961286 1.0003734 -2.7295892 2.66608 4.0878286 -1.572799 -5.2978306 2.7607918 -0.27752808 3.8239627 1.4254801 -1.4167826 5.652315 -2.8492396 6.040248 4.514325 4.4802976 -3.7716703 2.2657282 -5.8816514 -0.51964325 -0.7291579 1.6399411 -1.3155922 4.6066594 0.60107684 3.4322467 0.035802964 -2.8809066 7.1463017 5.1425376 1.4333335 -0.86106044 0.84279484 0.9327809 -2.5013916 -2.3703506 1.8477046
C13H13N3+H+ 0.8863502 -14.863696 -9.25681 6.749329 -8.011725 -4.3499756 10.93568 8.897444 -19.483747 1.4337115 3.683827 2.0916266 2.741078 2.8049023 -8.338752 -7.035656 -0.39223897 -0.5348412 0.85804343 4.2299833 9.872975 5.0435615 -7.492043 -13.935648 -5.482091 5.977608 -4.548275 7.633827 -16.019844 -2.7530034 0.23836163 -4.3263254 -0.7768805 3.9738173 2.8311636 -3.8715606 1.8588979 -2.268226 5.6129565 -4.3299985 3.169422 0.85360825 8.298793 -8.453413 7.586116 4.428856 1.9608113 7.8794756 1.6287669 -3.5710394 -0.30217594 8.210522 -6.090307 0.4818475 0.23234193 7.3390727 8.651755 -8.084294 -22.592278 -1.695229 14.515313 5.7032247 11.054918 0.45761088 1.0414242 8.830836 -0.8921732 0.91181237 -3.3813634 -13.063898 -0.030340163 3.0091722 1.6432804 0.5938236 7.1258054 -14.255007 -3.633516 5.933123 -12.461397 10.29223 -10.352748 11.064174 5.4454303 -2.2917814 -0.6464234 -6.2019935 -33.63418 6.590585 0.66024506 1.1322256 -6.0893373 -2.4254172 -7.7232046 2.989228 11.434833 -3.7103708 10.267173 -3.454556 10.612959 9.896692
C12H22O11+K+ -8.386469 -8.667995 0.27982223 -2.5466075 -7.3160973 -4.5896206 -8.434472 6.7136517 9.093751 8.357719 -0.34255242 -3.555391 -0.16791962 -5.334833 12.729392 -6.2949953 6.8200383 -4.064181 -5.1882305 1.101389 0.4861736 6.0570283 0.2042099 7.4239464 4.641974 -11.632365 3.7789924 -7.1772494 -8.929513 -2.8561158 9.332976 -7.8105597 -15.244691 -8.8818 -6.270267 3.5741189 -5.9574237 -0.40065446 0.8879736 10.684278 -3.8510275 -11.071589 -2.9476707 1.2969159 2.2800927 2.1685221 -3.5712154 -5.873171 -4.5196786 2.410583 0.33584028 -5.28016 -1.6919419 -0.16623335 -8.681864 -6.650521 4.7642717 0.36699954 2.0337265 -3.3128195 2.1988423 0.9665952 -1.7225021 -8.411477 0.08970855 4.432493 10.290858 -2.6670878 3.0701504 6.800264 1.5338496 5.17566 8.135015 -1.7447885 -6.548465 -1.559933 0.062487323 0.9301863 -5.539779 -1.6018429 2.3862617 -1.7750703 -1.3177305 7.265344 3.3309426 6.7075763 -4.757943 -0.8711486 -4.8779707 -6.138901 10.289082 -8.774644 10.996319 -0.07893364 0.6105964 1.5411586 -7.6941314 -7.891231 3.7538266 -0.77578664
C15H18O10+Na+ -1.2231328 9.26632 -0.49070355 0.57989293 4.6804733 7.247781 -0.06268101 -0.53560495 -11.923818 0.16418943 1.5713428 -1.5960581 -5.1392717 5.6128263 3.418997 2.4762967 -2.4293501 3.446515 3.2101192 -3.2079384 -1.314024 -3.7424128 -5.8982143 -6.505563 -5.03137 4.4297924 -2.0604455 -5.71868 0.6575698 3.7557545 -0.27305815 -0.7047801 12.685354 4.366806 6.3737545 -2.506462 1.8908052 0.35169998 -3.881685 -7.3100095 2.8352349 0.22694051 4.9834023 2.030155 4.3132553 -4.196662 2.3058221 4.198899 2.879261 3.2128613 1.6543002 0.88968784 0.9468411 -1.351082 -0.8534536 6.010164 -2.6286666 -4.636413 -0.84613186 6.1607766 -0.10750149 2.21377 10.400425 0.2998386 -0.9021103 -0.112228364 -0.9062675 -1.9319729 -1.7826064 -4.5765343 0.91041136 -4.346006 -1.4579768 -0.2582542 5.1468987 -5.2075033 -7.5100174 1.237245 1.5169026 -1.9798391 -3.921452 -1.0602676 -0.58235604 -1.1473322 4.75886 -0.5342166 5.110384 -2.6044352 1.4009722 -2.2647836 -2.1953404 5.680065 -4.39442 2.4919524 0.9434224 0.41685173 5.7136364 4.6918554 0.8290195 7.3176823
C35H64O4+H+ 1.6171174 -14.065855 10.773912 13.807607 -10.805182 -2.3201947 16.703335 17.42887 -13.711482 3.762418 -5.761895 0.056533895 -9.6210375 -3.7761025 -6.8437295 4.3383884 -1.2773231 1.882553 -11.575753 0.48399743 -4.2616806 -10.654737 4.7621145 3.0905137 0.7546875 13.92791 -2.422716 0.5041752 1.125556 -4.6086907 -2.993623 12.585621 -12.89772 -4.5982995 -4.43225 10.840319 -3.1699286 -2.070404 2.5170403 -2.680184 -0.3042116 3.3372636 3.3391657 -8.198381 8.769165 3.6347132 -6.019082 2.604972 -1.7455916 -4.06334 3.9347513 5.2775583 -5.284949 8.09189 0.37497106 6.9061213 9.063599 5.234427 -11.700624 -6.042685 9.036974 2.9715385 0.23485985 4.538688 2.9520445 6.5058618 -3.026231 -2.705701 -11.337137 -3.7574525 4.4946094 13.074267 -2.9736512 -5.7069077 -6.8759685 -7.1210513 -0.2175555 -1.2604038 -7.9204397 13.10528 -0.44212872 -8.311358 0.84206545 -18.913393 3.165747 -1.8750325 -16.479282 -1.4952371 -7.181865 -5.784741 -8.901203 -2.655055 -0.061672777 -9.430889 -5.6087813 3.9252687 -3.6930807 -3.1140516 -7.440465 5.690253
C15H22N2O4+H+ -10.020246 0.61934334 -15.9233055 13.45003 14.747411 -24.418495 31.14788 -3.052479 -16.516428 33.129696 -2.857502 -14.357964 3.6174362 -23.313951 -3.3519754 -9.645562 0.12494656 0.47585735 9.579542 -2.2018588 -1.2325125 25.593111 6.789378 -12.805612 -8.260967 -11.823067 -3.8489506 -9.503239 -31.749947 -2.4375327 22.021227 -26.899002 -14.350625 -17.287104 3.434521 20.301254 -14.115952 7.539065 23.941347 0.11745317 -7.5420694 -6.9729443 12.817244 -8.488854 3.4251416 1.4029014 0.5055189 10.790709 -4.587037 6.970379 3.6256413 -2.1508672 0.035135526 11.604681 -5.9204006 -0.8538087 1.0605829 -3.6707506 -11.052951 5.129692 0.14345692 -3.6370199 21.329271 9.224965 5.1390867 -20.882353 -2.038138 -17.20209 13.128858 -19.028826 -3.7322416 1.7546306 11.739351 -6.8854685 16.931986 -7.790963 -3.6725307 12.593879 -19.819487 -0.77421933 10.147528 -1.9911401 15.144433 -7.2553015 1.6261837 1.4280516 -4.147022 -11.699723 -2.7530239 -5.2837105 8.658397 -6.7204328 -5.2349124 -24.32748 -2.3139646 -3.312591 -1.402309 4.83693 7.546879 9.282071
C18H32O16+K+ 9.495232 5.3271117 2.405601 -0.21031815 0.057259854 4.146303 -2.5598986 1.7574104 5.5543113 -3.288571 3.9331744 2.940943 0.089435 4.4403305 -5.7000036 9.0389185 1.2532238 1.515692 -5.363381 -3.89574 -6.6349463 1.5968344 -0.525524 2.0218832 -0.9402505 -1.1093112 -3.1066785 0.15811272 -0.049359914 -2.4917407 -2.235087 4.110135 7.223382 9.832964 -1.5321093 -4.0476484 8.719919 -0.8216632 -1.5116657 -4.107776 1.687414 9.348932 -5.717786 2.9019036 -3.708565 5.2425575 -6.3257165 -3.095869 1.1580428 -1.3707899 0.5871306 2.7068453 -0.23761173 -1.3765101 3.1452491 0.15296075 -1.1699996 1.0285519 3.3938344 -5.4847965 -1.75901 2.05871 -10.385513 -4.031646 -0.53787774 6.4319177 1.2558817 2.1710472 -2.3010123 8.858223 -0.9073405 -4.555681 0.43585685 -0.53326297 1.369488 2.4020212 5.83476 0.19663532 3.8014548 -1.8784041 0.30747384 1.6251117 -2.4374607 4.27531 -4.1498303 0.3079139 -0.4917148 7.729979 7.3373284 4.0379777 -2.604275 6.9673347 13.676583 2.1306963 7.0529633 -1.0019739 1.106227 -1.1042824 -3.5751827 -2.4637487
C29H40N8O5+H+ 4.7781405 -11.784346 -8.948406 14.486813 -4.801014 -4.6136217 3.9077969 -9.242546 -9.71889 10.388557 0.8513209 3.7311406 5.6946335 4.8899193 -13.395183 1.9292084 -2.1243768 -10.403152 6.2691164 8.404432 -2.787876 15.072423 -4.6183286 -14.516659 -8.03711 6.82823 5.804001 7.2490964 -19.44163 -9.65302 10.354719 -0.0742807 -0.67155516 -5.0331306 -0.9228876 3.963348 -2.0264924 -1.5578382 2.085668 -4.966381 -4.3692665 -8.694872 -3.469414 -3.8660421 -0.5839917 0.27697527 6.8229365 5.3861012 6.980127 -3.5288968 4.407344 1.7553904 2.297031 -4.9760327 8.590668 9.459998 6.6525755 -8.508225 -13.957045 -0.52531326 13.99388 1.2733474 5.816346 4.3480134 4.486416 0.9647488 7.484472 -1.7007669 3.5210423 -3.2798543 -1.0912135 4.4298606 7.371669 8.302364 4.4507985 -11.839922 -1.649078 -11.006724 2.7453105 -6.992346 -4.2091684 5.4021125 11.331468 8.356069 8.565536 5.473685 -14.483918 -4.338185 -2.9953768 1.1039884 3.4753015 -5.080377 -25.00364 7.015433 6.076869 -9.82864 15.144432 3.186775 4.260783 -2.5845478
