64 50
C7H15NO3+H+ -1.2743306 4.242385 -3.124117 -0.7370516 -2.9955082 -5.4516597 -2.903731 -1.503263 0.85416365 -2.7430625 -6.096383 5.6076784 -1.4520893 12.692863 -13.398723 -3.2981925 -5.8378987 -1.3113626 -2.2877414 1.8097546 -3.331749 -2.2741358 7.582765 -4.9834437 6.271971 -5.7411146 -1.5624926 -6.6054688 5.4851875 -0.5601307 2.602546 -0.60870147 -11.338776 -9.467497 -4.5621743 -5.1002536 10.497547 -2.0856693 -6.005377 -10.046085 3.305468 -3.0403042 2.6036112 -0.7531388 -5.6775193 -3.8564036 4.021841 -1.4809195 -2.217858 -2.9511154
C15H22N6O5S+H+ 5.969153 10.376837 -8.047161 6.9775805 -6.5897675 -5.223279 3.6606724 5.5789065 -0.23392047 -6.549885 1.5587978 0.9668557 -1.3868954 0.8671033 -4.8701 7.3802285 3.9433293 -2.5317066 1.1975148 -3.8242037 -6.8921022 -10.197366 7.290735 0.99080265 8.175937 -5.651133 -2.1590638 -3.2311308 10.352573 7.601902 4.717982 5.359896 -10.833163 -3.2005246 -5.473088 -3.9399712 7.0718727 -11.192919 -4.1697326 -18.132902 7.1806064 -7.947454 7.893213 -4.064323 -0.79690075 -1.8309604 4.6258254 3.2714286 -7.026706 3.904296
C24H50NO7P+H+ 3.6259465 15.119794 -6.048878 2.2891212 -2.5720203 -9.263891 -2.1268785 1.4055954 6.797311 -13.339925 2.456352 7.0140634 -2.09446 10.208746 -6.13157 -0.21158707 1.4526522 0.00802606 -2.9264753 -0.65025294 -3.7739441 -5.4569354 11.175594 -2.3142545 3.3108492 -7.345797 -0.523283 -3.2008815 -0.44863886 0.34652585 -2.32433 -0.45386627 -16.03679 -10.927231 5.6903224 -9.710884 9.923401 -11.501148 -2.8517148 -17.661053 7.403618 -3.6736386 4.3891664 -0.3768751 -0.42630216 -9.201981 7.885077 -6.400493 0.5360932 -4.9722953
C4H9N3O2+K+ 3.8018107 2.3070343 -3.1152923 2.1517534 -1.4880217 -9.967499 -1.4056782 -1.2163311 0.29529053 -5.7093444 0.7357949 3.9849365 -1.5361633 2.0369935 -2.1703057 3.6856012 3.5329573 1.0856678 -0.5331577 0.09049819 -0.29309952 -5.806292 0.075623505 0.8283766 3.370453 -2.7243981 0.3964046 -1.4842659 3.3869352 -0.009961125 -1.965714 -0.8735916 -7.809075 -0.84007657 -0.42568728 -2.6661837 3.0033133 -3.4570222 -1.1014354 -7.861426 7.4227166 -2.2748504 1.7853515 -4.004147 -1.1057252 -1.726785 0.011598478 -8.726529 -3.0487351 -3.129853
C9H17NO4+H+ 4.500486 3.7634034 -1.8178068 -0.56849295 -1.9862558 5.470542 3.7205482 4.574399 -5.208698 -4.414148 4.5138493 0.47986642 -2.2334123 -1.9489741 1.1265366 0.78454167 0.75154656 0.63612926 3.125698 -1.3329301 -2.73132 -2.3776765 2.0322907 -1.6079957 -2.563362 -2.292808 -0.11280552 0.19607005 3.127868 1.6217675 1.4037997 4.376444 1.8174409 0.46546453 0.5193144 2.6383498 -0.8534329 -5.151661 1.5548692 -5.2523136 4.227772 -3.016709 0.5942709 6.410231 -1.9846045 -4.183329 4.649316 0.8767662 -5.729737 -2.5388246
C10H7NO3+H+ 9.571856 2.6974213 -5.912343 8.152625 -4.1407666 -6.3756227 6.0014625 -3.485225 -6.3605 -4.914891 3.7588196 7.710799 -2.5836055 -4.6869144 1.2954557 4.982678 6.6854906 3.5095968 7.8576045 -2.9159288 -4.3937316 -4.3386636 11.061339 -5.8829956 -2.085695 -8.0856 -1.3098452 -1.7824229 11.842256 -5.792464 -2.1558146 2.7826204 1.7025032 -0.64896846 -5.116651 2.8139102 4.477796 -0.83065236 1.6530316 -5.7277884 10.294861 -9.50608 -2.7577264 -3.3621492 -4.3935485 -0.64074045 4.082545 -9.128882 -4.542495 -3.2832174
C11H21NO4+H+ 4.0549097 12.348678 -6.99552 2.3005524 -2.9495943 -0.64615643 -1.7661263 -1.6935291 1.2511606 -10.364211 -0.23601407 0.7356681 -0.04771167 6.763095 -16.086452 -3.782594 3.9427164 -2.0694597 -0.4019023 -4.9927583 -6.983409 -4.9532094 4.7370734 1.3994646 4.889382 -10.898403 1.2716491 0.12972896 11.869003 -0.38018236 -1.6876668 3.7707818 -14.890393 -2.7626216 0.3699044 -12.67742 1.5805491 -11.282737 -8.51471 -14.496046 9.139015 -2.4402635 6.695436 -3.0398874 -0.6906815 -5.7812815 8.728959 -12.407236 -3.234161 -5.530833
C22H22O7+H+ 3.3332446 6.479812 -4.456847 -1.5950905 -3.6609993 -8.367878 0.22165662 -2.4915464 2.1381502 -4.7576036 -4.178279 -1.9343916 -0.029503694 0.6336898 -11.842881 1.8665204 -0.9388128 1.6330812 1.6468836 -1.5780699 -2.0048788 -3.4761493 1.6805348 0.6070822 9.770082 -3.2964144 -1.9668311 -4.5172954 7.6848087 2.6452272 -2.1080418 2.1505399 -8.732668 -1.2122822 -7.1223626 -7.3295717 5.191369 0.75670135 -4.0438857 -5.929769 2.220232 -8.66099 2.4301965 -7.0431185 -0.17778744 -3.8831758 3.186358 -2.8956978 -0.7992478 1.7116066
C10H7NO3+Na+ 3.3209002 10.306707 -3.1195185 2.324034 -3.2599485 3.233533 1.2564511 -0.27656773 -3.324604 -6.53681 2.5386162 1.9863702 0.4472471 3.197272 -10.518057 -0.759456 5.6777506 1.1099336 -0.84238183 -0.09557419 -3.0672843 -9.142547 10.928503 2.3567119 1.8078662 -12.650953 2.6838148 -2.9092078 9.296359 -2.589024 -1.9817581 3.094069 -9.053217 -0.28851947 -0.76976424 -7.932702 1.2427369 -10.976587 -7.411775 -9.796645 7.864605 -5.9005322 8.840934 -2.0930483 -2.2581973 -5.3185205 7.434784 -9.810624 -3.761157 -7.025019
C8H20NO6P+H+ 5.1254063 10.252986 -8.439774 7.764027 -8.506951 -2.1557083 -4.5483146 -2.8971102 -3.7475846 -7.161886 -1.5015581 4.4101467 -0.96205115 2.8027647 -16.85493 -4.7533197 6.680646 -0.8944637 -5.585106 1.7448945 -5.8186207 -11.14693 5.9380665 7.125259 5.863462 -10.205562 -1.3851359 -1.1515138 13.004916 -3.4611764 0.47480944 2.730757 -13.289214 -1.400849 3.076248 -11.994167 -1.7014145 -13.7442875 -10.695866 -13.037015 11.664598 -5.788798 8.835036 -6.5684824 -2.309358 -2.4562228 8.33668 -17.760317 -9.2671795 -6.2193866
C10H7NO3+K+ -1.2161483 4.66005 1.3558441 2.0351195 0.4534675 5.2887588 -4.43933 0.012956878 1.9459404 -2.724344 0.87599766 -3.7198164 0.22013602 5.4013085 -11.203573 -5.0966287 3.5060349 -2.5331872 -3.6405916 -3.9374855 -0.48685434 -0.80304277 -0.71097684 4.057111 1.3266854 -8.471624 4.910175 2.1014173 6.1645145 0.060456224 1.0988897 1.8038783 -7.9943576 1.853018 2.4178758 -8.385786 -2.0551326 -2.2524586 -4.902732 -2.9663665 0.4968048 3.889887 2.7913861 -1.847656 -0.37581864 0.4155731 3.2666066 -7.701193 2.3996584 -3.5052183
C11H20N2O3+H+ 5.67951 7.4391603 -3.4132226 5.6866274 -2.7378256 -5.5009336 1.9036348 -5.961044 3.8954308 -8.693287 0.25403625 -1.1581141 1.3907391 4.6277814 -6.2249813 5.3570385 9.904699 -4.581363 -0.9566693 -2.5828037 0.59122556 -8.814121 4.3987093 -4.0799704 1.3030255 -12.997679 7.223472 -2.4246907 4.1969924 -1.4678652 -3.3900506 2.708282 -12.9408245 -0.21175815 -0.08329303 -9.733979 -1.4726756 -6.332779 -8.041696 -10.089341 6.076026 -0.18513766 7.450607 -7.915693 0.010238474 -2.7974246 6.2071824 -15.832206 1.9079094 -7.5231676
C8H17NO2+H+ 5.278627 4.7405076 -9.628427 5.4267755 -5.321564 2.659354 -1.4593198 -4.22039 -1.6595058 -6.640889 -2.9182074 -3.8044527 1.6617018 4.0174155 -14.842289 -4.8471313 2.5479581 -8.054759 0.027295133 -4.4572077 -6.3833585 -2.8000064 1.1076723 0.9506714 4.3299594 -9.357018 0.64123714 -0.8977953 15.654089 1.9099742 1.6904291 5.69911 -12.840057 -2.2780774 -2.2395334 -6.5021954 -8.174726 -8.587686 -10.104348 -6.5258636 8.3194 -2.7942722 5.610657 -2.8511145 -3.7398233 -0.55866975 7.4346066 -6.8411818 -9.411835 -6.0795503
C10H11NO+Na+ 0.75153095 -3.7978382 1.5426339 6.3764663 -4.6626406 4.0997944 -0.5181483 -0.553895 -2.6118207 1.5046889 4.2965736 -3.1843445 2.8660293 -2.715773 1.5724517 5.0103073 6.0568037 -8.300869 -4.9126573 3.8163843 2.7567594 -6.558526 2.3029475 0.48234022 -0.63748467 -5.7744174 4.142572 -2.5214474 0.36024383 -0.04240483 4.8110466 1.3001678 1.6958416 6.5860076 1.6523048 1.9034064 -11.55961 -5.1851916 -4.9663 6.1374617 -4.0061355 2.6700206 1.658184 -2.0593345 -2.6072047 8.868066 -1.5355544 -4.1899295 -2.9017303 -2.0473208
C29H47NO4+Na+ 10.756661 -1.0237651 3.6265895 0.22002386 2.6278682 -5.622455 -5.541324 -7.2216725 -6.1039767 -18.485352 2.3771 0.117653795 0.13384639 -0.31387132 -16.5736 4.5187654 4.477172 -5.531111 7.3643875 -11.146302 -4.9695067 -10.462535 15.215399 -4.4648075 -4.3308797 -14.24089 8.374106 -3.2836761 0.8609998 0.57895386 -9.003178 5.4391794 -15.646461 -5.463547 -14.365305 -5.738718 11.926355 2.7018704 -11.029535 -11.089753 26.016977 -1.9028243 7.725699 -10.032132 -2.113504 -6.7680383 9.221824 -12.877821 -3.2196817 -0.649751
C9H20N2O2+H+ -2.706829 2.050765 -5.7967076 2.7059007 0.21007654 -2.0349128 -6.5047216 -2.520605 4.6041527 0.081457645 -6.496242 1.5475109 0.92948353 8.219665 -10.887799 -4.081423 -2.9844394 -2.6116416 1.5555571 -2.9594169 -2.5496564 1.1601562 -0.83723503 -4.253843 5.9103923 -0.0644576 -1.4804642 2.5530264 5.2103353 1.0552446 -0.71376085 1.1648455 -8.006219 -9.397651 1.1047643 -6.2763696 1.767229 -3.8889322 -6.8168373 -4.5912886 -0.52564514 0.1531226 2.3043642 -0.33067742 -3.13999 0.75961834 3.4547725 -1.1735675 -1.5445781 -2.7372544
C7H15NO3+K+ 2.5642724 7.0287123 -5.776847 0.91500837 -3.1557012 -3.6677477 2.1885319 -0.9070302 0.82291466 -1.7806697 -1.7629017 -0.7936704 -0.40380308 -1.0461149 -4.549009 0.46196383 -2.007016 -0.2558379 0.73623246 -2.5334387 -1.5214784 -1.3642794 0.23443344 -1.0568712 7.703258 0.081604674 -1.4994146 -2.1495814 8.479653 5.268092 -2.8375025 6.5756726 -7.792923 1.665808 -3.6295793 -1.8651872 2.958502 -2.4188561 3.6820264 -5.0848308 0.6526718 -12.087579 -1.604717 -1.1737716 -3.020059 0.9841622 0.9062554 -0.4024188 0.9565321 1.1425335
C26H50NO7P+H+ 1.7911357 6.5148335 -5.0351005 6.4982057 -2.2795434 5.824369 -1.3150058 -1.0891358 -3.753419 0.058088817 1.6544544 3.0048618 -2.152887 5.945075 -15.043308 -5.84223 4.7115474 1.5907885 -1.0562804 -3.0494652 -2.218643 -4.983552 4.5003757 2.426545 2.821443 -9.686084 1.1004089 0.69544834 16.036528 -2.6148443 0.4244542 5.205862 -4.873307 2.8470302 -0.6118101 -6.0134287 4.9200172 -9.336741 -3.2747395 -10.332098 3.4968467 -1.1354555 5.8660746 0.7887789 -5.407535 1.5371056 3.3838985 -14.686829 1.0862055 -6.81118
C13H17NO3+Na+ 1.1140867 9.554824 -11.072446 5.699996 -3.719743 0.19835171 0.57664794 1.3432082 1.7313769 -0.8420948 -0.70356864 0.3070797 -0.5695814 -2.8144488 -13.064622 -1.3041457 3.3976784 4.5537395 4.03029 -5.082726 -5.530185 -2.849427 3.7812767 5.324719 7.4128942 -4.5306277 -5.121854 1.2481152 16.104267 -0.86534685 -2.1376963 4.52943 -6.8322353 -1.1226988 -5.3193016 -8.698512 8.300179 -8.675325 -5.633782 -10.06364 3.6549072 -5.0404005 6.466526 -4.9274955 -1.2736771 -0.13765767 4.5445867 -7.2759147 0.67535836 1.9008961
C10H16N4O3+H+ 4.9269857 11.085503 -5.5170727 1.0848294 -1.0466884 -6.1957216 0.24629721 -3.600348 6.422234 -8.157728 1.8032814 -1.6291921 -0.068749025 12.357765 -9.141612 -0.3839865 5.056176 -6.588135 1.4254371 -6.5380087 -8.271337 -5.6806297 3.567166 -1.970384 4.3652935 -7.9200664 5.3807 1.2344128 6.02563 4.8830323 -2.539487 1.498937 -15.00307 -4.55213 4.2959986 -14.8644495 -0.2987648 -4.354461 -3.36732 -12.361068 7.489507 -0.83283544 3.2606223 -5.932509 -1.3064358 0.013462956 4.305482 -12.327009 1.2087206 -1.4723415
C8H20NO6P+K+ 8.432343 11.189363 -1.2072036 3.0868363 4.209964 -5.5901136 3.0229588 -2.1333742 0.2750673 -8.522575 -0.40214893 1.0180486 -2.2784543 10.647249 -7.92401 -0.6832051 4.977548 1.404613 -3.3300693 -6.4729066 -4.4457197 -7.4308734 1.2651972 2.2263277 6.385023 -7.9654937 2.535293 -1.1740807 12.402674 7.395439 0.79607093 5.6657386 -15.973685 -5.229334 2.3640285 -10.502986 7.3988605 -2.0053687 0.9497586 -20.701632 7.4266634 -6.1011004 2.8898046 0.9969326 0.0055711213 -9.946749 4.6406884 -9.432514 -5.612041 -8.240853
C26H52NO6P+H+ 5.3963146 1.1965184 -5.166312 1.8114189 -5.648161 -8.698781 5.600399 1.779893 -5.015613 -1.0978985 3.3367512 5.2133837 -1.9606229 -7.294311 6.1474833 8.0770445 3.5074143 3.048061 1.4644386 4.3751307 -2.7656052 -10.689146 2.9547534 0.97521704 2.9884603 5.581181 -2.9687073 -3.7789571 2.0377593 2.4626858 -3.1500225 -0.97496235 -0.40750495 0.939854 -2.7566671 1.2448813 -3.2116027 -4.8036833 -1.4042925 -3.6716812 5.4462705 -8.307844 4.014641 -2.447404 2.647137 -1.2904075 -2.4867384 -0.4216297 -14.010901 0.92194253
C10H19NO4+H+ 2.3545766 3.2789352 -6.035723 1.381048 -1.4564077 -3.045685 -3.0589921 -2.7978392 -1.15192 -3.660161 -3.695403 7.6282196 -0.5076315 2.080535 -5.279856 -3.4154873 -1.3438851 4.9913735 0.15190396 3.2289279 1.2225488 -2.9499338 4.8809485 -0.94321394 0.602524 -0.38046524 -4.773944 -2.1964025 2.1581116 -4.411919 -3.2426243 0.7530537 -2.6465518 -7.1203756 4.8896604 -1.9906336 5.453103 -9.977991 -1.1387613 -10.826199 6.508463 -6.470294 4.5169415 2.7069821 -5.055979 -6.8292913 6.357299 -8.592235 -3.5054486 -9.916202
C8H20NO6P+Na+ 8.15694 13.764612 -4.789538 7.5745883 -0.1179339 8.4558735 6.8974032 -6.3268914 1.2330041 -7.677346 -2.1152925 -5.299913 3.323756 6.081346 -6.8908978 -4.785879 9.1526375 -7.4747806 -3.1065478 -4.58708 -7.513784 -5.1030917 10.208587 0.38883618 2.7231405 -17.285872 3.6785963 1.0614125 15.452708 0.017466635 4.8476396 7.489894 -15.60674 -3.551413 4.450539 -11.487855 -2.8145022 -10.732628 -6.5007544 -16.49155 9.762708 -4.5618534 12.547507 -4.012944 -0.15135284 -7.518367 12.637103 -6.6178713 -2.627096 -10.764643
C10H11NO2+Na+ 6.2266636 1.077532 -2.6639793 6.4470596 -2.3997405 -3.3443642 -6.588481 -6.2964225 -9.055396 -9.599018 1.3775787 -0.020432709 -1.2860892 5.2518044 -24.509884 -3.722763 -0.80781215 -9.203689 2.75997 -9.106366 -2.933114 -10.344506 15.830688 -6.1742697 -2.1108992 -18.131672 8.638585 -5.391529 9.514489 6.0561733 -3.7586396 12.618384 -18.548073 -9.431633 -9.635988 -2.0598772 8.173444 -5.688911 -15.048168 -12.753321 21.504452 -7.3912253 2.0922158 -9.071923 -3.5759454 -3.2650104 12.236795 -8.878126 -1.3109907 -12.676918
C37H68O4+H+ 0.815188 7.5469246 -10.066844 9.643453 -5.284677 2.7465425 -2.6051462 1.1372943 -1.2669454 -6.6997576 -4.600086 -0.22078271 -2.8541157 3.8361135 -13.179463 -6.7114754 -1.6006613 -3.0470092 -5.2646847 -8.985593 4.453539 5.90185 -4.756382 1.6232316 2.7157335 -11.600468 3.1463735 2.483064 16.623198 -0.19911438 3.611435 8.88531 -12.652978 -4.646673 1.2374345 -2.1311035 -4.194134 -6.2810593 -7.7755103 -9.427568 0.57757616 -3.9067783 -5.661539 1.2923673 -7.757729 -1.2412221 10.327639 -0.37657002 0.745141 -12.92892
C7H6O4+Na+ 0.99135983 8.878675 -11.073438 8.435767 -13.908968 -15.612532 -5.200647 7.5553374 5.3566327 -13.971135 8.906277 5.7133675 -5.8457127 7.911201 -10.923207 11.368832 5.3138914 -4.3218594 7.6834035 -1.1387246 -8.942735 -16.729496 -0.29190457 -16.27768 3.023523 -10.680423 11.229809 -3.8389823 3.9304514 -2.4771326 -4.9502497 -8.363345 -17.036278 -15.142594 5.2104764 -12.751635 5.495293 -7.945256 -9.126119 -15.75271 9.173827 1.5147024 -9.316296 -0.86187905 -2.4265244 -8.935173 10.603054 -6.728504 -5.1860576 -13.117344
C15H28O4+K+ 16.035015 18.035437 -9.283769 14.119607 -5.8213515 -1.9776905 3.2971368 -0.101299144 -4.578856 -17.421755 6.8492823 5.4988236 -1.9176443 0.79339033 -5.4209538 1.7976466 16.330614 2.2162411 -1.1782547 -4.1464424 -8.155541 -14.702349 8.691268 3.0858934 3.830376 -15.379528 3.8977509 3.7931216 15.372635 1.1900722 -1.4149594 8.086849 -14.575287 -2.2055943 8.084612 -7.662207 -1.0593816 -15.588757 -1.879001 -19.650375 17.335289 -10.523838 5.701897 -0.93240094 0.82187146 -9.350662 8.426435 -13.932942 -13.064975 -12.385246
C35H66O4+H+ 9.105613 15.664017 7.634798 -5.760444 -10.364477 -11.4303 -1.1880683 0.97658163 -0.28701836 -8.696008 13.7147875 1.4648738 -8.3674755 9.532565 -16.914486 -10.007037 6.359359 6.858586 8.734139 0.35700226 -5.584505 -4.577821 10.323228 5.1769586 1.3672427 -16.2604 8.994551 -0.9640261 12.473501 -0.8645474 -3.2662394 -8.671657 -18.430506 2.7066433 -8.771455 -8.923017 15.457147 -0.8067029 -8.38675 -4.809202 20.54249 -3.8499005 10.791323 -11.145998 -0.69021505 -8.428676 7.26635 -20.757202 -5.205584 1.4561332
C7H6O4+H+ 4.232584 17.481152 -16.642672 6.400691 -16.326023 -8.521096 -7.3149204 9.533128 -1.0078094 -24.24816 5.2572446 10.667027 -10.337821 0.32472184 -20.53474 1.1105239 3.9908495 -5.700378 7.673593 -4.9153705 -7.551963 -2.029502 -1.5978158 -17.735798 5.1187525 -15.307502 8.345014 -1.9936446 19.170563 -1.6570059 -1.1575336 2.8255765 -25.767937 -7.4387035 -4.922375 -10.474094 14.235534 1.9866933 -5.7143974 -14.560097 14.8265915 7.7352533 -12.6439 -5.4761996 16.783255 -21.804672 11.334714 -20.35099 -3.9263353 -18.479853
C18H24O3+Na+ 7.2071567 10.555399 -6.6634083 6.723987 -6.9744067 6.2312655 1.2809589 1.551419 -6.4451103 -13.543363 6.9752398 4.885582 -2.3446858 5.7203307 -15.523681 0.24936612 9.159183 -3.0135756 -0.23380288 -1.7664984 -6.860193 -10.91135 16.194096 -3.3849654 0.0002470764 -22.462471 3.815863 -6.371221 15.365311 -7.9595947 0.25259444 4.094699 -13.425142 -1.3034148 -2.2229395 -9.256403 -0.82524437 -12.896186 -10.585111 -12.1333475 12.594157 -0.9784744 5.167953 1.0530529 -6.9763365 -4.685313 10.281863 -20.730783 -8.57448 -11.5156145
C13H8F2O3+Na+ 3.0906613 22.685839 -11.528654 16.242805 -7.507611 -0.13894401 -9.792463 7.7133865 1.553455 -11.5921955 5.9824667 3.0424292 -2.474151 4.464122 -6.385032 -4.445014 -0.47360831 -4.4936576 -0.26525888 5.5792856 -2.750963 -5.390415 -4.448809 -7.038329 9.153294 -8.570702 4.5096045 3.069033 8.038164 -6.5613623 -2.268082 -7.3031683 -21.820816 -6.00877 -7.3753667 -8.670273 15.169946 0.41677937 -3.4399183 -7.680032 4.006184 13.667991 -12.43626 7.1150146 19.74298 -21.147545 5.957083 -34.225597 -10.5019865 -11.103325
C11H8O5+H+ -5.67371 17.639273 -4.743183 3.0633073 -7.7560344 -9.891473 -20.963821 18.78196 2.627228 -19.364786 3.1288729 11.702281 -10.031217 4.257311 -18.886215 -0.4545764 -13.891181 -19.902662 11.228982 0.3071424 -11.624509 -4.7889767 -7.8484907 -17.83825 12.698544 -14.292314 18.726183 7.7950473 17.64789 12.601033 -2.4973314 -7.8713884 -36.968494 1.1875867 -7.176426 -9.9966135 10.748136 2.2706177 -0.39217597 -13.456 6.7273974 17.320543 3.6149476 12.846774 27.58953 -26.579172 1.6814084 -22.666023 -14.958121 -24.17044
C14H10O6+H+ -5.383008 25.694637 -7.3667502 -7.3216667 -8.451937 -11.605408 -15.972931 20.583057 0.6424552 -15.074838 3.5697546 7.3302283 -15.47515 2.9266744 -27.862267 -2.0189784 -1.8276943 -5.00344 14.566791 -3.0734253 -12.328781 -4.661222 -13.647593 -20.576502 8.730514 -16.27968 18.52404 8.435853 18.576593 7.395506 -0.46178356 -5.657323 -31.024277 -6.562518 -6.685589 -8.780069 20.238745 11.751045 5.5075145 -13.18339 5.8274927 5.9243536 -3.2556105 3.0994215 23.258562 -27.950853 7.742108 -11.418976 -12.332592 -22.9731
C24H32O5+Na+ 4.2618704 0.8067003 -0.45863506 6.771822 5.914193 5.259743 -8.95534 -9.911084 -6.6997013 -0.9288743 -0.96684664 -5.615203 -0.36352324 1.5313294 -13.477109 -7.21096 -0.84492236 -8.588305 3.7289798 -4.881394 -3.4078264 -1.0478371 12.007774 -7.495521 -3.0538757 -11.06608 0.79178894 -4.223654 7.831516 2.2082112 5.170948 8.192904 -8.570218 -5.277451 -9.836645 0.9569986 2.921603 -3.6981032 -12.398418 -6.3708916 8.481819 -3.5079544 3.0332558 -7.8724093 1.1468029 -3.2794628 11.088419 -5.6069217 -1.2712051 -9.842209
C15H10O6+H+ -3.175574 24.698925 -0.8029843 9.186914 -6.1744547 -10.324741 -10.752885 12.48815 4.983312 -14.558362 15.716054 3.1622968 -10.801742 13.178522 -3.12225 3.8632624 1.5845935 -1.2345464 6.6102567 12.758118 -9.056701 -21.315609 -7.563641 -16.272991 10.747522 -14.485581 6.8212986 0.73286045 2.9178631 -9.401851 -4.4260116 -10.270832 -29.061935 -11.619813 -6.660762 -9.642977 16.760464 3.7601745 -4.573077 -6.3436513 -2.4754195 12.950782 -7.0808144 14.194315 27.360245 -23.63584 3.6093829 -33.118294 -13.819888 -11.763614
C37H66O4+H+ 3.0715225 1.2712448 -1.8196108 0.97427607 5.2820125 3.9707856 0.62654614 -3.1229713 -6.4457207 6.2696505 3.249191 -6.2414985 -1.1985748 -0.3204874 -2.668215 -2.9082563 1.0182346 -3.2786517 1.8014086 1.3852651 -4.516545 -5.619643 4.66891 -2.6428106 -2.6650338 -0.7085721 -3.0203571 -4.4822917 3.3163466 8.542115 3.8205981 8.21646 -3.489579 -7.0773635 -3.2037866 2.4447415 1.3739883 -0.033277523 -6.381308 -4.322937 2.4168828 -0.07696603 -0.64549404 -2.1490028 4.619207 -3.7019038 5.223173 3.9625103 -2.106484 -8.424347
C10H14N5O7P+H+ 11.473614 5.140844 -3.259807 -0.9665347 1.1925792 5.6348195 7.1778164 -3.8966293 2.0183094 0.57408994 -1.3102353 -3.1282027 -1.4165248 2.1409235 2.0939755 -9.423724 -2.6752625 1.470902 -3.7578635 11.834536 1.2353433 -1.5301884 3.5358608 4.187413 10.876592 -1.928594 -7.2118983 2.0135713 8.436516 -0.8671637 8.76906 -2.199909 5.481011 5.2894297 -6.1922503 -1.4905096 9.167366 8.223349 6.9121375 -0.7481446 -1.8251812 8.792127 -4.4058003 1.8317811 9.331601 -10.856232 2.3299832 -13.167794 -0.8550742 5.3775754
C10H15N5O10P2+H+ 0.21631184 7.4477434 -12.465672 3.3400671 -7.438989 -7.586525 -9.66786 7.4885926 -4.1586523 -7.180014 5.3375854 5.1639185 -9.3679085 -3.5578372 -4.4470205 8.091582 7.4151864 -3.8736475 2.1935735 -6.269226 -0.51941204 -6.5514107 -0.07561878 -10.774204 -6.535437 -4.293177 4.9398794 -10.139674 6.3423862 5.383702 -1.7007004 5.313326 -7.2798843 -4.333226 6.0552735 0.7369408 -0.72762495 0.84173125 -3.5008464 -12.91938 10.893624 -5.4295015 -4.59698 -6.680883 6.5074034 -9.661001 6.5199327 2.7859986 -0.3059398 -14.357012
C15H16O9S+K+ 2.367448 11.693373 -4.318305 -2.4314058 -6.503239 -0.7245972 -5.5540004 1.6844772 2.7670875 -10.756193 -0.44617328 -1.242223 -1.6909883 10.847866 -16.49258 -4.4528236 -1.0919019 -0.5893245 2.9825757 -2.1545484 -3.578958 -1.4690186 0.5687828 -2.0110242 4.138258 -8.955606 4.5784388 -4.462367 7.406761 -0.22154336 -1.2500672 -0.68910235 -9.652278 -0.6410333 -2.1347425 -9.503323 2.732034 -3.825708 -2.8358405 -9.051702 4.983092 -2.331882 2.0838895 -2.388329 -4.601426 -3.9538846 5.8707933 -3.36134 -1.6980761 -0.38342333
C12H20N2O3+H+ 6.319485 9.075715 -8.258384 7.9234376 -2.8662915 -0.26802084 -7.9378424 -4.605979 -5.4049287 -11.872793 0.0034282357 8.4444895 -3.189799 3.6968508 -11.975018 -5.2327127 2.0965323 0.1910151 -0.7420897 -0.734883 -2.1348438 1.6101907 4.9707875 0.1100157 -5.3263416 -8.858121 0.8280191 -1.2953064 6.482103 -2.8680289 -0.9326116 1.258993 -9.461815 -3.559182 -2.2658336 -2.911305 7.127607 -4.5665793 -6.310487 -7.042821 13.423846 5.3862715 3.758676 -4.1520762 2.2253082 -9.195907 5.6669655 -10.845945 -2.5403898 -7.719842
C9H14N4O3+K+ 1.3670743 4.0438447 -7.8148813 5.218992 -0.8924436 -15.019402 2.4101484 0.94210726 11.2345295 3.1937418 -3.8270762 -3.021055 -0.53216213 -3.3224387 7.2400527 6.1845455 3.1548736 2.5560899 4.012685 -2.494866 -6.6856394 -0.25516164 -2.549738 -1.443016 8.921522 9.152501 -5.034995 3.4511037 -3.5588472 4.9318013 -1.3926046 0.05423922 -4.4555397 -4.766186 -3.1770456 -4.036272 5.9832997 3.8338597 5.150559 -5.756227 -1.7223953 -6.5464964 -0.058741808 -10.5401745 6.6268215 4.718996 -3.849973 9.497288 5.8139668 15.183192
C26H52NO7P+H+ 4.6879725 4.987583 -6.3320446 -5.461596 4.070587 6.3094287 7.181058 0.023823276 -0.73564076 -4.932618 -1.5495805 -10.358787 3.2420838 1.4039892 -19.388855 2.4443462 -2.8149993 -9.679311 -8.940667 -5.270764 -13.867452 -14.946261 9.390353 8.162488 13.262323 -6.897303 -7.3300204 -8.152471 14.676249 7.1610594 2.1001356 10.273558 -18.508196 -3.339915 -8.881966 -16.549881 -2.986191 -3.2191298 -11.504624 -12.050995 -0.75074303 -9.046232 -0.30994308 4.859866 -2.9519324 -3.5087216 7.5070157 -5.855798 -3.6585546 2.2769783
C24H50NO7P+K+ 6.981966 4.844419 -2.8509064 2.5903406 -2.8645718 -3.205309 1.7627051 1.0202317 -3.2061443 -11.185145 4.7009726 2.8418593 -3.7865882 -3.9887927 3.1993735 2.3509283 2.2746894 -0.64435005 3.3910198 -0.72032315 -0.8514564 -2.888347 2.969106 -3.4679294 -0.42964536 -3.8722699 2.279371 -1.2070227 3.8269143 -2.1829493 -3.1361065 0.92747754 -3.5873795 3.7569263 -1.964657 3.3880823 -2.793558 -5.609905 3.5713782 -4.810156 8.036139 -6.7300296 0.26428244 0.0085416725 1.0453967 -3.0654554 1.6680441 -0.61162424 -5.132103 -2.3393998
C10H16N5O13P3+H+ -0.25101787 25.911453 -17.984125 11.146868 -10.94176 -11.458765 -21.818356 19.71102 4.116222 -12.986654 14.966549 4.0255365 -17.887556 0.78207564 -16.025051 4.5207276 4.1860137 -5.0566483 1.6577501 3.8843493 -12.662496 -13.358732 -3.0943184 -16.074125 3.6084042 -11.465505 10.327539 -0.29209808 7.110594 0.81418324 -3.7363865 -5.8182583 -28.249493 -10.115063 1.1483681 -9.899339 14.607775 6.158015 0.046189785 -17.866447 10.834503 4.1663175 -3.927107 6.333406 25.490417 -28.992056 10.677025 -23.401405 -9.538751 -17.487
C9H14N4O3+H+ -4.384052 16.718794 4.473141 20.774742 -7.0468793 -3.4945996 -15.139401 14.777498 8.635846 -7.0680804 11.404134 0.7017073 -7.5755234 -5.734013 6.2856555 7.1740313 5.4329815 0.8631687 4.515073 4.7913246 -7.385253 -9.489731 -13.4723015 -7.9685006 0.62318903 -14.4775715 10.457823 8.937581 -2.7015662 -4.68375 -1.0153232 -8.849931 -18.464306 -12.7053585 -0.73197275 -8.661044 18.133451 -4.6959167 0.21254581 -10.126126 7.3951097 15.231213 -2.609833 7.2320485 12.347668 -12.616321 3.8814402 -19.1352 -10.223968 1.4783777
C23H45NO4+H+ 3.4699795 11.00281 -5.052811 1.8996388 -0.6819048 -8.454884 -4.669519 0.37387365 2.2857294 -13.013929 3.9705284 5.003803 -2.3132346 6.7738085 -8.735673 -0.5558293 3.4966285 -1.9248239 -3.6387646 -2.6324024 -5.696363 -6.8010635 8.307633 1.2191958 6.8924165 -4.450765 -1.6011577 -0.7273783 3.1563804 3.5399902 -1.2107524 2.0040162 -13.594239 -4.5083704 3.3473198 -11.092019 3.0203283 -9.570748 -4.4057064 -11.084959 4.9561024 -0.8337848 -1.3585644 -1.3683448 -0.8561138 -2.4935122 3.156754 -9.164686 -2.2526016 -2.922841
C11H21NO5+H+ 11.404631 7.258417 -5.0987244 1.5140355 -5.4319453 -8.822712 8.076962 -2.3689775 1.6028769 -6.164713 -1.260248 -7.556383 -1.2859396 3.5434399 -4.583186 6.901303 7.010742 -3.7601237 -0.55429304 -1.2549208 -3.0580475 -11.477274 -8.292889 -5.256801 5.2881866 -4.234725 5.463142 -4.412286 3.8640916 5.8807926 -0.020387562 5.0208364 -9.904789 2.9305518 -4.71748 -7.7002115 -4.2810698 0.2701879 -3.5756958 -13.958027 3.038032 -4.8758965 4.968357 -3.4606302 0.9414236 -6.1075096 5.2967873 -10.363145 -6.9147115 -2.2351673
C9H15N3O2+H+ -2.2944748 19.013948 -12.0033245 3.0582943 -4.114072 -10.843676 -20.020262 12.704693 -6.81295 -11.914821 12.275202 6.0019784 -13.789506 9.231502 -16.900846 3.5815415 6.99098 -0.9685987 3.1088638 5.019802 -10.173362 -13.106957 -2.1125214 -13.383924 -0.7475558 -10.50306 6.9862947 -2.760951 0.3410589 -5.8871036 -5.7685738 -2.296002 -25.69574 -9.547822 -1.0361675 -7.7592974 0.9760681 0.39680013 -12.187309 -9.47816 10.228995 6.0835357 -5.439881 0.56172395 10.323853 -11.354227 5.551208 -7.263646 -14.098723 -15.755357
C6H12O6+K+ -3.3730392 14.81814 -6.5438247 -2.6723912 -3.2491527 3.5388055 -5.1182485 -1.9780535 4.3914924 -11.079853 2.2104845 7.0470605 -0.73512685 15.482269 -23.618345 -17.095236 -1.5446225 -2.1762056 -7.479703 -3.3770206 -10.292472 2.5151043 13.465726 9.123265 3.276901 -14.506346 -0.11474556 -0.846293 15.810817 -3.2959397 -3.4371212 -3.037679 -27.13524 -11.8256235 6.7744803 -16.287218 4.9316053 -13.186087 -12.072758 -9.809271 12.914351 4.757758 5.981242 0.38495713 -0.42379308 -8.101498 6.215721 -10.010205 -4.9643073 -12.401942
C28H33O14+Na+ 5.426022 -0.265093 7.3464956 -2.7107277 8.268194 -1.738303 4.2571983 -1.4577173 -0.1732488 -10.734136 1.1919918 -3.0999389 -0.71672314 1.6235732 6.352536 3.5590425 0.422902 -4.0300107 0.30514258 -4.853417 1.0900438 1.7997383 3.9215167 -5.247749 -5.228574 -5.4397135 3.1439779 -0.7790674 -7.289449 2.087796 2.92997 2.2261055 -3.8944209 -3.6649508 -2.8822865 1.2504225 1.3747926 5.1923447 -1.3608227 -4.0873647 2.9777138 1.9901738 -1.4713331 2.1506674 4.384732 -9.683581 5.493997 3.0692098 1.6022174 -4.6479244
C21H22O5+H+ 12.391369 4.3810244 5.872094 -9.620786 -1.3755018 -2.9445972 6.1813016 -7.943324 -5.860621 -5.930733 7.9920006 -2.3317444 -3.8494244 -0.07227765 -10.745965 -3.842877 -0.5642322 0.09579991 2.7575347 6.490678 -2.9501767 -14.523754 18.626007 0.30414805 2.7537725 -4.5887885 -0.71103853 -5.9458666 2.652672 0.6694535 -1.773078 0.17304449 0.94520545 -1.9803226 0.4344019 -3.3408887 11.240124 5.079964 3.8098032 3.0095007 8.384151 -14.376563 5.554545 -2.8901417 -3.69088 -2.2026217 3.7235076 -10.545191 1.864281 3.0513968
C25H49NO4+H+ -1.1148183 2.6899855 1.7848823 -1.8403351 -1.5074615 4.068126 -7.1415815 2.239087 0.7537802 -5.305015 -0.4273939 -4.052197 -1.2596533 1.9313455 -8.31468 -4.2125745 0.93209857 -0.6408748 0.25107026 1.0512724 -0.47730872 -0.23029827 -2.916262 1.2794768 -0.6069664 -5.845413 3.593531 2.2538173 -3.4538631 -6.096328 1.0259366 -2.5516407 -0.8735718 2.0084882 0.62383914 -5.4672337 -3.629607 -1.9192988 -5.2958145 0.3648328 3.0689778 3.519403 4.0699263 -3.6388333 0.7563963 -1.5475883 5.335389 -5.649314 1.3172872 3.4248195
C26H30O12+Na+ 6.6006064 10.519655 -3.8679383 0.890887 -0.43644673 8.624047 -0.12908298 -3.2921405 -4.3278623 -5.446581 -4.383246 -2.6332178 3.8258865 9.366406 -17.118937 -13.004446 -1.3250656 -2.4510014 -2.5263586 -5.462546 -8.961303 3.6553483 7.1694484 3.9595852 4.81458 -8.323732 -4.43881 4.9432225 11.301106 8.699302 8.857359 9.973092 -7.5382223 -11.078812 4.9335213 -7.44906 4.159959 -3.9768994 -8.415059 -5.143247 4.8016257 -1.3633358 0.9951497 4.5812283 -1.4415479 -10.400965 11.337763 1.2569633 -7.028284 -7.797648
C25H47NO4+H+ -4.665676 -1.54706 -5.0256805 0.06856827 -6.7802176 3.5133092 -6.7288327 1.1263037 -2.1003559 2.261661 -2.8508866 5.7264175 -2.422366 -1.4076792 -4.637391 -3.6838777 -0.84817094 4.5706115 5.9658732 2.5802855 -2.298427 1.923103 -5.89086 -1.6421306 -4.42358 0.31508443 0.95609605 -1.7032372 4.306193 -12.679971 -5.596892 -7.576129 0.69948053 1.4979671 -1.9225597 -1.2702537 -1.5608037 -0.74910986 0.9083675 -2.4912376 7.448152 2.287434 1.6197962 -2.022579 -1.670537 1.1941073 -0.88956755 -6.455293 -6.714897 0.76932985
C12H22O11+Na+ 4.8439407 4.3248496 -6.4793854 0.7069121 0.38266903 -0.41302532 3.360461 -6.7007027 -0.4869906 -5.8134246 -2.2606995 -1.9856684 2.7749395 -6.0386333 -0.12316057 -1.7568394 -2.808374 -7.8803563 -3.8538828 -2.7901833 -1.1487217 1.4981961 3.1885855 1.9248128 2.1365082 -3.138805 -5.362592 0.6500702 6.199253 2.8124986 0.8441333 6.5079236 -6.7308817 -0.88738906 1.9681324 2.050552 -3.3266978 -7.2541723 -1.4248567 -2.1909792 5.068845 -8.467047 -1.1567068 0.93823516 -0.5614811 -4.0795527 6.6970215 -4.0359936 2.227306 -5.9593086
C21H36O3+H+ -8.496783 8.251337 -16.18826 5.318164 -3.943834 -1.1704489 -3.9912446 10.898802 7.784856 -7.5254245 -8.142349 3.0660563 1.4024268 8.462989 -13.168146 -10.909321 -6.053299 3.762236 -9.309932 -6.775865 -9.930326 20.868877 -14.397479 17.748455 11.034747 -8.567698 -6.394894 6.9443183 18.488928 -6.2734103 3.1534371 -4.960809 -15.526699 8.1818285 -10.868651 -9.918591 -10.466299 -8.900931 -8.874404 -1.4894649 -4.57439 10.365344 -4.6385365 9.788334 -4.8428607 0.57343006 -1.3469263 4.001322 -6.776015 7.4037623
C13H13N3+H+ -3.3707287 18.596586 -5.907086 -9.623786 -3.9266667 -12.73446 -10.199244 13.100491 -0.04376956 -9.76159 4.971073 7.198884 -7.9971747 10.966384 -19.942982 4.0580325 -8.986004 -10.685252 10.268729 -1.9796443 -10.269647 -9.28603 -3.5792255 -14.990803 10.001489 -3.4678345 8.0117855 0.81200033 8.916041 14.305628 -0.7534226 -2.738111 -19.917841 -4.4072857 -7.101422 -3.9104857 11.178048 1.6376412 -8.395646 -8.416238 -7.7688594 6.2446613 4.415716 6.34237 26.387026 -23.580244 0.16057067 -6.425773 -8.481502 -22.380276
C12H22O11+K+ -0.46277523 1.8507762 2.1693454 1.335792 7.613169 3.3519826 -0.15652406 -2.8777077 0.69341505 -1.4457344 -1.0060763 -1.2748046 3.273066 2.6980789 4.113832 -0.44478443 -1.5456126 -4.9615088 -4.734672 -0.10437294 0.96648353 -4.4763637 5.455475 2.9520752 0.841413 -2.0424798 0.8310909 3.461501 -0.61676514 1.8390527 -0.10741272 1.6539806 -0.5436563 0.0028392088 7.5867085 1.5867008 -4.631239 -5.0559816 2.6318874 -2.7045457 -0.34603786 -6.7978544 2.4538271 3.8203607 0.22038807 -0.14671765 3.8590114 0.81727284 3.128418 -5.4049892
C15H18O10+Na+ 1.651672 7.5933275 -0.4539107 1.7603166 -2.1000125 -0.30524465 -5.02315 2.2972846 -0.4196341 -8.442062 3.4868767 4.0934153 -2.4260147 2.2136776 -6.502818 0.01586638 0.7684104 -2.6639502 -0.43510506 1.3392764 -2.4150872 -5.3727427 5.6722817 0.088680565 1.2904067 -4.9280095 2.3528583 -2.0863934 7.441302 1.5455927 -0.5966427 0.18385158 -7.5402246 -0.59054756 1.3996898 -3.6415334 2.6601727 -3.8881197 -1.3288956 -3.9015472 1.6282338 -2.5259356 6.385909 1.470741 -1.3664428 -5.9391413 3.1515486 -2.3567002 -1.3211769 -9.373811
C35H64O4+H+ 6.2365437 -2.8264747 -9.219628 6.348548 2.7317271 -4.977755 -2.0636485 -3.7401772 1.4849472 -2.92847 3.9844527 1.8472657 1.9509895 11.947264 -3.4696696 -2.4011836 0.86485904 5.581948 -9.5233755 11.9211035 -5.417944 -3.2587879 11.158403 4.56856 3.7189498 6.081264 -8.001304 -1.5113335 -5.321598 -8.441397 -4.4074636 -2.2290146 -2.2997317 -2.2231178 2.56026 -5.319229 -5.2368016 1.4748273 -3.7121959 -0.7324032 0.27303213 8.500889 1.0150751 4.761327 0.2172146 2.4310017 -4.234196 -4.5765247 -6.214061 3.1334994
C15H22N2O4+H+ 0.8918177 3.9095407 2.467383 2.7225683 -3.5434713 2.3155663 0.08897033 1.189479 -2.8366718 5.898927 8.351366 -4.4003873 -1.7757021 -4.104754 5.4533534 5.8007617 3.6597388 -6.8063173 7.305512 -4.2143025 -5.4315634 -7.507482 4.570379 -9.459998 -7.67661 -4.407899 7.5059676 -5.611415 5.1995354 6.3714786 4.3796906 0.9856107 -5.0612044 -8.635031 3.3476794 5.8439355 -0.09902401 1.9408813 -0.9866198 -9.848452 8.305263 -6.2600884 -0.79351884 -9.823737 5.782962 -2.1775005 5.281912 10.369023 -9.541091 -9.039607
C18H32O16+K+ 3.9348812 6.5092335 0.45603275 7.3318853 -4.455673 3.2044258 6.1353436 -5.407819 1.8678974 -7.001011 -0.3778347 0.01389144 2.7330477 -3.8233895 1.4499192 -4.955394 2.5668557 -3.4097798 -3.986303 -2.2142107 0.79946077 2.184482 7.678898 3.1157877 -0.88950574 -11.951152 0.68511474 1.0045619 8.5778265 -1.9935262 1.9339768 5.092602 -5.1215477 1.1176435 6.2864647 0.41338858 -1.1381487 -8.9924965 0.13884431 -3.5961277 6.247014 -9.6802435 0.621074 -1.0215011 -2.0773585 -5.002875 9.848442 -3.9735198 3.6094847 -7.07462
C29H40N8O5+H+ 0.71413857 8.425785 -4.065118 4.67535 -2.015292 -4.5109687 -4.274885 2.6463406 5.259413 -7.1804748 0.29004192 1.6602494 -1.553897 4.7826996 -2.046412 2.3014226 -2.6118102 -6.9735847 3.390582 3.9724057 -6.975252 -9.354116 -1.8931938 -7.720661 2.8937454 -7.2772794 8.610092 3.8533068 0.8330019 -0.28274614 -1.2276623 -8.31295 -11.689563 -6.2476172 -0.07813537 -6.5800924 3.2618132 -4.3864136 -4.9098983 -9.218985 5.8187118 2.9785504 -0.52068186 2.8158114 5.4717007 -9.033391 7.398471 -6.8337135 -5.9089947 -4.363571
