64 50
C7H15NO3+H+ 1.400343 1.2692617 0.87577575 -0.028339444 -0.05910253 -1.8051898 -3.482448 1.5483073 1.2717683 -2.3478127 0.15694588 0.78994364 4.28292 -0.6866919 0.151853 -2.26135 0.56822264 2.8407133 2.9004884 -1.0177817 0.5097461 4.67965 1.1512967 -0.28224722 -0.060232818 1.9162911 -0.6917337 -1.7747098 -0.057055607 -2.8913028 0.59518373 -3.553759 1.5187037 1.621684 1.4361993 1.8104725 -0.43676877 4.685246 -0.38064072 0.12372171 -1.3063216 2.1486275 0.40330312 -0.2554981 0.6225276 2.9473932 0.581559 3.517599 -1.1116704 -0.3083258
C15H22N6O5S+H+ -0.066800706 -2.2172906 2.7964804 3.8932867 1.8438625 0.03263569 -3.4883502 2.4393754 4.607183 -3.3590415 -0.4165135 -0.8533282 3.4807627 -1.5187756 -1.3729004 0.13883044 -4.821876 3.3197541 8.5529175 0.13866246 4.4599943 -0.07372118 -3.5505562 0.70508367 -2.5037563 -4.939564 -2.1859388 -0.340042 2.1102297 5.801652 -3.1280024 6.0150905 -1.3477888 4.0435624 -5.093007 -0.10837748 1.3926855 1.8664094 -1.345074 3.5518303 -6.691553 3.9543774 1.0106614 -1.6888736 -3.1909864 6.6319995 0.7098681 1.2659931 -3.359587 -4.156337
C24H50NO7P+H+ -0.57417816 3.1704397 -0.5957536 2.7706687 -1.1069136 1.335336 2.3633215 2.3062143 0.0039546844 -5.8131166 0.40116704 -0.2847329 3.6622229 3.3505244 3.6233048 2.4909596 -1.9542886 6.089234 1.9487396 -3.1548324 0.102586046 -1.4363003 -5.485825 5.04173 -4.0318995 -3.1971314 2.5534148 -3.1513062 2.3410754 4.958228 -2.5159173 1.424377 1.2329552 1.0655899 1.63366 1.5415854 -0.25421083 -1.6979239 1.1888179 2.6968195 -4.794865 2.9169865 2.7958093 0.5145504 -2.8084123 3.950453 4.225731 2.6444383 -2.8462043 -1.7788541
C4H9N3O2+K+ -2.527741 0.979597 -2.683125 2.9504821 -2.1996756 -1.6780702 0.024548862 -1.8258014 1.1662493 -1.8787646 -4.127783 -0.99255306 0.430622 0.47584388 -1.1405164 2.383379 -0.062234282 3.6819904 2.366878 0.77495575 -5.655336 1.9396377 -3.0269494 1.7616519 -1.3854036 0.5856091 -1.1407262 1.1796868 1.3021516 -1.0308827 -3.6653595 5.6724067 -0.50367147 3.2696457 2.6685522 3.8887885 2.773216 -0.818602 2.7152278 1.3134649 -4.01311 2.7234159 1.5466552 -1.6466165 -1.4968553 1.2198024 -1.0959142 4.3966074 -0.50162363 -1.5216646
C9H17NO4+H+ 2.5347447 3.5650847 3.3971822 0.49795854 1.2486955 4.300013 3.2859685 2.231767 -2.696853 -1.5465838 4.409402 0.03617198 2.0977318 1.8967444 2.9072728 2.7449267 -2.218907 3.8365028 2.7211413 -2.5098097 -0.67842424 1.0457919 -0.41155928 -0.9988782 -1.936989 -3.587663 0.4715553 -1.3239827 1.8950195 1.4547559 0.35785055 0.93779856 0.379402 0.23063762 -1.6744517 -0.44970828 1.8828273 -2.0475256 -1.954683 5.942981 0.10724082 2.8526983 -2.2378097 1.6955587 -2.2528174 5.7102723 2.248838 -2.758095 -3.1506245 -1.9163111
C10H7NO3+H+ 0.8487965 4.726547 1.1896971 -0.013720816 -1.5372727 1.5643257 1.6740184 0.5447133 0.7829425 -0.5188418 0.9471271 1.2071829 3.1401622 0.74089056 1.0958672 -1.5845963 -1.0013734 2.7421672 -0.52358335 0.777645 2.6935112 2.227364 -1.5843798 -0.12299077 1.1583401 -0.93679166 1.2492973 -3.088373 0.89665 -0.20420723 0.29568955 -1.8531351 -2.3376162 1.851629 -1.3449439 1.4684838 -0.67499185 -0.51560843 -0.06932372 0.6484343 2.444823 3.003358 -0.29884058 1.3974178 -0.75336033 -0.5355844 -0.7565937 1.6441071 -0.2560406 1.1088063
C11H21NO4+H+ -5.219511 2.7498875 -0.44984287 7.496394 -1.6252513 4.5968237 6.0289207 1.8228375 0.40897316 -3.9680007 0.47285557 0.7747188 0.32930082 2.4218607 4.2326736 2.8381267 -2.3142655 7.278205 4.6130505 -3.513655 -4.7853293 1.1669729 -7.838291 6.4919972 -0.6390738 -1.7033399 -0.33696213 -1.9308531 1.6193238 2.6319902 -2.7062533 6.864128 -1.9753168 2.615509 -4.7220926 3.6375234 5.081105 -3.511279 4.246592 2.4994678 -9.73853 5.2591176 6.6404657 1.6388757 3.6079035 6.0032716 1.5025194 1.5972431 -2.9598682 -2.2792757
C22H22O7+H+ -0.43835077 0.18852699 -0.18146178 0.019085515 0.71991605 0.090887755 0.05618771 1.9125627 2.6379018 -2.1065454 0.40626693 0.84383583 0.90248084 0.42256096 0.5563142 1.4580859 -0.5621628 1.9147184 0.28946775 1.6455971 -0.29566902 -2.205435 -0.46730295 0.65727943 -2.01142 0.034374595 -3.374436 -0.8853638 0.3308657 0.39204326 -0.9443631 0.566262 -0.41431448 0.33941725 -1.1289756 -0.68992156 -1.1370168 -2.2763376 -1.7884427 1.5162414 -1.5764238 0.92726254 1.5042658 -0.62461495 -0.42390904 1.4570761 -0.41780686 0.104654394 -0.48490232 -0.7213166
C10H7NO3+Na+ -0.7617932 -3.0087168 -3.350874 -0.8579982 3.3446033 -1.8414087 -0.06313084 2.2590044 0.73167145 -2.0931444 -0.3421538 0.5666421 1.358831 0.17150152 -1.1498116 2.471683 0.97939396 2.290015 2.1011596 2.9701445 -3.4662108 -0.9220782 -2.0058277 -1.6698638 0.867412 0.7951282 -0.22981963 -0.9870152 -1.2484992 1.8349701 0.26318258 3.1579762 2.519427 -3.0571158 4.152014 -0.61832905 2.4648347 1.8201106 -0.6016607 -0.25917917 -1.9878663 -0.3797229 2.4963522 -0.59058553 1.0140227 5.987301 3.5317802 0.028085155 -0.96592057 -2.6327503
C8H20NO6P+H+ -2.3176932 -0.25942364 0.0077439263 1.7839783 2.2756977 -0.90093094 1.1983145 -2.0364294 2.7390654 -0.48094034 -0.96573615 0.98891187 1.7026055 -2.8303285 1.6449766 -1.96798 -0.5057284 0.35990378 1.6104653 3.7889757 -1.8601719 -0.29519176 1.4818347 -2.3272479 1.1529483 0.497758 0.10984512 -0.5287642 0.692436 -2.8729787 -0.8583102 4.0564003 -0.5367929 0.322643 -1.8178703 1.6443524 -3.8015325 1.8786947 -3.6291735 -2.6016397 -3.4125338 -2.550794 -1.5941933 -2.5202408 2.9778574 3.6309326 2.3712218 -3.5497434 -0.50901335 -0.8210009
C10H7NO3+K+ -1.4233034 3.2499774 1.7032434 1.0489631 -2.9470358 3.4540234 1.6786387 -6.461543 -1.8918368 2.6904914 0.84913516 -0.70494354 -0.14435688 -3.3238428 -1.2306049 -1.7868944 -1.9929433 6.4482813 -0.8062937 0.14954464 4.034324 1.7732999 2.8223135 0.9427401 -2.5161362 -0.5042343 -1.657462 -0.3827046 -0.88001937 -2.8244743 1.7194849 -0.0206322 -4.5147424 3.990163 -4.6894693 1.8453282 -2.6806285 -2.291569 1.5156024 0.078124106 2.599122 -0.5336142 -4.339207 0.6224014 1.1511264 -0.28291407 0.18223871 -2.2722862 2.3942013 -0.876423
C11H20N2O3+H+ -2.986546 2.079341 0.17352584 -0.08007479 5.594107 -0.16938521 1.9774852 -0.29264173 -0.06606685 -2.1338632 1.0115453 1.7759607 0.39912727 1.6416824 -1.1140983 0.11133032 -2.089586 4.9726157 0.7899097 2.7465055 -3.959401 -0.4017642 -3.6886687 -0.59438014 1.7849147 -1.2636318 0.5326385 -2.0382607 0.32434782 0.4997495 -0.9200155 4.644163 1.8408604 -0.84004384 0.9108537 3.8573465 1.6279356 -0.60104287 -1.4751374 0.66620225 0.3913663 0.84519356 -0.6005802 1.2466371 -0.5761134 2.552855 2.8025427 3.3053813 0.5946754 -1.8609865
C8H17NO2+H+ -1.0995804 -0.59283274 -0.47541875 -0.63368434 0.42457145 2.307726 2.5005903 -2.3029826 -0.35288516 -0.63058823 1.6374847 -0.4597637 0.7358437 0.7329704 -1.3012662 0.44773382 -2.3177862 4.604524 -1.2797103 -2.911837 -1.2073641 0.7510488 -2.6175032 0.6478549 0.15276414 1.1195918 0.7241146 1.8957778 -1.3600199 -1.7640862 1.0961856 2.847255 1.7403036 -0.062775195 1.1899878 0.7357843 2.0384123 -1.6065907 2.3520205 -0.26937875 3.7139578 0.6848884 0.8269612 1.6937157 -0.48234665 -1.1062099 1.5068402 2.5553916 1.723851 -1.2811704
C10H11NO+Na+ -1.0470121 -2.2624602 2.1199088 -0.06337084 1.4979511 -1.0520579 -3.283047 -0.55581135 -0.12166104 -0.3393859 -0.139598 0.2538559 -0.05762683 -1.2797356 -0.90567267 -0.55639863 0.4457091 0.74489856 1.9493955 0.81880444 0.97159237 -2.9237635 1.5797645 0.32062662 -0.63256633 1.5048985 -2.544534 0.041541558 -1.7227098 1.0478567 -1.5315797 -0.6746743 0.5028642 0.11091207 -1.6590605 0.73131853 -0.8557012 1.4257854 -0.60399425 -1.1653426 -2.9628751 -2.9302857 -0.32007092 -0.93395436 0.30958816 1.2657679 1.1893061 0.46150953 0.50624686 -0.4738676
C29H47NO4+Na+ -2.6140256 6.058109 4.5929227 3.702789 0.80853987 6.4617953 -1.0113132 4.869826 2.7259784 -5.5111213 4.222133 -3.4230382 3.6241724 0.3725698 -1.2399395 5.1072693 -1.4085793 1.5910102 0.49486083 -0.5263363 -1.6212347 0.64659506 0.3892695 1.340146 -4.47508 1.2798548 -0.51884973 -2.858631 4.3236427 2.787128 -1.6882089 -2.3807147 -0.6127825 0.71446484 -1.4003135 -0.8532217 3.4996793 -0.1270089 -2.3813221 0.8488359 -3.272872 -1.5435803 -1.4478129 -3.516674 -4.5946393 0.43662208 -2.050915 3.1058123 -0.67526215 2.4067612
C9H20N2O2+H+ -0.7305091 0.16629381 1.6231081 0.779397 2.3699071 2.293799 -0.34733897 0.88216585 -3.3070304 -1.4106013 0.7783974 0.25366268 3.1612632 -1.350417 -0.065805696 -0.864378 0.53686756 1.400231 1.1228768 -2.536086 -1.0668858 -2.165084 -3.2701738 2.719548 0.82186663 -0.2995672 2.9914227 0.5114521 -1.3202873 3.526128 -1.4200946 -0.773123 1.4072253 -1.1948593 0.8840977 -2.1600394 -0.17223749 3.9455028 0.93776894 -0.75604 -4.4123244 -2.3762908 -0.5679801 0.5900232 -0.51368254 6.1088686 5.095297 0.72789866 2.7546077 -2.0659926
C7H15NO3+K+ 0.86001134 -0.19178376 1.333036 -1.9775307 2.439328 -0.61784667 -0.66160715 -1.7851088 -0.13212092 0.056072358 1.0819976 -0.42606404 0.15684214 -2.2070003 -1.0812666 -0.6616018 -1.5881797 1.5590961 0.8898388 -1.0515527 0.80643564 -0.9469085 -0.61804706 -2.4778295 0.5623809 -0.6877082 1.4043746 -1.4095801 0.6667178 1.9636925 0.3642137 1.2656875 0.64349174 -0.45975378 -0.6705426 -1.1382244 -0.8231298 0.91774106 -0.8390819 -0.05516177 0.005752165 -2.5658703 -1.3678352 -0.4055698 -0.64273375 2.5433872 4.331562 -0.44590425 0.6932343 -2.0002046
C26H50NO7P+H+ 1.2540028 -1.133775 2.2357311 -1.3927032 1.0538675 -3.1374094 -3.9635782 0.9606 1.1230258 0.19355015 -1.4707521 0.02943551 2.5400581 -1.8883868 0.046056114 -1.2298954 2.970681 -2.1703336 2.3536549 1.3394831 -0.75760126 0.07866383 -0.15894708 -0.13285707 2.130921 2.379647 -1.384593 -2.8407223 -2.038743 1.4140067 -3.4033391 -3.042322 -0.14732467 0.15627834 0.23521395 -0.5085495 -0.41878074 1.5378731 -0.66202706 -1.364963 -2.8101184 -1.0938791 2.0484626 -1.4467374 -0.18176323 1.4113021 -1.7046269 1.7248302 -0.13913916 0.5649919
C13H17NO3+Na+ -1.2816887 -1.5782914 -3.7980936 0.76508677 -1.7012597 -0.74296033 0.8980237 0.95432514 3.8809967 -1.1891083 -2.719888 -1.1994292 -2.650341 1.6611398 -1.6140767 1.6153092 -2.5755396 1.8789659 0.37132 -0.8130368 0.68083227 3.8194346 -0.47595334 0.64850986 -2.1763742 -2.4772778 -1.1726859 -0.42034712 0.72177416 -1.4077659 -0.26121715 2.8328748 -0.52947605 3.2382617 0.94500434 1.2547542 0.35295352 -1.9914299 2.90501 1.2033443 0.594701 2.589151 1.9053473 1.2054085 -2.0359771 -3.4738154 -2.3823774 2.7054205 -2.9322133 0.58122504
C10H16N4O3+H+ -4.6496234 0.6984463 -1.4189781 3.8817298 -3.8783123 2.752924 2.3648627 -4.126876 1.6809833 -2.746478 -0.5768952 0.36687544 -2.4206629 0.14369494 -0.44450384 1.5702534 -2.5077186 6.0787773 -0.59577006 -2.8646038 0.36502507 -1.5327849 -1.3517433 4.164113 -5.181434 -3.9427576 -0.7234182 1.1205348 1.3325043 -0.8407154 -0.35858113 5.120164 -0.57489777 0.98904485 -1.8838252 3.651231 -1.4871227 -7.125243 2.2391772 0.51969033 -1.5392296 1.1176034 0.96277934 -1.8038677 -0.23349912 -3.8319135 2.049431 1.2115602 -0.86055523 -1.1544611
C8H20NO6P+K+ 0.8057331 0.16867372 1.9623357 0.47564209 0.7790631 -0.97874063 -0.32019132 -0.4170099 -2.7621982 1.2908431 -1.0156446 -0.8311739 -2.3531928 0.4957063 -0.9099779 -1.3053674 -2.5744386 -4.789861 -1.2251244 -1.6606485 -0.6276547 -1.4253538 -1.3529181 0.762989 1.1749334 0.23558311 -0.8175626 2.0915601 0.41240668 0.5018118 -2.8173776 1.2303596 -2.797766 1.4635779 -3.351629 -0.047211185 1.6129948 0.02317683 0.4325782 1.1460811 1.5585825 -0.55502886 1.097814 2.8536518 -1.4867405 -3.1006417 -3.5010796 1.2526392 0.84173614 2.6044025
C26H52NO6P+H+ 2.4725425 0.49970993 -1.2297862 -0.011518937 -2.6826262 4.97349 -0.05874122 0.3984368 -0.13073757 -2.258478 0.6986216 1.4656451 3.009979 -0.22048831 0.1448729 1.1533195 -2.0158696 3.6899066 2.0928774 -1.5985409 2.1733444 -1.383473 -1.9421289 0.44340652 -1.0094202 -1.7657113 -1.0551772 2.140386 -0.26381272 0.9321413 -1.1954477 -0.66378397 -2.5866404 0.531627 -0.29714867 -0.6422239 1.0115665 1.9192064 2.0803897 1.8886793 0.1727104 2.203232 0.16870959 -0.9875593 -1.9304512 2.9758801 2.336128 0.02874293 -1.0012419 0.20903544
C10H19NO4+H+ -3.0953798 5.3121004 -2.0319426 1.4155955 -2.5313554 3.0060716 5.4901295 -0.29966566 -0.51361597 -3.5590875 2.1403751 2.8097637 -0.85108805 3.4761064 3.9719367 1.5984199 -2.0733807 8.213185 -0.2017583 -2.6034162 -2.8037043 1.0907801 -4.2032986 2.8811467 -1.064126 0.8407108 1.6910654 -2.598085 2.8558729 -1.5162876 1.1163306 0.7059122 0.8739454 1.4455338 -1.7104961 5.915733 -0.15196058 -2.3771648 2.725091 0.917854 -1.971191 3.8096237 1.0323149 3.3830452 2.5081015 2.2020233 4.135066 3.7695334 -1.0743104 -1.350947
C8H20NO6P+Na+ 1.4598162 -0.21818131 -0.123688936 -0.90623224 -4.3273907 0.8256138 -1.3530757 -1.3712941 -0.7993351 2.2810388 -0.8940678 -0.27393866 -2.4012709 -0.83063984 1.4143335 1.092685 1.76355 -2.8930829 -1.0144678 -5.9319906 1.2522621 0.64945525 0.25666526 -0.4309753 -1.0591013 0.9423303 2.4969964 1.0382282 0.7589868 2.5792234 -0.77278066 -3.7154906 1.0244796 0.5598175 -0.07436974 -1.1731126 -0.31451306 0.05812498 5.1021123 -0.054389518 -1.8383472 -0.0917925 0.65014124 -0.539653 -0.47114274 -0.88205534 0.34627852 1.2932295 -0.7715464 0.19514273
C10H11NO2+Na+ 3.582499 2.5862768 -0.69181454 0.075544976 1.8535966 4.1836905 0.7762631 -1.274139 1.3716686 0.2362767 1.1252304 -5.073347 0.51268965 -1.29149 0.66224754 0.40376064 1.4467531 -1.3492926 0.86719626 -0.06961875 -3.7244031 -0.4818571 -1.6050354 2.9100862 1.2931997 1.2233856 -3.3782642 0.8545976 0.8488658 1.5583937 0.015611063 3.2069938 -0.08168087 -1.5801181 -2.175919 -1.8801187 1.2937262 -1.4673882 0.74786144 -0.44799113 1.278435 -2.1112301 -1.0675024 -1.8635682 -2.3455653 1.0726874 -0.8727546 -0.7215266 2.0567486 0.74210113
C37H68O4+H+ -3.0509684 9.531524 8.380295 7.294112 -4.0976286 10.202396 0.029721247 4.3559303 3.1694746 -3.8049686 1.8973953 -2.0715666 4.0747404 -0.4916319 -0.2531835 8.076813 -0.7638219 8.132625 -2.8025446 4.0362854 -4.9535203 -2.122918 2.7379642 -0.018257786 -2.2076557 2.2805295 -0.9451757 0.43670836 0.21753462 -5.3966866 1.2487783 5.1353555 -4.7920313 2.5950568 -0.86236495 -1.1276288 6.20386 -4.6134763 -3.589195 -0.30118468 -1.5803838 -5.205473 -3.7684543 -3.760898 -2.4180884 2.1242166 0.5892169 -0.76588476 1.4185326 4.841612
C7H6O4+Na+ 1.093092 -2.8476708 0.03057874 2.9056275 0.90852433 -4.689155 -0.73747087 0.3570552 2.0410626 3.0288165 0.07966582 -1.3849046 1.3904558 1.7205726 -1.6741548 -0.014231814 -3.440433 -3.4916244 1.8047394 -1.7935116 2.997835 -2.508858 -0.2482267 1.0333922 -5.1223955 -2.5426254 0.5674595 2.0146809 -1.0859704 3.116502 0.8546323 0.49935934 0.1458666 0.3356057 2.3419657 1.5162686 0.7650045 -1.955301 -0.31186476 1.8519224 0.60926056 5.0725894 0.15502205 2.68011 -1.4706066 2.939673 0.069339894 0.7649685 -4.056977 -2.519679
C15H28O4+K+ 0.20404819 0.8680655 -0.3343223 0.77678573 -2.560794 0.92431295 -0.0050670183 -1.5773953 1.1408371 0.5706308 -0.32773492 0.51124436 -0.8113567 -0.29777837 1.5479412 0.20875728 0.9174757 0.33233154 0.34958625 -1.4196036 -0.8304802 1.3539389 1.6589694 -2.295019 -0.22879359 -0.23180592 0.67991126 2.8569553 1.7336415 -0.103317924 -1.5896424 1.3018456 1.158155 2.4790204 0.34677818 0.7656386 -0.9040627 0.8666563 1.3942473 1.61065 -0.72724235 0.98889524 -1.5155681 -1.8512359 -0.07270036 0.03792801 0.38252804 1.1062263 -0.80824447 -1.323447
C35H66O4+H+ -3.8362136 6.1746573 5.0752325 6.7412066 -0.25096962 6.1884346 -0.8397926 5.9464417 9.410292 -11.6945 1.1232744 0.3593551 7.720718 1.0471622 -1.9637864 5.1570277 -4.789069 14.114707 1.4871736 -1.0874268 -0.4820432 0.78570443 1.427437 -0.21189593 -4.4398236 3.409026 -8.531373 4.280208 -0.19228691 0.26494533 0.050977 6.574286 -3.709639 7.0929666 -3.2205737 -2.1200354 5.827459 -2.985465 1.0301058 2.1596167 -4.1270466 -2.6188204 -4.366742 -6.0652156 -8.682347 4.05971 -1.7148728 1.5376799 2.8715644 3.518473
C7H6O4+H+ 0.53302824 -0.13786669 1.8887912 2.9281938 -2.5391057 2.2250676 -3.4169586 -0.1602809 -0.57491344 -0.93649924 -0.8608592 -4.0943294 -1.207218 -0.48803708 -3.0297258 5.325243 0.93793005 0.4601758 2.3999314 0.09460696 -3.4978943 0.9924574 2.7756896 3.0089295 -4.6820884 4.614926 -0.51698196 -1.4074646 -0.34271953 -0.7107301 1.5035084 1.2902532 -1.4416298 -0.7584015 -0.54027003 0.69686425 4.364824 -1.7475011 0.202482 -0.5469081 -4.1377735 -1.2739002 0.47996926 0.23848447 -3.6351616 1.0784515 -0.8372513 -1.0456463 -2.2503533 1.3086901
C18H24O3+Na+ 1.1050265 -1.0491556 2.003715 -0.9705273 1.9176034 1.2647626 0.094941415 0.23892163 0.33289027 -1.1671122 0.50369954 -1.4202207 -0.4241897 0.38108107 -0.59938174 1.0585809 -2.2910004 0.8579244 0.8859553 -2.500789 -1.8924825 -1.2078867 0.42026624 -1.2689279 0.69654065 0.06961694 -1.5587411 0.92546153 0.000285857 -1.118898 -1.878702 1.6332608 -0.4169578 0.68431574 -0.107333966 -1.2685406 1.3265448 0.1208293 -0.11708097 1.0922365 -0.33191505 -3.3445363 0.46345004 -0.30388898 -2.3748274 -1.5322313 1.5508151 -0.2229801 -0.7850946 1.5324367
C13H8F2O3+Na+ -1.2757409 0.37787068 -5.9232574 0.84668595 -1.186138 -1.8490113 1.5659232 -1.028751 -2.6519177 3.470321 -1.5493542 2.5577314 -2.5189688 0.8899165 -0.37201822 -1.5994997 -1.8671808 0.38384613 -0.13212395 0.22106375 3.6565516 -1.0980655 0.97031724 0.136048 1.3215172 -0.75079834 -4.1251597 -1.3789188 -1.3505961 -1.3050975 0.14162244 -1.0970025 0.49199247 -1.3130769 0.65655375 1.1977882 -4.437017 0.24207398 1.0972557 -2.0841863 2.0930974 -2.7252455 0.2683874 2.1743364 3.6860974 -4.4568233 4.350628 -0.08275087 1.8511314 1.773017
C11H8O5+H+ 0.43621826 1.21723 -2.3522618 1.5832881 0.6655152 -1.5183702 -4.5297084 -0.88490456 0.060484327 -1.1870931 0.6990478 4.2897334 0.7187343 0.7230022 -1.6119963 1.2472352 -0.45801756 4.0554533 -0.434049 2.0059576 1.8776252 -0.44463408 -3.0209165 4.352701 2.8825746 1.0784253 -4.4556146 4.2205634 -3.25497 2.9042358 3.0175679 -1.9381765 1.4145299 1.9953418 -2.3104224 -1.2559992 -2.721325 3.385832 1.0901769 -2.3262866 1.3003488 -1.4010377 -0.16201149 -1.9170076 0.86809653 -1.6761187 1.2465239 2.6045005 3.673056 0.7663068
C14H10O6+H+ 0.20922272 1.7642335 2.64181 0.26130706 0.3623711 -0.24324188 -1.1647494 -0.11138594 2.4163883 -4.7127395 2.6374702 -0.44392395 3.9354599 -0.21545117 -0.27087158 -0.9281876 0.070822604 2.2119904 -1.9001313 -1.162996 0.7761645 -1.6176634 0.32132617 -0.5264246 -3.3574343 0.6481599 2.3011343 -0.5165696 -1.5861173 0.39584398 1.0170014 -1.1825336 -0.3284123 0.70343626 -1.0487643 1.0967119 2.660478 -1.2906137 -0.4745667 -0.25430816 0.9004256 2.5247676 0.67277527 -1.1864018 -4.834792 0.41812629 -2.210614 0.9060029 0.27225402 -0.031136695
C24H32O5+Na+ 0.9503801 0.7577639 0.6023034 1.1368642 0.13748106 0.3200929 -0.8386718 0.9410209 -0.9163835 0.3410167 -0.37791842 -1.9652501 -0.22526455 -1.242826 0.6203357 -1.3512751 1.0289648 -2.0906365 2.1527526 0.11386403 -2.0002446 -1.9971523 -0.46658662 0.9862857 2.0216222 1.7840519 -2.4622545 -0.03879257 -0.8642446 0.41593483 -0.29764962 2.2473667 -0.09237307 0.18546425 -3.2882373 -1.6133672 1.7629054 0.049550768 -0.113769315 0.6609721 -1.2532644 -1.7340307 1.5110246 0.14068756 -1.4066703 -0.5908048 0.6484867 1.0133082 1.8146857 1.7296358
C15H10O6+H+ 2.2139392 1.284028 -0.4136274 6.190839 -0.43322194 4.144479 -1.7021981 2.4828157 0.8153604 -0.19454844 -1.9419335 -2.161343 2.4449987 -1.3457032 -1.4032749 3.9841497 -0.061317865 -2.1090007 1.3558689 0.28572947 -0.99280167 2.843355 2.3867047 -1.9593534 -2.3463283 1.6553532 -3.447982 -0.024546202 -2.6502333 0.60582817 -1.3120747 5.4122157 3.6276724 1.5789715 3.8366714 -3.1203334 3.8565037 -0.8494563 -1.8428057 0.14013818 -1.8346514 -2.8018587 -0.9938808 -5.110665 0.9023989 3.5515568 -2.3527408 -2.9932528 -0.91079485 0.59986764
C37H66O4+H+ -1.4032173 3.5537617 3.6901112 -0.9937825 -2.7338986 3.8773615 0.10868516 -0.84511924 4.952198 -5.706924 0.73383975 -0.35211357 4.3234344 1.3204563 -3.0765767 3.414866 -1.8786943 7.065949 -3.0836434 1.7467283 -0.35382807 -1.6149507 -3.2986445 0.63933736 -2.224175 -0.8419952 1.5248075 2.452997 6.0587487 -0.52379096 -0.32853073 1.2545457 -7.4650226 -0.634469 1.8103758 3.1866517 2.2335052 -2.026746 0.036889102 1.7146417 0.359265 2.0545626 0.45726103 -1.6953065 -5.5425825 -0.03535547 -0.5292256 3.383013 -2.5951362 1.7635144
C10H14N5O7P+H+ -0.14790618 2.9795392 -2.7435553 -1.4965172 0.68356496 4.1228375 3.0623682 1.283249 -0.024915278 -3.5700073 -1.4373767 0.03764827 0.9613168 -0.69295084 -1.9875656 -1.8870989 -0.03215724 -0.80897164 -2.070275 -0.38171875 -0.12291315 2.160079 4.0989566 -3.8692722 0.53042895 1.1599107 2.430932 -3.4093313 0.44510493 1.3391279 -3.6636531 -2.813627 -0.6772342 -2.699862 2.9527078 0.022593506 -4.105747 1.398835 1.5534846 -3.0784824 2.1470954 -7.535783 -3.3909695 -1.2199562 -2.4739473 -2.2504303 3.033265 -0.9868369 0.6218347 4.5531034
C10H15N5O10P2+H+ 2.1712127 -2.0904608 2.8883607 1.8655357 -0.8428732 -3.5262501 -3.3187099 0.98412424 2.3868427 1.9726511 1.8377247 -2.314493 0.73789924 -0.54191005 1.521028 0.009884811 -0.52175283 -2.382159 -0.30405656 -0.113529816 2.0904706 -1.0336481 -6.183535 2.836098 -1.6744193 0.13729686 2.1140063 -0.07019418 0.21059719 -2.3003004 2.938514 -0.6293536 -0.4004013 0.3392269 -0.19043332 -1.4522521 5.104262 0.051567353 -2.685687 0.85115206 -4.1581497 7.4123983 4.8198795 -2.6293888 2.0896955 0.13069649 -4.966676 -0.24543624 0.5837719 -2.9281394
C15H16O9S+K+ -0.4668414 -0.6987716 0.014921519 1.6430706 -2.0118086 -0.62829125 -1.8273188 0.3461808 0.8803291 -0.785115 -0.70668435 0.50591487 2.1911745 0.32632214 -0.42249575 0.07507444 1.6091399 1.5268382 3.268456 3.1224058 0.97268134 -0.9822778 0.19049142 0.5331767 1.1578755 -1.2827898 -0.20354034 1.4266427 0.73809594 2.8367655 -3.6275206 -0.14770351 -0.871183 1.9817588 0.6120536 1.1958086 -1.2706512 0.9483361 -0.7990458 0.7151266 -1.2137477 1.4476397 0.98000365 -0.71522886 0.16069792 1.127303 -0.62962914 0.5762317 -0.95300376 -1.7839848
C12H20N2O3+H+ 0.17077373 -0.6254167 -0.033104382 0.031356238 -0.82184523 -1.1648564 -0.65895945 -0.84667706 -1.3873852 -0.67227846 0.39937878 1.0127609 -0.9872419 0.6602155 -1.5754633 0.6566116 0.3389312 -0.19030002 1.8630579 0.3461099 -1.5057586 -0.32636395 0.8397016 1.7531269 0.053400144 -0.44724151 -0.887495 1.8002667 -0.047000866 1.9164033 1.3876982 -0.9136949 -1.2942362 0.26878828 -0.18340445 0.1311721 0.8416224 0.8480003 0.09763809 0.63535863 -0.15515734 -0.059121802 -0.6465376 -0.8804423 1.0695529 -1.573639 0.6530658 0.46726933 -1.1603758 -0.054695465
C9H14N4O3+K+ -2.9041164 0.6093554 -4.961695 -0.72102696 0.08728434 -4.960204 -1.2267325 -0.78296256 -0.58427423 2.320067 -5.2048 -0.012580366 -7.170202 0.53512055 -0.8166543 -1.9154503 0.77933764 -6.399096 -5.02073 -2.9034874 -1.9246948 3.8102436 1.8584386 1.7198792 -1.2429268 2.5625997 1.3562745 -2.3265069 1.0108544 -3.9143014 1.9971544 -3.9377196 1.7180116 0.8607452 1.7207417 1.7942787 -2.884226 2.4623454 4.013327 -4.036482 -2.4677982 -2.4878302 -0.57946765 2.393602 0.90025 -5.616898 -1.9535253 3.9116044 1.4161738 3.8515933
C26H52NO7P+H+ -3.624 -4.322736 0.7504228 0.13066639 2.5114048 -1.2399654 -0.8179996 -1.448925 3.7168097 -1.7385828 -1.164926 2.0548372 2.6501274 0.3740185 1.828011 0.39911845 -0.97013134 0.81636477 1.8046868 -1.7810166 -1.7584841 0.391743 2.356132 1.6103922 0.5555065 -0.013467626 -1.1173073 1.6011347 -1.7527986 -1.5645982 -2.3441596 0.416532 -0.68119556 -0.9267257 -0.2721625 -0.23720093 -2.7306528 -2.965143 -0.94861275 -1.9360691 1.0653045 -0.15420708 0.89173156 0.88327837 -2.5689757 1.5717502 -0.08781698 -1.0187129 -1.6119448 1.274772
C24H50NO7P+K+ -0.7773549 1.317196 0.14845581 -2.3878415 -1.16295 -0.7479933 0.7476534 0.85353047 0.42135793 1.7992857 2.1467896 3.1044302 -3.4573312 0.78853184 -2.1660256 -0.9006601 -0.26027587 2.2427304 -1.0289308 3.507418 0.44257644 3.347175 7.9767976 -5.220729 1.0836097 3.1630037 -5.9312797 0.25229666 0.13391772 -5.2196608 2.2598011 -2.316992 -1.5966552 3.0800803 -3.477378 2.8359816 -1.8924621 0.15750694 -0.89209896 2.5828 6.944718 1.6530908 -2.8263512 4.410927 2.9359994 -4.1212616 -1.8497313 3.3375418 -0.87241715 0.021181447
C10H16N5O13P3+H+ 2.162979 -2.4967518 -1.9458134 -0.11501797 -1.5531774 -3.5654984 0.90097094 -0.9807278 -1.1448019 0.9468498 -0.14534047 -0.018910877 -0.13078313 -0.84001863 1.8535228 -1.7941529 0.3991574 -4.1333156 2.1956904 -2.4322839 -0.7721098 2.6689825 -0.9818636 -0.39589906 1.6285163 2.7437036 4.4007845 -2.2429502 0.4391653 0.32180086 -1.076366 -2.0179741 0.67685384 -0.08273241 0.053914014 -0.17079017 -1.3213321 2.0609834 0.9544666 -1.7646925 -1.3239198 1.7635739 2.227191 0.560165 2.4010007 -0.91431344 0.7456941 -1.5507383 -1.2697659 -1.2278548
C9H14N4O3+H+ 0.4812614 1.2525494 0.6493618 -3.5181396 -3.878123 -2.9879675 0.96559966 -4.5111794 -1.0432943 -0.50241315 1.7922215 -0.31521443 -0.48882505 0.98845893 1.0297701 -3.8401146 2.8115125 -0.6697794 -2.1252108 -0.12143593 2.7674701 -4.5007305 -4.869791 3.9575984 2.0829103 -2.3024993 6.5779305 -0.40462947 4.717508 1.3920175 3.5213537 -5.8943353 -4.903237 -0.7902769 -1.0086181 5.206196 1.4393505 0.39051485 0.76401144 -0.95508504 0.41796207 7.2132435 1.8477278 1.66619 0.6634234 -3.1067882 -0.39964604 1.066324 -0.32565644 -1.9168489
C23H45NO4+H+ 0.3417533 -0.48343748 0.58354145 1.3158131 1.4228133 -1.8777468 0.29320332 -2.5171926 -3.148846 -0.90071654 -1.6251696 -2.25709 2.5842025 -0.977362 2.1649742 -0.91575766 -2.0583026 0.3715216 1.6048789 -2.020642 -0.038665894 -3.341197 -5.9769163 3.774689 0.99603546 1.2269406 3.5819123 -2.053065 -0.7782129 3.8751245 -2.5507867 1.2594086 -1.7696309 -0.40932876 -0.37023896 0.55790246 1.070086 2.4811568 1.6417524 -3.2436593 -4.333862 -3.1265848 3.5379262 0.4747278 0.91919047 4.578033 3.2100294 -1.7964228 0.3388796 0.7420885
C11H21NO5+H+ 0.65456825 -2.8189635 -0.5473435 -0.81446964 1.2216692 -2.4576132 -0.9743147 0.91917133 -4.6069384 0.3294123 0.50454676 -0.7285476 -0.4113003 1.8510714 -0.34297875 -0.49801224 3.05254 -2.1404638 0.9864248 0.4165815 0.030204814 0.32366282 2.5770814 1.7105504 1.5045217 -0.6792687 1.7603492 -2.3419757 -2.7182245 2.3171897 -1.1900601 -3.675008 1.7831297 -2.9745114 4.263872 0.52296877 0.2669302 1.4641122 -0.12148186 -1.2895007 2.287608 -1.4450052 1.2825335 2.1358087 0.8317389 -2.3616402 0.6201298 -0.29493675 -1.7374974 0.4045651
C9H15N3O2+H+ 0.53802377 -3.4553819 -2.337338 -0.92254835 -2.143915 -3.5414894 -0.86600935 -1.8430754 -2.0867743 -1.9506817 -1.4174933 1.9443239 -1.2525835 -2.252588 1.6722229 -2.499994 1.4590962 -2.705377 1.8233484 -2.9578202 -1.1876177 3.706698 -0.61412346 -0.60296047 4.019155 1.4682065 4.326261 -1.2397829 -0.17279027 -1.5808535 -2.5441918 -1.5257998 1.2620684 -0.6346965 -0.42268652 0.6253377 -1.7331952 3.522785 0.7501456 -3.0275633 -1.1992701 0.08530163 2.9677482 -0.91957647 2.603828 -2.7756126 1.8939886 -1.2067742 -0.11278899 -0.21670413
C6H12O6+K+ -2.672517 -0.26884755 0.7251362 2.1398492 0.42762986 3.2564013 1.5930954 1.2453294 -0.73778844 -5.2008348 0.8770744 1.3458371 0.5924851 -0.81292206 2.4194574 3.2909124 -0.7262919 7.410301 2.326101 -2.5828776 -3.1128626 -2.5826676 -2.330319 6.346371 -5.6168566 -3.5124018 -2.920006 3.976437 -1.6368219 2.6585412 -2.0447297 1.2519218 -0.15418638 0.6896381 -0.698346 -0.5143053 -2.253126 -1.3137615 1.080317 3.8231044 -6.745487 -0.018282143 -2.9702392 -2.2623408 -0.3369463 8.889495 4.40621 -0.061235044 -0.061174512 -3.5958784
C28H33O14+Na+ -0.30343586 2.5160978 0.55448925 4.9957986 -2.2859619 2.5961218 3.2616215 3.4343107 0.5981316 -2.1359963 0.20645165 -0.055104382 -0.36862373 1.3706815 3.5201354 2.4839954 -3.4852228 0.9427824 4.403454 -1.6347808 -0.6197232 0.11024865 -4.1104226 3.7026346 -2.5715225 -2.3724585 -3.2344418 -2.725661 3.356667 3.0650938 -3.449413 3.827931 -5.2363997 3.5018106 -7.502185 0.2545713 2.3434424 -3.2578862 0.6275973 5.138647 -6.8937554 5.640177 4.340144 1.9229918 0.11034221 3.6393523 -2.2864199 -0.6572049 -3.9262419 -0.7034688
C21H22O5+H+ -3.5371747 -2.3599148 3.418825 -0.2437314 -0.85936356 -2.2581053 -2.5732696 -0.008286139 -2.3449697 -0.5013801 -1.9939603 3.3243499 0.26395038 0.57539034 -1.194739 1.9811375 -1.012892 1.7720609 -1.7455658 0.4884292 2.1471903 -1.8837606 1.8254737 -0.89932853 -2.1190386 -6.0621295 4.466187 1.0639052 -1.1513752 -2.314444 0.41459408 -2.0492 -0.9007505 -0.053513993 4.1382475 2.4826517 0.022763412 2.9387116 -0.13654618 -0.5295898 -1.0031025 0.34701672 0.047441386 -0.40963027 0.77559537 -1.6457814 1.8821825 0.971831 -4.5451202 0.532635
C25H49NO4+H+ -1.318849 -1.6551502 0.471598 2.6329267 -1.8494818 4.915183 -0.91962427 -0.15934989 4.0125866 1.7302958 -1.6775912 1.7589515 -1.9146247 -2.8262029 -4.012798 -1.2350478 -2.1182387 -2.3773744 1.3140612 0.6975989 3.018897 1.1942642 1.7333122 -1.620574 1.2530768 -3.7269568 -5.3923197 2.0438533 -0.80134636 -0.7642992 -4.2459836 3.5091057 -6.719174 3.414578 -7.271976 -1.2955443 0.22658738 -2.178861 1.1910492 1.526467 -0.03345665 1.9133223 2.0119166 0.25241473 -1.836243 -3.7291656 -5.381256 -0.51183 -1.0042053 1.844859
C26H30O12+Na+ -0.22367013 6.4105577 -0.15527786 -2.0094335 -1.997401 3.0256326 4.441285 -2.7796082 8.127488 -2.4358017 -1.3345141 -1.0286824 4.620006 -0.36357546 0.9857463 4.4878125 -3.433848 9.265584 -0.8017807 -3.6067145 -3.967669 2.9681158 -6.4347773 -6.082487 -0.59620076 0.8748445 3.832249 -3.227214 5.2536454 -1.7348729 -1.6538249 6.6212864 2.2104957 5.7263656 2.1692207 0.61560255 -0.17114414 -5.530124 2.446123 1.6948919 -2.407114 0.5480339 0.53471893 -2.105255 -6.4546294 3.4459538 3.6932497 3.3389635 -0.58340114 -1.9741114
C25H47NO4+H+ -0.7301694 3.9951663 0.0026073165 -1.7938852 0.1947361 -0.30919987 4.046315 -2.0610619 -3.2119863 -1.8963482 2.1041546 -1.5207368 0.6951539 4.1970043 0.38673353 1.8527392 -1.4074625 7.4976625 -1.3626161 -2.0460367 -5.9888535 2.257008 2.9802244 -0.06350451 -1.6059489 2.425702 0.8992657 -0.39158008 2.0212128 -8.338127 3.1829076 -1.2292782 4.344114 1.6484973 6.0544634 3.7773793 -0.76213205 -1.7714759 -1.2300386 1.2813723 4.40413 -1.7675034 -3.6662953 2.0747983 -0.34303504 -3.8626869 3.5786777 1.7391237 0.47316206 0.06983694
C12H22O11+Na+ 0.5787772 8.319435 -3.6188285 4.087317 7.8343663 2.3386161 6.9789586 4.803197 -4.434934 -5.832074 -4.0350714 1.0629623 2.8561573 8.521941 5.7700043 2.8009856 -5.979728 4.000113 -1.1554606 -1.5545405 -4.7747135 5.886491 -9.815087 5.183034 -3.20754 -8.183786 1.8064002 -8.596865 -3.3341346 4.507878 -6.6615934 7.68776 -2.7001398 -0.16056556 5.643387 7.123095 8.044856 0.9002283 5.7267857 5.5022373 -1.2988962 6.9633107 2.0533714 5.2837343 -10.044259 7.074831 -1.0940692 6.0759087 -8.319166 6.5519433
C21H36O3+H+ 3.5938032 1.7383225 0.70002395 0.23561388 2.321454 1.3072329 -2.039467 1.0563285 -1.9581444 2.2480986 1.2853787 -6.3117414 -3.370949 1.0983526 -1.4722673 0.38929567 1.7406185 -1.046627 -1.4220778 3.104435 2.738259 -4.635004 -2.0288787 1.7294238 7.2521343 -8.406742 4.9905663 5.3859725 4.2407265 4.7360053 4.956255 -0.5788717 4.2985077 -0.59749454 0.77613556 0.22043975 2.1780634 5.2499657 0.8119296 -1.927328 4.889814 0.27526525 0.6534908 -0.7377402 6.2950377 -2.0713131 1.3695364 -1.6787512 0.977215 -5.3715196
C13H13N3+H+ 0.9123416 -2.2156124 -1.3560634 -5.4229875 0.9195579 -2.7472434 -2.7112203 -3.594848 -5.7929983 5.0216007 -1.7454232 3.951161 -4.8382974 -2.0217285 0.19195457 -1.332119 4.2920375 -4.5233407 -0.14217122 2.7837067 -5.118977 1.9889352 -0.37613904 0.3105255 3.9103534 -2.6173668 1.8295943 0.64673495 -0.266777 -4.4480767 0.5132048 -2.510843 1.9661055 -2.8478353 -0.04441047 1.565657 -3.1961274 3.0763035 -2.1298997 0.41357702 0.77674437 1.3838154 0.03066149 2.7206984 4.97573 2.4632273 1.3845831 0.38973254 -0.14406016 -2.3150594
C12H22O11+K+ -7.9903564 35.85389 17.28966 -0.8425307 -11.212999 -35.33183 -6.6710534 -7.1981125 16.075699 10.787943 -7.360279 -7.2465944 -8.101873 -10.372686 12.942497 6.075087 15.911302 3.665028 6.2265387 0.6281155 -30.69463 22.36099 -5.6934524 -7.8570676 -4.875645 30.557898 0.06402221 -22.64929 34.768692 -11.818851 14.642476 -5.3121023 11.820901 26.320684 -16.010744 11.898906 -3.2753973 -18.247814 -9.244596 6.2955747 -42.922146 8.06022 -11.001277 -10.83256 16.919733 23.478447 -13.027607 11.633305 11.685409 -19.104986
C15H18O10+Na+ 4.1466637 -20.976334 -13.935398 -6.3756185 11.791212 26.239443 10.302726 5.3159313 3.112526 -14.63248 5.3564415 13.139637 16.327507 6.5536957 -12.756674 -7.96462 -18.762142 7.612203 -16.895407 -1.5927707 30.447914 -15.33966 4.656347 -4.200822 7.302082 -21.98198 0.8330952 8.571647 -29.599234 2.608414 -7.3385477 3.1155624 -11.336558 -19.089323 15.628611 -8.961167 -7.730318 9.92648 6.4565816 -12.866315 44.522938 -12.839754 10.9212675 10.801556 -18.200504 -24.181356 18.82368 -4.1111455 -10.72356 22.8249
C35H64O4+H+ -0.7673935 -3.8057528 0.6588218 -6.3481345 1.4015265 3.7549877 12.638904 -3.387379 -1.2576936 3.2536986 -6.730606 -4.154626 0.68751645 -5.3383083 6.6576486 -5.0585537 4.554852 -13.885717 0.96983176 -5.1205735 -8.444925 3.8730128 -1.2245561 -9.554423 7.9122806 -3.5042372 7.2864885 -1.3515259 7.955807 -2.1000946 -9.296883 6.781179 -1.7303084 0.7562498 3.4431949 -0.5403027 3.9518273 4.358651 1.0364814 2.99543 -5.4256964 1.2988311 1.3306298 -2.8035696 5.5244203 6.7251244 -0.20517948 -5.659878 -6.2446012 -2.2645507
C15H22N2O4+H+ 1.2086501 15.177093 5.9907107 -3.142648 14.870334 10.282497 5.9624825 7.5783134 5.5014935 -15.290662 2.4789343 9.635085 11.845652 6.283157 0.11538601 0.5922214 -17.462055 25.832256 -2.0339653 -11.714124 -0.8179439 11.246159 -11.982344 0.73383147 -0.98497194 -12.622775 -3.3279743 -7.0053587 -8.039683 -4.168548 1.0049713 0.69632626 -6.2693543 1.9103845 2.5469391 10.423822 6.8688064 2.848899 7.955627 6.787591 6.11917 4.527932 -2.093313 8.531609 -13.615958 16.44308 11.137671 14.330083 -11.020219 11.575729
C18H32O16+K+ 0.056123547 -15.7893 7.761052 15.553423 -9.862872 1.1871605 -14.145618 -2.1278434 -13.48549 3.4915454 4.1016474 -7.6983314 -9.790355 -5.926485 -0.93038136 0.90402555 6.167963 -5.5538163 27.139332 4.2844 -1.2553539 -8.040395 5.324465 13.579844 -7.458755 -8.878832 -8.207683 27.52004 7.8822927 12.215761 -8.504783 6.5578666 -0.17155519 5.993375 -13.702279 -2.0645926 4.808966 6.7067604 -6.2255497 16.646004 -18.085104 10.311838 -7.732266 -11.905098 11.639064 11.205951 -7.747343 -8.181806 2.6730824 -21.522198
C29H40N8O5+H+ 1.9402884 -5.29657 -8.598177 -6.8921385 3.6416512 2.6284025 6.953196 -10.673066 -0.45762408 -0.5799536 -1.8993173 2.603994 1.2528731 -0.5806629 -1.7602229 -8.174918 -5.1819444 -8.461172 -13.519357 -3.266633 15.217598 -6.435131 7.612586 -8.473695 4.270071 -7.395524 4.811853 0.5397108 -3.4740553 2.8583486 1.3050959 -4.6538634 -2.5097697 -4.0058413 -2.7110186 -3.5888302 -12.815088 4.883347 -0.6205116 -8.364056 17.525373 -11.451562 4.357731 -1.8770788 -0.5908057 -16.726265 8.065317 -9.198454 -2.9168465 7.7580924
