36 50
C7H15NO3+H+ 1.0831978 0.3389529 -0.18094894 -1.7575892 -0.44527867 -0.58672434 -1.3632685 -0.27234384 0.16662289 1.0820385 -0.44159493 -2.0281246 -0.084966615 -0.82777315 0.41835594 0.7933193 -1.921642 -0.97150123 -0.85153 -0.58481985 0.12087898 -0.5233753 -0.9933825 -1.1074753 0.6831762 1.3070314 0.36730185 -0.2500668 0.06444192 0.2539521 -0.069065295 0.335596 -1.6051093 -1.6688962 0.24297427 -1.0821545 -0.37924713 2.072895 0.42308715 0.9069027 -0.08128531 -0.41201344 -0.5288562 -1.4974519 -0.91086286 -0.02197029 -0.2933166 -0.7562089 1.3036635 -0.97291124
C15H22N6O5S+H+ 0.7444078 -1.0016887 1.0317135 0.7407641 0.60053533 -0.7830686 -1.2626202 0.717337 0.4054313 -0.9121043 -0.8469226 -0.24567628 -0.27441454 1.0143045 -0.4031134 0.38108206 -0.556043 -1.1059833 -1.0192174 0.48783362 0.4360492 0.26689807 -0.09515138 -1.6487818 -1.090664 0.22868992 -0.9859192 0.27741852 -0.25109604 1.4829133 -1.1458899 0.6830664 0.5658869 0.77833295 -0.5486471 -0.5304159 -0.96194524 0.6932052 -2.1383286 -0.39208093 -0.55234575 -0.40746337 -0.8432725 -2.0140085 -0.5580523 -0.8242252 -1.7782723 0.14545245 -0.042257294 0.82572603
C24H50NO7P+H+ -1.8405206 0.7880744 -0.24676764 -0.15866137 -0.8251082 -0.80769414 0.27448335 -0.7601837 -0.76144934 0.9311006 -0.0070949076 -1.4653498 0.2613614 1.302845 0.17174351 -1.2597364 -0.6036286 -1.957005 -1.9415233 0.23504949 0.45414948 -1.56236 0.44921848 0.68762237 1.824125 -0.9667753 -0.0810061 0.7467513 0.10716601 0.16567838 -1.4188315 0.6684095 -0.28870514 -1.497405 -0.16369256 -1.2668778 -0.7879321 -1.2964346 -0.014030317 0.38064864 -0.5226115 -0.8959223 -1.7997457 -0.43589538 -0.40746173 -0.54726356 -0.33670554 -0.47977775 0.73711365 0.054260664
C4H9N3O2+K+ -0.17650488 0.19639648 1.2214222 -0.31383985 0.52207816 0.48614064 1.980447 0.6432772 -0.4311218 -0.4647666 0.90549505 -0.015013557 0.047663584 0.47858888 -1.2649171 0.55227965 0.75067925 -0.9928449 -0.8778568 0.43128577 0.63532597 0.590448 -0.004395256 0.2252365 -1.1510173 0.047787134 0.33440968 0.7099182 0.22153425 0.631547 -0.35499927 0.3400634 -0.41242966 -0.759482 0.065998 0.82406896 0.5348375 -0.6369848 0.84398836 -0.1581278 0.5813273 -0.8714149 -0.5948206 0.4987831 -0.32063845 0.28837463 -1.0511582 0.32330883 0.84764755 -0.55804414
C9H17NO4+H+ 0.26318058 0.45306084 -3.9983075e-05 0.5637945 -0.76893556 0.2517604 0.64264286 -0.42685127 0.043407533 -1.0189295 0.83512074 1.0045652 -0.026645012 0.7069522 2.2015932 0.7278919 -1.645162 -0.75211406 -0.98456496 -0.10700433 0.50669235 1.5827192 1.0462749 -0.42645013 0.25395742 -1.5827143 -0.63880265 -1.0369835 0.13441646 1.1141138 -0.020303287 -0.76275665 0.17770718 0.8350224 0.033537004 -0.7435544 -0.94627565 1.870069 2.341396 -1.1376296 -0.47653276 -1.3977977 -0.30085745 0.24330953 0.672167 -0.026769755 -0.63747483 0.58532405 -1.0563536 0.04603823
C11H21NO4+H+ 0.5251339 -0.0070770346 -0.8997229 1.207848 -1.6660072 1.4613025 0.3255181 -1.5795282 -1.0681915 -1.1171734 1.2427475 -0.22340313 1.132805 -1.5527905 0.2866073 0.9781971 -0.61095387 -0.6986295 -0.059061497 1.109571 0.1683484 0.79209584 1.6914343 1.4081609 1.1662309 1.8096217 1.7451507 -0.065607645 -1.4412397 0.06527705 -0.65038645 -1.713208 1.077712 0.77986306 -0.6678435 0.48592252 -1.4784118 -0.716728 -0.16168076 -0.14972535 -0.013142098 -1.8726709 -1.1768664 -0.43647513 -0.32117677 1.3918524 0.25423178 1.7497389 -0.9289139 -1.3500265
C22H22O7+H+ 1.1078912 0.088899575 -0.3332198 -0.716491 0.0069136503 -0.40869525 1.7968206 -1.8373944 0.029419072 0.9041476 1.1194515 0.12182883 0.37612003 1.157294 1.2923448 0.8992757 -1.3247808 0.27685276 -1.3162549 -2.032029 -0.44193947 -0.3160551 1.6212878 0.2782091 0.83371437 0.42568406 -0.22424218 -0.10867133 1.2121103 -0.4555636 0.49477237 0.26695594 -1.4259046 -0.72203994 0.92808884 -0.67283046 -0.5451508 2.2096522 0.822753 0.42114782 2.1919708 1.8488585 0.21582167 -0.16682543 -1.5467551 1.2374675 -1.9573954 0.23526713 1.2576075 0.2916634
C8H20NO6P+H+ -0.3305649 -0.034224883 0.48458526 -0.8693721 0.952356 1.3485744 0.0939133 0.37335113 -1.8646017 -0.16016987 -0.124949515 -0.40421033 -0.9468867 0.45338115 -0.2108567 -0.262463 -1.3412207 -0.8589094 0.5048391 0.12605105 -0.9407684 0.87444353 -1.1398218 -0.52735215 -0.08848112 0.63573736 -0.12407968 1.9959314 -0.22225873 -0.3709418 0.6486594 0.92638963 0.5530284 1.1650658 -0.056511525 0.11912394 0.5151291 -0.3907517 0.8139687 -0.7085218 -0.04579136 -1.7861918 0.69972396 -0.19844979 0.20596872 0.20495448 -0.64911646 -0.33500373 -0.3222636 0.51796687
C10H7NO3+K+ 0.77913743 1.3232338 0.31184846 -0.8451267 -0.33681074 0.22982214 0.795907 -0.3232002 -0.6557733 -1.1606398 -0.5532132 0.84286493 -0.57432175 -1.0511943 -0.55811745 -0.41751498 -1.3383583 0.4534801 -0.32114977 -1.8559389 0.16248044 -0.9019585 -0.42942068 -0.32042843 0.18913612 0.8978451 1.1285822 -0.023996364 -0.6202501 -0.05170081 -0.4603885 -0.59940666 0.74286646 0.1632618 0.3786987 -0.15011162 0.36898354 -0.49491346 0.6168324 -0.84951574 0.7705746 -0.021537198 0.025943618 -0.66861874 1.0982791 -0.056460265 -2.3454154 0.009783567 -0.12580352 0.86966515
C11H20N2O3+H+ -1.7460716 -0.16624385 0.66459376 -0.68169576 0.9674072 -1.1503192 0.44523302 0.96948457 -0.22934495 0.36007154 -0.45912203 0.32292637 0.9065375 -0.19028224 -0.4327759 -0.8620614 0.14343998 -1.8850439 -0.52604073 0.18789211 -0.5118098 5.501439e-05 -0.021727722 -1.9347764 1.2600144 0.07825982 -0.77263063 -0.29843676 -0.01652306 0.09779395 -2.1236887 1.0946269 0.581401 0.65680236 0.67590374 0.3560983 -0.14190157 -0.48457387 0.33785358 -0.21245946 0.40331525 -0.7170033 -0.30669418 -0.73325133 0.13590084 -1.3795191 -1.7666154 -0.6771706 -0.8834904 0.8516565
C8H17NO2+H+ 0.3165078 1.0890812 1.1571563 0.24529357 -0.6436772 -0.38795143 0.6324352 -0.28471664 -0.35057175 -0.12687826 0.98747534 -0.62276834 0.27926737 0.8773005 0.36803555 -0.30954993 0.28782347 -1.1688404 0.025337871 -0.11608733 -0.57341534 -0.52234197 0.23264006 -1.6301521 -0.6935293 0.88391894 -0.5314374 0.41352293 0.48138082 -0.47994587 -0.8674251 0.33186036 -0.4223325 -0.97175103 0.101550505 -0.28824893 -0.85116225 -1.2416408 1.3556038 -0.458614 -0.744999 -0.46390736 -1.0698576 0.47840208 0.51261306 -0.27253675 -1.5558343 0.8309755 -0.7783587 1.1957302
C29H47NO4+Na+ 0.45662364 -1.9123986 1.3509437 1.0390102 -2.3291872 -0.43582138 0.8187859 -0.33249167 -0.2804705 -0.28821948 -1.2251303 -1.2303853 1.1800488 -1.339286 0.62921363 2.355142 1.4576975 0.7850951 0.6495582 1.0969809 0.19246559 0.38289315 -0.79815567 -0.58911806 0.22572294 0.38923353 -0.016147183 -2.7235699 1.3778389 -0.18639421 1.3901117 -1.197114 -0.9578183 -0.44240826 1.0035281 -0.8930148 -0.69838935 -0.8654252 0.6274271 0.6971823 -0.41373673 -2.2602532 -0.668336 1.2218134 0.06800416 -1.3890505 1.5195804 2.0643225 -1.0377675 -0.9191396
C7H15NO3+K+ 0.11039199 -2.0717146 0.013957884 -0.3702648 -0.50565463 -1.1474 1.225904 0.18672471 -2.2494295 -1.1033821 -0.6725725 -1.0315559 1.5644658 0.8306833 -0.22463103 2.082767 -0.86072516 0.08320946 -0.31049964 0.72392356 -0.31847233 -0.05410576 1.9644282 0.3229323 -0.34016263 2.0301182 0.24485192 -0.26719326 0.81864274 -0.98757875 0.8436046 0.89525294 -0.5445801 0.17672303 1.2894784 1.1053921 1.5856565 -0.17402937 0.8416317 0.10677732 0.46886122 -0.7253938 0.6137207 1.596794 -0.28695005 -1.2103939 -1.2629235 -0.26331708 -0.83829015 -1.2783948
C26H50NO7P+H+ 0.5063173 -0.048318062 0.7516522 -0.34619913 -0.05116366 0.76219606 -0.26380393 0.13833392 1.229703 0.49444562 0.9037282 -0.010900086 0.86608845 -0.5399309 0.74249524 0.7164012 -0.2745058 -0.16180477 0.16925927 -0.45832434 -0.67088723 -0.014786989 -0.2620415 0.021504013 0.06803435 -0.40598667 0.56607676 0.13053906 0.119955204 -0.5371085 -0.06521956 -0.22821517 -1.0666205 -0.84848875 0.6186606 0.46757793 -0.19859152 0.024373969 -0.462566 0.7451268 0.23054665 -0.21998361 -0.121293776 -0.6065441 -0.7068796 0.50063777 -0.23757185 0.1594367 0.674564 0.033671603
C13H17NO3+Na+ 0.82351875 -0.7029908 0.222498 1.0499741 -1.9714518 0.081428744 1.9180024 1.2625377 0.7347055 -1.1018234 2.0791924 0.29414496 -0.3080232 0.37922665 -0.70071316 0.3926689 0.6633501 -0.76829076 -0.1843746 -0.10026854 -0.1921271 -0.38555965 -1.0608106 1.7701968 -0.6235203 0.8950687 -0.44618106 0.44071168 -0.120031044 0.7296389 -1.0640712 -1.5324256 -0.26755026 -0.24179065 -0.11212936 -1.3179501 -0.55746955 0.025067689 -0.03433454 0.39280772 -0.15123153 -0.30029076 0.19800209 1.6276883 -0.38453835 0.48254883 -1.5980402 1.6764688 0.53032446 1.4702741
C10H16N4O3+H+ 0.4486879 1.027894 -0.23787011 -0.85397714 -1.8099614 -1.2482094 -2.505746 -0.33539236 -0.8544167 -0.5643653 2.3228915 1.5770144 0.32399145 -0.4336872 0.603795 -0.9349299 0.10253826 -1.4364308 2.7086227 1.1557088 -0.7189883 0.31036344 -0.93615854 0.54551536 1.1245111 1.5401334 -0.4189087 0.61515176 -0.32554254 0.86905944 -2.216258 0.94873756 -1.425611 0.7485479 -0.7653298 -1.0477298 -1.2463659 -0.30283135 0.86625415 -1.8249718 -0.32192263 -1.0250314 -1.1732546 -2.8228097 0.66956794 0.6683184 -1.9301916 1.4082189 -2.7043114 1.2804085
C8H20NO6P+K+ 0.5397121 0.13804802 2.2986526 0.9308251 0.70220363 1.8678339 -2.0583014 1.0023948 2.127296 -0.5123978 1.5088623 0.53432417 2.0504494 0.8343114 0.44890654 1.0796763 -2.4482708 0.23598322 -0.3235333 -1.3601384 -2.0280442 0.50019354 1.3028 0.22128354 0.7445124 -1.326279 1.8196161 -0.33770886 -0.10253643 -1.4786961 -0.3554029 0.027956739 -1.6375339 0.36302665 -1.5536549 0.8366144 -0.36454794 -0.6589554 -1.5344032 1.0640528 0.53330636 -0.6086018 1.597677 0.8156237 0.3750654 0.64228845 0.9714035 2.76897 -0.5922887 2.404404
C8H20NO6P+Na+ -1.775883 0.06804554 0.9048384 -0.36783975 -0.60339427 -1.765887 -0.32682157 -0.7584643 0.042528983 -0.42215085 -0.8216417 -0.30599925 0.88788384 0.0030947356 -0.8662752 -0.7116742 -0.09519359 -0.6884932 -0.61547965 -0.7907545 -0.5147185 -1.9296058 0.11432532 -2.22521 1.989116 -0.9304726 -0.54067534 0.10188222 0.22301686 -0.09946329 -0.555047 0.24837069 1.0932195 -0.78635466 -0.6762574 -0.0781925 -1.0122166 0.7346966 -0.8138468 -1.3476398 1.4125738 -0.23815684 0.4713503 -0.795547 -0.36130244 -1.245662 0.5437551 -2.0784447 0.02337938 -1.6429883
C10H11NO2+Na+ -0.95241547 0.31386462 -0.37613887 0.7729409 -0.09380295 0.23784779 1.293579 0.54007417 -0.07486096 -0.041062582 -1.1939942 -0.8767309 0.5133887 0.8942633 0.02612659 0.42449564 0.053026143 0.67743886 -1.0348443 -0.19545588 0.07629469 1.6022103 0.99530053 -0.5453226 -0.81050324 -0.4585695 -0.07200648 -0.4345823 -0.71147835 0.9926796 -0.1752478 0.13249326 1.2855287 0.24697217 -0.96929216 0.11867371 -0.73439217 -0.075399294 -0.123474754 -0.27083668 -0.30207065 -0.5415292 0.481371 0.43062505 0.38617432 -1.1773442 0.71001357 0.42851087 -0.43397003 0.18023427
C35H66O4+H+ 0.34990883 0.86221814 0.7007075 -2.4715595 1.2865007 -2.3802638 -0.6060914 0.47861353 -0.06616819 1.3786352 -0.47801656 -0.5931964 0.6213803 3.2018151 -1.0288364 0.6389954 0.11908706 -0.26371658 -2.50174 0.344755 -2.258647 1.93629 -0.23041217 -0.64518535 -1.7629935 -0.804444 -0.7119157 -0.30009842 2.4708369 0.85971016 -1.8605245 2.06376 -2.4447176 -1.7659639 -0.8464908 0.40880546 -0.8950277 0.29517463 1.1079992 0.69862086 0.9316376 -1.6464689 -0.954664 1.1121554 -0.9278987 -2.0289907 -2.423547 -1.3852426 -1.3838283 -0.17897312
C37H66O4+H+ 0.30272466 -1.523549 0.4299247 1.051512 -1.9911385 1.0555524 1.54132 1.9522684 1.352578 -0.6020987 -0.23494458 0.32159698 0.07834564 -0.28509232 -0.4529021 0.98365486 2.2573557 -0.64516824 0.7644729 -0.5673502 0.64547426 -0.79058236 0.26408887 -0.77131766 0.21585195 1.9850867 -0.6262611 0.9830143 1.0502421 -1.0580102 1.3940291 -1.1450613 1.5142158 0.041240297 -0.4215462 -1.8050911 -1.2026514 -0.47680703 -0.38865507 -0.435154 -1.0101486 0.17721274 -0.1818041 -0.42946684 0.31821594 0.35875916 -1.3519208 1.0041156 1.7263688 0.5845405
C10H15N5O10P2+H+ -0.24098073 0.804891 0.010406811 -0.404474 -0.1717881 -0.10471463 1.5212374 1.1229994 0.8925372 1.9275466 0.06969471 0.27151176 -0.2558163 1.679352 0.9043816 -0.2538894 1.154434 -0.95202094 -0.813184 -0.16657937 -0.038746633 0.738442 -0.48593345 1.7160333 -0.65552145 -0.9812366 -0.018397328 0.37482375 0.3612258 -0.28575113 -0.5864838 0.32256493 0.1558094 0.028437806 -0.012985147 -0.9083142 0.6080764 0.2554025 1.2913796 -0.41675392 0.95711714 -1.9045717 -1.1714543 0.3480301 -0.08744118 -0.64232737 0.90250504 -0.47539267 0.44123444 1.4826521
C15H16O9S+K+ -1.270591 -1.4310074 -0.45425868 0.29478845 -0.51197654 0.04126543 0.43514967 0.58208877 0.42631873 -0.06819901 0.9336604 0.25378025 1.3718991 0.10619353 0.2883321 0.41969278 -0.1396433 -1.0052608 -0.33080402 0.6628542 -0.05346379 0.46715137 1.0474598 0.9196738 1.395789 0.029119793 -0.0926186 0.16998835 -0.42124772 0.2965865 -0.8758587 -0.40330875 -0.31542957 0.7456621 0.033544824 -0.2816267 -0.23223642 0.23855223 -0.79711497 0.7364276 -0.117755644 -0.94755197 0.100221395 -0.46090454 -0.83849436 -0.1503275 -0.43689793 1.2876331 -0.024041163 0.009600901
C24H50NO7P+K+ -0.560234 0.6995523 -1.0873221 -2.1149209 2.0774229 -0.09726127 0.5753365 -2.2339747 -0.5643472 -0.5550925 0.6873322 0.12873937 -0.29259276 -0.23936191 -0.67085063 -1.2718539 1.2425966 -0.062086258 -0.9725992 -0.8951352 2.2929122 1.2752011 1.2797725 -0.4868944 0.110003136 0.67747545 -0.0814288 0.26214048 -0.16288702 0.73466206 -0.20282547 -0.6630222 -0.32604358 0.4046909 0.12097346 1.2506877 1.402702 1.0086733 0.14026369 0.18090078 0.34411308 -0.07072463 0.20596018 -2.6661866 1.3247223 0.6056773 -2.2102656 1.9528979 -0.5611424 -0.6612125
C10H16N5O13P3+H+ -0.8641545 0.9858758 0.100819156 -0.04400677 1.7849698 0.25642654 -1.93485 -0.2533879 0.49669063 -0.15235063 0.28506565 -1.0655571 1.1075118 -0.4058255 -0.6916999 -1.4018434 0.2525012 1.9786104 -1.0319068 -1.1316658 -0.8773201 1.931111 0.33960798 -1.8428228 0.6906265 0.28391078 0.16769099 -0.8035589 0.92535275 -0.7222019 2.3435824 2.501449 -2.3723512 0.4701963 -3.692386 -1.2541764 -1.6829836 0.81297415 -2.3210015 0.55184066 -0.089869395 0.3483596 1.566434 -2.620845 2.359874 0.30873916 1.8818438 2.1329448 0.65121853 -1.1631801
C9H14N4O3+H+ -0.3377969 -0.8680566 -1.5638905 -0.8045107 -0.035959482 -0.022479972 0.5675758 -0.4241275 -0.66172177 1.8765905 0.06476162 -0.08720553 1.2883836 -0.35451314 0.6828817 1.5605652 0.93388546 -1.6322521 -0.70420355 0.21016882 0.16404583 0.4737777 1.6080419 0.55693334 1.517056 0.43447784 0.4749361 -0.37233892 1.4437969 -2.2786074 0.8735514 -0.5412395 1.3360716 1.0009078 1.1867033 0.84109205 0.8248515 0.011046132 0.56763417 1.5452018 1.1498302 -1.0327445 -0.20990859 0.3885716 0.09115986 0.073014975 -0.49978998 -0.76443404 -0.119988404 0.31144187
C23H45NO4+H+ 0.4905514 0.4911485 0.112375066 -2.4971097 -0.086102106 1.9032204 -2.550966 -0.45474958 1.6855855 1.9078192 -0.051280834 -2.6127627 1.3845731 -0.6145432 1.0202384 1.2928588 -0.1901481 -2.1806147 0.96567637 0.86194706 -0.13263366 1.5576655 -1.971168 -1.5123233 0.87598777 -0.32632038 0.4584723 1.0081165 -0.3737754 -0.24423647 -1.1784513 -2.480175 0.47074008 -1.795852 0.82488596 1.7389344 0.4990663 0.8339566 0.1658318 2.3457072 -1.6569185 -2.0891893 1.5599163 -0.76189244 -1.0728738 -0.5793468 0.12757033 0.46029198 0.4044188 -0.2750328
C11H21NO5+H+ -0.47564152 0.25070238 0.59089965 0.5929074 -0.9465846 0.28829038 0.07715904 0.27735338 0.147736 0.7323503 0.37606403 0.7672155 1.6157672 -1.000751 0.81366926 -2.4066746 -0.38185373 0.6510807 1.4572961 -0.15547448 -1.166335 -0.849415 -1.1719457 -1.9819081 1.1112304 -0.75650644 -1.0702639 -2.2588162 -0.72992265 -0.72983426 0.32344735 -0.25784296 1.3568184 -0.8528155 0.6052631 -1.0616525 0.2930054 -1.6690592 -0.7966501 -0.8375043 -1.245714 0.8878214 1.929144 0.8604754 -0.14967507 -1.720585 -0.60311764 0.30298772 -1.5532689 0.5170951
C25H49NO4+H+ 1.1599667 0.3531293 0.0053310655 -0.9595417 0.17216739 0.22791648 1.1778947 -0.5996975 -1.5566597 2.3695343 2.425079 1.7622645 -1.5493304 0.54034436 -1.5057513 -2.8269713 0.57140553 -2.9513679 -0.6598642 -0.8898597 1.5476404 -2.42756 -0.092621565 0.21724248 1.5923015 2.521599 0.035317793 0.019104218 0.85794944 -1.8241321 0.81776315 0.03560567 1.5389464 0.45414245 -1.472483 -2.7551935 1.8743492 0.575522 1.2063087 -2.0503135 1.6181295 0.6377722 -0.18650772 -0.0217828 -0.532208 1.8279909 -1.886579 -0.04090087 0.88789463 1.113748
C26H30O12+Na+ -0.15733762 -0.49445516 0.91048133 -0.89395916 0.40926728 0.6664239 -0.15865406 1.8405577 1.062422 -0.5243482 1.1447581 1.3729569 0.8153464 -1.6332694 0.047402747 -0.21354729 1.1057701 -1.9035786 2.5456166 1.0048624 -1.8616066 1.5303938 -1.7776759 -1.4526812 0.6025033 2.292812 -1.1801858 1.3481098 -0.17960332 0.24836367 -2.5332716 0.7542003 -0.14084756 0.88749844 1.1828048 0.86730343 -2.0412312 -0.3596983 0.1274745 -0.87492025 -0.06390802 -0.8496124 -0.12665737 -2.7444804 -0.34640315 0.7624406 -2.8281941 -0.3917274 -0.73740166 0.73627585
C25H47NO4+H+ -1.3601756 -1.0928428 0.42520207 1.6679571 -0.27229753 -1.0938501 0.23545747 1.0997485 -0.11070972 -1.2362007 -1.4646872 0.6116336 2.4281662 -1.7214795 1.4535978 2.0163832 -0.47323713 0.6685761 -0.08589334 0.8155868 -0.49246573 0.04083018 1.7793225 -1.4098117 1.0237504 -1.2165442 0.9843801 -1.650434 -0.85378695 0.18931863 -0.760027 0.6764339 -0.6746184 2.1082244 1.137358 0.46059296 -0.5591405 -1.5355594 -1.4600691 0.8126579 -0.09270259 -0.524267 -1.1182015 -1.3172386 -0.094987996 -1.9754306 -1.1452926 0.5709893 -0.6008625 0.35809082
C12H22O11+Na+ 0.5474528 -2.6202881 1.6506598 -0.6905986 -0.45814684 -3.1467416 -1.6721488 3.6761985 1.8368511 -1.4243269 1.3664001 -0.82317156 1.1920279 2.0075889 -2.6445487 2.1154308 2.278809 -3.3399386 1.5969402 -0.3954668 1.7407675 -0.7700199 1.3158563 -0.24018492 0.58291745 1.4732653 -1.603985 0.50443023 2.3458445 -1.0153065 0.7963422 2.166715 -1.2584438 0.34907427 -0.7211437 0.791648 2.7990346 4.1457314 0.121651985 -0.2588267 1.6796626 -0.07302704 0.8988201 1.0135498 2.2235234 -0.6112902 0.3932793 0.8406162 -0.18499924 -0.20822637
C13H13N3+H+ -0.25529397 0.47774974 -0.10751266 0.3509793 0.027812514 1.2646017 0.33579516 0.5529761 0.57101834 -0.9083206 1.0521219 0.2800333 0.72285795 0.20519732 0.27265996 -0.8440831 0.0642809 0.6865344 0.47290382 0.377255 -0.0569852 0.924467 0.6769017 0.69818616 0.545165 -0.7509431 -0.11757791 -0.3349745 -0.97563547 0.46451783 0.076810904 -0.194094 -0.28473932 -0.81534266 -0.65253067 -0.0010166969 -0.25843877 -0.0933343 0.009337496 -0.95404464 -0.2500033 0.15004689 0.9046533 0.61703664 -0.5390171 0.43952328 0.33219448 0.972895 -0.4755042 -0.9853636
C15H18O10+Na+ -2.6713908 -5.0602155 -4.8167443 -2.5529656 -0.55080587 3.9941902 -1.5929871 5.905147 3.2839289 2.6971586 -3.8232303 5.336482 -1.681447 -1.5164462 -2.6845133 -2.8346636 -1.5122962 -1.8193241 -1.1363183 2.564074 2.8409386 -0.97268933 1.945176 5.749068 3.9031084 8.029423 2.2553449 0.34479573 -1.4642198 -1.5095606 -1.7339526 -4.457482 4.1451316 2.3258314 -3.045144 -4.598917 0.37239137 0.031613994 0.68160576 -1.5805136 -3.9707265 -2.2060275 0.68581814 -1.8169756 -1.9902228 1.6360391 2.7481256 -2.2432015 2.6958392 -1.4544779
C12H22O11+K+ 0.67791617 6.471105 4.9210477 3.8901062 -0.02943483 -5.238398 4.6482353 -5.126195 -0.24731018 -1.4973956 5.5352206 -3.4354458 0.54648083 -0.8089126 1.8089945 1.7674779 5.378766 -5.24508 -1.4790912 -3.212923 -0.12591143 -2.081605 -1.7497212 -7.8321943 1.4993514 -7.384663 -1.5945977 -0.5707451 3.3918016 -0.31726447 -1.2876008 1.1640198 -2.0536516 0.96824574 1.3379694 2.4972932 -2.2070208 2.2428153 2.6402712 2.0875068 4.6628814 1.4368377 -2.9723122 1.4578091 5.0097914 0.15591282 -2.9952157 0.8621518 1.7614678 2.3514712
C15H22N2O4+H+ 3.408901 -0.0747177 0.20774828 0.073802 -5.34201 -1.5314881 0.15991203 -0.7040292 -5.3981156 0.9284248 6.99796 2.68414 3.09247 -3.5414994 3.2742524 0.9697864 -3.6604831 -1.7211361 3.2085154 1.7106012 -3.1061742 0.19912444 -3.1927843 -3.030446 0.66729134 1.1132191 0.08096888 -4.1273203 -2.5496714 0.6526831 0.098349564 -1.3988022 -0.07241127 2.2359383 0.26658097 -3.8907855 2.318713 1.1514727 2.488974 -1.924147 0.7542814 -2.0169432 2.7643557 1.7018118 -3.4277995 -2.1746838 -6.0397162 3.5908532 -5.2341456 2.5555308
