64 100
C7H15NO3+H+ 2.2839978 -0.771527 2.0812168 -3.3266783 -1.0391693 -2.8641405 0.47537678 1.6097684 0.6486677 -0.7316164 -1.4608573 -0.69459504 0.98138887 -2.520775 -0.4859246 -1.957404 1.9246385 0.040915396 2.4548533 -0.24437363 -2.47673 1.9548296 -0.75072545 -0.010102237 -1.312459 -1.6644425 0.4943063 1.8827162 -0.9460027 -2.2090266 1.2811049 0.5756455 -1.7021066 -0.41342884 -0.09780548 -3.642102 -1.5295181 0.35277152 -1.4079615 0.360955 -0.9934239 -0.4311644 0.74649286 1.3187697 0.60385394 -2.270128 1.7902843 1.0740143 -2.0611634 1.7915435 -0.6028843 -2.4631863 0.5888913 -1.0895056 1.389199 2.22333 0.023949109 0.10529184 -1.2518468 1.3162271 -1.3844781 1.8668399 -1.3259388 -1.1950576 -1.7828848 0.27659875 -0.38356698 -2.5720425 0.28011858 3.1893249 1.6858989 -0.37334317 0.7401256 2.4886227 1.4940934 1.8996048 -0.21409388 -1.1274506 0.52236253 0.10911588 -0.057790738 0.5955848 1.7908485 0.22795817 2.012376 1.4460202 -1.1495354 -0.55840963 -1.3709661 1.3108398 1.2055118 -1.0644552 -0.13087936 3.8330224 -1.217419 -0.81482923 -0.59624076 -0.19393417 -0.74896413 0.31941158
C15H22N6O5S+H+ 2.0800831 -0.101116665 1.8746201 -0.471122 -1.0740719 -3.5781326 1.106472 1.3354881 1.1625671 -1.8497574 0.45125437 1.5718501 -0.3015674 0.25142148 -1.2437463 -0.023509858 1.9982258 1.08521 0.40923065 -0.87421864 -0.002910269 2.0867705 -0.0741935 -1.4714859 -0.63512266 0.5453627 0.74542236 -0.12969023 0.20741399 -0.42168882 0.14811681 1.8597734 -1.5869061 -0.2800918 -1.8506258 -1.0573292 -1.7368028 0.37966225 1.8130348 2.6433978 -0.31191725 -0.863895 0.8862839 0.8377602 0.21010731 0.91938853 1.1696645 2.2243958 -0.5153208 0.90195405 0.0018524202 -1.3692219 -0.9958087 -0.89746374 -0.36141315 -0.8750641 0.84940416 -0.54416716 -0.9466789 -0.5168245 -0.06320863 -1.3255407 -1.6258091 0.82099456 -1.1829488 1.5476518 -0.9633509 -2.235522 -0.108223796 0.12395617 -0.08580498 -2.067993 0.5147361 0.2885539 1.4405011 2.561872 0.09391577 -0.66152775 0.58846104 -1.3970343 -1.2432607 3.2474666 1.0476922 0.8975444 0.71088886 -0.38267392 -0.71181005 0.021892149 0.140936 0.037048675 0.13615863 -0.13717751 -1.1794199 0.032981608 1.0185868 1.3451562 -0.37890494 -0.6864232 -0.20504002 1.2051989
C24H50NO7P+H+ 1.2259147 0.025853083 0.0034652206 -1.4650049 0.44399583 0.18843433 0.7103603 -0.21206015 1.0264046 -1.6584209 -0.41101763 -1.3574625 0.07471605 -0.07634015 0.11537942 -0.029650386 0.17900425 -0.554837 -0.65382516 -0.7131942 0.9153498 2.3591027 -0.3115024 -2.010819 -0.46341926 -0.27995273 0.92478794 2.0626128 -0.18646301 1.0999424 0.79568106 -2.8011832 -0.25315025 -0.8748931 0.19729951 -1.7120826 -1.099433 0.99161613 0.09268867 0.30014926 0.010927802 0.43463942 0.94014204 1.3771415 -0.8852808 -0.67429936 -1.4270309 0.6252532 0.8565356 -0.79224926 -2.6278787 1.0736427 -0.0972722 -0.1865213 -0.38807264 -0.816269 -2.5933223 -0.5280875 -0.5829763 -0.062324163 0.30320245 -1.816051 -2.7099168 -0.34310848 0.37130558 -0.97733045 0.50439256 -1.6590953 -0.4827725 0.07332984 0.57061106 -1.4251957 0.4517266 -0.6458081 2.4734666 0.89274853 -0.824922 -0.7870538 -0.6816448 0.079596326 0.2813277 1.544432 1.1798999 1.6428213 -0.041316286 -1.5501499 0.4939181 0.708885 0.17048351 -0.14526872 -0.35256454 -0.028500464 0.49986014 0.44853985 0.7916236 0.7220379 0.09250828 -1.2048923 -0.82978505 -2.431194
C4H9N3O2+K+ -0.31218013 -1.7311922 2.3183918 -1.5633351 0.20844406 -0.7601644 -0.50093484 -2.762837 -0.29231206 -1.6138012 -0.18893054 1.2932309 -1.9132967 -0.26882473 0.7366318 -1.7177742 -3.9170575 -0.4684862 0.88625956 -1.6625568 0.48868084 0.5476676 -1.8811938 3.44469 1.9163469 -0.75413513 -0.024355588 -0.3854744 -0.36207744 -0.39677164 0.82258856 -0.33800837 1.1509035 1.6680174 -1.6858022 2.1877205 2.1650057 -0.6253594 -0.3617588 1.4325202 0.85499245 -1.0366797 1.2211863 1.3055495 -0.08164224 -1.2352649 1.252346 -0.9183314 2.30482 0.49278718 -0.06344516 0.8583637 -1.2150179 -0.75505364 -1.3238448 0.42435798 0.9089891 -3.0370133 -0.091490164 0.89168984 -1.3218619 -0.014165925 -0.9864471 -0.204918 -0.09211153 0.3795458 1.5169102 -1.8021784 -1.627791 -1.4112221 -0.6934649 1.3577328 0.829174 -1.2776117 -1.4736321 -0.9962698 0.87760675 1.138435 0.36936864 1.6714134 0.80647045 -0.19820987 -1.20874 0.73064834 -3.6365192 -1.1640408 0.3860125 0.6427873 0.038865615 2.1376626 1.3231941 -1.2054257 -1.085008 1.6967144 -1.6114769 0.19226809 -0.06976728 -2.2545538 0.25928158 -3.959983
C9H17NO4+H+ 0.62534624 0.4791074 1.3785155 -1.10294 0.043359797 -0.2014487 -0.15786669 2.0931253 1.0188774 -0.34038296 0.14292876 1.2246153 -0.6947441 0.56060565 0.06282537 0.97917056 0.89319265 1.5375851 1.0047841 2.0627522 -2.7576838 0.92691654 -1.169506 -2.9121506 -0.32060835 -1.0648215 -0.30893394 -1.2317146 -0.8146822 -0.8902291 1.7852651 0.31737056 1.018017 -1.1934096 -2.307435 2.5794134 -0.40758702 0.9533947 0.7100764 -1.2432921 1.1950358 -0.3586993 0.53598243 2.286857 1.2940203 3.1715918 -0.0764751 -0.892243 -1.2594311 -0.9853818 1.7086223 -0.39938885 3.5225904 -0.64355505 0.82546026 1.1223086 -1.5027349 -0.6816104 -0.54118127 0.1513045 -2.1012511 -0.4659074 -3.2584338 1.265696 0.40300193 2.4496183 -2.8630805 -2.759999 0.6658604 1.3221477 -2.1645496 0.04494894 -1.8466841 -0.5517562 0.26977316 -2.1419854 -0.16641927 0.77271867 -2.1462855 -1.8965415 1.2811832 1.9238557 2.1062047 0.66603386 0.18729027 1.9082397 0.3433522 0.78012395 2.5358634 1.0643245 0.56383425 1.1515672 0.3301034 1.1061329 -0.1359903 -1.1988279 1.8266418 0.5862178 -3.1877403 2.914057
C10H7NO3+H+ -0.38052166 -0.56769013 -0.40424892 -0.5190626 -0.30037436 -0.74362546 -0.2843954 0.7539428 1.794199 1.1025406 0.14211361 -0.85572207 -0.6462917 -0.06499887 -0.6752818 -1.9048032 0.88009745 0.036147792 0.20954123 -0.17807283 0.72585315 0.44255778 -0.7882493 0.29714677 0.10651446 -0.11371751 -1.0249367 -0.92897636 0.5595668 -1.3982995 0.9517709 1.4426074 0.54892737 0.47054487 1.0429453 1.7925212 0.7079053 -0.0938175 -0.32456508 -0.5185866 0.30781 -0.32429102 1.2358617 0.5355775 0.021134458 0.6867034 0.24429925 0.7726501 -0.25342682 1.4451109 -0.07901922 2.3351312 1.8796614 0.1265119 -1.6584779 -0.34816438 -1.9595662 -0.571242 -1.8359319 -0.124095924 -0.5185107 -1.9186934 -0.4894248 -0.59715813 0.46201214 1.1586294 0.066776596 -1.3095797 -0.7890353 1.5750335 0.6008674 -0.8317375 -0.034434307 -1.5767846 -0.75694394 0.2708902 0.5468608 -0.414077 0.50501996 -0.65904826 2.027529 -1.7942137 -0.71726614 1.7139888 0.9499021 0.5319605 -1.0746737 -1.7503422 -0.4816584 -0.1157879 0.2710687 0.0098635815 -0.3093771 -0.34857705 -1.1419059 -0.0867225 -1.2881832 0.12728237 0.039814465 -0.64376104
C11H21NO4+H+ 0.2784297 -0.8350787 1.3796458 1.6461502 1.4224459 -0.31210524 0.84402287 1.8867704 1.5426247 1.978745 -1.4533061 1.3809936 1.4407372 1.5180979 0.66522694 1.2110118 -3.0361042 -0.6457948 2.8252494 -1.7458562 1.5653651 1.3013037 -1.2388445 -1.4421443 -0.0039591067 0.4902825 2.0939615 1.2173487 -0.019701527 1.3535839 0.5057457 -2.353091 -0.11734807 -2.1011224 -2.2486205 1.812499 0.55149734 0.021090208 -0.5045805 0.6716014 3.279946 -1.4019041 4.4010286 1.9051337 2.2082293 2.872594 1.2838788 0.17869426 0.5457567 -1.0204405 -2.012167 1.671701 1.3655815 -1.5606841 -0.2714859 0.8894143 -1.3557976 1.4539748 -0.5317312 0.3587919 2.7508774 -1.4939564 -2.6957965 0.40612796 1.4234263 -0.5305709 -1.148221 -2.5343246 -1.5019006 -0.53415227 -1.3990712 -2.7976894 -0.052374482 -3.024258 3.6235726 0.099110186 -0.28185427 -1.0122734 -0.17992878 0.08104972 0.035445258 1.0027473 -0.46201292 1.4754977 -0.9257125 -1.9044676 -1.1075815 -0.87311697 2.9238188 1.4058642 -2.9279876 -1.7679099 0.08936502 1.1237864 0.86010474 -0.5421266 2.9961662 -0.32876855 0.94414175 -2.1406074
C22H22O7+H+ 0.35553426 0.56051296 0.49288702 0.28965837 -1.2084035 -0.47290397 -0.6193929 1.9944189 0.9559553 2.3269753 -0.36284092 -0.88198006 -0.19265282 0.056674615 -1.274598 -1.3208053 1.6939319 0.48454666 0.81685394 0.4920544 -0.2455314 0.062222227 1.6577282 0.3946742 -1.6502091 -0.9204902 0.038512953 -0.34694952 1.1411635 -0.8744969 0.96862185 1.2316891 1.734848 -0.63467836 -1.2665323 2.1232173 1.830383 -0.018616468 -0.7236548 0.35665435 0.04079878 -1.2313185 1.7390926 0.5086142 -0.28457695 1.2421117 0.73636883 -0.118176475 -1.1611537 -0.6184056 0.83470154 1.7467096 0.7308526 -0.8659227 -0.9674268 0.72097313 -0.6614659 2.0032022 -0.1253046 0.98227835 0.21986943 -1.2888466 -1.469609 0.17586553 -0.01936702 0.35717297 -1.0057101 -0.7356435 -0.7550524 1.3827319 -0.70521116 0.9592915 -1.1781014 -0.23252991 -0.7905378 -0.49791944 -0.43862706 -0.16096021 0.44445774 -0.003965349 1.8529161 -0.1541267 0.27038023 0.01676625 -0.361005 -0.32176453 -1.6075526 -1.0698023 0.31499603 4.6872534e-05 0.36466992 0.20793429 0.21648844 -0.48924953 0.23130377 -1.125715 -1.0790682 0.4286401 0.59314173 -0.6921955
C10H7NO3+Na+ 2.555755 -1.498291 1.8531748 0.19051227 -0.44160527 -0.6181458 -0.12541965 -0.6409667 -0.9112604 0.4929996 -0.37365636 2.314764 -1.7482799 -0.9691171 0.7306599 2.2936778 0.12606427 -0.7097483 1.9893019 -1.3541533 -0.44305652 0.07731452 1.3092527 -1.026938 -0.54494596 -0.5760281 -0.43815222 0.7315542 -0.6146473 1.0337007 -0.58988297 -1.5094185 1.1044943 0.20355697 0.6438737 -0.7226496 0.35077047 -0.9735655 -0.29458213 -0.5419037 0.36188933 -0.7376168 -0.085986584 0.39371064 0.80339825 -2.914017 0.8135125 -0.40133992 -0.48230737 0.7622686 0.27911088 0.3665117 -2.0261552 -0.9093446 1.2572669 -1.0892687 0.38394645 1.439867 -1.346062 0.16827384 1.6981106 -0.40781143 -0.82646805 0.25118753 -1.3065894 0.3218374 -2.560208 -0.724577 0.6635985 0.13062671 0.06610685 0.65308636 -0.27080715 1.6071303 0.18089679 0.77796435 -1.3317614 -2.5455961 0.8984759 0.15083523 -0.7829502 0.00274393 -0.0012065757 -1.5274402 1.2298825 -0.87183726 -0.58094954 0.117353305 0.024804039 0.58641857 -1.494067 -1.2777462 0.57097447 0.5556051 -0.6777741 -0.695083 0.86881685 -0.94856083 -1.0730193 -0.9770227
C8H20NO6P+H+ -0.87311536 -2.188833 0.9322035 0.54950994 -0.72360253 1.8195226 -0.20058359 0.19524448 0.978579 -0.39687884 -0.99331594 -0.5817244 -0.13069345 0.086130604 -1.7323601 1.1295792 0.3204634 -0.37660307 -0.7437167 -0.6466373 2.6079202 -0.3387004 -0.074166216 0.74654657 -1.0106316 1.1440836 1.2908872 0.80216545 1.5198214 0.67261964 -3.1382828 -0.52103204 1.0492841 1.27271 0.29335824 1.5201137 -0.46354505 0.4964444 0.64526033 0.95225036 -0.11784698 0.5414201 0.5221331 -0.93422896 -0.95031583 1.5376929 0.4107119 -1.4368972 -0.700069 0.18931887 0.2689963 -2.3933997 -1.2286614 -0.55374014 -0.40245497 -2.0742228 0.23013298 -0.21375987 -1.3784059 -1.0600824 1.5572035 0.056670986 1.1067406 -0.55349237 -0.5487197 0.81754196 0.7034139 -2.7803092 0.6212442 -1.7667336 0.23244311 -1.2281243 0.32193816 -2.6991599 -1.7308712 0.8331563 1.9328595 -0.60406905 -0.060681198 -1.7739904 -1.5071875 -0.41008875 0.5613213 -0.5922415 0.4620066 -1.2425611 0.73843277 0.6064771 0.950318 0.13220237 0.85501665 -0.699364 -2.3362145 -0.7251043 0.49129522 0.0038714898 0.0994271 0.17443623 -1.4813648 -0.35568798
C10H7NO3+K+ 0.26757473 0.83574414 -0.24804474 1.3239964 -0.9878033 -1.1724409 3.039756 1.813113 2.2058055 1.2753589 -1.203744 0.47612426 2.4317708 -0.6738878 -1.4213574 -2.9731636 0.23479351 1.5114524 0.6590756 -0.052298088 -0.8543109 -0.76725537 -1.5616828 -0.78121954 0.10416054 -0.54036164 -1.0321523 -0.7254288 0.26321876 -1.7075931 -0.26861644 2.9095767 -2.747136 -0.93696785 0.55260974 -0.37221295 -1.6140138 1.1495565 -1.9511515 -0.2876199 0.09244424 -0.19383432 -0.13822351 -2.3760643 0.0790759 3.1499255 1.4672307 0.75182074 -1.8263614 1.0177767 1.003108 -0.6527514 2.668772 -1.065731 -0.72990364 -2.4081497 -0.6508815 0.15919532 -0.83871734 -0.74200135 1.9347926 -0.90417427 -0.062591 -0.55337864 -1.6913424 0.3290063 -0.2781556 -0.24106993 0.27563226 -0.63119024 -0.36825436 -1.9452881 -1.430593 -1.2885307 0.08902292 -0.9543424 0.34891394 -1.7030147 -0.08199065 -0.27378857 -1.0709763 -2.599471 -2.2020688 0.050219655 1.1279044 -0.7559317 -0.10291034 -1.3611476 -0.045377683 -0.7067868 -1.17431 1.3350065 0.7615655 -2.7941382 -1.0381482 -0.03459051 0.12453866 2.108456 2.7327173 1.0481339
C11H20N2O3+H+ -0.052275404 0.68587923 -1.2026274 1.066699 1.407408 -1.55962 1.2117462 -1.211645 -0.81091106 1.4670479 0.74940264 -1.3590826 1.6808771 -3.1391191 0.33195323 -0.6541668 -0.074629754 -0.88473266 2.231026 -1.6053777 -1.4321285 0.887249 -1.2210363 2.393459 -1.5026547 -0.42046 -1.9825699 0.6623881 0.24314263 -0.9186453 2.0090158 0.38349265 1.4729216 0.7597026 -1.2571317 -0.34935278 0.57704914 -1.5292964 -2.053286 1.7539715 0.3006212 -2.2596714 -1.4831189 -0.13584691 -0.5982272 0.6181233 0.08817238 -2.688084 -0.7014274 -2.6477463 -0.5561862 3.5808322 -3.0258453 -0.09976695 -2.3983474 0.55010486 -1.743925 -0.8771751 1.787097 1.713662 -3.4112911 -2.3514569 -1.6019973 -3.5674076 -2.2444549 -3.1554487 -0.9918554 -0.14218329 -1.3893188 -2.1923141 -1.3346918 -0.7693053 1.0347264 -0.6417813 -1.3297985 -0.5670094 -1.9840617 2.4618402 -4.921757 1.1097045 0.3035062 1.0468639 -0.021314746 -3.0814137 -0.29529268 -0.67062235 -2.3405125 -1.0311371 -0.7400948 -1.7677108 0.00048808532 0.16376302 1.7528516 -0.23050758 1.8469127 -3.5718234 0.25236002 3.2159681 0.81216675 1.1055416
C8H17NO2+H+ -0.09184283 -1.6060264 -1.3100528 -0.29307273 -0.4129361 -0.3706516 0.12066618 -1.9130882 0.40893465 -0.85845596 0.4740117 -1.2109532 -1.2205554 -1.0561085 -1.0775862 -1.4632169 -2.0279834 0.047459222 0.8593818 1.5335478 0.25264978 1.65606 -1.8245522 -0.06573155 0.5207463 -0.23575246 1.847429 -0.5080953 -0.54495156 0.34950066 0.08796788 -1.37033 0.18700615 -0.1216817 0.085897595 -1.1496525 -0.9605981 -0.39880425 0.8293564 -1.4949274 -0.16306134 1.690931 -0.7700577 1.1220446 -0.45704108 -2.64232 -0.38945815 -1.1096166 0.31699568 1.3158524 -1.151688 0.37067208 1.8500131 -0.645087 -1.1854925 -1.961305 0.5520581 -0.10181128 0.6111151 -0.66827095 -1.4684987 0.12066309 0.3584626 1.5846882 -1.1531489 1.1422951 1.3617417 0.41094828 0.91735077 -0.6403652 -0.7114738 0.2024983 1.2648921 -2.3269236 -0.808499 -0.6971194 0.56371367 2.1351445 0.054199867 -1.2958355 -0.103521466 -1.4828283 0.032460302 1.1945184 2.3326442 -0.34964734 -0.052685563 0.433623 -0.8500342 -0.80097723 -0.2105275 -0.40116277 -1.106854 0.3001001 -0.9098616 0.9605861 0.12866785 -0.06288569 -0.5442736 0.40422678
C10H11NO+Na+ 1.0378481 -0.9152146 1.119422 -0.0849032 0.79721284 1.1238693 -0.8377435 0.7885299 -0.45996946 -0.04267709 -2.2834036 -2.9882648 -0.7310234 -2.7410023 -2.9964886 0.59883714 -0.06580714 0.47719833 -0.29641584 -0.36439905 2.1690784 -0.7957317 1.9194813 0.8744949 0.41858047 -0.32818857 2.6044874 -0.20154567 1.5411434 0.48656735 -0.455402 -1.333046 1.006123 -0.5869875 -0.88409114 -2.0636635 0.67971396 0.34375346 -1.4131742 0.83384955 -0.6739485 2.5332248 0.48814976 1.2571528 0.063541085 -0.18543561 -0.7355837 -1.983756 0.05265116 -2.2455573 -0.9585373 -0.08923027 -1.3428247 -1.1349612 -0.0029104352 -1.0211518 1.0712806 1.439822 0.68106633 0.7863091 0.99756616 -0.55679405 -2.0413494 0.33242202 0.5655179 0.44053215 1.13642 0.88341534 0.10695796 -0.05753939 -1.9867604 1.1772633 -1.1974206 -1.3998705 0.82821757 -0.74244124 -1.6195238 -1.5603069 -1.6252198 0.32913956 -1.5941708 0.6701425 1.1926354 -0.1150474 -0.113754414 0.11401174 -0.2688515 1.9755961 -1.3817898 0.49170232 -0.6608993 -1.914025 1.2075719 0.56935245 -0.43158865 0.10215355 0.43748793 -0.61379164 0.30508396 -2.58493
C29H47NO4+Na+ 0.4402512 1.4595147 -2.1218395 -2.4391155 2.7576175 -1.8418207 -0.5568225 -1.052284 0.45282212 0.06669034 -2.2013423 0.30745506 -1.7425653 0.39818946 -0.330025 -2.0777898 0.4504309 3.5657232 0.13467243 -0.88181335 1.1365081 0.15454821 -0.9056654 0.16802552 -0.8486624 0.6952859 0.37458065 0.97146 3.261212 0.5903941 -1.3910967 -1.0969067 1.5915463 -2.614667 1.0820445 0.040375378 -1.9011154 2.0859609 0.96436274 3.782694 -0.119757995 -3.655718 2.0823808 1.9967918 1.2391487 1.1514238 2.4246757 -0.22234175 1.7645328 0.2196471 -2.674277 0.032903407 1.0075071 -0.99939597 -2.4525175 -0.6649653 -1.8934906 -1.5233486 -0.8809611 -0.5015676 0.10315425 -0.9336923 -0.3317897 1.4091887 2.5633485 -0.6963189 0.11607786 -0.8801171 -2.4725847 2.342051 0.743085 -0.97664154 0.7379731 -2.71903 1.9785458 0.23858576 -1.9893638 2.6774035 0.19625835 0.31891644 1.0849488 1.3970335 -0.4741652 -2.3097947 -0.13749027 0.9934141 1.5896763 -1.9562368 -2.6144254 3.44075 -0.5480462 3.4050086 0.42768976 -1.4429835 3.4556587 -1.0604699 1.0099621 -3.6140382 0.25877896 -2.0755463
C9H20N2O2+H+ 0.20378767 -0.7025862 2.3287344 0.9114417 -1.3076811 0.2988776 -1.2000045 -0.06405315 -0.23580189 -0.11996559 0.6365504 -0.24968182 -2.5589488 0.38931477 1.1028073 -0.22235906 -0.69356793 -1.7084576 -1.0887244 -0.7121383 0.56699514 -0.41987127 0.28318533 -0.0041231764 -0.7328718 -1.2432454 0.09138074 -0.92816037 0.7898328 1.2655762 0.6442551 -0.37651467 2.134886 0.676487 -0.72158134 0.5192686 -0.5696881 1.132643 -0.40041465 -1.2304997 0.78812253 0.25128192 0.79476935 1.3728536 -1.8632747 -0.95430195 -0.36528316 0.9148634 1.8381615 0.24139068 1.469892 2.8813717 -1.3957614 1.3582002 -0.40783253 -0.7897346 -1.0603305 -0.71099776 0.040714517 -1.3203819 1.4148883 -2.9781892 -1.1286678 0.395407 -0.5033687 1.4703144 1.2498091 -1.438749 -0.27686673 -2.0614605 -0.8075001 1.6725849 0.4881975 -1.714349 -1.9048839 0.0052641453 -0.9786235 -1.1986811 1.0203917 1.1621804 -0.6150918 1.8307998 1.2347833 0.71197367 0.3329928 0.75922656 0.27664393 0.6548424 1.3788447 -1.674212 -1.5396715 -0.9137756 -0.14640072 0.77025443 0.46717376 1.9507768 0.37299466 1.1459422 -0.39213276 -0.75693285
C7H15NO3+K+ -0.15212548 -0.55014116 -0.8563027 -1.0058666 1.0689223 -0.5817967 0.51275575 -0.7158134 1.7937255 -0.2646469 0.11610695 1.2735593 -0.31662226 -0.643372 -2.0658839 -1.1062601 0.4333428 1.7169373 -0.53338426 -0.32981595 -0.7071385 1.44564 0.010970215 -0.056568 -1.2692227 0.17775649 0.34783176 -0.07972741 0.8326294 -0.7510561 -0.11644705 1.036864 -0.6680655 0.15093328 0.95085776 -0.73028255 -0.4856135 -1.2014625 -0.13748413 -0.482521 -0.68295914 0.72091573 -1.6825215 -0.34481347 0.3253962 -0.9101698 -1.3227066 0.33673972 -0.08217924 0.5089029 0.41781855 0.025826044 0.50855863 -0.2111859 -0.2662026 -2.5067399 -0.32372764 0.06563965 -0.07590432 -0.28449485 -0.99729294 -0.28206 -0.035537943 0.24084735 -0.7721183 0.48253086 -1.0187274 -0.24946135 1.5732119 0.39968285 0.5808602 -1.025558 -1.8817666 -0.19415021 -0.5138664 -0.9809825 0.29509643 -0.82261264 -1.3668966 -2.0007427 0.4466572 -1.8774271 -0.26821238 0.824762 1.3917643 -0.75606257 0.12611951 1.774248 -0.7754057 0.5616375 1.5760168 1.4703425 1.196032 -0.33451733 -0.69127584 0.08261962 -0.8116184 -0.69945425 0.25519714 -0.9786859
C26H50NO7P+H+ 1.903161 -1.0690521 -0.44054312 0.262688 -0.48008695 1.3404418 0.5895476 1.0717355 0.8862428 -0.71306 -1.0190742 -1.3241774 1.5838394 0.34394065 0.5454398 1.0988426 -0.54831976 -0.43934035 1.190488 -1.5245924 -2.3278844 0.5358666 1.3157971 0.11179202 0.96667755 -0.035291772 -0.68483996 -0.12882774 -2.4599183 -0.17219555 -0.023639271 -2.0021856 0.2829213 -0.2531499 1.1770734 -0.94155955 0.039560735 -0.08247671 -1.2606465 -0.23077112 -0.30369172 0.15056583 -0.26897764 -0.48298636 1.6892337 -1.2552007 0.09303032 0.8553693 0.18379919 -1.195177 0.041655008 0.55285203 -0.36952052 0.24307062 1.1414961 -1.8652924 -1.3799089 0.8385651 -1.4927871 -0.32695016 0.8912456 0.34817642 -1.1735028 -0.54504764 -1.0786325 0.7924433 -2.900984 -0.9191424 -0.64159477 -0.11736137 -0.1463815 -1.0983715 0.06345487 1.6356646 0.6429397 -0.6466035 -1.8809872 -0.45716608 -1.3005979 1.1603574 1.1248705 2.1629682 1.6045167 -0.55597955 1.2377933 -0.23380493 -1.4083207 0.9002217 -1.3798242 -0.70920116 -0.49657592 -1.0830718 0.42689782 -0.8215279 -1.691404 -2.3483374 0.77359873 0.11091024 -0.9190586 0.7546879
C13H17NO3+Na+ -0.40176913 -1.2171541 -1.8525918 0.7935166 0.19831204 0.052330412 1.025708 -0.37197086 -0.7746893 1.3588992 -0.8817044 -0.4682006 0.21190766 1.2664496 1.3676131 -1.2302735 -0.9200756 -0.17786738 2.027289 -2.6738193 -2.3267915 0.58175105 2.1670966 1.1323541 -1.7045197 -0.22968607 -0.9420074 2.2879496 -1.2793643 -2.4448342 0.71152264 -0.46207377 1.3748469 -0.10323023 -0.29028815 -0.7169692 -0.0942436 0.33902776 -1.4339072 2.0848372 -0.68806505 -1.4370463 -0.75745136 -1.4315467 0.51861286 0.28709263 0.5177397 0.7599743 0.76243544 0.40158212 -0.39115295 0.28209883 -0.92220426 -2.3212032 -1.7105062 -0.7677871 -0.73841065 -1.8391689 0.73625183 -1.1517904 -0.17935586 0.08156997 0.5175719 -0.7206265 -0.8091613 -0.13764383 -2.294324 1.2077125 1.8869203 -1.5843978 -0.0030159294 0.009994532 -0.29768687 0.6027129 0.36265755 -0.03974221 1.2830979 -0.71064013 -0.011648665 2.65387 -0.14572151 -0.71525216 -1.3680179 -1.450528 -3.159476 -2.9992669 -0.20619929 1.1191916 0.56843 0.452976 2.2161083 1.4800347 0.04534912 0.71826696 1.0168146 0.6338928 0.015740251 -0.4508057 0.72250444 0.40469012
C10H16N4O3+H+ -0.4912389 -1.6647424 -0.9247644 0.086805046 2.88691 1.571591 0.1727369 -0.7259569 1.0923936 -0.3385286 -1.1233373 2.9340186 0.6387134 0.52959985 -2.2645319 1.0031432 -0.9572435 2.838903 0.94634426 1.3643366 0.76330155 1.3075724 -0.49225146 0.481549 -0.9795916 0.97764295 -1.6590601 -1.3685066 -3.4007156 -1.836711 -2.598457 -0.9516993 0.35171387 -0.9846364 -1.8565822 1.8090849 -1.583222 -1.1824883 1.7547605 2.081426 1.4784293 0.059348293 0.8641654 0.32726917 4.5080466 3.4275863 -0.6445355 0.5686098 0.8459396 2.3933508 1.2012391 0.62846637 -0.22453892 0.61337143 -1.2139118 -0.37009674 0.681681 0.49532476 1.4404658 -0.7627304 2.029078 -0.15178874 0.16219361 0.7675254 -0.795896 1.434053 -2.6951916 -0.28749526 -0.23588113 1.0216867 -2.3179967 -1.9962912 -2.509362 -1.6298932 1.2205694 -2.5728812 1.2208867 -1.5917357 1.576992 -0.5282768 1.9161487 -0.08798624 2.327736 1.8019929 -0.5858687 -3.2197301 0.6763653 1.361231 1.9056414 2.9964387 1.3369201 0.98867995 2.6172335 1.4630382 -0.7475477 -0.017216546 1.8791211 -1.7830739 1.5526865 -0.4204739
C8H20NO6P+K+ 0.26135752 0.07467481 -1.4894688 -0.69440114 -1.1307676 -1.4253396 -0.75105304 0.4882133 -1.2239186 -1.5271523 0.38125414 0.4993726 0.49964613 0.35584855 0.8052374 -0.59066844 -0.19395405 0.49401507 -1.3152983 -0.01187404 -0.5386073 -0.46520382 0.06004838 -0.41570452 -0.40418687 -0.523029 0.6301176 0.11518036 0.84003305 0.9871631 -1.5489975 0.35756004 0.10460442 -1.0390062 0.81022877 0.1690587 -1.5237142 0.94872594 0.13485265 0.1264187 -2.5381413 0.44215274 0.38796723 -0.28653798 -0.8450896 -0.35648954 0.44822267 0.78571516 -0.5694657 -0.4014858 -0.5096307 -1.6172112 1.0472503 -0.57102096 -0.88140917 -0.14145677 0.3341691 0.9294825 0.24326387 0.16113986 1.063108 -0.57522357 0.55179256 -1.1624359 0.14187425 -0.34959105 1.7769204 -0.10797009 -0.99800736 -0.29886985 -1.0573926 1.4320166 0.356519 1.521791 -0.25984251 0.71280205 0.4734035 0.36447677 1.3970579 -0.81650364 -0.4297707 -0.29287308 -0.4312996 0.66296303 0.32700968 -0.4186964 -0.85960037 -1.1540867 -0.08687467 0.9857161 0.5890117 0.09420925 -0.8308055 -1.9431075 0.5591391 1.1828403 0.45845985 0.12587954 0.44965136 0.15520188
C26H52NO6P+H+ -1.0108969 -1.5035975 0.115842864 0.08138768 1.0394073 0.7922436 0.38158503 0.8950834 0.84658265 -0.64304936 -0.6743273 -0.802121 -0.75875825 1.4268557 0.4487964 -0.3722823 0.82716453 -1.7574943 -0.12335952 -2.213999 0.941918 0.25016794 0.3512912 0.8596509 -1.0704452 0.71530026 1.6516936 0.623577 0.77301294 -0.23108673 0.70499206 1.8090078 0.6697318 1.2444438 -0.7038458 0.4458511 0.67411923 0.43259814 -0.5321327 0.33012924 1.1005931 -0.3369842 -1.0595584 -0.4521415 -0.14903374 1.5746653 -1.462128 -0.40878633 0.45267957 -0.7840279 0.21743242 0.9309052 -0.39398858 0.61931276 0.61794513 0.2763832 -0.32721934 0.10636434 -0.06703846 -0.61296767 -0.64108515 -1.5077852 -1.2819015 -1.4600227 1.7538089 1.1071411 1.2328407 -1.189532 0.115538605 -1.0220731 0.7885027 -2.153475 0.26204824 -1.3435634 -0.50445944 0.29245132 0.108080424 1.0759077 -1.0020734 -0.8360102 -0.45457834 0.63894546 1.3007672 0.3988997 -0.83122516 0.55851007 -1.8529557 0.40544143 1.2411911 -0.83669806 1.2499725 -0.40975383 -1.345109 1.4928949 0.9820876 0.84690535 -0.14693101 1.1583009 -0.58527046 0.35537505
C10H19NO4+H+ -1.0395854 -0.96434367 1.2920015 -0.06327208 1.4941353 -0.51056427 1.54576 0.1510113 -0.031628072 2.307527 0.7275896 1.5065823 -2.3403018 -1.6925529 -0.85164964 0.4769373 2.0892818 0.87561166 -0.2732889 -0.1576444 1.0059203 -0.96321076 0.9505725 -0.86661464 -1.8499632 0.082982145 -0.14771803 1.5005064 0.9819571 -0.6525906 0.183105 1.3944585 0.807307 -1.5116267 0.19710447 -1.4671715 -0.11121388 0.13360123 1.6301578 0.7648649 1.6746292 -2.142109 0.49624506 -0.389598 1.4567956 1.8508723 -0.33510932 -1.4382969 -0.5598172 0.9731089 -1.3149387 1.3796504 -0.8140828 -1.0269969 -1.0082114 0.5951913 1.8228474 0.03593763 0.88349706 -1.8162837 -0.11753328 -3.3284595 -1.314123 0.95808595 0.71371615 1.1831334 0.13177322 0.5127368 -0.7891318 0.45794123 -1.0779663 -0.44580427 0.02292823 -4.9016347 1.166844 1.1886808 1.7460402 0.93342763 0.30120552 -0.5301147 -2.0541122 -1.2357669 0.3276714 1.9797846 0.9241827 -0.670436 -0.5143319 0.175935 0.26060838 -0.6943734 -0.60072166 -1.5184169 -1.7997881 1.4724777 0.5244685 0.62862265 0.089542806 0.1523308 -0.45354986 -1.9530443
C8H20NO6P+Na+ 0.6438944 0.5508714 2.6764143 -0.93906516 0.31501698 0.28175277 -0.9709653 -0.5825293 -0.3292166 1.2632276 -0.15159766 0.113224775 -1.1068217 0.5847926 2.0663524 -0.17251427 -0.79957825 -1.2630901 -0.06907484 0.8957206 0.026344195 -1.7454925 0.2113435 -0.51263463 1.245007 -0.7805497 -0.070321456 -0.595911 -0.53852254 0.29867262 1.5743879 0.47243527 -0.10153948 -0.46303692 1.4810035 -0.21042313 -0.48996782 -0.034410495 0.8237283 -1.2556164 0.0072636334 1.8050967 0.36122847 1.1399416 -0.18856642 0.37789807 0.47741538 2.3506708 0.0036843445 1.1972444 -0.57926863 2.928891 -0.4306436 1.5600171 -1.344234 0.63193196 -1.1557819 -0.44020164 1.0783471 0.010891747 0.31755713 -1.274815 -0.50293386 -0.29206386 -1.3161403 1.0121008 -0.32503197 0.07966388 -0.7454875 1.5033348 -1.2224611 1.1874005 -1.3146704 -1.4906825 0.95016617 0.5384004 -0.32972533 -1.4150182 1.7128217 1.0847216 0.99872196 -0.42407703 1.3707691 2.1544073 1.2887064 -1.1179802 2.0012896 -1.8849366 0.68990487 -0.6045628 -1.1575898 -0.781798 2.1162317 0.8089108 -1.6420236 0.13903365 1.0790149 0.7466021 0.34296677 -1.3047937
C10H11NO2+Na+ 2.2495031 2.4219108 -0.89519715 -0.055905428 1.8438934 0.3996519 0.9851743 -0.5564491 -0.44150177 0.1893758 -2.0025976 -1.0839347 -0.15371554 -0.26186776 0.47103992 -1.4505507 -0.5768336 1.2420378 0.6108927 1.9398761 -0.99305564 -0.049865395 1.2123203 0.018998398 1.1147001 -0.31191185 -0.051640373 1.2763879 -2.4304132 -1.9295985 0.26100928 1.288746 -1.6078439 -0.27103895 0.34264934 -0.860691 -0.01898241 1.0300791 0.4088659 -0.08686613 0.14313047 0.50754505 0.5553406 -0.4668653 1.2837269 1.1097744 1.4543707 1.7158561 -0.59553945 1.4108434 -2.4257994 1.5533779 -1.1060331 -1.2585931 -1.3311211 1.4662107 -1.4298916 -1.1147411 -0.3234215 0.3487939 0.058444604 0.51783264 1.1256424 -0.655236 -1.3222789 -0.9515544 -0.16557904 -0.89770025 0.04323825 -0.475317 1.0304312 -0.14802714 -1.0991461 -1.024919 2.497284 -0.28732026 -1.0448763 0.21835653 0.29767305 0.13842863 1.2787905 1.3264024 -1.4670111 -0.48029387 0.5637239 -1.9614624 1.0401641 -1.1982892 -0.62986535 -1.14907 -0.019248962 -1.0767937 -0.12405994 0.074529074 -0.7567444 0.27525318 1.1750286 -0.36041346 -0.9319251 -0.90775967
C37H68O4+H+ 0.04309143 0.80505145 2.3202531 -2.690981 0.63584906 -0.80301493 1.7319355 4.369743 2.2551272 1.8817282 0.7784275 -0.07688395 -1.0623217 -1.5200725 -0.5317871 1.7748295 -0.10509276 1.4395746 1.0311475 1.2069978 2.5759692 2.278263 2.401653 0.37936667 -2.3796065 1.5803183 -2.2682443 0.2434612 1.0105522 -5.4417143 -0.4232234 0.00510908 -1.9964429 1.0627786 2.6813912 0.7879551 -1.5193272 -0.62459785 -2.1692777 -0.032413244 0.14107901 0.29011327 1.4966806 -1.1203908 3.0821953 5.870956 2.3342748 1.5392704 0.12199637 1.798814 -2.966703 0.59404963 -0.23330584 -2.7694662 1.279665 -1.2476171 -1.1913185 -3.0953743 -0.9520306 -1.1011627 -2.512498 -0.4348219 0.66240126 -1.7961614 0.4339959 1.4181719 0.1441004 0.07782196 -1.8631107 1.958433 1.4841778 -1.010304 -0.27116382 -0.7746255 0.9683512 2.7227046 -0.7257777 -2.687297 -0.8769805 0.9035823 2.3224487 -0.69346094 -1.1396577 1.9152135 -0.7204058 2.4166136 1.204995 1.7978569 -1.0925072 5.473247 -1.4944053 -2.3729372 -1.0105029 -0.83471376 1.0161927 0.44618666 0.12742934 -1.1317824 0.06479198 -0.10394697
C7H6O4+Na+ -2.0562096 -0.11843637 -0.6722567 -0.7222966 3.5215628 -0.013139455 1.3271171 -1.296333 -1.4741842 -0.13400711 2.4561198 1.3964614 -1.4973108 1.574991 0.2479969 1.6355507 1.0960774 -1.8131914 -0.41201052 0.27255347 0.36087784 0.855781 -1.3395816 -0.20241867 -2.273919 3.0106542 -0.50412166 1.022632 1.3200758 3.3665473 -1.08567 -0.10071073 -0.52507627 0.5191237 -0.023831615 1.3504279 1.5808663 -1.4209754 0.4713077 0.40994185 -0.3702583 -0.44220036 -1.0770843 0.0071507753 -0.255123 -0.06909466 -0.80850726 -0.58178145 1.4023468 -0.15177082 -1.9304389 3.1433823 -0.5643747 -1.3700682 0.82027537 0.6287041 -0.52471757 -0.75740993 -0.48669893 -0.87819016 -2.203249 -1.6072426 0.23765376 4.352616 0.8163214 1.0892961 -0.8887889 0.06325858 1.7646474 1.1725205 -0.60889584 -0.9144269 -0.37218115 -2.51152 3.8510237 1.5888761 -1.4543523 2.9371417 0.18585773 -2.3892899 1.5398593 1.7118845 0.22392511 2.3703327 -1.1073796 0.53902847 -0.03123848 1.9921222 0.4458397 -1.0081602 2.0395176 0.5793404 1.4211628 0.9131671 -2.1024234 0.1593981 -0.22496302 -0.5530684 -1.1710001 -1.8276877
C15H28O4+K+ -0.4948078 -0.03447528 0.054179274 0.16158071 -0.14069125 -0.15553582 0.2330164 -0.18011293 0.12890883 -0.56185967 -1.4676019 -1.1087195 0.09053524 -0.8921149 -1.2629316 -0.304711 -0.09353308 0.6686994 -0.3917425 -0.3410274 0.17209482 0.22309753 0.4233621 -0.2820789 -0.90167415 0.47844058 1.1557151 0.89733285 0.31338775 -1.3125367 0.5308843 -1.5278527 0.98547536 -0.05978697 -0.44506073 -2.2296762 -1.5384237 1.2815019 1.1504518 0.28528234 1.7484406 0.28520492 0.55553925 1.221414 -0.59448683 1.7037679 -0.3493352 0.14859717 0.6382731 -1.2641511 -1.8975501 0.35373357 -0.87045014 -0.8989801 -0.39786413 0.23786905 0.76184076 -0.058480475 1.4602315 1.2503945 -0.8104366 -0.27435353 -0.9824601 -0.7746082 0.066875376 -0.3515202 -0.62125915 -0.17812078 -0.16718361 -0.099327445 -0.012277281 -0.3843611 0.8291632 -0.7513578 0.5855109 0.23264636 -0.56879777 0.30160558 -1.2407347 0.3942031 -1.1819832 0.95615995 0.50821334 -1.8380543 0.165909 -0.8204091 0.70027024 0.8237801 0.9823073 1.1166738 0.8037902 1.2698041 0.6239021 2.3266237 2.6110864 -0.15979345 -0.23287462 -0.8464298 -1.2990297 0.33520237
C35H66O4+H+ 1.9025863 0.18492039 -3.3934336 -6.475311 3.60538 -0.62564415 0.8878786 5.5331306 -0.41624665 1.2479213 -0.45619816 -1.719298 -0.12006019 -1.6898223 0.52205795 0.25494745 2.301056 0.5390405 1.4265926 -1.1722304 1.2878814 0.09843835 -0.47113138 3.169442 1.6715826 0.24250326 -2.127675 3.1480036 -2.2716236 -2.4380417 -2.099012 0.7220809 2.7018416 -2.980047 2.4116776 -1.0758945 2.5342896 2.2673368 -3.2933059 2.1719148 -0.35356542 0.18644972 1.7105479 -0.769797 2.1966016 1.7082328 0.62060386 1.1137937 -2.0679712 4.877217 -4.492375 0.55583256 0.45961928 -6.003762 -1.8007034 1.0037951 -2.1545727 -1.0309818 -2.4966931 -2.0949929 -3.0879447 -1.531328 -0.10747841 -3.4852302 3.2978692 1.6750815 2.3201318 0.25828472 -1.5041139 0.3063474 -4.80281 -2.1147432 1.3014562 -2.3470716 2.5758147 3.1519306 0.7083405 -3.7551172 -3.6762106 0.44979465 2.758763 -0.4553255 -1.5155656 -1.6354465 2.8626652 3.142681 -2.470084 0.9056058 -0.6975403 3.891797 -0.33757287 -1.9434386 -0.70603824 0.0042651966 -1.7134126 1.6184809 1.574417 1.1448098 -1.5730535 2.1568024
C7H6O4+H+ 1.3575258 -1.5277116 -0.1417147 1.351464 -0.7751779 1.0539612 -2.3520358 -1.4924121 -1.1268473 -0.0571939 1.6021674 0.07871855 -0.45313212 -3.0728815 1.0575585 1.6222787 1.638955 -1.2913514 0.03999382 -2.9940038 -0.049436986 -0.8427959 1.3977244 -3.1118562 0.3583523 1.2682831 -1.1293384 -1.8803358 -0.31701282 1.051249 1.6754599 -2.3614223 3.174847 -0.80587316 1.8800561 -1.4609894 2.4303844 -3.1768286 -0.12297182 -0.7791857 -0.33962372 0.722996 1.3786323 2.0604842 0.24492958 -2.7040186 -2.713965 -0.33857325 0.916244 -2.1490784 -1.099557 0.45522913 0.35484982 0.53946376 -1.6567063 -0.66726536 1.3049983 2.5129757 -1.6677889 0.6955423 -0.9561139 -0.4120469 -0.8020629 1.0997794 -1.4199698 -1.3584118 -2.3884814 2.5444012 -0.5084855 -0.83235836 -3.640658 1.8401741 0.32723114 -0.15491538 -0.82754517 -1.8703358 -0.8182475 -2.1488135 -1.9466523 -2.0274923 -0.7753881 1.4851006 2.8799412 2.5753026 2.4474022 -0.14148726 -2.1097462 -1.0305073 -0.31108445 -0.6790378 -1.9746898 -1.7385768 -0.881219 -0.7937532 -1.0533848 0.039064303 -0.56281173 -0.54833436 -0.7487673 -2.2173247
C18H24O3+Na+ -1.1256442 0.3109613 0.025282916 -0.071316995 1.3152336 1.1120317 1.5039762 0.2323979 0.60393006 -1.3354068 0.057520825 -0.33285624 -0.44116598 -0.37053964 -0.38115987 1.2345747 1.4915503 1.4672228 -0.13668644 0.5683763 1.7120568 -0.72532463 0.058293577 0.7357909 1.3759578 -0.5540237 -2.0694046 1.053142 -0.38584793 -0.58637136 -1.863464 0.6442594 0.17495908 0.4962563 -0.65650266 0.008757118 0.48452583 0.04980343 -0.13792087 0.6965985 0.59244376 -0.03311728 0.3309855 -1.5077255 2.2879887 0.40761524 0.08836506 -2.1299295 -0.4882795 0.46204764 0.46207866 -1.0635499 0.41637343 -0.35863405 2.0259168 0.67659783 1.4290949 -1.5390515 -1.4388543 -1.9174186 1.2117394 0.3010579 -0.8782202 1.0527763 2.1183195 1.3562179 0.9452584 -0.47925222 -1.1742611 -0.09587679 1.1067474 0.5412504 -0.20401685 1.0268295 -1.0083208 -1.483455 1.3632977 1.2940655 -0.657051 0.84805566 0.47066247 -0.24336247 -0.48108223 0.90356755 -2.0884156 0.5786123 0.409768 -0.046938706 -1.7260442 -0.99141973 -0.73708177 -1.3716189 -1.3136748 0.22906353 -0.45991692 0.0065520667 0.29857266 -1.7383001 0.067254014 0.43921697
C13H8F2O3+Na+ 1.1104169 -0.8113639 -1.803208 0.22893593 -0.14185424 -0.5634974 1.3319814 -0.40784672 -3.5776653 -0.57845765 1.0274472 1.3074766 -3.2669969 0.48513994 1.357122 -1.3530121 -0.7807586 -0.8944956 0.9580222 0.7886679 -0.60525036 0.24603756 0.4791249 1.1546142 0.39801615 -1.0043076 0.6735582 -2.0917323 -1.1212324 -0.7318506 1.5077761 1.4878757 0.6429048 0.8097729 -0.3576558 0.6785476 0.057653442 0.5563012 0.34134674 -0.73675394 -1.2682081 0.059076726 -3.3629143 -0.77009445 -0.1581006 -0.55672383 -0.5813503 -2.162918 -0.62709945 1.3959156 0.9057537 1.1572237 1.4939871 -0.74614394 0.5847136 0.14539716 0.92730385 0.19346198 1.1395608 0.3102337 0.1283093 -1.584593 -0.29138398 -1.1907318 2.6509826 0.673486 1.5856063 2.0780041 0.9193286 -0.13473794 -0.65361226 1.3718584 1.6186539 1.4568163 -0.8072176 -1.6558021 0.95780164 1.5383586 2.098475 0.23948881 -0.37502423 -3.5148141 -1.9694204 0.09305952 -1.3490838 1.358572 -1.8852195 0.31955653 0.89886427 1.4722211 0.42403933 -0.3463682 -1.3833573 0.265761 0.7293594 1.4278288 -0.70378256 1.3054136 1.4633931 0.99359447
C11H8O5+H+ 1.5581374 -0.34516847 0.3472829 -2.3585486 0.6175437 -0.10064341 3.0748668 2.9510882 0.73318404 -0.8514625 0.17430267 -1.3060036 1.1088012 -2.4500308 0.44557267 -1.4271692 1.1016651 0.2872468 1.3135127 -2.312603 2.214408 0.6108088 -0.18781748 -0.29792553 0.510914 0.08312559 -2.5020325 -0.3279922 -0.86162305 -2.7399983 -1.678601 0.779457 -0.7388046 -0.14960445 1.654437 -1.6857774 -0.21952887 0.5202479 -2.9259913 1.2121994 -1.3814622 -0.06720266 1.3745375 -1.5088587 0.246616 1.7156136 2.5546649 0.89362156 -1.3313947 2.3830805 -2.0399804 -1.4545218 -1.0668867 -3.9690137 0.1702511 -1.9576669 -1.5258069 -1.3505044 -3.3191729 -1.2663995 1.9357884 -0.7650835 -0.98145586 -1.4246796 -0.5419932 0.25909084 1.150939 -1.1372144 -0.042205513 -0.59699667 -2.3522172 -0.44016084 0.12958202 0.612079 -0.3918844 1.1717086 1.3393657 -2.7166367 -1.798058 -0.6614991 -0.275427 -0.85768217 -1.512867 2.8227928 1.2364708 -0.146102 -0.90849936 -0.51928586 -1.9747623 2.6306558 -2.3175054 -2.3882272 -1.8222086 -2.265801 -0.57227993 -0.19977954 0.62967885 0.11455873 0.48486927 -0.43430778
C14H10O6+H+ 0.39117563 0.79504967 0.8636612 -2.5409536 1.3119363 2.0150974 -0.3832845 0.863896 -0.06713548 1.7049052 -0.6021451 -2.327367 -0.26281676 0.91665804 0.37479958 0.76035565 2.715458 -0.092091255 -0.83819103 0.18936265 0.39432698 -0.25698152 -1.0594908 2.6931407 0.21783257 0.16997997 1.1751909 0.50762224 1.0624398 0.27988788 -0.4027624 0.21492176 1.4986465 -1.5223806 -0.47210363 1.940779 3.5581386 2.1057773 -0.46217716 0.8297385 1.847384 -2.2840054 -0.33494514 0.28886327 -0.85399884 0.1289085 0.13959922 -2.0710192 -0.043120228 0.5175339 -1.4219991 -1.5864425 0.63420826 -1.165614 1.7513012 1.3462143 1.1994756 -0.67413527 -1.7308851 -0.12292777 -2.3888676 1.578671 -0.26474765 -1.5186405 0.6193737 0.361264 1.0152942 -1.1744549 -0.9552837 -0.13072045 0.12865005 -2.7701898 -0.30828696 -2.8780417 -1.6330733 0.48402157 0.54736793 -0.4375793 -2.9107924 -1.3026069 0.14394027 -0.89842665 0.6289581 -2.9312325 -0.13926475 2.528948 -0.25298747 0.6531457 -0.38921303 0.50300467 -0.48514512 -0.3812053 -0.41074988 -0.27390292 1.2000346 -1.4771894 -1.0107902 1.2201302 -0.5588016 0.16175056
C24H32O5+Na+ 0.34965825 1.2982874 -0.8661381 -0.16866516 -0.08803134 1.4083786 -1.2412134 0.6260736 0.39038047 0.42890346 0.9310437 -1.3223419 -0.8452034 1.593294 0.60049534 1.2028565 0.7956734 0.5049725 -1.4068699 1.9643527 0.01790814 1.2157243 2.075425 -1.5763055 -0.52751905 -1.1768972 0.47350067 -0.67745566 -0.6414317 -0.58802223 0.8020985 -1.2499183 1.2124294 -1.0208111 -0.33807915 0.747679 -0.4275711 0.25758067 1.6352518 -0.49350882 -0.756614 0.5829785 0.7871582 0.34469846 0.03183182 -0.3289591 -0.6548054 0.41267106 0.72007 -0.22502443 -0.3509569 0.18993051 1.4797688 0.9468823 -0.4867855 0.07229029 -0.37796083 -0.29532927 0.22973497 -1.2347924 0.75110275 -0.22371106 -0.7430381 1.0443267 0.7376775 0.09797682 0.4448343 1.2582128 0.6873324 0.29651684 0.19345798 0.4314566 -0.5523457 0.15126136 -0.5554782 -0.98422325 0.0065197432 -0.000809054 0.32533455 0.34562442 1.1969424 0.5429263 0.987899 1.0505067 -0.059087653 0.72361 1.5206095 -0.04297496 -0.63066226 0.2953017 -1.5503323 -0.17283991 -0.5696359 -1.2959771 0.38206893 0.74070305 0.13724992 -0.4043375 0.37014958 0.8343231
C15H10O6+H+ -1.6200397 0.25821474 1.0615591 0.36659783 0.54638404 0.22036445 -2.193835 -0.86757 3.1634164 -0.6194315 -0.8535993 0.83322793 1.6743464 1.0851175 1.1030436 1.2522373 -3.178249 1.2547235 -0.7248519 -0.54227513 0.9129537 -2.3214853 -1.2624788 -0.44445246 1.737661 0.3087069 -2.9250467 -1.2222849 -0.08696974 -0.7522108 -1.4528137 0.581162 -1.8823401 0.26164266 0.7707393 2.4638913 -0.31151 0.110600404 -1.0640628 0.29778594 0.082359225 0.24445622 0.5701527 -0.5279216 2.9238105 4.2639837 0.14274979 1.772998 1.0358688 -1.092022 2.6343548 -1.810755 0.9624698 2.7385473 -0.30623928 -0.92797667 -4.7596726 -2.9704704 -1.3425046 -0.71691805 -0.47933593 -0.4399832 0.8675232 -1.6477674 -0.52570164 1.1932585 -0.014358247 -1.8320318 -4.955044 -0.28218132 0.20074601 1.6010548 -1.0459601 1.8367523 -0.9993662 -1.3373208 1.5355861 -0.15657207 -0.1337245 0.35136607 1.5773826 -0.37899786 0.11252942 1.2201355 -1.196014 -1.5392251 -0.12527889 -2.075976 0.5984348 -1.4118948 1.3460062 0.20728625 1.0951941 -1.0152073 -0.8814277 0.17122465 0.8552671 -2.1822789 -0.8169377 -1.5549825
C37H66O4+H+ 1.7431295 -0.17061651 -1.3644863 -2.9811218 -1.6881796 -1.132199 1.7273403 3.9309545 -0.72430533 -0.33792132 4.655408 -2.0178654 1.9984176 0.11135959 -0.9712899 -0.51004684 1.8160455 -2.8512292 1.928854 -2.1109872 1.8516201 0.81837887 -1.0999515 4.220591 0.3232404 1.0381188 -0.52313924 -1.1316037 0.51797444 -0.45418227 -2.5884767 -1.2131298 0.94315666 -0.5198202 -0.060379077 -1.0388445 4.9120855 -1.1995754 -1.0571009 -0.10580831 -2.9360423 -0.1841092 1.6217618 -0.13731469 -4.4069147 -3.1351676 1.9850292 0.5159972 -1.3131511 1.8444229 -3.6471238 1.6324756 -1.7272822 -3.4897566 -0.25374272 1.4338416 0.9816952 3.3702393 -3.4392064 -0.73173785 1.8740064 -1.4549059 -2.9989293 -0.7698275 -2.4721572 0.26559943 3.4310791 -2.7318726 0.84042394 -1.1873097 -4.249429 -1.3203971 2.313147 1.1164868 3.0357285 2.634614 -3.8228042 -2.316679 0.18501787 -1.3440397 2.779853 2.3150725 -1.510487 0.74483377 4.249309 1.8605249 -2.9061136 0.13086902 -2.9645433 1.2778891 -0.77912825 -2.542842 -1.9696472 -1.7660836 -3.648976 -0.6165405 -1.6112025 -0.77913433 -1.7844977 0.48722008
C10H14N5O7P+H+ -0.66184294 -1.3777759 1.0058848 -0.9157076 0.3661336 -0.52450293 2.7261395 0.2650128 -1.3128921 -2.2294176 0.35459325 1.1063875 -3.4027054 -1.5827299 -3.1562808 2.2974741 1.7773728 0.45480263 -0.35744372 0.9423608 0.8074599 1.2772417 0.029869823 1.2662574 1.8909192 1.096036 -0.2905593 2.1527028 0.5229647 -1.5138 1.995798 2.494747 0.7459163 2.3087704 0.6348115 2.4136364 0.1914876 -0.41489986 -0.23862934 -0.38964033 -0.32132655 3.0134468 -2.1660898 -1.0579234 1.1802269 0.59660983 -0.3408372 -1.1887391 -1.4163349 -0.16131434 1.1137354 0.00032008206 -0.50872993 -2.0712388 -0.6887449 -0.7096574 1.7280432 1.7590446 0.97095317 1.365273 -2.5116265 -0.52082187 1.0904548 -0.3482023 3.4111578 0.98452085 -1.2990333 1.0411222 3.0323508 0.125096 2.5496278 -3.7657876 -0.38182685 -2.5612946 2.5235221 2.2017975 0.13280855 -2.5682585 -0.18597648 -1.2433015 -0.11289868 0.6353313 -0.7825612 -0.869488 -3.178175 1.1650206 0.9071458 4.959434 -0.40289038 -1.3197396 1.4327214 -0.7405365 -0.9359998 -1.2808435 -1.5037415 -0.8538389 -0.92542684 -0.13216172 -1.1694888 1.5354221
C10H15N5O10P2+H+ -0.20882405 1.1923813 -1.5739325 -0.81347466 0.6595989 -0.20881796 -3.3857765 2.1570091 -0.759265 2.5166306 -0.09371312 -0.4768381 0.27558994 2.3098843 1.2748955 1.0075947 -0.32752147 -0.86429805 1.0223417 0.8870155 0.35899252 -1.1658542 0.005164967 -0.69094807 -2.090348 -1.5653342 -0.031448252 -0.4870747 -0.24046274 0.11941856 -2.4974115 -3.231228 0.016716866 -1.9502457 -0.69158846 -2.2157798 0.09562892 1.6305932 -0.77354395 0.28591895 0.5900846 -1.1183488 0.48421422 2.1407084 0.53339154 -0.3419298 -1.3694905 -2.6721175 0.0040053446 -0.24868089 -1.2082528 0.33137676 1.6190149 2.179395 1.5511125 2.6895678 -0.61350703 -2.2564218 0.7154342 -3.1771388 -1.059473 -0.5322804 -2.4882388 -1.0160296 -2.434079 1.7207558 3.3967333 0.70894676 -3.9585042 -0.05474832 -2.665948 2.2830606 0.4395259 1.333071 -0.22715311 -1.1462321 -2.4986737 2.9908938 -1.7437323 1.4771751 -1.1903853 0.9131216 1.7293153 -0.87585026 0.8651508 2.2226598 -2.158691 -2.79495 0.15599875 -0.53958625 0.03108923 -0.8798338 2.467755 3.63875 1.2028891 2.8699875 2.08323 1.1557144 -0.5334509 1.7385778
C15H16O9S+K+ 0.62790734 0.6733523 0.8357654 -0.8949182 0.8544327 0.12995641 -0.94379306 -1.415618 0.1513677 -1.4287211 -0.51077825 1.2586304 -0.70352393 0.47683126 0.8668643 -0.050665595 -1.5526918 -0.35946357 -0.15922856 0.7297362 -1.2596562 0.35055214 0.69444877 0.54065114 -0.6909212 -1.0754786 1.725749 -0.8101915 -0.36734983 -0.26194456 0.7753026 -0.30802864 0.94328505 -1.3693904 -1.1864581 0.16274072 -0.9509407 -0.4470462 0.93178785 0.23614545 0.43100846 0.629332 -0.22576156 3.0032432 0.20319898 -1.3956652 0.9646514 1.955099 0.6163273 0.57943296 0.66799784 1.0617511 -1.0645084 2.43035 -0.88310623 -0.2190362 0.02146355 1.4145509 1.9741656 -0.23600142 -0.70417315 0.16805677 0.42792293 -0.23295411 -2.6283429 -1.1304221 0.7286876 -1.2097731 -1.4609576 -1.2628983 -0.93374556 0.46240795 -0.23969814 -0.71100795 -0.95382667 -1.4910886 -1.309905 0.17357104 -0.41498888 -0.78087467 -0.1692486 2.5743184 3.1503131 0.22956859 1.0240461 0.24741963 0.37800705 0.17383046 0.106672324 0.36605102 -0.7146695 -0.45008418 0.99842894 0.4583123 1.3148336 0.27609634 1.7586303 0.44190282 -0.16138916 -0.27153307
C12H20N2O3+H+ 0.69976014 -0.033821132 -0.65154654 0.64547426 -0.15392517 -0.45718092 0.021759687 -1.5771734 0.46825746 -0.38931897 -0.35104835 -0.73636496 -0.28417882 0.17841867 0.16027531 -1.4819558 -0.4124451 -0.1587333 0.07014941 0.39125353 -0.48849738 0.8751934 0.24761786 0.513935 -0.24046585 -0.29581282 1.08435 -0.073961295 -0.16577604 0.79193157 0.468201 0.9570145 -0.8090058 -0.29602742 -0.6974179 -0.33818495 0.80706555 0.36278424 -0.74823266 -0.50468796 0.32000783 0.06984476 -0.88538927 -0.047592305 -0.8683285 -1.4887289 -1.3224311 0.5804191 0.8210539 1.1088761 -0.6303957 1.8971518 0.025866805 -0.32608587 0.30053097 -1.0406294 -0.3335374 0.4184375 -0.82100505 -1.3530918 -1.1174256 -1.0788045 -0.11990822 -0.2156907 0.07659376 0.018335849 0.7312183 -0.673815 -0.42239642 -0.66565585 0.61459154 -1.137711 -0.3417255 0.18749344 -0.83072734 0.5293441 -0.11833166 -0.15204921 0.10245979 0.3186032 -0.41878927 -1.5738399 -0.5082297 0.07119959 0.5732487 -0.4109667 -1.5513198 1.0931056 -1.0765231 -1.4577184 -0.25553906 -0.6779858 -0.6364567 0.079937704 0.9099893 1.7744793 -0.8251224 -0.1140172 0.75939626 -0.75977254
C9H14N4O3+K+ 2.0615587 0.41354942 -1.3418717 -0.10285253 -0.054098077 -1.6003774 1.4192481 0.7350053 -0.23910342 0.46078175 0.6282053 -0.8777243 0.8565226 -0.17235748 2.8849173 -0.5613128 1.5976537 -1.2755873 2.5334814 -1.0007988 -1.4647069 1.0793661 0.39820752 -1.9961183 -1.9841053 -0.35752088 0.2732105 1.0478765 -0.44776475 -0.11300281 1.362054 0.29631066 -2.5243042 -1.383443 -0.16427499 -2.5461478 -0.12398438 -0.99836653 -1.8612015 -0.27547902 -0.7852143 -1.2943641 -0.52855104 -0.8296636 -0.77387625 -0.612246 0.46189523 0.83842057 -0.5703807 1.1027557 -2.44145 -0.5424373 1.1953763 -2.3004222 -0.092995115 1.989363 -1.1612008 -0.35465991 -2.1312199 -0.66175044 0.046252944 -0.21949062 0.3284812 0.028385047 -0.4093589 -1.908241 0.46466723 -0.16369535 2.1072855 -0.21524017 0.8043338 -0.6154372 -0.028127812 2.4358454 3.3893373 1.0145196 -1.4027582 -1.5740156 0.92422056 0.012550805 0.2029539 -0.10111784 -0.9290564 0.27349865 -0.17462423 -0.2633224 -0.30460533 -0.65276414 0.8377862 1.1236193 -0.065359026 0.7373844 -0.34681195 0.9315407 0.42231634 2.7721887 -0.6198499 -0.23180343 -0.23614939 -0.9015283
C26H52NO7P+H+ 0.16895226 -0.22890094 0.060845263 -0.16638914 0.8584488 1.0573778 -1.5351396 0.26530647 0.66931295 0.96035546 0.09046501 -1.4925088 0.492676 -0.25927648 -0.0583388 0.14222273 1.7465181 -0.70119935 -0.056842066 0.056609876 1.6946759 0.018970843 -0.34656933 -1.2843995 -1.2180939 -1.0866894 0.8620565 -0.85344267 -0.26011044 0.79569304 -0.7091931 -0.1990722 0.24856582 -0.59268886 -1.377859 -1.5032324 0.62561566 -1.4572629 0.9353668 0.23065735 0.10827519 -0.9472835 1.54389 0.29538697 -1.7577101 -1.1473007 -0.60377747 -1.4776473 -0.23879972 1.1112064 -0.5602121 -0.83638144 -1.0164098 -0.54550624 -0.5040802 2.765971 -0.79927856 0.5257153 -2.4766548 -1.0713334 1.4210508 -0.6157732 -0.26461473 1.5747228 -0.090747 -0.5642571 2.1561444 -0.9627914 1.6329149 0.9909454 -1.1385156 -0.70713353 -1.1977112 0.5338839 0.2836509 0.2186201 -0.18310055 0.4137186 -0.79845554 -0.7412275 -0.28685278 0.45655945 1.3500133 0.47121915 2.4915905 0.8610117 0.64226484 -0.71142 -0.42480615 -0.32124457 -0.87105346 -0.4215355 -0.018171625 2.0655496 -0.54514545 0.25710055 -0.29914734 0.3242251 -0.4764256 -0.35321882
C24H50NO7P+K+ 0.9451667 1.9349781 -0.7295048 1.0245713 2.8751974 0.64577997 1.4140096 -1.9633726 1.0981513 -0.31767425 -0.04258676 1.0114474 1.536629 -1.2286638 0.98366755 -0.33057502 -0.78874296 0.35853854 1.938264 0.13014323 0.3576308 -0.24111235 -1.5434462 1.3696958 1.2455354 -0.096224844 0.43379256 0.02803422 -1.6700407 -1.4165787 -0.1164088 1.6279719 -2.7456923 -0.1039035 -1.2661649 -1.2595466 -0.36588043 -2.9027994 0.81698865 -0.18818071 1.8222344 -2.8694565 0.10364184 -1.5233043 0.9158837 0.27876082 2.536696 -1.1763921 -0.42175567 2.658831 -1.4967996 -0.28151 -0.74400836 -0.86383253 0.7076774 3.3140547 0.63225365 0.6695212 -2.8015506 -0.0645631 2.075445 1.1957862 1.936928 1.0380892 1.6444385 -2.4774652 2.8010955 -1.7314793 2.365691 0.11528161 2.1041267 -1.6479663 -0.76896715 1.9643592 2.593955 -1.4269992 -0.4691094 -0.07259166 -0.27819973 0.2675513 2.4910755 -1.4725751 -2.6042836 -0.7455216 1.6770738 0.76388764 2.3600187 -0.44162625 -0.8378363 2.4921207 -1.48463 0.14035575 -0.9105957 2.1736395 -0.8320063 -0.89069515 0.35215768 -1.6910241 0.293317 -0.8804288
C10H16N5O13P3+H+ 1.0190401 -0.6501465 -0.5651594 0.5033376 0.003951527 1.9048448 -0.5326786 0.56161755 3.3038754 0.907997 1.9013819 0.07778094 2.237302 -0.8337649 0.58871514 -0.18067253 -0.9202074 -1.860373 0.9706792 -0.092352256 1.4583888 1.8874019 1.6932843 0.6614279 -1.306314 1.8718851 1.491608 -1.764028 -0.30613086 -1.7549536 -0.2232525 1.778303 -1.7268015 0.76321346 -1.5459726 1.7835249 1.4882418 -3.4857678 0.20280452 -0.92484426 0.89667255 -2.004301 -1.2157298 -1.0340997 -0.7447104 1.903276 0.05305305 0.27715525 -1.5086751 0.6321388 -0.3691222 0.3761339 -1.2490293 2.2067938 0.9571836 -0.88215655 1.0726898 3.0503812 -0.4163554 0.4784919 -0.19679475 0.7884629 -0.12999997 -2.009217 -1.331663 -1.9936988 2.1679842 -1.2160854 -0.10588129 -0.13714066 -0.06478489 -0.8142738 -1.0484666 0.97684056 -1.7862536 -0.29664955 -0.30486706 -0.32448372 -0.9489425 -2.2358148 2.753909 -1.9586104 0.62429076 2.437145 3.1071942 -0.13825586 -1.5355006 -2.5446258 0.31288463 3.8972208 -1.1076211 -1.4531434 -2.683221 -1.5864607 0.45620993 -0.76529515 -0.3845588 0.5268732 -0.6006696 -0.18534987
C9H14N4O3+H+ -0.6477512 0.8283031 0.99025345 2.6597507 -2.9260378 -1.8049192 0.8703002 -1.9809953 1.3904806 -0.01973613 0.74240446 -1.1629907 0.25761783 -2.331566 -0.84212863 -1.1411276 2.2743268 0.7239444 -0.058509186 1.9741945 -1.3288449 -1.3926958 3.7560527 -0.41088766 1.9414452 -0.92705554 0.6126135 2.6384788 -1.9316715 -1.0840818 1.0372107 4.6126413 -0.39916328 -0.08431771 -1.3887503 -1.103604 0.39165676 0.22134644 0.90513104 -1.8080448 0.3256356 -1.051175 -2.2567177 -2.0112078 -2.565868 -2.664056 1.7741951 -0.011235701 -3.4228203 2.0319617 -1.3603655 1.5708835 -1.1198077 0.35217044 0.41876528 1.3844157 3.9765296 1.4123195 1.2020241 -2.6241968 2.2408292 0.44736436 0.09880548 2.5868564 0.39582783 -0.42994207 0.86477786 1.4993939 5.131137 0.10945965 1.373373 1.8183063 0.27299362 -0.5789673 -1.2144556 2.5058088 0.27057013 -0.113413535 3.6548257 1.9145066 -1.7506348 -1.913599 -0.48372945 -0.3133925 0.5530597 -3.202813 0.75821584 -2.560798 0.5310203 -0.27550116 -0.05435218 0.27686837 -4.227268 0.5109865 -0.76801926 1.8815917 -1.164848 -0.6256565 -2.6846113 0.5443689
C23H45NO4+H+ -1.2019987 -1.8298631 0.81324106 -0.50723433 -1.1034279 -0.64112496 2.3140748 2.2742705 2.5990653 -0.17912139 1.1291912 -0.22870436 1.784602 0.11277406 -0.63791794 2.894873 0.19508252 0.21516411 0.51790637 0.27755165 -1.7940656 1.2162263 -0.0132017685 1.5037789 -1.9631753 -0.89591783 1.403975 1.504475 0.8431773 1.1958368 -0.084934264 -1.970199 -1.9708372 -0.8653538 -0.36470497 -2.0834403 -0.7034326 -2.096272 0.90799475 0.12339949 -0.7056064 1.8134601 0.22977291 -1.4153003 1.5792415 -1.6589631 0.5462646 1.2267414 -0.8766848 -0.5472682 -0.34042484 -0.0050889356 0.65687174 -0.11984671 0.56952405 -1.6333865 1.393228 0.39238584 -0.37341636 -0.8913584 0.079328604 -0.866767 -0.9660227 0.041658945 -2.018616 1.8294691 -3.2574716 -4.1611094 -2.78885 -0.48413152 1.6632817 -1.5983784 1.4472184 -1.4136841 0.64860666 0.87202585 0.67924637 1.2469316 1.194311 -1.3331201 0.736401 1.2954948 1.4726065 1.6008883 0.65935564 -0.29712626 -0.6071001 1.0956445 -0.7596728 -1.926129 -0.18082246 -1.6361756 -1.2943805 -0.76869595 -1.5874673 -1.49364 0.46626183 1.4993666 0.9353821 0.077928044
C11H21NO5+H+ -2.8792982 1.1227047 -1.1161705 0.6862625 0.20550324 0.9136654 0.07370846 0.13129829 0.9310481 -0.94879997 -0.6392318 -0.15108328 -0.05159428 -0.6948654 -1.353409 2.418501 0.9638652 2.2003953 -1.4821119 0.8170992 0.03251781 -1.2885891 1.0744176 1.2431539 1.2398686 -1.3617029 -2.1107872 1.0486138 0.5825794 -2.516684 -0.3635848 -1.328739 1.6496418 0.3465797 1.4422628 0.98447454 -1.1059389 -0.6229233 1.413707 0.5012975 0.42126432 0.39409465 1.3958571 1.4453101 2.6607578 -0.9615205 1.7322732 -0.2535699 -0.39596093 0.4906255 1.0401285 0.89760447 1.053123 1.6139618 0.6174988 -0.04332426 -0.37679857 -0.702764 -1.1692346 -0.7172325 0.2947306 0.5275294 2.1337352 0.17948203 1.5880117 0.30339453 -1.1668053 -1.2096976 -2.9200437 1.3176078 3.7140393 1.313556 1.5885338 1.1132467 -2.5576637 -0.9743896 2.5848768 1.3990403 -0.5111485 0.25757623 1.3333781 -0.37699333 -0.8083745 -0.2744605 -1.2246574 2.6227891 0.13060126 -0.35828242 -2.1231303 -0.76203746 -0.18850796 -0.35325631 -0.9995571 -0.6097042 1.299965 -2.4217918 0.19758463 -0.80287004 -0.67000383 1.9172419
C9H15N3O2+H+ 0.57586914 0.6307938 1.4133085 0.58402795 0.7261418 0.037594322 -0.7213864 -0.55248815 -1.2828614 0.92890286 -1.9173273 0.05255119 -1.6379983 2.0858774 0.56133693 0.69243294 -0.77955633 1.3280805 -0.86446273 -1.3717897 -0.4658844 -1.109199 0.78937 0.8582436 1.8378403 -2.1223195 1.8490083 1.4437248 0.8469488 -0.25231946 0.35856488 -1.7717913 1.6035465 -1.3198801 -0.30073795 -1.2192336 1.6384221 1.3508933 2.5836008 1.8356049 -0.85154676 -0.49923638 1.973563 1.8862966 0.09464294 -1.2199392 -0.68142825 -0.27166963 1.4715385 0.658175 -1.6739364 -1.1038634 1.942073 -0.338817 -0.60037607 2.4652615 0.50585645 -2.9015925 -0.9558981 -0.6612849 1.5852183 -0.4823105 -0.5787033 1.6844907 0.41544944 -0.14095706 0.8076888 0.1136603 -0.53231037 -0.8572038 0.17704742 -0.028851226 0.5626183 -0.34217307 2.202287 -2.9142547 1.4155009 -0.9485003 -0.58358246 1.8043803 -0.80729926 0.9680983 -0.7754667 -1.8040555 -1.0373111 1.2234637 1.6050369 -0.6961635 0.78142226 -2.0714846 -0.98795396 -0.75368935 0.06289178 2.7775128 0.07929961 1.2013942 -0.102232605 -1.2371857 1.7951691 -0.21730977
C6H12O6+K+ 1.106729 0.39379662 4.0559993 -3.3134346 -1.4738209 0.03211747 0.30714697 1.795796 1.1359315 0.40537855 -0.5798022 0.545125 1.7747812 -0.72356415 0.69007474 -1.9486729 2.4551756 1.7422286 0.15024132 -0.48155 -1.7248665 -0.7577255 -2.4897335 1.6886358 0.69025654 -0.92945737 -2.479714 -0.2281675 -2.7976596 -0.06501307 -0.31827244 1.1575569 1.1271765 0.024113629 1.4350104 -0.055338833 -0.04273308 1.3581222 -1.0589598 -0.6397918 1.5244495 -2.043652 1.9004062 -1.273528 -0.26298404 1.2805367 1.2335832 -0.16355404 -0.5582092 -0.45518047 0.026043737 -1.6192007 -0.59888154 -1.1012391 0.1662079 3.0418246 0.42905325 -0.17455338 -1.1413482 0.83225024 0.46923402 1.3058006 -1.9033135 -1.0758955 -1.0901036 1.011393 -2.9471276 -3.22199 -0.7254676 1.463375 -2.8813214 -1.59854 -0.50194156 -1.2921466 -1.0143903 -0.2578697 -1.5682093 1.0180678 -1.4314198 0.63111013 1.0786316 3.1935377 3.3530407 -1.00202 2.473405 -1.4383521 1.4206833 0.06983421 1.0939006 1.1038125 0.5864313 0.40861636 0.41372052 1.8647717 -2.4086623 -4.690312 -0.57913315 0.65543073 -1.0541643 -0.77182627
C28H33O14+Na+ 0.6959845 -2.1768265 -0.31669572 -0.59070504 -0.04600529 -0.5597291 1.5346998 -1.1343484 2.1993222 -1.8008538 1.509588 3.2085195 -3.2127957 1.310396 -2.5323586 0.98621315 -4.675979 1.4865165 0.49084678 1.6467752 -0.8548835 1.7672578 -0.64712805 0.61871725 1.0853689 0.49120104 2.2780483 -1.5348105 -0.3311525 -1.0270209 -0.29987374 -1.3061392 0.29442862 -1.7408303 -4.0963564 1.8111928 2.8857176 0.08233441 4.479493 -0.66423106 2.1370037 -1.6455661 0.764469 0.064182185 1.6449778 0.68653053 0.5415803 -0.4293219 1.217086 1.2922684 -0.37257135 0.067455426 2.9051745 -2.9128983 0.6931586 -2.6387513 2.8043256 1.6589621 -1.6745033 -0.018529499 -1.1520162 -2.8432608 -3.9650254 3.599754 1.0731118 4.0247335 0.4424938 -2.8017833 -2.9253075 -0.19576383 -1.0611371 -0.53928787 0.4337062 -1.8288674 2.8011205 -2.0188563 -0.035478696 1.4117864 1.9241211 -1.5385538 2.5273924 -1.3947648 -3.0499492 0.5861872 0.55084133 0.8685249 -0.98930895 2.1129975 -1.4357356 1.4224536 -0.34990692 -1.018135 -3.1638484 -0.4697452 -3.0075803 0.48933417 -0.2623115 -4.9737587 -1.8880696 -1.3316942
C21H22O5+H+ 0.50334424 -1.9286205 0.9249523 -0.7318941 -1.4572319 -0.8561592 -0.74955124 1.4612185 0.2945428 0.648717 0.122879334 0.29853255 -0.96680564 1.8096597 -0.18921392 1.3977684 1.0092725 -0.60909545 -0.043303043 -0.89668965 1.9610738 -0.08024092 -0.17057045 -0.6905196 0.36112025 -1.2751452 0.66021717 -1.119268 -0.33112895 -0.05787953 0.25802308 -0.7753185 0.16461834 -0.07922629 -0.7490656 -0.102904215 -0.6013422 0.6259269 1.8216959 0.77424514 1.3188617 -0.85301167 0.10288012 1.095761 -0.9476841 -0.3951281 -0.87534636 -0.946777 -0.48630285 0.5521418 1.562815 -1.5395945 -0.80792654 1.1967576 -0.52472335 0.8308241 0.16688442 -0.3387506 -0.48785776 -0.3891232 0.7834257 -1.8137902 -1.7903055 -1.8213466 -0.083662905 0.7933928 0.43828374 -1.3416411 -1.553669 1.0723045 -0.048479903 -2.4131656 0.0966933 0.45643234 -0.06089365 1.6986896 -0.17318177 -0.67946404 -0.25697 0.7369862 -2.2987647 0.5336432 0.58737755 -1.0994763 -0.4684117 0.1685963 -0.13026601 -0.21191 0.40356714 -0.36224967 -0.09550087 0.1110586 1.3001617 1.3532411 1.1868337 0.44158828 -0.748538 0.5779159 -0.64278215 1.2047756
C25H49NO4+H+ -2.7952933 -0.024291297 1.597743 3.069363 1.1674284 -0.042774506 -0.60928 0.5843916 0.90457225 1.3651017 -1.1519607 -0.21492118 1.543509 0.17408647 -1.0819502 -0.3693934 -1.9324874 1.2837291 -0.6691065 -1.2494817 0.6947953 -2.2316396 0.9629085 1.6269476 2.2573094 1.3289475 2.3377953 -0.60941935 0.8203837 -0.6959644 -0.13218309 2.7903686 -0.9006156 1.347934 0.4468956 0.18628445 -1.672853 -1.8270212 1.3013182 0.41141897 1.805844 1.1740108 1.7998995 1.5597465 1.5129925 2.8121684 1.7653701 1.1133007 0.20264558 -1.2221587 -0.71143633 1.9786038 -1.906826 -0.51313907 -0.88357776 0.21528636 2.4207478 -0.4519905 1.3646759 -0.089853406 -0.06415794 0.8053969 2.7779086 1.5398194 0.44335058 1.8640323 -0.88431925 -0.36528233 0.8569511 0.12793228 -1.4031006 0.46252227 -1.9364319 -1.9052562 -1.2940713 0.7602223 3.0798557 3.071548 -3.7095451 -0.6407176 -0.853548 0.3328946 -0.99060845 3.1157417 1.0858053 -1.2754174 0.4065843 0.8141253 0.85084844 -0.4422556 0.85030925 -1.9589657 -0.10834884 2.1736724 0.8776835 -1.7406199 1.3130664 1.4495912 -0.10886282 1.2692969
C26H30O12+Na+ 0.7422905 0.018191325 0.789877 2.0722468 2.8838186 -0.29862598 -0.29008693 -0.13630855 0.8717076 1.6716241 -1.6246092 -2.4533205 0.9286777 -1.4671525 0.62945443 0.19961703 2.5925474 0.0401533 2.8892472 -3.2153294 2.3171294 0.4069312 1.3451823 0.9633326 -0.25997055 0.9882843 -2.5353606 0.70237386 -1.6328677 -0.68473303 -0.05045781 1.1064267 1.9150075 1.2984147 0.36118403 -0.49371457 -1.114116 -1.5559961 -2.352228 3.1544085 1.7992308 -1.3112277 1.5341027 1.0056372 2.7133179 0.9074454 0.7826202 0.4447944 0.7945976 0.41106096 -0.73905826 3.7834077 -4.981036 0.63266706 -1.7913449 0.78550124 -2.5863442 -2.2271914 -0.4955319 -1.8491665 1.4102637 -0.8633204 0.24966872 -0.9847955 -0.44587776 -0.77353245 -2.571305 -0.16054612 1.8317357 -0.8210628 -0.5914282 -1.8622881 -0.6345056 -0.9610162 -1.2888066 0.97942877 -1.1793871 -1.2732141 -3.0220828 2.4057043 0.09636025 3.4187768 2.9269705 -0.15889189 -0.015553786 -2.9265053 -0.44046575 -0.6304124 0.09649763 -0.7753964 -1.1130259 -1.0628076 2.0146608 2.447738 2.273862 -0.8653774 1.1717929 0.5639269 0.40144685 0.05421642
C25H47NO4+H+ 2.4043796 0.26855248 -1.9572641 -0.884148 1.3485166 0.8056731 -1.0794164 -1.2182523 -1.3800615 0.3248385 -2.1303182 0.11513466 -2.0678396 -1.6852609 -0.44721627 -1.052692 0.26631433 -0.34510222 2.8833764 0.15481563 1.9978348 1.4705971 -1.4119514 -3.0215414 0.40620336 -0.95530623 -1.9696814 -0.2692458 -0.7514046 -1.5915924 0.6559305 -2.4572432 2.6722426 -1.2568887 -0.41490713 2.75783 1.5032322 1.9356244 -3.219485 0.38018698 0.2593408 -1.8201749 0.68677807 2.8683288 0.94531035 -0.97653025 -0.20391698 -3.376199 -0.044821814 2.0340044 1.1758908 -1.1489395 3.2450495 0.37520024 -0.025430234 0.22528502 -4.308828 0.09697789 -1.4490789 0.15330672 1.2211462 1.0945942 -1.1482124 -0.48162594 1.9136913 -2.878446 2.3125033 2.8841205 2.3163116 0.6154085 0.4539842 0.15502104 0.5105402 0.18341632 0.37028232 -2.3967052 -1.0889591 -4.733278 1.1057577 0.9072612 -0.5329946 -2.689768 -0.5755703 -2.3647625 -2.0729003 2.16662 -0.77507687 -1.2716373 0.09802813 3.3214579 -1.9606369 1.4391888 0.7218748 -0.64675343 0.82735395 1.9318242 1.0890801 -2.1571808 -0.3250367 -1.2351935
C12H22O11+Na+ -1.1188465 -3.4222136 2.0103776 3.5280712 -0.21533182 3.0187516 6.4010425 1.04147 4.428718 -1.3952913 1.2505754 2.5296724 -1.2777461 0.3124371 -1.1146501 2.3948936 0.3613324 -1.8304495 3.515294 -2.1977248 -2.217235 2.9381948 -0.29701594 0.52475363 -9.304813 -2.9093688 5.368389 1.2029451 0.38356626 -3.4169762 2.88737 -5.1836176 -1.8425375 -1.4899594 -3.6610029 -10.424463 -3.3429892 -5.5026145 2.7289348 -6.034672 6.348444 -0.9506791 -1.4494259 -0.87142605 0.504336 -0.839159 -2.9157264 -0.46916747 3.9109132 1.5476686 -1.3438468 6.028542 1.9611316 -0.5088072 4.554743 2.8035343 3.2033277 7.219494 0.5719445 -1.3433703 5.875254 -5.55276 -3.066686 3.0292 -0.19814727 2.1604342 1.6213276 -4.198556 2.1362813 -2.626939 5.335544 -3.355922 1.2390714 1.4005712 6.9309435 -5.3670583 -2.44974 -1.6275511 4.6069098 -0.8039908 3.4238863 -0.28600207 2.3498523 0.96078306 3.9665697 1.4982522 0.4610438 7.9889965 5.4584064 0.14240406 -0.3280527 2.506507 -0.2987818 10.686734 1.0620704 3.2519438 -1.5438977 -2.0290806 0.50223184 -2.5986795
C21H36O3+H+ 0.07262454 1.2508758 -0.72165155 -0.33272302 0.21244594 -0.27269974 -0.12879284 1.4689608 2.035803 0.9658695 1.3988227 -0.79142386 -0.15308055 -0.5765601 -1.6934807 0.8389574 1.0341792 0.37930098 -0.12229318 1.282275 0.48599002 0.75495243 0.75593144 -0.21471839 -0.52666384 0.2527345 0.0117970565 -0.5184318 0.8858253 0.4947418 1.1759869 0.1283657 -1.1062919 -0.41401413 -0.6771717 -0.3369189 1.3841118 -1.1810111 -1.1272902 -0.54362893 0.16437441 1.694131 -0.102036044 -1.1359464 0.46135208 -0.34334904 -0.25794137 0.7022376 -0.44331604 -0.34816605 0.17030638 1.3640301 -0.20096037 -0.6514237 -0.42741936 -1.4095551 -0.21395345 0.35969362 -0.81330603 -0.45236775 -0.67015386 -0.31068963 -0.50732404 0.6078887 0.59816426 0.98182636 -0.9335365 -0.35617173 0.8434718 -0.5367238 0.83601385 -0.26102018 -0.90192056 -1.4492149 0.45576057 0.58206326 -1.5576413 -2.1691136 0.63872284 -1.035515 1.3243505 0.0930125 -0.5620857 0.43016607 -0.21050139 0.47852275 0.47858235 1.1737094 -0.57132107 -0.07496338 -0.4500412 0.43795934 0.1878408 -1.9763349 -0.9984496 1.2412217 -0.27636883 0.1266737 0.086321495 -1.4087461
C13H13N3+H+ 0.40827137 0.76770926 1.2664657 0.70076305 -1.2403889 0.6973593 -2.0664425 -1.3722426 -0.25335044 0.7347656 -2.2040048 -0.17020085 -0.6570285 -0.06229483 -1.4884075 -2.1952848 -0.72923017 0.06895031 0.7749494 0.8248276 -1.5226485 -0.52425843 0.035085052 0.11889966 -0.32846802 -1.7065746 2.4532266 -0.36250147 0.3605909 -1.4675493 2.3557885 -0.37932315 1.9667231 -0.3447644 -1.3732518 -0.6923459 -0.83318067 0.19075361 1.7522477 0.7770472 0.15149435 0.52767336 1.094136 1.4901066 -1.6084203 -0.8252234 1.9041206 -0.69697505 -0.25660256 -0.31069586 1.3041579 0.89995885 0.35455033 0.81428266 -2.1670744 0.2110881 -0.17733538 0.90007985 1.252871 1.2192078 0.28827882 1.2401913 0.32051668 1.1162802 -0.25169742 0.2060969 0.15264499 0.005281021 0.14899653 1.1223476 0.949636 1.7977079 0.44283587 -1.4656403 -1.1107688 -0.69794124 1.2936091 1.747407 1.7060131 0.9670574 0.17824149 -0.76726675 0.24541076 -2.261996 0.35530832 0.44368252 1.6079388 -1.2530417 -0.1707348 0.76186323 0.5162016 2.3600206 -0.68908215 0.7315398 0.14519966 -1.3316954 0.53926176 0.51799816 0.39655885 -0.5580194
C12H22O11+K+ 6.4102287 -8.2732935 -10.385184 8.229033 0.27928537 5.0065103 -11.613932 -4.525763 4.7287416 9.56688 6.2743 -33.293888 8.392897 -31.386671 -4.2001033 4.8173447 1.1835778 5.127392 6.748282 3.4618013 -4.4458923 4.7728357 7.684987 3.706746 3.001754 7.270164 -6.780671 -11.657344 -9.77632 -6.297605 5.511813 -11.843654 -5.9994173 1.8325814 -2.5614343 -7.0986376 0.97803277 -18.766356 -4.3044715 5.8635025 -2.0661223 -11.042976 7.5889764 6.745575 4.4924493 -0.4047029 1.5954607 -9.944606 7.093138 -4.7800612 -14.902869 2.0137076 -10.659897 -5.0912323 -17.70856 7.3672943 -1.6515654 -19.246954 -15.609702 -2.3476412 -16.856503 3.7019572 10.933321 11.418599 -7.0014806 -8.981958 -7.4107533 -1.7806896 12.651389 3.0186598 -8.212738 6.489821 1.0005902 -10.326722 7.343394 2.1910841 -9.775506 4.9909425 -17.83593 7.5225096 9.187601 15.54243 4.544804 8.168075 9.109361 5.864865 5.8118253 10.17394 -13.046254 10.570456 3.9519422 -11.332756 -10.132572 7.9738183 -9.872857 -4.9057093 -8.506874 -5.9168286 -20.248245 -8.985437
C15H18O10+Na+ -2.7035167 15.437329 20.831436 -6.491855 -5.8637176 -3.6633918 14.370299 9.518088 -6.5279617 -7.5137753 -4.8464737 26.86981 -5.409913 27.290169 2.0039816 -9.403836 12.623052 -1.5297213 -11.193684 -10.766657 0.17490241 -8.906103 -2.2904165 -2.2031202 -4.1360226 -10.046338 -3.7815442 12.518571 4.8781905 4.809848 -7.829745 14.105022 13.768932 -1.0899558 11.266321 1.2252247 -0.9535108 22.593563 -0.98293424 -1.3627404 0.14157966 3.3053691 1.485067 -10.320855 -9.509148 -1.8337134 5.3850436 9.251721 -6.10822 2.9021966 12.999725 1.522871 -4.02542 -5.4383736 17.583855 -5.009713 -5.59209 11.796524 3.7715898 -5.2099075 23.05434 -6.497047 -7.9277883 -6.2415533 4.1275067 11.474075 3.786606 -3.9318764 -8.866792 -6.1945257 2.9526749 -2.5391533 0.32531536 9.773439 -13.987229 3.6264167 12.788554 -3.0242186 8.178089 -0.6530722 -12.51343 -3.4104257 -1.4342133 -8.559272 -4.223299 -8.571338 -5.4507284 0.57496053 9.503719 -17.370792 -2.1763453 7.819428 4.8061523 -6.538759 9.430032 -2.8518367 2.6381886 9.651491 14.232669 1.8407192
C35H64O4+H+ -1.1397969 -3.1723301 -1.8163328 6.25485 -0.6103518 3.242559 -3.8582437 -9.290879 -2.8420956 0.37165195 -4.371653 1.670997 -2.8025196 2.7337792 1.8981811 0.6453074 -2.1348808 -0.60615087 -2.5778987 1.9871216 -5.974661 -1.8004386 0.4866285 -6.6625566 -1.2093706 -2.0168922 2.6377392 0.90665203 0.80712426 4.523366 4.533472 -2.83232 2.815055 -1.7962615 -3.880048 3.0524554 -4.9864173 2.8145373 6.5957494 1.591633 3.0583007 -2.3722057 -2.0942986 3.9730694 2.7632813 -0.6436235 -4.639438 -1.7634114 2.2595248 -6.5399466 8.340252 -3.4048357 2.5316448 10.266818 -4.3130846 -2.3197024 2.2811847 1.078833 8.122828 3.6023595 -0.898645 0.5276822 -0.41204056 0.61425656 -2.5740328 -3.0426073 -5.770916 3.189218 -1.2576947 -1.0635214 3.950362 1.5337782 -2.5349448 -3.0922987 -1.9899457 -5.9550996 3.3215284 3.7642994 1.9595363 1.3240395 -5.801524 0.024115672 4.8705525 -1.7239532 -5.879255 -5.1313825 2.7447808 -2.50567 1.8448912 -8.299272 1.9197868 3.6838074 3.854437 0.4573686 4.3119483 -0.9903927 1.4486337 0.2865665 1.1716701 0.5770726
C15H22N2O4+H+ 2.5866423 0.9790902 11.152656 4.2751083 3.1013846 -4.8553085 9.635709 6.1193376 4.8928747 6.5481563 -1.070606 2.5219538 2.0119324 -5.5160165 -15.566219 -5.310686 9.801321 4.3737063 -0.12122584 -10.716843 -3.4148102 6.0473948 11.638036 6.0537925 -21.496687 -3.8404062 -5.8943677 4.2730284 -6.525534 -11.482819 -3.8914435 -1.9811664 7.6170435 -6.79237 -5.786906 -21.553635 -3.359103 4.992972 -0.3285703 10.195684 7.8983693 -13.179098 15.441812 -5.995467 2.7112865 -2.4587965 8.625949 9.99097 6.4820676 7.8425193 -2.6810021 13.1511 -25.202478 -12.568706 2.7420297 0.49556163 -1.1544335 4.313477 -6.8300905 -9.1025915 19.673275 -16.639585 -9.313972 5.02231 -4.662222 4.0183315 -4.5168533 -11.298884 -1.1337187 -2.2095377 0.11191519 -6.1495385 4.085865 -4.3400087 5.2788734 8.486402 -0.97854024 -12.352347 4.9432745 11.459309 -6.888492 8.318654 2.3989754 -2.4426076 9.339326 -6.6654987 -7.3084397 17.597319 -7.659234 -1.8355206 -3.884052 -6.295584 -0.034897346 16.636751 2.1055632 -1.729968 -6.147856 -4.1957555 6.844055 -18.112354
C18H32O16+K+ 0.89451116 -3.261514 -7.7509613 -9.363376 5.4664407 -6.6511593 -9.451597 -4.877386 -0.89146096 -3.6235101 -2.5009 6.172422 -9.756169 9.699932 10.545153 4.403916 -15.739148 -2.815878 9.935309 9.631966 9.505374 -0.95430887 -11.084997 -4.0223536 19.312874 3.8402205 12.447679 -6.6411724 11.314965 4.691275 7.1887474 8.107422 -4.4582953 0.883554 -7.418364 28.38262 7.521792 -2.222489 4.1831903 0.8742583 -6.155079 13.971327 -10.223884 10.728656 5.841075 8.880876 -0.10479211 -3.0594873 -7.9931407 0.43572196 4.7009163 -12.591721 26.827951 10.043913 -9.440247 -5.8112254 2.4994073 -3.8016467 10.075608 8.731799 -17.374514 10.061129 -4.09301 -7.83498 5.7324214 1.0499449 4.042317 7.373554 -1.3968493 2.3043728 -3.2960587 -0.4904878 -5.2300177 -5.1064634 -1.1386657 -7.1827917 0.49241397 -0.66022044 4.9404845 -12.979373 4.987473 -13.409258 -5.186213 1.1377656 -14.85479 4.365664 5.1075363 -24.5182 4.6734157 12.103889 -2.8634667 4.2726855 1.1084425 -18.271297 -1.4773909 8.711986 13.552054 -3.1067605 2.1199403 15.380037
C29H40N8O5+H+ 3.272142 4.0495863 4.4799323 -0.6979031 2.96046 2.7767923 -2.0343492 -4.269019 1.4520123 0.5348784 -7.3525305 11.581408 -5.949316 3.4009514 1.0176728 -1.0138236 -4.558015 4.6548357 2.7912924 -3.162408 -3.157776 1.5129516 4.723731 -1.8317394 1.4541589 -0.20719899 2.3565164 7.897785 0.5592306 -7.4557548 2.3072884 1.2486861 3.8141587 -2.2624786 4.448 -0.8620451 0.6885402 -1.6720682 1.1213918 1.3152887 2.2301219 -3.2360742 -0.8150314 -0.12846163 5.0880294 -1.2829994 1.0966961 -1.6462612 0.16205858 3.830248 -2.8929446 1.2276582 2.9186869 -2.700579 4.7359285 -2.2171826 -1.673995 3.0653172 -1.9461278 -2.9841864 -4.366025 5.0961556 3.6215732 1.4646742 4.5369554 2.084538 0.82592463 5.1972833 -4.7904487 3.8472602 7.937162 -1.8782105 -3.9144304 3.061944 0.5248977 -1.5280205 3.61799 0.9734851 -1.4296086 3.1915085 3.6674163 -6.182176 -1.2807616 -6.450532 -0.28752384 2.6875 1.5477662 -0.86745167 -1.7309668 3.6098118 -2.2680154 3.1534827 -3.68165 0.079441525 4.830244 -2.1662414 4.198512 -5.1889715 1.9519259 -0.38736507
