64 100
C7H15NO3+H+ -1.1433284 -3.0818672 -0.58191013 1.0011724 0.545333 2.1497717 0.9346737 0.6139795 -0.63244516 -1.2942601 0.70944476 -0.42706963 -3.3293233 2.4770246 0.36859918 -0.2368418 1.2325711 0.07646937 -0.16428287 -0.24814717 0.24091744 0.4043342 -0.942277 0.17280732 1.7816001 -1.2933446 0.45934 1.4773703 -0.1329806 2.326893 -1.7553562 -0.48676404 0.6457813 1.1132481 -0.8449391 3.139076 -0.57490516 -1.0540526 1.5112361 -2.469718 1.9012799 -2.0586276 0.3505717 -0.7409525 -2.952844 0.45935252 0.6100961 -1.4223385 1.3080407 1.4769009 1.1966237 0.79294 -0.26272395 -1.3511745 -0.4241735 1.2260768 -1.102798 -0.08071015 0.1832273 1.4568721 -0.957579 1.1037331 1.0792949 1.1612058 0.007801807 -0.88651675 -0.17614132 -2.1447363 0.71242625 -1.2734128 -0.1656826 -0.0718304 1.4923675 -1.6280277 1.6364945 1.6448021 2.0818377 0.5565584 -0.6759951 -1.9025844 -0.3951731 0.25125843 1.4440109 -0.9923918 0.6754216 0.1070547 -0.6924367 -0.43309903 0.121881045 0.6856267 -0.11967444 2.2716913 2.6006088 1.4665947 -0.3321995 1.34432 0.17916209 0.57149655 -0.40766597 1.4661365
C15H22N6O5S+H+ -1.8250027 -2.9877503 1.5851147 0.8335302 -1.6948574 4.7906094 4.584885 1.267732 -1.2355764 2.4025805 1.8756458 -4.2064123 -1.0612346 0.5312351 -3.3330317 2.699036 0.2670963 -1.5842701 1.9916089 -3.15491 1.0224574 -0.36887735 -5.622025 -0.087619156 1.787848 0.21501927 -0.14649293 4.0003014 0.17869562 4.9899797 -1.1247207 1.2418361 2.7953398 1.2597857 0.5285898 0.9535655 2.0054784 -1.337811 -0.05755794 -4.552023 0.18564954 -2.0177796 3.6529782 -2.2409146 -2.6841073 2.170232 -2.1310303 0.118504964 -0.737168 1.4594548 1.1738359 2.6869044 -2.1144538 -1.5170074 1.7023844 3.381176 -5.74429 2.5919325 -2.3472254 2.115999 -2.314453 2.6858552 -2.857435 2.8711886 0.91023684 0.9983832 4.382918 -3.105226 -1.9872912 -2.8283162 -0.5506121 0.032345 1.6471083 0.0510994 -0.7017942 1.4350247 2.3104353 2.2860045 -1.0626117 0.53747696 2.7808836 1.7578019 2.5340195 -2.0651515 1.5161538 0.41445848 -0.7940992 -0.6687067 2.0333097 -2.0487785 -1.449607 2.6069825 2.7884037 5.82082 -3.5317712 -2.1927993 1.7761216 1.0729374 -3.0938342 -0.53162885
C24H50NO7P+H+ -3.1916707 -4.2156277 -1.0522989 0.68096983 -3.6983562 1.9492424 0.7384575 0.7417554 -0.52877176 3.482336 0.90358806 -2.294902 -1.9977499 -0.61836064 1.9368957 1.2222408 1.4359838 0.2056832 1.9815229 2.299805 -2.4541957 2.2837107 -2.9784882 0.45844075 -1.0376805 2.1497355 -1.4883316 -1.2886012 1.9075192 0.49494806 0.7656964 3.6893008 1.1865834 -1.1590288 -0.11184276 -1.195521 5.8381033 2.0321763 -0.47981724 -0.031175595 1.1647854 -4.3025002 -0.5778368 0.07670995 -2.8333044 -0.33256483 -2.2436743 2.95205 -0.64789087 -0.6651774 -1.3627102 1.6994542 1.3462509 -1.5554267 0.5031844 5.7063956 -3.406831 -0.35445148 -2.0587122 3.7823741 0.93078494 0.24402 1.5929968 7.1538916 2.9272742 1.2185305 1.2007254 -1.4703285 -1.1322017 -0.86177504 -2.2413247 -0.18528476 -1.5926656 0.795575 -0.6886608 2.8009048 1.1634902 3.063564 1.0581597 -0.27546343 0.6247522 0.6958012 1.0024753 -0.97478926 4.5100074 2.3137956 3.2816854 -0.28379375 1.9051725 -1.4659644 0.62232167 4.049029 0.102581896 0.11080881 0.9178663 -1.1533889 1.0500207 0.3540159 -1.3464756 2.3657105
C4H9N3O2+K+ 0.93929845 -1.135934 0.3220283 0.9157897 -2.6780522 0.44136083 -1.7237742 0.45053452 0.24048145 0.19214387 -0.44441867 -0.9418151 -1.8139491 3.8436825 -0.10507123 1.033061 -0.95294505 3.8359776 -0.73522407 1.37341 -0.3937241 0.2114569 -1.7644329 -1.089362 0.54640186 -0.4545174 -2.494096 -0.007943905 2.0321538 2.1116126 -2.0869198 2.4976985 2.2322118 -1.0151563 -1.517484 -0.42237598 3.6175427 1.2189186 -1.0056596 -1.2805628 -1.8237486 -2.4211192 -0.6147785 0.7907523 -1.924414 0.040259797 1.8041202 5.1125526 -2.30649 1.0150636 2.6164327 -0.6796912 0.8682531 -0.17619641 -0.20248322 0.56186026 -3.182557 -2.051704 0.9111541 3.4694262 -0.6220503 1.6018827 -0.5295839 3.306962 1.8571303 0.55583674 0.7538993 -0.5408542 2.89275 1.904265 -0.612146 4.312438 0.9614748 -4.7765493 -0.475519 0.41544023 -0.10201747 1.1910486 -0.6535308 -0.7633808 1.1152363 -0.5590679 0.52332795 -0.44101492 0.25602993 1.4395258 -0.39332083 2.0624597 0.5339428 -0.5764304 0.1502257 3.8301468 0.41579297 1.5018171 2.1223872 1.2808174 -0.704592 0.83458406 -1.0488629 1.3085485
C9H17NO4+H+ -3.7726078 -1.8904715 1.9756948 1.2169876 -0.49812683 0.9479241 0.8926432 -0.4743047 2.0514088 1.5499436 1.1166329 -1.4787165 1.1927894 -0.8195167 2.7580097 -0.6533977 1.5868628 -0.47883987 1.18396 0.66717255 0.17167826 0.5939205 -0.8555278 0.16103123 -0.37757304 -0.22863196 0.5984388 2.04843 -0.13682655 1.4803982 1.5059308 1.528053 -0.4129774 1.1083065 0.33303237 2.433419 2.0960062 1.496405 -0.18787327 1.7388542 -1.1233222 -2.4653108 -1.9457542 -1.216386 -0.91783935 2.4966319 -1.5338653 0.36104834 -0.7083507 2.4942257 -4.7098136 2.2237718 -2.194827 -0.13800411 0.69417506 3.351404 -2.6443496 0.533242 -3.6300375 0.70304745 0.46863106 0.65906024 0.1865765 -1.421234 -1.588788 -0.03946374 0.9040163 -1.5142685 -1.8690289 -3.1685932 0.3048898 -1.325088 0.6825039 3.0080838 1.158267 1.0100396 0.0282493 3.797553 0.8378579 1.0561645 0.5730619 -0.3263613 3.2288837 -2.1801324 2.7081647 3.4482381 1.4886923 -0.41735324 -0.08273568 -3.8518615 -2.4150107 1.7416122 2.435072 -0.29649657 -1.3772986 -1.2667738 0.95084554 1.9316943 -0.109033845 1.8676764
C10H7NO3+H+ -1.2506207 -0.4643703 1.6508842 1.0947653 -1.1219721 0.44193986 -1.7451941 -0.11787344 2.0683997 -0.4016675 1.2325357 -0.4401347 0.31647924 0.6389788 2.437061 -1.79536 1.2516453 0.24597992 0.5407612 1.1972128 -0.67986375 0.44430745 0.07146656 -1.1198101 -1.1388383 1.4845729 -0.35763544 0.3994693 0.8450988 0.93212795 -0.1880337 -2.18132 0.34499696 0.4777674 0.13143368 2.247935 0.77346176 0.13575256 0.7048508 0.20580652 0.9828534 -0.6620184 1.4092745 -2.0419588 -0.8122152 -1.6034887 -0.7239823 1.8526661 3.1553073 0.8685694 -1.6044717 0.08948987 0.6909858 0.816748 0.77119154 0.87356913 -1.5246905 -0.022147989 -0.97481203 1.2693791 1.560654 0.6717407 2.088839 1.6115665 0.4163014 0.61428636 0.84191084 0.18256895 -0.22408693 -0.7533539 1.791445 -0.3871637 -0.9801424 0.37295914 0.28924206 3.083892 -0.5379337 -1.5668676 -1.6180236 0.030978484 -1.2128059 0.19376464 1.7531693 0.4555824 0.036887135 0.009971262 0.9604053 -0.6768067 0.51086324 -0.14195241 0.7252501 2.3575063 1.1448541 -0.16619785 0.6595992 -0.36225066 0.6519272 0.97407204 -0.14630397 1.4062463
C11H21NO4+H+ -2.9433606 0.4928857 2.1242394 0.7673516 -4.345399 4.349265 2.9677145 1.485486 1.410479 4.936769 0.54794294 -4.43532 2.210138 3.0970685 -0.6513953 -1.5831578 2.1585007 0.35344133 0.94641995 5.672138 -2.358606 -1.4516588 -2.1018527 -2.6539433 -1.0391266 0.88874483 -3.1025472 -0.08690188 -0.05074353 5.192216 1.5685344 4.6455784 1.3889472 -3.712813 -3.0514503 -2.9965725 7.514318 1.7980572 -2.1120064 0.80371183 -2.1598096 -2.9681149 2.5701873 -2.0577717 -4.366441 2.5233903 -4.128129 5.717464 -2.5802557 1.4833164 -0.81544584 2.2847142 1.9799117 -1.7922738 0.46903577 2.2538483 -5.575848 1.6624671 -3.1819668 3.5860612 -0.6826033 2.9449928 -0.31978017 6.0470734 5.3094807 2.5555806 4.7143874 -0.98636806 -1.2936188 1.6523933 -0.8678975 5.4719405 1.8656524 3.0190809 -3.4983945 0.7578375 -2.441648 1.4545455 0.16207258 3.4985695 1.3862869 3.9666383 0.71069795 -3.6280375 3.7792602 1.2540778 2.2534308 3.1449537 0.7870928 -2.4178889 -0.41034305 -1.3980874 0.14913306 6.3588305 -0.9393229 -1.4100928 -0.58320314 1.7059282 -5.808637 2.533354
C22H22O7+H+ -0.053501423 -0.7877976 -0.74654603 0.28170455 -0.13212417 2.2976012 0.4937481 0.46811688 -0.6572282 0.15251133 -1.078533 -1.8920019 -0.84129345 -0.21646148 0.28868443 0.26928982 0.0940445 -1.0627136 -0.5076173 -0.44204727 -1.8022988 -0.4666269 0.59373033 1.5800049 0.4233809 0.0624756 0.19698712 1.0974654 -1.1296463 1.7897844 -0.15484147 0.87060505 -0.5415888 0.46811914 0.28397194 -0.36003372 0.7112937 1.1743639 1.2002505 -1.2744535 -0.7165009 -1.4136957 0.42159286 -0.7156895 -0.5072013 1.4177592 -0.7805304 -0.51060116 0.3093976 0.5954149 0.37693766 -1.1023842 -0.42008743 0.72189415 0.09581606 0.17125265 -1.6522665 0.43793115 -1.1322072 2.5130615 0.4611569 0.07351244 0.10044694 1.2467543 0.16786018 -0.0638919 0.5446068 -1.3400232 -0.9852784 -1.168531 -1.0407442 -1.0236349 0.17005862 -0.2004804 -0.15259369 -0.9886393 1.551776 0.42101425 -0.26281908 -1.031063 0.32754874 -0.39988446 2.4121816 -1.3421124 1.6047798 2.336618 0.23379432 -0.96180475 0.19111153 -1.3211099 -0.66198015 -1.3108939 -0.70023525 0.33588588 -0.9472152 -0.9787402 0.90783757 -1.6132706 -2.862932 0.108865924
C10H7NO3+Na+ 1.7267311 -0.44818094 -1.9262508 -0.5752534 -0.018691033 1.0785404 1.4600052 -0.17270207 -1.7736067 2.8235786 -0.28313702 1.4204378 -0.35678896 -1.1992844 -0.95160335 1.6008255 -1.2301136 1.1177472 -0.5142433 0.7012145 0.5892475 -1.2845014 -2.4808273 0.54392093 2.4244268 -0.5666991 -1.6720971 1.0244063 0.48791698 -2.0973318 1.161494 1.3279396 0.58384734 -1.088083 2.2725825 -2.1283422 2.0401664 -1.9280298 -0.46754336 -0.9083385 0.31179035 0.89591914 -0.4277772 1.2912625 0.69217455 2.320069 1.4397935 -1.1505097 -2.9796276 0.34587288 -0.16635518 3.0643282 -1.2344297 -1.0770683 -0.70221484 3.3938618 -2.387475 0.5102128 0.4220779 -0.66499656 -0.49467707 0.6035533 -2.6278765 0.076939575 -0.57410127 -1.203138 -0.40758285 -2.9763696 -0.6226311 -0.6092444 -2.2597342 2.5195022 0.66555715 0.3253058 0.7199311 -1.3405461 0.33063576 1.6177394 2.444241 0.51682556 0.7045625 -2.0103633 -0.18277492 1.0347385 3.056499 1.1146181 1.2230589 -0.9432221 -0.6932398 1.5495622 -0.550828 0.2350046 -0.94984007 2.98047 -1.0294431 -1.6070093 -0.85695416 -2.4718575 -0.15922575 -1.1300975
C8H20NO6P+H+ 0.71017283 -2.050842 -0.42324603 0.45016035 -0.08438483 2.3239756 0.11438994 -3.3361433 -1.6242019 0.5283133 -0.97402006 0.25155002 1.2207944 -0.7345221 1.3287003 1.0209298 -2.173517 -0.08262301 -0.8205993 -2.2232242 2.117606 -0.27425992 -2.0431762 -1.3381249 0.09092729 0.83379644 -0.33124575 -0.1978949 -1.4102705 0.86555797 -0.78826636 -0.6211684 -0.55882335 -2.2907577 0.35547382 -0.3375938 0.49209377 -1.01493 -1.1243744 -0.90248394 0.8407282 1.8713039 0.05377328 0.16527003 1.40302 1.7875814 1.4659017 0.030191898 -1.1291481 3.6570234 -1.827804 -0.4016928 -2.6591635 -1.031143 1.0234711 -0.18729082 -3.6892827 3.0312316 -0.41654116 -0.48623317 -1.3739865 0.5110583 0.76359266 -1.426812 1.1095024 -1.1459135 -0.083505586 -1.6632345 -0.21257953 -0.6296395 2.8508928 1.9108865 0.36513627 -2.3177526 0.55779743 -2.154328 -1.7873906 -0.7579282 -1.1593168 0.46677166 1.3295773 2.3542457 1.132507 3.0157065 0.86680555 -1.5142238 0.9130456 0.46223748 -0.79924774 0.16988009 -0.75747555 -0.76543915 -0.97002023 1.0221876 -0.4360502 -1.9690148 0.29913947 -0.17779393 -2.1101024 0.6210539
C10H7NO3+K+ -1.6371987 -1.4105349 -0.22730465 1.3329715 -0.6366992 0.7112316 -0.3695408 -1.1846188 2.4724653 -3.2531452 0.4651766 -3.3600004 0.0996844 -1.5325031 2.060059 1.643862 2.255054 0.6241029 -0.79697055 0.1780818 1.3959308 1.3798617 -1.009232 -2.9503717 -1.0677819 1.3709515 1.2609377 0.28034496 0.14452675 1.5695591 -0.59099084 -2.2618964 -0.44933084 -0.5678596 -1.0118126 2.0384328 2.4269056 0.80147773 -0.45292047 0.81419426 -0.83129895 1.3289819 0.7444336 -2.2542865 1.1258956 -2.0966942 0.4303073 0.61047256 0.20504048 0.7285178 -2.2048712 -2.0121524 0.5387938 2.351437 0.029510796 -0.35501856 1.9550227 -0.8607216 -1.5724107 1.0909956 0.9777017 1.3847289 2.7689989 0.33319572 -0.3512117 2.5800729 0.3110813 2.4779146 -0.54312885 -2.1048715 3.6372516 -2.1135695 -1.5382304 1.8826531 0.87314606 -2.3557234 -3.8271124 -0.8489791 -5.5533657 1.0111959 0.3617526 2.3184547 0.7785697 1.2406942 -3.326022 -0.68368125 1.9001169 2.2451015 2.504055 -3.5094123 2.4595082 -0.52400166 2.4973037 -3.2919025 -0.8012085 2.0916638 0.64665616 1.8058249 0.62980956 1.2989311
C11H20N2O3+H+ -1.352649 -0.49388656 -0.71173596 0.7325472 -1.1107903 -0.07024796 -1.1163423 -2.1507223 -0.7878508 0.54577464 0.568512 0.05377404 -0.09128105 1.3271407 2.8118289 1.0380174 1.4744852 1.7941785 -0.24552754 1.400229 0.7736439 -1.2790021 -1.5464206 -0.9678621 2.196686 -0.30486086 -1.41489 1.4236236 1.7284448 1.841957 -0.26714885 2.2264004 0.7666514 -0.02757945 0.5134746 0.848884 3.6059878 -1.5973109 -0.22606611 2.2842455 -1.240415 0.7296088 -0.34965184 -1.4906318 -0.080925144 0.48746586 0.34339905 3.091615 -1.4787673 1.8790749 -2.563003 1.5002218 -1.7668033 0.10684458 -0.39237964 3.6252153 -2.4159958 -1.7233337 0.04413662 1.1459619 1.5725698 2.3850777 0.023074297 -0.96308327 -1.0703578 -1.2710952 -0.8891411 -1.9252663 1.2238768 -0.35214543 -0.27251723 1.210142 0.98537093 0.16450821 1.9875242 2.4364758 -0.62607014 2.5660415 0.40308225 0.35374033 -0.5025372 -1.0674133 0.70122063 -0.9632417 0.8107314 1.4326142 2.1462605 0.8508293 -0.9592865 -2.4267707 -0.68076223 2.0752354 0.6273471 0.6516661 0.16601989 0.7339149 -0.40011695 -2.2856522 -0.9390605 1.2576609
C8H17NO2+H+ 0.03400659 0.7379735 0.45371243 -0.9895179 -1.0847257 -1.0046855 -0.53119785 0.08578605 1.11957 -0.55065066 -1.0900837 -1.1698974 -0.06640282 0.63001853 0.42707106 -0.9633391 2.423212 -0.06945864 -1.5669132 1.6317176 -0.062087983 0.78009313 0.029224455 -2.2761233 1.2724175 -0.17301689 0.18364353 0.7579228 2.6655462 0.47519627 0.4742812 3.1184993 -0.20016779 -0.8285169 0.75395024 -0.6652077 1.8598548 1.1207271 -0.16581029 0.68450093 -1.191313 2.4955251 -1.5437762 1.184653 -0.16931687 -1.1036508 1.2699839 1.0352434 -1.413093 0.15621723 -0.92252904 0.06321331 1.5439714 0.84027976 -0.16906622 1.1285348 0.12700419 -1.9128647 -0.26177952 0.87558526 0.29510844 0.43382832 -1.2912138 -0.025235917 -2.1187334 0.64784133 0.52980876 1.2511559 1.7797146 0.26285926 -0.7922919 1.2557693 0.97734326 1.0113232 0.20498936 0.53600603 -1.8286271 1.1167145 0.093579836 1.026939 0.39853796 1.1041852 -2.435602 0.45198914 0.008305898 1.3572226 0.4294921 3.143258 1.5329518 -0.45731002 2.248617 -0.50385064 0.6249696 -0.10166592 -0.6659019 1.7173463 -1.1081309 0.14582378 -0.16085522 0.018212311
C10H11NO+Na+ 0.38854074 -1.0907289 -2.359645 0.81191736 0.44904593 1.3909097 0.9269872 -1.4923626 -1.8269664 -0.82073236 0.8968121 -1.1220448 -1.9081008 -0.04155073 -0.6229415 1.7631862 -0.4546939 -1.276363 0.08419752 -1.5218558 0.92553675 -1.697486 -1.1228478 0.15886499 1.4568915 0.32787424 0.7559666 -0.38891602 -0.16846372 1.562398 -0.92434764 0.22232415 -0.669249 -0.2683006 -1.6054116 1.4388566 0.75102675 -1.1820669 0.43053406 -1.0089673 1.1327045 0.66550064 0.4347513 -0.21862052 -0.06848485 0.13260978 0.007108354 -1.3359861 0.63186085 -0.7290903 -0.2826877 -1.0402707 -2.5096426 -0.56496435 0.29519102 0.9020595 -0.1466889 1.0862069 1.0949101 0.1908934 -1.4186434 1.0457386 0.85325056 -0.24076876 -0.156281 -0.69019985 -1.5123487 -1.122664 -0.5231817 0.15264829 -0.30204573 -1.6267536 0.2585993 -1.3474952 1.1639097 -1.2247709 0.7077923 1.4140404 -0.07806634 -0.46931615 0.044358645 1.766379 0.4442498 1.0565268 0.027318181 -0.33852017 -0.43003204 -1.2029969 -0.824387 0.5197034 0.31983685 -0.029697148 0.16877656 -0.40662047 -1.109382 0.16768585 0.5005786 -0.1346844 -0.1793941 -0.029579265
C29H47NO4+Na+ -1.1723502 -2.0742884 2.3289032 1.080159 -3.5558567 1.2016239 -1.455682 5.647324 1.6686143 1.6526258 -1.9684136 -1.0020915 -0.41955918 3.3027117 -0.8086481 -0.6699928 -3.0421808 2.627993 0.38330284 4.94368 -2.2000868 -1.4657338 0.92017496 0.5826005 -1.097949 -2.3138297 0.07785651 -1.304288 2.3407407 -0.8271687 1.5662357 2.0219016 -1.8082685 -0.10827738 -2.304278 -0.8456782 3.9344425 2.0431058 -1.8873013 -0.43468648 1.2625445 -2.267181 -4.5125484 1.1465415 -0.49945182 4.4226804 2.10765 0.6856947 -4.407972 -1.5939921 -2.128758 1.1626642 3.0956001 1.6452149 0.20303947 2.0047402 -0.8263573 1.6325783 -0.5721907 1.2849531 -1.0324305 -2.738117 0.3236538 -0.14432417 0.6937873 0.15929691 -1.8285992 0.43393946 -1.9401249 -0.07873252 -3.3839824 3.5138557 1.695759 0.93472356 3.1694205 -3.3509517 -2.229002 3.4802618 -1.6022909 0.5008273 0.89548475 1.4836366 3.605877 0.64426476 2.4861624 3.826419 -0.038467817 3.106862 1.1603811 -2.2965348 -1.1800892 2.902024 0.6333305 -1.4377265 -0.66335064 -0.5238014 1.1309633 3.536863 -1.2503525 3.3054473
C9H20N2O2+H+ -3.603924 -1.6224946 -0.9840679 -0.7368608 -1.326873 -0.14979316 1.1252991 -1.5786937 -1.4919833 1.7600646 0.41943136 1.0908928 1.0980922 -0.9739283 -0.82866347 1.7003443 -0.2536217 0.13272177 1.4853282 -0.79930097 1.0732898 0.97253734 -2.905843 -0.24305715 1.4188288 0.37408727 -1.6310732 -1.773655 2.5774128 -0.529429 0.0829689 2.4312286 0.22474201 -1.5321121 -1.3724355 -1.071731 1.2878426 -1.2426119 -1.9241948 1.873397 1.0851853 -0.36633718 -1.5149206 0.654393 -0.19148813 0.3692718 -0.92028224 0.5088091 -2.817182 -0.8480119 -3.2322721 2.2952945 -0.87207747 -2.6436713 0.6826827 3.8510048 -2.1475654 1.3988737 0.36882383 -2.1233785 -2.8385384 0.2583531 -0.058379613 -0.92151827 1.2584085 -0.63567984 -1.1688079 -0.7751437 -0.663615 0.12813695 -1.4598185 0.26259524 1.4064612 2.0859313 1.5376529 1.0651102 -0.9931421 1.8280306 2.2741919 -0.20438781 0.84646624 2.9062726 -2.1766508 1.3462723 1.0354135 -1.648596 1.737668 0.47009882 -0.35535586 1.3071402 -0.68268454 2.401833 -0.5078006 -0.608753 0.28240854 -1.4300605 -0.021646611 -1.0100518 0.99242365 1.2994138
C7H15NO3+K+ -1.6030073 -1.6474973 -1.66082 -0.2675663 0.3851 0.8488297 1.7702612 -1.5696974 -0.74586177 1.1925311 0.3622807 -1.9000373 -0.6081729 -0.9579982 0.6038572 2.651932 0.038045697 -0.15817852 0.55034745 -0.5759372 0.9898499 0.9834036 -1.9160029 1.9096653 0.8271984 -0.29529643 0.040972505 0.5249523 -1.360471 -0.72711766 -0.63365996 1.3184947 -0.28102297 -0.79914916 1.981302 -0.14289144 1.2584708 0.14192234 -1.2266892 0.096237406 0.6669745 -0.5890141 -0.6192111 0.96079737 -0.8248389 0.43534055 0.33318132 -2.6111622 -2.7021706 -0.054685537 -1.9534112 -0.32630122 -1.1640321 -0.83862984 -0.4301237 1.9966671 0.5899784 0.47704884 -1.0981816 -0.72769207 -0.9432396 0.020603398 -0.15638024 0.29781142 -0.9861096 0.06797017 -0.10418196 -1.8398125 -1.1423242 -2.1605098 -0.50749403 -1.7866857 -0.5624606 1.6472454 0.747358 -1.4362955 0.3673817 2.0279381 -0.0927119 -0.7065687 1.1809716 0.22273383 -0.632663 -0.42055404 0.93838304 0.6121301 0.29674223 -0.5073237 1.937858 -1.1154183 0.4010656 -0.3843034 0.2533065 -1.4887592 -1.1129494 -0.025293136 0.33251542 -1.1963892 0.39114723 -0.6944695
C26H50NO7P+H+ -0.87089926 0.15740125 -1.6674988 0.42404374 0.32349268 1.3693746 0.4197679 -3.0395234 -1.5176363 -0.15287341 1.7925411 0.37260017 -0.48365232 1.3765459 0.5927455 0.21543229 0.8558034 1.1524408 0.22477461 -0.7360298 -0.2561914 -0.036044564 -1.1420518 1.6550249 1.9861314 0.68884325 -1.4236366 -0.20908867 -1.6144279 1.8226004 -1.2035023 -0.6967337 0.5309155 -0.9955047 -1.8838916 3.2233865 -2.5562506 -0.70601326 -0.305115 -0.7428291 0.7386182 -0.35526028 2.390588 -1.0962504 -1.2170634 -1.4373108 -0.760492 -1.4987224 2.3499782 0.92685807 1.2698642 0.34886834 -1.9577214 -2.0541358 0.941616 0.50163996 -0.9107458 1.7015789 1.0127342 -0.4278391 -1.9941149 1.4349895 1.0630935 -0.047395688 0.7028248 -1.2535862 -1.1012847 -2.3772233 0.35863033 0.543245 -0.06539969 1.3569022 1.7063597 -1.3397608 0.831829 1.4547215 2.0253718 -1.26359 1.7409757 -1.1870434 -0.6438965 0.5913084 -1.256847 -0.54741704 0.32398683 -1.5993899 -2.0833764 -2.6026673 -2.9479444 3.6930084 0.021012092 0.94438183 0.624732 1.6763673 -0.6978171 -0.88435304 -0.84971446 0.22954555 0.8046072 0.4819596
C13H17NO3+Na+ 1.9767535 0.9757497 0.28049755 -0.57697034 -1.402734 0.3016849 0.5156049 3.6612406 0.8970808 0.24706945 -0.75550514 -0.7801608 -1.3052377 0.5144712 -0.6088414 -1.4325424 -0.49318016 0.5835533 -0.10298594 1.7223253 -1.703006 0.18810086 0.36099517 -1.5262921 -1.1202952 -0.5890609 -0.592275 1.306826 1.070017 -0.07215957 -0.27641633 -0.21331722 0.6517564 0.19740373 0.32629436 -1.1382868 1.1216033 1.8395365 0.9567204 -2.7835157 -0.60557795 -0.5692724 1.1737828 -0.47421306 -0.084269784 -1.0093962 0.5309435 1.8381627 1.2318296 -0.006987668 3.7523363 -0.003431166 3.8312707 2.3341732 0.23219316 -0.42875028 0.3844056 -1.2635931 0.26502365 2.834119 2.3087497 0.06249955 -1.2023762 4.3366303 0.19160707 0.6436881 1.8776557 1.6201007 0.9150135 0.62923163 -1.8312215 2.1443512 -0.9068009 -1.8229167 -1.3988336 -0.4326482 -0.1389428 -1.5008458 -2.1688864 0.29146478 -0.00892036 -1.2723507 0.7968192 0.31774792 0.6421657 1.1845204 -0.023372239 0.49151745 0.8278019 0.29929373 1.042395 1.0606501 -0.25242338 2.069336 -0.8949777 0.5829132 0.17391287 1.7173948 -0.57374597 0.12879124
C10H16N4O3+H+ -1.3937391 -2.1041167 0.34546542 -0.25406006 -2.438728 0.094656914 1.6685222 1.2690035 -0.20218912 1.4686422 -0.7721699 -2.7587638 0.2556429 -1.4260147 0.4309764 0.82990164 -0.4946902 0.51771075 1.0491087 1.1180861 -1.1698561 0.015529857 -1.948592 -4.1681952 -2.1111603 0.23684335 -0.060219668 -1.2400981 1.7232808 -0.7059105 -1.4277132 1.4306245 -0.28654987 -0.9647319 -0.5238284 -3.422339 5.7127466 2.514064 -1.5983769 0.026977945 -1.4584296 0.5436322 -0.25736028 -1.1283555 0.7915821 -0.6760103 -1.7201154 4.041893 -1.4747536 -1.596279 -0.83852404 -1.2177596 2.251804 2.7177904 0.42336503 2.574718 0.09087995 -0.7018985 -2.4165645 1.9347471 1.4384362 -0.7964965 -0.21079694 5.4016685 0.38490778 1.2006003 3.7878911 2.6362495 -1.213602 -0.60402066 -0.5996895 -0.04251283 -0.7595872 -0.26473275 -1.850798 -1.6796398 -2.2749221 -0.40560323 -3.4531252 2.2876325 1.5773796 2.2052288 -0.8025488 1.5040679 -0.092106394 0.31605473 2.0211134 4.2091446 4.5348964 -2.5457652 2.0740664 -0.3340685 -0.9591205 -0.84724605 -1.1053041 0.623806 1.7580906 0.91059715 -2.3014193 0.37296686
C8H20NO6P+K+ -0.12284846 1.162243 0.8747517 -0.29362044 0.92203224 -1.5024571 1.0442057 2.507775 0.7336528 0.7025699 0.7235541 -0.46847385 -0.45776877 1.3629498 -0.6565832 -3.1174803 0.54178894 -3.2161758 1.160084 -0.7603018 0.5354694 -2.6360059 2.529634 -1.4390968 -0.9582957 -0.8748983 1.4213693 -0.94496584 -0.3881799 1.4765033 -0.84016025 0.53609526 -0.22954057 0.5841087 -1.7754834 1.0356758 -0.87421 0.4263867 0.30355215 0.8222135 -0.26756093 -0.46154156 0.55667853 -0.1891136 -1.2683899 -0.09161166 -2.0899787 0.22823493 2.1329274 -1.8249383 0.21234827 -0.6073536 -0.46499655 -0.922588 1.8541286 -1.3579587 1.4897779 0.5873922 0.5888276 -0.7523786 -2.292942 -0.52779275 -0.4748984 -0.86882514 0.20105007 0.4502776 0.6486374 1.8598433 0.50746036 1.6361398 0.021805353 -0.90690064 -0.08633644 -0.16092235 -0.3383374 1.2176182 1.6051186 0.22433448 0.6111066 0.2631684 -1.101344 2.275083 -1.818778 -0.2699171 -1.7172024 -2.003512 -2.1315725 -0.3309136 0.7884856 0.77669805 0.23280358 -0.26672864 0.6128988 0.1310575 -0.87765753 1.3397168 -0.8208966 3.66156 1.9424444 -0.28611934
C26H52NO6P+H+ -2.063149 -2.666944 0.5096432 1.2292808 -2.1059728 0.5489649 -0.32318726 1.1438 0.099970624 -0.11557687 0.34412393 -1.4228495 -0.7077552 -1.4592787 0.65126574 1.6355062 1.5657183 0.22512653 0.7315295 -1.6869814 -0.39966002 1.7062428 -2.9965286 -1.015185 0.3682216 1.7995231 0.9894533 1.8154483 1.3163295 0.7618515 1.3828385 0.13424787 1.4385233 0.22995602 0.3108059 0.06849736 2.314268 0.6202625 -0.27942908 -0.63203704 -1.077715 0.7099266 -0.27848503 -1.187891 1.3706172 -1.1620559 -0.041287955 1.435553 0.008311029 0.81159425 -0.65197754 1.2795385 -0.7740937 1.0100708 0.77513 2.3806221 -1.3333229 -0.1143675 -2.479304 1.6465513 -0.08840635 0.5942933 0.81348705 0.53083056 0.1536582 0.5176215 1.0053171 0.40293238 0.12126132 -2.9452095 -0.32360074 -1.2278849 -0.8959851 2.418746 1.0788586 1.0118318 -1.0405893 0.4543102 -1.470258 0.3033263 -0.15177448 1.2954347 1.1201361 -0.45218402 1.2893928 0.5405486 2.2340174 0.49106705 1.3198243 -0.85047525 0.07622215 3.0853803 0.7998722 -0.30269113 -1.0203114 -0.95777345 -0.025834056 0.06737063 0.71168476 0.94714874
C10H19NO4+H+ -2.5140235 -1.1764399 -0.40262976 1.0390208 -3.5790734 0.6846 -1.2538034 1.3017234 0.6671176 1.2677588 -1.1940258 -1.8588094 -0.7916355 2.3943098 3.0532272 0.69466937 0.22069189 1.9196995 0.0578436 4.324926 -1.2161785 0.39786956 0.07016895 -0.4816145 -2.2615752 -0.52745086 -1.4706359 -0.04016335 2.5405731 0.6197989 -0.59103984 3.4315732 -0.82558465 -1.7074052 -0.29298 -1.8721414 6.6260467 0.38377953 -0.85415566 2.0189948 0.19877756 -1.9767314 -2.0504444 0.008499426 -2.1873152 -0.4045738 1.0502534 3.9545896 -3.0361302 1.8014827 -1.9414976 -0.74782187 4.7200866 1.2277598 -1.268813 1.6309112 -1.4533249 -2.0931182 -0.052730948 3.1677673 3.5375926 0.3200357 1.9011524 4.338021 1.661347 -0.64090455 -0.8246565 0.20804204 0.6421256 1.0626527 -1.5333087 1.1519974 -1.5288565 1.3977873 0.02556908 0.50189435 -2.4477162 2.508875 -2.400911 0.17145675 0.31961 0.77926856 1.8744113 -1.1081426 2.4398515 2.2309923 3.5550485 2.6854389 1.3627977 -3.9033718 1.0823034 2.146071 -0.96313924 -2.9140606 2.0640125 1.0122628 1.1457201 -0.33407536 -3.0979965 3.5386596
C8H20NO6P+Na+ 0.23357373 0.16672948 0.2732972 2.1893454 -0.42120376 -0.7009781 0.4872829 2.906554 0.21533155 1.1125436 1.170498 -0.22013144 -0.26685202 0.37165222 -1.4272592 0.5537421 0.84571993 0.7023021 0.8552065 0.24063712 -1.7102963 -1.2318966 0.9492687 1.2071306 -1.4354922 0.43709835 0.49810505 -1.536297 0.13185218 -0.6698913 0.060308058 0.16650675 -0.13725643 0.24506508 -2.3363295 -0.18625127 0.34846532 -1.2609649 -0.4229957 1.8268003 -1.0130742 -1.8933886 -0.30570093 0.7057547 -1.5217674 -0.6248417 -1.531857 -0.6292315 -0.3307944 -1.0822564 2.505776 0.13542353 1.3158447 -0.5389884 -0.017653054 -1.704173 0.5390899 -0.7720178 1.5721394 -0.6039689 -0.63765115 -0.8680125 -0.6311064 1.7581844 0.6610565 0.8347244 0.5210414 0.5273425 -0.6111531 1.6988733 -0.47067693 -0.76578695 -0.15140367 0.72403985 -2.3881812 -0.32711604 2.230764 1.1471852 1.4511164 1.3377285 0.6880062 -1.6338962 -0.8794923 -2.074037 -0.143612 -1.0005047 -2.2925274 -0.20695806 0.3689259 0.8210053 1.3187692 -0.47036213 0.8833364 -0.9480786 1.327519 0.066409335 0.2566288 2.0964673 0.59232736 -0.4416494
C10H11NO2+Na+ -1.6583707 -3.5364861 1.779236 2.2115772 -1.7981422 1.672422 -0.043386456 -1.5799068 -1.0841742 -0.3300347 0.5772452 -1.0420173 -2.721206 2.370951 -0.25446093 1.1722646 1.679402 1.4496877 1.7239237 0.059948873 0.1794335 1.9250658 -1.0438585 -0.58990884 -0.92004615 0.053236645 1.6356177 -1.0997876 0.27651766 1.1589842 1.43789 3.891546 -0.71575934 0.8093714 -3.2045207 0.52442837 0.80031985 0.40409616 0.10229292 -0.17054544 1.993737 -0.74700475 -3.0110152 -0.60020596 -1.6813555 0.41189486 0.4318905 -0.6592558 -0.5615156 -0.115161516 -0.13480265 0.7150275 -0.17099366 -2.4430895 -0.0077837547 0.8704405 -0.7435441 -1.7872192 -1.7764648 1.2374734 0.096901074 -1.7806084 1.7553984 1.748423 -0.9909078 -0.29105347 0.88399684 -0.23733006 0.33464956 -0.043722317 -0.94864655 -0.9795057 0.6737219 -0.65269625 -1.765101 -0.29364726 0.25940388 2.5462043 0.111310676 0.81893426 0.6386009 0.521239 0.02417823 -1.1585723 1.6000534 -0.8589173 0.3374287 2.287323 -0.3462934 -1.4842781 -0.61277604 2.1542077 1.7303219 -1.627001 1.5693995 0.22555104 0.84930104 -0.11221938 -1.6305248 1.5712998
C37H68O4+H+ -5.153963 -2.851622 5.830015 -0.6300683 -2.709997 2.5629244 -2.191025 5.5094614 -0.15863743 0.94176066 -3.5503032 0.68291795 1.0354245 4.3558135 -0.5458066 -1.4095216 -3.611291 2.8912413 2.2005632 -0.75999415 -1.157626 -1.0184361 4.0673094 1.7288916 -4.2284656 -2.331847 0.4943271 0.17166206 1.2799296 -2.703625 1.0877202 3.522428 -3.3234048 2.287742 -2.8779163 -0.40012094 -0.77872443 2.467574 -1.7289957 -1.860351 3.7261992 -1.678883 -5.754849 -2.0016696 -0.8329613 4.9507594 2.7424564 -2.1857624 0.50901926 -0.966085 -1.6959281 1.0449886 3.976291 -0.93592995 1.5376949 2.4462044 -2.239169 2.9648428 -3.6003597 2.873717 -1.1564629 -7.587251 0.33946523 -3.0652363 1.3235062 -3.7096648 -1.4588003 2.5317736 -3.6130118 -1.7220201 -5.709347 1.8627031 1.0957211 1.4334489 1.771828 -2.705887 -0.18088529 -0.45829633 0.066103145 -3.0317497 -1.0880415 2.0947943 3.59137 -0.5226951 0.09265638 1.669894 0.4742461 3.4354146 0.28731132 -1.0310653 -2.9471624 6.888251 0.41589692 -5.797577 1.0414768 -3.2130365 2.5298655 4.4481864 -2.1101654 5.4856415
C7H6O4+Na+ 1.1138275 0.70760655 -1.3751596 0.09989814 1.843392 1.1537471 0.6424303 2.831637 1.3193944 -0.44812205 1.984554 0.29694104 -1.4914001 -1.3046097 -2.7204676 -0.8698473 -3.2975826 -1.6952798 1.1701337 1.4265057 0.6820337 -2.3962233 2.135521 -0.13383338 -0.52974564 -0.3895864 1.280052 1.5393938 -1.4455787 -1.5306996 1.5614973 -2.580883 0.7460679 0.13220695 0.72684926 0.46733755 -0.12940492 0.8899944 3.0921142 -2.2215884 -1.3249468 -2.6176765 3.4590633 0.07456106 -2.2814941 2.6213715 -1.1716356 -0.34467414 -0.34588385 -4.295189 -0.20057914 -1.8199704 -2.2787745 -1.2828782 1.0288168 0.563529 -0.40227717 -0.928713 -0.6468456 -0.62681365 -1.0195538 3.2973025 -0.12500994 2.3907413 2.9518878 2.750051 0.54900444 0.5520885 -1.3080972 1.4895759 -2.5999935 -1.8118881 -1.4756488 0.9257526 -0.77092165 1.430371 0.34005332 0.5911119 2.1761863 -1.0598804 -3.1695178 -0.025082152 1.7207603 -1.9755563 2.1341302 0.16379313 -1.3455373 -4.5105047 -0.7147393 2.1687603 -2.241276 -2.4935896 0.96978706 2.9489202 -1.2154545 0.70174915 0.683987 -2.8244503 1.3654082 0.24543673
C15H28O4+K+ 1.2363285 -1.4382637 1.4232614 1.0763099 -0.34456283 0.42971897 -0.7139871 0.33047232 0.9665515 -0.8753185 0.16564147 -0.8975867 -0.5889533 0.6363883 -1.4338638 0.2681189 -0.0449093 0.5572125 -0.2539356 0.47550502 -0.35644463 0.9554357 -0.6004475 -1.471595 -0.081936784 0.6567113 0.94647837 -0.8041004 0.86422884 -0.10110111 0.7031426 0.32449958 -0.13979854 0.15915655 -1.2192409 0.18227145 0.5261318 0.6414358 0.17344621 -0.88826746 0.12940519 -0.041711412 -2.0072563 1.935234 -0.25727588 0.7760643 0.9875793 0.79466987 -0.48781884 -0.49544704 0.6077037 -0.30789724 -0.8269524 0.04537453 -0.74581724 -0.7167859 -0.655729 -0.44112715 -0.9295781 0.73468375 -0.73815125 -0.6280087 0.020337392 0.44626123 -0.41688222 1.6720266 1.2302256 0.6415033 -0.17222191 0.16022873 0.7875535 -0.4149642 0.8418803 -1.7434952 -1.0453013 -1.1054269 -0.9877228 1.3134218 0.31446517 1.391947 0.66591054 0.24455506 0.73988366 0.35205534 0.050138485 1.2231716 -1.0425701 1.9381013 1.1804703 -0.6731574 0.093208335 -0.45962596 1.1077499 0.5702258 1.0120597 0.5546566 0.66593367 1.6126013 -0.7104659 -0.20726047
C35H66O4+H+ -3.245159 -2.5815392 1.5110272 -1.251498 -3.576948 2.746774 -2.4152086 6.7259164 5.0809956 3.0223877 -0.643188 -7.121807 -1.3393328 3.822259 0.4244506 0.21083233 -2.453752 1.9382802 1.422675 1.708799 -4.360437 -3.7539058 2.9868307 -0.6949809 -1.0800958 -1.4134161 -1.4169478 3.4008317 3.1938841 -3.2388673 4.3653355 6.298271 -0.28366548 -0.76873565 -0.08270032 -2.0650172 1.4566905 7.226812 0.17361222 -1.3608335 1.8752118 -0.41533747 -4.7092977 1.0684756 -1.3134876 3.8240647 3.3933847 1.5241834 0.09905761 -6.213548 -5.4273977 -2.4168108 -2.0111768 2.2916977 3.2124338 5.762308 -2.4242527 1.2380041 -4.5494537 4.720079 -4.9748435 -2.2304995 0.6848596 -0.8937768 -4.2057004 5.6903095 2.14194 2.5487936 0.23388708 -2.657532 -7.1548104 -0.9090198 -3.377909 -2.3883095 -0.42862153 -2.2743495 3.0062807 4.978676 1.2186745 -3.1417825 -3.9564033 -1.3343393 2.498469 1.9961215 1.5891417 6.6244564 3.2985923 4.098819 4.9857616 1.6777853 1.5868837 7.642224 0.9400757 -1.727877 0.61494243 -0.7890453 2.5097504 6.388117 -0.5759001 3.9299967
C7H6O4+H+ -0.5632368 -1.2942578 0.44722757 1.0883491 -2.324306 0.31641412 -1.5299742 2.1770856 2.045499 1.9479146 -1.5687695 -1.161395 1.2597152 2.117698 -1.8113104 1.0332115 -3.6462255 3.624071 0.41976127 0.4749548 1.3545458 0.03249111 -0.94535655 -2.0068266 -0.8129204 -1.62582 -1.7435588 2.1374948 -0.80856854 0.6154202 0.0886069 -0.67046046 0.24484457 -1.4993432 -0.3347565 -1.5976747 1.2467957 -0.74229276 -0.82391113 0.746708 -0.5558579 -1.139805 1.5996836 -0.21261333 1.2224855 1.7740897 2.7228734 2.5475569 -3.5786946 -1.0851299 0.27031454 -0.6527985 1.386109 0.8055184 0.4512176 0.61956036 -2.2361367 -0.72061235 -1.8586252 0.60131097 -0.9861151 -0.913651 -1.205935 2.1218166 1.448453 -0.9108995 0.9688888 1.5875736 -0.4257367 0.68472165 -1.1779168 4.1644177 -1.2807157 1.1904563 2.7537389 -1.3379909 -2.7370627 -0.15616344 -2.7255738 0.58745545 -1.5390068 0.85200536 1.5283948 -0.22519891 -1.1766875 -1.0894909 -2.2760801 0.98224396 0.46501872 -0.76341426 -1.3407396 0.9899479 0.20139292 -1.1996418 -0.89004415 -1.4973508 1.0414796 -0.88467133 -1.3287519 1.82532
C18H24O3+Na+ 0.29291883 0.14501385 0.32315335 -0.47415838 0.20607984 -0.30603382 0.6816177 0.9546346 -0.22016357 0.7909137 -0.09896767 -0.67504853 -0.2719682 0.19805053 -0.084954545 -1.0008985 -1.2156167 -1.4233478 0.42824557 -0.12587833 0.183402 -2.170325 1.0048685 -0.64581597 -0.33752105 -1.4143863 1.250997 0.57095 0.42127547 0.019378295 -0.14605391 1.5778495 -1.3735834 0.43918973 -0.2949769 0.26049373 0.18621881 1.0438232 -0.12050403 -0.3789746 -0.32350394 1.1022211 -1.3060313 0.61764574 0.59992 1.4099641 -0.26546007 -0.34104663 -0.051251765 -1.125536 -0.9344524 -0.1744247 -0.64746654 0.5289894 1.1170372 0.9098054 0.13141704 1.146833 -0.85313845 -0.15142152 -0.4521197 -0.6788439 -1.2894256 -0.71281993 -1.5044701 -0.2819802 -0.34044257 0.5707623 -0.69711196 0.27186167 -1.9811621 -0.35156953 0.53168154 -0.22591008 0.8835709 -1.2720641 0.09026398 1.4011484 0.41550562 0.79249424 -0.082166955 1.098713 0.10176032 0.080987245 0.93953454 1.4327376 -1.1205221 -0.5116117 -0.16538827 -0.79823786 -0.63580775 -0.70358473 -0.17295557 0.15731329 -2.1944108 0.09463063 0.89409673 1.778606 -0.31734204 0.27534658
C13H8F2O3+Na+ -0.093084216 1.0108373 -1.5002507 -1.7305415 1.9909699 -2.246089 2.0872583 -0.49319658 -1.310879 1.1311216 0.042080764 2.3033855 1.1268786 -2.798321 -0.3327419 -0.29369113 1.9903194 -0.7693859 -0.20861387 -1.9908609 0.93767905 0.27169502 -0.34738135 -0.68197536 0.41246098 -0.45761415 -0.40496555 -0.38504118 -0.57996863 -1.0129699 -0.18880875 -0.22438733 0.07752907 0.064173944 0.3298374 -1.3044956 -1.4339889 -1.0261402 -0.58794445 1.4650888 -0.38321573 1.4927529 0.65686524 -0.5841853 2.2647853 -1.4648359 -1.9481939 -1.5221262 1.0096174 -0.67547107 2.1244311 2.476451 0.944149 -0.78207403 -0.12551935 0.73805195 1.8338615 -0.19417304 0.43603325 -2.0894966 0.69339925 -0.8169732 -1.1639285 -0.45644283 0.030336754 -0.8317697 -0.25931272 1.1430037 0.14187816 -0.09420792 -0.33219838 -0.04556003 -0.25437373 1.7921299 -0.078135625 -0.6803568 0.38753077 -2.200089 0.7603521 0.3388006 -0.15134197 -1.3408097 -3.4915354 0.114569075 -1.323912 -2.1726515 1.205761 -0.82017547 -1.3730156 1.143553 0.923482 -1.5426309 -0.7360699 -0.41872948 -0.88809204 0.34804884 -1.2128246 -0.7819135 2.3248718 -1.2310636
C11H8O5+H+ -0.8437365 0.7393074 -0.5899029 -1.9285762 -0.1155781 2.5824394 -0.73619664 0.6245196 0.49858373 1.1773883 -1.0555418 -3.6053767 1.2309449 -0.5176912 -0.20786624 1.8748157 -1.9081568 0.4380264 1.250652 0.036911774 -2.5351398 -2.5433342 2.6828058 1.8074077 0.50797164 1.0572985 -0.729365 0.30189806 -0.22805704 -3.0236993 2.1732717 -0.077137835 -0.94134116 0.03985409 0.8923502 -0.07012974 -2.46203 1.4876208 -0.56986076 -0.6765637 1.0328928 0.9006776 -0.22957166 1.2664647 -0.10057589 1.712295 1.1301781 -2.0405893 0.4206393 -2.8404186 -3.0181403 -1.8572482 -2.7594512 0.75710374 1.8791122 0.25842622 0.036551367 2.7736933 -1.8937745 1.6095052 -2.203419 -2.058508 0.13881643 -2.7544463 -2.31157 2.3163068 0.72842574 -0.057834 -2.8904374 -1.8179109 -2.030889 -2.9433017 -1.5095102 0.31059453 0.015854258 -1.8389925 0.8721993 2.0953865 1.6801615 -2.0783648 -2.2441568 -0.47851685 0.88803726 0.71492726 -1.2578777 1.5138555 -0.7134888 -0.512257 2.1522334 0.23793033 -0.029675756 0.2742338 -0.6932453 -0.46396595 -1.0287079 -1.2910782 2.2333272 2.011485 -0.37866366 0.10091569
C14H10O6+H+ -0.32704413 -1.4051372 1.5766295 1.0264415 -2.3775241 0.19291416 -2.1350603 -0.8280645 2.8163576 0.42484632 -0.07226355 -1.1691207 1.6034472 1.2792532 0.8743234 0.033678483 -0.7905247 0.47296143 -0.35348827 -0.4288705 -1.7143639 0.26637927 -2.2601955 -1.1713662 0.3930452 1.0523967 -1.7990628 0.19970489 1.1405697 0.055309296 0.7579733 -0.7317976 0.77600336 -2.000741 2.0371704 -0.7686376 1.7815496 1.6979903 -0.9133171 0.40033332 0.27966872 1.4894606 -0.697159 0.97426456 0.8759835 0.02243019 0.66628385 3.1633441 -0.18997495 -0.94136846 -3.4865098 -2.3278937 -2.6947272 0.92868173 0.46410635 1.8927346 -3.9619968 0.9377366 -2.392274 0.9413254 -2.2455752 1.2315236 0.997605 0.019578045 0.42247558 1.0513237 2.0040107 0.5549803 0.9490956 -1.7079033 0.64019144 -0.8446182 0.19911334 0.6937198 1.1207664 0.01242015 -3.5703623 -0.14445367 -0.93974155 -0.10490926 -1.5051671 1.5654274 0.67548203 0.8332922 1.5441563 2.26055 -0.7870735 0.7262469 2.252421 1.8716508 0.5578233 1.7209597 -0.54946893 0.06630206 -0.8281702 -2.1381857 0.738749 -1.1870627 -0.7181294 -0.48048207
C24H32O5+Na+ 0.24738997 -1.2539108 2.2347279 0.5961722 -0.6630002 0.5315996 -0.80546254 -0.47445583 0.2227337 0.14085613 0.6615556 -1.4002695 -0.2201481 2.3024313 -0.089511074 -0.29569128 1.1224201 0.86632717 0.12297652 -0.056581013 -1.1193182 0.5051235 -0.3980823 0.3216512 0.24491452 1.0300049 0.9409554 -0.012178005 0.16110322 1.1871722 0.46425655 2.4221363 -0.35028133 0.5635644 -0.76185966 -0.3760843 0.011727571 0.5825625 -0.5756463 -1.0759653 0.29725358 0.282888 -1.3647112 1.2766752 -0.52314377 -0.19726233 -0.5604267 -0.26262853 1.173734 -0.4212238 0.64125144 1.0248172 -0.7776709 -0.2841595 -1.0486588 -0.12959322 -1.1391653 0.99355423 -1.4905138 0.9533166 -0.86087817 -2.0030406 -0.15568301 0.42303243 -1.4090163 1.7194539 0.8216056 -0.43969887 0.14942123 -0.4208203 -0.7238523 -0.85754585 1.1642973 -0.8376304 -1.2412646 -0.295039 1.672464 -0.61905444 0.90264744 0.7279618 1.7158371 -0.2235738 -0.02565246 -1.1270939 0.86945295 1.248884 -0.26087248 0.28256083 1.2718261 -1.0042347 0.014468422 -0.55090886 -0.4110053 0.8095916 2.099363 -0.69777125 0.31109148 0.021378072 -1.7999732 -0.49232656
C15H10O6+H+ 1.0722482 -0.64566153 2.1965966 1.9506257 1.1106775 0.18781598 -2.204432 2.1471305 2.5931358 1.0473508 1.9717793 -2.0503824 0.0033057588 0.558865 -2.0328083 -1.3696657 -2.170378 3.41191 0.22571336 1.0522239 0.6231475 0.4389959 1.271652 -0.7059072 -2.103705 -2.0133243 0.709351 2.6616967 -1.0275449 -2.7322927 0.3140484 -0.58853126 -0.60026056 0.105353795 -0.7050488 1.6821725 -1.6910524 0.5202726 0.5836962 0.5386752 -1.6284549 -0.95983636 -1.4678099 -0.7250488 -0.26735228 1.9419581 3.8620212 1.0670007 -3.4836545 2.6584356 1.9370319 -0.2253582 2.8038232 0.7662131 0.63372105 -0.82086086 1.3677136 -0.7130085 -3.863404 0.38260415 2.0063248 0.6275273 -1.9486281 0.66132456 0.20809822 -0.25022456 3.7179532 -0.5984797 0.16889471 -0.20467542 0.25799987 3.509333 -1.2540233 -0.08233655 -1.2111266 -0.35067922 0.21819486 -0.07795501 -1.2841316 2.398087 0.5460723 -0.96344256 2.6392548 -2.8141565 0.69797087 0.3854215 -1.629177 -0.2566579 -0.1651878 -1.6626947 -1.1160047 1.3434724 3.4162092 2.3437257 -0.1825479 0.8162241 1.7025814 5.890159 -1.1347773 3.057383
C37H66O4+H+ -3.145873 -0.6367093 -1.6260895 -3.5597339 -4.268482 1.0682733 0.8062079 2.8149698 -0.89119124 0.9839416 -4.169566 -2.1361287 -0.49875998 0.08802761 2.6816328 0.76646703 -0.06479481 -1.6655844 2.2037563 0.09058196 -3.457011 2.7082798 -0.2046564 2.2671125 2.6310437 0.81656986 -0.7922355 0.01594771 -0.060668264 1.5653863 2.447375 3.3396034 0.63091934 -0.011547563 2.2369347 -0.5683115 -0.3273431 5.047702 -0.5530522 -2.3553667 1.09286 -0.8528513 -1.1068931 0.8487005 1.9248312 0.4174168 -0.36700597 0.48599455 0.8917051 -1.3553665 -3.285264 0.09736664 -2.3015854 2.169889 2.435279 2.0077212 0.22340453 1.5223576 -0.7358239 3.230855 -2.943066 -3.2468247 1.0114628 -3.4498687 -3.0759962 0.37705392 -1.9906439 1.0818269 -0.16843586 -3.419737 -3.8938148 -1.9092873 0.69445 0.7775073 4.3740664 0.24655148 0.28054306 3.5714488 -0.05806377 -3.1469963 -2.0162904 1.8314012 0.56945324 2.148909 0.22316498 3.2139695 0.8847416 2.16793 3.3326151 -0.947694 -2.0487914 3.2825391 -3.6413083 -2.083546 -3.1625683 -2.3589463 -1.7543406 0.7987989 2.4873865 -0.4659981
C10H14N5O7P+H+ -0.2599631 1.262603 -1.596121 -1.4861656 -0.56625164 -1.9676358 0.28819847 -0.5228178 -1.0716417 0.52174 -0.27668527 1.2808689 0.38874382 -0.79808885 0.71176803 -0.14218302 3.7465856 2.5425599 -1.4651144 0.61699414 -1.9336325 0.27425328 0.4502221 -0.34400445 0.9509676 -0.8335262 -2.930074 -0.8793137 0.80042267 -2.2505941 0.7539697 2.586167 -0.26006085 0.22138323 -0.420779 -2.3675747 -1.3852262 -0.09947988 -0.6549966 3.1054797 -2.2661304 3.520574 -2.195603 -1.4737816 5.153874 -1.718457 0.6425295 1.6603165 0.62211215 -0.018340256 0.649032 1.8712028 0.8881455 1.638442 -0.7425516 0.11495105 1.8999509 -1.2906808 -0.78176326 -0.18862787 0.30699134 -1.0318661 -1.3134654 -2.6924174 -1.7884941 -0.12695709 -1.5275584 0.24234305 1.0942783 -0.96200573 -1.9715757 -0.2672128 0.5517443 1.8884776 -0.1850429 -2.7358372 0.75268745 -2.3914108 0.26706815 0.7146769 0.050605636 -1.9249598 -4.128783 0.5034767 -1.8900887 -0.6423972 3.1294503 2.087233 0.50769114 -0.005226924 1.6190679 0.19832315 -2.224442 -0.8799055 1.2552487 -0.3669648 -1.1920928 -0.2521316 1.6196327 -0.640488
C10H15N5O10P2+H+ 2.9006178 -1.473291 0.9293167 1.3090379 0.23676705 2.3846135 -0.6257682 -1.7016299 2.2008324 -1.2146662 1.6482757 -0.20934244 -0.018918017 -0.25462437 -0.4357054 -0.84807163 -4.2747154 -1.4514905 0.5757186 1.6706132 1.9038725 0.3140633 0.07222533 -0.34702313 -2.0864077 1.5467547 2.8117504 -1.9658226 -0.50357705 -0.5427536 0.5165386 -1.6367515 -0.612192 -1.6382037 1.752507 2.1504135 1.8308731 -0.50737417 2.2099879 -3.1658282 2.2707977 -1.5464 2.0610611 2.0220962 -3.6891506 1.8428175 0.1000515 -0.72307074 -1.6682767 0.06800452 -2.4905248 -2.6197817 -1.3040031 -1.0792005 -0.091458954 -0.66902345 -2.09117 0.8472467 0.86920947 -1.3315979 0.2376927 0.97038114 1.1720128 1.0717921 1.7333809 1.6873574 1.4129808 -0.044049583 -1.0239984 2.8938904 2.5739453 -1.5977266 0.50272197 -1.6779532 -2.4865446 1.6122881 -0.6741949 2.4364274 0.71346724 2.0548153 1.4271697 2.3067973 3.23438 1.4413556 2.794922 -0.001230548 -2.644078 -1.0047143 1.7255572 -0.6246637 -1.1344848 -2.6889317 1.1802657 1.3667482 1.3608952 -0.54175186 1.0041472 0.12216412 -1.1275716 -0.77836424
C15H16O9S+K+ 0.44741914 -1.2984917 0.6038652 0.25014362 -0.065362714 0.8083467 -0.070239276 -0.3355068 -0.33648118 0.10103301 0.36506775 -0.37345693 -1.0003799 0.14968655 -1.5404272 1.2043457 -0.4712902 -0.7202666 0.7546929 -2.3878417 0.8300938 0.71257454 -2.6156695 -0.23049375 0.87297165 0.5165474 -0.5822938 0.9394317 0.36750898 1.0654924 -1.0648458 -0.8864424 1.8421865 0.72274816 -0.026933504 0.31885895 -0.5047857 -0.6988338 -0.24172516 -2.2259295 0.84062195 -1.1629986 -0.14071083 0.9778913 -0.40198693 0.2370832 0.44805142 1.2897322 0.22796026 0.33365524 1.5827626 0.6645516 -1.253529 -1.3716621 -0.24244565 0.110838585 -2.369841 0.61770844 -1.2826154 1.1154072 -1.3521799 0.7869147 -0.48840013 1.1211876 1.1444348 0.70442104 1.0335909 -1.2458072 -0.033543024 -0.91080904 0.7306294 -0.2656433 -0.16122505 -1.6465243 0.3684967 0.6975344 -0.30013174 -0.06832861 -0.35848728 -0.60811865 -0.1942781 0.5485999 1.232338 0.025971672 -0.0154068805 0.16440907 -0.20948656 -1.1408774 0.5793068 -0.01757345 -0.9601772 2.3438587 0.19862455 1.9488559 0.09358042 -0.31823125 0.26131055 0.22736754 -0.3270071 -0.17125489
C12H20N2O3+H+ -0.040578324 0.5773931 -0.111519076 -0.57028276 0.4689964 -0.80501556 -0.014712688 0.85802746 0.3204599 -0.26539308 -0.48563698 1.1378115 0.53136885 0.37419444 -0.34637684 -0.37249902 -1.0966336 -0.18610056 0.4037336 -0.23242588 0.9009016 0.5819464 -0.23129582 0.018711098 -0.44467363 -1.0268205 -0.075798154 0.42567918 0.0124913845 -0.5028319 -0.8418504 0.5981537 -0.43251383 0.019093262 0.020618666 -0.61890066 -0.54927087 -0.5007215 0.068902515 -0.5666859 0.80707914 -0.6078468 -0.71403664 0.99470484 0.38072124 0.48117816 -0.029124161 -0.18802595 -0.46034914 -0.6645078 0.598889 0.43284437 1.65054 -0.27615097 -1.2482891 0.12909807 -0.18470693 -0.5264196 0.11388235 -0.65714365 0.38606852 -1.3771629 -0.8078642 0.25120234 0.21493508 -0.5001936 -0.6525588 0.8123356 -0.56240785 0.5547982 -1.1734844 0.13127725 0.43119845 0.18654203 0.57675344 -0.40600446 -0.8132554 -0.5894055 -0.0014862802 0.2415146 -0.42437455 -0.4211647 0.038100943 -0.005386475 0.033429768 0.4233065 -0.20582487 -0.4031158 0.05712817 0.07249961 -0.89754003 -0.50953895 -0.7410553 -0.65031946 0.39575836 -0.060825102 0.07695245 -1.3336565 -0.08035739 0.056089733
C9H14N4O3+K+ 3.415027 -0.5857394 -4.9559975 1.5393655 1.5405111 -1.9925189 -0.32880312 3.3635354 -0.9646562 -1.6383302 -0.5325813 2.7231607 -4.268717 1.3784728 0.56675345 -1.6045902 0.737472 0.23864271 -1.2002892 2.690588 0.5284637 -2.6472282 4.1847224 -1.9721651 -0.09916562 -1.3889244 1.5378928 -4.179747 -0.6215214 -0.17292537 -1.0596243 -0.2658724 -1.9036984 -1.1577451 -3.8805737 0.45437127 1.7948478 -2.4914215 2.0775886 2.1209202 0.56106627 -1.1944436 -0.40315405 1.1746929 -0.79971904 -0.59546274 0.20808126 -0.7362207 0.47642967 -2.3792775 3.7356408 -1.1014065 1.9585906 -1.0281786 -1.1469235 -2.1431267 4.064828 -3.6631262 5.398027 -0.003808032 0.42645454 -0.62206733 1.941928 1.9727584 1.4969902 -0.3323202 -4.1368313 2.4585717 2.358518 4.633959 -0.70257014 0.3109989 -0.8211406 -1.9600292 0.8939566 -1.980134 0.7784424 0.5068115 -0.23528613 -0.2868939 -2.2610285 -1.0601658 -2.1405795 0.89980966 -2.0013015 -3.3768234 -1.0660511 -0.05138441 -0.8285383 1.5739998 2.2799885 -2.974557 0.013843685 -3.0875015 2.2341976 4.6422653 -2.5172925 0.36132076 3.0270045 0.93836915
C26H52NO7P+H+ -0.532086 -1.3394201 -1.4527404 1.6339114 0.5754243 -0.5348811 0.7541716 1.7007614 -2.8471131 -0.013720914 0.8673314 0.88876957 -0.14208852 -0.1017089 2.3581898 1.3024669 -0.041833043 -1.0759016 0.17112999 -0.58137834 -1.0772537 -0.7964758 -1.8284695 2.0779915 -0.1578215 0.34228516 1.7913159 -0.7593326 -0.4287662 0.18059321 -0.40295836 -0.9093535 -0.2899496 -0.70380765 -0.1859546 -0.20706154 0.65564835 -1.377518 -0.8379466 0.40131584 1.8029373 1.2780125 -0.5658465 0.06593981 0.6070157 -1.0169164 -1.9615818 -2.2969837 1.3155917 1.3102894 1.167404 1.2473235 0.7299095 0.6509328 -1.1850653 0.47043073 2.3190286 2.0462973 3.1458242 -1.85657 1.3745788 -1.2899569 2.3884141 -0.812177 0.60821915 -1.5908014 -1.6104931 -0.5714059 0.020692956 -0.6652075 0.81548584 -0.40856805 0.04615825 -1.0530999 0.8246771 0.030775761 1.1788672 0.03741478 -0.14609241 0.6832512 0.9411238 -1.128412 0.6704254 -0.41203105 2.1240232 0.59516406 1.1881781 -0.3223889 -2.2629426 1.1219779 0.26111597 -0.2787163 -0.4133056 0.41944507 -0.8412243 0.04996762 0.58790255 0.37175196 -0.32900816 -0.59213454
C24H50NO7P+K+ 5.3195586 2.03383 1.3461283 0.96370727 1.1815281 -0.78489685 -3.3292117 -0.8513196 1.2273891 -3.429994 -1.2361523 0.042913247 -1.8315959 1.2887268 1.8615179 -0.6412601 0.8454427 -0.65114844 -2.791842 0.6663007 1.0709759 -4.1402617 3.134154 -1.8012508 -0.09264272 -0.65165305 1.588692 1.4907924 0.9112666 0.7652039 -0.84953475 -2.9713054 -0.5695289 3.224196 1.866951 2.1290488 0.47014326 -1.8806736 2.0151966 -0.44392982 0.45454615 3.5974116 -0.15788667 -0.76624566 1.0795017 -0.30326268 3.1461194 0.6648149 3.1275082 0.2690502 0.400692 -2.4748616 -0.5378025 3.1708124 -1.2469245 -2.7482085 1.2176032 -2.761849 1.2956789 2.197611 3.7704847 0.62567997 -0.20190194 -1.5938972 -3.9228215 -0.18288566 -1.484108 0.5477735 0.99521416 0.6155692 3.1683345 -0.69560415 -1.415843 -3.3440914 0.83442384 -0.6847661 -0.92563266 0.088915564 -3.157288 0.60333294 -1.9049659 -3.0758843 2.5986912 1.6900971 -3.6934123 2.201439 -0.9498479 1.2278247 0.27758047 -3.3258748 2.2215197 -0.5877306 1.1305642 -1.5317565 0.07199006 3.047144 0.1786892 0.34735325 -1.5061873 -1.4932995
C10H16N5O13P3+H+ 2.8554926 1.1806211 -1.6967953 -0.94485116 1.2378229 -0.049915083 0.38829142 -3.3677318 -0.25204572 -1.8149354 0.045444023 1.3102379 -0.47591093 -2.0561023 -1.3206625 0.5667202 -0.62086934 -0.204826 -0.8579519 1.3372997 2.1622586 2.3341105 -0.060375717 -0.39155912 0.46808264 0.9338604 0.075768195 -1.780827 -1.0455128 -0.5823848 0.12573619 -1.5885369 0.36084414 -0.0068058115 1.2224079 0.55276585 -0.88045764 -1.3318146 1.7233287 -0.82844734 0.17367055 -0.44542098 2.6087482 0.7845349 0.023871997 -0.31787977 1.0360137 -0.78648394 -1.1598477 -0.51566535 0.15687515 -0.8416517 -0.5857233 -0.57589114 -0.8866795 -1.8910974 1.4543207 -1.918909 1.8878595 -1.3859665 0.853146 1.0238012 -0.44135204 0.6927745 0.35331735 0.4778953 -0.7956606 -0.43157813 -0.483655 2.000896 2.3602471 -0.03373991 0.06563127 -1.059622 -0.8136148 0.4925501 -0.44233066 0.21316905 0.33308125 0.70346105 0.87787104 -0.012723235 -1.000676 2.0012445 -1.755829 -2.121531 -1.2895682 -0.31697592 0.1244652 -0.5479774 -0.1486292 -3.281151 0.22969802 0.44137222 1.1449748 0.80093557 -0.6684111 -2.849445 0.9386979 -2.0296798
C9H14N4O3+H+ -0.20514493 -0.5536727 -0.8267728 -1.8587565 -1.2099632 -0.25611612 1.7508681 -3.369054 -3.1939232 -1.7375745 -1.9067166 3.1381588 -0.16789535 -0.08286069 0.9007864 2.2337697 -0.6444438 -3.912468 1.3518926 -2.0958023 2.8149254 1.982312 -2.3211248 1.7233417 2.0610466 1.4472739 1.3195972 -3.7742264 0.17880233 3.7323444 -1.0448196 0.9693829 0.81845576 -0.5178766 1.3518697 -0.041801754 0.14419405 -0.78334695 -1.201131 -1.7362332 2.834161 -0.07457446 0.87679833 2.8655207 -1.1771462 -0.4019289 -2.8770766 -2.2391772 -0.35020766 -1.792378 -1.3480251 0.077946655 -3.3516214 -3.7298985 0.22313574 -0.20984007 -1.540644 1.1572902 4.605564 -2.2625067 -2.7416565 -0.3308544 1.2315949 -1.7817363 0.8430531 0.9385933 -4.7163 0.57833135 0.74639666 1.711754 0.74608845 -2.2461355 2.3705559 -1.1267084 2.2069445 1.0583931 -2.059985 2.0958054 1.1170876 -2.2602065 0.8733688 2.6329343 -2.2589788 2.3090935 -0.43625546 -2.0961876 -1.78259 -0.5094199 -0.31246367 -0.16894613 -1.5874817 -1.5641071 -1.9625565 -1.8455594 -0.5099802 0.0045048376 -2.2599695 -5.5351925 1.9377471 -2.8532696
C23H45NO4+H+ -2.8968472 -0.5890896 -2.636192 0.604075 -1.232921 1.0956663 2.2383761 1.2671324 -0.54245645 3.3159328 1.2120267 -2.2255588 0.08587495 0.23812474 0.528043 0.6135565 -0.09606207 -2.1820374 1.865099 -0.8309481 1.1799674 0.06191044 -1.2500443 1.6949927 -0.60700065 1.1249235 -0.64974135 -1.0472648 -1.3928984 1.5154804 0.039656468 3.2057974 -0.15405731 -4.280473 -1.0345887 -0.79651576 2.2255695 -0.17107831 -1.8318745 1.8475559 0.5625187 -1.9706951 0.66888386 0.67450625 -1.9909941 -0.22552912 -1.293203 -1.5015888 -2.5625231 1.0461507 -1.9940962 0.045031145 -0.1298108 -3.169584 2.2952745 0.8055026 -0.81536937 2.5743077 1.4558781 -1.3784049 -3.8406677 0.84085095 1.1583644 0.23791583 3.4928384 0.4188767 -0.7415796 -0.86453 0.29362935 0.46837345 -0.80387145 -0.008564546 -1.6375977 2.8223038 0.07362393 -0.37779218 0.6075247 1.7977417 0.8236515 -0.73741066 1.0932909 4.0338745 -2.0126665 -0.041130163 2.3066459 -3.1200564 0.9715604 -2.093589 0.24368632 1.86554 0.21378215 0.87385195 -0.53327465 -0.5656595 -0.46969563 -1.4501487 -1.2819961 1.4550322 2.020173 1.1673937
C11H21NO5+H+ 1.3068217 -0.14069599 -0.70610803 -0.9117238 2.3470213 -2.1863127 0.82423145 -1.160538 -1.7210643 1.3925902 0.8328461 1.9528984 -1.1740727 -0.18709117 0.96524245 -1.0106872 0.3745694 -1.5692174 1.4961344 0.4396485 0.9039628 0.006678061 0.6109331 -0.34699106 -0.022350425 -0.7850795 0.75892943 -1.629962 -2.3557513 -1.8958875 0.25418174 0.03170615 0.2815848 0.6967877 0.837448 0.06313971 -1.7281518 -0.11766392 -0.13647181 1.0519187 1.5667233 -0.08863655 -1.2608526 1.8188452 -0.16555683 0.38159907 -0.5622533 -0.345549 1.1453166 -1.0855981 0.7673217 0.99852294 -2.0575275 -2.037609 -0.8797894 -0.03553918 3.2856197 -0.75095433 -0.3937309 -1.4436218 0.4824955 -1.0516057 0.015808677 -0.08126381 -0.6982119 -0.54138136 0.03228131 -0.50894207 0.38064048 0.49590948 0.5277173 -0.6856548 -0.73731965 -1.9164501 -0.20222405 1.4601809 1.01432 1.1396652 2.2113929 0.6924613 -1.8756396 -1.4518601 -1.995634 -0.39730573 -0.17084274 -0.82567346 -0.9148742 -0.40951964 -0.34080076 0.014488042 -0.97490853 -0.9511534 -0.22356214 1.235379 0.16347727 1.9177841 -0.9636368 0.94845897 1.8646308 -1.2717056
C9H15N3O2+H+ 1.3407892 1.6043223 -4.6841908 -3.200863 0.2172228 -0.63637984 1.2848059 -3.9121995 -0.54489183 -1.3061575 -0.6330787 -1.3710997 -0.11672443 -3.5812025 -1.8320667 3.8972497 0.65517807 1.3224511 -0.65799797 -0.36731908 1.5556566 3.9861434 -1.9170084 -0.54003376 3.0585606 0.7619073 -2.0661879 0.16925211 -0.45447767 0.4827179 0.78919613 -0.32196805 1.7609574 -0.2510759 1.0490332 0.09704046 -3.154914 -0.45402992 0.93652827 0.009512906 0.10965763 0.46017864 4.021413 -0.024607792 2.3209128 -2.414977 1.2142682 0.09811524 -0.8978625 -1.8611603 1.171496 0.02502108 -0.6735321 0.82192564 -0.25828296 0.0033039637 3.612151 -2.1783142 1.5413566 0.065944105 0.40904677 1.4113808 -1.5004102 0.6329472 -2.5193768 1.2649852 -0.8591423 0.60354406 0.6363797 0.6181793 0.9901774 1.0313895 -1.2743053 -1.0348172 1.2723691 0.2550861 0.513739 1.0577312 -0.70513767 -0.13645823 -0.09603667 -1.2837963 -2.6388485 2.2204607 -5.335216 -1.6507514 -0.22488797 0.56851375 -0.089198835 -1.057386 0.94482124 -1.3225532 -0.041204363 0.1770945 -0.9043099 1.0227584 -0.8597358 -0.5508942 1.6897737 -1.4802312
C6H12O6+K+ -4.5428605 -5.350624 -0.541844 0.669289 -2.1245487 3.0925972 2.3965874 1.1614703 -1.9977105 2.9395542 -2.6217184 -2.826382 0.78002995 -2.914304 1.7417214 2.910842 1.7844623 -0.070697695 0.41024986 -3.6648722 -1.8714788 2.666106 -2.6202 1.1286846 -0.9606123 0.6193394 -0.20526153 1.2977399 -2.0484204 2.5897324 -0.46372056 3.261217 1.281008 -1.6221514 -0.6640906 -3.0693111 1.9390118 2.3808331 -2.358438 0.61234117 -4.052431 -3.563343 -1.3412093 -0.032714814 -0.4406447 2.0588803 -2.6072628 1.3626466 -4.373254 4.4465775 1.3727324 1.222258 0.719044 -2.136059 1.3530979 0.8551902 -4.8907976 1.7474974 -4.9633045 3.3571193 -1.5471879 0.0549207 -0.27424905 3.3182516 3.8577282 1.4581761 2.3578103 -1.2884358 -0.72379845 -3.3308318 -0.37239888 0.74168277 -0.118682235 2.8999279 -0.7565247 -2.11572 0.3546147 0.63010556 -0.960665 -0.5032785 2.3889668 1.6359307 0.99000996 -4.4589243 3.0481434 0.562414 2.3390532 0.5621186 1.6233248 -3.7717063 -1.3051299 -0.5598365 -0.5090054 0.38594198 -1.390168 -1.8802849 0.39560604 0.24656908 -3.5307858 2.9836636
C28H33O14+Na+ -2.1725695 1.0570848 3.1685612 -0.89521253 -2.839786 4.306613 3.0410304 2.6793761 1.8130839 3.201413 -0.4295872 -3.5333579 1.2301301 0.9635809 -1.8219377 -2.8760228 1.0975454 -2.678349 1.0775002 2.916435 -2.8386476 0.35076967 0.16415367 0.11287465 -2.1596243 0.9246226 -1.7643366 0.9294348 -0.355565 4.243915 1.477693 1.8083161 1.2798129 0.17003927 -0.2980742 -1.7891421 2.9087005 2.9134762 1.0212159 -2.328721 0.099061616 -4.7144446 3.9775743 -3.1872554 -4.2650137 1.9231386 -4.1947346 2.6464903 1.641892 0.49647662 -0.09107488 1.0212969 2.955186 -0.38745612 1.2184086 0.80955076 -4.2376027 1.5746073 -2.581602 4.03967 0.7922846 1.051383 -0.6057694 5.587185 3.7749386 1.4143925 4.7236466 -0.6643432 -2.4264073 0.10528881 -0.6072828 2.154689 0.17364678 1.8467263 -3.778447 2.6547527 1.3036793 -0.016849494 -0.17649989 0.50520426 1.2552156 2.102022 3.0068893 -2.2657526 2.513914 2.0439422 1.5556655 0.8876057 1.1142895 -1.9372324 -0.97176445 0.16889396 0.01565316 4.4337606 -1.0284834 -2.783439 0.8199204 1.4742781 -5.0883565 0.868063
C21H22O5+H+ -0.27493954 2.449899 -0.56380093 -3.092232 2.4417758 -2.651621 0.10519404 1.1833026 1.1689042 1.2377901 -0.6347026 2.0861228 4.5190864 -2.7491388 -1.0584372 0.15410274 -2.8430586 -1.7613796 -0.6135964 -2.8213184 1.8412137 -1.8123294 -0.22839427 0.043437578 0.7033391 -0.667674 -1.9606962 1.9162751 0.28305078 -0.91880304 -0.29695833 -2.9730806 2.0585928 0.19980069 2.832894 -2.6319442 -2.5534074 -0.97195643 -0.66623294 1.274094 -1.3851682 0.12499487 2.9682198 0.7978618 2.6642714 1.2611177 -1.3629731 0.63418937 -0.088470116 -2.2658265 -0.699677 1.0845976 -1.4444497 0.419843 0.12163666 1.0046512 -0.8981378 2.2393847 1.2583436 -2.6107318 -1.561221 0.8549667 -2.287688 -2.8061569 1.698218 1.2333086 -0.86378497 1.2300189 -0.5063911 -0.38491076 0.46344042 0.987611 -1.826955 0.40821722 2.300925 0.94699603 0.014509629 -2.0719604 0.9871755 -2.2323148 -1.1667347 -1.7378483 -0.33016405 1.1438066 -2.5859628 -0.36620295 0.9046128 -2.706196 -1.1302779 1.2831451 -1.4940265 -0.29488307 -0.82551146 1.5739388 -0.53499717 -0.9062858 0.35403764 -2.6531687 1.7918956 -1.1410711
C25H49NO4+H+ 1.6093673 2.3431418 2.2395997 0.64638996 0.10579281 0.97930425 1.6796302 1.566719 0.5400244 -1.1094056 -0.43986255 -1.7580732 0.14238416 1.1999702 -2.8305042 -1.125731 0.25184858 -2.062681 0.7909917 -2.8412373 0.37833706 -3.2934847 -0.8610123 -3.6413546 1.1208808 -0.74281967 0.89216614 2.9958444 -0.8464186 3.9143643 -2.2285376 -3.553475 0.63131046 1.75258 -1.7995489 1.1988786 -0.589743 -0.94717836 0.15172511 -3.1400425 -1.4458319 2.219458 2.940481 -2.3811831 0.97776127 -0.6443279 -1.0041983 1.6050001 3.1212478 0.25121233 3.4702497 -0.990673 -0.9493771 2.425329 0.7271477 -2.827414 -0.90500504 0.73797303 -1.8933657 1.5195647 -0.8080533 1.2536591 -1.9590267 0.45786506 -1.578996 -0.4043604 3.4919362 1.3884412 -0.53924716 -0.6788942 0.779889 -0.20984817 1.4703364 -0.27454445 -0.043590445 -1.2036107 -2.2668931 -2.876161 -4.0807295 1.6776301 -1.6236897 2.2626898 1.3481264 -0.12327127 -2.8148754 -1.1453573 -3.259767 0.5403937 1.2324005 0.12771142 0.105581954 -1.1085981 -0.09585521 2.6338224 -4.184961 0.1904049 -0.29141432 1.3346297 -1.608924 -1.5680687
C26H30O12+Na+ -0.80202967 -0.95575184 3.2158086 3.5128694 -3.7991514 1.105186 -2.2106562 2.9020777 6.4428153 1.1152443 2.638562 -1.4241341 1.6331158 1.5112181 2.6793888 -2.0921674 -2.058885 6.7359953 -0.20131929 5.567898 -1.9049484 0.836575 -1.9836295 -2.3183734 -1.143635 0.180467 -1.2542698 3.4633887 4.9755216 -2.5753744 1.876617 0.38308746 -1.650114 -1.4286423 0.0068155574 3.497632 5.2217436 2.401443 0.049262226 -0.82422495 -1.9137439 -0.87241805 -2.9947631 0.12528312 -0.016149046 0.66294056 3.4788644 2.0293684 -1.6434629 3.9060657 -3.9392664 2.2555714 1.8367226 4.900299 1.0645851 4.684575 -5.13514 -0.3179116 -1.1387783 1.3276086 2.2429748 0.67193025 -0.86098367 1.2265068 -4.19026 0.08412064 2.1010735 -0.24715546 -0.54677933 -1.8520666 -2.1376603 3.271432 1.4825587 0.018852947 0.09849075 -1.0325814 -2.062126 2.5616846 -0.33651122 3.0847754 2.5753133 -3.0850222 5.065177 1.864151 6.169784 5.970519 0.40368894 0.3257871 0.120238945 1.0507748 0.1842541 5.5209684 3.5069554 0.8007896 -0.010404639 -2.8123438 2.3411481 4.824265 1.1710771 3.0043619
C25H47NO4+H+ 0.6128082 -0.5757056 0.42417687 -1.1850262 -0.07706117 -2.2407048 -3.5125854 -1.7477032 1.6511039 -1.5460085 -1.3467077 0.95892006 -1.1270145 1.0611829 5.236699 -2.1052473 0.5903164 1.5238355 -2.628889 4.7897544 0.6616788 0.36545286 2.9316378 -1.5837511 -1.0756887 -1.8755795 0.72318524 0.11348011 2.129493 -1.460149 1.6360303 3.2336125 -1.2954714 0.50569314 1.8287868 0.847653 2.4160156 3.2835817 0.62760377 1.9611713 -0.27505416 1.4498793 -4.5954757 1.0647416 0.7603789 1.172699 3.1475687 2.2591872 -0.7862346 0.66882426 -4.043084 -0.14339174 0.8979041 1.511495 -1.1194955 2.4161084 2.0637448 -2.7922997 -0.7871297 1.699976 3.9485145 -0.26830405 1.3150282 -1.7020806 -2.445256 -0.34607497 -3.3074222 0.9851735 2.2352514 0.47932997 -0.22484913 2.0570455 -0.7297801 -1.7631625 2.3799229 0.34636274 -1.744758 2.9575179 0.21680875 0.083728164 -0.84738237 -1.5732532 0.8636432 0.6936988 1.0921237 5.095921 3.1973474 2.6004243 -1.3556088 -4.30428 -0.09270992 1.1702237 1.032455 -2.2313643 1.2153785 3.2785103 -0.1944528 1.4262127 0.20862934 2.6244245
C12H22O11+Na+ -3.7556274 -2.710855 -4.222877 3.8075292 -3.5922654 2.1971161 1.5346599 3.5333805 3.648766 3.8433213 4.1803784 -0.71632874 -3.4585857 0.47453287 7.501362 -6.130702 6.835422 1.1660101 2.1002684 10.384711 -2.6941621 -1.9130031 1.5410738 -4.6568823 0.18295574 2.3774683 -1.0789441 -2.3720639 -0.41442195 5.374812 6.8227286 4.154287 -0.20881122 -2.8743029 -7.319066 5.7218833 10.83789 3.9062245 2.982874 4.6452003 -2.0924318 -7.1110897 1.1664811 -5.5229406 -2.762983 1.7909875 -5.667033 4.8519897 4.760395 0.40443137 -3.713272 6.6978087 -2.5946238 -1.8917758 2.6584518 9.337656 -1.8933591 -2.4926658 -1.0094389 5.9339914 1.501037 3.5494485 5.664955 4.245886 3.4347074 1.2903677 -2.2456155 0.4772184 0.018547075 1.0691895 -3.2153373 3.3796313 -0.45134383 3.6954687 2.5525732 2.9247837 0.92006373 6.36484 3.838199 2.449894 -4.579185 -0.2365433 3.3269355 -2.093301 6.532234 2.8182454 5.6698728 -2.4764729 -5.3054204 -0.9985434 -1.9445744 4.244085 4.458905 2.13768 -1.0641294 0.58852386 -4.484181 6.271191 5.730825 6.845365
C21H36O3+H+ -0.66948575 2.6781776 0.93478715 -3.108425 0.9867645 -0.6778264 0.7194251 -2.4972253 0.99029124 0.4474179 0.32999733 -1.6349953 0.5221117 -1.6012454 -6.139938 1.6268137 -1.4497526 2.3660998 1.6922414 0.2776877 4.783135 5.7402754 0.1543193 0.98118293 -1.3207685 -0.30753505 -0.9863165 -0.6878455 -1.2332861 -4.1770225 1.343363 4.290541 -0.33469462 0.15264153 0.69961226 -1.8210037 -1.7171452 1.6609352 -0.9318585 0.040385313 -0.5586345 -1.7214963 -0.7497059 0.0642298 0.1306491 1.0692888 3.68886 -1.8356969 -6.3240256 -2.5297704 -0.9749979 -0.42754403 2.2458174 -2.9228213 0.4656591 -0.14440906 3.7456546 -3.2571044 -2.9551435 -0.96425503 -0.18984874 -1.4477948 -3.7572079 -0.23275751 0.53819853 0.21839637 2.2888863 0.68566394 -1.7254564 -0.29984888 -1.465426 0.6717057 -1.9582722 3.0955493 -2.8324587 -1.9899391 -1.7251594 0.8238681 0.6871465 -0.79872715 2.6152635 1.0950359 -3.772041 0.015106851 -3.378694 -3.440113 0.25917494 0.5112132 2.454947 -2.227818 -1.669749 0.5859174 1.3668426 -2.2773154 1.7634441 0.35106817 -0.44602308 -1.2484858 2.8452601 -0.60776025
C13H13N3+H+ -2.1911252 0.5095684 -3.2599587 -0.29503492 3.3514001 -0.18329635 2.0557482 -6.300341 -2.7837636 -2.0910954 2.6799793 0.61814445 0.77421904 -0.2557084 1.3043247 4.606522 1.6150223 3.006086 -0.4053544 -1.8026484 3.31254 -0.97764355 -1.9102587 1.0027701 1.7190158 -1.1584717 -0.31567535 0.37098885 -1.3745269 1.6480966 -3.931572 -1.1273363 0.119798854 0.07891263 -2.583526 2.0450864 -2.3996947 -4.59639 -1.656402 1.495378 -1.0466671 1.2370456 2.0018256 -0.5112705 -0.31776875 -2.949815 -2.22719 -2.1010115 -0.2527379 1.794774 2.9588203 1.4519019 -0.50601745 -2.1423733 -3.0913172 -1.6971312 2.1564307 0.39581922 1.6297655 -2.6934967 1.6214895 1.5742325 1.1526539 -1.0205365 -1.0053097 0.50832915 -3.157708 -1.487233 0.50933343 1.2875049 1.7513272 -1.7037545 0.60031146 -0.16598648 -0.5227308 -1.5484055 0.70527124 -1.8019526 -0.26396406 -0.5136868 1.4008536 -2.0243132 -2.0482867 -3.2589524 -3.3098662 -3.2308664 1.5174824 -2.294908 -3.4378977 -2.2073746 0.15724441 -3.1548328 -0.17035247 -0.7880553 1.7999934 3.346549 0.29554802 -2.089042 0.17129633 0.40502667
C12H22O11+K+ -2.5000548 -8.862278 -1.2793798 16.111477 2.8056176 17.11638 -5.261486 -15.479282 15.503504 -13.415979 12.05209 -2.5138357 -2.6984038 28.905888 3.1379366 3.0173204 -14.110397 34.99404 -14.163384 25.096338 4.437715 -1.4257796 4.743785 11.444114 -4.901982 -14.01848 -10.9634285 -4.868673 2.2643306 8.229321 -22.878407 -2.4870625 -13.994497 -4.881256 -19.062365 29.012941 5.6084323 -9.332396 2.871094 -4.3834333 7.9471397 -29.358192 -0.24297245 2.356059 -29.805557 11.525419 10.79374 -8.519049 -12.962197 12.951391 -3.74456 -10.842274 12.30106 -4.3801465 -12.222198 -3.0246294 -19.550268 -0.9885061 17.605837 -0.500179 2.170435 8.506254 8.666603 12.880697 3.8092194 -2.676956 -13.845789 -16.092184 -5.152473 16.666555 7.2737036 14.006892 19.47395 -22.823671 -1.8539113 -12.519258 7.875763 8.718921 -2.412742 -4.8303194 19.8444 -11.252305 19.87886 -4.444393 2.3387604 12.1397295 -15.513577 -2.5811062 -10.056194 -4.42023 2.4537332 -2.5187013 19.980194 -10.375871 22.461025 6.018919 16.118734 7.495964 -15.481248 18.200048
C15H18O10+Na+ 4.8146935 9.186749 4.0379844 -12.613764 -4.8792753 -15.609451 1.7406276 13.1704035 -12.244699 8.947842 -9.051761 9.273859 7.3014817 -25.8686 1.9991076 -11.643334 5.308436 -27.586792 11.9921665 -16.323124 -4.396208 2.9874597 -3.772995 -19.915731 0.41235214 13.223728 11.222757 5.227318 6.351588 -12.733904 20.065943 -3.045376 3.5936372 2.9654207 18.116543 -22.393496 -3.6795895 4.5541124 3.3751512 1.002239 -0.71731097 35.443684 1.4547598 -6.104444 32.54918 -13.474187 -5.7137547 9.74765 19.249222 -4.329603 -2.9676404 10.414314 -4.2086477 14.956219 12.469946 6.224184 12.899878 1.8280536 -9.744437 -3.1727564 10.660324 -10.138267 -5.648822 -10.128007 -10.60973 -7.4461775 13.6859455 17.97553 3.6588619 -12.242903 -6.144322 -9.902868 -14.079243 14.546925 1.0986327 15.519016 -12.1962185 -13.395722 -2.098055 11.04135 -15.527561 9.852263 -12.251738 17.144709 4.099039 -11.504724 15.793119 5.385321 4.8677907 10.080503 -0.810815 2.4565976 -19.604643 9.327475 -19.24329 -10.944027 -6.748921 -7.098875 9.24129 -13.131855
C35H64O4+H+ 8.90969 2.1216285 3.4263527 4.6526465 -1.8802017 -2.0071774 -3.0336204 -4.93668 -0.6094724 -6.9757295 -0.3065824 3.7851017 -5.03913 -2.1061013 -0.36556995 -4.4212565 4.3164706 -4.2425685 -6.0828066 -1.3267595 5.882395 7.299033 -0.8687709 -1.9833555 -2.224562 4.574777 4.0831227 -0.45204306 5.6494007 7.4491115 -3.821838 0.8395195 1.8384488 1.827173 -1.6746686 5.1363616 1.9062701 -2.877319 4.159318 -2.055255 -4.7555714 -2.1240427 -0.12670127 1.019545 -4.0230913 -6.492041 5.0546503 3.8813555 0.099366285 15.577366 6.3501863 -0.73707384 6.7677007 -0.37245938 0.018214427 -9.602346 -3.0961545 -6.572157 8.719556 2.2539237 6.013108 7.0303802 -3.6683664 4.7425814 1.6819873 -4.508738 -1.703789 -3.6389067 7.3924246 7.152664 10.315027 7.507337 0.96118903 -7.688471 -5.211854 8.011161 2.7249246 0.5275343 -0.8637989 4.633576 11.075746 3.3549678 1.2692306 3.4547741 1.8012676 -2.4178288 -2.5598078 0.580318 -4.8425884 -3.0651128 3.2470975 2.4629397 4.292385 2.2133145 5.609074 1.55326 -4.264943 4.8408823 -1.8206809 -0.031099921
C15H22N2O4+H+ -9.192892 -7.9919653 1.0804256 1.1365741 -6.265642 -0.5304584 1.9522064 3.1998942 -1.7594357 3.963613 3.8212304 6.524195 0.57008207 -3.411065 14.6314535 -14.301106 6.6510944 -2.6635864 2.2679462 4.5522485 -3.2028177 -0.6152597 -1.2147263 -14.942075 -2.8315642 2.731494 2.8797145 1.7071112 9.850787 2.8256202 4.8443055 4.6939216 -3.1891024 -0.03323621 -2.0981188 4.676351 10.421205 1.3712211 6.791469 2.5294476 1.2628976 5.9589467 2.4427185 -13.324819 4.2573943 -3.3789175 -8.056041 9.3413 14.876637 7.794426 -10.37275 11.482649 2.0077932 5.1863647 7.961027 18.947096 -8.663261 0.9057122 -1.4442375 3.3231156 10.11036 0.61651266 5.388619 3.7776968 -1.9825219 -9.844895 1.9938687 3.9120052 2.0117438 -1.8726892 -4.0538135 2.942415 2.2956274 2.1441271 2.9682088 15.973175 2.6345193 -1.3954253 1.2824186 5.907734 -2.4854732 4.9146485 1.8800331 6.632172 12.003541 -0.8053729 13.203804 3.2072418 -5.5084386 3.3068016 0.47360247 10.190327 1.9284403 3.5442905 -3.361661 -4.99429 1.7109677 5.045114 0.49517044 10.14631
C18H32O16+K+ -6.852877 -4.4899335 3.2035353 -3.4863591 -3.6224782 7.279587 4.1708317 0.2020548 -4.250123 2.6214786 -8.069659 -17.26371 -2.4161997 2.4743915 -17.289791 24.49543 -2.0699174 0.38223985 2.3315167 -17.85688 -0.103732534 5.223002 -9.238481 19.640572 3.409289 -2.2207966 -4.555602 3.5968287 -7.82575 7.6655545 -6.759484 7.7314677 12.616796 1.4977213 0.7149915 -10.945363 -6.357687 7.2781715 -14.8206415 -6.194379 -8.187764 -12.747258 -3.864883 9.71803 -7.9388323 5.3598156 1.1144048 -3.2744677 -22.325144 -7.075112 12.064408 -8.2281685 -3.1845834 -11.48684 -1.2775077 -10.800096 -2.0169287 5.227166 -11.8081455 5.796929 -21.378258 0.50967085 -8.295534 0.91374314 10.587006 14.535014 3.7936444 -5.8914394 -2.2455182 -6.906828 -2.6708367 -3.0038579 -1.1553129 4.766761 -1.7402929 -14.110726 1.9689981 5.228681 -2.8061788 -11.958345 7.372985 6.0008273 -3.064025 -17.617304 -9.383373 2.9088275 -8.941043 0.57168996 12.270052 -11.892511 -3.8732262 2.4577618 -1.2656503 -1.9627146 -2.6706338 0.34628922 -0.778098 -1.8978971 -6.173169 -4.9320526
C29H40N8O5+H+ -2.6293745 3.4020336 -1.624044 -6.0711994 4.5372825 -7.7987304 1.5986729 -2.975796 -3.9673753 2.0971344 -5.1991735 2.9445732 6.4323297 -8.432297 1.8011589 0.24698913 1.3939883 -3.0525906 -0.58519775 -8.466016 5.5494776 7.8162303 -3.3477967 -4.1661596 -0.6145248 3.659475 2.751311 0.9575582 -3.6995168 -3.8477802 2.065238 1.4080248 -0.9046787 -2.5628393 3.544977 -9.763947 -1.0612803 1.5148221 -3.6566882 1.9003266 -1.6326131 8.266831 -0.9915453 1.4424306 11.569313 -6.670565 0.2577321 -5.056787 1.4413292 1.4801959 1.5799087 4.4996724 2.1883993 2.1136572 -1.4655018 -2.2109773 9.045406 0.4578394 -1.1613656 -6.0259223 1.7898836 -11.283243 1.0069208 -5.8055763 -3.2782295 -5.7163363 0.9051943 6.448264 0.51729935 -4.1126614 3.4450455 0.6265494 -5.978384 3.5699635 -0.03808029 -3.7585814 -3.4471424 -9.247981 -0.57101613 0.2526856 1.8851495 1.8041787 -8.212347 6.9688215 -3.8575778 -7.2460594 9.986242 3.3208117 -1.6050037 3.140659 0.13722806 -4.480512 -8.98531 -7.7488523 0.814039 -1.7003974 -4.6677394 -7.148422 6.7667437 -5.712877
